svm_type c_svc
kernel_type linear
nr_class 2
total_sv 1473
rho 2.86336
label 0 1
nr_sv 44 1429
SV
4.909578286788832 1:-0.304348 2:-0.518519 3:1 4:-0.919192 5:-0.604938 6:-0.968545 7:-0.858712 8:-0.854545 9:-0.988115 10:-0.843137 11:-0.967056 12:-0.764706 13:-0.870435 14:-1 15:-0.22051 16:-1 17:-0.22051 18:-0.764706 19:-0.545455 20:-0.714286 21:-0.555556 22:-0.675676 23:-0.714286 24:-1 25:-0.636364 
0.6540470115191725 1:-0.478261 2:-0.5 3:1 4:-0.838384 5:-0.432099 6:-0.977798 7:-0.867449 8:-0.927273 9:-0.996114 10:-0.803922 11:-0.96015 12:-0.882353 13:-0.870435 14:-1 15:0.0393206 16:-1 17:0.0393206 18:-0.764706 19:-0.545455 20:-0.809524 21:-0.777778 22:-0.675676 23:-0.571429 24:-1 25:-0.5 
1.97815759041824 1:-0.217391 2:-0.203704 3:-1 4:-0.59596 5:-0.407407 6:-0.969531 7:-0.859643 8:-0.309091 9:-0.996336 10:-0.921569 11:-0.966999 12:-1 13:-0.870523 14:-0.5 15:0.999999 16:-0.947368 17:0.60453 18:-0.529412 19:-0.363636 20:-0.904762 21:-0.555556 22:-0.405405 23:-0.428571 24:-1 25:-0.113636 
8.165454105883542 1:-0.217391 2:-0.203704 3:-1 4:-0.59596 5:-0.407407 6:-0.969531 7:-0.859643 8:-0.309091 9:-0.996336 10:-0.921569 11:-0.966999 12:-1 13:-0.870523 14:-0.5 15:0.999999 16:-0.947368 17:0.60453 18:-0.529412 19:-0.363636 20:-0.904762 21:-0.555556 22:-0.405405 23:-0.428571 24:-1 25:-0.113636 
10.29458469961311 1:-0.130435 2:-0.388889 3:-1 4:-0.414141 5:-0.925926 6:-0.978951 7:-0.853078 8:-0.818182 9:-0.978951 10:-0.921569 11:-0.964881 12:-0.764706 13:-0.857184 14:-1 15:0.389745 16:-0.947368 17:-0.0840987 18:-1 19:-0.818182 20:-0.714286 21:-0.333333 22:-0.675676 23:-0.714286 24:-1 25:-0.477273 
4.576960983113962 1:-0.304348 2:-0.518519 3:1 4:-0.919192 5:-0.604938 6:-0.968545 7:-0.858712 8:-0.854545 9:-0.988115 10:-0.843137 11:-0.967056 12:-0.764706 13:-0.870435 14:-1 15:-0.22051 16:-1 17:-0.22051 18:-0.764706 19:-0.545455 20:-0.714286 21:-0.555556 22:-0.675676 23:-0.714286 24:-1 25:-0.636364 
25.92698537912917 1:-0.478261 2:-0.703704 3:1 4:-0.919192 5:-0.62963 6:-0.954346 7:-0.845306 8:-0.963636 9:-0.975162 10:-0.686275 11:-0.975288 12:-0.764706 13:-0.857184 14:-1 15:0.389745 16:-1 17:0.266326 18:-0.921569 19:-0.818182 20:-0.904762 21:-1 22:-0.72973 23:-0.571429 24:-1 25:-0.636364 
9.928900703317611 1:-0.478261 2:-0.5 3:1 4:-0.838384 5:-0.432099 6:-0.977798 7:-0.867449 8:-0.927273 9:-0.996114 10:-0.803922 11:-0.96015 12:-0.882353 13:-0.870435 14:-1 15:0.0393206 16:-1 17:0.0393206 18:-0.764706 19:-0.545455 20:-0.809524 21:-0.777778 22:-0.675676 23:-0.571429 24:-1 25:-0.5 
19.78221527889388 1:-0.391304 2:-0.574074 3:1 4:-0.838384 5:-0.45679 6:-0.974254 7:-0.864102 8:-0.927273 9:-0.987951 10:-0.764706 11:-0.96015 12:-0.882353 13:-0.870435 14:-1 15:-0.22051 16:-1 17:0.0393206 18:-0.803922 19:-0.636364 20:-0.809524 21:-0.777778 22:-0.675676 23:-0.714286 24:-1 25:-0.522727 
0.7146900990373567 1:-0.217391 2:-0.648148 3:-1 4:-0.757576 5:-0.728395 6:-0.97423 7:-0.857437 8:-0.854545 9:-0.995046 10:-0.803922 11:-0.978995 12:-0.647059 13:-0.857184 14:-1 15:0.389745 16:-0.947368 17:-0.0840987 18:-0.921569 19:-0.818182 20:-0.904762 21:-0.555556 22:-0.675676 23:-0.571429 24:-1 25:-0.727273 
60.06879929906225 1:-0.478261 2:-0.703704 3:1 4:-0.919192 5:-0.62963 6:-0.954346 7:-0.845306 8:-0.963636 9:-0.975162 10:-0.686275 11:-0.975288 12:-0.764706 13:-0.857184 14:-1 15:0.389745 16:-1 17:0.266326 18:-0.921569 19:-0.818182 20:-0.904762 21:-1 22:-0.72973 23:-0.571429 24:-1 25:-0.636364 
4.113989424130911 1:-0.217391 2:-0.648148 3:-1 4:-0.757576 5:-0.728395 6:-0.97423 7:-0.857437 8:-0.854545 9:-0.995046 10:-0.803922 11:-0.978995 12:-0.647059 13:-0.857184 14:-1 15:0.389745 16:-0.947368 17:-0.0840987 18:-0.921569 19:-0.818182 20:-0.904762 21:-0.555556 22:-0.675676 23:-0.571429 24:-1 25:-0.727273 
10.71738634870736 1:-0.217391 2:-0.203704 3:-1 4:-0.59596 5:-0.407407 6:-0.969531 7:-0.859643 8:-0.309091 9:-0.996336 10:-0.921569 11:-0.966999 12:-1 13:-0.870523 14:-0.5 15:0.999999 16:-0.947368 17:0.60453 18:-0.529412 19:-0.363636 20:-0.904762 21:-0.555556 22:-0.405405 23:-0.428571 24:-1 25:-0.113636 
78.66024516161183 1:-0.304348 2:-0.518519 3:1 4:-0.919192 5:-0.604938 6:-0.968545 7:-0.858712 8:-0.854545 9:-0.988115 10:-0.843137 11:-0.967056 12:-0.764706 13:-0.870435 14:-1 15:-0.22051 16:-1 17:-0.22051 18:-0.764706 19:-0.545455 20:-0.714286 21:-0.555556 22:-0.675676 23:-0.714286 24:-1 25:-0.636364 
9.554198708205908 1:-0.565217 2:-0.574074 3:-1 4:-0.575758 5:-0.950617 6:-0.996336 7:-0.884952 8:-0.236364 9:-0.996336 10:-0.921569 11:-0.982125 12:-0.882353 13:-0.861464 14:-0.833333 15:-3.53027e-07 16:-0.789474 17:-0.350425 18:-0.882353 19:-0.636364 20:-0.809524 21:-1 22:-0.621622 23:-0.714286 24:-1 25:-0.272727 
29.12225649912431 1:-0.478261 2:-0.722222 3:-1 4:-0.737374 5:-0.925926 6:-0.996418 7:-0.878386 8:-0.709091 9:-0.996418 10:-0.882353 11:-0.980007 12:-0.647059 13:-0.857184 14:-1 15:-3.53027e-07 16:-0.736842 17:-0.350425 18:-0.960784 19:-0.818182 20:-0.904762 21:-0.777778 22:-0.783784 23:-0.857143 24:-1 25:-0.659091 
1.803090864566144 1:-0.826087 2:-0.796296 3:-1 4:-0.89899 5:-0.82716 6:-0.976534 7:-0.866256 8:-0.818182 9:-0.976534 10:-0.803922 11:-0.9763 12:-0.764706 13:-0.857184 14:-1 15:-3.53027e-07 16:-0.789474 18:-0.960784 19:-0.818182 20:-0.809524 21:-1 22:-0.783784 23:-0.857143 24:-1 25:-0.568182 
35.43763244535569 1:-0.478261 2:-0.5 3:1 4:-0.838384 5:-0.432099 6:-0.977798 7:-0.867449 8:-0.927273 9:-0.996114 10:-0.803922 11:-0.96015 12:-0.882353 13:-0.870435 14:-1 15:0.0393206 16:-1 17:0.0393206 18:-0.764706 19:-0.545455 20:-0.809524 21:-0.777778 22:-0.675676 23:-0.571429 24:-1 25:-0.5 
25.80486988351585 1:-0.130435 2:-0.388889 3:-1 4:-0.414141 5:-0.925926 6:-0.978951 7:-0.853078 8:-0.818182 9:-0.978951 10:-0.921569 11:-0.964881 12:-0.764706 13:-0.857184 14:-1 15:0.389745 16:-0.947368 17:-0.0840987 18:-1 19:-0.818182 20:-0.714286 21:-0.333333 22:-0.675676 23:-0.714286 24:-1 25:-0.477273 
30.79393307666087 1:-0.130435 2:-0.388889 3:-1 4:-0.414141 5:-0.925926 6:-0.978951 7:-0.853078 8:-0.818182 9:-0.978951 10:-0.921569 11:-0.964881 12:-0.764706 13:-0.857184 14:-1 15:0.389745 16:-0.947368 17:-0.0840987 18:-1 19:-0.818182 20:-0.714286 21:-0.333333 22:-0.675676 23:-0.714286 24:-1 25:-0.477273 
137.5112008919791 1:-0.217391 2:-0.203704 3:-1 4:-0.59596 5:-0.407407 6:-0.969531 7:-0.859643 8:-0.309091 9:-0.996336 10:-0.921569 11:-0.966999 12:-1 13:-0.870523 14:-0.5 15:0.999999 16:-0.947368 17:0.60453 18:-0.529412 19:-0.363636 20:-0.904762 21:-0.555556 22:-0.405405 23:-0.428571 24:-1 25:-0.113636 
28.1070352423971 1:-0.565217 2:-0.574074 3:-1 4:-0.575758 5:-0.950617 6:-0.996336 7:-0.884952 8:-0.236364 9:-0.996336 10:-0.921569 11:-0.982125 12:-0.882353 13:-0.861464 14:-0.833333 15:-3.53027e-07 16:-0.789474 17:-0.350425 18:-0.882353 19:-0.636364 20:-0.809524 21:-1 22:-0.621622 23:-0.714286 24:-1 25:-0.272727 
48.41176800945338 1:-0.478261 2:-0.611111 3:-1 4:-0.636364 5:-0.851852 6:-0.97287 7:-0.862796 8:-0.381818 9:-0.97287 10:-0.843137 11:-0.961174 12:-0.882353 13:-0.848478 14:-0.833333 15:0.999999 16:-0.947368 17:0.649575 18:-0.921569 19:-0.818182 20:-0.809524 21:-1 22:-0.675676 23:-0.571429 24:-1 25:-0.25 
9.259802918547567 1:-0.391304 2:-0.574074 3:1 4:-0.838384 5:-0.45679 6:-0.974254 7:-0.864102 8:-0.927273 9:-0.987951 10:-0.764706 11:-0.96015 12:-0.882353 13:-0.870435 14:-1 15:-0.22051 16:-1 17:0.0393206 18:-0.803922 19:-0.636364 20:-0.809524 21:-0.777778 22:-0.675676 23:-0.714286 24:-1 25:-0.522727 
1.231190673726473 1:-0.565217 2:-0.555556 3:1 4:-0.89899 5:-0.679012 6:-0.957869 7:-0.848632 8:-0.854545 9:-0.97287 10:-0.764706 11:-0.959056 12:-0.882353 13:-0.844198 14:-1 15:0.26769 16:-0.947368 17:0.649575 18:-1 19:-0.818182 20:-0.809524 21:-0.777778 22:-0.621622 23:-0.428571 24:-1 25:-0.454545 
31.89304646115968 1:-0.130435 2:-0.388889 3:-1 4:-0.414141 5:-0.925926 6:-0.978951 7:-0.853078 8:-0.818182 9:-0.978951 10:-0.921569 11:-0.964881 12:-0.764706 13:-0.857184 14:-1 15:0.389745 16:-0.947368 17:-0.0840987 18:-1 19:-0.818182 20:-0.714286 21:-0.333333 22:-0.675676 23:-0.714286 24:-1 25:-0.477273 
13.0363957562843 1:-0.217391 2:-0.648148 3:-1 4:-0.757576 5:-0.728395 6:-0.97423 7:-0.857437 8:-0.854545 9:-0.995046 10:-0.803922 11:-0.978995 12:-0.647059 13:-0.857184 14:-1 15:0.389745 16:-0.947368 17:-0.0840987 18:-0.921569 19:-0.818182 20:-0.904762 21:-0.555556 22:-0.675676 23:-0.571429 24:-1 25:-0.727273 
15.7399355935552 1:-0.478261 2:-0.722222 3:-1 4:-0.737374 5:-0.925926 6:-0.996418 7:-0.878386 8:-0.709091 9:-0.996418 10:-0.882353 11:-0.980007 12:-0.647059 13:-0.857184 14:-1 15:-3.53027e-07 16:-0.736842 17:-0.350425 18:-0.960784 19:-0.818182 20:-0.904762 21:-0.777778 22:-0.783784 23:-0.857143 24:-1 25:-0.659091 
0.08439098484176169 1:-0.304348 2:-0.685185 3:-1 4:-0.636364 5:-0.925926 6:-0.991662 7:-0.868361 8:-0.709091 9:-0.991662 10:-0.882353 11:-0.964881 12:-0.764706 13:-0.844198 14:-1 15:0.999999 16:-0.947368 17:0.299151 18:-1 19:-1 20:-1 21:-0.555556 22:-0.72973 23:-0.714286 24:-0.333333 25:-0.613636 
16.38812800919935 1:-0.478261 2:-0.611111 3:-1 4:-0.636364 5:-0.851852 6:-0.97287 7:-0.862796 8:-0.381818 9:-0.97287 10:-0.843137 11:-0.961174 12:-0.882353 13:-0.848478 14:-0.833333 15:0.999999 16:-0.947368 17:0.649575 18:-0.921569 19:-0.818182 20:-0.809524 21:-1 22:-0.675676 23:-0.571429 24:-1 25:-0.25 
33.6418064056264 1:-0.478261 2:-0.703704 3:1 4:-0.919192 5:-0.62963 6:-0.954346 7:-0.845306 8:-0.963636 9:-0.975162 10:-0.686275 11:-0.975288 12:-0.764706 13:-0.857184 14:-1 15:0.389745 16:-1 17:0.266326 18:-0.921569 19:-0.818182 20:-0.904762 21:-1 22:-0.72973 23:-0.571429 24:-1 25:-0.636364 
33.12464444798419 1:-0.826087 2:-0.796296 3:-1 4:-0.89899 5:-0.82716 6:-0.976534 7:-0.866256 8:-0.818182 9:-0.976534 10:-0.803922 11:-0.9763 12:-0.764706 13:-0.857184 14:-1 15:-3.53027e-07 16:-0.789474 18:-0.960784 19:-0.818182 20:-0.809524 21:-1 22:-0.783784 23:-0.857143 24:-1 25:-0.568182 
1.736622369968213 1:-0.565217 2:-0.555556 3:1 4:-0.89899 5:-0.679012 6:-0.957869 7:-0.848632 8:-0.854545 9:-0.97287 10:-0.764706 11:-0.959056 12:-0.882353 13:-0.844198 14:-1 15:0.26769 16:-0.947368 17:0.649575 18:-1 19:-0.818182 20:-0.809524 21:-0.777778 22:-0.621622 23:-0.428571 24:-1 25:-0.454545 
1.307216145622866 1:-0.565217 2:-0.555556 3:1 4:-0.89899 5:-0.679012 6:-0.957869 7:-0.848632 8:-0.854545 9:-0.97287 10:-0.764706 11:-0.959056 12:-0.882353 13:-0.844198 14:-1 15:0.26769 16:-0.947368 17:0.649575 18:-1 19:-0.818182 20:-0.809524 21:-0.777778 22:-0.621622 23:-0.428571 24:-1 25:-0.454545 
40.85729558910815 1:-0.217391 2:-0.648148 3:-1 4:-0.757576 5:-0.728395 6:-0.97423 7:-0.857437 8:-0.854545 9:-0.995046 10:-0.803922 11:-0.978995 12:-0.647059 13:-0.857184 14:-1 15:0.389745 16:-0.947368 17:-0.0840987 18:-0.921569 19:-0.818182 20:-0.904762 21:-0.555556 22:-0.675676 23:-0.571429 24:-1 25:-0.727273 
74.918477681669 1:-0.478261 2:-0.722222 3:-1 4:-0.737374 5:-0.925926 6:-0.996418 7:-0.878386 8:-0.709091 9:-0.996418 10:-0.882353 11:-0.980007 12:-0.647059 13:-0.857184 14:-1 15:-3.53027e-07 16:-0.736842 17:-0.350425 18:-0.960784 19:-0.818182 20:-0.904762 21:-0.777778 22:-0.783784 23:-0.857143 24:-1 25:-0.659091 
127.7994945486446 1:-0.130435 2:-0.388889 3:-1 4:-0.414141 5:-0.925926 6:-0.978951 7:-0.853078 8:-0.818182 9:-0.978951 10:-0.921569 11:-0.964881 12:-0.764706 13:-0.857184 14:-1 15:0.389745 16:-0.947368 17:-0.0840987 18:-1 19:-0.818182 20:-0.714286 21:-0.333333 22:-0.675676 23:-0.714286 24:-1 25:-0.477273 
53.00685032630102 1:-0.304348 2:-0.685185 3:-1 4:-0.636364 5:-0.925926 6:-0.991662 7:-0.868361 8:-0.709091 9:-0.991662 10:-0.882353 11:-0.964881 12:-0.764706 13:-0.844198 14:-1 15:0.999999 16:-0.947368 17:0.299151 18:-1 19:-1 20:-1 21:-0.555556 22:-0.72973 23:-0.714286 24:-0.333333 25:-0.613636 
16.52100297245699 1:-0.478261 2:-0.703704 3:1 4:-0.919192 5:-0.62963 6:-0.954346 7:-0.845306 8:-0.963636 9:-0.975162 10:-0.686275 11:-0.975288 12:-0.764706 13:-0.857184 14:-1 15:0.389745 16:-1 17:0.266326 18:-0.921569 19:-0.818182 20:-0.904762 21:-1 22:-0.72973 23:-0.571429 24:-1 25:-0.636364 
159.1609539211879 1:-0.478261 2:-0.703704 3:1 4:-0.919192 5:-0.62963 6:-0.954346 7:-0.845306 8:-0.963636 9:-0.975162 10:-0.686275 11:-0.975288 12:-0.764706 13:-0.857184 14:-1 15:0.389745 16:-1 17:0.266326 18:-0.921569 19:-0.818182 20:-0.904762 21:-1 22:-0.72973 23:-0.571429 24:-1 25:-0.636364 
45.80419222955178 1:-0.826087 2:-0.796296 3:-1 4:-0.89899 5:-0.82716 6:-0.976534 7:-0.866256 8:-0.818182 9:-0.976534 10:-0.803922 11:-0.9763 12:-0.764706 13:-0.857184 14:-1 15:-3.53027e-07 16:-0.789474 18:-0.960784 19:-0.818182 20:-0.809524 21:-1 22:-0.783784 23:-0.857143 24:-1 25:-0.568182 
71.77988904572189 1:-0.478261 2:-0.611111 3:-1 4:-0.636364 5:-0.851852 6:-0.97287 7:-0.862796 8:-0.381818 9:-0.97287 10:-0.843137 11:-0.961174 12:-0.882353 13:-0.848478 14:-0.833333 15:0.999999 16:-0.947368 17:0.649575 18:-0.921569 19:-0.818182 20:-0.809524 21:-1 22:-0.675676 23:-0.571429 24:-1 25:-0.25 
18.95818881576121 1:-0.73913 2:-0.648148 3:1 4:-0.79798 5:-0.604938 6:-0.976534 7:-0.866256 8:-0.672727 9:-0.976534 10:-0.45098 11:-0.971697 12:-0.764706 13:-0.857184 14:-1 15:0.649575 16:-0.894737 17:0.649575 18:-0.882353 19:-0.727273 20:-0.809524 21:-1 22:-0.675676 23:-0.857143 24:-1 25:-0.545455 
67.74826734023738 1:-0.565217 2:-0.555556 3:1 4:-0.89899 5:-0.679012 6:-0.957869 7:-0.848632 8:-0.854545 9:-0.97287 10:-0.764706 11:-0.959056 12:-0.882353 13:-0.844198 14:-1 15:0.26769 16:-0.947368 17:0.649575 18:-1 19:-0.818182 20:-0.809524 21:-0.777778 22:-0.621622 23:-0.428571 24:-1 25:-0.454545 
-1 1:0.304348 2:-0.481481 3:1 4:-0.979798 5:-0.82716 6:-0.997371 7:-0.88593 8:-0.709091 9:-0.997371 10:-0.921569 11:-0.992996 12:-0.647059 13:-0.885828 14:-1 15:-0.22051 16:-1 17:0.299151 18:-0.960784 19:-0.818182 20:-0.904762 21:-0.333333 22:-0.621622 23:-0.428571 24:-1 25:-0.545455 
-1 1:-0.130435 2:-0.685185 3:-1 4:-0.636364 5:-0.851852 6:-0.962371 7:-0.881492 8:-1 9:-0.987814 10:-0.960784 11:-0.997228 12:-0.764706 13:-0.846126 14:-0.666667 15:-0.902 16:-0.684211 17:-0.46462 18:-0.882353 19:-1 20:-1 21:-0.333333 22:-0.783784 23:-0.857143 24:-1 25:-0.704545 
-1 1:-0.652174 2:-0.925926 3:-1 4:-0.89899 5:-1 6:-1 7:-0.888412 8:-0.781818 9:-1 10:-0.960784 11:-0.955325 12:-0.764706 13:-0.843978 14:-0.833333 15:0.999999 16:-1 17:-0.22051 18:-0.960784 19:-1 20:-0.904762 21:-1 22:-0.945946 23:-0.857143 24:-1 25:-0.318182 
-1 1:-0.478261 2:-0.722222 3:1 4:-1 5:-0.925926 6:-0.953069 7:-0.844099 8:-0.963636 9:-0.953069 10:-0.921569 11:-0.971972 12:-0.647059 13:-0.861825 14:-1 15:0.999999 16:-0.947368 17:0.999999 18:-1 19:-1 20:-0.904762 21:-1 22:-0.837838 23:-1 24:-1 25:-0.136364 
-1 1:-0.304348 2:-0.555556 3:1 4:-1 5:-0.925926 6:-0.992671 7:-0.881492 8:-0.636364 9:-0.992671 10:-0.72549 11:-0.953069 12:-0.529412 13:-0.843978 14:-0.833333 15:-0.22051 16:-1 17:-0.22051 18:-0.960784 19:-0.454545 20:-0.809524 21:-1 22:-0.72973 23:-0.857143 24:-1 25:-0.409091 
-1 1:-0.391304 2:-0.666667 3:-1 4:-0.676768 5:-0.950617 6:-0.995349 7:-0.844099 8:-0.818182 9:-0.995349 10:-0.960784 11:-0.981042 12:-0.647059 13:-0.885828 14:-1 15:-0.22051 16:-1 17:-0.467348 18:-0.72549 19:-1 20:-0.809524 21:-0.555556 22:-0.837838 23:-0.714286 24:-1 25:-0.454545 
-1 1:-0.304348 2:-0.555556 3:1 4:-0.858586 5:-0.45679 6:-0.946488 7:-0.837886 8:-0.6 9:-0.946488 10:-0.843137 11:-0.995229 12:-0.764706 13:-0.861825 14:-1 15:0.999999 16:-1 17:-0.467348 18:-1 19:-0.909091 20:-0.52381 21:-1 22:-0.783784 24:-1 25:-0.590909 
-1 1:-0.391304 2:-0.592593 3:1 4:-0.919192 5:-0.753086 6:-0.946391 7:-0.837794 8:-0.890909 9:-0.992671 10:-0.921569 11:-0.96965 12:-0.882353 13:-0.84176 14:-0.833333 15:-0.910634 16:-0.789474 17:-0.910634 18:-1 19:-0.727273 20:-1 21:-0.777778 22:-0.621622 23:-0.857143 24:-1 25:-0.704545 
-1 1:-0.391304 2:-0.592593 3:-1 4:-0.656566 5:-0.876543 6:-0.987814 7:-0.877122 8:-0.963636 9:-0.987814 10:-0.803922 11:-0.995229 12:-0.764706 13:-0.885828 14:-1 15:0.999999 16:-1 17:0.299151 18:-1 19:-1 20:-0.619048 21:-0.777778 22:-0.72973 23:-0.285714 24:-1 25:-0.568182 
-1 1:-0.652174 2:-0.925926 3:-1 4:-0.89899 5:-0.975309 6:-1 7:-0.888412 8:-0.781818 9:-1 10:-0.921569 11:-0.962763 12:-0.764706 13:-0.885828 14:-1 15:0.999999 16:-1 17:-0.22051 18:-1 19:-1 20:-0.904762 21:-1 22:-0.945946 23:-0.857143 24:-1 25:-0.75 
-1 1:-0.391304 2:-0.759259 3:-1 4:-0.757576 5:-0.851852 6:-0.946391 7:-0.837794 8:-0.563636 9:-0.946391 10:-0.764706 11:-0.987814 12:-0.764706 13:-0.861825 14:-1 15:0.299151 16:-1 17:0.299151 18:-1 19:-1 20:-0.809524 21:-1 22:-0.837838 23:-0.428571 24:-1 25:-0.772727 
-1 1:0.391304 2:-0.203704 3:1 4:-0.919192 5:-0.62963 6:-0.981042 7:-0.870512 8:-0.854545 9:-0.958023 10:-0.960784 11:-0.992671 12:-1 13:-0.859744 14:-0.666667 15:0.318248 16:-0.947368 17:0.318248 18:-0.686275 19:-0.636364 20:-1 21:0.333333 22:-0.459459 23:-0.857143 24:-1 25:-0.0454545 
-1 1:0.130435 2:0.259259 3:1 4:-0.89899 5:-0.259259 6:-0.981372 7:-0.870824 8:-0.927273 9:-0.985693 10:-0.607843 11:-0.992671 12:-1 13:-0.885828 14:-1 15:0.299151 16:-0.842105 17:0.299151 18:-0.72549 19:0.272727 20:-0.809524 21:-0.111111 22:0.135135 23:-0.142857 24:-1 25:0.113636 
-1 1:0.130435 2:0.388889 3:1 4:-0.858586 5:0.308642 6:-0.978743 7:-0.868341 8:-0.890909 9:-0.990579 10:-0.960784 11:-0.962437 12:-0.764706 13:-0.885828 14:-1 15:-0.467348 16:-1 17:0.913216 18:-0.960784 19:0.0909091 20:-0.52381 21:0.333333 22:0.0810811 23:0.285714 24:-1 25:0.295455 
-1 1:-0.478261 2:-0.537037 3:-1 4:-0.69697 5:-0.876543 6:-0.983506 7:-0.86865 8:-0.927273 9:-0.983506 10:-0.882353 11:-0.962763 12:-0.764706 13:-0.885828 14:-1 15:0.999999 16:-1 17:0.299151 18:-0.921569 19:-0.818182 20:-0.904762 21:-0.777778 22:-0.72973 23:-0.428571 24:-1 25:-0.545455 
-1 1:-0.478261 2:-0.203704 3:-1 4:-0.111111 5:-0.62963 6:-0.997578 7:-0.886126 8:-0.636364 9:-0.997578 10:-0.254902 11:-0.992671 12:-1 13:-0.885828 14:-1 15:0.999999 16:-0.842105 17:0.299151 18:-0.882353 19:-0.454545 20:-1 21:-1 22:-0.459459 23:-0.428571 24:-1 25:-0.227273 
-1 1:-0.304348 2:-0.666667 3:-1 4:-0.616162 5:-0.802469 6:-0.98786 7:-0.846229 8:-0.709091 9:-0.955324 10:-0.882353 11:-0.987814 12:-0.529412 13:-0.885828 14:-1 15:0.299151 16:-0.894737 17:-0.22051 18:-1 19:-1 20:-0.809524 21:-0.777778 22:-0.837838 23:-0.714286 24:-1 25:-0.636364 
-1 1:-0.478261 2:-0.537037 3:-1 4:-0.494949 5:-0.777778 6:-0.978743 7:-0.868342 8:-0.527273 9:-0.978743 10:-0.882353 11:-0.962763 12:-0.882353 13:-0.885935 14:-0.666667 15:-0.22051 16:-1 17:0.299151 18:-0.764706 19:-0.818182 20:-1 21:-1 22:-0.567568 23:-0.714286 24:-1 25:-0.545455 
-1 1:-0.304348 2:-0.796296 3:-1 4:-0.757576 5:-0.975309 6:-0.990348 7:-0.879298 8:-0.563636 9:-0.990348 10:-0.960784 11:-0.987814 12:-0.764706 13:-0.885828 14:-1 15:0.299151 16:-1 17:-0.22051 18:-0.960784 19:-1 20:-0.904762 21:-1 22:-0.837838 23:-0.571429 24:-1 25:-0.568182 
-1 1:-0.391304 2:-0.592593 3:-1 4:-0.555556 5:-0.851852 6:-0.983506 7:-0.839991 8:-0.890909 9:-0.983506 10:-0.960784 11:-0.962763 12:-0.764706 13:-0.885828 14:-1 15:0.999999 16:-1 17:0.299151 18:-1 19:-0.818182 20:-0.714286 21:-0.333333 22:-0.837838 23:-0.428571 24:-1 25:-0.681818 
-1 1:-0.478261 2:-0.537037 3:-1 4:-0.59596 5:-0.851852 6:-0.983506 7:-0.85288 8:-0.890909 9:-0.983506 10:-0.960784 11:-0.962763 12:-0.764706 13:-0.885828 14:-1 15:0.999999 16:-1 17:0.299151 18:-1 19:-0.727273 20:-0.714286 21:-0.555556 22:-0.675676 23:-0.285714 24:-1 25:-0.636364 
-1 1:-0.565217 2:-0.814815 3:-1 4:-0.777778 5:-1 6:-0.997578 7:-0.839991 8:-0.890909 9:-0.997578 10:-0.960784 11:-0.962763 12:-0.764706 13:-0.885828 14:-1 15:0.999999 16:-1 17:-0.82678 18:-0.960784 19:-1 20:-0.714286 21:-0.777778 22:-0.945946 23:-0.714286 24:-1 25:-0.636364 
-1 1:-0.391304 2:-0.481481 3:-1 4:-0.414141 5:-0.604938 6:-0.990577 7:-0.879515 8:0.0545455 9:-0.990577 10:-0.372549 11:-0.990484 12:-0.529412 13:-0.885828 14:-1 15:-0.46462 16:-0.894737 17:-0.635215 18:-0.882353 19:-0.636364 20:-0.619048 21:-1 22:-0.675676 23:-0.428571 24:-1 25:-0.522727 
-1 1:-0.217391 2:-0.333333 3:-1 4:-0.272727 5:-0.506173 6:-0.983506 7:-0.881492 8:-0.709091 9:-0.983506 10:-0.882353 11:-0.992671 12:-1 13:-0.885828 14:-1 15:0.999999 16:-0.842105 17:-0.82678 18:-0.882353 19:-0.454545 20:-1 21:-0.555556 22:-0.351351 23:-0.428571 24:-1 25:-0.431818 
-1 1:-0.478261 2:-0.481481 3:-1 4:-0.434343 5:-0.851852 6:-0.983506 7:-0.839991 8:-0.890909 9:-0.983506 10:-0.960784 11:-0.962763 12:-0.764706 13:-0.885828 14:-1 15:0.999999 16:-1 17:0.299151 18:-1 19:-0.818182 20:-0.714286 21:-0.555556 22:-0.621622 23:-0.285714 24:-1 25:-0.545455 
-1 1:-0.478261 2:-0.907407 3:1 4:-1 5:-0.851852 6:-0.958023 7:-0.848777 8:-0.927273 9:-0.958023 10:-0.843137 11:-0.962301 12:-0.529412 13:-0.885828 14:-1 15:0.299151 16:-0.789474 17:0.299151 18:-1 19:-1 20:-0.904762 21:-1 22:-0.945946 23:-1 24:-1 25:-0.681818 
-1 1:-0.565217 2:-0.759259 3:-1 4:-0.717172 5:-1 6:-0.997578 7:-0.839991 8:-0.890909 9:-0.997578 10:-0.960784 11:-0.962763 12:-0.764706 13:-0.885828 14:-1 15:0.999999 16:-1 17:-0.82678 18:-0.960784 19:-1 20:-0.714286 21:-0.777778 22:-0.891892 23:-0.857143 24:-1 25:-0.659091 
-1 1:-0.304348 2:-0.703704 3:-1 4:-0.656566 5:-0.925926 6:-0.997393 7:-0.848773 8:-0.709091 9:-0.997393 10:-0.843137 11:-0.962763 12:-0.764706 13:-0.885828 14:-1 15:0.999999 16:-1 17:0.299151 18:-0.960784 19:-1 20:-0.809524 21:-0.777778 22:-0.783784 23:-0.571429 24:-1 25:-0.704545 
-1 1:-0.478261 2:-0.888889 3:-1 4:-0.858586 5:-1 6:-1 7:-0.888412 8:-0.709091 9:-1 10:-0.960784 11:-0.987814 12:-0.764706 13:-0.885828 14:-1 15:0.299151 16:-1 17:-0.22051 18:-1 19:-1 20:-0.904762 21:-1 22:-0.891892 23:-0.714286 24:-1 25:-0.431818 
-1 1:-0.478261 2:-0.62963 3:-1 4:-0.575758 5:-0.901235 6:-0.992671 7:-0.881492 8:-0.236364 9:-0.992671 10:-0.843137 11:-0.987814 12:-0.764706 13:-0.885828 14:-1 15:0.299151 16:-1 17:0.299151 18:-1 19:-1 20:-0.904762 21:-1 22:-0.72973 23:-0.285714 24:-1 25:-0.590909 
-1 1:0.130435 2:-0.648148 3:-1 4:-0.59596 5:-0.925926 6:-0.981372 7:-0.884021 8:-0.6 9:-0.981372 10:-0.921569 11:-0.962763 12:-0.764706 13:-0.846106 14:-0.833333 15:0.999999 16:-1 17:0.739138 18:-0.686275 19:-1 20:-0.904762 21:-0.333333 22:-0.837838 23:-0.571429 24:-1 25:-0.522727 
-1 1:-0.217391 2:-0.444444 3:1 4:-0.858586 5:-0.62963 6:-0.946391 7:-0.837794 8:-0.963636 9:-0.981372 10:-0.882353 11:-0.962763 12:-0.764706 13:-0.883498 14:-0.666667 15:0.999999 16:-1 17:0.999999 18:-0.843137 19:-0.636364 20:-0.904762 21:-0.333333 22:-0.621622 23:-0.285714 24:-1 25:-0.545455 
-1 1:0.304348 2:-0.481481 3:1 4:-0.979798 5:-0.82716 6:-0.997371 7:-0.88593 8:-0.709091 9:-0.997371 10:-0.921569 11:-0.992996 12:-0.647059 13:-0.885828 14:-1 15:-0.22051 16:-1 17:0.299151 18:-0.960784 19:-0.818182 20:-0.904762 21:-0.333333 22:-0.621622 23:-0.428571 24:-1 25:-0.545455 
-1 1:-0.565217 2:-0.777778 3:-1 4:-0.737374 5:-0.950617 6:-1 7:-0.888412 8:-0.490909 9:-1 10:-0.882353 11:-0.962763 12:-0.647059 13:-0.885828 14:-1 15:0.999999 16:-0.947368 17:0.299151 18:-1 19:-1 20:-0.904762 21:-1 22:-0.837838 23:-0.714286 24:-1 25:-0.613636 
-1 1:-0.304348 2:-0.462963 3:-1 4:-0.717172 5:-0.925926 6:-0.95802 7:-0.868361 8:-0.890909 9:-0.95802 10:-0.960784 11:-0.962763 12:-0.764706 13:-0.885828 14:-1 15:0.999999 16:-1 17:-0.22051 18:-0.921569 19:-0.818182 20:-0.904762 21:-0.333333 22:-0.567568 23:-0.142857 24:-1 25:-0.522727 
-1 1:-0.73913 2:-0.777778 3:1 4:-0.939394 5:-0.876543 6:-0.978742 7:-0.868341 8:-0.963636 9:-0.978742 10:-0.960784 11:-0.962763 12:-0.764706 13:-0.885828 14:-1 15:0.999999 16:-1 17:0.999999 18:-0.921569 19:-0.909091 20:-0.904762 21:-1 22:-0.837838 23:-0.857143 24:-1 25:-0.886364 
-1 1:-0.826087 2:-0.962963 3:1 4:-1 5:-0.925926 6:-1 7:-0.888412 8:-0.963636 9:-1 10:-0.843137 11:-0.997395 12:-0.647059 13:-0.885828 14:-1 15:0.999999 16:-1 17:0.999999 18:-0.960784 19:-1 20:-0.904762 21:-1 22:-1 23:-1 24:-1 25:-0.613636 
-1 1:-0.478261 2:-0.611111 3:1 4:-0.89899 5:-0.802469 6:-0.995349 7:-0.884021 8:-0.818182 9:-0.995349 10:-0.921569 11:-0.962763 12:-0.882353 13:-0.885828 14:-1 15:-0.22051 16:-0.789474 17:0.913216 18:-0.882353 19:-0.727273 20:-0.809524 21:-0.777778 22:-0.837838 23:-0.571429 24:-1 25:-0.727273 
-1 1:0.217391 2:-0.148148 3:-1 4:-0.111111 5:-0.901235 6:-0.997256 7:-0.879232 8:-0.418182 9:-0.997256 10:-0.843137 11:-0.987814 12:-0.764706 13:-0.885828 14:-1 15:0.299151 16:-1 17:0.299151 18:-1 19:-0.454545 20:-0.619048 21:-0.333333 22:-0.243243 23:0.142857 24:-1 25:-0.159091 
-1 1:-0.217391 2:-0.592593 3:1 4:-0.69697 5:-0.432099 6:-0.946488 7:-0.868342 8:-0.927273 9:-0.978743 10:-0.764706 11:-0.962763 12:-0.764706 13:-0.885828 14:-1 15:0.999999 16:-1 17:0.999999 18:-0.686275 19:-0.727273 20:-0.904762 21:-0.777778 22:-0.72973 23:-0.571429 24:-1 25:-0.681818 
-1 1:-0.217391 2:-0.259259 3:-1 4:-0.232323 5:-0.308642 6:-0.992671 7:-0.870512 8:-0.854545 9:-0.981042 10:-0.764706 11:-0.987814 12:-0.764706 13:-0.885828 14:-1 15:0.299151 16:-1 17:-0.22051 18:-0.882353 19:-0.272727 20:-0.714286 21:-0.555556 22:-0.405405 23:-0.428571 24:-1 25:-0.409091 
-1 1:0.652174 2:-0.0185185 3:1 4:-0.979798 5:-0.209877 6:-0.946488 7:-0.837886 8:-0.709091 9:-0.97907 10:-0.882353 11:-0.962763 12:-0.882353 13:-0.885828 14:-1 15:-0.22051 16:-1 17:0.299151 18:-1 19:0.0909091 20:-0.714286 21:0.555556 22:-0.513514 23:-0.428571 24:-1 25:-0.318182 
-1 1:-0.478261 2:-0.537037 3:1 4:-0.919192 5:-0.580247 6:-0.981367 7:-0.870819 8:-0.309091 9:-0.981367 10:-0.764706 11:-0.987814 12:-0.764706 13:-0.885828 14:-1 15:0.299151 16:-1 17:-0.91339 18:-0.921569 19:-0.272727 20:-0.809524 21:-0.777778 22:-0.783784 23:-0.714286 24:-1 25:-0.727273 
-1 1:-0.391304 2:-0.537037 3:1 4:-0.858586 5:-0.481481 6:-0.978743 7:-0.868341 8:-0.818182 9:-0.969555 10:-0.921569 11:-0.962763 12:-0.764706 13:-0.885828 14:-1 15:0.999999 16:-1 17:-0.91339 18:-1 19:-0.818182 20:-0.809524 21:-0.777778 22:-0.621622 23:-0.571429 24:-1 25:-0.613636 
-1 1:-0.826087 2:-0.888889 3:1 4:-1 5:-0.950617 6:-1 7:-0.888412 8:-0.963636 9:-1 10:-0.882353 11:-0.997395 12:-0.764706 13:-0.885828 14:-1 15:0.999999 16:-1 17:0.999999 18:-1 19:-1 20:-0.904762 21:-1 22:-0.837838 23:-1 24:-1 25:-0.227273 
-1 1:-0.130435 2:0.0555556 3:-1 4:-0.313131 5:-0.555556 6:-0.946391 7:-0.881492 8:-0.6 9:-0.946391 10:-0.843137 11:-0.962763 12:-0.764706 13:-0.885828 14:-1 15:0.999999 16:-1 17:0.999999 18:-0.803922 19:0.181818 20:-0.714286 21:-0.777778 22:-0.0810811 23:-0.285714 24:-1 25:-0.318182 
-1 1:-0.652174 2:-0.611111 3:-1 4:-0.838384 5:-0.925926 6:-0.985763 7:-0.874969 8:-0.709091 9:-0.985763 10:-0.882353 11:-0.953069 12:-0.764706 13:-0.843978 14:-0.5 15:0.299151 16:-1 17:-0.467348 18:-1 19:-0.454545 20:-0.904762 21:-1 22:-0.945946 23:-0.857143 24:-1 25:-0.636364 
-1 1:-0.217391 2:-0.314815 3:1 4:-0.919192 5:-0.407407 6:-0.946391 7:-0.837794 8:-0.672727 9:-0.946488 10:-0.960784 11:-0.958112 12:-0.882353 13:-0.885828 14:-1 15:0.999999 16:-0.473684 17:-0.82678 18:-0.921569 19:-0.545455 20:-1 21:-0.111111 22:-0.621622 23:-0.857143 24:-1 25:-0.545455 
-1 1:-0.565217 2:-0.666667 3:1 4:-0.939394 5:-0.604938 6:-0.967324 7:-0.85756 8:-0.418182 9:-0.967324 10:-0.882353 11:-0.958112 12:-0.882353 13:-0.868217 14:-0.833333 15:0.299151 16:-0.842105 17:0.299151 18:-0.686275 19:-0.727273 20:-0.428571 21:-1 22:-0.891892 23:-1 24:-1 25:-0.409091 
-1 1:-0.130435 2:-0.685185 3:-1 4:-0.636364 5:-0.851852 6:-0.962371 7:-0.881492 8:-1 9:-0.987814 10:-0.960784 11:-0.997228 12:-0.764706 13:-0.846126 14:-0.666667 15:-0.902 16:-0.684211 17:-0.46462 18:-0.882353 19:-1 20:-1 21:-0.333333 22:-0.783784 23:-0.857143 24:-1 25:-0.704545 
-1 1:0.391304 2:0.166667 3:1 4:-0.858586 5:-0.135802 6:-0.981367 7:-0.870819 8:-0.854545 9:-0.955324 10:-0.921569 11:-0.992671 12:-1 13:-0.848743 14:-1 15:0.999999 16:-0.947368 17:0.739138 18:-0.921569 19:0.363636 20:-0.333333 21:0.111111 22:-0.513514 23:-0.285714 24:-1 25:-0.25 
-1 1:-0.217391 2:-0.462963 3:-1 4:-0.393939 5:-0.851852 6:-0.992671 7:-0.872839 8:-0.2 9:-0.969557 10:-0.960784 11:-0.962763 12:-0.647059 13:-0.848743 14:-1 15:0.999999 16:-0.947368 17:-0.22051 18:-0.921569 19:-0.818182 20:-0.904762 21:-0.555556 22:-0.621622 23:-0.428571 24:-1 25:-0.477273 
-1 1:-0.478261 2:-0.648148 3:-1 4:-0.717172 5:-1 6:-0.978743 7:-0.868342 8:-0.563636 9:-0.978743 10:-0.921569 11:-0.962763 12:-0.764706 13:-0.848743 14:-1 15:0.999999 16:-1 17:-0.22051 18:-0.607843 19:-0.545455 20:-0.714286 21:-1 22:-0.783784 23:-0.857143 24:-1 25:-0.681818 
-1 1:-0.652174 2:-0.944444 3:-1 4:-0.919192 5:-1 6:-1 7:-0.888412 8:-0.818182 9:-1 10:-0.960784 11:-0.962763 12:-0.764706 13:-0.885828 14:-1 15:0.999999 16:-1 17:-0.22051 18:-1 19:-1 20:-0.904762 21:-1 22:-0.945946 23:-0.857143 24:-1 25:-0.727273 
-1 1:-0.304348 2:-0.296296 3:-1 4:-0.232323 5:-0.432099 6:-0.962371 7:-0.852883 8:-0.490909 9:-0.962371 10:-0.960784 11:-0.962763 12:-0.764706 13:-0.852823 14:-1 15:0.999999 16:-1 17:0.739138 18:-0.921569 19:-0.454545 20:-0.714286 21:-1 22:-0.351351 23:-0.142857 24:-1 25:-0.454545 
-1 1:-0.652174 2:-0.925926 3:-1 4:-0.89899 5:-1 6:-1 7:-0.888412 8:-0.781818 9:-1 10:-0.960784 11:-0.955325 12:-0.764706 13:-0.843978 14:-0.833333 15:0.999999 16:-1 17:-0.22051 18:-0.960784 19:-1 20:-0.904762 21:-1 22:-0.945946 23:-0.857143 24:-1 25:-0.318182 
-1 1:-0.391304 2:-0.462963 3:1 4:-0.979798 5:-0.382716 6:-0.96267 7:-0.853165 8:-0.963636 9:-0.958023 10:-0.960784 11:-0.992996 12:-0.529412 13:-0.846215 14:-0.833333 15:0.999999 16:-1 17:-0.90802 18:-0.960784 19:-0.636364 20:-0.904762 21:-0.555556 22:-0.675676 23:-0.714286 24:-1 25:-0.477273 
-1 1:-0.391304 2:-0.407407 3:1 4:-0.838384 5:-0.654321 6:-0.992671 7:-0.881492 8:-0.963636 9:-0.992671 10:-0.803922 11:-0.992671 12:-1 13:-0.868217 14:-0.833333 15:0.299151 16:-0.947368 17:0.299151 18:-0.882353 19:-0.727273 20:-1 21:-0.333333 22:-0.459459 23:-0.714286 24:-1 25:-0.5 
-1 1:-0.478261 2:-0.722222 3:1 4:-1 5:-0.925926 6:-0.953069 7:-0.844099 8:-0.963636 9:-0.953069 10:-0.921569 11:-0.971972 12:-0.647059 13:-0.861825 14:-1 15:0.999999 16:-0.947368 17:0.999999 18:-1 19:-1 20:-0.904762 21:-1 22:-0.837838 23:-1 24:-1 25:-0.136364 
-1 1:-0.304348 2:-0.555556 3:1 4:-1 5:-0.925926 6:-0.992671 7:-0.881492 8:-0.636364 9:-0.992671 10:-0.72549 11:-0.953069 12:-0.529412 13:-0.843978 14:-0.833333 15:-0.22051 16:-1 17:-0.22051 18:-0.960784 19:-0.454545 20:-0.809524 21:-1 22:-0.72973 23:-0.857143 24:-1 25:-0.409091 
-1 1:-0.391304 2:-0.666667 3:-1 4:-0.676768 5:-0.950617 6:-0.995349 7:-0.844099 8:-0.818182 9:-0.995349 10:-0.960784 11:-0.981042 12:-0.647059 13:-0.885828 14:-1 15:-0.22051 16:-1 17:-0.467348 18:-0.72549 19:-1 20:-0.809524 21:-0.555556 22:-0.837838 23:-0.714286 24:-1 25:-0.454545 
-1 1:-0.304348 2:-0.592593 3:1 4:-0.838384 5:-0.432099 6:-0.969742 7:-0.859842 8:-0.527273 9:-0.969742 10:-0.921569 11:-0.992671 12:-1 13:-0.868171 14:-1 15:0.999999 16:-0.736842 17:0.299151 18:-1 19:-0.636364 20:-0.619048 21:-1 22:-0.837838 23:-0.714286 24:-1 
-1 1:-0.73913 2:-0.462963 3:1 4:-0.79798 5:-0.283951 6:-0.985695 7:-0.874905 8:-0.963636 9:-0.985695 10:-0.215686 11:-0.953069 12:-0.882353 13:-0.885828 14:-1 15:0.299151 16:-0.894737 17:0.299151 18:-0.176471 19:-0.454545 20:-0.809524 21:-1 22:-0.459459 23:-0.857143 24:-1 25:-0.340909 
-1 1:-0.478261 2:-0.851852 3:-1 4:-0.818182 5:-0.975309 6:-0.992671 7:-0.881492 8:-0.672727 9:-0.992671 10:-0.960784 11:-0.962763 12:-0.647059 13:-0.885828 14:-1 15:0.999999 16:-0.947368 17:-0.467348 18:-1 19:-1 20:-0.904762 21:-1 22:-0.891892 23:-0.714286 24:-1 25:-0.318182 
-1 1:-0.304348 2:-0.518519 3:-1 4:-0.474747 5:-0.679012 6:-0.983696 7:-0.876904 8:-0.781818 9:-0.946488 10:-0.921569 11:-0.953069 12:-0.764706 13:-0.885828 14:-1 15:0.299151 16:-1 17:0.299151 18:-0.882353 19:-0.727273 20:-0.904762 21:-0.555556 22:-0.621622 23:-0.428571 24:-1 25:-0.613636 
-1 1:-0.478261 2:-0.685185 3:-1 4:-0.656566 5:-0.925926 6:-0.946488 7:-0.885861 8:-0.672727 9:-0.946488 10:-0.843137 11:-0.953069 12:-0.764706 13:-0.885828 14:-1 15:0.299151 16:-1 17:0.999999 18:-1 19:-0.909091 20:-0.904762 21:-0.777778 22:-0.675676 23:-0.714286 24:-1 25:-0.772727 
-1 1:-0.217391 2:-0.277778 3:1 4:-0.979798 5:-0.333333 6:-0.985695 7:-0.874905 8:-0.745455 9:-1 10:-0.921569 11:-0.981279 12:-0.882353 13:-0.885828 14:-1 15:0.999999 16:-0.526316 17:0.999999 18:-1 19:-0.272727 20:-0.904762 21:-0.333333 22:-0.459459 23:-0.714286 24:-1 25:0.0681818 
-1 1:-0.304348 2:-0.555556 3:1 4:-0.858586 5:-0.45679 6:-0.946488 7:-0.837886 8:-0.6 9:-0.946488 10:-0.843137 11:-0.995229 12:-0.764706 13:-0.861825 14:-1 15:0.999999 16:-1 17:-0.467348 18:-1 19:-0.909091 20:-0.52381 21:-1 22:-0.783784 24:-1 25:-0.590909 
-1 1:-0.391304 2:-0.592593 3:1 4:-0.919192 5:-0.753086 6:-0.946391 7:-0.837794 8:-0.890909 9:-0.992671 10:-0.921569 11:-0.96965 12:-0.882353 13:-0.84176 14:-0.833333 15:-0.910634 16:-0.789474 17:-0.910634 18:-1 19:-0.727273 20:-1 21:-0.777778 22:-0.621622 23:-0.857143 24:-1 25:-0.704545 
-1 1:-0.391304 2:-0.592593 3:-1 4:-0.656566 5:-0.876543 6:-0.987814 7:-0.877122 8:-0.963636 9:-0.987814 10:-0.803922 11:-0.995229 12:-0.764706 13:-0.885828 14:-1 15:0.999999 16:-1 17:0.299151 18:-1 19:-1 20:-0.619048 21:-0.777778 22:-0.72973 23:-0.285714 24:-1 25:-0.568182 
-1 1:-0.652174 2:-0.925926 3:-1 4:-0.89899 5:-0.975309 6:-1 7:-0.888412 8:-0.781818 9:-1 10:-0.921569 11:-0.962763 12:-0.764706 13:-0.885828 14:-1 15:0.999999 16:-1 17:-0.22051 18:-1 19:-1 20:-0.904762 21:-1 22:-0.945946 23:-0.857143 24:-1 25:-0.75 
-1 1:-0.652174 2:-0.87037 3:-1 4:-0.838384 5:-0.975309 6:-1 7:-0.888412 8:-0.672727 9:-1 10:-0.921569 11:-0.962763 12:-0.764706 13:-0.885828 14:-1 15:0.999999 16:-1 17:0.999999 18:-0.803922 19:-1 20:-0.904762 21:-1 22:-0.837838 23:-1 24:-1 25:-0.204545 
-1 1:-0.652174 2:-0.796296 3:-1 4:-0.757576 5:-0.901235 6:-0.990579 7:-0.879516 8:-0.563636 9:-0.990579 10:-0.843137 11:-0.953069 12:-0.764706 13:-0.885828 14:-1 15:0.299151 16:-1 17:0.299151 18:-1 19:-1 20:-0.904762 21:-1 22:-0.783784 23:-0.714286 24:-1 25:-0.340909 
-1 1:-0.304348 2:-0.444444 3:-1 4:-0.59596 5:-0.950617 6:-0.958019 7:-0.881492 8:-1 9:-0.958019 10:-0.921569 11:-0.962511 12:-0.647059 13:-0.885828 14:-1 15:-0.90802 16:-0.842105 17:-0.91339 18:-1 19:-0.727273 20:-1 21:-0.555556 22:-0.513514 23:-0.428571 24:-1 25:-0.613636 
-1 1:-0.391304 2:-0.759259 3:-1 4:-0.757576 5:-0.851852 6:-0.946391 7:-0.837794 8:-0.563636 9:-0.946391 10:-0.764706 11:-0.987814 12:-0.764706 13:-0.861825 14:-1 15:0.299151 16:-1 17:0.299151 18:-1 19:-1 20:-0.809524 21:-1 22:-0.837838 23:-0.428571 24:-1 25:-0.772727 
-1 1:0.391304 2:-0.203704 3:1 4:-0.919192 5:-0.62963 6:-0.981042 7:-0.870512 8:-0.854545 9:-0.958023 10:-0.960784 11:-0.992671 12:-1 13:-0.859744 14:-0.666667 15:0.318248 16:-0.947368 17:0.318248 18:-0.686275 19:-0.636364 20:-1 21:0.333333 22:-0.459459 23:-0.857143 24:-1 25:-0.0454545 
-1 1:-0.652174 2:-0.759259 3:-1 4:-0.737374 5:-0.950617 6:-1 7:-0.888412 8:-0.490909 9:-1 10:-0.882353 11:-0.962763 12:-0.882353 13:-0.868217 14:-0.833333 15:-0.22051 16:-0.842105 17:-0.90802 18:-1 19:-1 20:-1 21:-1 22:-0.837838 23:-0.714286 24:-0.333333 25:-0.772727 
-1 1:-0.478261 2:-0.425926 3:-1 4:-0.373737 5:-1 6:-1 7:-0.888412 8:0.163636 9:-1 10:-0.960784 11:-0.962763 12:-0.882353 13:-0.868217 14:-0.833333 15:-0.91339 16:-0.736842 17:-0.22051 18:-0.960784 19:-0.636364 20:-1 21:-1 22:-0.621622 23:-0.714286 24:-1 25:-0.363636 
-1 1:-0.478261 2:-0.462963 3:1 4:-0.79798 5:-0.604938 6:-0.978764 7:-0.848777 8:-0.927273 9:-0.990348 10:-0.882353 11:-0.962763 12:-0.764706 13:-0.885828 14:-1 15:0.999999 16:-1 17:0.299151 18:-1 19:-0.818182 20:-0.904762 21:-0.333333 22:-0.513514 23:-0.428571 24:-0.333333 25:-0.363636 
-1 1:-0.652174 2:-0.574074 3:1 4:-0.79798 5:-0.604938 6:-0.978976 7:-0.841881 8:-0.818182 9:-0.950719 10:-0.960784 11:-0.997228 12:-0.764706 13:-0.859654 14:-0.833333 15:0.999999 16:-0.894737 17:0.999999 18:-0.960784 19:-0.545455 20:-0.904762 21:-0.777778 22:-0.675676 23:-0.714286 24:-1 25:-0.522727 
-1 1:-0.565217 2:-0.648148 3:1 4:-0.858586 5:-0.654321 6:-0.948623 7:-0.841881 8:-0.781818 9:-0.95072 10:-0.960784 11:-0.997228 12:-0.764706 13:-0.859654 14:-0.833333 15:0.999999 16:-0.894737 17:0.999999 18:-0.960784 19:-0.818182 20:-0.809524 21:-0.777778 22:-0.72973 23:-0.571429 24:-1 25:-0.590909 
-1 1:-0.391304 2:-0.537037 3:1 4:-0.737374 5:-0.45679 6:-0.990488 7:-0.844099 8:-0.890909 9:-0.953069 10:-0.764706 11:-0.987814 12:-0.882353 13:-0.868171 14:-1 15:0.299151 16:-0.947368 17:0.999999 18:-0.843137 19:-0.545455 20:-0.809524 21:-0.777778 22:-0.675676 23:-0.714286 24:-1 25:-0.613636 
-1 1:-0.565217 2:-0.777778 3:-1 4:-0.737374 5:-0.950617 6:-1 7:-0.888412 8:-0.490909 9:-1 10:-0.882353 11:-0.962763 12:-0.647059 13:-0.885828 14:-1 15:0.999999 16:-0.947368 17:0.299151 18:-1 19:-1 20:-0.904762 21:-1 22:-0.837838 23:-0.714286 24:-1 25:-0.613636 
-1 1:-0.217391 2:-0.592593 3:1 4:-0.69697 5:-0.432099 6:-0.946488 7:-0.868342 8:-0.927273 9:-0.978743 10:-0.764706 11:-0.962763 12:-0.764706 13:-0.885828 14:-1 15:0.999999 16:-1 17:0.999999 18:-0.686275 19:-0.727273 20:-0.904762 21:-0.777778 22:-0.72973 23:-0.571429 24:-1 25:-0.681818 
-1 1:-0.652174 2:-0.611111 3:-1 4:-0.838384 5:-0.925926 6:-0.985763 7:-0.874969 8:-0.709091 9:-0.985763 10:-0.882353 11:-0.953069 12:-0.764706 13:-0.843978 14:-0.5 15:0.299151 16:-1 17:-0.467348 18:-1 19:-0.454545 20:-0.904762 21:-1 22:-0.945946 23:-0.857143 24:-1 25:-0.636364 
-1 1:-0.73913 2:-0.462963 3:1 4:-0.79798 5:-0.283951 6:-0.985695 7:-0.874905 8:-0.963636 9:-0.985695 10:-0.215686 11:-0.953069 12:-0.882353 13:-0.885828 14:-1 15:0.299151 16:-0.894737 17:0.299151 18:-0.176471 19:-0.454545 20:-0.809524 21:-1 22:-0.459459 23:-0.857143 24:-1 25:-0.340909 
-1 1:-0.217391 2:-0.277778 3:1 4:-0.979798 5:-0.333333 6:-0.985695 7:-0.874905 8:-0.745455 9:-1 10:-0.921569 11:-0.981279 12:-0.882353 13:-0.885828 14:-1 15:0.999999 16:-0.526316 17:0.999999 18:-1 19:-0.272727 20:-0.904762 21:-0.333333 22:-0.459459 23:-0.714286 24:-1 25:0.0681818 
-1 1:-0.217391 2:-0.277778 3:-1 4:-0.212121 5:-0.209877 6:-0.992671 7:-0.881492 8:-0.672727 9:-0.992671 10:-0.921569 11:-0.962763 12:-0.764706 13:-0.883498 14:-0.833333 15:0.999999 16:-1 17:0.739138 18:-0.921569 19:-0.545455 20:-0.904762 21:-0.555556 22:-0.243243 23:-0.285714 24:-1 25:-0.431818 
-1 1:-0.478261 2:-0.740741 3:-1 4:-0.69697 5:-0.901235 6:-1 7:-0.888412 8:-0.418182 9:-1 10:-0.803922 11:-0.962763 12:-0.764706 13:-0.883498 14:-1 15:0.999999 16:-1 17:-0.467348 18:-0.843137 19:-0.727273 20:-0.904762 21:-1 22:-0.783784 23:-0.714286 24:-1 25:-0.636364 
-1 1:-0.652174 2:-0.611111 3:-1 4:-0.838384 5:-0.925926 6:-0.985763 7:-0.874969 8:-0.709091 9:-0.985763 10:-0.882353 11:-0.953069 12:-0.764706 13:-0.843978 14:-0.5 15:0.299151 16:-1 17:-0.467348 18:-1 19:-0.454545 20:-0.904762 21:-1 22:-0.945946 23:-0.857143 24:-1 25:-0.636364 
-1 1:-0.652174 2:-0.685185 3:-1 4:-0.636364 5:-0.975309 6:-0.958019 7:-0.848773 8:-0.345455 9:-0.958019 10:-0.960784 11:-0.987826 12:-0.764706 13:-0.848652 14:-0.833333 15:0.999999 16:-1 17:-0.22051 18:-0.529412 19:-0.818182 20:-0.619048 21:-1 22:-0.837838 23:-0.857143 24:-1 25:-0.704545 
-1 1:-0.0434783 2:0.259259 3:-1 4:0.151515 5:-1 6:-0.978743 7:-0.859756 8:0.963636 9:-0.978743 10:-0.921569 11:-0.987826 12:-0.764706 13:-0.868217 14:-0.833333 15:0.999999 16:-1 17:-0.22051 18:-0.72549 20:0.714286 21:-0.777778 22:-0.405405 23:-0.571429 24:-0.333333 25:-0.5 
-1 1:-0.478261 2:-0.537037 3:1 4:-0.919192 5:-0.82716 6:-0.946488 7:-0.837886 8:-0.818182 9:-0.946488 10:-0.921569 11:-0.987826 12:-0.764706 13:-0.848652 14:-0.833333 15:0.999999 16:-1 17:0.999999 18:-0.882353 19:-0.727273 20:-0.904762 21:-0.777778 22:-0.72973 23:-0.571429 24:-1 25:-0.0227273 
-1 1:-0.391304 2:-0.666667 3:-1 4:-0.616162 5:-1 6:-0.962371 7:-0.888412 8:-0.709091 9:-0.962371 10:-0.647059 11:-0.987826 12:-0.764706 13:-0.848652 14:-0.833333 15:0.999999 16:-1 17:-0.22051 18:-0.45098 19:-0.818182 20:-0.714286 21:-0.777778 22:-0.891892 23:-0.857143 24:-1 25:-0.409091 
-1 1:-0.304348 2:-0.462963 3:1 4:-0.919192 5:-0.82716 6:-0.946488 7:-0.837886 8:-0.781818 9:-0.946488 10:-0.882353 11:-0.987826 12:-0.764706 13:-0.848652 14:-0.833333 15:0.999999 16:-1 17:0.999999 18:-0.882353 19:-0.818182 20:-0.904762 21:-0.777778 22:-0.513514 23:-0.142857 24:-1 25:-0.522727 
-1 1:0.0434783 2:0.0185185 3:-1 4:-0.0707071 5:-0.728395 6:-0.992995 7:-0.888412 8:-0.927273 9:-0.992995 10:-0.882353 11:-0.987826 12:-0.764706 13:-0.885828 14:-1 15:0.999999 16:-1 17:0.999999 18:-0.960784 19:0.181818 20:-0.809524 21:0.111111 22:-0.405405 23:-0.571429 24:-1 25:-0.113636 
-1 1:-0.217391 2:-0.12963 3:-1 4:-0.030303 5:-0.62963 6:-0.992671 7:-0.888412 8:-0.236364 9:-1 10:-0.529412 11:-0.962763 12:-0.764706 13:-0.883498 14:-1 15:0.999999 16:-1 17:0.999999 18:-0.960784 19:-0.272727 20:-0.714286 21:-0.777778 22:-0.243243 23:-0.571429 24:-1 25:-0.159091 
-1 1:-0.217391 2:0.351852 3:1 4:-0.737374 5:0.0123457 6:-0.99514 7:-0.883823 8:-0.2 9:-0.99514 10:-0.764706 11:-0.987826 12:-0.764706 13:-0.885828 14:-1 15:0.999999 16:-1 17:-0.90802 18:-0.882353 19:0.545455 20:-0.047619 21:-0.333333 22:-0.351351 23:-0.571429 24:-1 25:-0.227273 
-1 1:-0.73913 2:-0.462963 3:1 4:-0.79798 5:-0.283951 6:-0.985695 7:-0.874905 8:-0.963636 9:-0.985695 10:-0.215686 11:-0.953069 12:-0.882353 13:-0.885828 14:-1 15:0.299151 16:-0.894737 17:0.299151 18:-0.176471 19:-0.454545 20:-0.809524 21:-1 22:-0.459459 23:-0.857143 24:-1 25:-0.340909 
-1 1:-0.217391 2:-0.277778 3:1 4:-0.979798 5:-0.333333 6:-0.985695 7:-0.874905 8:-0.745455 9:-1 10:-0.921569 11:-0.981279 12:-0.882353 13:-0.885828 14:-1 15:0.999999 16:-0.526316 17:0.999999 18:-1 19:-0.272727 20:-0.904762 21:-0.333333 22:-0.459459 23:-0.714286 24:-1 25:0.0681818 
-1 1:-0.652174 2:-0.703704 3:1 4:-0.959596 5:-0.580247 6:-0.990488 7:-0.879431 8:-0.927273 9:-0.955349 10:-0.72549 11:-0.969415 12:-0.764706 13:-0.885828 14:-1 15:0.999999 16:-1 17:0.999999 18:-0.882353 19:-1 20:-0.904762 21:-0.777778 22:-0.783784 23:-0.714286 24:-1 25:-0.727273 
-1 1:-0.565217 2:-0.62963 3:1 4:-0.919192 5:-0.580247 6:-0.995321 7:-0.883994 8:-0.818182 9:-0.995321 10:-0.686275 11:-0.987812 12:-0.882353 13:-0.852871 14:-0.833333 15:0.299151 16:-0.736842 17:-0.90802 18:-1 19:-1 20:-1 21:-1 22:-0.621622 23:-0.857143 24:-1 25:-0.590909 
-1 1:-0.478261 2:-0.425926 3:-1 4:-0.515152 5:-0.777778 6:-0.955344 7:-0.859756 8:-0.927273 9:-0.955344 10:-0.647059 11:-0.962763 12:-0.647059 13:-0.883434 14:-1 15:0.999999 16:-0.947368 17:0.299151 18:-0.960784 19:-0.545455 20:-0.809524 21:-0.555556 22:-0.675676 23:-0.428571 24:-1 25:-0.522727 
-1 1:-0.130435 2:-0.296296 3:1 4:-0.89899 5:-0.407407 6:-0.992671 7:-0.881492 8:-0.636364 9:-0.955694 10:-0.803922 11:-0.992671 12:-1 13:-0.883434 14:-1 15:-0.22051 16:-1 17:0.999999 18:-1 19:-0.727273 20:-1 21:-0.333333 22:-0.513514 23:-0.142857 24:-0.333333 25:-0.363636 
-1 1:-0.478261 2:-0.759259 3:-1 4:-0.717172 5:-0.925926 6:-0.978764 7:-0.868361 8:-0.672727 9:-0.978764 10:-0.921569 11:-0.955325 12:-0.764706 13:-0.883434 14:-1 15:0.999999 16:-1 17:0.999999 18:-0.960784 19:-1 20:-0.904762 21:-1 22:-0.783784 23:-0.714286 24:-1 25:-0.5 
-1 1:-0.652174 2:-0.833333 3:-1 4:-0.79798 5:-0.901235 6:-0.997228 7:-0.885795 8:-0.636364 9:-0.997228 10:-0.843137 11:-0.955508 12:-0.764706 13:-0.883434 14:-1 15:0.999999 16:-1 17:0.299151 18:-1 19:-1 20:-0.809524 21:-1 22:-0.891892 23:-0.571429 24:-1 25:-0.659091 
-1 1:-0.478261 2:-0.611111 3:-1 4:-0.555556 5:-0.876543 6:-0.978739 7:-0.868337 8:-0.2 9:-0.978739 10:-0.803922 11:-0.962763 12:-0.764706 13:-0.883434 14:-1 15:0.999999 16:-1 17:0.299151 18:-1 19:-1 20:-0.904762 21:-1 22:-0.567568 23:-0.285714 24:-1 25:-0.636364 
-1 1:-0.391304 2:-0.425926 3:1 4:-0.919192 5:-0.679012 6:-0.992671 7:-0.881492 8:-0.927273 9:-0.97907 10:-0.960784 11:-0.962763 12:-0.647059 13:-0.883434 14:-1 15:0.999999 16:-0.947368 17:0.299151 18:-0.960784 19:-0.909091 20:-0.904762 21:-0.111111 22:-0.621622 23:-0.428571 24:-0.333333 25:-0.431818 
-1 1:-0.478261 2:-0.740741 3:-1 4:-0.757576 5:-0.82716 6:-0.98786 7:-0.881492 8:-0.927273 9:-0.98786 10:-0.72549 11:-0.992671 12:-1 13:-0.883434 14:-1 15:0.999999 16:-0.947368 17:-0.22051 18:-1 19:-1 20:-1 21:-0.777778 22:-0.783784 23:-0.714286 24:-1 25:-0.681818 
-1 1:-0.130435 2:-0.555556 3:-1 4:-0.494949 5:-0.506173 6:-0.98786 7:-0.87695 8:-0.0909091 9:-0.98786 10:-0.215686 11:-0.962763 12:-0.647059 13:-0.883434 14:-1 15:0.999999 16:-0.947368 17:-0.22051 18:-1 19:-1 20:-0.904762 21:-1 22:-0.621622 23:-0.142857 24:-1 25:-0.431818 
-1 1:-0.0434783 2:-0.722222 3:-1 4:-0.676768 5:-0.975309 6:-0.995349 7:-0.884021 8:-0.527273 9:-0.995349 10:-0.921569 11:-0.987814 12:-0.764706 13:-0.883434 14:-1 15:0.299151 16:-1 17:-0.22051 18:-0.72549 19:-1 20:-0.904762 21:-1 22:-0.783784 23:-0.714286 24:-1 25:-0.318182 
-1 1:-0.304348 2:-0.314815 3:-1 4:-0.292929 5:-0.62963 6:-0.946488 7:-0.848774 8:-0.963636 9:-0.946488 10:-0.568627 11:-0.987814 12:-0.764706 13:-0.883434 14:-1 15:0.299151 16:-1 17:0.299151 18:-0.960784 19:-0.181818 20:-0.714286 21:-0.555556 22:-0.621622 23:-0.428571 24:-1 25:-0.5 
-1 1:-0.0434783 2:-0.555556 3:-1 4:-0.515152 5:-0.975309 6:-0.981372 7:-0.884021 8:-0.818182 9:-0.981372 10:-0.960784 11:-0.987814 12:-0.764706 13:-0.883434 14:-1 15:0.299151 16:-1 17:0.739138 18:-0.490196 19:-0.818182 20:-0.904762 21:0.111111 22:-0.837838 23:-0.714286 24:-1 25:-0.613636 
-1 1:0.130435 2:-0.0555556 3:1 4:-0.737374 5:0.037037 6:-1 7:-0.859756 8:-0.927273 9:-0.958023 10:-0.960784 11:-0.992671 12:-1 13:-0.859546 14:-0.666667 15:0.999999 16:-0.947368 17:0.913216 18:-0.72549 19:-0.181818 20:-0.714286 21:0.333333 22:-0.405405 23:-0.571429 24:-1 25:-0.295455 
-1 1:0.0434783 2:-0.722222 3:-1 4:-0.676768 5:-0.975309 6:-0.995349 7:-0.853253 8:-0.672727 9:-0.995349 10:-0.921569 11:-0.987814 12:-0.764706 13:-0.883434 14:-1 15:0.299151 16:-1 17:-0.22051 18:-0.72549 19:-1 20:-0.904762 21:-0.777778 22:-0.783784 23:-0.714286 24:-1 25:-0.681818 
-1 1:-0.652174 2:-0.814815 3:-1 4:-0.777778 5:-0.901235 6:-0.955324 7:-0.846229 8:-0.6 9:-0.955324 10:-0.843137 11:-0.969741 12:-0.647059 13:-0.883434 14:-1 15:0.299151 16:-0.947368 17:-0.467348 18:-1 19:-1 20:-0.904762 21:-1 22:-0.891892 23:-0.714286 24:-1 25:-0.863636 
-1 1:-0.304348 2:-0.574074 3:-1 4:-0.535354 5:-0.876543 6:-0.992671 7:-0.87695 8:-0.818182 9:-0.992671 10:-0.803922 11:-0.962763 12:-0.647059 13:-0.883434 14:-1 15:0.999999 16:-0.947368 17:0.299151 18:-1 19:-0.818182 20:-0.904762 21:-0.555556 22:-0.621622 23:-0.428571 24:-1 25:-0.636364 
-1 1:-0.478261 2:-0.888889 3:-1 4:-0.858586 5:-1 6:-0.97907 7:-0.86865 8:-0.781818 9:-0.97907 10:-0.960784 11:-0.962763 12:-0.764706 13:-0.883434 14:-1 15:0.999999 16:-1 17:-0.22051 18:-0.882353 19:-1 20:-0.904762 21:-1 22:-0.945946 23:-0.857143 24:-1 25:-0.840909 
-1 1:-0.478261 2:-0.592593 3:1 4:-0.858586 5:-0.555556 6:-0.958019 7:-0.848774 8:-0.854545 9:-0.958022 10:-0.921569 11:-0.987814 12:-0.882353 13:-0.883434 14:-1 15:0.299151 16:-1 17:0.999999 18:-1 19:-0.818182 20:-1 21:-0.555556 22:-0.621622 23:-0.571429 24:-1 25:-0.681818 
-1 1:-0.652174 2:-0.888889 3:1 4:-0.979798 5:-0.925926 6:-0.958023 7:-0.848777 8:-0.963636 9:-0.958023 10:-0.960784 11:-0.992671 12:-1 13:-0.883434 14:-1 15:-1 16:-0.947368 17:-1 18:-0.882353 19:-1 20:-1 21:-0.777778 22:-0.945946 23:-1 24:-1 25:0.113636 
-1 1:0.0434783 2:-0.111111 3:1 4:-0.656566 5:0.111111 6:-0.981367 7:-0.870819 8:-0.963636 9:-0.985693 10:-0.960784 11:-0.962763 12:-0.764706 13:-0.883434 14:-1 15:0.999999 16:-1 17:0.299151 18:-1 19:-0.727273 20:-0.904762 21:-0.333333 22:-0.189189 23:0.285714 24:-0.333333 25:-0.113636 
-1 1:-0.304348 2:-0.777778 3:-1 4:-0.737374 5:-1 6:-0.978764 7:-0.868361 8:-0.745455 9:-0.978764 10:-0.764706 11:-0.953069 12:-0.764706 13:-0.883434 14:-1 15:0.299151 16:-1 17:-0.22051 18:-0.686275 19:-0.909091 20:-0.904762 21:-1 22:-0.837838 23:-0.857143 24:-1 25:-0.386364 
-1 1:-0.652174 2:-0.925926 3:-1 4:-0.89899 5:-1 6:-1 7:-0.888412 8:-0.781818 9:-1 10:-0.960784 11:-0.962763 12:-0.647059 13:-0.85313 14:-0.666667 15:0.999999 16:-0.947368 17:-0.22051 18:-1 19:-1 20:-0.809524 21:-1 22:-1 23:-0.857143 24:-1 25:-0.636364 
-1 1:-0.304348 2:-0.333333 3:1 4:-0.838384 5:-0.259259 6:-0.955323 7:-0.846227 8:-0.709091 9:-0.962369 10:-0.72549 11:-0.953368 12:-0.647059 13:-0.883434 14:-1 15:-0.22051 16:-0.947368 17:0.299151 18:-1 19:-0.636364 20:-0.809524 21:-0.777778 22:-0.351351 23:-0.142857 24:-1 25:-0.340909 
-1 1:-0.391304 2:-0.314815 3:1 4:-0.919192 5:-0.777778 6:-0.981372 7:-0.870824 8:-0.563636 9:-0.981372 10:-0.72549 11:-0.962763 12:-0.764706 13:-0.883434 14:-1 15:0.999999 16:-1 17:-0.467348 18:-1 19:-0.727273 20:-0.809524 21:-0.777778 22:-0.297297 23:0.428571 24:-1 25:-0.363636 
-1 1:-0.391304 2:-0.518519 3:1 4:-0.919192 5:-0.506173 6:-0.946391 7:-0.837794 8:-0.963636 9:-0.946391 10:-0.411765 11:-0.962763 12:-0.647059 13:-0.883434 14:-1 15:0.999999 16:-0.947368 17:0.299151 18:-0.960784 19:-0.727273 20:-0.904762 21:-1 22:-0.72973 23:-0.428571 24:-1 25:-0.613636 
-1 1:-0.73913 2:-0.907407 3:-1 4:-0.89899 5:-1 6:-1 7:-0.888412 8:-0.781818 9:-1 10:-0.960784 11:-0.992671 12:-1 13:-0.881369 14:-0.833333 15:-0.22051 16:-0.894737 17:-0.22051 18:-0.960784 19:-1 20:-1 21:-1 22:-0.891892 23:-1 24:-1 25:-0.295455 
-1 1:-0.0434783 2:-0.462963 3:-1 4:-0.393939 5:-0.975309 6:-0.995349 7:-0.884021 8:-0.127273 9:-0.995349 10:-0.803922 11:-0.987814 12:-0.764706 13:-0.883434 14:-1 15:0.299151 16:-1 17:-0.22051 18:-0.176471 19:-0.636364 20:-0.904762 21:-1 22:-0.621622 23:-0.714286 24:-1 25:-0.431818 
-1 1:-0.217391 2:-0.537037 3:1 4:-0.919192 5:-0.407407 6:-0.962371 7:-0.852883 8:-0.563636 9:-0.950719 10:-0.843137 11:-0.992671 12:-1 13:-0.883434 14:-1 15:0.999999 16:-0.894737 17:0.299151 18:-1 19:-0.636364 20:-0.904762 21:-0.333333 22:-0.72973 23:-0.571429 24:-1 25:-0.318182 
-1 1:-0.0434783 2:-0.388889 3:-1 4:-0.919192 5:-0.975309 6:-0.99058 7:-0.879518 8:-0.781818 9:-0.99058 10:-0.647059 11:-0.962763 12:-0.882353 13:-0.881369 14:-0.833333 15:-0.22051 16:-1 17:-0.22051 18:-0.960784 19:-0.454545 20:-0.904762 21:-0.555556 22:-0.405405 23:-0.428571 24:-1 25:-0.340909 
-1 1:-0.304348 2:-0.5 3:1 4:-0.656566 5:-0.45679 6:-0.98786 7:-0.874907 8:-0.890909 9:-0.985697 10:-0.921569 11:-0.987814 12:-0.882353 13:-0.87478 14:-0.666667 15:-0.907318 16:-1 17:0.299151 18:-1 19:-0.909091 20:-0.904762 21:-0.555556 22:-0.567568 23:-0.285714 24:-1 25:-0.522727 
-1 1:0.130435 2:-0.259259 3:-1 4:-0.171717 5:-0.975309 6:-0.97907 7:-0.846229 8:-0.890909 9:-0.97907 10:-0.960784 11:-0.962763 12:-0.529412 13:-0.883434 14:-1 15:-0.46462 16:-0.947368 17:0.739138 18:-0.882353 19:-0.636364 20:-0.904762 21:-0.555556 22:-0.297297 24:-1 25:-0.136364 
-1 1:-0.0434783 2:-0.685185 3:-1 4:-0.636364 5:-0.975309 6:-0.995349 7:-0.884021 8:-0.454545 9:-0.995349 10:-0.921569 11:-0.987814 12:-0.764706 13:-0.883434 14:-1 15:0.299151 16:-1 17:-0.22051 18:-0.607843 19:-1 20:-0.904762 21:-1 22:-0.783784 23:-0.714286 24:-1 25:-0.659091 
-1 1:0.304348 2:-0.537037 3:-1 4:-0.535354 5:-0.975309 6:-0.995349 7:-0.884021 8:-0.381818 9:-0.995349 10:-0.803922 11:-0.987814 12:-0.764706 13:-0.883434 14:-1 15:0.299151 16:-1 17:-0.22051 18:-0.490196 19:-0.454545 20:-0.619048 21:-1 22:-0.72973 23:-0.571429 24:-1 25:-0.454545 
-1 1:-0.565217 2:-0.796296 3:-1 4:-0.757576 5:-0.925926 6:-0.958022 7:-0.848777 8:-0.709091 9:-0.958022 10:-0.960784 11:-0.962763 12:-0.647059 13:-0.883434 14:-1 15:0.999999 16:-0.947368 17:0.999999 18:-0.960784 19:-1 20:-0.904762 21:-1 22:-0.837838 23:-0.714286 24:-1 25:-0.659091 
-1 1:-0.304348 2:-0.444444 3:-1 4:-0.373737 5:-0.901235 6:-0.992671 7:-0.859668 8:-0.636364 9:-0.992671 10:-0.843137 11:-0.992671 12:-1 13:-0.843909 14:-0.833333 15:0.999999 16:-0.842105 17:0.299151 18:-1 19:-0.636364 20:-0.809524 21:-0.777778 22:-0.675676 23:-0.571429 24:-1 25:-0.0909091 
-1 1:-0.130435 2:-0.259259 3:1 4:-0.79798 5:-0.407407 6:-0.946391 7:-0.837794 8:-0.927273 9:-0.953069 10:-0.921569 11:-0.997228 12:-0.529412 13:-0.883434 14:-1 15:0.999999 16:-1 17:0.999999 18:-1 19:-0.727273 20:-0.809524 21:-0.333333 22:-0.513514 24:-0.333333 25:-0.295455 
-1 1:-0.478261 2:-0.518519 3:1 4:-0.959596 5:-0.679012 6:-0.953069 7:-0.844099 8:-0.927273 9:-0.953069 10:-0.647059 11:-0.962763 12:-0.882353 13:-0.883434 14:-1 15:0.999999 16:-0.894737 17:0.999999 18:-0.72549 19:-0.272727 20:-0.619048 21:-1 22:-0.72973 23:-1 24:-1 25:-0.522727 
-1 1:-0.130435 2:-0.388889 3:-1 4:-0.313131 5:-0.604938 6:-0.978743 7:-0.85288 8:-0.854545 9:-0.990581 10:-0.764706 11:-0.995229 12:-0.764706 13:-0.883434 14:-1 15:-0.22051 16:-1 17:-0.22051 18:-0.843137 19:-0.545455 20:-0.904762 21:-0.333333 22:-0.351351 23:-0.571429 24:-1 25:-0.136364 
-1 1:0.217391 2:0.111111 3:1 4:-0.818182 5:0.185185 6:-0.962438 7:-0.852946 8:-0.781818 9:-0.99486 10:-1 11:-0.962763 12:-0.647059 13:-0.885826 14:-0.666667 15:0.999999 16:-0.947368 17:0.299151 18:-0.882353 19:-0.363636 20:-0.809524 21:0.555556 22:-0.189189 23:-0.142857 24:-1 25:0.0681818 
-1 1:-0.217391 2:-0.537037 3:-1 4:-0.79798 5:-0.82716 6:-0.992671 7:-0.881492 8:-0.963636 9:-0.992671 10:-0.921569 11:-0.99486 12:-0.647059 13:-0.883434 14:-1 15:0.299151 16:-0.736842 17:0.299151 18:-0.921569 19:-0.727273 20:-0.809524 21:-0.333333 22:-0.72973 23:-0.714286 24:-1 25:-0.636364 
-1 1:-0.130435 2:-0.222222 3:-1 4:-0.131313 5:-0.925926 6:-0.950786 7:-0.846578 8:-0.6 9:-0.950786 10:-0.843137 11:-0.962763 12:-0.764706 13:-0.883434 14:-1 15:0.999999 16:-1 17:0.299151 18:-1 19:-0.727273 20:-0.238095 21:-0.555556 22:-0.351351 23:-0.428571 24:-1 25:-0.204545 
-1 1:-0.130435 2:-0.444444 3:-1 4:-0.656566 5:-0.82716 6:-0.946488 7:-0.844099 8:-0.963636 9:-0.946488 10:-0.764706 11:-0.987814 12:-0.647059 13:-0.883434 14:-1 15:0.299151 16:-0.842105 17:0.299151 18:-1 19:-0.636364 20:-1 21:-0.555556 22:-0.513514 23:-0.571429 24:-1 25:-0.545455 
-1 1:-0.565217 2:-0.759259 3:-1 4:-0.717172 5:-1 6:-0.997578 7:-0.886126 8:-0.527273 9:-0.997578 10:-0.960784 11:-0.962763 12:-0.764706 13:-0.883434 14:-1 15:0.999999 16:-1 17:0.913216 18:-0.960784 19:-0.818182 20:-0.809524 21:-1 22:-0.891892 23:-0.714286 24:-1 25:-0.704545 
-1 1:-0.478261 2:-0.722222 3:-1 4:-0.69697 5:-1 6:-0.981372 7:-0.879516 8:-0.745455 9:-0.981372 10:-0.72549 11:-0.962763 12:-0.764706 13:-0.852822 14:-0.666667 15:0.999999 16:-1 17:-0.22051 18:-0.568627 19:-0.727273 20:-0.809524 21:-0.777778 22:-0.891892 23:-0.857143 24:-1 25:-0.863636 
-1 1:-0.304348 2:-0.351852 3:1 4:-0.818182 5:-0.135802 6:-0.981367 7:-0.870819 8:-0.963636 9:-0.985832 10:-0.803922 11:-0.969741 12:-0.764706 13:-0.87478 14:-1 15:0.299151 16:-1 17:0.299151 18:-0.921569 19:-0.636364 20:-0.904762 21:-0.555556 22:-0.513514 23:-0.142857 24:-1 25:-0.431818 
-1 1:-0.652174 2:-0.888889 3:-1 4:-0.858586 5:-0.975309 6:-1 7:-0.888412 8:-0.709091 9:-1 10:-0.921569 11:-0.962763 12:-0.529412 13:-0.883434 14:-1 15:0.999999 16:-0.894737 17:-0.22051 18:-1 19:-1 20:-0.809524 21:-1 22:-0.945946 23:-0.857143 24:-1 25:-0.727273 
-1 1:-0.478261 2:-0.703704 3:-1 4:-0.69697 5:-0.925926 6:-0.958022 7:-0.868361 8:-0.745455 9:-0.958022 10:-0.960784 11:-0.987814 12:-0.882353 13:-0.883434 14:-1 15:0.299151 16:-0.947368 17:-0.22051 18:-0.921569 19:-0.818182 20:-1 21:-0.777778 22:-0.675676 23:-0.714286 24:-1 25:-0.818182 
-1 1:-0.0434783 2:0.111111 3:1 4:-0.353535 5:-0.0123457 6:-0.950719 7:-0.876903 8:-0.927273 9:-0.969557 10:-0.882353 11:-0.987814 12:-0.882353 13:-0.883434 14:-1 15:-0.91339 16:-0.789474 17:0.999999 18:-1 19:0.545455 20:-0.904762 21:0.333333 22:-0.135135 23:-0.714286 24:-0.333333 25:-0.204545 
-1 1:-0.304348 2:-0.648148 3:-1 4:-0.616162 5:-0.901235 6:-1 7:-0.888412 8:-0.272727 9:-1 10:-0.803922 11:-0.992671 12:-1 13:-0.852871 14:-0.833333 15:-0.822274 16:-0.894737 17:0.999999 18:-1 19:-1 20:-1 21:-1 22:-0.675676 23:-0.571429 24:-1 25:-0.568182 
-1 1:-0.478261 2:-0.518519 3:-1 4:-0.454545 5:-1 6:-0.978764 7:-0.868361 8:-0.345455 9:-0.978764 10:-0.647059 11:-0.962763 12:-0.294118 13:-0.852871 14:-0.833333 15:0.999999 16:-0.789474 17:0.318248 18:-0.372549 19:-0.818182 20:-0.904762 21:-1 22:-0.621622 23:-0.714286 24:-1 25:-0.568182 
-1 1:-0.391304 2:-0.592593 3:1 4:-0.939394 5:-0.777778 6:-0.946488 7:-0.837886 8:-0.927273 9:-0.992671 10:-0.921569 11:-0.987814 12:-0.882353 13:-0.872519 14:-0.833333 15:0.299151 16:-1 17:-0.22051 18:-0.960784 19:-0.727273 20:-1 21:-0.777778 22:-0.783784 23:-0.714286 24:-1 25:-0.75 
-1 1:-0.391304 2:-0.703704 3:-1 4:-0.656566 5:-0.82716 6:-0.997228 7:-0.885795 8:-0.381818 9:-0.997228 10:-0.72549 11:-0.962763 12:-0.294118 13:-0.844042 14:-0.666667 15:0.999999 16:-0.789474 17:0.299151 18:-1 19:-1 20:-0.809524 21:-1 22:-0.837838 23:-0.714286 24:-1 25:-0.704545 
-1 1:-0.217391 2:-0.388889 3:-1 4:-0.333333 5:-0.975309 6:-0.955624 7:-0.879515 8:-0.309091 9:-0.955624 10:-0.921569 11:-0.955508 12:-0.411765 13:-0.883434 14:-1 15:0.999999 16:-0.842105 17:0.745392 18:-0.803922 19:-0.909091 20:-0.809524 21:-0.555556 22:-0.513514 23:-0.285714 24:-1 25:-0.409091 
-1 1:-0.478261 2:-0.5 3:1 4:-0.858586 5:-0.481481 6:-0.946391 7:-0.837794 8:-0.963636 9:-0.958113 10:-0.529412 11:-0.955508 12:-0.764706 13:-0.883434 14:-1 15:0.999999 16:-1 17:0.999999 18:-0.686275 19:-0.545455 20:-0.809524 21:-0.777778 22:-0.675676 23:-0.857143 24:-1 25:-0.636364 
-1 1:-0.652174 2:-0.925926 3:-1 4:-0.89899 5:-0.975309 6:-0.967325 7:-0.85756 8:-0.818182 9:-0.967325 10:-0.960784 11:-0.987814 12:-0.764706 13:-0.876782 14:-0.666667 15:0.299151 16:-1 17:-0.22051 18:-1 19:-1 20:-0.904762 21:-1 22:-1 23:-0.857143 24:-1 25:-0.681818 
-1 1:-0.478261 2:-0.814815 3:-1 4:-0.777778 5:-1 6:-0.946488 7:-0.874903 8:-0.672727 9:-0.946488 10:-0.960784 11:-0.987814 12:-0.764706 13:-0.883434 14:-1 15:0.299151 16:-1 17:-0.91339 18:-0.843137 19:-1 20:-0.904762 21:-0.777778 22:-0.891892 23:-0.714286 24:-1 25:-0.75 
-1 1:-0.304348 2:-0.796296 3:-1 4:-0.777778 5:-1 6:-0.946488 7:-0.844164 8:-0.745455 9:-0.946488 10:-0.921569 11:-0.962763 12:-0.764706 13:-0.852871 14:-0.833333 15:0.999999 16:-1 17:-0.22051 18:-0.843137 19:-0.909091 20:-0.904762 21:-0.777778 22:-0.891892 23:-0.714286 24:-1 25:-0.909091 
-1 1:0.217391 2:-0.351852 3:-1 4:-0.676768 5:-1 6:-0.946488 7:-0.868342 8:-0.890909 9:-0.946488 10:-0.921569 11:-0.992671 12:-0.882353 13:-0.852871 14:-0.833333 15:0.299151 16:-0.842105 17:0.999999 18:-0.843137 19:-0.545455 20:-1 21:-0.555556 22:-0.351351 23:-0.428571 24:-1 25:-0.454545 
-1 1:-0.565217 2:-0.518519 3:-1 4:-0.474747 5:-0.753086 6:-0.990577 7:-0.868361 8:-0.636364 9:-0.978764 10:-0.764706 11:-0.962763 12:-0.294118 13:-0.852871 14:-0.833333 15:0.999999 16:-0.789474 17:-0.22051 18:-0.686275 19:-0.818182 20:-0.904762 21:-0.777778 22:-0.72973 23:-0.857143 24:-1 25:-0.613636 
-1 1:-0.478261 2:-0.425926 3:1 4:-0.939394 5:-0.876543 6:-0.99758 7:-0.886128 8:-0.890909 9:-0.99758 10:-0.960784 11:-0.962763 12:-0.764706 13:-0.883434 14:-1 15:0.999999 16:-1 17:0.999999 18:-0.921569 19:-0.636364 20:-0.904762 21:-0.555556 22:-0.351351 23:-0.571429 24:-1 25:-0.5 
-1 1:-0.304348 2:-0.185185 3:-1 4:-0.252525 5:-0.679012 6:-0.969646 7:-0.852946 8:0.236364 9:-0.962438 10:-0.607843 11:-0.962763 12:-0.647059 13:-0.883434 14:-1 15:0.999999 16:-0.947368 17:0.299151 18:-0.960784 19:-0.272727 20:-0.904762 21:-0.777778 22:-0.405405 24:-1 25:-0.318182 
-1 1:-0.478261 2:-0.777778 3:-1 4:-0.737374 5:-0.925926 6:-0.946488 7:-0.837886 8:-0.818182 9:-0.946488 10:-0.803922 11:-0.962763 12:-0.764706 13:-0.843978 14:-0.666667 15:0.999999 16:-1 17:0.999999 18:-1 19:-1 20:-0.52381 21:-1 22:-0.945946 23:-0.714286 24:-1 25:-0.840909 
-1 1:-0.565217 2:-0.666667 3:1 4:-0.939394 5:-0.555556 6:-0.946488 7:-0.837886 8:-0.745455 9:-0.992671 10:-0.921569 11:-0.962763 12:-0.764706 13:-0.883434 14:-1 15:0.999999 16:-1 17:0.999999 18:-1 19:-0.818182 20:-0.904762 21:-0.555556 22:-0.783784 23:-0.428571 24:-1 25:-0.772727 
-1 1:-0.652174 2:-0.833333 3:-1 4:-0.858586 5:-1 6:-1 7:-0.888412 8:-0.709091 9:-1 10:-0.960784 11:-0.962763 12:-0.647059 13:-0.883434 14:-1 15:0.999999 16:-0.947368 17:-0.822274 18:-0.921569 19:-1 20:-1 21:-1 22:-0.837838 23:-0.857143 24:-1 25:-0.75 
-1 1:-0.217391 2:-0.148148 3:1 4:-0.979798 5:-0.555556 6:-0.946391 7:-0.837794 8:-0.490909 9:-0.946391 10:-0.882353 11:-0.962763 12:-0.882353 13:-0.883434 14:-1 15:-0.22051 16:-1 17:-0.467348 18:-1 19:-0.363636 20:-0.809524 21:-0.777778 22:-0.459459 23:-0.285714 24:-1 25:-0.25 
-1 1:-0.826087 2:-0.907407 3:1 4:-0.979798 5:-0.901235 6:-1 7:-0.888412 8:-0.927273 9:-1 10:-0.803922 11:-0.992671 12:-1 13:-0.883434 14:-1 15:-0.467348 16:-1 17:-0.467348 18:-0.960784 19:-1 20:-1 21:-1 22:-0.837838 23:-1 24:-1 25:0.25 
-1 1:-0.565217 2:-0.814815 3:-1 4:-0.878788 5:-1 6:-1 7:-0.888412 8:-0.745455 9:-1 10:-0.960784 11:-0.962763 12:-0.882353 13:-0.852893 14:-0.5 15:-0.22051 16:-1 17:-0.22051 18:-0.843137 19:-1 20:-1 21:-1 22:-0.837838 23:-1 24:-1 25:-0.636364 
-1 1:-0.130435 2:0.277778 3:1 4:-0.818182 5:0.283951 6:-0.985695 7:-0.859756 8:-0.927273 9:-0.958023 10:-0.803922 11:-0.962763 12:-0.647059 13:-0.883434 14:-1 15:0.999999 16:-0.947368 17:0.299151 18:-1 19:0.181818 20:-0.714286 21:0.333333 22:-0.027027 23:-0.571429 24:-1 25:0.0454545 
-1 1:-0.652174 2:-0.777778 3:-1 4:-0.737374 5:-0.851852 6:-0.978739 7:-0.881561 8:-0.6 9:-0.992744 10:-0.843137 11:-0.962763 12:-0.647059 13:-0.883434 14:-1 15:0.999999 16:-0.947368 17:0.299151 18:-1 19:-1 20:-0.904762 21:-0.777778 22:-0.837838 23:-0.714286 24:-1 25:-0.204545 
-1 1:-0.304348 2:-0.796296 3:-1 4:-0.777778 5:-0.901235 6:-0.99758 7:-0.844295 8:-0.854545 9:-0.99758 10:-0.960784 11:-0.962763 12:-0.764706 13:-0.883434 14:-1 15:0.999999 16:-1 17:0.299151 18:-1 19:-0.909091 20:-0.904762 21:-0.777778 22:-0.837838 23:-0.714286 24:-1 25:-0.909091 
-1 1:-0.391304 2:-0.703704 3:1 4:-1 5:-0.654321 6:-0.953069 7:-0.844099 8:-0.927273 9:-0.953069 10:-0.529412 11:-0.962763 12:-0.882353 13:-0.883434 14:-1 15:-0.467348 16:-0.894737 17:0.999999 18:-0.72549 19:-0.636364 20:-0.809524 21:-1 22:-0.837838 23:-0.857143 24:-1 25:-0.454545 
-1 1:-0.73913 2:-0.851852 3:1 4:-0.939394 5:-0.777778 6:-0.978743 7:-0.844099 8:-0.927273 9:-0.953069 10:-0.843137 11:-0.962763 12:-0.882353 13:-0.883434 14:-1 15:-0.22051 16:-1 17:0.999999 18:-0.921569 19:-1 20:-1 21:-0.777778 22:-0.891892 23:-0.857143 24:-1 25:-0.75 
-1 1:-0.73913 2:-0.833333 3:1 4:-0.979798 5:-0.876543 6:-0.953069 7:-0.844099 8:-0.927273 9:-0.953069 10:-0.921569 11:-0.962763 12:-0.882353 13:-0.87478 14:-1 15:0.999999 16:-0.894737 17:0.999999 18:-1 19:-1 20:-1 21:-1 22:-0.837838 23:-0.857143 24:-1 25:-0.431818 
-1 1:-0.478261 2:-0.722222 3:-1 4:-0.676768 5:-1 6:-1 7:-0.888412 8:-0.381818 9:-1 10:-0.960784 11:-0.962763 12:-0.764706 13:-0.852758 14:-0.5 15:0.999999 16:-1 17:-0.22051 18:-0.882353 19:-0.818182 20:-0.904762 21:-1 22:-0.837838 23:-0.714286 24:-1 25:-0.431818 
-1 1:-0.478261 2:-0.555556 3:1 4:-0.919192 5:-0.530864 6:-0.946488 7:-0.837886 8:-0.927273 9:-0.946488 10:-0.490196 11:-0.987814 12:-0.882353 13:-0.883434 14:-1 15:0.299151 16:-1 17:-0.902 18:-0.803922 19:-0.636364 20:-1 21:-1 22:-0.72973 23:-0.857143 24:-0.333333 25:-0.681818 
-1 1:-0.391304 2:-0.62963 3:-1 4:-0.575758 5:-0.851852 6:-0.98786 7:-0.87695 8:-0.236364 9:-0.98786 10:-0.764706 11:-0.992671 12:-1 13:-0.883434 14:-1 15:0.999999 16:-0.894737 17:0.909909 18:-1 19:-0.636364 20:-1 21:-1 22:-0.621622 23:-0.571429 24:-1 25:-0.704545 
-1 1:-0.391304 2:-0.555556 3:-1 4:-0.494949 5:-1 6:-0.990579 7:-0.879516 8:-0.563636 9:-0.990579 10:-0.490196 11:-0.969741 12:-0.647059 13:-0.883434 14:-1 15:0.299151 16:-0.947368 17:0.913216 18:-0.490196 19:-0.636364 20:-0.52381 21:-1 22:-0.675676 23:-0.714286 24:-1 25:-0.5 
-1 1:-0.0434783 2:0.12963 3:-1 4:0.191919 5:-0.950617 6:-0.981372 7:-0.879516 8:0.672727 9:-0.981372 10:-0.607843 11:-0.987814 12:-0.764706 13:-0.701655 14:-0.5 15:0.299151 16:-1 17:0.318248 18:-0.490196 19:-0.363636 20:-0.904762 21:-0.777778 22:-0.0810811 23:0.142857 24:-1 25:0.0681818 
-1 1:0.130435 2:-0.0740741 3:1 4:-0.777778 5:-0.308642 6:-1 7:-0.888412 8:-0.890909 9:-0.992671 10:-0.960784 11:-0.962763 12:-0.882353 13:-0.883434 14:-1 15:0.299151 16:-1 17:-0.467348 18:-0.686275 19:-0.272727 20:-0.52381 21:0.333333 22:-0.567568 23:-0.714286 24:-1 25:-0.159091 
-1 1:-0.565217 2:-0.62963 3:1 4:-0.919192 5:-0.580247 6:-0.995321 7:-0.883994 8:-0.818182 9:-0.995321 10:-0.686275 11:-0.987812 12:-0.882353 13:-0.852871 14:-0.833333 15:0.299151 16:-0.736842 17:-0.90802 18:-1 19:-1 20:-1 21:-1 22:-0.621622 23:-0.857143 24:-1 25:-0.590909 
-1 1:-0.391304 2:-0.592593 3:1 4:-0.939394 5:-0.753086 6:-0.97907 7:-0.86865 8:-0.709091 9:-0.97907 10:-0.960784 11:-0.962763 12:-0.764706 13:-0.883434 14:-1 15:0.999999 16:-1 17:0.999999 18:-0.882353 19:-0.909091 20:-0.904762 21:-0.555556 22:-0.72973 23:-0.571429 24:-1 25:-0.636364 
-1 1:-0.304348 2:-0.666667 3:-1 4:-0.737374 5:-0.851852 6:-0.992671 7:-0.881492 8:-0.527273 9:-0.992671 10:-0.764706 11:-0.953069 12:-0.764706 13:-0.883434 14:-1 15:-0.467348 16:-1 17:0.299151 18:-1 19:-0.636364 20:-0.809524 21:-1 22:-0.72973 23:-0.857143 24:-1 25:-0.409091 
-1 1:-0.478261 2:-0.833333 3:-1 4:-0.79798 5:-1 6:-0.97907 7:-0.885795 8:-0.709091 9:-0.97907 10:-0.960784 11:-0.955788 12:-0.764706 13:-0.883434 14:-1 15:-0.22051 16:-1 17:0.999999 18:-0.921569 19:-1 20:-0.904762 21:-0.777778 22:-0.837838 23:-0.714286 24:-1 25:-0.681818 
-1 1:-0.478261 2:-0.5 3:-1 4:-0.434343 5:-0.901235 6:-0.962369 7:-0.844099 8:-0.927273 9:-0.962369 10:-0.843137 11:-0.962763 12:-0.529412 13:-0.883434 14:-1 15:-0.467348 16:-1 17:-0.822274 18:-1 19:-0.909091 20:-0.904762 21:-0.555556 22:-0.567568 23:-0.428571 24:-1 25:-0.386364 
-1 1:-0.217391 2:-0.703704 3:-1 4:-0.79798 5:-1 6:-0.97907 7:-0.848777 8:-0.890909 9:-0.97907 10:-0.921569 11:-0.962763 12:-0.882353 13:-0.852871 14:-0.833333 15:-0.22051 16:-1 17:-0.467348 18:-0.803922 19:-0.909091 20:-1 21:-0.777778 22:-0.72973 23:-0.571429 24:-1 25:-0.795455 
-1 1:-0.304348 2:-0.203704 3:1 4:-0.878788 5:-0.308642 6:-0.985695 7:-0.886062 8:-0.927273 9:-0.958113 10:-0.843137 11:-0.962763 12:-0.882353 13:-0.852871 14:-0.833333 15:-0.635215 16:-0.947368 17:-0.546137 18:-0.647059 19:-0.727273 20:-0.809524 21:-0.111111 22:-0.297297 23:-0.714286 24:-1 25:-0.227273 
-1 1:-0.565217 2:-0.537037 3:-1 4:-0.515152 5:-0.604938 6:-0.98786 7:-0.852883 8:-0.745455 9:-0.962371 10:-0.960784 11:-0.987814 12:-0.882353 13:-0.883434 14:-1 15:0.299151 16:-1 17:0.299151 18:-1 19:-0.363636 20:-0.904762 21:-0.777778 22:-0.72973 23:-0.857143 24:-1 25:-0.727273 
-1 1:-0.652174 2:-0.907407 3:-1 4:-0.878788 5:-1 6:-0.99486 7:-0.883559 8:-0.781818 9:-0.99486 10:-1 11:-0.962763 12:-0.764706 13:-0.85972 14:-0.833333 15:0.999999 16:-1 17:-0.22051 18:-0.921569 19:-1 20:-0.904762 21:-1 22:-0.891892 23:-0.857143 24:-1 25:-0.545455 
-1 1:-0.478261 2:-0.537037 3:1 4:-0.636364 5:-0.358025 6:-0.978739 7:-0.848777 8:-0.781818 9:-0.958023 10:-0.921569 11:-0.962763 12:-0.647059 13:-0.883434 14:-1 15:0.999999 16:-0.947368 17:0.299151 18:-0.882353 19:-0.818182 20:-0.809524 21:-0.777778 22:-0.513514 23:-0.428571 24:-1 25:-0.386364 
-1 1:-0.565217 2:-0.518519 3:-1 4:-0.474747 5:-0.753086 6:-0.978764 7:-0.868361 8:-0.454545 9:-0.978764 10:-0.960784 11:-0.962763 12:-0.764706 13:-0.883434 14:-1 15:0.999999 16:-1 17:1 18:-1 19:-0.909091 20:-0.619048 21:-1 22:-0.567568 23:-0.285714 24:-1 25:-0.568182 
-1 1:-0.217391 2:-0.537037 3:-1 4:-0.494949 5:-0.925926 6:-0.992671 7:-0.884021 8:-0.709091 9:-0.992671 10:-0.529412 11:-0.969741 12:-0.764706 13:-0.883434 14:-1 15:0.299151 16:-1 17:-0.91339 18:-0.843137 19:-0.636364 20:-0.904762 21:-0.777778 22:-0.783784 23:-0.714286 24:-1 25:-0.659091 
-0.1400820645796729 1:-0.478261 2:-0.333333 3:-1 4:-0.79798 5:-1 6:-0.978764 7:-0.868361 8:-0.745455 9:-0.978764 10:-0.882353 11:-0.955229 12:-0.882353 13:-0.861475 14:-0.333333 15:-0.46462 16:-0.736842 17:-0.46462 18:-0.411765 19:-0.545455 20:-0.714286 21:-1 22:-0.297297 23:-0.428571 24:-1 25:-0.454545 
-1 1:-0.565217 2:-0.685185 3:-1 4:-0.636364 5:-0.802469 6:-0.958018 7:-0.848773 8:-0.345455 9:-0.958018 10:-0.686275 11:-0.962763 12:-0.411765 13:-0.841761 14:-0.666667 15:0.999999 16:-0.842105 17:0.299151 18:-1 19:-1 20:-0.619048 21:-1 22:-0.891892 23:-0.714286 24:-1 25:-0.727273 
-1 1:-0.391304 2:-0.703704 3:1 4:-0.89899 5:-0.728395 6:-0.95072 7:-0.868337 8:-0.927273 9:-0.978739 10:-0.843137 11:-0.969418 12:-0.764706 13:-0.883434 14:-1 15:0.999999 16:-1 17:0.299151 18:-1 19:-1 20:-0.904762 21:-0.777778 22:-0.621622 23:-0.571429 24:-1 25:-0.681818 
-1 1:0.130435 2:-0.12963 3:-1 4:-0.0505051 5:-0.876543 6:-0.997578 7:-0.859536 8:0.127273 9:-0.997578 10:-0.921569 11:-0.962763 12:-0.882353 13:-0.883434 14:-1 15:0.299151 16:-1 17:0.299151 18:-0.921569 19:-0.181818 20:-0.619048 21:-0.555556 22:-0.297297 23:-0.428571 24:-1 25:0.340909 
-1 1:-0.652174 2:-0.814815 3:-1 4:-0.777778 5:-0.876543 6:-0.992671 7:-0.881492 8:-0.6 9:-0.992671 10:-0.803922 11:-0.985763 12:-0.647059 13:-0.883434 14:-1 15:-0.22051 16:-0.947368 17:0.999999 18:-1 19:-1 20:-0.904762 21:-1 22:-0.891892 23:-0.714286 24:-1 25:-0.727273 
-1 1:0.217391 3:-1 4:0.030303 5:-0.506173 6:-0.992671 7:-0.868229 8:-0.927273 9:-0.9976 10:-0.764706 11:-0.971601 12:-0.882353 13:-0.883434 14:-1 15:-0.46462 16:-1 17:0.299151 18:-0.568627 19:-0.0909091 20:-0.52381 21:0.111111 22:-0.189189 23:-0.571429 24:-1 25:-0.136364 
-1 1:-0.652174 2:-0.888889 3:-1 4:-0.878788 5:-1 6:-1 7:-0.888412 8:-0.745455 9:-1 10:-0.960784 11:-0.962603 12:-0.882353 13:-0.883434 14:-1 15:-0.22051 16:-0.947368 17:-0.467348 18:-1 19:-1 20:-0.904762 21:-1 22:-0.891892 23:-0.857143 24:-1 25:-0.454545 
-1 1:-0.478261 2:-0.851852 3:1 4:-0.979798 5:-0.851852 6:-0.985695 7:-0.874905 8:-0.927273 9:-0.985695 10:-0.882353 11:-0.962603 12:-0.882353 13:-0.883434 14:-1 15:0.999999 16:-0.842105 17:0.999999 18:-1 19:-1 20:-1 21:-1 22:-0.837838 23:-0.857143 24:-1 25:-0.204545 
-1 1:-0.304348 2:-0.759259 3:-1 4:-0.757576 5:-1 6:-0.981372 7:-0.870824 8:-0.6 9:-0.981372 10:-0.960784 11:-0.992671 12:-1 13:-0.855041 14:-0.333333 15:0.999999 16:-0.947368 17:0.299151 18:-0.843137 19:-1 20:-0.904762 21:-1 22:-0.72973 23:-0.714286 24:-1 25:-0.818182 
-1 1:-0.565217 2:-0.537037 3:1 4:-0.616162 5:-0.358025 6:-0.946391 7:-0.837794 8:-0.309091 9:-0.946391 10:0.0196078 11:-0.992671 12:-1 13:-0.883434 14:-1 15:-0.822274 16:-1 17:0.299151 18:-1 19:-0.545455 20:-0.714286 21:-1 22:-0.459459 23:-0.571429 24:-1 25:-0.318182 
-1 1:-0.73913 2:-0.777778 3:-1 4:-0.858586 5:-0.901235 6:-0.992671 7:-0.881492 8:-1 9:-0.992671 10:-0.882353 11:-0.978742 12:-0.882353 13:-0.868217 14:-0.666667 15:-0.22051 16:-1 17:0.999999 18:-0.960784 19:-1 20:-0.904762 21:-1 22:-0.891892 23:-0.714286 24:-1 25:-0.590909 
-1 1:-0.478261 2:-0.833333 3:-1 4:-0.79798 5:-1 6:-1 7:-0.888412 8:-0.6 9:-1 10:-0.960784 11:-0.962763 12:-0.764706 13:-0.881369 14:-0.833333 15:0.999999 16:-1 17:-0.467348 18:-0.921569 19:-1 20:-0.904762 21:-1 22:-0.837838 23:-0.714286 24:-1 25:-0.590909 
-1 1:-0.391304 2:-0.814815 3:-1 4:-0.858586 5:-0.950617 6:-0.99758 7:-0.844295 8:-0.927273 9:-0.99758 10:-0.921569 11:-0.962763 12:-0.882353 13:-0.881369 14:-0.833333 15:-0.22051 16:-1 17:-0.22051 18:-0.882353 19:-1 20:-1 21:-0.555556 22:-0.891892 23:-1 24:-1 25:-0.704545 
-1 1:-0.652174 2:-0.907407 3:1 4:-0.979798 5:-0.851852 6:-0.997256 7:-0.885821 8:-0.927273 9:-0.953069 10:-0.921569 11:-0.962763 12:-0.882353 13:-0.883434 14:-1 15:0.999999 16:-0.842105 17:0.999999 18:-1 19:-1 20:-0.904762 21:-0.777778 22:-0.945946 23:-1 24:-1 25:-0.613636 
-1 1:-0.73913 2:-0.907407 3:1 4:-0.979798 5:-0.851852 6:-0.953069 7:-0.844099 8:-0.890909 9:-0.953069 10:-0.921569 11:-0.962763 12:-0.882353 13:-0.883434 14:-1 15:0.999999 16:-0.842105 17:0.999999 18:-1 19:-1 20:-0.809524 21:-1 22:-0.945946 23:-1 24:-0.333333 25:-0.227273 
-1 1:-0.478261 2:-0.518519 3:-1 4:-0.535354 5:-0.580247 6:-0.978739 7:-0.837794 8:-0.927273 9:-0.978739 10:-0.843137 11:-0.962763 12:-0.882353 13:-0.883434 14:-1 15:0.299151 16:-0.947368 17:0.299151 18:-1 19:-0.727273 20:-0.333333 21:-0.777778 22:-0.783784 23:-0.714286 24:-1 25:-0.659091 
-1 1:-0.217391 2:-0.62963 3:-1 4:-0.575758 5:-0.876543 6:-0.946488 7:-0.885795 8:-0.490909 9:-0.946488 10:-0.960784 11:-0.962763 12:-0.411765 13:-0.883434 14:-1 15:0.999999 16:-0.842105 17:0.999999 18:-0.921569 19:-1 20:-0.904762 21:-0.777778 22:-0.675676 23:-0.428571 24:-1 25:-0.659091 
-1 1:-0.391304 2:-0.666667 3:1 4:-0.89899 5:-0.580247 6:-1 7:-0.888412 8:-0.781818 9:-1 10:-0.294118 11:-0.962763 12:-0.647059 13:-0.883434 14:-1 15:0.999999 16:-0.947368 17:0.299151 18:-1 19:-0.909091 20:-0.904762 21:-1 22:-0.675676 23:-0.571429 24:-1 25:-0.704545 
-1 1:-0.652174 2:-0.907407 3:1 4:-1 5:-0.925926 6:-0.953069 7:-0.844099 8:-0.963636 9:-0.992671 10:-0.960784 11:-0.99486 12:-0.647059 13:-0.883434 14:-1 15:0.999999 16:-0.947368 17:0.999999 18:-1 19:-1 20:-0.904762 21:-0.777778 22:-0.945946 23:-0.857143 24:-1 25:-0.681818 
-1 1:-0.478261 2:-0.555556 3:-1 4:-0.818182 5:-0.901235 6:-0.958019 7:-0.848774 8:-0.745455 9:-0.958019 10:-0.921569 11:-0.985693 12:-0.647059 13:-0.839983 14:-0.833333 15:-1 16:-0.526316 17:-1 18:-0.843137 19:-0.363636 20:-0.904762 21:-1 22:-0.567568 23:-1 24:-1 25:-0.522727 
-1 1:-0.478261 2:-0.777778 3:1 4:-0.959596 5:-0.728395 6:-0.990488 7:-0.879431 8:-0.963636 9:-0.990488 10:-0.686275 11:-0.962763 12:-0.764706 13:-0.883434 14:-1 15:0.999999 16:-1 17:0.299151 18:-0.960784 19:-1 20:-0.904762 21:-1 22:-0.837838 23:-0.714286 24:-1 25:-0.840909 
-1 1:-0.478261 2:-0.5 3:-1 4:-0.454545 5:-0.851852 6:-0.978743 7:-0.848777 8:-0.672727 9:-0.978743 10:-0.921569 11:-0.992671 12:-1 13:-0.846105 14:-0.833333 15:-0.46462 16:-0.894737 17:0.739138 18:-1 19:-0.909091 20:-1 21:-0.555556 22:-0.459459 23:-0.714286 24:-1 25:-0.522727 
-1 1:-0.130435 2:-0.537037 3:1 4:-0.878788 5:-0.703704 6:-0.946391 7:-0.837794 8:-0.927273 9:-0.99486 10:-1 11:-0.992671 12:-1 13:-0.848652 14:-0.666667 15:-0.46462 16:-0.894737 17:0.999999 18:-1 19:-0.818182 20:-0.809524 21:-0.555556 22:-0.567568 23:-0.571429 24:-1 25:-0.613636 
-1 1:0.217391 2:-0.611111 3:-1 4:-0.737374 5:-1 6:-0.981372 7:-0.86865 8:-0.890909 9:-0.981372 10:-0.960784 11:-0.978743 12:-0.764706 13:-0.883434 14:-1 15:-0.22051 16:-1 17:-0.22051 18:-0.568627 19:-0.909091 20:-0.809524 21:-0.111111 22:-0.72973 23:-0.857143 24:-1 25:-0.568182 
-1 1:-0.478261 2:-0.388889 3:-1 4:-0.656566 5:-0.950617 6:-0.995066 7:-0.876903 8:-0.672727 9:-0.995066 10:-0.921569 11:-0.971601 12:-0.882353 13:-0.883434 14:-1 15:-0.22051 16:-0.894737 17:0.299151 18:-0.882353 19:-0.818182 20:-1 21:-0.555556 22:-0.405405 23:-0.571429 24:-0.333333 25:-0.431818 
-1 1:-0.217391 2:-0.722222 3:-1 4:-0.676768 5:-0.851852 6:-0.946391 7:-0.844099 8:-0.890909 9:-0.946391 10:-0.921569 11:-0.962763 12:-0.764706 13:-0.883434 14:-1 15:0.999999 16:-1 17:0.299151 18:-0.921569 19:-1 20:-0.904762 21:-0.555556 22:-0.783784 23:-0.714286 24:-1 25:-0.409091 
-1 1:-0.217391 2:-0.462963 3:1 4:-0.979798 5:-0.901235 6:-0.978743 7:-0.868342 8:-0.818182 9:-0.978743 10:-0.921569 11:-0.955325 12:-0.882353 13:-0.883434 14:-1 15:-0.22051 16:-1 17:-0.22051 18:-0.882353 19:-0.636364 20:-0.904762 21:-0.777778 22:-0.675676 23:-0.428571 24:-1 25:-0.636364 
-1 1:-0.478261 2:-0.537037 3:-1 4:-0.474747 5:-0.925926 6:-0.992671 7:-0.881492 8:-0.0545455 9:-0.992671 10:-0.882353 11:-0.962671 12:-0.764706 13:-0.883434 14:-1 15:0.999999 16:-1 17:0.909909 18:-0.921569 19:-0.909091 20:-0.619048 21:-1 22:-0.675676 23:-0.142857 24:-1 25:-0.477273 
-1 1:-0.652174 2:-0.851852 3:-1 4:-0.818182 5:-0.82716 6:-0.997228 7:-0.885795 8:-0.672727 9:-0.997228 10:-0.72549 11:-0.99486 12:-0.764706 13:-0.883434 14:-1 15:-0.467348 16:-1 17:-0.467348 18:-1 19:-1 20:-0.904762 21:-1 22:-0.891892 23:-0.714286 24:-1 25:-0.795455 
-1 1:-0.217391 2:-0.611111 3:1 4:-0.939394 5:-0.481481 6:-0.946391 7:-0.837794 8:-0.854545 9:-0.992671 10:-0.843137 11:-0.95072 12:-0.882353 13:-0.883434 14:-1 15:0.299151 16:-0.947368 17:0.739138 18:-1 19:-0.818182 20:-0.714286 21:-0.555556 22:-0.72973 23:-0.428571 24:-1 25:-0.704545 
-1 1:-0.565217 2:-0.925926 3:1 4:-1 5:-0.950617 6:-0.992671 7:-0.881492 8:-0.890909 9:-0.992671 10:-0.960784 11:-0.99486 12:-0.764706 13:-0.883434 14:-1 15:0.999999 16:-1 17:0.999999 18:-1 19:-1 20:-0.904762 21:-1 22:-0.945946 23:-0.857143 24:-1 25:-0.613636 
-1 1:-0.130435 2:-0.0740741 3:-1 4:-0.373737 5:-0.654321 6:-0.971977 7:-0.861952 8:-0.418182 9:-0.971977 10:-0.960784 11:-0.981042 12:-0.882353 13:-0.883434 14:-1 15:-0.467348 16:-1 17:0.999999 18:-1 19:-0.0909091 20:-1 21:-0.777778 22:-0.297297 23:0.142857 24:-1 25:-0.25 
-1 1:-0.0434783 2:-0.555556 3:1 4:-0.89899 5:-0.654321 6:-0.990578 7:-0.879516 8:-0.818182 9:-0.953069 10:-0.921569 11:-0.981042 12:-0.882353 13:-0.883434 14:-1 15:-0.22051 16:-1 17:0.999999 18:-1 19:-0.727273 20:-1 21:-0.777778 22:-0.621622 23:-0.571429 24:-1 25:-0.613636 
-1 1:0.130435 2:-0.148148 3:1 4:-0.515152 5:0.111111 6:-0.992671 7:-0.837794 8:-0.818182 9:-0.953069 10:-0.921569 11:-0.958022 12:-0.764706 13:-0.883434 14:-1 15:-0.22051 16:-1 17:0.999999 18:-1 19:-0.454545 20:-0.714286 21:-0.111111 22:-0.297297 23:0.142857 24:-1 25:-0.159091 
-1 1:-0.391304 2:-0.592593 3:1 4:-0.777778 5:-0.604938 6:-0.992671 7:-0.86834 8:-0.854545 9:-0.978742 10:-0.960784 11:-0.962763 12:-0.882353 13:-0.881369 14:-0.833333 15:0.299151 16:-1 17:0.299151 18:-0.803922 19:-0.727273 20:-0.904762 21:-0.777778 22:-0.675676 23:-1 24:-1 25:-0.636364 
-1 1:-0.478261 2:-0.777778 3:-1 4:-0.737374 5:-0.975309 6:-0.981367 7:-0.870819 8:-0.709091 9:-0.981367 10:-0.843137 11:-0.978743 12:-0.764706 13:-0.85963 14:-0.5 15:0.299151 16:-1 17:0.299151 18:-0.72549 19:-1 20:-0.714286 21:-1 22:-0.891892 23:-0.857143 24:-1 25:-0.840909 
-1 1:-0.652174 2:-0.777778 3:-1 4:-0.737374 5:-0.876543 6:-0.992671 7:-0.881492 8:-0.527273 9:-0.992671 10:-0.803922 11:-0.978743 12:-0.764706 13:-0.883434 14:-1 15:0.299151 16:-1 17:0.299151 18:-0.960784 19:-1 20:-0.904762 21:-1 22:-0.837838 23:-0.714286 24:-1 25:-0.818182 
-1 1:-0.73913 2:-0.925926 3:1 4:-1 5:-0.901235 6:-0.953069 7:-0.844099 8:-0.963636 9:-0.953069 10:-0.882353 11:-0.992671 12:-0.411765 13:-0.881369 14:-0.833333 15:0.999999 16:-0.947368 17:0.999999 18:-0.960784 19:-1 20:-0.904762 21:-1 22:-1 23:-1 24:-1 25:-0.681818 
-1 1:-0.73913 2:-0.796296 3:1 4:-0.89899 5:-0.802469 6:-0.958019 7:-0.848774 8:-0.818182 9:-0.958019 10:-0.686275 11:-0.987814 12:-0.882353 13:-0.883434 14:-1 15:0.299151 16:-1 17:0.999999 18:-1 19:-1 20:-1 21:-1 22:-0.837838 23:-0.571429 24:-1 25:-0.204545 
-1 1:-0.565217 2:-0.462963 3:-1 4:-0.393939 5:-0.45679 6:-0.997228 7:-0.841881 8:-0.563636 9:-0.95072 10:-0.843137 11:-0.969741 12:-0.764706 13:-0.881369 14:-0.666667 15:0.299151 16:-1 17:-0.467348 18:-0.882353 19:-0.818182 20:-0.809524 21:-0.777778 22:-0.621622 23:-0.428571 24:-1 25:-0.454545 
-1 1:-0.391304 2:-0.666667 3:-1 4:-0.79798 5:-1 6:-1 7:-0.888412 8:-0.6 9:-1 10:-0.960784 11:-0.962763 12:-0.647059 13:-0.883434 14:-1 15:0.999999 16:-0.947368 17:-0.22051 18:-0.803922 19:-0.818182 20:-0.904762 21:-1 22:-0.675676 23:-0.571429 24:-1 25:-0.431818 
-1 1:-0.304348 2:-0.666667 3:1 4:-0.919192 5:-0.82716 6:-0.992671 7:-0.848777 8:-0.927273 9:-0.958023 10:-0.960784 11:-0.962763 12:-0.882353 13:-0.881369 14:-0.833333 15:-0.902 16:-1 17:-0.902 18:-0.882353 19:-0.636364 20:-0.809524 21:-0.777778 22:-0.72973 23:-1 24:-1 25:-0.545455 
-1 1:-0.391304 2:-0.407407 3:-1 4:-0.373737 5:-0.654321 6:-0.997256 7:-0.877146 8:-0.745455 9:-0.997256 10:-0.686275 11:-0.953069 12:-0.882353 13:-0.87465 14:-0.833333 15:-0.467348 16:-1 17:-0.91339 18:-0.843137 19:-0.818182 20:-1 21:-0.777778 22:-0.567568 23:-0.571429 24:-1 25:-0.454545 
-1 1:-0.478261 2:-0.814815 3:1 4:-0.979798 5:-0.777778 6:-0.958023 7:-0.848777 8:-0.745455 9:-0.958023 10:-0.960784 11:-0.962763 12:-0.882353 13:-0.876782 14:-0.666667 15:0.999999 16:-0.947368 17:0.299151 18:-0.921569 19:-1 20:-1 21:-1 22:-0.891892 23:-0.857143 24:-1 25:-0.590909 
-1 1:-0.391304 2:-0.537037 3:1 4:-0.858586 5:-0.753086 6:-0.946488 7:-0.837886 8:-0.781818 9:-0.946488 10:-0.882353 11:-0.99486 12:-0.647059 13:-0.883434 14:-1 15:0.999999 16:-0.894737 17:0.999999 18:-0.843137 19:-0.909091 20:-0.428571 21:-0.777778 22:-0.72973 23:-0.571429 24:-1 25:-0.568182 
-1 1:-0.217391 2:-0.407407 3:1 4:-0.656566 5:-0.407407 6:-0.97907 7:-0.868337 8:-0.890909 9:-0.978739 10:-0.843137 11:-0.987814 12:-0.764706 13:-0.883434 14:-1 15:0.299151 16:-1 17:0.299151 18:-1 19:-0.545455 20:-0.619048 21:-0.555556 22:-0.621622 23:-0.428571 24:-1 25:-0.5 
-1 1:0.0434783 2:-0.481481 3:1 4:-0.959596 5:-0.333333 6:-0.946488 7:-0.837886 8:-0.781818 9:-0.997228 10:-0.333333 11:-0.992673 12:-0.882353 13:-0.883434 14:-1 15:-0.22051 16:-0.947368 17:0.299151 18:-1 19:-0.545455 20:-0.809524 21:-0.777778 22:-0.621622 23:-0.428571 24:-1 25:-0.681818 
-1 1:-0.217391 2:-0.648148 3:1 4:-0.919192 5:-0.703704 6:-0.981372 7:-0.870824 8:-0.927273 9:-0.953463 10:-0.843137 11:-0.995325 12:-0.764706 13:-0.883434 14:-1 15:0.299151 16:-1 17:0.390091 18:-0.882353 19:-0.818182 20:-0.904762 21:-0.333333 22:-0.72973 23:-0.714286 24:-1 25:-0.727273 
-1 1:-0.391304 2:-0.611111 3:-1 4:-0.858586 5:-0.876543 6:-0.988045 7:-0.868341 8:-0.781818 9:-0.988045 10:-0.803922 11:-0.969418 12:-0.882353 13:-0.883434 14:-1 15:-0.22051 16:-1 17:0.299151 18:-1 19:-0.909091 20:-0.809524 21:-0.555556 22:-0.72973 23:-0.571429 24:-1 25:-0.568182 
-1 1:-0.73913 2:-0.851852 3:-1 4:-0.858586 5:-0.876543 6:-0.988045 7:-0.877124 8:-0.745455 9:-0.988045 10:-0.803922 11:-0.969418 12:-0.882353 13:-0.883434 14:-1 15:-0.22051 16:-1 17:0.299151 18:-1 19:-1 20:-1 21:-1 22:-0.837838 23:-0.857143 24:-1 25:-0.636364 
-1 1:-0.304348 2:-0.574074 3:1 4:-0.737374 5:-0.604938 6:-0.995321 7:-0.848777 8:-0.963636 9:-0.958023 10:-0.921569 11:-0.962763 12:-0.647059 13:-0.883434 14:-1 15:0.999999 16:-0.947368 17:-0.467348 18:-0.882353 19:-0.909091 20:-0.904762 21:-0.777778 22:-0.72973 23:-0.428571 24:-1 25:-0.5 
-1 1:0.130435 2:-0.518519 3:-1 4:-0.454545 5:-1 6:-0.97907 7:-0.879516 8:-0.563636 9:-0.97907 10:-0.686275 11:-0.962763 12:-0.529412 13:-0.883434 14:-1 15:0.999999 16:-0.894737 17:0.999999 18:-0.372549 19:-0.818182 20:-0.428571 21:-0.555556 22:-0.675676 23:-0.571429 24:-1 25:-0.568182 
-1 1:-0.478261 2:-0.62963 3:1 4:-1 5:-0.802469 6:-0.978742 7:-0.86834 8:-0.890909 9:-0.978742 10:-0.803922 11:-0.962763 12:-0.882353 13:-0.883434 14:-1 15:0.999999 16:-0.684211 17:0.999999 18:-1 19:-0.636364 20:-0.619048 21:-0.777778 22:-0.675676 23:-0.857143 24:-1 25:-0.568182 
-1 1:-0.652174 2:-0.907407 3:-1 4:-0.878788 5:-0.950617 6:-0.992671 7:-0.881492 8:-0.781818 9:-0.992671 10:-0.921569 11:-0.962763 12:-0.764706 13:-0.883434 14:-1 15:0.999999 16:-1 17:0.999999 18:-1 19:-1 20:-0.904762 21:-1 22:-0.945946 23:-0.714286 24:-1 25:-0.340909 
-1 1:-0.217391 2:-0.611111 3:1 4:-1 5:-0.82716 6:-0.946391 7:-0.837794 8:-0.927273 9:-0.953069 10:-0.843137 11:-0.958112 12:-0.882353 13:-0.868217 14:-0.833333 15:0.999999 16:-0.842105 17:0.999999 18:-0.921569 19:-0.818182 20:-0.809524 21:-0.555556 22:-0.72973 23:-0.714286 24:-1 25:-0.704545 
-1 1:-0.391304 2:-0.666667 3:-1 4:-0.616162 5:-0.82716 6:-0.978743 7:-0.885821 8:-0.709091 9:-0.978743 10:-0.843137 11:-0.990576 12:-0.764706 13:-0.883434 14:-1 15:-0.467348 16:-1 17:-0.22051 18:-0.843137 19:-0.727273 20:-0.52381 21:-0.777778 22:-0.837838 23:-0.714286 24:-1 25:-0.75 
-1 1:-0.217391 2:-0.537037 3:1 4:-0.919192 5:-0.407407 6:-0.962371 7:-0.852883 8:-0.563636 9:-0.950719 10:-0.843137 11:-0.992671 12:-1 13:-0.883434 14:-1 15:0.999999 16:-0.894737 17:0.299151 18:-1 19:-0.636364 20:-0.904762 21:-0.333333 22:-0.72973 23:-0.571429 24:-1 25:-0.318182 
-1 1:-0.130435 2:-0.388889 3:-1 4:-0.313131 5:-0.604938 6:-0.978743 7:-0.85288 8:-0.854545 9:-0.990581 10:-0.764706 11:-0.995229 12:-0.764706 13:-0.883434 14:-1 15:-0.22051 16:-1 17:-0.22051 18:-0.843137 19:-0.545455 20:-0.904762 21:-0.333333 22:-0.351351 23:-0.571429 24:-1 25:-0.136364 
-1 1:-0.304348 2:-0.351852 3:1 4:-0.818182 5:-0.135802 6:-0.981367 7:-0.870819 8:-0.963636 9:-0.985832 10:-0.803922 11:-0.969741 12:-0.764706 13:-0.87478 14:-1 15:0.299151 16:-1 17:0.299151 18:-0.921569 19:-0.636364 20:-0.904762 21:-0.555556 22:-0.513514 23:-0.142857 24:-1 25:-0.431818 
-1 1:-0.478261 2:-0.777778 3:-1 4:-0.737374 5:-0.925926 6:-0.946488 7:-0.837886 8:-0.818182 9:-0.946488 10:-0.803922 11:-0.962763 12:-0.764706 13:-0.843978 14:-0.666667 15:0.999999 16:-1 17:0.999999 18:-1 19:-1 20:-0.52381 21:-1 22:-0.945946 23:-0.714286 24:-1 25:-0.840909 
-1 1:-0.565217 2:-0.666667 3:1 4:-0.939394 5:-0.555556 6:-0.946488 7:-0.837886 8:-0.745455 9:-0.992671 10:-0.921569 11:-0.962763 12:-0.764706 13:-0.883434 14:-1 15:0.999999 16:-1 17:0.999999 18:-1 19:-0.818182 20:-0.904762 21:-0.555556 22:-0.783784 23:-0.428571 24:-1 25:-0.772727 
-1 1:-0.652174 2:-0.833333 3:-1 4:-0.858586 5:-1 6:-1 7:-0.888412 8:-0.709091 9:-1 10:-0.960784 11:-0.962763 12:-0.647059 13:-0.883434 14:-1 15:0.999999 16:-0.947368 17:-0.822274 18:-0.921569 19:-1 20:-1 21:-1 22:-0.837838 23:-0.857143 24:-1 25:-0.75 
-1 1:-0.217391 2:-0.148148 3:1 4:-0.979798 5:-0.555556 6:-0.946391 7:-0.837794 8:-0.490909 9:-0.946391 10:-0.882353 11:-0.962763 12:-0.882353 13:-0.883434 14:-1 15:-0.22051 16:-1 17:-0.467348 18:-1 19:-0.363636 20:-0.809524 21:-0.777778 22:-0.459459 23:-0.285714 24:-1 25:-0.25 
-1 1:-0.826087 2:-0.907407 3:1 4:-0.979798 5:-0.901235 6:-1 7:-0.888412 8:-0.927273 9:-1 10:-0.803922 11:-0.992671 12:-1 13:-0.883434 14:-1 15:-0.467348 16:-1 17:-0.467348 18:-0.960784 19:-1 20:-1 21:-1 22:-0.837838 23:-1 24:-1 25:0.25 
-1 1:-0.565217 2:-0.814815 3:-1 4:-0.878788 5:-1 6:-1 7:-0.888412 8:-0.745455 9:-1 10:-0.960784 11:-0.962763 12:-0.882353 13:-0.852893 14:-0.5 15:-0.22051 16:-1 17:-0.22051 18:-0.843137 19:-1 20:-1 21:-1 22:-0.837838 23:-1 24:-1 25:-0.636364 
-1 1:-0.130435 2:0.277778 3:1 4:-0.818182 5:0.283951 6:-0.985695 7:-0.859756 8:-0.927273 9:-0.958023 10:-0.803922 11:-0.962763 12:-0.647059 13:-0.883434 14:-1 15:0.999999 16:-0.947368 17:0.299151 18:-1 19:0.181818 20:-0.714286 21:0.333333 22:-0.027027 23:-0.571429 24:-1 25:0.0454545 
-1 1:-0.652174 2:-0.777778 3:-1 4:-0.737374 5:-0.851852 6:-0.978739 7:-0.881561 8:-0.6 9:-0.992744 10:-0.843137 11:-0.962763 12:-0.647059 13:-0.883434 14:-1 15:0.999999 16:-0.947368 17:0.299151 18:-1 19:-1 20:-0.904762 21:-0.777778 22:-0.837838 23:-0.714286 24:-1 25:-0.204545 
-1 1:-0.478261 2:-0.722222 3:-1 4:-0.676768 5:-1 6:-1 7:-0.888412 8:-0.381818 9:-1 10:-0.960784 11:-0.962763 12:-0.764706 13:-0.852758 14:-0.5 15:0.999999 16:-1 17:-0.22051 18:-0.882353 19:-0.818182 20:-0.904762 21:-1 22:-0.837838 23:-0.714286 24:-1 25:-0.431818 
-1 1:-0.478261 2:-0.833333 3:-1 4:-0.79798 5:-1 6:-0.97907 7:-0.885795 8:-0.709091 9:-0.97907 10:-0.960784 11:-0.955788 12:-0.764706 13:-0.883434 14:-1 15:-0.22051 16:-1 17:0.999999 18:-0.921569 19:-1 20:-0.904762 21:-0.777778 22:-0.837838 23:-0.714286 24:-1 25:-0.681818 
-1 1:-0.478261 2:-0.5 3:-1 4:-0.434343 5:-0.901235 6:-0.962369 7:-0.844099 8:-0.927273 9:-0.962369 10:-0.843137 11:-0.962763 12:-0.529412 13:-0.883434 14:-1 15:-0.467348 16:-1 17:-0.822274 18:-1 19:-0.909091 20:-0.904762 21:-0.555556 22:-0.567568 23:-0.428571 24:-1 25:-0.386364 
-1 1:-0.565217 2:-0.518519 3:-1 4:-0.474747 5:-0.753086 6:-0.978764 7:-0.868361 8:-0.454545 9:-0.978764 10:-0.960784 11:-0.962763 12:-0.764706 13:-0.883434 14:-1 15:0.999999 16:-1 17:1 18:-1 19:-0.909091 20:-0.619048 21:-1 22:-0.567568 23:-0.285714 24:-1 25:-0.568182 
-1 1:-0.217391 2:-0.537037 3:-1 4:-0.494949 5:-0.925926 6:-0.992671 7:-0.884021 8:-0.709091 9:-0.992671 10:-0.529412 11:-0.969741 12:-0.764706 13:-0.883434 14:-1 15:0.299151 16:-1 17:-0.91339 18:-0.843137 19:-0.636364 20:-0.904762 21:-0.777778 22:-0.783784 23:-0.714286 24:-1 25:-0.659091 
-0.004159276153815129 1:-0.478261 2:-0.333333 3:-1 4:-0.79798 5:-1 6:-0.978764 7:-0.868361 8:-0.745455 9:-0.978764 10:-0.882353 11:-0.955229 12:-0.882353 13:-0.861475 14:-0.333333 15:-0.46462 16:-0.736842 17:-0.46462 18:-0.411765 19:-0.545455 20:-0.714286 21:-1 22:-0.297297 23:-0.428571 24:-1 25:-0.454545 
-1 1:-0.565217 2:-0.685185 3:-1 4:-0.636364 5:-0.802469 6:-0.958018 7:-0.848773 8:-0.345455 9:-0.958018 10:-0.686275 11:-0.962763 12:-0.411765 13:-0.841761 14:-0.666667 15:0.999999 16:-0.842105 17:0.299151 18:-1 19:-1 20:-0.619048 21:-1 22:-0.891892 23:-0.714286 24:-1 25:-0.727273 
-1 1:-0.652174 2:-0.814815 3:-1 4:-0.777778 5:-0.876543 6:-0.992671 7:-0.881492 8:-0.6 9:-0.992671 10:-0.803922 11:-0.985763 12:-0.647059 13:-0.883434 14:-1 15:-0.22051 16:-0.947368 17:0.999999 18:-1 19:-1 20:-0.904762 21:-1 22:-0.891892 23:-0.714286 24:-1 25:-0.727273 
-1 1:-0.217391 2:-0.62963 3:-1 4:-0.575758 5:-0.876543 6:-0.946488 7:-0.885795 8:-0.490909 9:-0.946488 10:-0.960784 11:-0.962763 12:-0.411765 13:-0.883434 14:-1 15:0.999999 16:-0.842105 17:0.999999 18:-0.921569 19:-1 20:-0.904762 21:-0.777778 22:-0.675676 23:-0.428571 24:-1 25:-0.659091 
-1 1:-0.391304 2:-0.666667 3:1 4:-0.89899 5:-0.580247 6:-1 7:-0.888412 8:-0.781818 9:-1 10:-0.294118 11:-0.962763 12:-0.647059 13:-0.883434 14:-1 15:0.999999 16:-0.947368 17:0.299151 18:-1 19:-0.909091 20:-0.904762 21:-1 22:-0.675676 23:-0.571429 24:-1 25:-0.704545 
-1 1:-0.652174 2:-0.907407 3:1 4:-1 5:-0.925926 6:-0.953069 7:-0.844099 8:-0.963636 9:-0.992671 10:-0.960784 11:-0.99486 12:-0.647059 13:-0.883434 14:-1 15:0.999999 16:-0.947368 17:0.999999 18:-1 19:-1 20:-0.904762 21:-0.777778 22:-0.945946 23:-0.857143 24:-1 25:-0.681818 
-1 1:-0.478261 2:-0.777778 3:1 4:-0.959596 5:-0.728395 6:-0.990488 7:-0.879431 8:-0.963636 9:-0.990488 10:-0.686275 11:-0.962763 12:-0.764706 13:-0.883434 14:-1 15:0.999999 16:-1 17:0.299151 18:-0.960784 19:-1 20:-0.904762 21:-1 22:-0.837838 23:-0.714286 24:-1 25:-0.840909 
-1 1:-0.478261 2:-0.537037 3:-1 4:-0.474747 5:-0.925926 6:-0.992671 7:-0.881492 8:-0.0545455 9:-0.992671 10:-0.882353 11:-0.962671 12:-0.764706 13:-0.883434 14:-1 15:0.999999 16:-1 17:0.909909 18:-0.921569 19:-0.909091 20:-0.619048 21:-1 22:-0.675676 23:-0.142857 24:-1 25:-0.477273 
-1 1:-0.652174 2:-0.851852 3:-1 4:-0.818182 5:-0.82716 6:-0.997228 7:-0.885795 8:-0.672727 9:-0.997228 10:-0.72549 11:-0.99486 12:-0.764706 13:-0.883434 14:-1 15:-0.467348 16:-1 17:-0.467348 18:-1 19:-1 20:-0.904762 21:-1 22:-0.891892 23:-0.714286 24:-1 25:-0.795455 
-1 1:-0.565217 2:-0.925926 3:1 4:-1 5:-0.950617 6:-0.992671 7:-0.881492 8:-0.890909 9:-0.992671 10:-0.960784 11:-0.99486 12:-0.764706 13:-0.883434 14:-1 15:0.999999 16:-1 17:0.999999 18:-1 19:-1 20:-0.904762 21:-1 22:-0.945946 23:-0.857143 24:-1 25:-0.613636 
-1 1:-0.130435 2:-0.0740741 3:-1 4:-0.373737 5:-0.654321 6:-0.971977 7:-0.861952 8:-0.418182 9:-0.971977 10:-0.960784 11:-0.981042 12:-0.882353 13:-0.883434 14:-1 15:-0.467348 16:-1 17:0.999999 18:-1 19:-0.0909091 20:-1 21:-0.777778 22:-0.297297 23:0.142857 24:-1 25:-0.25 
-1 1:-0.0434783 2:-0.555556 3:1 4:-0.89899 5:-0.654321 6:-0.990578 7:-0.879516 8:-0.818182 9:-0.953069 10:-0.921569 11:-0.981042 12:-0.882353 13:-0.883434 14:-1 15:-0.22051 16:-1 17:0.999999 18:-1 19:-0.727273 20:-1 21:-0.777778 22:-0.621622 23:-0.571429 24:-1 25:-0.613636 
-1 1:0.130435 2:-0.148148 3:1 4:-0.515152 5:0.111111 6:-0.992671 7:-0.837794 8:-0.818182 9:-0.953069 10:-0.921569 11:-0.958022 12:-0.764706 13:-0.883434 14:-1 15:-0.22051 16:-1 17:0.999999 18:-1 19:-0.454545 20:-0.714286 21:-0.111111 22:-0.297297 23:0.142857 24:-1 25:-0.159091 
-1 1:-0.73913 2:-0.925926 3:1 4:-1 5:-0.901235 6:-0.953069 7:-0.844099 8:-0.963636 9:-0.953069 10:-0.882353 11:-0.992671 12:-0.411765 13:-0.881369 14:-0.833333 15:0.999999 16:-0.947368 17:0.999999 18:-0.960784 19:-1 20:-0.904762 21:-1 22:-1 23:-1 24:-1 25:-0.681818 
-1 1:-0.73913 2:-0.796296 3:1 4:-0.89899 5:-0.802469 6:-0.958019 7:-0.848774 8:-0.818182 9:-0.958019 10:-0.686275 11:-0.987814 12:-0.882353 13:-0.883434 14:-1 15:0.299151 16:-1 17:0.999999 18:-1 19:-1 20:-1 21:-1 22:-0.837838 23:-0.571429 24:-1 25:-0.204545 
-1 1:-0.565217 2:-0.462963 3:-1 4:-0.393939 5:-0.45679 6:-0.997228 7:-0.841881 8:-0.563636 9:-0.95072 10:-0.843137 11:-0.969741 12:-0.764706 13:-0.881369 14:-0.666667 15:0.299151 16:-1 17:-0.467348 18:-0.882353 19:-0.818182 20:-0.809524 21:-0.777778 22:-0.621622 23:-0.428571 24:-1 25:-0.454545 
-1 1:-0.304348 2:-0.666667 3:1 4:-0.919192 5:-0.82716 6:-0.992671 7:-0.848777 8:-0.927273 9:-0.958023 10:-0.960784 11:-0.962763 12:-0.882353 13:-0.881369 14:-0.833333 15:-0.902 16:-1 17:-0.902 18:-0.882353 19:-0.636364 20:-0.809524 21:-0.777778 22:-0.72973 23:-1 24:-1 25:-0.545455 
-1 1:-0.391304 2:-0.407407 3:-1 4:-0.373737 5:-0.654321 6:-0.997256 7:-0.877146 8:-0.745455 9:-0.997256 10:-0.686275 11:-0.953069 12:-0.882353 13:-0.87465 14:-0.833333 15:-0.467348 16:-1 17:-0.91339 18:-0.843137 19:-0.818182 20:-1 21:-0.777778 22:-0.567568 23:-0.571429 24:-1 25:-0.454545 
-1 1:-0.478261 2:-0.62963 3:1 4:-1 5:-0.802469 6:-0.978742 7:-0.86834 8:-0.890909 9:-0.978742 10:-0.803922 11:-0.962763 12:-0.882353 13:-0.883434 14:-1 15:0.999999 16:-0.684211 17:0.999999 18:-1 19:-0.636364 20:-0.619048 21:-0.777778 22:-0.675676 23:-0.857143 24:-1 25:-0.568182 
-1 1:-0.652174 2:-0.5 3:-1 4:-0.434343 5:-0.654321 6:-1 7:-0.888412 8:0.0545455 9:-1 10:-0.411765 11:-0.962763 12:-0.647059 13:-0.883434 14:-1 15:0.999999 16:-0.947368 17:-0.22051 18:-0.921569 19:-0.818182 20:-0.904762 21:-1 22:-0.72973 23:-0.714286 24:-1 25:-0.227273 
-1 1:-0.478261 2:-0.888889 3:-1 4:-0.858586 5:-1 6:-0.97907 7:-0.86865 8:-0.781818 9:-0.97907 10:-0.960784 11:-0.962763 12:-0.764706 13:-0.883434 14:-1 15:0.999999 16:-1 17:-0.22051 18:-0.882353 19:-1 20:-0.904762 21:-1 22:-0.945946 23:-0.857143 24:-1 25:-0.840909 
-1 1:-0.217391 2:-0.333333 3:-1 4:-0.272727 5:-0.876543 6:-0.997256 7:-0.881649 8:-0.963636 9:-0.997256 10:-0.921569 11:-0.985555 12:-0.647059 13:-0.883434 14:-1 15:-0.22051 16:-0.789474 17:0.299151 18:-0.254902 19:-0.545455 20:-0.904762 21:-0.111111 22:-0.459459 23:-0.714286 24:-0.333333 25:-0.431818 
-1 1:-0.217391 2:-0.537037 3:1 4:-0.919192 5:-0.407407 6:-0.962371 7:-0.852883 8:-0.563636 9:-0.950719 10:-0.843137 11:-0.992671 12:-1 13:-0.883434 14:-1 15:0.999999 16:-0.894737 17:0.299151 18:-1 19:-0.636364 20:-0.904762 21:-0.333333 22:-0.72973 23:-0.571429 24:-1 25:-0.318182 
-1 1:-0.304348 2:-0.444444 3:-1 4:-0.373737 5:-0.901235 6:-0.992671 7:-0.859668 8:-0.636364 9:-0.992671 10:-0.843137 11:-0.992671 12:-1 13:-0.843909 14:-0.833333 15:0.999999 16:-0.842105 17:0.299151 18:-1 19:-0.636364 20:-0.809524 21:-0.777778 22:-0.675676 23:-0.571429 24:-1 25:-0.0909091 
-1 1:-0.391304 2:-0.777778 3:1 4:-0.919192 5:-0.728395 6:-0.946391 7:-0.837794 8:-0.963636 9:-0.950719 10:-0.843137 11:-0.962763 12:-0.529412 13:-0.883434 14:-1 15:0.999999 16:-0.894737 17:0.299151 18:-1 19:-1 20:-0.904762 21:-0.555556 22:-0.837838 23:-0.857143 24:-1 25:-0.386364 
-1 1:-0.130435 2:-0.388889 3:-1 4:-0.313131 5:-0.604938 6:-0.978743 7:-0.85288 8:-0.854545 9:-0.990581 10:-0.764706 11:-0.995229 12:-0.764706 13:-0.883434 14:-1 15:-0.22051 16:-1 17:-0.22051 18:-0.843137 19:-0.545455 20:-0.904762 21:-0.333333 22:-0.351351 23:-0.571429 24:-1 25:-0.136364 
-1 1:-0.304348 2:-0.351852 3:1 4:-0.818182 5:-0.135802 6:-0.981367 7:-0.870819 8:-0.963636 9:-0.985832 10:-0.803922 11:-0.969741 12:-0.764706 13:-0.87478 14:-1 15:0.299151 16:-1 17:0.299151 18:-0.921569 19:-0.636364 20:-0.904762 21:-0.555556 22:-0.513514 23:-0.142857 24:-1 25:-0.431818 
-1 1:-0.652174 2:-0.888889 3:-1 4:-0.858586 5:-0.975309 6:-1 7:-0.888412 8:-0.709091 9:-1 10:-0.921569 11:-0.962763 12:-0.529412 13:-0.883434 14:-1 15:0.999999 16:-0.894737 17:-0.22051 18:-1 19:-1 20:-0.809524 21:-1 22:-0.945946 23:-0.857143 24:-1 25:-0.727273 
-1 1:-0.478261 2:-0.777778 3:-1 4:-0.737374 5:-0.925926 6:-0.946488 7:-0.837886 8:-0.818182 9:-0.946488 10:-0.803922 11:-0.962763 12:-0.764706 13:-0.843978 14:-0.666667 15:0.999999 16:-1 17:0.999999 18:-1 19:-1 20:-0.52381 21:-1 22:-0.945946 23:-0.714286 24:-1 25:-0.840909 
-1 1:-0.565217 2:-0.666667 3:1 4:-0.939394 5:-0.555556 6:-0.946488 7:-0.837886 8:-0.745455 9:-0.992671 10:-0.921569 11:-0.962763 12:-0.764706 13:-0.883434 14:-1 15:0.999999 16:-1 17:0.999999 18:-1 19:-0.818182 20:-0.904762 21:-0.555556 22:-0.783784 23:-0.428571 24:-1 25:-0.772727 
-1 1:-0.652174 2:-0.833333 3:-1 4:-0.858586 5:-1 6:-1 7:-0.888412 8:-0.709091 9:-1 10:-0.960784 11:-0.962763 12:-0.647059 13:-0.883434 14:-1 15:0.999999 16:-0.947368 17:-0.822274 18:-0.921569 19:-1 20:-1 21:-1 22:-0.837838 23:-0.857143 24:-1 25:-0.75 
-1 1:-0.217391 2:-0.148148 3:1 4:-0.979798 5:-0.555556 6:-0.946391 7:-0.837794 8:-0.490909 9:-0.946391 10:-0.882353 11:-0.962763 12:-0.882353 13:-0.883434 14:-1 15:-0.22051 16:-1 17:-0.467348 18:-1 19:-0.363636 20:-0.809524 21:-0.777778 22:-0.459459 23:-0.285714 24:-1 25:-0.25 
-1 1:-0.826087 2:-0.907407 3:1 4:-0.979798 5:-0.901235 6:-1 7:-0.888412 8:-0.927273 9:-1 10:-0.803922 11:-0.992671 12:-1 13:-0.883434 14:-1 15:-0.467348 16:-1 17:-0.467348 18:-0.960784 19:-1 20:-1 21:-1 22:-0.837838 23:-1 24:-1 25:0.25 
-1 1:-0.565217 2:-0.814815 3:-1 4:-0.878788 5:-1 6:-1 7:-0.888412 8:-0.745455 9:-1 10:-0.960784 11:-0.962763 12:-0.882353 13:-0.852893 14:-0.5 15:-0.22051 16:-1 17:-0.22051 18:-0.843137 19:-1 20:-1 21:-1 22:-0.837838 23:-1 24:-1 25:-0.636364 
-1 1:-0.130435 2:0.277778 3:1 4:-0.818182 5:0.283951 6:-0.985695 7:-0.859756 8:-0.927273 9:-0.958023 10:-0.803922 11:-0.962763 12:-0.647059 13:-0.883434 14:-1 15:0.999999 16:-0.947368 17:0.299151 18:-1 19:0.181818 20:-0.714286 21:0.333333 22:-0.027027 23:-0.571429 24:-1 25:0.0454545 
-1 1:-0.652174 2:-0.777778 3:-1 4:-0.737374 5:-0.851852 6:-0.978739 7:-0.881561 8:-0.6 9:-0.992744 10:-0.843137 11:-0.962763 12:-0.647059 13:-0.883434 14:-1 15:0.999999 16:-0.947368 17:0.299151 18:-1 19:-1 20:-0.904762 21:-0.777778 22:-0.837838 23:-0.714286 24:-1 25:-0.204545 
-1 1:-0.478261 2:-0.722222 3:-1 4:-0.676768 5:-1 6:-1 7:-0.888412 8:-0.381818 9:-1 10:-0.960784 11:-0.962763 12:-0.764706 13:-0.852758 14:-0.5 15:0.999999 16:-1 17:-0.22051 18:-0.882353 19:-0.818182 20:-0.904762 21:-1 22:-0.837838 23:-0.714286 24:-1 25:-0.431818 
-1 1:-0.391304 2:-0.592593 3:1 4:-0.939394 5:-0.753086 6:-0.97907 7:-0.86865 8:-0.709091 9:-0.97907 10:-0.960784 11:-0.962763 12:-0.764706 13:-0.883434 14:-1 15:0.999999 16:-1 17:0.999999 18:-0.882353 19:-0.909091 20:-0.904762 21:-0.555556 22:-0.72973 23:-0.571429 24:-1 25:-0.636364 
-1 1:-0.304348 2:-0.666667 3:-1 4:-0.737374 5:-0.851852 6:-0.992671 7:-0.881492 8:-0.527273 9:-0.992671 10:-0.764706 11:-0.953069 12:-0.764706 13:-0.883434 14:-1 15:-0.467348 16:-1 17:0.299151 18:-1 19:-0.636364 20:-0.809524 21:-1 22:-0.72973 23:-0.857143 24:-1 25:-0.409091 
-1 1:-0.478261 2:-0.833333 3:-1 4:-0.79798 5:-1 6:-0.97907 7:-0.885795 8:-0.709091 9:-0.97907 10:-0.960784 11:-0.955788 12:-0.764706 13:-0.883434 14:-1 15:-0.22051 16:-1 17:0.999999 18:-0.921569 19:-1 20:-0.904762 21:-0.777778 22:-0.837838 23:-0.714286 24:-1 25:-0.681818 
-1 1:-0.478261 2:-0.5 3:-1 4:-0.434343 5:-0.901235 6:-0.962369 7:-0.844099 8:-0.927273 9:-0.962369 10:-0.843137 11:-0.962763 12:-0.529412 13:-0.883434 14:-1 15:-0.467348 16:-1 17:-0.822274 18:-1 19:-0.909091 20:-0.904762 21:-0.555556 22:-0.567568 23:-0.428571 24:-1 25:-0.386364 
-1 1:-0.565217 2:-0.518519 3:-1 4:-0.474747 5:-0.753086 6:-0.978764 7:-0.868361 8:-0.454545 9:-0.978764 10:-0.960784 11:-0.962763 12:-0.764706 13:-0.883434 14:-1 15:0.999999 16:-1 17:1 18:-1 19:-0.909091 20:-0.619048 21:-1 22:-0.567568 23:-0.285714 24:-1 25:-0.568182 
-1 1:-0.826087 2:-0.925926 3:-1 4:-0.89899 5:-0.975309 6:-0.967325 7:-0.85756 8:-0.818182 9:-0.967325 10:-0.960784 11:-0.99486 12:-0.529412 13:-0.883434 14:-1 15:-0.22051 16:-0.894737 17:-0.22051 18:-1 19:-1 20:-0.809524 21:-1 22:-1 23:-1 24:-1 25:-0.477273 
-1 1:-0.217391 2:-0.537037 3:-1 4:-0.494949 5:-0.925926 6:-0.992671 7:-0.884021 8:-0.709091 9:-0.992671 10:-0.529412 11:-0.969741 12:-0.764706 13:-0.883434 14:-1 15:0.299151 16:-1 17:-0.91339 18:-0.843137 19:-0.636364 20:-0.904762 21:-0.777778 22:-0.783784 23:-0.714286 24:-1 25:-0.659091 
-0.9996775549672611 1:-0.478261 2:-0.333333 3:-1 4:-0.79798 5:-1 6:-0.978764 7:-0.868361 8:-0.745455 9:-0.978764 10:-0.882353 11:-0.955229 12:-0.882353 13:-0.861475 14:-0.333333 15:-0.46462 16:-0.736842 17:-0.46462 18:-0.411765 19:-0.545455 20:-0.714286 21:-1 22:-0.297297 23:-0.428571 24:-1 25:-0.454545 
-1 1:-0.565217 2:-0.685185 3:-1 4:-0.636364 5:-0.802469 6:-0.958018 7:-0.848773 8:-0.345455 9:-0.958018 10:-0.686275 11:-0.962763 12:-0.411765 13:-0.841761 14:-0.666667 15:0.999999 16:-0.842105 17:0.299151 18:-1 19:-1 20:-0.619048 21:-1 22:-0.891892 23:-0.714286 24:-1 25:-0.727273 
-1 1:-0.304348 2:-0.111111 3:1 4:-0.959596 5:-0.62963 6:-0.946488 7:-0.837886 8:-0.672727 9:-0.946488 10:-0.843137 11:-0.99067 12:-0.882353 13:-0.883434 14:-1 15:-0.22051 16:-0.947368 17:-0.467348 18:-1 19:-0.454545 20:-0.238095 21:-0.333333 22:-0.405405 23:-0.285714 24:-1 25:-0.409091 
