svm_type c_svc
kernel_type sigmoid
gamma 0.04
coef0 0
nr_class 2
total_sv 2133
rho 8.60577
label 0 1
nr_sv 443 1690
SV
3.88 1:-0.304348 2:-0.420561 3:-1 4:-0.575758 5:-0.654321 6:-0.975345 7:-0.865133 8:-0.506494 9:-0.994915 10:-0.843137 11:-0.96015 12:-0.882353 13:-0.861729 14:-0.857143 15:0.389745 16:-1 17:0.0393206 18:-0.764706 19:-0.454545 20:-0.666667 21:-1 22:-0.567568 23:-0.571429 24:-1 25:-0.272727 
3.88 1:-0.304348 2:-0.53271 3:1 4:-0.919192 5:-0.604938 6:-0.968545 7:-0.858712 8:-0.896104 9:-0.988115 10:-0.843137 11:-0.967056 12:-0.764706 13:-0.870435 14:-1 15:-0.22051 16:-1 17:-0.22051 18:-0.764706 19:-0.545455 20:-0.666667 21:-0.555556 22:-0.675676 23:-0.714286 24:-1 25:-0.636364 
3.88 1:-0.478261 2:-0.514019 3:1 4:-0.838384 5:-0.432099 6:-0.977798 7:-0.867449 8:-0.948052 9:-0.996114 10:-0.803922 11:-0.96015 12:-0.882353 13:-0.870435 14:-1 15:0.0393206 16:-1 17:0.0393206 18:-0.764706 19:-0.545455 20:-0.777778 21:-0.777778 22:-0.675676 23:-0.571429 24:-1 25:-0.5 
3.88 1:-0.304348 2:-0.53271 3:1 4:-0.858586 5:-0.432099 6:-0.956822 7:-0.847643 8:-0.948052 9:-0.997208 10:-0.686275 11:-0.974264 12:-0.764706 13:-0.870435 14:-1 15:-0.22051 16:-1 17:-0.343929 18:-0.72549 19:-0.545455 20:-0.777778 21:-0.777778 22:-0.621622 23:-0.571429 24:-1 25:-0.659091 
3.88 1:-0.478261 2:-0.514019 3:1 4:-0.838384 5:-0.432099 6:-0.977798 7:-0.867449 8:-0.948052 9:-0.996114 10:-0.803922 11:-0.96015 12:-0.882353 13:-0.870435 14:-1 15:0.0393206 16:-1 17:0.0393206 18:-0.764706 19:-0.545455 20:-0.777778 21:-0.777778 22:-0.675676 23:-0.571429 24:-1 25:-0.5 
3.88 1:-0.478261 2:-0.570093 3:1 4:-0.878788 5:-0.506173 6:-0.955544 7:-0.846436 8:-0.922078 9:-0.971824 10:-0.843137 11:-0.9683 12:-0.764706 13:-0.870435 14:-1 15:0.389745 16:-1 17:-0.22051 18:-0.803922 19:-0.545455 20:-0.777778 21:-0.777778 22:-0.72973 23:-0.571429 24:-1 25:-0.704545 
3.88 1:-0.391304 2:-0.588785 3:1 4:-0.838384 5:-0.45679 6:-0.974254 7:-0.864102 8:-0.948052 9:-0.987951 10:-0.764706 11:-0.96015 12:-0.882353 13:-0.870435 14:-1 15:-0.22051 16:-1 17:0.0393206 18:-0.803922 19:-0.636364 20:-0.777778 21:-0.777778 22:-0.675676 23:-0.714286 24:-1 25:-0.522727 
3.88 1:-0.304348 2:-0.53271 3:1 4:-0.858586 5:-0.432099 6:-0.956822 7:-0.847643 8:-0.948052 9:-0.997208 10:-0.686275 11:-0.974264 12:-0.764706 13:-0.870435 14:-1 15:-0.22051 16:-1 17:-0.343929 18:-0.72549 19:-0.545455 20:-0.777778 21:-0.777778 22:-0.621622 23:-0.571429 24:-1 25:-0.659091 
3.88 1:-0.304348 2:-0.53271 3:1 4:-0.919192 5:-0.604938 6:-0.968545 7:-0.858712 8:-0.896104 9:-0.988115 10:-0.843137 11:-0.967056 12:-0.764706 13:-0.870435 14:-1 15:-0.22051 16:-1 17:-0.22051 18:-0.764706 19:-0.545455 20:-0.666667 21:-0.555556 22:-0.675676 23:-0.714286 24:-1 25:-0.636364 
3.88 1:-0.478261 2:-0.514019 3:1 4:-0.838384 5:-0.432099 6:-0.977798 7:-0.867449 8:-0.948052 9:-0.996114 10:-0.803922 11:-0.96015 12:-0.882353 13:-0.870435 14:-1 15:0.0393206 16:-1 17:0.0393206 18:-0.764706 19:-0.545455 20:-0.777778 21:-0.777778 22:-0.675676 23:-0.571429 24:-1 25:-0.5 
3.88 1:-0.304348 2:-0.420561 3:-1 4:-0.575758 5:-0.654321 6:-0.975345 7:-0.865133 8:-0.506494 9:-0.994915 10:-0.843137 11:-0.96015 12:-0.882353 13:-0.861729 14:-0.857143 15:0.389745 16:-1 17:0.0393206 18:-0.764706 19:-0.454545 20:-0.666667 21:-1 22:-0.567568 23:-0.571429 24:-1 25:-0.272727 
3.88 1:-0.565217 2:-0.476636 3:1 4:-0.757576 5:-0.407407 6:-0.97901 7:-0.868593 8:-0.714286 9:-0.99858 10:-0.45098 11:-0.970673 12:-0.764706 13:-0.870435 14:-1 15:0.0393206 16:-0.95 17:0.0393206 18:-0.686275 19:-0.363636 20:-0.666667 21:-1 22:-0.567568 23:-0.857143 24:-1 25:-0.568182 
3.88 1:-0.478261 2:-0.570093 3:1 4:-0.878788 5:-0.506173 6:-0.955544 7:-0.846436 8:-0.922078 9:-0.971824 10:-0.843137 11:-0.9683 12:-0.764706 13:-0.870435 14:-1 15:0.389745 16:-1 17:-0.22051 18:-0.803922 19:-0.545455 20:-0.777778 21:-0.777778 22:-0.72973 23:-0.571429 24:-1 25:-0.704545 
3.88 1:-0.391304 2:-0.588785 3:1 4:-0.838384 5:-0.45679 6:-0.974254 7:-0.864102 8:-0.948052 9:-0.987951 10:-0.764706 11:-0.96015 12:-0.882353 13:-0.870435 14:-1 15:-0.22051 16:-1 17:0.0393206 18:-0.803922 19:-0.636364 20:-0.777778 21:-0.777778 22:-0.675676 23:-0.714286 24:-1 25:-0.522727 
3.88 1:-0.304348 2:-0.383178 3:1 4:-0.838384 5:-0.45679 6:-0.960345 7:-0.850969 8:-0.844156 9:-0.994915 10:-0.764706 11:-0.958032 12:-0.882353 13:-0.857449 14:-1 15:-0.342565 16:-1 17:0.0393206 18:-0.843137 19:-0.545455 20:-0.666667 21:-0.777778 22:-0.513514 23:-0.428571 24:-1 25:-0.454545 
3.88 1:-0.217391 2:-0.570093 3:-1 4:-0.737374 5:-0.62963 6:-0.975428 7:-0.858567 8:-0.87013 9:-0.994998 10:-0.843137 11:-0.958032 12:-0.647059 13:-0.857449 14:-1 15:0.389745 16:-0.95 17:0.0393206 18:-0.843137 19:-0.727273 20:-0.777778 21:-0.555556 22:-0.72973 23:-0.714286 24:-1 25:-0.659091 
3.88 1:-0.565217 2:-0.64486 3:1 4:-0.89899 5:-0.530864 6:-0.955544 7:-0.846436 8:-0.948052 9:-0.975114 10:-0.72549 11:-0.954325 12:-0.764706 13:-0.857449 14:-1 15:0.389745 16:-1 17:0.389745 18:-0.843137 19:-0.727273 20:-0.666667 21:-1 22:-0.72973 23:-0.714286 24:-1 25:-0.568182 
3.88 1:-0.304348 2:-0.383178 3:1 4:-0.838384 5:-0.45679 6:-0.960345 7:-0.850969 8:-0.844156 9:-0.994915 10:-0.764706 11:-0.958032 12:-0.882353 13:-0.857449 14:-1 15:-0.342565 16:-1 17:0.0393206 18:-0.843137 19:-0.545455 20:-0.666667 21:-0.777778 22:-0.513514 23:-0.428571 24:-1 25:-0.454545 
3.88 1:-0.217391 2:-0.570093 3:-1 4:-0.737374 5:-0.62963 6:-0.975428 7:-0.858567 8:-0.87013 9:-0.994998 10:-0.843137 11:-0.958032 12:-0.647059 13:-0.857449 14:-1 15:0.389745 16:-0.95 17:0.0393206 18:-0.843137 19:-0.727273 20:-0.777778 21:-0.555556 22:-0.72973 23:-0.714286 24:-1 25:-0.659091 
3.88 1:-0.565217 2:-0.64486 3:1 4:-0.89899 5:-0.530864 6:-0.955544 7:-0.846436 8:-0.948052 9:-0.975114 10:-0.72549 11:-0.954325 12:-0.764706 13:-0.857449 14:-1 15:0.389745 16:-1 17:0.389745 18:-0.843137 19:-0.727273 20:-0.666667 21:-1 22:-0.72973 23:-0.714286 24:-1 25:-0.568182 
3.88 1:-0.304348 2:-0.383178 3:1 4:-0.838384 5:-0.45679 6:-0.960345 7:-0.850969 8:-0.844156 9:-0.994915 10:-0.764706 11:-0.958032 12:-0.882353 13:-0.857449 14:-1 15:-0.342565 16:-1 17:0.0393206 18:-0.843137 19:-0.545455 20:-0.666667 21:-0.777778 22:-0.513514 23:-0.428571 24:-1 25:-0.454545 
3.88 1:-0.217391 2:-0.570093 3:-1 4:-0.737374 5:-0.62963 6:-0.975428 7:-0.858567 8:-0.87013 9:-0.994998 10:-0.843137 11:-0.958032 12:-0.647059 13:-0.857449 14:-1 15:0.389745 16:-0.95 17:0.0393206 18:-0.843137 19:-0.727273 20:-0.777778 21:-0.555556 22:-0.72973 23:-0.714286 24:-1 25:-0.659091 
3.88 1:-0.130435 2:-0.0654206 3:-1 4:-0.515152 5:-0.382716 6:-0.955728 7:-0.837794 8:-0.896104 9:-0.982533 10:-0.882353 11:-0.966999 12:-1 13:-0.879229 14:-0.857143 15:0.389745 16:-0.95 17:0.22128 18:-0.568627 19:-0.454545 20:-0.666667 21:-0.111111 22:-0.405405 23:-0.571429 24:-1 25:-0.25 
3.88 1:-0.217391 2:-0.214953 3:-1 4:-0.59596 5:-0.407407 6:-0.969531 7:-0.859643 8:-0.506494 9:-0.996336 10:-0.921569 11:-0.966999 12:-1 13:-0.870523 14:-0.571429 15:0.999999 16:-0.95 17:0.60453 18:-0.529412 19:-0.363636 20:-0.888889 21:-0.555556 22:-0.405405 23:-0.428571 24:-1 25:-0.113636 
3.88 1:-0.304348 2:-0.364486 3:-1 4:-0.79798 5:-0.358025 6:-0.962565 7:-0.837794 8:-0.922078 9:-0.98937 10:-0.843137 11:-0.966999 12:-1 13:-0.879229 14:-0.857143 15:0.999999 16:-0.95 17:0.60453 18:-0.607843 19:-0.636364 20:-1 21:-0.333333 22:-0.513514 23:-0.571429 24:-1 25:-0.409091 
1.836186787071049 1:-0.391304 2:-0.345794 3:-1 4:-0.757576 5:-0.382716 6:-0.96273 7:-0.843285 8:-0.87013 9:-0.989535 10:-0.764706 11:-0.966999 12:-1 13:-0.879229 14:-0.857143 15:0.649575 16:-0.95 17:0.954954 18:-0.607843 19:-0.454545 20:-1 21:-0.333333 22:-0.513514 23:-0.571429 24:-1 25:-0.522727 
3.88 1:-0.130435 2:-0.0654206 3:-1 4:-0.515152 5:-0.382716 6:-0.955728 7:-0.837794 8:-0.896104 9:-0.982533 10:-0.882353 11:-0.966999 12:-1 13:-0.879229 14:-0.857143 15:0.389745 16:-0.95 17:0.22128 18:-0.568627 19:-0.454545 20:-0.666667 21:-0.111111 22:-0.405405 23:-0.571429 24:-1 25:-0.25 
3.88 1:-0.217391 2:-0.214953 3:-1 4:-0.59596 5:-0.407407 6:-0.969531 7:-0.859643 8:-0.506494 9:-0.996336 10:-0.921569 11:-0.966999 12:-1 13:-0.870523 14:-0.571429 15:0.999999 16:-0.95 17:0.60453 18:-0.529412 19:-0.363636 20:-0.888889 21:-0.555556 22:-0.405405 23:-0.428571 24:-1 25:-0.113636 
3.88 1:-0.304348 2:-0.364486 3:-1 4:-0.79798 5:-0.358025 6:-0.962565 7:-0.837794 8:-0.922078 9:-0.98937 10:-0.843137 11:-0.966999 12:-1 13:-0.879229 14:-0.857143 15:0.999999 16:-0.95 17:0.60453 18:-0.607843 19:-0.636364 20:-1 21:-0.333333 22:-0.513514 23:-0.571429 24:-1 25:-0.409091 
3.88 1:-0.217391 2:-0.364486 3:-1 4:-0.757576 5:-0.382716 6:-0.969614 7:-0.853078 8:-0.844156 9:-0.996418 10:-0.882353 11:-0.964881 12:-0.764706 13:-0.866243 14:-0.857143 15:0.999999 16:-0.95 17:0.60453 18:-0.607843 19:-0.636364 20:-1 21:-0.111111 22:-0.567568 23:-0.571429 24:-1 25:-0.5 
3.88 1:-0.217391 2:-0.364486 3:-1 4:-0.757576 5:-0.382716 6:-0.969614 7:-0.853078 8:-0.844156 9:-0.996418 10:-0.882353 11:-0.964881 12:-0.764706 13:-0.866243 14:-0.857143 15:0.999999 16:-0.95 17:0.60453 18:-0.607843 19:-0.636364 20:-1 21:-0.111111 22:-0.567568 23:-0.571429 24:-1 25:-0.5 
3.88 1:-0.217391 2:-0.364486 3:-1 4:-0.757576 5:-0.382716 6:-0.969614 7:-0.853078 8:-0.844156 9:-0.996418 10:-0.882353 11:-0.964881 12:-0.764706 13:-0.866243 14:-0.857143 15:0.999999 16:-0.95 17:0.60453 18:-0.607843 19:-0.636364 20:-1 21:-0.111111 22:-0.567568 23:-0.571429 24:-1 25:-0.5 
3.88 1:-0.391304 2:-0.364486 3:-1 4:-0.757576 5:-0.382716 6:-0.96844 7:-0.853078 8:-0.818182 9:-0.995244 10:-0.843137 11:-0.966999 12:-1 13:-0.866243 14:-0.857143 15:0.999999 16:-0.95 17:0.60453 18:-0.607843 19:-0.636364 20:-1 21:-0.333333 22:-0.459459 23:-0.571429 24:-1 25:-0.386364 
3.88 1:-0.478261 2:-0.420561 3:-1 4:-0.818182 5:-0.358025 6:-0.968484 7:-0.858655 8:-0.792208 9:-0.995288 10:-0.803922 11:-0.966999 12:-1 13:-0.866243 14:-0.714286 15:0.999999 16:-0.95 17:0.60453 18:-0.607843 19:-0.636364 20:-1 21:-0.555556 22:-0.567568 23:-0.571429 24:-1 25:-0.522727 
3.88 1:-0.130435 2:-0.0654206 3:-1 4:-0.515152 5:-0.382716 6:-0.955728 7:-0.837794 8:-0.896104 9:-0.982533 10:-0.882353 11:-0.966999 12:-1 13:-0.879229 14:-0.857143 15:0.389745 16:-0.95 17:0.22128 18:-0.568627 19:-0.454545 20:-0.666667 21:-0.111111 22:-0.405405 23:-0.571429 24:-1 25:-0.25 
3.88 1:-0.130435 2:-0.252336 3:-1 4:-0.252525 5:-0.950617 6:-0.978868 7:-0.859643 8:-0.532468 9:-0.978868 10:-0.921569 11:-0.966999 12:-1 13:-0.861464 14:-0.857143 15:0.389745 16:-0.95 17:-0.0840987 18:-0.921569 19:-0.636364 20:-0.555556 21:-0.777778 22:-0.513514 23:-0.571429 24:-1 25:-0.0909091 
3.88 1:-0.217391 2:-0.420561 3:-1 4:-0.454545 5:-0.901235 6:-0.971902 7:-0.837794 8:-0.948052 9:-0.971902 10:-0.843137 11:-0.966999 12:-1 13:-0.87017 14:-1 15:0.389745 16:-0.95 17:-0.0840987 18:-1 19:-0.818182 20:-0.666667 21:-0.555556 22:-0.621622 23:-0.714286 24:-1 25:-0.386364 
3.88 1:-0.130435 2:-0.0654206 3:-1 4:-0.515152 5:-0.382716 6:-0.955728 7:-0.837794 8:-0.896104 9:-0.982533 10:-0.882353 11:-0.966999 12:-1 13:-0.879229 14:-0.857143 15:0.389745 16:-0.95 17:0.22128 18:-0.568627 19:-0.454545 20:-0.666667 21:-0.111111 22:-0.405405 23:-0.571429 24:-1 25:-0.25 
3.88 1:-0.130435 2:-0.252336 3:-1 4:-0.252525 5:-0.950617 6:-0.978868 7:-0.859643 8:-0.532468 9:-0.978868 10:-0.921569 11:-0.966999 12:-1 13:-0.861464 14:-0.857143 15:0.389745 16:-0.95 17:-0.0840987 18:-0.921569 19:-0.636364 20:-0.555556 21:-0.777778 22:-0.513514 23:-0.571429 24:-1 25:-0.0909091 
3.88 1:-0.217391 2:-0.420561 3:-1 4:-0.454545 5:-0.901235 6:-0.971902 7:-0.837794 8:-0.948052 9:-0.971902 10:-0.843137 11:-0.966999 12:-1 13:-0.87017 14:-1 15:0.389745 16:-0.95 17:-0.0840987 18:-1 19:-0.818182 20:-0.666667 21:-0.555556 22:-0.621622 23:-0.714286 24:-1 25:-0.386364 
3.88 1:-0.391304 2:-0.308411 3:-1 4:-0.414141 5:-0.703704 6:-0.982533 7:-0.863103 8:-0.74026 9:-0.982533 10:-0.529412 11:-0.977522 12:-0.882353 13:-0.87017 14:-1 15:0.0393206 16:-0.9 17:-0.0840987 18:-0.843137 19:-0.545455 20:-0.555556 21:-0.777778 22:-0.513514 23:-0.857143 24:-1 25:-0.386364 
3.88 1:-0.130435 2:-0.401869 3:-1 4:-0.414141 5:-0.925926 6:-0.978951 7:-0.853078 8:-0.87013 9:-0.978951 10:-0.921569 11:-0.964881 12:-0.764706 13:-0.857184 14:-1 15:0.389745 16:-0.95 17:-0.0840987 18:-1 19:-0.818182 20:-0.666667 21:-0.333333 22:-0.675676 23:-0.714286 24:-1 25:-0.477273 
3.88 1:-0.391304 2:-0.476636 3:-1 4:-0.555556 5:-0.82716 6:-0.959067 7:-0.840947 8:-0.948052 9:-0.959067 10:-0.803922 11:-0.961174 12:-0.882353 13:-0.857184 14:-1 15:0.389745 16:-0.95 17:0.266326 18:-1 19:-0.818182 20:-0.555556 21:-0.777778 22:-0.675676 23:-0.714286 24:-1 25:-0.386364 
3.88 1:-0.130435 2:-0.401869 3:-1 4:-0.414141 5:-0.925926 6:-0.978951 7:-0.853078 8:-0.87013 9:-0.978951 10:-0.921569 11:-0.964881 12:-0.764706 13:-0.857184 14:-1 15:0.389745 16:-0.95 17:-0.0840987 18:-1 19:-0.818182 20:-0.666667 21:-0.333333 22:-0.675676 23:-0.714286 24:-1 25:-0.477273 
3.88 1:-0.391304 2:-0.476636 3:-1 4:-0.555556 5:-0.82716 6:-0.959067 7:-0.840947 8:-0.948052 9:-0.959067 10:-0.803922 11:-0.961174 12:-0.882353 13:-0.857184 14:-1 15:0.389745 16:-0.95 17:0.266326 18:-1 19:-0.818182 20:-0.555556 21:-0.777778 22:-0.675676 23:-0.714286 24:-1 25:-0.386364 
3.88 1:-0.130435 2:-0.401869 3:-1 4:-0.414141 5:-0.925926 6:-0.978951 7:-0.853078 8:-0.87013 9:-0.978951 10:-0.921569 11:-0.964881 12:-0.764706 13:-0.857184 14:-1 15:0.389745 16:-0.95 17:-0.0840987 18:-1 19:-0.818182 20:-0.666667 21:-0.333333 22:-0.675676 23:-0.714286 24:-1 25:-0.477273 
3.88 1:-0.304348 2:-0.420561 3:-1 4:-0.575758 5:-0.654321 6:-0.975345 7:-0.865133 8:-0.506494 9:-0.994915 10:-0.843137 11:-0.96015 12:-0.882353 13:-0.861729 14:-0.857143 15:0.389745 16:-1 17:0.0393206 18:-0.764706 19:-0.454545 20:-0.666667 21:-1 22:-0.567568 23:-0.571429 24:-1 25:-0.272727 
3.88 1:-0.217391 2:-0.214953 3:-1 4:-0.59596 5:-0.407407 6:-0.969531 7:-0.859643 8:-0.506494 9:-0.996336 10:-0.921569 11:-0.966999 12:-1 13:-0.870523 14:-0.571429 15:0.999999 16:-0.95 17:0.60453 18:-0.529412 19:-0.363636 20:-0.888889 21:-0.555556 22:-0.405405 23:-0.428571 24:-1 25:-0.113636 
3.88 1:-0.130435 2:-0.252336 3:-1 4:-0.252525 5:-0.950617 6:-0.978868 7:-0.859643 8:-0.532468 9:-0.978868 10:-0.921569 11:-0.966999 12:-1 13:-0.861464 14:-0.857143 15:0.389745 16:-0.95 17:-0.0840987 18:-0.921569 19:-0.636364 20:-0.555556 21:-0.777778 22:-0.513514 23:-0.571429 24:-1 25:-0.0909091 
3.88 1:-0.304348 2:-0.570093 3:-1 4:-0.535354 5:-0.925926 6:-0.985705 7:-0.859643 8:-0.532468 9:-0.985705 10:-0.882353 11:-0.966999 12:-1 13:-0.861464 14:-0.857143 15:0.999999 16:-0.95 17:0.299151 18:-0.921569 19:-0.818182 20:-0.888889 21:-0.777778 22:-0.621622 23:-0.571429 24:-1 25:-0.25 
3.88 1:-0.391304 2:-0.495327 3:-1 4:-0.575758 5:-0.753086 6:-0.995124 7:-0.883808 8:-0.558442 9:-0.99387 10:-0.921569 11:-0.966999 12:-1 13:-0.861464 14:-0.857143 15:0.649575 16:-0.95 17:0.299151 18:-0.882353 19:-0.636364 20:-0.888889 21:-1 22:-0.567568 23:-0.571429 24:-1 25:-0.181818 
3.88 1:-0.217391 2:-0.514019 3:-1 4:-0.59596 5:-0.753086 6:-0.974148 7:-0.864002 8:-0.558442 9:-0.994964 10:-0.803922 11:-0.981113 12:-0.882353 13:-0.861464 14:-0.857143 15:0.389745 16:-1 17:-0.0840987 18:-0.843137 19:-0.636364 20:-0.777778 21:-1 22:-0.513514 23:-0.428571 24:-1 25:-0.340909 
3.88 1:-0.391304 2:-0.495327 3:-1 4:-0.575758 5:-0.753086 6:-0.995124 7:-0.883808 8:-0.558442 9:-0.99387 10:-0.921569 11:-0.966999 12:-1 13:-0.861464 14:-0.857143 15:0.649575 16:-0.95 17:0.299151 18:-0.882353 19:-0.636364 20:-0.888889 21:-1 22:-0.567568 23:-0.571429 24:-1 25:-0.181818 
3.88 1:-0.391304 2:-0.551402 3:-1 4:-0.616162 5:-0.82716 6:-0.97287 7:-0.862796 8:-0.532468 9:-0.96958 10:-0.960784 11:-0.975149 12:-0.882353 13:-0.861464 14:-0.857143 15:0.999999 16:-1 17:0.0393206 18:-0.882353 19:-0.636364 20:-0.777778 21:-1 22:-0.675676 23:-0.571429 24:-1 25:-0.386364 
3.88 1:-0.217391 2:-0.514019 3:-1 4:-0.59596 5:-0.753086 6:-0.974148 7:-0.864002 8:-0.558442 9:-0.994964 10:-0.803922 11:-0.981113 12:-0.882353 13:-0.861464 14:-0.857143 15:0.389745 16:-1 17:-0.0840987 18:-0.843137 19:-0.636364 20:-0.777778 21:-1 22:-0.513514 23:-0.428571 24:-1 25:-0.340909 
3.88 1:-0.217391 2:-0.214953 3:-1 4:-0.59596 5:-0.407407 6:-0.969531 7:-0.859643 8:-0.506494 9:-0.996336 10:-0.921569 11:-0.966999 12:-1 13:-0.870523 14:-0.571429 15:0.999999 16:-0.95 17:0.60453 18:-0.529412 19:-0.363636 20:-0.888889 21:-0.555556 22:-0.405405 23:-0.428571 24:-1 25:-0.113636 
3.88 1:-0.391304 2:-0.495327 3:-1 4:-0.575758 5:-0.753086 6:-0.995124 7:-0.883808 8:-0.558442 9:-0.99387 10:-0.921569 11:-0.966999 12:-1 13:-0.861464 14:-0.857143 15:0.649575 16:-0.95 17:0.299151 18:-0.882353 19:-0.636364 20:-0.888889 21:-1 22:-0.567568 23:-0.571429 24:-1 25:-0.181818 
3.88 1:-0.130435 2:-0.252336 3:-1 4:-0.252525 5:-0.950617 6:-0.978868 7:-0.859643 8:-0.532468 9:-0.978868 10:-0.921569 11:-0.966999 12:-1 13:-0.861464 14:-0.857143 15:0.389745 16:-0.95 17:-0.0840987 18:-0.921569 19:-0.636364 20:-0.555556 21:-0.777778 22:-0.513514 23:-0.571429 24:-1 25:-0.0909091 
3.88 1:-0.304348 2:-0.570093 3:-1 4:-0.535354 5:-0.925926 6:-0.985705 7:-0.859643 8:-0.532468 9:-0.985705 10:-0.882353 11:-0.966999 12:-1 13:-0.861464 14:-0.857143 15:0.999999 16:-0.95 17:0.299151 18:-0.921569 19:-0.818182 20:-0.888889 21:-0.777778 22:-0.621622 23:-0.571429 24:-1 25:-0.25 
3.88 1:-0.478261 2:-0.457944 3:-1 4:-0.494949 5:-0.728395 6:-0.996336 7:-0.884952 8:-0.324675 9:-0.996336 10:-0.568627 11:-0.977522 12:-0.882353 13:-0.861464 14:-0.857143 15:0.649575 16:-0.9 17:0.299151 18:-0.803922 19:-0.454545 20:-0.777778 21:-1 22:-0.459459 23:-0.714286 24:-1 25:-0.25 
3.88 1:-0.391304 2:-0.551402 3:-1 4:-0.616162 5:-0.82716 6:-0.97287 7:-0.862796 8:-0.532468 9:-0.96958 10:-0.960784 11:-0.975149 12:-0.882353 13:-0.861464 14:-0.857143 15:0.999999 16:-1 17:0.0393206 18:-0.882353 19:-0.636364 20:-0.777778 21:-1 22:-0.675676 23:-0.571429 24:-1 25:-0.386364 
3.88 1:-0.304348 2:-0.364486 3:-1 4:-0.575758 5:-0.802469 6:-0.977671 7:-0.867329 8:-0.454545 9:-0.992671 10:-0.882353 11:-0.964881 12:-1 13:-0.848478 14:-0.857143 15:0.26769 16:-0.95 17:0.299151 18:-0.921569 19:-0.636364 20:-0.777778 21:-0.777778 22:-0.459459 23:-0.285714 24:-1 25:-0.159091 
3.88 1:-0.217391 2:-0.551402 3:-1 4:-0.474747 5:-0.950617 6:-0.992754 7:-0.874927 8:-0.480519 9:-0.992754 10:-0.960784 11:-0.964881 12:-0.764706 13:-0.848478 14:-0.857143 15:0.999999 16:-0.95 17:0.299151 18:-0.921569 19:-0.818182 20:-0.777778 21:-0.777778 22:-0.621622 23:-0.571429 24:-1 25:-0.340909 
3.88 1:-0.478261 2:-0.626168 3:-1 4:-0.636364 5:-0.851852 6:-0.97287 7:-0.862796 8:-0.558442 9:-0.97287 10:-0.843137 11:-0.961174 12:-0.882353 13:-0.848478 14:-0.857143 15:0.999999 16:-0.95 17:0.649575 18:-0.921569 19:-0.818182 20:-0.777778 21:-1 22:-0.675676 23:-0.571429 24:-1 25:-0.25 
3.88 1:-0.304348 2:-0.364486 3:-1 4:-0.575758 5:-0.802469 6:-0.977671 7:-0.867329 8:-0.454545 9:-0.992671 10:-0.882353 11:-0.964881 12:-1 13:-0.848478 14:-0.857143 15:0.26769 16:-0.95 17:0.299151 18:-0.921569 19:-0.636364 20:-0.777778 21:-0.777778 22:-0.459459 23:-0.285714 24:-1 25:-0.159091 
3.88 1:-0.217391 2:-0.551402 3:-1 4:-0.474747 5:-0.950617 6:-0.992754 7:-0.874927 8:-0.480519 9:-0.992754 10:-0.960784 11:-0.964881 12:-0.764706 13:-0.848478 14:-0.857143 15:0.999999 16:-0.95 17:0.299151 18:-0.921569 19:-0.818182 20:-0.777778 21:-0.777778 22:-0.621622 23:-0.571429 24:-1 25:-0.340909 
3.88 1:-0.478261 2:-0.626168 3:-1 4:-0.636364 5:-0.851852 6:-0.97287 7:-0.862796 8:-0.558442 9:-0.97287 10:-0.843137 11:-0.961174 12:-0.882353 13:-0.848478 14:-0.857143 15:0.999999 16:-0.95 17:0.649575 18:-0.921569 19:-0.818182 20:-0.777778 21:-1 22:-0.675676 23:-0.571429 24:-1 25:-0.25 
3.88 1:-0.304348 2:-0.364486 3:-1 4:-0.575758 5:-0.802469 6:-0.977671 7:-0.867329 8:-0.454545 9:-0.992671 10:-0.882353 11:-0.964881 12:-1 13:-0.848478 14:-0.857143 15:0.26769 16:-0.95 17:0.299151 18:-0.921569 19:-0.636364 20:-0.777778 21:-0.777778 22:-0.459459 23:-0.285714 24:-1 25:-0.159091 
3.88 1:-0.217391 2:-0.551402 3:-1 4:-0.474747 5:-0.950617 6:-0.992754 7:-0.874927 8:-0.480519 9:-0.992754 10:-0.960784 11:-0.964881 12:-0.764706 13:-0.848478 14:-0.857143 15:0.999999 16:-0.95 17:0.299151 18:-0.921569 19:-0.818182 20:-0.777778 21:-0.777778 22:-0.621622 23:-0.571429 24:-1 25:-0.340909 
3.88 1:-0.391304 2:-0.551402 3:-1 4:-0.474747 5:-0.950617 6:-0.99158 7:-0.874927 8:-0.454545 9:-0.99158 10:-0.921569 11:-0.966999 12:-1 13:-0.848478 14:-0.857143 15:0.999999 16:-0.95 17:0.299151 18:-0.921569 19:-0.818182 20:-0.888889 21:-1 22:-0.567568 23:-0.571429 24:-1 25:-0.227273 
3.88 1:-0.478261 2:-0.607477 3:-1 4:-0.535354 5:-0.925926 6:-0.991624 7:-0.880504 8:-0.402597 9:-0.991624 10:-0.882353 11:-0.966999 12:-1 13:-0.848478 14:-0.714286 15:0.999999 16:-0.95 17:0.299151 18:-0.921569 19:-0.818182 20:-0.888889 21:-1 22:-0.621622 23:-0.571429 24:-1 25:-0.363636 
3.88 1:-0.391304 2:-0.588785 3:-1 4:-0.555556 5:-0.925926 6:-0.992671 7:-0.881492 8:-0.428571 9:-0.992671 10:-0.882353 11:-0.966999 12:-1 13:-0.848478 14:-0.857143 15:0.649575 16:-0.95 17:0.649575 18:-0.921569 19:-0.727273 20:-0.777778 21:-1 22:-0.675676 23:-0.571429 24:-1 25:-0.340909 
3.88 1:-0.304348 2:-0.364486 3:-1 4:-0.79798 5:-0.358025 6:-0.962565 7:-0.837794 8:-0.922078 9:-0.98937 10:-0.843137 11:-0.966999 12:-1 13:-0.879229 14:-0.857143 15:0.999999 16:-0.95 17:0.60453 18:-0.607843 19:-0.636364 20:-1 21:-0.333333 22:-0.513514 23:-0.571429 24:-1 25:-0.409091 
3.88 1:-0.217391 2:-0.420561 3:-1 4:-0.454545 5:-0.901235 6:-0.971902 7:-0.837794 8:-0.948052 9:-0.971902 10:-0.843137 11:-0.966999 12:-1 13:-0.87017 14:-1 15:0.389745 16:-0.95 17:-0.0840987 18:-1 19:-0.818182 20:-0.666667 21:-0.555556 22:-0.621622 23:-0.714286 24:-1 25:-0.386364 
3.88 1:-0.304348 2:-0.570093 3:-1 4:-0.535354 5:-0.925926 6:-0.985705 7:-0.859643 8:-0.532468 9:-0.985705 10:-0.882353 11:-0.966999 12:-1 13:-0.861464 14:-0.857143 15:0.999999 16:-0.95 17:0.299151 18:-0.921569 19:-0.818182 20:-0.888889 21:-0.777778 22:-0.621622 23:-0.571429 24:-1 25:-0.25 
3.88 1:-0.304348 2:-0.364486 3:-1 4:-0.79798 5:-0.358025 6:-0.962565 7:-0.837794 8:-0.922078 9:-0.98937 10:-0.843137 11:-0.966999 12:-1 13:-0.879229 14:-0.857143 15:0.999999 16:-0.95 17:0.60453 18:-0.607843 19:-0.636364 20:-1 21:-0.333333 22:-0.513514 23:-0.571429 24:-1 25:-0.409091 
3.88 1:-0.217391 2:-0.420561 3:-1 4:-0.454545 5:-0.901235 6:-0.971902 7:-0.837794 8:-0.948052 9:-0.971902 10:-0.843137 11:-0.966999 12:-1 13:-0.87017 14:-1 15:0.389745 16:-0.95 17:-0.0840987 18:-1 19:-0.818182 20:-0.666667 21:-0.555556 22:-0.621622 23:-0.714286 24:-1 25:-0.386364 
3.88 1:-0.304348 2:-0.570093 3:-1 4:-0.535354 5:-0.925926 6:-0.985705 7:-0.859643 8:-0.532468 9:-0.985705 10:-0.882353 11:-0.966999 12:-1 13:-0.861464 14:-0.857143 15:0.999999 16:-0.95 17:0.299151 18:-0.921569 19:-0.818182 20:-0.888889 21:-0.777778 22:-0.621622 23:-0.571429 24:-1 25:-0.25 
3.88 1:-0.304348 2:-0.719626 3:-1 4:-0.69697 5:-0.901235 6:-0.985788 7:-0.853078 8:-0.896104 9:-0.985788 10:-0.882353 11:-0.964881 12:-0.764706 13:-0.857184 14:-1 15:0.999999 16:-0.95 17:0.299151 18:-1 19:-1 20:-1 21:-0.555556 22:-0.783784 23:-0.714286 24:-1 25:-0.636364 
3.88 1:-0.565217 2:-0.775701 3:-1 4:-0.838384 5:-0.802469 6:-0.965904 7:-0.840947 8:-0.974026 9:-0.965904 10:-0.764706 11:-0.961174 12:-0.882353 13:-0.857184 14:-1 15:0.999999 16:-0.95 17:0.649575 18:-1 19:-1 20:-0.888889 21:-0.777778 22:-0.783784 23:-0.714286 24:-1 25:-0.545455 
3.88 1:-0.304348 2:-0.719626 3:-1 4:-0.69697 5:-0.901235 6:-0.985788 7:-0.853078 8:-0.896104 9:-0.985788 10:-0.882353 11:-0.964881 12:-0.764706 13:-0.857184 14:-1 15:0.999999 16:-0.95 17:0.299151 18:-1 19:-1 20:-1 21:-0.555556 22:-0.783784 23:-0.714286 24:-1 25:-0.636364 
3.88 1:-0.565217 2:-0.775701 3:-1 4:-0.838384 5:-0.802469 6:-0.965904 7:-0.840947 8:-0.974026 9:-0.965904 10:-0.764706 11:-0.961174 12:-0.882353 13:-0.857184 14:-1 15:0.999999 16:-0.95 17:0.649575 18:-1 19:-1 20:-0.888889 21:-0.777778 22:-0.783784 23:-0.714286 24:-1 25:-0.545455 
3.88 1:-0.304348 2:-0.719626 3:-1 4:-0.69697 5:-0.901235 6:-0.985788 7:-0.853078 8:-0.896104 9:-0.985788 10:-0.882353 11:-0.964881 12:-0.764706 13:-0.857184 14:-1 15:0.999999 16:-0.95 17:0.299151 18:-1 19:-1 20:-1 21:-0.555556 22:-0.783784 23:-0.714286 24:-1 25:-0.636364 
0.7616689317262724 1:-0.391304 2:-0.345794 3:-1 4:-0.757576 5:-0.382716 6:-0.96273 7:-0.843285 8:-0.87013 9:-0.989535 10:-0.764706 11:-0.966999 12:-1 13:-0.879229 14:-0.857143 15:0.649575 16:-0.95 17:0.954954 18:-0.607843 19:-0.454545 20:-1 21:-0.333333 22:-0.513514 23:-0.571429 24:-1 25:-0.522727 
3.88 1:-0.391304 2:-0.345794 3:-1 4:-0.757576 5:-0.382716 6:-0.96273 7:-0.843285 8:-0.87013 9:-0.989535 10:-0.764706 11:-0.966999 12:-1 13:-0.879229 14:-0.857143 15:0.649575 16:-0.95 17:0.954954 18:-0.607843 19:-0.454545 20:-1 21:-0.333333 22:-0.513514 23:-0.571429 24:-1 25:-0.522727 
1.434888095007305 1:-0.652174 2:-0.757009 3:-1 4:-0.79798 5:-0.82716 6:-0.966069 7:-0.846438 8:-0.922078 9:-0.966069 10:-0.72549 11:-0.961174 12:-0.882353 13:-0.857184 14:-1 15:0.649575 16:-0.95 17:1 18:-1 19:-0.909091 20:-0.888889 21:-1 22:-0.783784 23:-0.714286 24:-1 25:-0.659091 
3.88 1:-0.304348 2:-0.53271 3:1 4:-0.919192 5:-0.604938 6:-0.968545 7:-0.858712 8:-0.896104 9:-0.988115 10:-0.843137 11:-0.967056 12:-0.764706 13:-0.870435 14:-1 15:-0.22051 16:-1 17:-0.22051 18:-0.764706 19:-0.545455 20:-0.666667 21:-0.555556 22:-0.675676 23:-0.714286 24:-1 25:-0.636364 
3.88 1:-0.391304 2:-0.607477 3:1 4:-0.89899 5:-0.728395 6:-0.988323 7:-0.877387 8:-0.948052 9:-0.987069 10:-0.921569 11:-0.973905 12:-0.882353 13:-0.87017 14:-1 15:0.0393206 16:-1 17:0.0393206 18:-0.882353 19:-0.636364 20:-0.888889 21:-0.555556 22:-0.675676 23:-0.714286 24:-1 25:-0.545455 
3.88 1:-0.217391 2:-0.607477 3:1 4:-0.939394 5:-0.728395 6:-0.967347 7:-0.857581 8:-0.948052 9:-0.988163 10:-0.803922 11:-0.988019 12:-0.764706 13:-0.87017 14:-1 15:-0.22051 16:-1 17:-0.343929 18:-0.843137 19:-0.636364 20:-0.888889 21:-0.555556 22:-0.621622 23:-0.714286 24:-1 25:-0.704545 
3.88 1:-0.391304 2:-0.607477 3:1 4:-0.89899 5:-0.728395 6:-0.988323 7:-0.877387 8:-0.948052 9:-0.987069 10:-0.921569 11:-0.973905 12:-0.882353 13:-0.87017 14:-1 15:0.0393206 16:-1 17:0.0393206 18:-0.882353 19:-0.636364 20:-0.888889 21:-0.555556 22:-0.675676 23:-0.714286 24:-1 25:-0.545455 
3.88 1:-0.391304 2:-0.64486 3:1 4:-0.939394 5:-0.802469 6:-0.966069 7:-0.856375 8:-0.922078 9:-0.962779 10:-0.960784 11:-0.982055 12:-0.764706 13:-0.87017 14:-1 15:0.389745 16:-1 17:-0.22051 18:-0.921569 19:-0.727273 20:-0.888889 21:-0.555556 22:-0.783784 23:-0.714286 24:-1 25:-0.75 
3.88 1:-0.304348 2:-0.663551 3:1 4:-0.919192 5:-0.753086 6:-0.984779 7:-0.87404 8:-0.948052 9:-0.978907 10:-0.882353 11:-0.973905 12:-0.882353 13:-0.87017 14:-1 15:-0.22051 16:-1 17:0.0393206 18:-0.921569 19:-0.818182 20:-0.888889 21:-0.555556 22:-0.675676 23:-0.857143 24:-1 25:-0.568182 
3.88 1:-0.217391 2:-0.607477 3:1 4:-0.939394 5:-0.728395 6:-0.967347 7:-0.857581 8:-0.948052 9:-0.988163 10:-0.803922 11:-0.988019 12:-0.764706 13:-0.87017 14:-1 15:-0.22051 16:-1 17:-0.343929 18:-0.843137 19:-0.636364 20:-0.888889 21:-0.555556 22:-0.621622 23:-0.714286 24:-1 25:-0.704545 
3.88 1:-0.391304 2:-0.607477 3:1 4:-0.89899 5:-0.728395 6:-0.988323 7:-0.877387 8:-0.948052 9:-0.987069 10:-0.921569 11:-0.973905 12:-0.882353 13:-0.87017 14:-1 15:0.0393206 16:-1 17:0.0393206 18:-0.882353 19:-0.636364 20:-0.888889 21:-0.555556 22:-0.675676 23:-0.714286 24:-1 25:-0.545455 
3.88 1:-0.478261 2:-0.551402 3:1 4:-0.818182 5:-0.703704 6:-0.989535 7:-0.878531 8:-0.714286 9:-0.989535 10:-0.568627 11:-0.984428 12:-0.764706 13:-0.87017 14:-1 15:0.0393206 16:-0.95 17:0.0393206 18:-0.803922 19:-0.545455 20:-0.777778 21:-0.777778 22:-0.567568 23:-1 24:-1 25:-0.613636 
3.88 1:-0.391304 2:-0.64486 3:1 4:-0.939394 5:-0.802469 6:-0.966069 7:-0.856375 8:-0.922078 9:-0.962779 10:-0.960784 11:-0.982055 12:-0.764706 13:-0.87017 14:-1 15:0.389745 16:-1 17:-0.22051 18:-0.921569 19:-0.727273 20:-0.888889 21:-0.555556 22:-0.783784 23:-0.714286 24:-1 25:-0.75 
3.88 1:-0.304348 2:-0.663551 3:1 4:-0.919192 5:-0.753086 6:-0.984779 7:-0.87404 8:-0.948052 9:-0.978907 10:-0.882353 11:-0.973905 12:-0.882353 13:-0.87017 14:-1 15:-0.22051 16:-1 17:0.0393206 18:-0.921569 19:-0.818182 20:-0.888889 21:-0.555556 22:-0.675676 23:-0.857143 24:-1 25:-0.568182 
3.88 1:-0.304348 2:-0.457944 3:1 4:-0.919192 5:-0.753086 6:-0.97087 7:-0.860907 8:-0.844156 9:-0.985871 10:-0.882353 11:-0.971786 12:-0.764706 13:-0.857184 14:-1 15:-0.342565 16:-1 17:0.0393206 18:-0.960784 19:-0.636364 20:-0.777778 21:-0.555556 22:-0.567568 23:-0.571429 24:-1 25:-0.522727 
3.88 1:-0.478261 2:-0.719626 3:1 4:-0.959596 5:-0.82716 6:-0.966069 7:-0.856375 8:-0.948052 9:-0.966069 10:-0.843137 11:-0.968079 12:-0.764706 13:-0.857184 14:-1 15:0.389745 16:-1 17:0.389745 18:-0.960784 19:-0.818182 20:-0.777778 21:-0.777778 22:-0.783784 23:-0.857143 24:-1 25:-0.613636 
3.88 1:-0.304348 2:-0.457944 3:1 4:-0.919192 5:-0.753086 6:-0.97087 7:-0.860907 8:-0.844156 9:-0.985871 10:-0.882353 11:-0.971786 12:-0.764706 13:-0.857184 14:-1 15:-0.342565 16:-1 17:0.0393206 18:-0.960784 19:-0.636364 20:-0.777778 21:-0.555556 22:-0.567568 23:-0.571429 24:-1 25:-0.522727 
3.88 1:-0.478261 2:-0.719626 3:1 4:-0.959596 5:-0.82716 6:-0.966069 7:-0.856375 8:-0.948052 9:-0.966069 10:-0.843137 11:-0.968079 12:-0.764706 13:-0.857184 14:-1 15:0.389745 16:-1 17:0.389745 18:-0.960784 19:-0.818182 20:-0.777778 21:-0.777778 22:-0.783784 23:-0.857143 24:-1 25:-0.613636 
3.88 1:-0.304348 2:-0.457944 3:1 4:-0.919192 5:-0.753086 6:-0.97087 7:-0.860907 8:-0.844156 9:-0.985871 10:-0.882353 11:-0.971786 12:-0.764706 13:-0.857184 14:-1 15:-0.342565 16:-1 17:0.0393206 18:-0.960784 19:-0.636364 20:-0.777778 21:-0.555556 22:-0.567568 23:-0.571429 24:-1 25:-0.522727 
3.88 1:-0.478261 2:-0.626168 3:-1 4:-0.555556 5:-1 6:-0.996336 7:-0.884952 8:-0.428571 9:-0.996336 10:-0.960784 11:-0.966999 12:-1 13:-0.861464 14:-0.857143 15:0.389745 16:-0.95 17:0.649575 18:-0.921569 19:-0.818182 20:-0.888889 21:-1 22:-0.675676 23:-0.714286 24:-1 25:-0.113636 
3.88 1:-0.478261 2:-0.626168 3:-1 4:-0.555556 5:-1 6:-0.996336 7:-0.884952 8:-0.428571 9:-0.996336 10:-0.960784 11:-0.966999 12:-1 13:-0.861464 14:-0.857143 15:0.389745 16:-0.95 17:0.649575 18:-0.921569 19:-0.818182 20:-0.888889 21:-1 22:-0.675676 23:-0.714286 24:-1 25:-0.113636 
3.88 1:-0.478261 2:-0.514019 3:1 4:-0.838384 5:-0.432099 6:-0.977798 7:-0.867449 8:-0.948052 9:-0.996114 10:-0.803922 11:-0.96015 12:-0.882353 13:-0.870435 14:-1 15:0.0393206 16:-1 17:0.0393206 18:-0.764706 19:-0.545455 20:-0.777778 21:-0.777778 22:-0.675676 23:-0.571429 24:-1 25:-0.5 
3.88 1:-0.391304 2:-0.495327 3:-1 4:-0.575758 5:-0.753086 6:-0.995124 7:-0.883808 8:-0.558442 9:-0.99387 10:-0.921569 11:-0.966999 12:-1 13:-0.861464 14:-0.857143 15:0.649575 16:-0.95 17:0.299151 18:-0.882353 19:-0.636364 20:-0.888889 21:-1 22:-0.567568 23:-0.571429 24:-1 25:-0.181818 
3.88 1:-0.391304 2:-0.607477 3:1 4:-0.89899 5:-0.728395 6:-0.988323 7:-0.877387 8:-0.948052 9:-0.987069 10:-0.921569 11:-0.973905 12:-0.882353 13:-0.87017 14:-1 15:0.0393206 16:-1 17:0.0393206 18:-0.882353 19:-0.636364 20:-0.888889 21:-0.555556 22:-0.675676 23:-0.714286 24:-1 25:-0.545455 
3.88 1:-0.391304 2:-0.607477 3:1 4:-0.858586 5:-0.530864 6:-0.9766 7:-0.866318 8:-0.974026 9:-0.996162 10:-0.764706 11:-0.981113 12:-0.882353 13:-0.87017 14:-1 15:0.0393206 16:-1 17:-0.0840987 18:-0.843137 19:-0.636364 20:-1 21:-0.777778 22:-0.621622 23:-0.571429 24:-1 25:-0.568182 
3.88 1:-0.391304 2:-0.607477 3:1 4:-0.858586 5:-0.530864 6:-0.9766 7:-0.866318 8:-0.974026 9:-0.996162 10:-0.764706 11:-0.981113 12:-0.882353 13:-0.87017 14:-1 15:0.0393206 16:-1 17:-0.0840987 18:-0.843137 19:-0.636364 20:-1 21:-0.777778 22:-0.621622 23:-0.571429 24:-1 25:-0.568182 
3.88 1:-0.391304 2:-0.607477 3:1 4:-0.89899 5:-0.728395 6:-0.988323 7:-0.877387 8:-0.948052 9:-0.987069 10:-0.921569 11:-0.973905 12:-0.882353 13:-0.87017 14:-1 15:0.0393206 16:-1 17:0.0393206 18:-0.882353 19:-0.636364 20:-0.888889 21:-0.555556 22:-0.675676 23:-0.714286 24:-1 25:-0.545455 
3.88 1:-0.391304 2:-0.495327 3:-1 4:-0.575758 5:-0.753086 6:-0.995124 7:-0.883808 8:-0.558442 9:-0.99387 10:-0.921569 11:-0.966999 12:-1 13:-0.861464 14:-0.857143 15:0.649575 16:-0.95 17:0.299151 18:-0.882353 19:-0.636364 20:-0.888889 21:-1 22:-0.567568 23:-0.571429 24:-1 25:-0.181818 
3.88 1:-0.478261 2:-0.457944 3:1 4:-0.838384 5:-0.580247 6:-0.980123 7:-0.869644 8:-0.896104 9:-0.99387 10:-0.843137 11:-0.964881 12:-1 13:-0.857184 14:-1 15:-0.0827346 16:-0.95 17:0.299151 18:-0.960784 19:-0.636364 20:-0.888889 21:-0.777778 22:-0.567568 23:-0.428571 24:-1 25:-0.386364 
3.88 1:-0.391304 2:-0.64486 3:-1 4:-0.737374 5:-0.728395 6:-0.995206 7:-0.877242 8:-0.896104 9:-0.993952 10:-0.921569 11:-0.964881 12:-0.764706 13:-0.857184 14:-1 15:0.649575 16:-0.95 17:0.299151 18:-0.960784 19:-0.818182 20:-1 21:-0.555556 22:-0.72973 23:-0.714286 24:-1 25:-0.568182 
3.88 1:-0.478261 2:-0.457944 3:1 4:-0.838384 5:-0.580247 6:-0.980123 7:-0.869644 8:-0.896104 9:-0.99387 10:-0.843137 11:-0.964881 12:-1 13:-0.857184 14:-1 15:-0.0827346 16:-0.95 17:0.299151 18:-0.960784 19:-0.636364 20:-0.888889 21:-0.777778 22:-0.567568 23:-0.428571 24:-1 25:-0.386364 
3.88 1:-0.391304 2:-0.64486 3:-1 4:-0.737374 5:-0.728395 6:-0.995206 7:-0.877242 8:-0.896104 9:-0.993952 10:-0.921569 11:-0.964881 12:-0.764706 13:-0.857184 14:-1 15:0.649575 16:-0.95 17:0.299151 18:-0.960784 19:-0.818182 20:-1 21:-0.555556 22:-0.72973 23:-0.714286 24:-1 25:-0.568182 
3.88 1:-0.478261 2:-0.457944 3:1 4:-0.838384 5:-0.580247 6:-0.980123 7:-0.869644 8:-0.896104 9:-0.99387 10:-0.843137 11:-0.964881 12:-1 13:-0.857184 14:-1 15:-0.0827346 16:-0.95 17:0.299151 18:-0.960784 19:-0.636364 20:-0.888889 21:-0.777778 22:-0.567568 23:-0.428571 24:-1 25:-0.386364 
3.88 1:-0.391304 2:-0.64486 3:-1 4:-0.737374 5:-0.728395 6:-0.995206 7:-0.877242 8:-0.896104 9:-0.993952 10:-0.921569 11:-0.964881 12:-0.764706 13:-0.857184 14:-1 15:0.649575 16:-0.95 17:0.299151 18:-0.960784 19:-0.818182 20:-1 21:-0.555556 22:-0.72973 23:-0.714286 24:-1 25:-0.568182 
3.88 1:-0.391304 2:-0.345794 3:-1 4:-0.757576 5:-0.382716 6:-0.96273 7:-0.843285 8:-0.87013 9:-0.989535 10:-0.764706 11:-0.966999 12:-1 13:-0.879229 14:-0.857143 15:0.649575 16:-0.95 17:0.954954 18:-0.607843 19:-0.454545 20:-1 21:-0.333333 22:-0.513514 23:-0.571429 24:-1 25:-0.522727 
3.88 1:-0.391304 2:-0.345794 3:-1 4:-0.757576 5:-0.382716 6:-0.96273 7:-0.843285 8:-0.87013 9:-0.989535 10:-0.764706 11:-0.966999 12:-1 13:-0.879229 14:-0.857143 15:0.649575 16:-0.95 17:0.954954 18:-0.607843 19:-0.454545 20:-1 21:-0.333333 22:-0.513514 23:-0.571429 24:-1 25:-0.522727 
3.88 1:-0.391304 2:-0.345794 3:-1 4:-0.757576 5:-0.382716 6:-0.96273 7:-0.843285 8:-0.87013 9:-0.989535 10:-0.764706 11:-0.966999 12:-1 13:-0.879229 14:-0.857143 15:0.649575 16:-0.95 17:0.954954 18:-0.607843 19:-0.454545 20:-1 21:-0.333333 22:-0.513514 23:-0.571429 24:-1 25:-0.522727 
3.88 1:-0.391304 2:-0.345794 3:-1 4:-0.757576 5:-0.382716 6:-0.96273 7:-0.843285 8:-0.87013 9:-0.989535 10:-0.764706 11:-0.966999 12:-1 13:-0.879229 14:-0.857143 15:0.649575 16:-0.95 17:0.954954 18:-0.607843 19:-0.454545 20:-1 21:-0.333333 22:-0.513514 23:-0.571429 24:-1 25:-0.522727 
3.88 1:-0.304348 2:-0.53271 3:1 4:-0.858586 5:-0.432099 6:-0.956822 7:-0.847643 8:-0.948052 9:-0.997208 10:-0.686275 11:-0.974264 12:-0.764706 13:-0.870435 14:-1 15:-0.22051 16:-1 17:-0.343929 18:-0.72549 19:-0.545455 20:-0.777778 21:-0.777778 22:-0.621622 23:-0.571429 24:-1 25:-0.659091 
3.88 1:-0.217391 2:-0.514019 3:-1 4:-0.59596 5:-0.753086 6:-0.974148 7:-0.864002 8:-0.558442 9:-0.994964 10:-0.803922 11:-0.981113 12:-0.882353 13:-0.861464 14:-0.857143 15:0.389745 16:-1 17:-0.0840987 18:-0.843137 19:-0.636364 20:-0.777778 21:-1 22:-0.513514 23:-0.428571 24:-1 25:-0.340909 
3.88 1:-0.217391 2:-0.607477 3:1 4:-0.939394 5:-0.728395 6:-0.967347 7:-0.857581 8:-0.948052 9:-0.988163 10:-0.803922 11:-0.988019 12:-0.764706 13:-0.87017 14:-1 15:-0.22051 16:-1 17:-0.343929 18:-0.843137 19:-0.636364 20:-0.888889 21:-0.555556 22:-0.621622 23:-0.714286 24:-1 25:-0.704545 
3.88 1:-0.391304 2:-0.607477 3:1 4:-0.858586 5:-0.530864 6:-0.9766 7:-0.866318 8:-0.974026 9:-0.996162 10:-0.764706 11:-0.981113 12:-0.882353 13:-0.87017 14:-1 15:0.0393206 16:-1 17:-0.0840987 18:-0.843137 19:-0.636364 20:-1 21:-0.777778 22:-0.621622 23:-0.571429 24:-1 25:-0.568182 
3.88 1:-0.391304 2:-0.607477 3:1 4:-0.858586 5:-0.530864 6:-0.9766 7:-0.866318 8:-0.974026 9:-0.996162 10:-0.764706 11:-0.981113 12:-0.882353 13:-0.87017 14:-1 15:0.0393206 16:-1 17:-0.0840987 18:-0.843137 19:-0.636364 20:-1 21:-0.777778 22:-0.621622 23:-0.571429 24:-1 25:-0.568182 
3.88 1:-0.391304 2:-0.64486 3:1 4:-0.89899 5:-0.604938 6:-0.954346 7:-0.845306 8:-0.974026 9:-0.971872 10:-0.803922 11:-0.989263 12:-0.764706 13:-0.87017 14:-1 15:0.389745 16:-1 17:-0.343929 18:-0.882353 19:-0.727273 20:-0.888889 21:-0.777778 22:-0.72973 23:-0.571429 24:-1 25:-0.772727 
3.88 1:-0.304348 2:-0.663551 3:1 4:-0.858586 5:-0.555556 6:-0.973056 7:-0.862972 8:-0.974026 9:-0.988 10:-0.72549 11:-0.981113 12:-0.882353 13:-0.87017 14:-1 15:-0.22051 16:-1 17:-0.0840987 18:-0.882353 19:-0.818182 20:-1 21:-0.777778 22:-0.621622 23:-0.571429 24:-1 25:-0.590909 
3.88 1:-0.217391 2:-0.607477 3:1 4:-0.939394 5:-0.728395 6:-0.967347 7:-0.857581 8:-0.948052 9:-0.988163 10:-0.803922 11:-0.988019 12:-0.764706 13:-0.87017 14:-1 15:-0.22051 16:-1 17:-0.343929 18:-0.843137 19:-0.636364 20:-0.888889 21:-0.555556 22:-0.621622 23:-0.714286 24:-1 25:-0.704545 
3.88 1:-0.391304 2:-0.607477 3:1 4:-0.858586 5:-0.530864 6:-0.9766 7:-0.866318 8:-0.974026 9:-0.996162 10:-0.764706 11:-0.981113 12:-0.882353 13:-0.87017 14:-1 15:0.0393206 16:-1 17:-0.0840987 18:-0.843137 19:-0.636364 20:-1 21:-0.777778 22:-0.621622 23:-0.571429 24:-1 25:-0.568182 
3.88 1:-0.217391 2:-0.514019 3:-1 4:-0.59596 5:-0.753086 6:-0.974148 7:-0.864002 8:-0.558442 9:-0.994964 10:-0.803922 11:-0.981113 12:-0.882353 13:-0.861464 14:-0.857143 15:0.389745 16:-1 17:-0.0840987 18:-0.843137 19:-0.636364 20:-0.777778 21:-1 22:-0.513514 23:-0.428571 24:-1 25:-0.340909 
3.88 1:-0.478261 2:-0.551402 3:1 4:-0.777778 5:-0.506173 6:-0.977812 7:-0.867462 8:-0.766234 9:-0.998628 10:-0.411765 11:-0.991636 12:-0.764706 13:-0.87017 14:-1 15:0.0393206 16:-0.95 17:-0.0840987 18:-0.764706 19:-0.545455 20:-0.888889 21:-1 22:-0.513514 23:-0.714286 24:-1 25:-0.636364 
3.88 1:-0.391304 2:-0.64486 3:1 4:-0.89899 5:-0.604938 6:-0.954346 7:-0.845306 8:-0.974026 9:-0.971872 10:-0.803922 11:-0.989263 12:-0.764706 13:-0.87017 14:-1 15:0.389745 16:-1 17:-0.343929 18:-0.882353 19:-0.727273 20:-0.888889 21:-0.777778 22:-0.72973 23:-0.571429 24:-1 25:-0.772727 
3.88 1:-0.304348 2:-0.663551 3:1 4:-0.858586 5:-0.555556 6:-0.973056 7:-0.862972 8:-0.974026 9:-0.988 10:-0.72549 11:-0.981113 12:-0.882353 13:-0.87017 14:-1 15:-0.22051 16:-1 17:-0.0840987 18:-0.882353 19:-0.818182 20:-1 21:-0.777778 22:-0.621622 23:-0.571429 24:-1 25:-0.590909 
3.88 1:-0.304348 2:-0.457944 3:1 4:-0.858586 5:-0.580247 6:-0.959147 7:-0.849839 8:-0.896104 9:-0.994964 10:-0.72549 11:-0.978995 12:-0.882353 13:-0.857184 14:-1 15:-0.342565 16:-1 17:-0.0840987 18:-0.921569 19:-0.636364 20:-0.888889 21:-0.777778 22:-0.513514 23:-0.285714 24:-1 25:-0.545455 
3.88 1:-0.217391 2:-0.663551 3:-1 4:-0.757576 5:-0.728395 6:-0.97423 7:-0.857437 8:-0.896104 9:-0.995046 10:-0.803922 11:-0.978995 12:-0.647059 13:-0.857184 14:-1 15:0.389745 16:-0.95 17:-0.0840987 18:-0.921569 19:-0.818182 20:-0.888889 21:-0.555556 22:-0.675676 23:-0.571429 24:-1 25:-0.727273 
3.88 1:-0.478261 2:-0.719626 3:1 4:-0.919192 5:-0.62963 6:-0.954346 7:-0.845306 8:-0.974026 9:-0.975162 10:-0.686275 11:-0.975288 12:-0.764706 13:-0.857184 14:-1 15:0.389745 16:-1 17:0.266326 18:-0.921569 19:-0.818182 20:-0.888889 21:-1 22:-0.72973 23:-0.571429 24:-1 25:-0.636364 
3.88 1:-0.304348 2:-0.457944 3:1 4:-0.858586 5:-0.580247 6:-0.959147 7:-0.849839 8:-0.896104 9:-0.994964 10:-0.72549 11:-0.978995 12:-0.882353 13:-0.857184 14:-1 15:-0.342565 16:-1 17:-0.0840987 18:-0.921569 19:-0.636364 20:-0.888889 21:-0.777778 22:-0.513514 23:-0.285714 24:-1 25:-0.545455 
3.88 1:-0.217391 2:-0.663551 3:-1 4:-0.757576 5:-0.728395 6:-0.97423 7:-0.857437 8:-0.896104 9:-0.995046 10:-0.803922 11:-0.978995 12:-0.647059 13:-0.857184 14:-1 15:0.389745 16:-0.95 17:-0.0840987 18:-0.921569 19:-0.818182 20:-0.888889 21:-0.555556 22:-0.675676 23:-0.571429 24:-1 25:-0.727273 
3.88 1:-0.478261 2:-0.719626 3:1 4:-0.919192 5:-0.62963 6:-0.954346 7:-0.845306 8:-0.974026 9:-0.975162 10:-0.686275 11:-0.975288 12:-0.764706 13:-0.857184 14:-1 15:0.389745 16:-1 17:0.266326 18:-0.921569 19:-0.818182 20:-0.888889 21:-1 22:-0.72973 23:-0.571429 24:-1 25:-0.636364 
3.88 1:-0.304348 2:-0.457944 3:1 4:-0.858586 5:-0.580247 6:-0.959147 7:-0.849839 8:-0.896104 9:-0.994964 10:-0.72549 11:-0.978995 12:-0.882353 13:-0.857184 14:-1 15:-0.342565 16:-1 17:-0.0840987 18:-0.921569 19:-0.636364 20:-0.888889 21:-0.777778 22:-0.513514 23:-0.285714 24:-1 25:-0.545455 
3.88 1:-0.217391 2:-0.663551 3:-1 4:-0.757576 5:-0.728395 6:-0.97423 7:-0.857437 8:-0.896104 9:-0.995046 10:-0.803922 11:-0.978995 12:-0.647059 13:-0.857184 14:-1 15:0.389745 16:-0.95 17:-0.0840987 18:-0.921569 19:-0.818182 20:-0.888889 21:-0.555556 22:-0.675676 23:-0.571429 24:-1 25:-0.727273 
1.56341269471132 1:-0.478261 2:-0.626168 3:-1 4:-0.555556 5:-1 6:-0.996336 7:-0.884952 8:-0.428571 9:-0.996336 10:-0.960784 11:-0.966999 12:-1 13:-0.861464 14:-0.857143 15:0.389745 16:-0.95 17:0.649575 18:-0.921569 19:-0.818182 20:-0.888889 21:-1 22:-0.675676 23:-0.714286 24:-1 25:-0.113636 
3.88 1:-0.391304 2:-0.345794 3:-1 4:-0.757576 5:-0.382716 6:-0.96273 7:-0.843285 8:-0.87013 9:-0.989535 10:-0.764706 11:-0.966999 12:-1 13:-0.879229 14:-0.857143 15:0.649575 16:-0.95 17:0.954954 18:-0.607843 19:-0.454545 20:-1 21:-0.333333 22:-0.513514 23:-0.571429 24:-1 25:-0.522727 
3.88 1:-0.391304 2:-0.345794 3:-1 4:-0.757576 5:-0.382716 6:-0.96273 7:-0.843285 8:-0.87013 9:-0.989535 10:-0.764706 11:-0.966999 12:-1 13:-0.879229 14:-0.857143 15:0.649575 16:-0.95 17:0.954954 18:-0.607843 19:-0.454545 20:-1 21:-0.333333 22:-0.513514 23:-0.571429 24:-1 25:-0.522727 
2.402447801675096 1:-0.391304 2:-0.551402 3:-1 4:-0.474747 5:-0.950617 6:-0.985871 7:-0.865134 8:-0.506494 9:-0.985871 10:-0.843137 11:-0.966999 12:-1 13:-0.861464 14:-0.857143 15:0.649575 16:-0.95 17:0.649575 18:-0.921569 19:-0.636364 20:-0.888889 21:-1 22:-0.567568 23:-0.571429 24:-1 25:-0.363636 
3.88 1:-0.478261 2:-0.514019 3:1 4:-0.838384 5:-0.432099 6:-0.977798 7:-0.867449 8:-0.948052 9:-0.996114 10:-0.803922 11:-0.96015 12:-0.882353 13:-0.870435 14:-1 15:0.0393206 16:-1 17:0.0393206 18:-0.764706 19:-0.545455 20:-0.777778 21:-0.777778 22:-0.675676 23:-0.571429 24:-1 25:-0.5 
3.88 1:-0.391304 2:-0.495327 3:-1 4:-0.575758 5:-0.753086 6:-0.995124 7:-0.883808 8:-0.558442 9:-0.99387 10:-0.921569 11:-0.966999 12:-1 13:-0.861464 14:-0.857143 15:0.649575 16:-0.95 17:0.299151 18:-0.882353 19:-0.636364 20:-0.888889 21:-1 22:-0.567568 23:-0.571429 24:-1 25:-0.181818 
3.88 1:-0.391304 2:-0.607477 3:1 4:-0.89899 5:-0.728395 6:-0.988323 7:-0.877387 8:-0.948052 9:-0.987069 10:-0.921569 11:-0.973905 12:-0.882353 13:-0.87017 14:-1 15:0.0393206 16:-1 17:0.0393206 18:-0.882353 19:-0.636364 20:-0.888889 21:-0.555556 22:-0.675676 23:-0.714286 24:-1 25:-0.545455 
3.88 1:-0.391304 2:-0.607477 3:1 4:-0.858586 5:-0.530864 6:-0.9766 7:-0.866318 8:-0.974026 9:-0.996162 10:-0.764706 11:-0.981113 12:-0.882353 13:-0.87017 14:-1 15:0.0393206 16:-1 17:-0.0840987 18:-0.843137 19:-0.636364 20:-1 21:-0.777778 22:-0.621622 23:-0.571429 24:-1 25:-0.568182 
3.88 1:-0.391304 2:-0.607477 3:1 4:-0.858586 5:-0.530864 6:-0.9766 7:-0.866318 8:-0.974026 9:-0.996162 10:-0.764706 11:-0.981113 12:-0.882353 13:-0.87017 14:-1 15:0.0393206 16:-1 17:-0.0840987 18:-0.843137 19:-0.636364 20:-1 21:-0.777778 22:-0.621622 23:-0.571429 24:-1 25:-0.568182 
3.88 1:-0.391304 2:-0.607477 3:1 4:-0.89899 5:-0.728395 6:-0.988323 7:-0.877387 8:-0.948052 9:-0.987069 10:-0.921569 11:-0.973905 12:-0.882353 13:-0.87017 14:-1 15:0.0393206 16:-1 17:0.0393206 18:-0.882353 19:-0.636364 20:-0.888889 21:-0.555556 22:-0.675676 23:-0.714286 24:-1 25:-0.545455 
3.88 1:-0.391304 2:-0.495327 3:-1 4:-0.575758 5:-0.753086 6:-0.995124 7:-0.883808 8:-0.558442 9:-0.99387 10:-0.921569 11:-0.966999 12:-1 13:-0.861464 14:-0.857143 15:0.649575 16:-0.95 17:0.299151 18:-0.882353 19:-0.636364 20:-0.888889 21:-1 22:-0.567568 23:-0.571429 24:-1 25:-0.181818 
3.88 1:-0.478261 2:-0.457944 3:1 4:-0.838384 5:-0.580247 6:-0.980123 7:-0.869644 8:-0.896104 9:-0.99387 10:-0.843137 11:-0.964881 12:-1 13:-0.857184 14:-1 15:-0.0827346 16:-0.95 17:0.299151 18:-0.960784 19:-0.636364 20:-0.888889 21:-0.777778 22:-0.567568 23:-0.428571 24:-1 25:-0.386364 
3.88 1:-0.391304 2:-0.64486 3:-1 4:-0.737374 5:-0.728395 6:-0.995206 7:-0.877242 8:-0.896104 9:-0.993952 10:-0.921569 11:-0.964881 12:-0.764706 13:-0.857184 14:-1 15:0.649575 16:-0.95 17:0.299151 18:-0.960784 19:-0.818182 20:-1 21:-0.555556 22:-0.72973 23:-0.714286 24:-1 25:-0.568182 
3.88 1:-0.478261 2:-0.457944 3:1 4:-0.838384 5:-0.580247 6:-0.980123 7:-0.869644 8:-0.896104 9:-0.99387 10:-0.843137 11:-0.964881 12:-1 13:-0.857184 14:-1 15:-0.0827346 16:-0.95 17:0.299151 18:-0.960784 19:-0.636364 20:-0.888889 21:-0.777778 22:-0.567568 23:-0.428571 24:-1 25:-0.386364 
3.88 1:-0.391304 2:-0.64486 3:-1 4:-0.737374 5:-0.728395 6:-0.995206 7:-0.877242 8:-0.896104 9:-0.993952 10:-0.921569 11:-0.964881 12:-0.764706 13:-0.857184 14:-1 15:0.649575 16:-0.95 17:0.299151 18:-0.960784 19:-0.818182 20:-1 21:-0.555556 22:-0.72973 23:-0.714286 24:-1 25:-0.568182 
3.88 1:-0.478261 2:-0.457944 3:1 4:-0.838384 5:-0.580247 6:-0.980123 7:-0.869644 8:-0.896104 9:-0.99387 10:-0.843137 11:-0.964881 12:-1 13:-0.857184 14:-1 15:-0.0827346 16:-0.95 17:0.299151 18:-0.960784 19:-0.636364 20:-0.888889 21:-0.777778 22:-0.567568 23:-0.428571 24:-1 25:-0.386364 
3.88 1:-0.391304 2:-0.64486 3:-1 4:-0.737374 5:-0.728395 6:-0.995206 7:-0.877242 8:-0.896104 9:-0.993952 10:-0.921569 11:-0.964881 12:-0.764706 13:-0.857184 14:-1 15:0.649575 16:-0.95 17:0.299151 18:-0.960784 19:-0.818182 20:-1 21:-0.555556 22:-0.72973 23:-0.714286 24:-1 25:-0.568182 
3.88 1:-0.478261 2:-0.570093 3:1 4:-0.878788 5:-0.506173 6:-0.955544 7:-0.846436 8:-0.922078 9:-0.971824 10:-0.843137 11:-0.9683 12:-0.764706 13:-0.870435 14:-1 15:0.389745 16:-1 17:-0.22051 18:-0.803922 19:-0.545455 20:-0.777778 21:-0.777778 22:-0.72973 23:-0.571429 24:-1 25:-0.704545 
3.88 1:-0.391304 2:-0.551402 3:-1 4:-0.616162 5:-0.82716 6:-0.97287 7:-0.862796 8:-0.532468 9:-0.96958 10:-0.960784 11:-0.975149 12:-0.882353 13:-0.861464 14:-0.857143 15:0.999999 16:-1 17:0.0393206 18:-0.882353 19:-0.636364 20:-0.777778 21:-1 22:-0.675676 23:-0.571429 24:-1 25:-0.386364 
3.88 1:-0.391304 2:-0.64486 3:1 4:-0.939394 5:-0.802469 6:-0.966069 7:-0.856375 8:-0.922078 9:-0.962779 10:-0.960784 11:-0.982055 12:-0.764706 13:-0.87017 14:-1 15:0.389745 16:-1 17:-0.22051 18:-0.921569 19:-0.727273 20:-0.888889 21:-0.555556 22:-0.783784 23:-0.714286 24:-1 25:-0.75 
3.88 1:-0.391304 2:-0.64486 3:1 4:-0.89899 5:-0.604938 6:-0.954346 7:-0.845306 8:-0.974026 9:-0.971872 10:-0.803922 11:-0.989263 12:-0.764706 13:-0.87017 14:-1 15:0.389745 16:-1 17:-0.343929 18:-0.882353 19:-0.727273 20:-0.888889 21:-0.777778 22:-0.72973 23:-0.571429 24:-1 25:-0.772727 
3.88 1:-0.391304 2:-0.64486 3:1 4:-0.89899 5:-0.604938 6:-0.954346 7:-0.845306 8:-0.974026 9:-0.971872 10:-0.803922 11:-0.989263 12:-0.764706 13:-0.87017 14:-1 15:0.389745 16:-1 17:-0.343929 18:-0.882353 19:-0.727273 20:-0.888889 21:-0.777778 22:-0.72973 23:-0.571429 24:-1 25:-0.772727 
3.88 1:-0.391304 2:-0.64486 3:1 4:-0.939394 5:-0.802469 6:-0.966069 7:-0.856375 8:-0.922078 9:-0.962779 10:-0.960784 11:-0.982055 12:-0.764706 13:-0.87017 14:-1 15:0.389745 16:-1 17:-0.22051 18:-0.921569 19:-0.727273 20:-0.888889 21:-0.555556 22:-0.783784 23:-0.714286 24:-1 25:-0.75 
3.88 1:-0.391304 2:-0.551402 3:-1 4:-0.616162 5:-0.82716 6:-0.97287 7:-0.862796 8:-0.532468 9:-0.96958 10:-0.960784 11:-0.975149 12:-0.882353 13:-0.861464 14:-0.857143 15:0.999999 16:-1 17:0.0393206 18:-0.882353 19:-0.636364 20:-0.777778 21:-1 22:-0.675676 23:-0.571429 24:-1 25:-0.386364 
3.88 1:-0.478261 2:-0.495327 3:1 4:-0.878788 5:-0.654321 6:-0.957869 7:-0.848632 8:-0.87013 9:-0.96958 10:-0.882353 11:-0.973031 12:-0.882353 13:-0.857184 14:-1 15:0.26769 16:-1 17:0.0393206 18:-0.960784 19:-0.727273 20:-0.888889 21:-0.777778 22:-0.621622 23:-0.428571 24:-1 25:-0.590909 
3.88 1:-0.391304 2:-0.700935 3:-1 4:-0.777778 5:-0.802469 6:-0.972952 7:-0.85623 8:-0.896104 9:-0.969662 10:-0.960784 11:-0.973031 12:-0.647059 13:-0.857184 14:-1 15:0.999999 16:-0.95 17:0.0393206 18:-0.960784 19:-0.909091 20:-0.888889 21:-0.555556 22:-0.837838 23:-0.714286 24:-1 25:-0.772727 
3.88 1:-0.478261 2:-0.495327 3:1 4:-0.878788 5:-0.654321 6:-0.957869 7:-0.848632 8:-0.87013 9:-0.96958 10:-0.882353 11:-0.973031 12:-0.882353 13:-0.857184 14:-1 15:0.26769 16:-1 17:0.0393206 18:-0.960784 19:-0.727273 20:-0.888889 21:-0.777778 22:-0.621622 23:-0.428571 24:-1 25:-0.590909 
3.88 1:-0.391304 2:-0.700935 3:-1 4:-0.777778 5:-0.802469 6:-0.972952 7:-0.85623 8:-0.896104 9:-0.969662 10:-0.960784 11:-0.973031 12:-0.647059 13:-0.857184 14:-1 15:0.999999 16:-0.95 17:0.0393206 18:-0.960784 19:-0.909091 20:-0.888889 21:-0.555556 22:-0.837838 23:-0.714286 24:-1 25:-0.772727 
2.293861865912366 1:-0.478261 2:-0.495327 3:1 4:-0.878788 5:-0.654321 6:-0.957869 7:-0.848632 8:-0.87013 9:-0.96958 10:-0.882353 11:-0.973031 12:-0.882353 13:-0.857184 14:-1 15:0.26769 16:-1 17:0.0393206 18:-0.960784 19:-0.727273 20:-0.888889 21:-0.777778 22:-0.621622 23:-0.428571 24:-1 25:-0.590909 
3.88 1:-0.391304 2:-0.700935 3:-1 4:-0.777778 5:-0.802469 6:-0.972952 7:-0.85623 8:-0.896104 9:-0.969662 10:-0.960784 11:-0.973031 12:-0.647059 13:-0.857184 14:-1 15:0.999999 16:-0.95 17:0.0393206 18:-0.960784 19:-0.909091 20:-0.888889 21:-0.555556 22:-0.837838 23:-0.714286 24:-1 25:-0.772727 
3.88 1:-0.73913 2:-0.794393 3:-1 4:-0.818182 5:-0.802469 6:-0.970464 7:-0.860525 8:-0.792208 9:-0.970464 10:-0.764706 11:-0.961174 12:-0.882353 13:-0.857184 14:-1 15:0.999999 16:-0.9 17:0.389745 18:-1 19:-1 20:-0.888889 21:-1 22:-0.783784 23:-0.571429 24:-1 25:-0.636364 
3.669903372435059 1:-0.73913 2:-0.794393 3:-1 4:-0.818182 5:-0.802469 6:-0.970464 7:-0.860525 8:-0.792208 9:-0.970464 10:-0.764706 11:-0.961174 12:-0.882353 13:-0.857184 14:-1 15:0.999999 16:-0.9 17:0.389745 18:-1 19:-1 20:-0.888889 21:-1 22:-0.783784 23:-0.571429 24:-1 25:-0.636364 
3.88 1:-0.391304 2:-0.588785 3:1 4:-0.838384 5:-0.45679 6:-0.974254 7:-0.864102 8:-0.948052 9:-0.987951 10:-0.764706 11:-0.96015 12:-0.882353 13:-0.870435 14:-1 15:-0.22051 16:-1 17:0.0393206 18:-0.803922 19:-0.636364 20:-0.777778 21:-0.777778 22:-0.675676 23:-0.714286 24:-1 25:-0.522727 
3.88 1:-0.304348 2:-0.663551 3:1 4:-0.919192 5:-0.753086 6:-0.984779 7:-0.87404 8:-0.948052 9:-0.978907 10:-0.882353 11:-0.973905 12:-0.882353 13:-0.87017 14:-1 15:-0.22051 16:-1 17:0.0393206 18:-0.921569 19:-0.818182 20:-0.888889 21:-0.555556 22:-0.675676 23:-0.857143 24:-1 25:-0.568182 
3.88 1:-0.304348 2:-0.663551 3:1 4:-0.858586 5:-0.555556 6:-0.973056 7:-0.862972 8:-0.974026 9:-0.988 10:-0.72549 11:-0.981113 12:-0.882353 13:-0.87017 14:-1 15:-0.22051 16:-1 17:-0.0840987 18:-0.882353 19:-0.818182 20:-1 21:-0.777778 22:-0.621622 23:-0.571429 24:-1 25:-0.590909 
3.88 1:-0.304348 2:-0.663551 3:1 4:-0.858586 5:-0.555556 6:-0.973056 7:-0.862972 8:-0.974026 9:-0.988 10:-0.72549 11:-0.981113 12:-0.882353 13:-0.87017 14:-1 15:-0.22051 16:-1 17:-0.0840987 18:-0.882353 19:-0.818182 20:-1 21:-0.777778 22:-0.621622 23:-0.571429 24:-1 25:-0.590909 
3.88 1:-0.304348 2:-0.663551 3:1 4:-0.919192 5:-0.753086 6:-0.984779 7:-0.87404 8:-0.948052 9:-0.978907 10:-0.882353 11:-0.973905 12:-0.882353 13:-0.87017 14:-1 15:-0.22051 16:-1 17:0.0393206 18:-0.921569 19:-0.818182 20:-0.888889 21:-0.555556 22:-0.675676 23:-0.857143 24:-1 25:-0.568182 
3.88 1:-0.565217 2:-0.607477 3:1 4:-0.757576 5:-0.530864 6:-0.995244 7:-0.883922 8:-0.766234 9:-0.989372 10:-0.45098 11:-0.977522 12:-0.882353 13:-0.87017 14:-1 15:0.0393206 16:-0.9 17:0.299151 18:-0.843137 19:-0.636364 20:-0.888889 21:-1 22:-0.567568 23:-0.857143 24:-1 25:-0.5 
3.88 1:-0.391304 2:-0.514019 3:1 4:-0.838384 5:-0.604938 6:-0.976579 7:-0.866298 8:-0.896104 9:-0.985707 10:-0.764706 11:-0.964881 12:-1 13:-0.857184 14:-1 15:-0.342565 16:-0.95 17:0.299151 18:-0.960784 19:-0.818182 20:-0.888889 21:-0.777778 22:-0.567568 23:-0.428571 24:-1 25:-0.409091 
3.88 1:-0.391304 2:-0.514019 3:1 4:-0.838384 5:-0.604938 6:-0.976579 7:-0.866298 8:-0.896104 9:-0.985707 10:-0.764706 11:-0.964881 12:-1 13:-0.857184 14:-1 15:-0.342565 16:-0.95 17:0.299151 18:-0.960784 19:-0.818182 20:-0.888889 21:-0.777778 22:-0.567568 23:-0.428571 24:-1 25:-0.409091 
3.88 1:-0.391304 2:-0.514019 3:1 4:-0.838384 5:-0.604938 6:-0.976579 7:-0.866298 8:-0.896104 9:-0.985707 10:-0.764706 11:-0.964881 12:-1 13:-0.857184 14:-1 15:-0.342565 16:-0.95 17:0.299151 18:-0.960784 19:-0.818182 20:-0.888889 21:-0.777778 22:-0.567568 23:-0.428571 24:-1 25:-0.409091 
3.88 1:-0.304348 2:-0.53271 3:1 4:-0.858586 5:-0.432099 6:-0.956822 7:-0.847643 8:-0.948052 9:-0.997208 10:-0.686275 11:-0.974264 12:-0.764706 13:-0.870435 14:-1 15:-0.22051 16:-1 17:-0.343929 18:-0.72549 19:-0.545455 20:-0.777778 21:-0.777778 22:-0.621622 23:-0.571429 24:-1 25:-0.659091 
3.88 1:-0.217391 2:-0.514019 3:-1 4:-0.59596 5:-0.753086 6:-0.974148 7:-0.864002 8:-0.558442 9:-0.994964 10:-0.803922 11:-0.981113 12:-0.882353 13:-0.861464 14:-0.857143 15:0.389745 16:-1 17:-0.0840987 18:-0.843137 19:-0.636364 20:-0.777778 21:-1 22:-0.513514 23:-0.428571 24:-1 25:-0.340909 
3.88 1:-0.217391 2:-0.607477 3:1 4:-0.939394 5:-0.728395 6:-0.967347 7:-0.857581 8:-0.948052 9:-0.988163 10:-0.803922 11:-0.988019 12:-0.764706 13:-0.87017 14:-1 15:-0.22051 16:-1 17:-0.343929 18:-0.843137 19:-0.636364 20:-0.888889 21:-0.555556 22:-0.621622 23:-0.714286 24:-1 25:-0.704545 
3.88 1:-0.391304 2:-0.607477 3:1 4:-0.858586 5:-0.530864 6:-0.9766 7:-0.866318 8:-0.974026 9:-0.996162 10:-0.764706 11:-0.981113 12:-0.882353 13:-0.87017 14:-1 15:0.0393206 16:-1 17:-0.0840987 18:-0.843137 19:-0.636364 20:-1 21:-0.777778 22:-0.621622 23:-0.571429 24:-1 25:-0.568182 
3.88 1:-0.391304 2:-0.607477 3:1 4:-0.858586 5:-0.530864 6:-0.9766 7:-0.866318 8:-0.974026 9:-0.996162 10:-0.764706 11:-0.981113 12:-0.882353 13:-0.87017 14:-1 15:0.0393206 16:-1 17:-0.0840987 18:-0.843137 19:-0.636364 20:-1 21:-0.777778 22:-0.621622 23:-0.571429 24:-1 25:-0.568182 
3.88 1:-0.391304 2:-0.64486 3:1 4:-0.89899 5:-0.604938 6:-0.954346 7:-0.845306 8:-0.974026 9:-0.971872 10:-0.803922 11:-0.989263 12:-0.764706 13:-0.87017 14:-1 15:0.389745 16:-1 17:-0.343929 18:-0.882353 19:-0.727273 20:-0.888889 21:-0.777778 22:-0.72973 23:-0.571429 24:-1 25:-0.772727 
3.88 1:-0.304348 2:-0.663551 3:1 4:-0.858586 5:-0.555556 6:-0.973056 7:-0.862972 8:-0.974026 9:-0.988 10:-0.72549 11:-0.981113 12:-0.882353 13:-0.87017 14:-1 15:-0.22051 16:-1 17:-0.0840987 18:-0.882353 19:-0.818182 20:-1 21:-0.777778 22:-0.621622 23:-0.571429 24:-1 25:-0.590909 
3.88 1:-0.217391 2:-0.607477 3:1 4:-0.939394 5:-0.728395 6:-0.967347 7:-0.857581 8:-0.948052 9:-0.988163 10:-0.803922 11:-0.988019 12:-0.764706 13:-0.87017 14:-1 15:-0.22051 16:-1 17:-0.343929 18:-0.843137 19:-0.636364 20:-0.888889 21:-0.555556 22:-0.621622 23:-0.714286 24:-1 25:-0.704545 
3.88 1:-0.391304 2:-0.607477 3:1 4:-0.858586 5:-0.530864 6:-0.9766 7:-0.866318 8:-0.974026 9:-0.996162 10:-0.764706 11:-0.981113 12:-0.882353 13:-0.87017 14:-1 15:0.0393206 16:-1 17:-0.0840987 18:-0.843137 19:-0.636364 20:-1 21:-0.777778 22:-0.621622 23:-0.571429 24:-1 25:-0.568182 
3.88 1:-0.217391 2:-0.514019 3:-1 4:-0.59596 5:-0.753086 6:-0.974148 7:-0.864002 8:-0.558442 9:-0.994964 10:-0.803922 11:-0.981113 12:-0.882353 13:-0.861464 14:-0.857143 15:0.389745 16:-1 17:-0.0840987 18:-0.843137 19:-0.636364 20:-0.777778 21:-1 22:-0.513514 23:-0.428571 24:-1 25:-0.340909 
3.88 1:-0.478261 2:-0.551402 3:1 4:-0.777778 5:-0.506173 6:-0.977812 7:-0.867462 8:-0.766234 9:-0.998628 10:-0.411765 11:-0.991636 12:-0.764706 13:-0.87017 14:-1 15:0.0393206 16:-0.95 17:-0.0840987 18:-0.764706 19:-0.545455 20:-0.888889 21:-1 22:-0.513514 23:-0.714286 24:-1 25:-0.636364 
3.88 1:-0.391304 2:-0.64486 3:1 4:-0.89899 5:-0.604938 6:-0.954346 7:-0.845306 8:-0.974026 9:-0.971872 10:-0.803922 11:-0.989263 12:-0.764706 13:-0.87017 14:-1 15:0.389745 16:-1 17:-0.343929 18:-0.882353 19:-0.727273 20:-0.888889 21:-0.777778 22:-0.72973 23:-0.571429 24:-1 25:-0.772727 
3.88 1:-0.304348 2:-0.663551 3:1 4:-0.858586 5:-0.555556 6:-0.973056 7:-0.862972 8:-0.974026 9:-0.988 10:-0.72549 11:-0.981113 12:-0.882353 13:-0.87017 14:-1 15:-0.22051 16:-1 17:-0.0840987 18:-0.882353 19:-0.818182 20:-1 21:-0.777778 22:-0.621622 23:-0.571429 24:-1 25:-0.590909 
3.88 1:-0.304348 2:-0.457944 3:1 4:-0.858586 5:-0.580247 6:-0.959147 7:-0.849839 8:-0.896104 9:-0.994964 10:-0.72549 11:-0.978995 12:-0.882353 13:-0.857184 14:-1 15:-0.342565 16:-1 17:-0.0840987 18:-0.921569 19:-0.636364 20:-0.888889 21:-0.777778 22:-0.513514 23:-0.285714 24:-1 25:-0.545455 
3.88 1:-0.217391 2:-0.663551 3:-1 4:-0.757576 5:-0.728395 6:-0.97423 7:-0.857437 8:-0.896104 9:-0.995046 10:-0.803922 11:-0.978995 12:-0.647059 13:-0.857184 14:-1 15:0.389745 16:-0.95 17:-0.0840987 18:-0.921569 19:-0.818182 20:-0.888889 21:-0.555556 22:-0.675676 23:-0.571429 24:-1 25:-0.727273 
3.88 1:-0.478261 2:-0.719626 3:1 4:-0.919192 5:-0.62963 6:-0.954346 7:-0.845306 8:-0.974026 9:-0.975162 10:-0.686275 11:-0.975288 12:-0.764706 13:-0.857184 14:-1 15:0.389745 16:-1 17:0.266326 18:-0.921569 19:-0.818182 20:-0.888889 21:-1 22:-0.72973 23:-0.571429 24:-1 25:-0.636364 
3.88 1:-0.304348 2:-0.457944 3:1 4:-0.858586 5:-0.580247 6:-0.959147 7:-0.849839 8:-0.896104 9:-0.994964 10:-0.72549 11:-0.978995 12:-0.882353 13:-0.857184 14:-1 15:-0.342565 16:-1 17:-0.0840987 18:-0.921569 19:-0.636364 20:-0.888889 21:-0.777778 22:-0.513514 23:-0.285714 24:-1 25:-0.545455 
3.88 1:-0.217391 2:-0.663551 3:-1 4:-0.757576 5:-0.728395 6:-0.97423 7:-0.857437 8:-0.896104 9:-0.995046 10:-0.803922 11:-0.978995 12:-0.647059 13:-0.857184 14:-1 15:0.389745 16:-0.95 17:-0.0840987 18:-0.921569 19:-0.818182 20:-0.888889 21:-0.555556 22:-0.675676 23:-0.571429 24:-1 25:-0.727273 
3.88 1:-0.478261 2:-0.719626 3:1 4:-0.919192 5:-0.62963 6:-0.954346 7:-0.845306 8:-0.974026 9:-0.975162 10:-0.686275 11:-0.975288 12:-0.764706 13:-0.857184 14:-1 15:0.389745 16:-1 17:0.266326 18:-0.921569 19:-0.818182 20:-0.888889 21:-1 22:-0.72973 23:-0.571429 24:-1 25:-0.636364 
3.88 1:-0.304348 2:-0.457944 3:1 4:-0.858586 5:-0.580247 6:-0.959147 7:-0.849839 8:-0.896104 9:-0.994964 10:-0.72549 11:-0.978995 12:-0.882353 13:-0.857184 14:-1 15:-0.342565 16:-1 17:-0.0840987 18:-0.921569 19:-0.636364 20:-0.888889 21:-0.777778 22:-0.513514 23:-0.285714 24:-1 25:-0.545455 
3.88 1:-0.217391 2:-0.663551 3:-1 4:-0.757576 5:-0.728395 6:-0.97423 7:-0.857437 8:-0.896104 9:-0.995046 10:-0.803922 11:-0.978995 12:-0.647059 13:-0.857184 14:-1 15:0.389745 16:-0.95 17:-0.0840987 18:-0.921569 19:-0.818182 20:-0.888889 21:-0.555556 22:-0.675676 23:-0.571429 24:-1 25:-0.727273 
3.88 1:-0.130435 2:-0.0654206 3:-1 4:-0.515152 5:-0.382716 6:-0.955728 7:-0.837794 8:-0.896104 9:-0.982533 10:-0.882353 11:-0.966999 12:-1 13:-0.879229 14:-0.857143 15:0.389745 16:-0.95 17:0.22128 18:-0.568627 19:-0.454545 20:-0.666667 21:-0.111111 22:-0.405405 23:-0.571429 24:-1 25:-0.25 
3.88 1:-0.217391 2:-0.214953 3:-1 4:-0.59596 5:-0.407407 6:-0.969531 7:-0.859643 8:-0.506494 9:-0.996336 10:-0.921569 11:-0.966999 12:-1 13:-0.870523 14:-0.571429 15:0.999999 16:-0.95 17:0.60453 18:-0.529412 19:-0.363636 20:-0.888889 21:-0.555556 22:-0.405405 23:-0.428571 24:-1 25:-0.113636 
3.88 1:-0.304348 2:-0.364486 3:-1 4:-0.79798 5:-0.358025 6:-0.962565 7:-0.837794 8:-0.922078 9:-0.98937 10:-0.843137 11:-0.966999 12:-1 13:-0.879229 14:-0.857143 15:0.999999 16:-0.95 17:0.60453 18:-0.607843 19:-0.636364 20:-1 21:-0.333333 22:-0.513514 23:-0.571429 24:-1 25:-0.409091 
3.88 1:-0.130435 2:-0.0654206 3:-1 4:-0.515152 5:-0.382716 6:-0.955728 7:-0.837794 8:-0.896104 9:-0.982533 10:-0.882353 11:-0.966999 12:-1 13:-0.879229 14:-0.857143 15:0.389745 16:-0.95 17:0.22128 18:-0.568627 19:-0.454545 20:-0.666667 21:-0.111111 22:-0.405405 23:-0.571429 24:-1 25:-0.25 
3.88 1:-0.217391 2:-0.214953 3:-1 4:-0.59596 5:-0.407407 6:-0.969531 7:-0.859643 8:-0.506494 9:-0.996336 10:-0.921569 11:-0.966999 12:-1 13:-0.870523 14:-0.571429 15:0.999999 16:-0.95 17:0.60453 18:-0.529412 19:-0.363636 20:-0.888889 21:-0.555556 22:-0.405405 23:-0.428571 24:-1 25:-0.113636 
3.88 1:-0.304348 2:-0.364486 3:-1 4:-0.79798 5:-0.358025 6:-0.962565 7:-0.837794 8:-0.922078 9:-0.98937 10:-0.843137 11:-0.966999 12:-1 13:-0.879229 14:-0.857143 15:0.999999 16:-0.95 17:0.60453 18:-0.607843 19:-0.636364 20:-1 21:-0.333333 22:-0.513514 23:-0.571429 24:-1 25:-0.409091 
3.88 1:-0.217391 2:-0.364486 3:-1 4:-0.757576 5:-0.382716 6:-0.969614 7:-0.853078 8:-0.844156 9:-0.996418 10:-0.882353 11:-0.964881 12:-0.764706 13:-0.866243 14:-0.857143 15:0.999999 16:-0.95 17:0.60453 18:-0.607843 19:-0.636364 20:-1 21:-0.111111 22:-0.567568 23:-0.571429 24:-1 25:-0.5 
3.88 1:-0.217391 2:-0.364486 3:-1 4:-0.757576 5:-0.382716 6:-0.969614 7:-0.853078 8:-0.844156 9:-0.996418 10:-0.882353 11:-0.964881 12:-0.764706 13:-0.866243 14:-0.857143 15:0.999999 16:-0.95 17:0.60453 18:-0.607843 19:-0.636364 20:-1 21:-0.111111 22:-0.567568 23:-0.571429 24:-1 25:-0.5 
3.88 1:-0.217391 2:-0.364486 3:-1 4:-0.757576 5:-0.382716 6:-0.969614 7:-0.853078 8:-0.844156 9:-0.996418 10:-0.882353 11:-0.964881 12:-0.764706 13:-0.866243 14:-0.857143 15:0.999999 16:-0.95 17:0.60453 18:-0.607843 19:-0.636364 20:-1 21:-0.111111 22:-0.567568 23:-0.571429 24:-1 25:-0.5 
3.88 1:-0.391304 2:-0.364486 3:-1 4:-0.757576 5:-0.382716 6:-0.96844 7:-0.853078 8:-0.818182 9:-0.995244 10:-0.843137 11:-0.966999 12:-1 13:-0.866243 14:-0.857143 15:0.999999 16:-0.95 17:0.60453 18:-0.607843 19:-0.636364 20:-1 21:-0.333333 22:-0.459459 23:-0.571429 24:-1 25:-0.386364 
3.88 1:-0.478261 2:-0.420561 3:-1 4:-0.818182 5:-0.358025 6:-0.968484 7:-0.858655 8:-0.792208 9:-0.995288 10:-0.803922 11:-0.966999 12:-1 13:-0.866243 14:-0.714286 15:0.999999 16:-0.95 17:0.60453 18:-0.607843 19:-0.636364 20:-1 21:-0.555556 22:-0.567568 23:-0.571429 24:-1 25:-0.522727 
3.88 1:-0.304348 2:-0.53271 3:1 4:-0.919192 5:-0.604938 6:-0.968545 7:-0.858712 8:-0.896104 9:-0.988115 10:-0.843137 11:-0.967056 12:-0.764706 13:-0.870435 14:-1 15:-0.22051 16:-1 17:-0.22051 18:-0.764706 19:-0.545455 20:-0.666667 21:-0.555556 22:-0.675676 23:-0.714286 24:-1 25:-0.636364 
3.88 1:-0.391304 2:-0.607477 3:1 4:-0.89899 5:-0.728395 6:-0.988323 7:-0.877387 8:-0.948052 9:-0.987069 10:-0.921569 11:-0.973905 12:-0.882353 13:-0.87017 14:-1 15:0.0393206 16:-1 17:0.0393206 18:-0.882353 19:-0.636364 20:-0.888889 21:-0.555556 22:-0.675676 23:-0.714286 24:-1 25:-0.545455 
3.88 1:-0.217391 2:-0.607477 3:1 4:-0.939394 5:-0.728395 6:-0.967347 7:-0.857581 8:-0.948052 9:-0.988163 10:-0.803922 11:-0.988019 12:-0.764706 13:-0.87017 14:-1 15:-0.22051 16:-1 17:-0.343929 18:-0.843137 19:-0.636364 20:-0.888889 21:-0.555556 22:-0.621622 23:-0.714286 24:-1 25:-0.704545 
3.88 1:-0.391304 2:-0.607477 3:1 4:-0.89899 5:-0.728395 6:-0.988323 7:-0.877387 8:-0.948052 9:-0.987069 10:-0.921569 11:-0.973905 12:-0.882353 13:-0.87017 14:-1 15:0.0393206 16:-1 17:0.0393206 18:-0.882353 19:-0.636364 20:-0.888889 21:-0.555556 22:-0.675676 23:-0.714286 24:-1 25:-0.545455 
3.88 1:-0.391304 2:-0.64486 3:1 4:-0.939394 5:-0.802469 6:-0.966069 7:-0.856375 8:-0.922078 9:-0.962779 10:-0.960784 11:-0.982055 12:-0.764706 13:-0.87017 14:-1 15:0.389745 16:-1 17:-0.22051 18:-0.921569 19:-0.727273 20:-0.888889 21:-0.555556 22:-0.783784 23:-0.714286 24:-1 25:-0.75 
3.88 1:-0.304348 2:-0.663551 3:1 4:-0.919192 5:-0.753086 6:-0.984779 7:-0.87404 8:-0.948052 9:-0.978907 10:-0.882353 11:-0.973905 12:-0.882353 13:-0.87017 14:-1 15:-0.22051 16:-1 17:0.0393206 18:-0.921569 19:-0.818182 20:-0.888889 21:-0.555556 22:-0.675676 23:-0.857143 24:-1 25:-0.568182 
3.88 1:-0.217391 2:-0.607477 3:1 4:-0.939394 5:-0.728395 6:-0.967347 7:-0.857581 8:-0.948052 9:-0.988163 10:-0.803922 11:-0.988019 12:-0.764706 13:-0.87017 14:-1 15:-0.22051 16:-1 17:-0.343929 18:-0.843137 19:-0.636364 20:-0.888889 21:-0.555556 22:-0.621622 23:-0.714286 24:-1 25:-0.704545 
3.88 1:-0.391304 2:-0.607477 3:1 4:-0.89899 5:-0.728395 6:-0.988323 7:-0.877387 8:-0.948052 9:-0.987069 10:-0.921569 11:-0.973905 12:-0.882353 13:-0.87017 14:-1 15:0.0393206 16:-1 17:0.0393206 18:-0.882353 19:-0.636364 20:-0.888889 21:-0.555556 22:-0.675676 23:-0.714286 24:-1 25:-0.545455 
3.88 1:-0.478261 2:-0.551402 3:1 4:-0.818182 5:-0.703704 6:-0.989535 7:-0.878531 8:-0.714286 9:-0.989535 10:-0.568627 11:-0.984428 12:-0.764706 13:-0.87017 14:-1 15:0.0393206 16:-0.95 17:0.0393206 18:-0.803922 19:-0.545455 20:-0.777778 21:-0.777778 22:-0.567568 23:-1 24:-1 25:-0.613636 
3.88 1:-0.391304 2:-0.64486 3:1 4:-0.939394 5:-0.802469 6:-0.966069 7:-0.856375 8:-0.922078 9:-0.962779 10:-0.960784 11:-0.982055 12:-0.764706 13:-0.87017 14:-1 15:0.389745 16:-1 17:-0.22051 18:-0.921569 19:-0.727273 20:-0.888889 21:-0.555556 22:-0.783784 23:-0.714286 24:-1 25:-0.75 
3.88 1:-0.304348 2:-0.663551 3:1 4:-0.919192 5:-0.753086 6:-0.984779 7:-0.87404 8:-0.948052 9:-0.978907 10:-0.882353 11:-0.973905 12:-0.882353 13:-0.87017 14:-1 15:-0.22051 16:-1 17:0.0393206 18:-0.921569 19:-0.818182 20:-0.888889 21:-0.555556 22:-0.675676 23:-0.857143 24:-1 25:-0.568182 
3.88 1:-0.304348 2:-0.457944 3:1 4:-0.919192 5:-0.753086 6:-0.97087 7:-0.860907 8:-0.844156 9:-0.985871 10:-0.882353 11:-0.971786 12:-0.764706 13:-0.857184 14:-1 15:-0.342565 16:-1 17:0.0393206 18:-0.960784 19:-0.636364 20:-0.777778 21:-0.555556 22:-0.567568 23:-0.571429 24:-1 25:-0.522727 
3.88 1:-0.478261 2:-0.719626 3:1 4:-0.959596 5:-0.82716 6:-0.966069 7:-0.856375 8:-0.948052 9:-0.966069 10:-0.843137 11:-0.968079 12:-0.764706 13:-0.857184 14:-1 15:0.389745 16:-1 17:0.389745 18:-0.960784 19:-0.818182 20:-0.777778 21:-0.777778 22:-0.783784 23:-0.857143 24:-1 25:-0.613636 
3.88 1:-0.304348 2:-0.457944 3:1 4:-0.919192 5:-0.753086 6:-0.97087 7:-0.860907 8:-0.844156 9:-0.985871 10:-0.882353 11:-0.971786 12:-0.764706 13:-0.857184 14:-1 15:-0.342565 16:-1 17:0.0393206 18:-0.960784 19:-0.636364 20:-0.777778 21:-0.555556 22:-0.567568 23:-0.571429 24:-1 25:-0.522727 
3.88 1:-0.478261 2:-0.719626 3:1 4:-0.959596 5:-0.82716 6:-0.966069 7:-0.856375 8:-0.948052 9:-0.966069 10:-0.843137 11:-0.968079 12:-0.764706 13:-0.857184 14:-1 15:0.389745 16:-1 17:0.389745 18:-0.960784 19:-0.818182 20:-0.777778 21:-0.777778 22:-0.783784 23:-0.857143 24:-1 25:-0.613636 
3.88 1:-0.304348 2:-0.457944 3:1 4:-0.919192 5:-0.753086 6:-0.97087 7:-0.860907 8:-0.844156 9:-0.985871 10:-0.882353 11:-0.971786 12:-0.764706 13:-0.857184 14:-1 15:-0.342565 16:-1 17:0.0393206 18:-0.960784 19:-0.636364 20:-0.777778 21:-0.555556 22:-0.567568 23:-0.571429 24:-1 25:-0.522727 
3.88 1:-0.478261 2:-0.514019 3:1 4:-0.838384 5:-0.432099 6:-0.977798 7:-0.867449 8:-0.948052 9:-0.996114 10:-0.803922 11:-0.96015 12:-0.882353 13:-0.870435 14:-1 15:0.0393206 16:-1 17:0.0393206 18:-0.764706 19:-0.545455 20:-0.777778 21:-0.777778 22:-0.675676 23:-0.571429 24:-1 25:-0.5 
3.88 1:-0.391304 2:-0.495327 3:-1 4:-0.575758 5:-0.753086 6:-0.995124 7:-0.883808 8:-0.558442 9:-0.99387 10:-0.921569 11:-0.966999 12:-1 13:-0.861464 14:-0.857143 15:0.649575 16:-0.95 17:0.299151 18:-0.882353 19:-0.636364 20:-0.888889 21:-1 22:-0.567568 23:-0.571429 24:-1 25:-0.181818 
3.88 1:-0.391304 2:-0.607477 3:1 4:-0.89899 5:-0.728395 6:-0.988323 7:-0.877387 8:-0.948052 9:-0.987069 10:-0.921569 11:-0.973905 12:-0.882353 13:-0.87017 14:-1 15:0.0393206 16:-1 17:0.0393206 18:-0.882353 19:-0.636364 20:-0.888889 21:-0.555556 22:-0.675676 23:-0.714286 24:-1 25:-0.545455 
3.88 1:-0.391304 2:-0.607477 3:1 4:-0.858586 5:-0.530864 6:-0.9766 7:-0.866318 8:-0.974026 9:-0.996162 10:-0.764706 11:-0.981113 12:-0.882353 13:-0.87017 14:-1 15:0.0393206 16:-1 17:-0.0840987 18:-0.843137 19:-0.636364 20:-1 21:-0.777778 22:-0.621622 23:-0.571429 24:-1 25:-0.568182 
3.88 1:-0.391304 2:-0.607477 3:1 4:-0.858586 5:-0.530864 6:-0.9766 7:-0.866318 8:-0.974026 9:-0.996162 10:-0.764706 11:-0.981113 12:-0.882353 13:-0.87017 14:-1 15:0.0393206 16:-1 17:-0.0840987 18:-0.843137 19:-0.636364 20:-1 21:-0.777778 22:-0.621622 23:-0.571429 24:-1 25:-0.568182 
3.88 1:-0.391304 2:-0.607477 3:1 4:-0.89899 5:-0.728395 6:-0.988323 7:-0.877387 8:-0.948052 9:-0.987069 10:-0.921569 11:-0.973905 12:-0.882353 13:-0.87017 14:-1 15:0.0393206 16:-1 17:0.0393206 18:-0.882353 19:-0.636364 20:-0.888889 21:-0.555556 22:-0.675676 23:-0.714286 24:-1 25:-0.545455 
3.88 1:-0.391304 2:-0.495327 3:-1 4:-0.575758 5:-0.753086 6:-0.995124 7:-0.883808 8:-0.558442 9:-0.99387 10:-0.921569 11:-0.966999 12:-1 13:-0.861464 14:-0.857143 15:0.649575 16:-0.95 17:0.299151 18:-0.882353 19:-0.636364 20:-0.888889 21:-1 22:-0.567568 23:-0.571429 24:-1 25:-0.181818 
3.88 1:-0.478261 2:-0.457944 3:1 4:-0.838384 5:-0.580247 6:-0.980123 7:-0.869644 8:-0.896104 9:-0.99387 10:-0.843137 11:-0.964881 12:-1 13:-0.857184 14:-1 15:-0.0827346 16:-0.95 17:0.299151 18:-0.960784 19:-0.636364 20:-0.888889 21:-0.777778 22:-0.567568 23:-0.428571 24:-1 25:-0.386364 
3.88 1:-0.391304 2:-0.64486 3:-1 4:-0.737374 5:-0.728395 6:-0.995206 7:-0.877242 8:-0.896104 9:-0.993952 10:-0.921569 11:-0.964881 12:-0.764706 13:-0.857184 14:-1 15:0.649575 16:-0.95 17:0.299151 18:-0.960784 19:-0.818182 20:-1 21:-0.555556 22:-0.72973 23:-0.714286 24:-1 25:-0.568182 
3.88 1:-0.478261 2:-0.457944 3:1 4:-0.838384 5:-0.580247 6:-0.980123 7:-0.869644 8:-0.896104 9:-0.99387 10:-0.843137 11:-0.964881 12:-1 13:-0.857184 14:-1 15:-0.0827346 16:-0.95 17:0.299151 18:-0.960784 19:-0.636364 20:-0.888889 21:-0.777778 22:-0.567568 23:-0.428571 24:-1 25:-0.386364 
3.88 1:-0.391304 2:-0.64486 3:-1 4:-0.737374 5:-0.728395 6:-0.995206 7:-0.877242 8:-0.896104 9:-0.993952 10:-0.921569 11:-0.964881 12:-0.764706 13:-0.857184 14:-1 15:0.649575 16:-0.95 17:0.299151 18:-0.960784 19:-0.818182 20:-1 21:-0.555556 22:-0.72973 23:-0.714286 24:-1 25:-0.568182 
3.88 1:-0.478261 2:-0.457944 3:1 4:-0.838384 5:-0.580247 6:-0.980123 7:-0.869644 8:-0.896104 9:-0.99387 10:-0.843137 11:-0.964881 12:-1 13:-0.857184 14:-1 15:-0.0827346 16:-0.95 17:0.299151 18:-0.960784 19:-0.636364 20:-0.888889 21:-0.777778 22:-0.567568 23:-0.428571 24:-1 25:-0.386364 
3.88 1:-0.391304 2:-0.64486 3:-1 4:-0.737374 5:-0.728395 6:-0.995206 7:-0.877242 8:-0.896104 9:-0.993952 10:-0.921569 11:-0.964881 12:-0.764706 13:-0.857184 14:-1 15:0.649575 16:-0.95 17:0.299151 18:-0.960784 19:-0.818182 20:-1 21:-0.555556 22:-0.72973 23:-0.714286 24:-1 25:-0.568182 
3.88 1:-0.130435 2:-0.0654206 3:-1 4:-0.515152 5:-0.382716 6:-0.955728 7:-0.837794 8:-0.896104 9:-0.982533 10:-0.882353 11:-0.966999 12:-1 13:-0.879229 14:-0.857143 15:0.389745 16:-0.95 17:0.22128 18:-0.568627 19:-0.454545 20:-0.666667 21:-0.111111 22:-0.405405 23:-0.571429 24:-1 25:-0.25 
3.88 1:-0.130435 2:-0.252336 3:-1 4:-0.252525 5:-0.950617 6:-0.978868 7:-0.859643 8:-0.532468 9:-0.978868 10:-0.921569 11:-0.966999 12:-1 13:-0.861464 14:-0.857143 15:0.389745 16:-0.95 17:-0.0840987 18:-0.921569 19:-0.636364 20:-0.555556 21:-0.777778 22:-0.513514 23:-0.571429 24:-1 25:-0.0909091 
3.88 1:-0.217391 2:-0.420561 3:-1 4:-0.454545 5:-0.901235 6:-0.971902 7:-0.837794 8:-0.948052 9:-0.971902 10:-0.843137 11:-0.966999 12:-1 13:-0.87017 14:-1 15:0.389745 16:-0.95 17:-0.0840987 18:-1 19:-0.818182 20:-0.666667 21:-0.555556 22:-0.621622 23:-0.714286 24:-1 25:-0.386364 
3.88 1:-0.130435 2:-0.0654206 3:-1 4:-0.515152 5:-0.382716 6:-0.955728 7:-0.837794 8:-0.896104 9:-0.982533 10:-0.882353 11:-0.966999 12:-1 13:-0.879229 14:-0.857143 15:0.389745 16:-0.95 17:0.22128 18:-0.568627 19:-0.454545 20:-0.666667 21:-0.111111 22:-0.405405 23:-0.571429 24:-1 25:-0.25 
3.88 1:-0.130435 2:-0.252336 3:-1 4:-0.252525 5:-0.950617 6:-0.978868 7:-0.859643 8:-0.532468 9:-0.978868 10:-0.921569 11:-0.966999 12:-1 13:-0.861464 14:-0.857143 15:0.389745 16:-0.95 17:-0.0840987 18:-0.921569 19:-0.636364 20:-0.555556 21:-0.777778 22:-0.513514 23:-0.571429 24:-1 25:-0.0909091 
3.88 1:-0.217391 2:-0.420561 3:-1 4:-0.454545 5:-0.901235 6:-0.971902 7:-0.837794 8:-0.948052 9:-0.971902 10:-0.843137 11:-0.966999 12:-1 13:-0.87017 14:-1 15:0.389745 16:-0.95 17:-0.0840987 18:-1 19:-0.818182 20:-0.666667 21:-0.555556 22:-0.621622 23:-0.714286 24:-1 25:-0.386364 
3.88 1:-0.391304 2:-0.308411 3:-1 4:-0.414141 5:-0.703704 6:-0.982533 7:-0.863103 8:-0.74026 9:-0.982533 10:-0.529412 11:-0.977522 12:-0.882353 13:-0.87017 14:-1 15:0.0393206 16:-0.9 17:-0.0840987 18:-0.843137 19:-0.545455 20:-0.555556 21:-0.777778 22:-0.513514 23:-0.857143 24:-1 25:-0.386364 
3.88 1:-0.130435 2:-0.401869 3:-1 4:-0.414141 5:-0.925926 6:-0.978951 7:-0.853078 8:-0.87013 9:-0.978951 10:-0.921569 11:-0.964881 12:-0.764706 13:-0.857184 14:-1 15:0.389745 16:-0.95 17:-0.0840987 18:-1 19:-0.818182 20:-0.666667 21:-0.333333 22:-0.675676 23:-0.714286 24:-1 25:-0.477273 
3.88 1:-0.391304 2:-0.476636 3:-1 4:-0.555556 5:-0.82716 6:-0.959067 7:-0.840947 8:-0.948052 9:-0.959067 10:-0.803922 11:-0.961174 12:-0.882353 13:-0.857184 14:-1 15:0.389745 16:-0.95 17:0.266326 18:-1 19:-0.818182 20:-0.555556 21:-0.777778 22:-0.675676 23:-0.714286 24:-1 25:-0.386364 
3.88 1:-0.130435 2:-0.401869 3:-1 4:-0.414141 5:-0.925926 6:-0.978951 7:-0.853078 8:-0.87013 9:-0.978951 10:-0.921569 11:-0.964881 12:-0.764706 13:-0.857184 14:-1 15:0.389745 16:-0.95 17:-0.0840987 18:-1 19:-0.818182 20:-0.666667 21:-0.333333 22:-0.675676 23:-0.714286 24:-1 25:-0.477273 
3.88 1:-0.391304 2:-0.476636 3:-1 4:-0.555556 5:-0.82716 6:-0.959067 7:-0.840947 8:-0.948052 9:-0.959067 10:-0.803922 11:-0.961174 12:-0.882353 13:-0.857184 14:-1 15:0.389745 16:-0.95 17:0.266326 18:-1 19:-0.818182 20:-0.555556 21:-0.777778 22:-0.675676 23:-0.714286 24:-1 25:-0.386364 
3.88 1:-0.130435 2:-0.401869 3:-1 4:-0.414141 5:-0.925926 6:-0.978951 7:-0.853078 8:-0.87013 9:-0.978951 10:-0.921569 11:-0.964881 12:-0.764706 13:-0.857184 14:-1 15:0.389745 16:-0.95 17:-0.0840987 18:-1 19:-0.818182 20:-0.666667 21:-0.333333 22:-0.675676 23:-0.714286 24:-1 25:-0.477273 
3.88 1:-0.304348 2:-0.420561 3:-1 4:-0.575758 5:-0.654321 6:-0.975345 7:-0.865133 8:-0.506494 9:-0.994915 10:-0.843137 11:-0.96015 12:-0.882353 13:-0.861729 14:-0.857143 15:0.389745 16:-1 17:0.0393206 18:-0.764706 19:-0.454545 20:-0.666667 21:-1 22:-0.567568 23:-0.571429 24:-1 25:-0.272727 
3.88 1:-0.217391 2:-0.214953 3:-1 4:-0.59596 5:-0.407407 6:-0.969531 7:-0.859643 8:-0.506494 9:-0.996336 10:-0.921569 11:-0.966999 12:-1 13:-0.870523 14:-0.571429 15:0.999999 16:-0.95 17:0.60453 18:-0.529412 19:-0.363636 20:-0.888889 21:-0.555556 22:-0.405405 23:-0.428571 24:-1 25:-0.113636 
3.88 1:-0.130435 2:-0.252336 3:-1 4:-0.252525 5:-0.950617 6:-0.978868 7:-0.859643 8:-0.532468 9:-0.978868 10:-0.921569 11:-0.966999 12:-1 13:-0.861464 14:-0.857143 15:0.389745 16:-0.95 17:-0.0840987 18:-0.921569 19:-0.636364 20:-0.555556 21:-0.777778 22:-0.513514 23:-0.571429 24:-1 25:-0.0909091 
3.88 1:-0.304348 2:-0.570093 3:-1 4:-0.535354 5:-0.925926 6:-0.985705 7:-0.859643 8:-0.532468 9:-0.985705 10:-0.882353 11:-0.966999 12:-1 13:-0.861464 14:-0.857143 15:0.999999 16:-0.95 17:0.299151 18:-0.921569 19:-0.818182 20:-0.888889 21:-0.777778 22:-0.621622 23:-0.571429 24:-1 25:-0.25 
3.88 1:-0.391304 2:-0.551402 3:-1 4:-0.474747 5:-0.950617 6:-0.985871 7:-0.865134 8:-0.506494 9:-0.985871 10:-0.843137 11:-0.966999 12:-1 13:-0.861464 14:-0.857143 15:0.649575 16:-0.95 17:0.649575 18:-0.921569 19:-0.636364 20:-0.888889 21:-1 22:-0.567568 23:-0.571429 24:-1 25:-0.363636 
3.88 1:-0.391304 2:-0.495327 3:-1 4:-0.575758 5:-0.753086 6:-0.995124 7:-0.883808 8:-0.558442 9:-0.99387 10:-0.921569 11:-0.966999 12:-1 13:-0.861464 14:-0.857143 15:0.649575 16:-0.95 17:0.299151 18:-0.882353 19:-0.636364 20:-0.888889 21:-1 22:-0.567568 23:-0.571429 24:-1 25:-0.181818 
3.88 1:-0.391304 2:-0.551402 3:-1 4:-0.474747 5:-0.950617 6:-0.985871 7:-0.865134 8:-0.506494 9:-0.985871 10:-0.843137 11:-0.966999 12:-1 13:-0.861464 14:-0.857143 15:0.649575 16:-0.95 17:0.649575 18:-0.921569 19:-0.636364 20:-0.888889 21:-1 22:-0.567568 23:-0.571429 24:-1 25:-0.363636 
3.88 1:-0.391304 2:-0.551402 3:-1 4:-0.474747 5:-0.950617 6:-0.985871 7:-0.865134 8:-0.506494 9:-0.985871 10:-0.843137 11:-0.966999 12:-1 13:-0.861464 14:-0.857143 15:0.649575 16:-0.95 17:0.649575 18:-0.921569 19:-0.636364 20:-0.888889 21:-1 22:-0.567568 23:-0.571429 24:-1 25:-0.363636 
2.809340226186267 1:-0.217391 2:-0.514019 3:-1 4:-0.59596 5:-0.753086 6:-0.974148 7:-0.864002 8:-0.558442 9:-0.994964 10:-0.803922 11:-0.981113 12:-0.882353 13:-0.861464 14:-0.857143 15:0.389745 16:-1 17:-0.0840987 18:-0.843137 19:-0.636364 20:-0.777778 21:-1 22:-0.513514 23:-0.428571 24:-1 25:-0.340909 
3.168839170950694 1:-0.391304 2:-0.551402 3:-1 4:-0.474747 5:-0.950617 6:-0.985871 7:-0.865134 8:-0.506494 9:-0.985871 10:-0.843137 11:-0.966999 12:-1 13:-0.861464 14:-0.857143 15:0.649575 16:-0.95 17:0.649575 18:-0.921569 19:-0.636364 20:-0.888889 21:-1 22:-0.567568 23:-0.571429 24:-1 25:-0.363636 
3.88 1:-0.391304 2:-0.495327 3:-1 4:-0.575758 5:-0.753086 6:-0.995124 7:-0.883808 8:-0.558442 9:-0.99387 10:-0.921569 11:-0.966999 12:-1 13:-0.861464 14:-0.857143 15:0.649575 16:-0.95 17:0.299151 18:-0.882353 19:-0.636364 20:-0.888889 21:-1 22:-0.567568 23:-0.571429 24:-1 25:-0.181818 
3.88 1:-0.391304 2:-0.551402 3:-1 4:-0.616162 5:-0.82716 6:-0.97287 7:-0.862796 8:-0.532468 9:-0.96958 10:-0.960784 11:-0.975149 12:-0.882353 13:-0.861464 14:-0.857143 15:0.999999 16:-1 17:0.0393206 18:-0.882353 19:-0.636364 20:-0.777778 21:-1 22:-0.675676 23:-0.571429 24:-1 25:-0.386364 
2.014746222894623 1:-0.217391 2:-0.514019 3:-1 4:-0.59596 5:-0.753086 6:-0.974148 7:-0.864002 8:-0.558442 9:-0.994964 10:-0.803922 11:-0.981113 12:-0.882353 13:-0.861464 14:-0.857143 15:0.389745 16:-1 17:-0.0840987 18:-0.843137 19:-0.636364 20:-0.777778 21:-1 22:-0.513514 23:-0.428571 24:-1 25:-0.340909 
3.88 1:-0.217391 2:-0.214953 3:-1 4:-0.59596 5:-0.407407 6:-0.969531 7:-0.859643 8:-0.506494 9:-0.996336 10:-0.921569 11:-0.966999 12:-1 13:-0.870523 14:-0.571429 15:0.999999 16:-0.95 17:0.60453 18:-0.529412 19:-0.363636 20:-0.888889 21:-0.555556 22:-0.405405 23:-0.428571 24:-1 25:-0.113636 
3.88 1:-0.391304 2:-0.495327 3:-1 4:-0.575758 5:-0.753086 6:-0.995124 7:-0.883808 8:-0.558442 9:-0.99387 10:-0.921569 11:-0.966999 12:-1 13:-0.861464 14:-0.857143 15:0.649575 16:-0.95 17:0.299151 18:-0.882353 19:-0.636364 20:-0.888889 21:-1 22:-0.567568 23:-0.571429 24:-1 25:-0.181818 
3.88 1:-0.130435 2:-0.252336 3:-1 4:-0.252525 5:-0.950617 6:-0.978868 7:-0.859643 8:-0.532468 9:-0.978868 10:-0.921569 11:-0.966999 12:-1 13:-0.861464 14:-0.857143 15:0.389745 16:-0.95 17:-0.0840987 18:-0.921569 19:-0.636364 20:-0.555556 21:-0.777778 22:-0.513514 23:-0.571429 24:-1 25:-0.0909091 
3.88 1:-0.304348 2:-0.570093 3:-1 4:-0.535354 5:-0.925926 6:-0.985705 7:-0.859643 8:-0.532468 9:-0.985705 10:-0.882353 11:-0.966999 12:-1 13:-0.861464 14:-0.857143 15:0.999999 16:-0.95 17:0.299151 18:-0.921569 19:-0.818182 20:-0.888889 21:-0.777778 22:-0.621622 23:-0.571429 24:-1 25:-0.25 
3.88 1:-0.478261 2:-0.457944 3:-1 4:-0.494949 5:-0.728395 6:-0.996336 7:-0.884952 8:-0.324675 9:-0.996336 10:-0.568627 11:-0.977522 12:-0.882353 13:-0.861464 14:-0.857143 15:0.649575 16:-0.9 17:0.299151 18:-0.803922 19:-0.454545 20:-0.777778 21:-1 22:-0.459459 23:-0.714286 24:-1 25:-0.25 
3.88 1:-0.391304 2:-0.551402 3:-1 4:-0.616162 5:-0.82716 6:-0.97287 7:-0.862796 8:-0.532468 9:-0.96958 10:-0.960784 11:-0.975149 12:-0.882353 13:-0.861464 14:-0.857143 15:0.999999 16:-1 17:0.0393206 18:-0.882353 19:-0.636364 20:-0.777778 21:-1 22:-0.675676 23:-0.571429 24:-1 25:-0.386364 
3.88 1:-0.304348 2:-0.364486 3:-1 4:-0.575758 5:-0.802469 6:-0.977671 7:-0.867329 8:-0.454545 9:-0.992671 10:-0.882353 11:-0.964881 12:-1 13:-0.848478 14:-0.857143 15:0.26769 16:-0.95 17:0.299151 18:-0.921569 19:-0.636364 20:-0.777778 21:-0.777778 22:-0.459459 23:-0.285714 24:-1 25:-0.159091 
3.88 1:-0.217391 2:-0.551402 3:-1 4:-0.474747 5:-0.950617 6:-0.992754 7:-0.874927 8:-0.480519 9:-0.992754 10:-0.960784 11:-0.964881 12:-0.764706 13:-0.848478 14:-0.857143 15:0.999999 16:-0.95 17:0.299151 18:-0.921569 19:-0.818182 20:-0.777778 21:-0.777778 22:-0.621622 23:-0.571429 24:-1 25:-0.340909 
3.88 1:-0.478261 2:-0.626168 3:-1 4:-0.636364 5:-0.851852 6:-0.97287 7:-0.862796 8:-0.558442 9:-0.97287 10:-0.843137 11:-0.961174 12:-0.882353 13:-0.848478 14:-0.857143 15:0.999999 16:-0.95 17:0.649575 18:-0.921569 19:-0.818182 20:-0.777778 21:-1 22:-0.675676 23:-0.571429 24:-1 25:-0.25 
3.88 1:-0.304348 2:-0.364486 3:-1 4:-0.575758 5:-0.802469 6:-0.977671 7:-0.867329 8:-0.454545 9:-0.992671 10:-0.882353 11:-0.964881 12:-1 13:-0.848478 14:-0.857143 15:0.26769 16:-0.95 17:0.299151 18:-0.921569 19:-0.636364 20:-0.777778 21:-0.777778 22:-0.459459 23:-0.285714 24:-1 25:-0.159091 
3.88 1:-0.217391 2:-0.551402 3:-1 4:-0.474747 5:-0.950617 6:-0.992754 7:-0.874927 8:-0.480519 9:-0.992754 10:-0.960784 11:-0.964881 12:-0.764706 13:-0.848478 14:-0.857143 15:0.999999 16:-0.95 17:0.299151 18:-0.921569 19:-0.818182 20:-0.777778 21:-0.777778 22:-0.621622 23:-0.571429 24:-1 25:-0.340909 
3.88 1:-0.478261 2:-0.626168 3:-1 4:-0.636364 5:-0.851852 6:-0.97287 7:-0.862796 8:-0.558442 9:-0.97287 10:-0.843137 11:-0.961174 12:-0.882353 13:-0.848478 14:-0.857143 15:0.999999 16:-0.95 17:0.649575 18:-0.921569 19:-0.818182 20:-0.777778 21:-1 22:-0.675676 23:-0.571429 24:-1 25:-0.25 
3.88 1:-0.304348 2:-0.364486 3:-1 4:-0.575758 5:-0.802469 6:-0.977671 7:-0.867329 8:-0.454545 9:-0.992671 10:-0.882353 11:-0.964881 12:-1 13:-0.848478 14:-0.857143 15:0.26769 16:-0.95 17:0.299151 18:-0.921569 19:-0.636364 20:-0.777778 21:-0.777778 22:-0.459459 23:-0.285714 24:-1 25:-0.159091 
3.88 1:-0.217391 2:-0.551402 3:-1 4:-0.474747 5:-0.950617 6:-0.992754 7:-0.874927 8:-0.480519 9:-0.992754 10:-0.960784 11:-0.964881 12:-0.764706 13:-0.848478 14:-0.857143 15:0.999999 16:-0.95 17:0.299151 18:-0.921569 19:-0.818182 20:-0.777778 21:-0.777778 22:-0.621622 23:-0.571429 24:-1 25:-0.340909 
3.88 1:-0.391304 2:-0.551402 3:-1 4:-0.474747 5:-0.950617 6:-0.99158 7:-0.874927 8:-0.454545 9:-0.99158 10:-0.921569 11:-0.966999 12:-1 13:-0.848478 14:-0.857143 15:0.999999 16:-0.95 17:0.299151 18:-0.921569 19:-0.818182 20:-0.888889 21:-1 22:-0.567568 23:-0.571429 24:-1 25:-0.227273 
3.88 1:-0.478261 2:-0.607477 3:-1 4:-0.535354 5:-0.925926 6:-0.991624 7:-0.880504 8:-0.402597 9:-0.991624 10:-0.882353 11:-0.966999 12:-1 13:-0.848478 14:-0.714286 15:0.999999 16:-0.95 17:0.299151 18:-0.921569 19:-0.818182 20:-0.888889 21:-1 22:-0.621622 23:-0.571429 24:-1 25:-0.363636 
3.88 1:-0.391304 2:-0.588785 3:-1 4:-0.555556 5:-0.925926 6:-0.992671 7:-0.881492 8:-0.428571 9:-0.992671 10:-0.882353 11:-0.966999 12:-1 13:-0.848478 14:-0.857143 15:0.649575 16:-0.95 17:0.649575 18:-0.921569 19:-0.727273 20:-0.777778 21:-1 22:-0.675676 23:-0.571429 24:-1 25:-0.340909 
3.88 1:-0.304348 2:-0.364486 3:-1 4:-0.79798 5:-0.358025 6:-0.962565 7:-0.837794 8:-0.922078 9:-0.98937 10:-0.843137 11:-0.966999 12:-1 13:-0.879229 14:-0.857143 15:0.999999 16:-0.95 17:0.60453 18:-0.607843 19:-0.636364 20:-1 21:-0.333333 22:-0.513514 23:-0.571429 24:-1 25:-0.409091 
3.88 1:-0.217391 2:-0.420561 3:-1 4:-0.454545 5:-0.901235 6:-0.971902 7:-0.837794 8:-0.948052 9:-0.971902 10:-0.843137 11:-0.966999 12:-1 13:-0.87017 14:-1 15:0.389745 16:-0.95 17:-0.0840987 18:-1 19:-0.818182 20:-0.666667 21:-0.555556 22:-0.621622 23:-0.714286 24:-1 25:-0.386364 
3.88 1:-0.304348 2:-0.570093 3:-1 4:-0.535354 5:-0.925926 6:-0.985705 7:-0.859643 8:-0.532468 9:-0.985705 10:-0.882353 11:-0.966999 12:-1 13:-0.861464 14:-0.857143 15:0.999999 16:-0.95 17:0.299151 18:-0.921569 19:-0.818182 20:-0.888889 21:-0.777778 22:-0.621622 23:-0.571429 24:-1 25:-0.25 
3.88 1:-0.304348 2:-0.364486 3:-1 4:-0.79798 5:-0.358025 6:-0.962565 7:-0.837794 8:-0.922078 9:-0.98937 10:-0.843137 11:-0.966999 12:-1 13:-0.879229 14:-0.857143 15:0.999999 16:-0.95 17:0.60453 18:-0.607843 19:-0.636364 20:-1 21:-0.333333 22:-0.513514 23:-0.571429 24:-1 25:-0.409091 
0.4520418525555574 1:-0.217391 2:-0.420561 3:-1 4:-0.454545 5:-0.901235 6:-0.971902 7:-0.837794 8:-0.948052 9:-0.971902 10:-0.843137 11:-0.966999 12:-1 13:-0.87017 14:-1 15:0.389745 16:-0.95 17:-0.0840987 18:-1 19:-0.818182 20:-0.666667 21:-0.555556 22:-0.621622 23:-0.714286 24:-1 25:-0.386364 
3.88 1:-0.304348 2:-0.570093 3:-1 4:-0.535354 5:-0.925926 6:-0.985705 7:-0.859643 8:-0.532468 9:-0.985705 10:-0.882353 11:-0.966999 12:-1 13:-0.861464 14:-0.857143 15:0.999999 16:-0.95 17:0.299151 18:-0.921569 19:-0.818182 20:-0.888889 21:-0.777778 22:-0.621622 23:-0.571429 24:-1 25:-0.25 
3.88 1:-0.304348 2:-0.719626 3:-1 4:-0.69697 5:-0.901235 6:-0.985788 7:-0.853078 8:-0.896104 9:-0.985788 10:-0.882353 11:-0.964881 12:-0.764706 13:-0.857184 14:-1 15:0.999999 16:-0.95 17:0.299151 18:-1 19:-1 20:-1 21:-0.555556 22:-0.783784 23:-0.714286 24:-1 25:-0.636364 
3.88 1:-0.565217 2:-0.775701 3:-1 4:-0.838384 5:-0.802469 6:-0.965904 7:-0.840947 8:-0.974026 9:-0.965904 10:-0.764706 11:-0.961174 12:-0.882353 13:-0.857184 14:-1 15:0.999999 16:-0.95 17:0.649575 18:-1 19:-1 20:-0.888889 21:-0.777778 22:-0.783784 23:-0.714286 24:-1 25:-0.545455 
3.88 1:-0.304348 2:-0.719626 3:-1 4:-0.69697 5:-0.901235 6:-0.985788 7:-0.853078 8:-0.896104 9:-0.985788 10:-0.882353 11:-0.964881 12:-0.764706 13:-0.857184 14:-1 15:0.999999 16:-0.95 17:0.299151 18:-1 19:-1 20:-1 21:-0.555556 22:-0.783784 23:-0.714286 24:-1 25:-0.636364 
3.88 1:-0.565217 2:-0.775701 3:-1 4:-0.838384 5:-0.802469 6:-0.965904 7:-0.840947 8:-0.974026 9:-0.965904 10:-0.764706 11:-0.961174 12:-0.882353 13:-0.857184 14:-1 15:0.999999 16:-0.95 17:0.649575 18:-1 19:-1 20:-0.888889 21:-0.777778 22:-0.783784 23:-0.714286 24:-1 25:-0.545455 
3.88 1:-0.304348 2:-0.719626 3:-1 4:-0.69697 5:-0.901235 6:-0.985788 7:-0.853078 8:-0.896104 9:-0.985788 10:-0.882353 11:-0.964881 12:-0.764706 13:-0.857184 14:-1 15:0.999999 16:-0.95 17:0.299151 18:-1 19:-1 20:-1 21:-0.555556 22:-0.783784 23:-0.714286 24:-1 25:-0.636364 
3.88 1:-0.565217 2:-0.476636 3:1 4:-0.757576 5:-0.407407 6:-0.97901 7:-0.868593 8:-0.714286 9:-0.99858 10:-0.45098 11:-0.970673 12:-0.764706 13:-0.870435 14:-1 15:0.0393206 16:-0.95 17:0.0393206 18:-0.686275 19:-0.363636 20:-0.666667 21:-1 22:-0.567568 23:-0.857143 24:-1 25:-0.568182 
3.88 1:-0.391304 2:-0.308411 3:-1 4:-0.414141 5:-0.703704 6:-0.982533 7:-0.863103 8:-0.74026 9:-0.982533 10:-0.529412 11:-0.977522 12:-0.882353 13:-0.87017 14:-1 15:0.0393206 16:-0.9 17:-0.0840987 18:-0.843137 19:-0.545455 20:-0.555556 21:-0.777778 22:-0.513514 23:-0.857143 24:-1 25:-0.386364 
3.88 1:-0.478261 2:-0.457944 3:-1 4:-0.494949 5:-0.728395 6:-0.996336 7:-0.884952 8:-0.324675 9:-0.996336 10:-0.568627 11:-0.977522 12:-0.882353 13:-0.861464 14:-0.857143 15:0.649575 16:-0.9 17:0.299151 18:-0.803922 19:-0.454545 20:-0.777778 21:-1 22:-0.459459 23:-0.714286 24:-1 25:-0.25 
3.88 1:-0.478261 2:-0.551402 3:1 4:-0.818182 5:-0.703704 6:-0.989535 7:-0.878531 8:-0.714286 9:-0.989535 10:-0.568627 11:-0.984428 12:-0.764706 13:-0.87017 14:-1 15:0.0393206 16:-0.95 17:0.0393206 18:-0.803922 19:-0.545455 20:-0.777778 21:-0.777778 22:-0.567568 23:-1 24:-1 25:-0.613636 
3.88 1:-0.478261 2:-0.551402 3:1 4:-0.777778 5:-0.506173 6:-0.977812 7:-0.867462 8:-0.766234 9:-0.998628 10:-0.411765 11:-0.991636 12:-0.764706 13:-0.87017 14:-1 15:0.0393206 16:-0.95 17:-0.0840987 18:-0.764706 19:-0.545455 20:-0.888889 21:-1 22:-0.513514 23:-0.714286 24:-1 25:-0.636364 
3.88 1:-0.565217 2:-0.607477 3:1 4:-0.757576 5:-0.530864 6:-0.995244 7:-0.883922 8:-0.766234 9:-0.989372 10:-0.45098 11:-0.977522 12:-0.882353 13:-0.87017 14:-1 15:0.0393206 16:-0.9 17:0.299151 18:-0.843137 19:-0.636364 20:-0.888889 21:-1 22:-0.567568 23:-0.857143 24:-1 25:-0.5 
3.88 1:-0.478261 2:-0.551402 3:1 4:-0.777778 5:-0.506173 6:-0.977812 7:-0.867462 8:-0.766234 9:-0.998628 10:-0.411765 11:-0.991636 12:-0.764706 13:-0.87017 14:-1 15:0.0393206 16:-0.95 17:-0.0840987 18:-0.764706 19:-0.545455 20:-0.888889 21:-1 22:-0.513514 23:-0.714286 24:-1 25:-0.636364 
3.88 1:-0.478261 2:-0.551402 3:1 4:-0.818182 5:-0.703704 6:-0.989535 7:-0.878531 8:-0.714286 9:-0.989535 10:-0.568627 11:-0.984428 12:-0.764706 13:-0.87017 14:-1 15:0.0393206 16:-0.95 17:0.0393206 18:-0.803922 19:-0.545455 20:-0.777778 21:-0.777778 22:-0.567568 23:-1 24:-1 25:-0.613636 
3.88 1:-0.391304 2:-0.308411 3:-1 4:-0.414141 5:-0.703704 6:-0.982533 7:-0.863103 8:-0.74026 9:-0.982533 10:-0.529412 11:-0.977522 12:-0.882353 13:-0.87017 14:-1 15:0.0393206 16:-0.9 17:-0.0840987 18:-0.843137 19:-0.545455 20:-0.555556 21:-0.777778 22:-0.513514 23:-0.857143 24:-1 25:-0.386364 
3.88 1:-0.478261 2:-0.457944 3:-1 4:-0.494949 5:-0.728395 6:-0.996336 7:-0.884952 8:-0.324675 9:-0.996336 10:-0.568627 11:-0.977522 12:-0.882353 13:-0.861464 14:-0.857143 15:0.649575 16:-0.9 17:0.299151 18:-0.803922 19:-0.454545 20:-0.777778 21:-1 22:-0.459459 23:-0.714286 24:-1 25:-0.25 
3.88 1:-0.565217 2:-0.607477 3:1 4:-0.757576 5:-0.530864 6:-0.995244 7:-0.883922 8:-0.766234 9:-0.989372 10:-0.45098 11:-0.977522 12:-0.882353 13:-0.87017 14:-1 15:0.0393206 16:-0.9 17:0.299151 18:-0.843137 19:-0.636364 20:-0.888889 21:-1 22:-0.567568 23:-0.857143 24:-1 25:-0.5 
3.88 1:-0.565217 2:-0.401869 3:1 4:-0.757576 5:-0.555556 6:-0.981335 7:-0.870789 8:-0.662338 9:-0.996336 10:-0.45098 11:-0.975404 12:-0.882353 13:-0.857184 14:-1 15:-0.0827346 16:-0.9 17:0.299151 18:-0.882353 19:-0.545455 20:-0.777778 21:-0.777778 22:-0.459459 23:-0.571429 24:-1 25:-0.454545 
3.88 1:-0.478261 2:-0.607477 3:-1 4:-0.656566 5:-0.703704 6:-0.996418 7:-0.878386 8:-0.688312 9:-0.996418 10:-0.529412 11:-0.975404 12:-0.647059 13:-0.857184 14:-1 15:0.649575 16:-0.9 17:0.299151 18:-0.882353 19:-0.727273 20:-0.888889 21:-0.777778 22:-0.621622 23:-0.857143 24:-1 25:-0.636364 
3.88 1:-0.565217 2:-0.401869 3:1 4:-0.757576 5:-0.555556 6:-0.981335 7:-0.870789 8:-0.662338 9:-0.996336 10:-0.45098 11:-0.975404 12:-0.882353 13:-0.857184 14:-1 15:-0.0827346 16:-0.9 17:0.299151 18:-0.882353 19:-0.545455 20:-0.777778 21:-0.777778 22:-0.459459 23:-0.571429 24:-1 25:-0.454545 
3.88 1:-0.478261 2:-0.607477 3:-1 4:-0.656566 5:-0.703704 6:-0.996418 7:-0.878386 8:-0.688312 9:-0.996418 10:-0.529412 11:-0.975404 12:-0.647059 13:-0.857184 14:-1 15:0.649575 16:-0.9 17:0.299151 18:-0.882353 19:-0.727273 20:-0.888889 21:-0.777778 22:-0.621622 23:-0.857143 24:-1 25:-0.636364 
3.88 1:-0.565217 2:-0.401869 3:1 4:-0.757576 5:-0.555556 6:-0.981335 7:-0.870789 8:-0.662338 9:-0.996336 10:-0.45098 11:-0.975404 12:-0.882353 13:-0.857184 14:-1 15:-0.0827346 16:-0.9 17:0.299151 18:-0.882353 19:-0.545455 20:-0.777778 21:-0.777778 22:-0.459459 23:-0.571429 24:-1 25:-0.454545 
3.88 1:-0.478261 2:-0.607477 3:-1 4:-0.656566 5:-0.703704 6:-0.996418 7:-0.878386 8:-0.688312 9:-0.996418 10:-0.529412 11:-0.975404 12:-0.647059 13:-0.857184 14:-1 15:0.649575 16:-0.9 17:0.299151 18:-0.882353 19:-0.727273 20:-0.888889 21:-0.777778 22:-0.621622 23:-0.857143 24:-1 25:-0.636364 
3.88 1:-0.478261 2:-0.570093 3:1 4:-0.878788 5:-0.506173 6:-0.955544 7:-0.846436 8:-0.922078 9:-0.971824 10:-0.843137 11:-0.9683 12:-0.764706 13:-0.870435 14:-1 15:0.389745 16:-1 17:-0.22051 18:-0.803922 19:-0.545455 20:-0.777778 21:-0.777778 22:-0.72973 23:-0.571429 24:-1 25:-0.704545 
3.88 1:-0.391304 2:-0.551402 3:-1 4:-0.616162 5:-0.82716 6:-0.97287 7:-0.862796 8:-0.532468 9:-0.96958 10:-0.960784 11:-0.975149 12:-0.882353 13:-0.861464 14:-0.857143 15:0.999999 16:-1 17:0.0393206 18:-0.882353 19:-0.636364 20:-0.777778 21:-1 22:-0.675676 23:-0.571429 24:-1 25:-0.386364 
3.88 1:-0.391304 2:-0.64486 3:1 4:-0.939394 5:-0.802469 6:-0.966069 7:-0.856375 8:-0.922078 9:-0.962779 10:-0.960784 11:-0.982055 12:-0.764706 13:-0.87017 14:-1 15:0.389745 16:-1 17:-0.22051 18:-0.921569 19:-0.727273 20:-0.888889 21:-0.555556 22:-0.783784 23:-0.714286 24:-1 25:-0.75 
3.88 1:-0.391304 2:-0.64486 3:1 4:-0.89899 5:-0.604938 6:-0.954346 7:-0.845306 8:-0.974026 9:-0.971872 10:-0.803922 11:-0.989263 12:-0.764706 13:-0.87017 14:-1 15:0.389745 16:-1 17:-0.343929 18:-0.882353 19:-0.727273 20:-0.888889 21:-0.777778 22:-0.72973 23:-0.571429 24:-1 25:-0.772727 
3.88 1:-0.391304 2:-0.64486 3:1 4:-0.89899 5:-0.604938 6:-0.954346 7:-0.845306 8:-0.974026 9:-0.971872 10:-0.803922 11:-0.989263 12:-0.764706 13:-0.87017 14:-1 15:0.389745 16:-1 17:-0.343929 18:-0.882353 19:-0.727273 20:-0.888889 21:-0.777778 22:-0.72973 23:-0.571429 24:-1 25:-0.772727 
3.88 1:-0.391304 2:-0.64486 3:1 4:-0.939394 5:-0.802469 6:-0.966069 7:-0.856375 8:-0.922078 9:-0.962779 10:-0.960784 11:-0.982055 12:-0.764706 13:-0.87017 14:-1 15:0.389745 16:-1 17:-0.22051 18:-0.921569 19:-0.727273 20:-0.888889 21:-0.555556 22:-0.783784 23:-0.714286 24:-1 25:-0.75 
3.88 1:-0.391304 2:-0.551402 3:-1 4:-0.616162 5:-0.82716 6:-0.97287 7:-0.862796 8:-0.532468 9:-0.96958 10:-0.960784 11:-0.975149 12:-0.882353 13:-0.861464 14:-0.857143 15:0.999999 16:-1 17:0.0393206 18:-0.882353 19:-0.636364 20:-0.777778 21:-1 22:-0.675676 23:-0.571429 24:-1 25:-0.386364 
3.88 1:-0.478261 2:-0.495327 3:1 4:-0.878788 5:-0.654321 6:-0.957869 7:-0.848632 8:-0.87013 9:-0.96958 10:-0.882353 11:-0.973031 12:-0.882353 13:-0.857184 14:-1 15:0.26769 16:-1 17:0.0393206 18:-0.960784 19:-0.727273 20:-0.888889 21:-0.777778 22:-0.621622 23:-0.428571 24:-1 25:-0.590909 
3.88 1:-0.391304 2:-0.700935 3:-1 4:-0.777778 5:-0.802469 6:-0.972952 7:-0.85623 8:-0.896104 9:-0.969662 10:-0.960784 11:-0.973031 12:-0.647059 13:-0.857184 14:-1 15:0.999999 16:-0.95 17:0.0393206 18:-0.960784 19:-0.909091 20:-0.888889 21:-0.555556 22:-0.837838 23:-0.714286 24:-1 25:-0.772727 
3.88 1:-0.478261 2:-0.495327 3:1 4:-0.878788 5:-0.654321 6:-0.957869 7:-0.848632 8:-0.87013 9:-0.96958 10:-0.882353 11:-0.973031 12:-0.882353 13:-0.857184 14:-1 15:0.26769 16:-1 17:0.0393206 18:-0.960784 19:-0.727273 20:-0.888889 21:-0.777778 22:-0.621622 23:-0.428571 24:-1 25:-0.590909 
3.88 1:-0.391304 2:-0.700935 3:-1 4:-0.777778 5:-0.802469 6:-0.972952 7:-0.85623 8:-0.896104 9:-0.969662 10:-0.960784 11:-0.973031 12:-0.647059 13:-0.857184 14:-1 15:0.999999 16:-0.95 17:0.0393206 18:-0.960784 19:-0.909091 20:-0.888889 21:-0.555556 22:-0.837838 23:-0.714286 24:-1 25:-0.772727 
3.88 1:-0.478261 2:-0.495327 3:1 4:-0.878788 5:-0.654321 6:-0.957869 7:-0.848632 8:-0.87013 9:-0.96958 10:-0.882353 11:-0.973031 12:-0.882353 13:-0.857184 14:-1 15:0.26769 16:-1 17:0.0393206 18:-0.960784 19:-0.727273 20:-0.888889 21:-0.777778 22:-0.621622 23:-0.428571 24:-1 25:-0.590909 
3.88 1:-0.391304 2:-0.700935 3:-1 4:-0.777778 5:-0.802469 6:-0.972952 7:-0.85623 8:-0.896104 9:-0.969662 10:-0.960784 11:-0.973031 12:-0.647059 13:-0.857184 14:-1 15:0.999999 16:-0.95 17:0.0393206 18:-0.960784 19:-0.909091 20:-0.888889 21:-0.555556 22:-0.837838 23:-0.714286 24:-1 25:-0.772727 
3.88 1:-0.391304 2:-0.588785 3:1 4:-0.838384 5:-0.45679 6:-0.974254 7:-0.864102 8:-0.948052 9:-0.987951 10:-0.764706 11:-0.96015 12:-0.882353 13:-0.870435 14:-1 15:-0.22051 16:-1 17:0.0393206 18:-0.803922 19:-0.636364 20:-0.777778 21:-0.777778 22:-0.675676 23:-0.714286 24:-1 25:-0.522727 
3.88 1:-0.304348 2:-0.663551 3:1 4:-0.919192 5:-0.753086 6:-0.984779 7:-0.87404 8:-0.948052 9:-0.978907 10:-0.882353 11:-0.973905 12:-0.882353 13:-0.87017 14:-1 15:-0.22051 16:-1 17:0.0393206 18:-0.921569 19:-0.818182 20:-0.888889 21:-0.555556 22:-0.675676 23:-0.857143 24:-1 25:-0.568182 
3.88 1:-0.304348 2:-0.663551 3:1 4:-0.858586 5:-0.555556 6:-0.973056 7:-0.862972 8:-0.974026 9:-0.988 10:-0.72549 11:-0.981113 12:-0.882353 13:-0.87017 14:-1 15:-0.22051 16:-1 17:-0.0840987 18:-0.882353 19:-0.818182 20:-1 21:-0.777778 22:-0.621622 23:-0.571429 24:-1 25:-0.590909 
3.88 1:-0.304348 2:-0.663551 3:1 4:-0.858586 5:-0.555556 6:-0.973056 7:-0.862972 8:-0.974026 9:-0.988 10:-0.72549 11:-0.981113 12:-0.882353 13:-0.87017 14:-1 15:-0.22051 16:-1 17:-0.0840987 18:-0.882353 19:-0.818182 20:-1 21:-0.777778 22:-0.621622 23:-0.571429 24:-1 25:-0.590909 
3.88 1:-0.304348 2:-0.663551 3:1 4:-0.919192 5:-0.753086 6:-0.984779 7:-0.87404 8:-0.948052 9:-0.978907 10:-0.882353 11:-0.973905 12:-0.882353 13:-0.87017 14:-1 15:-0.22051 16:-1 17:0.0393206 18:-0.921569 19:-0.818182 20:-0.888889 21:-0.555556 22:-0.675676 23:-0.857143 24:-1 25:-0.568182 
3.88 1:-0.565217 2:-0.607477 3:1 4:-0.757576 5:-0.530864 6:-0.995244 7:-0.883922 8:-0.766234 9:-0.989372 10:-0.45098 11:-0.977522 12:-0.882353 13:-0.87017 14:-1 15:0.0393206 16:-0.9 17:0.299151 18:-0.843137 19:-0.636364 20:-0.888889 21:-1 22:-0.567568 23:-0.857143 24:-1 25:-0.5 
3.88 1:-0.391304 2:-0.514019 3:1 4:-0.838384 5:-0.604938 6:-0.976579 7:-0.866298 8:-0.896104 9:-0.985707 10:-0.764706 11:-0.964881 12:-1 13:-0.857184 14:-1 15:-0.342565 16:-0.95 17:0.299151 18:-0.960784 19:-0.818182 20:-0.888889 21:-0.777778 22:-0.567568 23:-0.428571 24:-1 25:-0.409091 
3.88 1:-0.391304 2:-0.514019 3:1 4:-0.838384 5:-0.604938 6:-0.976579 7:-0.866298 8:-0.896104 9:-0.985707 10:-0.764706 11:-0.964881 12:-1 13:-0.857184 14:-1 15:-0.342565 16:-0.95 17:0.299151 18:-0.960784 19:-0.818182 20:-0.888889 21:-0.777778 22:-0.567568 23:-0.428571 24:-1 25:-0.409091 
3.88 1:-0.391304 2:-0.514019 3:1 4:-0.838384 5:-0.604938 6:-0.976579 7:-0.866298 8:-0.896104 9:-0.985707 10:-0.764706 11:-0.964881 12:-1 13:-0.857184 14:-1 15:-0.342565 16:-0.95 17:0.299151 18:-0.960784 19:-0.818182 20:-0.888889 21:-0.777778 22:-0.567568 23:-0.428571 24:-1 25:-0.409091 
3.88 1:-0.304348 2:-0.383178 3:1 4:-0.838384 5:-0.45679 6:-0.960345 7:-0.850969 8:-0.844156 9:-0.994915 10:-0.764706 11:-0.958032 12:-0.882353 13:-0.857449 14:-1 15:-0.342565 16:-1 17:0.0393206 18:-0.843137 19:-0.545455 20:-0.666667 21:-0.777778 22:-0.513514 23:-0.428571 24:-1 25:-0.454545 
3.88 1:-0.304348 2:-0.364486 3:-1 4:-0.575758 5:-0.802469 6:-0.977671 7:-0.867329 8:-0.454545 9:-0.992671 10:-0.882353 11:-0.964881 12:-1 13:-0.848478 14:-0.857143 15:0.26769 16:-0.95 17:0.299151 18:-0.921569 19:-0.636364 20:-0.777778 21:-0.777778 22:-0.459459 23:-0.285714 24:-1 25:-0.159091 
3.88 1:-0.304348 2:-0.457944 3:1 4:-0.919192 5:-0.753086 6:-0.97087 7:-0.860907 8:-0.844156 9:-0.985871 10:-0.882353 11:-0.971786 12:-0.764706 13:-0.857184 14:-1 15:-0.342565 16:-1 17:0.0393206 18:-0.960784 19:-0.636364 20:-0.777778 21:-0.555556 22:-0.567568 23:-0.571429 24:-1 25:-0.522727 
3.88 1:-0.478261 2:-0.457944 3:1 4:-0.838384 5:-0.580247 6:-0.980123 7:-0.869644 8:-0.896104 9:-0.99387 10:-0.843137 11:-0.964881 12:-1 13:-0.857184 14:-1 15:-0.0827346 16:-0.95 17:0.299151 18:-0.960784 19:-0.636364 20:-0.888889 21:-0.777778 22:-0.567568 23:-0.428571 24:-1 25:-0.386364 
3.88 1:-0.304348 2:-0.457944 3:1 4:-0.858586 5:-0.580247 6:-0.959147 7:-0.849839 8:-0.896104 9:-0.994964 10:-0.72549 11:-0.978995 12:-0.882353 13:-0.857184 14:-1 15:-0.342565 16:-1 17:-0.0840987 18:-0.921569 19:-0.636364 20:-0.888889 21:-0.777778 22:-0.513514 23:-0.285714 24:-1 25:-0.545455 
3.88 1:-0.478261 2:-0.457944 3:1 4:-0.838384 5:-0.580247 6:-0.980123 7:-0.869644 8:-0.896104 9:-0.99387 10:-0.843137 11:-0.964881 12:-1 13:-0.857184 14:-1 15:-0.0827346 16:-0.95 17:0.299151 18:-0.960784 19:-0.636364 20:-0.888889 21:-0.777778 22:-0.567568 23:-0.428571 24:-1 25:-0.386364 
3.88 1:-0.478261 2:-0.495327 3:1 4:-0.878788 5:-0.654321 6:-0.957869 7:-0.848632 8:-0.87013 9:-0.96958 10:-0.882353 11:-0.973031 12:-0.882353 13:-0.857184 14:-1 15:0.26769 16:-1 17:0.0393206 18:-0.960784 19:-0.727273 20:-0.888889 21:-0.777778 22:-0.621622 23:-0.428571 24:-1 25:-0.590909 
3.88 1:-0.391304 2:-0.514019 3:1 4:-0.838384 5:-0.604938 6:-0.976579 7:-0.866298 8:-0.896104 9:-0.985707 10:-0.764706 11:-0.964881 12:-1 13:-0.857184 14:-1 15:-0.342565 16:-0.95 17:0.299151 18:-0.960784 19:-0.818182 20:-0.888889 21:-0.777778 22:-0.567568 23:-0.428571 24:-1 25:-0.409091 
3.88 1:-0.304348 2:-0.457944 3:1 4:-0.858586 5:-0.580247 6:-0.959147 7:-0.849839 8:-0.896104 9:-0.994964 10:-0.72549 11:-0.978995 12:-0.882353 13:-0.857184 14:-1 15:-0.342565 16:-1 17:-0.0840987 18:-0.921569 19:-0.636364 20:-0.888889 21:-0.777778 22:-0.513514 23:-0.285714 24:-1 25:-0.545455 
