svm_type c_svc
kernel_type rbf
gamma 0.0416667
nr_class 2
total_sv 848
rho -3.83371
label 1 0
nr_sv 808 40
SV
1 1:-0.391304 2:-0.288462 3:1 4:-1 5:-0.341772 6:-1 7:-1 8:-0.818182 9:-0.757083 10:-0.803922 11:-0.748742 12:-0.764706 13:-0.792667 14:-1 15:0.764997 16:-0.12 17:1 18:-0.882353 19:-0.454545 20:-1 21:0.111111 22:-0.290323 23:-0.714286 24:-1 
1 1:-0.391304 2:-0.673077 3:1 4:-0.895833 5:-0.518987 6:-1 7:-1 8:-0.781818 9:-1 10:-0.215686 11:-0.765487 12:-0.647059 13:-0.786385 14:-1 15:1 16:-0.92 17:0.8639 18:-0.921569 19:-0.909091 20:-0.904762 21:-1 22:-0.612903 23:-0.571429 24:-1 
1 1:-0.478261 2:-0.75 3:1 4:-0.875 5:-0.772152 6:-0.782224 7:-0.782224 8:-0.818182 9:-0.782224 10:-0.921569 11:-0.769634 12:-1 13:-0.788464 14:-1 15:0.630629 16:-0.92 17:0.630629 18:-1 19:-0.909091 20:-1 21:-0.777778 22:-0.741935 23:-0.714286 24:-1 
1 1:-0.130435 2:-0.673077 3:-1 4:-0.75 5:-1 6:-0.780335 7:-0.780335 8:-0.672727 9:-0.780335 10:-0.882353 11:-0.759171 12:-0.764706 13:-0.794768 14:-0.714286 15:1 16:-1 17:1 18:-1 19:-0.818182 20:-0.714286 21:-1 22:-0.741935 23:-0.571429 24:-1 
1 1:-0.565217 2:-0.769231 3:-1 4:-0.708333 5:-1 6:-0.796862 7:-0.796862 8:-0.527273 9:-0.796862 10:-0.960784 11:-0.765487 12:-0.764706 13:-0.794734 14:-1 15:1 16:-1 17:0.983206 18:-0.960784 19:-0.818182 20:-0.809524 21:-1 22:-0.870968 23:-0.714286 24:-1 
1 1:-0.478261 2:-0.788462 3:-1 4:-0.729167 5:-0.924051 6:-0.750843 7:-0.750843 8:-0.818182 9:-0.750843 10:-0.803922 11:-0.765487 12:-0.764706 13:-0.757083 14:-0.714286 15:1 16:-1 17:1 18:-1 19:-1 20:-0.52381 21:-1 22:-0.935484 23:-0.714286 24:-1 
1 1:0.565217 2:-0.211538 3:1 4:-0.854167 5:-0.417722 6:-0.792655 7:-0.792655 8:-0.963636 9:-0.782224 10:-0.921569 11:-1 12:-0.764706 13:-0.757098 14:-0.571429 15:0.8639 16:-1 17:0.763148 18:-0.568627 19:-0.727273 20:-0.904762 21:1 22:-0.483871 23:-0.571429 24:-1 
1 1:-0.130435 2:-0.384615 3:-1 4:-0.291667 5:-0.594937 6:-0.780104 7:-0.765452 8:-0.854545 9:-0.790583 10:-0.764706 11:-0.794768 12:-0.764706 13:-0.794734 14:-1 15:0.763148 16:-1 17:0.763148 18:-0.843137 19:-0.545455 20:-0.904762 21:-0.333333 22:-0.225806 23:-0.571429 24:-1 
1 1:-0.304348 2:-0.673077 3:1 4:-0.916667 5:-0.670886 6:-0.792655 7:-0.761295 8:-0.927273 9:-0.761295 10:-0.72549 11:-0.765487 12:-0.882353 13:-0.792655 14:-0.857143 15:0.630646 16:-1 17:0.630646 18:-0.647059 19:-0.636364 20:-0.809524 21:-0.777778 22:-0.677419 23:-1 24:-1 
1 1:-0.478261 2:-0.75 3:1 4:-0.895833 5:-0.696203 6:-0.780335 7:-0.780335 8:-0.890909 9:-0.765452 10:-0.921569 11:-0.757102 12:-0.764706 13:-0.759211 14:-1 15:1 16:-0.92 17:0.949607 18:-1 19:-0.818182 20:-0.904762 21:-0.777778 22:-0.806452 23:-0.571429 24:-1 
1 1:-0.304348 2:-0.5 3:-1 4:-0.541667 5:-1 6:-0.782224 7:-0.767577 8:-0.927273 9:-0.782224 10:-0.882353 11:-0.788489 12:-0.529412 13:-0.79683 14:-0.857143 15:0.714637 16:-1 17:0.882388 18:-0.72549 19:-0.545455 20:-0.714286 21:-0.555556 22:-0.741935 23:-0.857143 
1 1:-0.652174 2:-0.961538 3:-1 4:-0.916667 5:-1 6:-1 7:-1 8:-0.818182 9:-1 10:-0.960784 11:-0.765487 12:-0.764706 13:-0.759211 14:-1 15:1 16:-1 17:0.763148 18:-1 19:-1 20:-0.904762 21:-1 22:-0.935484 23:-0.857143 24:-1 
1 1:-0.652174 2:-0.557692 3:1 4:-1 5:-0.443038 6:-1 7:-1 8:-0.963636 9:-1 10:-0.0980392 11:-0.794768 12:-0.647059 13:-0.759211 14:-1 15:-1 16:-1 17:-1 18:-0.137255 19:-0.0909091 20:-0.904762 21:-1 22:-0.419355 23:-1 24:-1 
1 1:-0.565217 2:-0.788462 3:-1 4:-0.75 5:-0.898734 6:-0.788452 7:-0.788452 8:-0.563636 9:-0.788452 10:-0.843137 11:-0.757083 12:-0.764706 13:-0.792655 14:-0.714286 15:0.8639 16:-1 17:0.8639 18:-1 19:-0.818182 20:-0.809524 21:-1 22:-0.935484 23:-0.714286 24:-1 
1 1:-0.0434783 2:-0.519231 3:1 4:-0.9375 5:-0.392405 6:-0.782224 7:-0.782224 8:-0.927273 9:-0.757119 10:-0.529412 11:-0.765487 12:-0.882353 13:-0.788464 14:-1 15:0.8639 16:-1 17:0.628813 18:-1 19:-0.636364 20:-0.809524 21:-0.555556 22:-0.612903 23:-0.714286 24:-1 
1 1:-0.0434783 2:-0.557692 3:1 4:-0.895833 5:-0.64557 6:-0.790583 7:-0.790583 8:-0.818182 9:-0.757083 10:-0.921569 11:-0.782194 12:-0.882353 13:-0.794734 14:-1 15:0.763148 16:-1 17:1 18:-1 19:-0.727273 20:-1 21:-0.777778 22:-0.548387 23:-0.571429 24:-1 
1 1:-0.391304 2:-0.596154 3:1 4:-0.9375 5:-0.493671 6:-0.773847 7:-0.773847 8:-0.890909 9:-0.788456 10:-0.607843 11:-0.782173 12:-0.882353 13:-0.759211 14:-1 15:1 16:-1 17:1 18:-1 19:-0.909091 20:-1 21:-0.777778 22:-0.548387 23:-0.428571 24:-1 
1 1:-0.391304 2:-0.538462 3:1 4:-1 5:-0.367089 6:-0.780104 7:-0.780104 8:-0.963636 9:-0.780104 10:-0.0588235 11:-0.792655 12:-0.647059 13:-0.796855 14:-0.714286 15:0.8639 16:-0.76 17:0.8639 18:-0.215686 19:-0.636364 20:-0.904762 21:-1 22:-0.612903 23:-1 24:-1 
1 1:-0.217391 2:-0.0769231 3:-1 4:-0.333333 5:-0.772152 6:-0.786378 7:-0.786408 8:-0.418182 9:-0.786378 10:-0.960784 11:-0.792684 12:-0.764706 13:-0.792667 14:-1 15:1 16:-0.52 17:0.645605 18:-0.960784 19:-0.0909091 20:-0.619048 21:-0.555556 22:0.16129 23:-0.428571 
1 1:-0.391304 2:-0.673077 3:-1 4:-0.666667 5:-0.949367 6:-0.794979 7:-0.757083 8:-0.818182 9:-0.794979 10:-0.960784 11:-0.782194 12:-0.647059 13:-0.796845 14:-1 15:0.763148 16:-1 17:0.714637 18:-0.72549 19:-1 20:-0.809524 21:-0.555556 22:-0.806452 23:-0.714286 24:-1 
1 1:-0.391304 2:-0.230769 3:-1 4:-0.270833 5:-0.518987 6:-0.761295 7:-0.757083 8:-0.927273 9:-0.761295 10:-0.764706 11:-0.769634 12:-1 13:-0.761266 14:-0.714286 15:0.763148 16:-0.92 17:1 18:-0.568627 19:-0.0909091 20:-0.904762 21:-0.333333 22:-0.354839 23:-0.714286 24:-1 
0.2419678797011655 1:-0.0434783 2:-0.596154 3:1 4:-0.916667 5:-0.620253 6:-0.796841 7:-0.796855 8:-0.927273 9:-0.796862 10:-0.882353 11:-0.769634 12:-1 13:-0.74665 14:-0.142857 15:0.714689 16:-0.92 17:0.647303 18:-1 19:-0.818182 20:-0.809524 21:-0.333333 22:-0.806452 23:-0.857143 24:-1 
1 1:-0.130435 2:-0.134615 3:1 4:-0.854167 5:-0.291139 6:-0.750834 7:-0.750834 8:-0.963636 9:-0.792684 10:-1 11:-0.769642 12:-0.647059 13:-0.796832 14:-0.714286 15:1 16:-0.68 17:0.9665 18:-0.921569 19:-0.363636 20:-0.714286 21:-0.111111 22:-0.483871 23:-0.714286 24:-1 
1 1:-0.130435 2:-0.384615 3:-1 4:-0.291667 5:-0.594937 6:-0.757119 7:-0.796862 8:-0.963636 9:-0.757119 10:-0.372549 11:-0.765487 12:-0.529412 13:-0.794768 14:-1 15:0.763148 16:-0.68 17:0.8639 18:-1 19:-1 20:-0.714286 21:-0.555556 22:-0.290323 23:-0.285714 24:-1 
1 1:-0.565217 2:-0.826923 3:-1 4:-0.791667 5:-0.974684 6:-0.780335 7:-0.792655 8:-0.781818 9:-0.780335 10:-0.960784 11:-0.769634 12:-1 13:-0.757083 14:-0.142857 15:0.714637 16:-0.92 17:0.714637 18:-0.764706 19:-1 20:-1 21:-0.777778 22:-0.935484 23:-1 24:-1 
1 1:-0.478261 2:-0.865385 3:-1 4:-0.8125 5:-0.974684 6:-0.792655 7:-0.792655 8:-0.672727 9:-0.792655 10:-0.960784 11:-0.765487 12:-0.647059 13:-0.796845 14:-1 15:1 16:-0.92 17:0.714637 18:-1 19:-1 20:-0.904762 21:-1 22:-0.870968 23:-0.714286 24:-1 
1 1:-0.565217 2:-0.519231 3:-1 4:-0.541667 5:-0.64557 6:-0.796833 7:-0.761295 8:-0.818182 9:-0.796833 10:-0.921569 11:-0.769634 12:-1 13:-0.780104 14:-0.428571 15:0.714637 16:-0.92 17:0.714637 18:-0.803922 19:-0.636364 20:-1 21:-0.777778 22:-0.419355 23:-0.857143 24:-1 
1 1:-0.130435 2:-0.519231 3:-1 4:-0.458333 5:-1 6:-0.796837 7:-0.761295 8:-0.381818 9:-0.796837 10:-0.960784 11:-0.765487 12:-0.882353 13:-0.788489 14:-0.142857 15:0.763148 16:-1 17:0.630545 18:-0.529412 19:-0.818182 20:-0.904762 21:-0.555556 22:-0.612903 23:-0.857143 
1 1:-0.478261 2:-0.576923 3:1 4:-1 5:-0.924051 6:-0.754989 7:-0.754989 8:-0.927273 9:-0.754989 10:-0.960784 11:-0.765487 12:-0.882353 13:-0.792655 14:-0.857143 15:-1 16:-1 17:-1 18:-0.882353 19:-0.181818 20:-0.714286 21:-1 22:-0.741935 23:-1 24:-1 
1 1:-0.73913 2:-0.865385 3:-1 4:-0.854167 5:-0.873418 6:-0.788473 7:-0.788473 8:-0.745455 9:-0.788473 10:-0.803922 11:-0.771734 12:-0.882353 13:-0.794734 14:-1 15:0.763148 16:-1 17:0.8639 18:-1 19:-1 20:-1 21:-1 22:-0.806452 23:-0.857143 24:-1 
1 1:-0.73913 2:-0.961538 3:-1 4:-0.916667 5:-1 6:-1 7:-1 8:-0.818182 9:-1 10:-0.960784 11:-0.759178 12:-0.882353 13:-0.759178 14:-0.571429 15:0.763148 16:-0.84 17:0.763148 18:-1 19:-1 20:-0.904762 21:-1 22:-1 23:-1 24:-1 
1 1:-0.391304 2:-0.115385 3:-1 4:-0.0208333 5:-0.316456 6:-0.757111 7:-0.757111 8:0.709091 9:-0.757111 10:0.0588235 11:-0.769634 12:-1 13:-0.794768 14:-1 15:0.763148 16:-0.84 17:1 18:-0.921569 19:0.0909091 20:-0.809524 21:-1 22:-0.225806 23:-0.571429 24:-1 
1 1:-0.478261 2:-0.365385 3:1 4:-0.75 5:-0.367089 6:-0.761295 7:-0.761295 8:-0.563636 9:-0.761295 10:-0.0196078 11:-0.765487 12:-0.882353 13:-0.788487 14:-0.571429 15:0.8639 16:-1 17:1 18:-0.803922 19:-0.727273 20:-0.619048 21:-1 22:-0.483871 23:-0.428571 24:-1 
1 1:-0.565217 2:-0.634615 3:-1 4:-0.625 5:-0.848101 6:-0.782224 7:-0.761295 8:-0.781818 9:-0.782224 10:-0.960784 11:-0.765487 12:-0.764706 13:-0.773814 14:-0.571429 15:1 16:-1 17:1 18:-0.921569 19:-1 20:-0.714286 21:-0.555556 22:-0.548387 23:-0.571429 24:-1 
1 1:-0.652174 2:-0.788462 3:-1 4:-0.75 5:-0.974684 6:-1 7:-1 8:-0.527273 9:-1 10:-0.921569 11:-0.752927 12:-0.647059 13:-0.792655 14:-0.857143 15:0.763148 16:-0.92 17:0.8639 18:-0.882353 19:-0.818182 20:-0.809524 21:-1 22:-0.870968 23:-0.857143 24:-1 
1 1:-0.0434783 2:-0.211538 3:1 4:-0.958333 5:-0.164557 6:-0.796833 7:-0.796833 8:-0.854545 9:-0.782224 10:-0.72549 11:-0.769634 12:-1 13:-0.790563 14:-1 15:0.763148 16:-0.92 17:0.763148 18:-0.921569 19:-0.636364 20:-0.809524 21:-0.111111 22:-0.290323 23:0.142857 24:-1 
1 1:-0.826087 2:-0.865385 3:-1 4:-0.875 5:-0.949367 6:-0.792655 7:-0.792655 8:-0.781818 9:-0.792655 10:-0.921569 11:-0.792676 12:-0.882353 13:-0.761295 14:-0.857143 15:0.763148 16:-0.92 17:0.763148 18:-0.960784 19:-1 20:-0.809524 21:-1 22:-0.806452 23:-1 24:-1 
1 1:-0.478261 2:-0.519231 3:-1 4:-0.4375 5:-0.56962 6:-0.792655 7:-0.792655 8:-0.0181818 9:-0.792655 10:-0.333333 11:-0.765487 12:-0.647059 13:-0.759211 14:-1 15:1 16:-0.92 17:0.8639 18:-1 19:-0.636364 20:-0.904762 21:-1 22:-0.677419 23:-0.285714 24:-1 
1 1:0.0434783 2:0.0384615 3:-1 4:-0.0416667 5:-0.721519 6:-0.792684 7:-1 8:-0.927273 9:-0.792684 10:-0.882353 11:-0.788452 12:-0.764706 13:-0.796845 14:-1 15:1 16:-1 17:1 18:-0.960784 19:0.181818 20:-0.809524 21:0.111111 22:-0.290323 23:-0.571429 24:-1 
1 1:-0.391304 2:-0.365385 3:1 4:-0.770833 5:-0.21519 6:-0.780335 7:-0.780335 8:-0.781818 9:-0.788452 10:-0.647059 11:-0.761295 12:-0.764706 13:-0.759211 14:-1 15:0.763148 16:-1 17:1 18:-1 19:-0.727273 20:-0.428571 21:-0.777778 22:-0.612903 23:-0.428571 24:-1 
1 1:-0.478261 2:-0.653846 3:-1 4:-0.583333 5:-0.924051 6:-0.750843 7:-0.790583 8:-0.709091 9:-0.750843 10:-0.764706 11:-0.765487 12:-0.764706 13:-0.792655 14:-0.714286 15:1 16:-1 17:0.8639 18:-1 19:-0.818182 20:-0.904762 21:-0.555556 22:-0.806452 23:-0.714286 24:-1 
1 1:-0.478261 2:-0.692308 3:-1 4:-0.625 5:-0.873418 6:-0.792655 7:-0.792655 8:-0.345455 9:-0.792655 10:-0.803922 11:-0.765487 12:-0.647059 13:-0.792655 14:-0.714286 15:1 16:-0.92 17:0.8639 18:-1 19:-1 20:-0.714286 21:-1 22:-0.806452 23:-0.285714 24:-1 
1 1:-0.0434783 2:-0.365385 3:-1 4:-0.5625 5:-0.696203 6:-0.782224 7:-0.782224 8:-0.927273 9:-0.782224 10:-0.921569 11:-0.765487 12:-0.647059 13:-0.788464 14:-1 15:1 16:-0.92 17:0.628813 18:-0.921569 19:-0.545455 20:-0.714286 21:-0.111111 22:-0.548387 23:-0.428571 24:-1 
1 1:-0.217391 2:-0.346154 3:-1 4:-0.3125 5:-0.822785 6:-0.796833 7:-0.752927 8:-0.890909 9:-0.796833 10:-0.764706 11:-0.765487 12:-0.764706 13:-0.759211 14:-1 15:1 16:-1 17:0.8639 18:-0.960784 19:-0.363636 20:-0.619048 21:-0.777778 22:-0.677419 23:-0.428571 24:-1 
1 1:-0.217391 2:-0.634615 3:-1 4:-0.5625 5:-0.873418 6:-0.750843 7:-0.79683 8:-0.490909 9:-0.750843 10:-0.960784 11:-0.765487 12:-0.411765 13:-0.794734 14:-1 15:1 16:-0.76 17:1 18:-0.921569 19:-1 20:-0.904762 21:-0.777778 22:-0.612903 23:-0.428571 24:-1 
1 1:-0.478261 2:-0.692308 3:-1 4:-0.625 5:-0.873418 6:-0.792655 7:-0.792655 8:-0.345455 9:-0.792655 10:-0.803922 11:-0.769634 12:-1 13:-0.788464 14:-1 15:1 16:-0.76 17:0.983141 18:-1 19:-1 20:-1 21:-1 22:-0.677419 23:-0.428571 24:-1 
1 1:-0.565217 2:-0.788462 3:-1 4:-0.729167 5:-0.949367 6:-1 7:-1 8:-0.490909 9:-1 10:-0.882353 11:-0.765487 12:-0.647059 13:-0.796845 14:-1 15:1 16:-0.92 17:0.8639 18:-1 19:-1 20:-0.904762 21:-1 22:-0.806452 23:-0.714286 24:-1 
1 1:-0.130435 2:-0.192308 3:1 4:-0.791667 5:-0.0379747 6:-0.750834 7:-0.750834 8:-0.818182 9:-0.792655 10:-0.882353 11:-0.790575 12:-0.764706 13:-0.765452 14:-1 15:0.8639 16:-1 17:1 18:-0.960784 19:-0.545455 20:-0.52381 21:-0.555556 22:-0.483871 23:0.142857 24:-1 
1 1:-0.565217 2:-0.942308 3:1 4:-1 5:-0.873418 6:-0.792655 7:-0.792655 8:-0.890909 9:-0.792655 10:-0.921569 11:-0.794734 12:-0.764706 13:-0.786385 14:-1 15:1 16:-1 17:1 18:-1 19:-1 20:-0.904762 21:-1 22:-0.935484 23:-0.857143 24:-1 
1 1:-0.304348 2:-0.557692 3:1 4:-0.854167 5:-0.443038 6:-0.750843 7:-0.750843 8:-0.6 9:-0.750843 10:-0.843137 11:-0.794768 12:-0.764706 13:-0.773847 14:-1 15:1 16:-1 17:0.714637 18:-1 19:-0.909091 20:-0.52381 21:-1 22:-0.741935 24:-1 
1 1:-0.391304 2:-0.673077 3:1 4:-0.895833 5:-0.56962 6:-1 7:-1 8:-0.781818 9:-1 10:-0.294118 11:-0.765487 12:-0.647059 13:-0.794734 14:-1 15:1 16:-0.92 17:0.8639 18:-1 19:-0.909091 20:-0.904762 21:-1 22:-0.612903 23:-0.571429 24:-1 
1 1:-0.652174 2:-0.5 3:-1 4:-0.416667 5:-0.64557 6:-1 7:-1 8:0.0545455 9:-1 10:-0.411765 11:-0.765487 12:-0.647059 13:-0.794734 14:-1 15:1 16:-0.92 17:0.763148 18:-0.921569 19:-0.818182 20:-0.904762 21:-1 22:-0.677419 23:-0.714286 24:-1 
1 1:-0.478261 2:-0.480769 3:-1 4:-0.4375 5:-0.721519 6:-0.780104 7:-0.780104 8:-0.0181818 9:-0.780104 10:-0.568627 11:-0.792676 12:-0.882353 13:-0.784307 14:-1 15:0.8639 16:-0.92 17:0.8639 18:-0.764706 19:-0.363636 20:-0.904762 21:-1 22:-0.290323 23:-0.714286 24:-1 
1 1:-0.826087 2:-0.942308 3:-1 4:-0.895833 5:-0.974684 6:-1 7:-1 8:-0.781818 9:-1 10:-0.921569 11:-0.769634 12:-1 13:-0.792669 14:-0.857143 15:0.763148 16:-0.92 17:0.763148 18:-0.960784 19:-1 20:-1 21:-1 22:-0.935484 23:-1 24:-1 
1 1:-0.565217 2:-0.711538 3:-1 4:-0.645833 5:-0.924051 6:-0.780106 7:-0.780106 8:-0.563636 9:-0.780106 10:-0.921569 11:-0.765487 12:-0.764706 13:-0.759211 14:-1 15:1 16:-1 17:0.8639 18:-0.686275 19:-0.727273 20:-0.809524 21:-1 22:-0.612903 23:-0.714286 24:-1 
1 1:-0.304348 2:-0.75 3:-1 4:-0.8125 5:-1 6:-0.794979 7:-0.794979 8:-0.745455 9:-0.794979 10:-0.921569 11:-0.765487 12:-0.764706 13:-0.794768 14:-0.285714 15:1 16:-1 17:0.8639 18:-0.921569 19:-1 20:-0.904762 21:-1 22:-0.870968 23:-0.428571 24:-1 
1 1:-0.217391 2:-0.596154 3:-1 4:-0.625 5:-1 6:-0.788473 7:-0.761295 8:-0.854545 9:-0.788473 10:-0.960784 11:-0.784307 12:-0.529412 13:-0.794768 14:-1 15:0.8639 16:-0.84 17:0.8639 18:-0.882353 19:-0.636364 20:-0.52381 21:-0.777778 22:-0.612903 23:-0.857143 24:-1 
1 1:-0.652174 2:-0.942308 3:-1 4:-0.895833 5:-1 6:-1 7:-1 8:-0.781818 9:-1 10:-0.960784 11:-0.769634 12:-1 13:-0.765487 14:-0.714286 15:1 16:-0.92 17:0.763148 18:-1 19:-1 20:-0.904762 21:-1 22:-0.935484 23:-0.857143 24:-1 
1 1:-0.130435 2:-0.230769 3:-1 4:-0.4375 5:-0.924051 6:-0.754989 7:-0.788452 8:-0.927273 9:-0.754989 10:-0.960784 11:-0.765487 12:-0.882353 13:-0.765452 14:-0.857143 15:0.763148 16:-1 17:0.763148 18:-0.137255 19:-0.727273 20:-0.904762 21:0.111111 22:-0.225806 23:-0.428571 24:-1 
1 1:-0.652174 2:-0.942308 3:-1 4:-0.895833 5:-1 6:-1 7:-1 8:-0.781818 9:-1 10:-0.960784 11:-0.761303 12:-0.764706 13:-0.761303 14:-0.571429 15:0.8639 16:-1 17:0.8639 18:-1 19:-1 20:-0.904762 21:-1 22:-1 23:-0.857143 24:-1 
1 1:-0.565217 2:-0.673077 3:1 4:-0.833333 5:-0.544304 6:-0.765452 7:-0.765452 8:-0.963636 9:-0.765452 10:-0.647059 11:-0.765487 12:-0.647059 13:-0.780106 14:-0.285714 15:1 16:-0.92 17:1 18:-0.568627 19:-1 20:-0.52381 21:-1 22:-0.806452 23:-0.857143 24:-1 
1 1:-0.0434783 2:-0.634615 3:-1 4:-0.9375 5:-1 6:-0.765452 7:-0.765452 8:-0.781818 9:-0.765452 10:-0.647059 11:-0.792676 12:-0.882353 13:-0.761295 14:-0.857143 15:0.763148 16:-1 17:0.763148 18:-0.960784 19:-0.909091 20:-0.904762 21:-0.777778 22:-0.548387 23:-0.714286 24:-1 
1 1:-0.217391 2:-0.134615 3:1 4:-0.979167 5:-0.544304 6:-0.750834 7:-0.750834 8:-0.490909 9:-0.750834 10:-0.882353 11:-0.765487 12:-0.882353 13:-0.794734 14:-1 15:0.763148 16:-1 17:0.714637 18:-1 19:-0.363636 20:-0.809524 21:-0.777778 22:-0.354839 23:-0.285714 24:-1 
1 1:-0.391304 2:-0.634615 3:-1 4:-0.5625 5:-0.924051 6:-0.786378 7:-0.786378 8:-0.490909 9:-0.786378 10:-0.843137 11:-0.759171 12:-0.764706 13:-0.752918 14:-1 15:1 16:-0.76 17:0.645605 18:-0.843137 19:-0.818182 20:-0.619048 21:-1 22:-0.677419 23:-0.714286 24:-1 
1 1:-0.304348 2:-0.288462 3:-1 4:-0.520833 5:-0.924051 6:-0.780106 7:-0.796862 8:-0.963636 9:-0.780106 10:-0.72549 11:-0.769634 12:-1 13:-0.794768 14:-1 15:0.8639 16:-0.92 17:0.8639 18:-1 19:-0.545455 20:-0.809524 21:-0.555556 22:-0.354839 23:-0.428571 24:-1 
1 1:-0.391304 2:-0.461538 3:1 4:-1 5:-0.265823 6:-0.782224 7:-0.782224 8:-0.563636 9:-0.759196 10:-0.372549 11:-0.765487 12:-0.882353 13:-0.788464 14:-1 15:1 16:-0.92 17:0.628813 18:-0.921569 19:-0.545455 20:-0.714286 21:-0.777778 22:-0.354839 23:-0.857143 24:-1 
1 1:-0.565217 2:-0.788462 3:1 4:-0.895833 5:-0.696203 6:-0.790583 7:-0.790583 8:-0.890909 9:-0.790583 10:-0.843137 11:-0.765487 12:-0.764706 13:-0.761295 14:-0.571429 15:1 16:-1 17:1 18:-0.72549 19:-1 20:-0.904762 21:-1 22:-0.870968 23:-0.857143 24:-1 
1 1:-0.478261 2:-0.538462 3:-1 4:-0.458333 5:-0.924051 6:-0.792655 7:-0.792655 8:-0.0545455 9:-0.792655 10:-0.882353 11:-0.765479 12:-0.764706 13:-0.794734 14:-1 15:1 16:-1 17:0.983141 18:-0.921569 19:-0.909091 20:-0.619048 21:-1 22:-0.612903 23:-0.142857 24:-1 
1 1:-0.304348 2:-0.769231 3:-1 4:-0.729167 5:-1 6:-0.780335 7:-0.780335 8:-0.636364 9:-0.780335 10:-0.882353 11:-0.769634 12:-1 13:-0.794768 14:-1 15:0.763148 16:-0.92 17:0.714637 18:-0.803922 19:-1 20:-0.904762 21:-1 22:-0.741935 23:-0.714286 24:-1 
1 1:-0.478261 2:-0.442308 3:1 4:-0.9375 5:-0.265823 6:-0.782224 7:-0.782224 8:-0.963636 9:-0.792655 10:-0.882353 11:-0.765487 12:-0.764706 13:-0.773839 14:-0.428571 15:1 16:-1 17:0.8639 18:-0.843137 19:-0.909091 20:-0.52381 21:-0.333333 22:-0.677419 23:-0.714286 24:-1 
1 1:-0.391304 2:-0.5 3:-1 4:-0.5625 5:-0.822785 6:-0.79683 7:-0.761295 8:-0.818182 9:-0.792655 10:-0.960784 11:-0.765487 12:-0.647059 13:-0.757104 14:-0.714286 15:1 16:-0.92 17:1 18:-1 19:-1 20:-0.904762 21:-0.555556 22:-0.548387 23:-0.142857 24:-1 
1 1:-0.565217 2:-0.692308 3:-1 4:-0.645833 5:-0.924051 6:-1 7:-1 8:-0.345455 9:-1 10:-0.843137 11:-0.765487 12:-0.882353 13:-0.765452 14:-0.857143 15:0.8639 16:-1 17:0.8639 18:-1 19:-0.818182 20:-0.904762 21:-1 22:-0.677419 23:-0.714286 24:-1 
1 1:-0.826087 2:-0.961538 3:-1 4:-0.916667 5:-0.974684 6:-1 7:-1 8:-0.818182 9:-1 10:-0.921569 11:-0.786385 12:-0.647059 13:-0.786385 14:-1 15:0.763148 16:-0.92 17:0.763148 18:-1 19:-1 20:-0.904762 21:-1 22:-1 23:-1 24:-1 
1 1:-0.73913 2:-0.788462 3:-1 4:-0.729167 5:-0.974684 6:-1 7:-1 8:-0.490909 9:-1 10:-0.921569 11:-0.769634 12:-1 13:-0.796862 14:-0.857143 15:0.763148 16:-0.68 17:0.763148 18:-0.764706 19:-0.818182 20:-0.904762 21:-1 22:-0.741935 23:-1 24:-1 
1 1:-0.391304 2:-0.403846 3:-1 4:-0.375 5:-0.746835 6:-0.796833 7:-0.788475 8:-0.745455 9:-0.796833 10:-0.568627 11:-0.757083 12:-0.882353 13:-0.748734 14:-0.857143 15:0.714637 16:-1 17:0.628813 18:-1 19:-0.818182 20:-1 21:-0.777778 22:-0.483871 23:-0.571429 24:-1 
1 1:-0.478261 2:-0.846154 3:-1 4:-0.8125 5:-1 6:-1 7:-1 8:-0.636364 9:-1 10:-0.960784 11:-0.759194 12:-0.529412 13:-0.759169 14:-0.714286 15:0.8639 16:-0.84 17:0.763148 18:-1 19:-1 20:-0.809524 21:-1 22:-0.935484 23:-0.714286 24:-1 
1 1:-0.391304 2:-0.5 3:-1 4:-0.6875 5:-1 6:-0.790563 7:-0.780335 8:-0.781818 9:-0.790563 10:-0.803922 11:-0.765487 12:-0.764706 13:-0.757083 14:-0.857143 15:1 16:-1 17:0.714637 18:-0.960784 19:-1 20:-0.904762 21:-0.555556 22:-0.548387 23:-0.142857 
1 1:-0.478261 2:-0.653846 3:1 4:-0.979167 5:-0.797468 6:-0.757083 7:-0.757083 8:-0.927273 9:-0.757083 10:-0.803922 11:-0.792655 12:-1 13:-0.771734 14:-0.714286 15:0.714637 16:-0.84 17:1 18:-1 19:-0.545455 20:-0.52381 21:-1 22:-0.870968 23:-0.857143 24:-1 
1 1:-0.565217 2:-0.711538 3:-1 4:-0.666667 5:-0.924051 6:-0.765479 7:-0.794768 8:-0.709091 9:-0.765479 10:-1 11:-0.769634 12:-1 13:-0.792667 14:-0.714286 15:0.714637 16:-0.84 17:0.714637 18:-0.647059 19:-0.727273 20:-0.809524 21:-0.555556 22:-0.870968 23:-1 24:-1 
1 1:-0.130435 2:0.307692 3:1 4:-0.8125 5:0.468354 6:-0.786378 7:-0.771755 8:-0.927273 9:-0.759203 10:-0.764706 11:-0.765487 12:-0.647059 13:-0.759211 14:-1 15:1 16:-0.92 17:0.8639 18:-0.764706 19:0.181818 20:-0.714286 21:0.333333 22:0.16129 23:-0.571429 24:-1 
1 1:-0.391304 2:-0.692308 3:1 4:-0.875 5:-0.620253 6:-0.759203 7:-0.759203 8:-0.781818 9:-0.761295 10:-0.882353 11:-0.765487 12:-0.764706 13:-0.757104 14:-0.571429 15:1 16:-1 17:0.628813 18:-1 19:-1 20:-0.904762 21:-0.777778 22:-0.935484 23:-0.571429 24:-1 
1 1:-0.130435 2:-0.634615 3:-1 4:-0.708333 5:-1 6:-0.790575 7:-0.750834 8:-0.927273 9:-0.790575 10:-0.803922 11:-0.761295 12:-0.764706 13:-0.786378 14:-0.714286 15:0.763148 16:-1 17:0.949607 18:-0.647059 19:-0.818182 20:-0.809524 21:-0.111111 22:-0.741935 23:-0.857143 24:1 
1 1:-0.130435 2:-0.307692 3:-1 4:-0.375 5:-0.696203 6:-0.757102 7:-0.782224 8:-0.963636 9:-0.757102 10:-0.686275 11:-0.757104 12:-0.764706 13:-0.759211 14:-1 15:0.763148 16:-1 17:0.8639 18:-0.764706 19:-0.636364 20:-0.809524 21:-0.111111 22:-0.354839 23:-0.571429 
1 1:-0.478261 2:-0.653846 3:-1 4:-0.666667 5:-1 6:-0.796855 7:-0.796855 8:-0.963636 9:-0.796855 10:-0.333333 11:-0.74665 12:-0.647059 13:-0.792655 14:-0.857143 15:1 16:-0.84 17:0.628813 18:-0.921569 19:-1 20:-0.428571 21:-1 22:-0.741935 23:-0.571429 24:-1 
1 1:-0.391304 2:-0.576923 3:-1 4:-0.666667 5:-0.924051 6:-0.796837 7:-0.773855 8:-0.927273 9:-0.796837 10:-0.72549 11:-0.767577 12:-0.764706 13:-0.79474 14:-1 15:0.763148 16:-1 17:0.763148 18:-0.568627 19:-0.727273 20:-0.809524 21:-0.555556 22:-0.741935 23:-0.857143 24:-1 
1 1:-0.565217 2:-0.461538 3:1 4:-0.854167 5:-0.291139 6:-0.796862 7:-0.796862 8:-0.927273 9:-0.790575 10:-0.647059 11:-0.79683 12:-0.764706 13:-1 14:-0.857143 15:1 16:-0.84 17:0.764997 18:-0.72549 19:-0.909091 20:-0.714286 21:-0.333333 22:-0.290323 23:-0.714286 24:-1 
1 1:-0.217391 2:-0.769231 3:-1 4:-0.791667 5:-1 6:-0.765452 7:-0.79683 8:-0.963636 9:-0.765452 10:-1 11:-0.796862 12:-0.764706 13:-0.771747 14:-0.714286 15:1 16:-1 17:0.714637 18:-0.843137 19:-1 20:-0.904762 21:-0.333333 22:-0.806452 23:-0.571429 24:-1 
1 1:-0.304348 2:-0.576923 3:-1 4:-0.5 5:-0.721519 6:-0.759196 7:-0.792655 8:-0.563636 9:-0.792655 10:-0.960784 11:-0.769642 12:-0.882353 13:-0.765479 14:-1 15:0.8639 16:-0.68 17:1 18:-1 19:-1 20:-0.714286 21:-0.777778 22:-0.677419 23:-0.428571 24:-1 
1 1:-0.217391 2:-0.0961538 3:-1 4:-0.354167 5:-0.670886 6:-0.750834 7:-0.750834 8:-0.927273 9:-0.750834 10:-0.607843 11:-0.782194 12:-0.882353 13:-0.78428 14:-0.857143 15:0.714637 16:-1 17:0.763148 18:-0.882353 19:-0.363636 20:-0.619048 21:-0.777778 22:-0.419355 23:-0.428571 24:-1 
1 1:-0.217391 2:-0.269231 3:-1 4:-0.208333 5:-0.544304 6:-0.792655 7:-0.792655 8:-0.672727 9:-0.761295 10:-0.960784 11:-0.765487 12:-0.764706 13:-0.796855 14:-0.857143 15:1 16:-1 17:0.763148 18:-0.960784 19:-0.545455 20:-0.904762 21:-0.555556 22:-0.225806 23:-0.285714 24:-1 
1 1:-0.391304 2:-0.711538 3:-1 4:-0.708333 5:-0.848101 6:-0.780104 7:-0.780104 8:-0.745455 9:-0.780104 10:-0.960784 11:-0.769634 12:-1 13:-0.752918 14:-1 15:1 16:-1 17:1 18:-1 19:-1 20:-0.904762 21:-1 22:-0.483871 23:-0.571429 24:-1 
1 1:-0.73913 2:-0.865385 3:-1 4:-0.8125 5:-0.848101 6:-0.788456 7:-0.788456 8:-0.672727 9:-0.788456 10:-0.764706 11:-0.792669 12:-0.764706 13:-0.792669 14:-0.857143 15:0.714637 16:-1 17:0.8639 18:-1 19:-1 20:-0.904762 21:-1 22:-0.870968 23:-0.857143 24:-1 
1 1:-0.130435 2:-0.346154 3:1 4:-0.791667 5:-0.139241 6:-0.780104 7:-0.767569 8:-0.781818 9:-0.796864 10:-0.803922 11:-0.792669 12:-0.764706 13:-0.788464 14:-1 15:0.714637 16:-1 17:0.763148 18:-0.686275 19:-1 20:-0.809524 21:-0.111111 22:-0.354839 23:-0.142857 24:-1 
1 1:-0.652174 2:-0.826923 3:-1 4:-0.770833 5:-0.974684 6:-0.780104 7:-0.780104 8:-0.6 9:-0.780104 10:-0.960784 11:-0.765487 12:-0.647059 13:-0.792655 14:-0.285714 15:1 16:-0.92 17:0.763148 18:-0.803922 19:-0.818182 20:-0.809524 21:-1 22:-0.935484 23:-0.857143 24:-1 
1 1:0.391304 2:0.211538 3:1 4:-0.854167 5:-0.392405 6:-0.750834 7:-0.750834 8:-0.963636 9:-0.765479 10:-0.568627 11:-0.780115 12:-0.647059 13:-0.792667 14:-1 15:1 16:-0.68 17:1 18:-0.176471 19:0.545455 20:-0.52381 21:-0.333333 22:-0.0967742 23:-0.714286 24:-1 
1 1:-0.391304 2:-0.615385 3:-1 4:-0.604167 5:-0.797468 6:-0.788452 7:-0.792655 8:-0.781818 9:-0.792655 10:-0.803922 11:-0.757083 12:-0.764706 13:-0.765452 14:-1 15:0.763148 16:-1 17:1 18:-0.960784 19:-0.818182 20:-0.809524 21:-0.777778 22:-0.612903 23:-0.428571 
1 1:-0.304348 2:-0.538462 3:-1 4:-0.479167 5:-0.670886 6:-0.786408 7:-0.780106 8:-0.818182 9:-0.786408 10:-0.803922 11:-0.769634 12:-1 13:-0.788464 14:-1 15:0.763148 16:-0.92 17:1 18:-0.960784 19:-0.727273 20:-0.904762 21:-0.777778 22:-0.483871 23:-0.571429 24:-1 
1 1:-0.0434783 2:0.25 3:1 4:-0.729167 5:-0.189873 6:-0.782224 7:-0.782224 8:-0.963636 9:-0.761295 10:-0.960784 11:-0.759171 12:-0.764706 13:-0.765479 14:-1 15:1 16:-0.76 17:0.714637 18:-0.254902 19:0.272727 20:-0.619048 21:0.111111 22:0.0322581 23:-0.285714 24:-1 
1 1:-0.304348 2:-0.673077 3:1 4:-0.854167 5:-0.594937 6:-0.750834 7:-0.750834 8:-0.963636 9:-0.761295 10:-0.803922 11:-0.769634 12:-1 13:-0.792669 14:-0.714286 15:1 16:-0.68 17:1 18:-0.490196 19:-0.727273 20:-1 21:-0.555556 22:-0.806452 23:-1 24:-1 
1 1:-0.304348 2:-0.326923 3:1 4:-0.895833 5:-0.113924 6:-0.750843 7:-0.750843 8:-0.490909 9:-0.750843 10:-0.960784 11:-0.769634 12:-1 13:-0.788456 14:-0.571429 15:1 16:-0.92 17:0.949607 18:-0.960784 19:-0.818182 20:-1 21:-0.555556 22:-0.419355 24:-1 
1 1:-0.478261 2:-0.615385 3:-1 4:-0.791667 5:-0.873418 6:-0.788456 7:-0.782224 8:-0.963636 9:-0.788456 10:-0.803922 11:-0.769634 12:-1 13:-0.784307 14:-0.714286 15:0.714637 16:-0.92 17:0.630528 18:-1 19:-0.818182 20:-1 21:-0.777778 22:-0.483871 23:-0.714286 24:-1 
1 1:-0.565217 2:-0.596154 3:-1 4:-0.645833 5:-0.822785 6:-0.788462 7:-0.796837 8:-0.854545 9:-0.796837 10:-0.764706 11:-0.796855 12:-0.764706 13:-0.782207 14:-0.571429 15:0.763148 16:-1 17:0.628813 18:-0.843137 19:-0.636364 20:-0.904762 21:-0.777778 22:-0.677419 23:-0.714286 24:-1 
1 1:-0.565217 2:-0.730769 3:1 4:-0.916667 5:-0.797468 6:-0.765452 7:-0.765452 8:-0.818182 9:-0.765452 10:-0.960784 11:-0.765487 12:-0.647059 13:-0.759211 14:-1 15:1 16:-0.92 17:1 18:-0.803922 19:-0.909091 20:-0.904762 21:-0.777778 22:-0.870968 23:-0.714286 24:-1 
1 1:-0.478261 2:-0.634615 3:-1 4:-0.5625 5:-0.797468 6:-0.786378 7:-0.786378 8:-0.236364 9:-0.786378 10:-0.686275 11:-0.759171 12:-0.764706 13:-0.752918 14:-1 15:0.8639 16:-0.76 17:0.628813 18:-0.960784 19:-0.818182 20:-0.809524 21:-1 22:-0.483871 23:-0.571429 24:-1 
1 1:-0.652174 2:-0.615385 3:-1 4:-0.833333 5:-0.974684 6:-0.786385 7:-0.786385 8:-0.709091 9:-0.786385 10:-0.960784 11:-0.757083 12:-0.764706 13:-0.757083 14:-0.285714 15:0.8639 16:-1 17:0.714637 18:-0.921569 19:-0.454545 20:-0.904762 21:-1 22:-0.935484 23:-0.857143 24:-1 
1 1:-0.130435 2:-0.230769 3:-1 4:-0.354167 5:-0.746835 6:-0.761295 7:-0.765458 8:-0.927273 9:-0.796862 10:-0.960784 11:-0.771734 12:-0.647059 13:-0.79474 14:-0.428571 15:0.714637 16:-1 17:1 18:-0.803922 19:-0.727273 20:-0.619048 21:0.111111 22:-0.354839 23:-0.571429 24:-1 
1 1:-0.391304 2:-0.326923 3:-1 4:-0.270833 5:-0.64557 6:-0.750834 7:-0.771747 8:-0.963636 9:-0.780104 10:-0.647059 11:-0.788452 12:-0.882353 13:-0.759211 14:-1 15:0.714689 16:-0.04 17:1 18:-1 19:-0.727273 20:-1 21:-0.111111 22:-0.290323 23:-0.285714 24:-1 
1 1:-0.391304 2:-0.730769 3:-1 4:-0.708333 5:-0.898734 6:-0.780125 7:-0.767535 8:-0.854545 9:-0.761295 10:-0.960784 11:-0.757104 12:-0.882353 13:-0.761295 14:-0.857143 15:0.763148 16:-1 17:0.763148 18:-0.686275 19:-0.909091 20:-0.904762 21:-0.333333 22:-0.741935 23:-1 24:-1 
1 1:0.0434783 2:-0.153846 3:1 4:-0.833333 5:-0.113924 6:-0.782224 7:-0.782224 8:-0.890909 9:-1 10:-0.921569 11:-0.759171 12:-0.764706 13:-0.895293 14:-0.571429 15:1 16:-0.6 17:0.763148 18:-0.686275 19:-0.363636 20:-0.809524 21:0.333333 22:-0.483871 23:-0.714286 24:-1 
1 1:-0.652174 2:-0.846154 3:-1 4:-0.791667 5:-0.898734 6:-0.780104 7:-0.780104 8:-0.636364 9:-0.780104 10:-0.843137 11:-0.74665 12:-0.764706 13:-0.765452 14:-0.857143 15:0.763148 16:-1 17:0.8639 18:-1 19:-1 20:-0.904762 21:-1 22:-0.870968 23:-0.714286 24:-1 
1 1:-0.478261 2:-0.519231 3:1 4:-0.958333 5:-0.670886 6:-0.757083 7:-0.757083 8:-0.927273 9:-0.757083 10:-0.647059 11:-0.765487 12:-0.882353 13:-0.794734 14:-1 15:1 16:-0.84 17:1 18:-0.72549 19:-0.272727 20:-0.619048 21:-1 22:-0.677419 23:-1 24:-1 
1 1:-0.565217 2:-0.557692 3:-1 4:-0.5 5:-0.670886 6:-0.759171 7:-0.759171 8:-0.127273 9:-0.759171 10:-0.490196 11:-0.792655 12:-1 13:-0.767577 14:-0.571429 15:0.763148 16:-0.76 17:0.8639 18:-1 19:-1 20:-0.714286 21:-1 22:-0.612903 23:-0.428571 24:-1 
1 1:-0.565217 2:-0.769231 3:-1 4:-0.729167 5:-0.797468 6:-0.759196 7:-0.759196 8:-0.527273 9:-0.759196 10:-0.686275 11:-0.769634 12:-1 13:-0.765479 14:-1 15:0.763148 16:-0.92 17:1 18:-1 19:-1 20:-1 21:-1 22:-0.612903 23:-0.571429 24:-1 
1 1:-0.565217 2:-0.730769 3:1 4:-0.916667 5:-0.797468 6:-0.765452 7:-0.765452 8:-0.818182 9:-0.765452 10:-0.960784 11:-0.765487 12:-0.647059 13:-0.759211 14:-1 15:1 16:-0.92 17:1 18:-0.803922 19:-0.909091 20:-0.904762 21:-0.777778 22:-0.870968 23:-0.714286 24:-1 
1 1:-0.652174 2:-0.846154 3:-1 4:-0.854167 5:-0.974684 6:-1 7:-1 8:-0.709091 9:-1 10:-0.921569 11:-0.765487 12:-0.882353 13:-0.796851 14:-0.428571 15:0.763148 16:-1 17:0.763148 18:-0.843137 19:-1 20:-1 21:-1 22:-0.935484 23:-0.857143 24:-1 
1 1:-0.391304 2:-0.788462 3:-1 4:-0.729167 5:-0.924051 6:-0.780104 7:-0.780104 8:-0.672727 9:-0.780104 10:-0.960784 11:-0.765487 12:-0.294118 13:-0.759211 14:-1 15:1 16:-0.68 17:0.763148 18:-0.921569 19:-1 20:-0.904762 21:-1 22:-0.806452 23:-0.857143 24:-1 
1 1:-0.565217 2:-0.711538 3:1 4:-0.916667 5:-0.56962 6:-0.780104 7:-0.780104 8:-0.963636 9:-0.780104 10:-0.529412 11:-0.771734 12:-0.764706 13:-0.788464 14:-1 15:0.714637 16:-1 17:0.815289 18:-0.921569 19:-0.818182 20:-0.714286 21:-1 22:-0.741935 23:-0.857143 24:-1 
1 1:-0.391304 2:-0.403846 3:-1 4:-0.354167 5:-0.721519 6:-0.796833 7:-0.788475 8:-0.745455 9:-0.796833 10:-0.568627 11:-0.757083 12:-0.882353 13:-0.748734 14:-0.857143 15:0.714637 16:-1 17:0.628813 18:-0.960784 19:-0.818182 20:-1 21:-0.777778 22:-0.483871 23:-0.571429 24:-1 
1 1:-0.391304 2:-0.538462 3:-1 4:-0.479167 5:-0.56962 6:-0.780104 7:-0.757083 8:-0.963636 9:-0.782224 10:-0.921569 11:-0.788464 12:-0.0588235 13:-0.788464 14:-1 15:0.714637 16:-0.92 17:0.714637 18:-0.803922 19:-0.545455 20:-0.714286 21:-0.111111 22:-0.677419 23:-0.857143 24:-1 
1 1:0.478261 2:-0.192308 3:-1 4:-0.333333 5:-0.873418 6:-0.754989 7:-0.765452 8:-0.927273 9:-0.754989 10:-0.843137 11:-0.788452 12:-0.882353 13:-0.792655 14:-0.857143 15:0.714637 16:-0.6 17:0.8639 18:-0.960784 19:-0.909091 20:-0.714286 21:0.333333 22:-0.548387 23:-0.285714 24:-1 
1 1:-0.217391 2:-0.653846 3:-1 4:-0.583333 5:-0.873418 6:-0.794979 7:-0.794979 8:-0.527273 9:-0.794979 10:-0.921569 11:-0.769634 12:-1 13:-0.765479 14:-1 15:1 16:-0.84 17:0.714637 18:-0.647059 19:-0.818182 20:-1 21:-1 22:-0.612903 23:-0.857143 24:-1 
1 1:-0.478261 2:-0.519231 3:1 4:-0.854167 5:-0.56962 6:-0.761295 7:-0.761295 8:-0.890909 9:-0.761295 10:-0.72549 11:-0.769634 12:-1 13:-0.794768 14:-1 15:1 16:-0.92 17:1 18:-1 19:-0.727273 20:-0.904762 21:-1 22:-0.483871 23:-0.428571 24:-1 
1 1:-0.304348 2:-0.538462 3:1 4:-0.854167 5:-0.518987 6:-0.792655 7:-0.792655 8:-0.854545 9:-0.796833 10:-0.921569 11:-0.761295 12:-0.764706 13:-0.765452 14:-0.857143 15:0.763148 16:-1 17:1 18:-1 19:-0.727273 20:-0.619048 21:-0.555556 22:-0.677419 23:-0.428571 24:-1 
1 1:-0.0434783 2:-0.596154 3:-1 4:-0.791667 5:-1 6:-0.782224 7:-0.780335 8:-0.781818 9:-0.782224 10:-0.960784 11:-0.765487 12:-0.764706 13:-0.767552 14:-0.571429 15:1 16:-1 17:0.8639 18:-0.882353 19:-1 20:-0.809524 21:-0.555556 22:-0.741935 23:-0.571429 24:-1 
1 1:-0.0434783 2:0.288462 3:-1 4:0.1875 5:-1 6:-0.780104 7:-0.771755 8:0.963636 9:-0.780104 10:-0.921569 11:-0.788452 12:-0.764706 13:-0.780104 14:-0.857143 15:1 16:-1 17:0.763148 18:-0.72549 20:0.714286 21:-0.777778 22:-0.290323 23:-0.571429 
1 1:-0.913043 2:-0.807692 3:-1 4:-0.916667 5:-0.949367 6:-1 7:-1 8:-0.818182 9:-1 10:-0.882353 11:-0.759211 12:-0.764706 13:-0.759211 14:-1 15:-1 16:-0.68 17:-1 18:-0.921569 19:-0.636364 20:-0.904762 21:-1 22:-0.677419 23:-1 24:-1 
1 1:-0.652174 2:-0.923077 3:-1 4:-0.895833 5:-1 6:-1 7:-1 8:-0.781818 9:-1 10:-0.960784 11:-0.769634 12:-1 13:-0.765487 14:-0.714286 15:1 16:-0.92 17:0.763148 18:-1 19:-1 20:-1 21:-1 22:-0.935484 23:-0.857143 24:-1 
1 1:-0.391304 2:-0.307692 3:1 4:-0.895833 5:-0.0632911 6:-0.788452 7:-0.788452 8:-0.818182 9:-0.761295 10:-0.215686 11:-0.765487 12:-0.764706 13:-0.788464 14:-1 15:1 16:-1 17:0.681156 18:-0.372549 19:-0.818182 20:-0.714286 21:-0.777778 22:-0.0322581 23:-0.714286 24:-1 
1 1:-0.565217 2:-0.769231 3:-1 4:-0.75 5:-0.898734 6:-0.788456 7:-0.792667 8:-0.781818 9:-0.792667 10:-0.921569 11:-0.765487 12:-0.882353 13:-0.788489 14:-0.714286 15:0.763148 16:-0.92 17:0.8639 18:-1 19:-1 20:-1 21:-0.777778 22:-0.806452 23:-0.714286 24:-1 
1 1:-0.565217 2:-0.5 3:1 4:-0.854167 5:-0.620253 6:-0.761295 7:-0.761295 8:-0.963636 9:-0.771747 10:-0.803922 11:-0.786378 12:-0.529412 13:-0.759211 14:-1 15:1 16:-0.68 17:0.8639 18:-0.686275 19:-0.545455 20:-0.904762 21:-0.777778 22:-0.548387 23:-0.857143 24:-1 
1 1:-0.217391 2:-0.538462 3:-1 4:-0.583333 5:-0.670886 6:-0.780335 7:-0.771763 8:-0.927273 9:-0.780335 10:-0.960784 11:-0.765487 12:-0.882353 13:-0.759211 14:-1 15:0.8639 16:-1 17:1 18:-1 19:-0.818182 20:-1 21:-0.333333 22:-0.548387 23:-0.142857 24:-1 
1 1:-0.391304 2:-0.442308 3:-1 4:-0.708333 5:-1 6:-0.796833 7:-0.790583 8:-0.854545 9:-0.796833 10:-0.764706 11:-0.765487 12:-0.882353 13:-0.788464 14:-1 15:0.763148 16:-0.76 17:0.763148 18:-0.647059 19:-0.727273 20:-0.619048 21:-0.111111 22:-0.419355 23:-1 24:-1 
1 1:-0.304348 2:-0.403846 3:-1 4:-0.3125 5:-0.974684 6:-0.750843 7:-0.780106 8:-0.781818 9:-0.750843 10:-0.843137 11:-0.765487 12:-0.764706 13:-0.794759 14:-0.571429 15:1 16:-1 17:0.949607 18:-0.647059 19:-0.909091 20:-0.904762 21:-0.555556 22:-0.548387 23:-0.428571 24:-1 
1 1:-0.478261 2:-0.653846 3:-1 4:-0.645833 5:-1 6:-0.759211 7:-0.796855 8:-0.963636 9:-0.759211 10:-1 11:-0.74665 12:-0.647059 13:-0.792655 14:-0.714286 15:1 16:-0.84 17:0.628813 18:-0.882353 19:-1 20:-0.428571 21:-0.777778 22:-0.741935 23:-0.571429 24:-1 
1 1:-0.130435 2:-0.442308 3:-1 4:-0.645833 5:-0.721519 6:-0.780125 7:-0.782224 8:-0.927273 9:-0.792655 10:-0.72549 11:-0.786378 12:-0.529412 13:-0.757102 14:-0.428571 15:0.763148 16:-1 17:0.8639 18:-0.843137 19:-0.727273 20:-0.904762 21:-0.333333 22:-0.677419 23:-0.571429 24:-1 
1 1:-0.304348 2:-0.615385 3:-1 4:-0.5625 5:-0.772152 6:-0.775939 7:-0.775931 8:-0.927273 9:-0.788473 10:-0.960784 11:-0.792676 12:-0.882353 13:-0.788452 14:-0.714286 15:0.763148 16:-1 17:0.8639 18:-0.882353 19:-0.909091 20:-0.714286 21:-0.333333 22:-0.677419 23:-0.428571 24:-1 
1 1:-0.478261 2:-0.653846 3:-1 4:-0.604167 5:-0.873418 6:-0.79683 7:-0.79683 8:-0.309091 9:-0.79683 10:-0.803922 11:-0.765487 12:-0.882353 13:-0.759211 14:-1 15:1 16:-0.92 17:0.8639 18:-0.960784 19:-0.909091 20:-1 21:-1 22:-0.612903 23:-0.571429 24:-1 
1 1:-0.0434783 2:-0.557692 3:1 4:-0.625 5:-0.392405 6:-0.796851 7:-0.757083 8:-0.963636 9:-0.757083 10:-0.803922 11:-0.769634 12:-1 13:-0.765487 14:-1 15:1 16:-0.92 17:1 18:-0.921569 19:-0.909091 20:-1 21:-0.333333 22:-0.548387 23:-0.571429 24:-1 
1 1:-0.217391 2:-0.538462 3:1 4:-0.916667 5:-0.392405 6:-0.765452 7:-0.765452 8:-0.563636 9:-0.754989 10:-0.843137 11:-0.792655 12:-1 13:-0.794734 14:-1 15:1 16:-0.84 17:0.8639 18:-1 19:-0.636364 20:-0.904762 21:-0.333333 22:-0.677419 23:-0.571429 24:-1 
1 1:-0.391304 2:-0.423077 3:1 4:-0.75 5:-0.367089 6:-0.79683 7:-0.790575 8:-0.890909 9:-0.752918 10:-0.803922 11:-0.782194 12:-0.882353 13:-0.792655 14:-0.857143 15:0.714689 16:-0.92 17:0.8639 18:-1 19:-0.818182 20:-0.904762 21:-0.555556 22:-0.419355 23:-0.285714 24:-1 
1 1:-0.652174 2:-0.884615 3:-1 4:-0.833333 5:-0.949367 6:-0.780104 7:-0.780104 8:-0.709091 9:-0.780104 10:-0.921569 11:-0.769634 12:-1 13:-0.790563 14:-1 15:0.763148 16:-0.92 17:0.645605 18:-1 19:-1 20:-1 21:-1 22:-0.870968 23:-0.714286 24:-1 
1 1:-0.652174 2:-0.923077 3:1 4:-1 5:-0.848101 6:-0.757083 7:-0.757083 8:-0.963636 9:-0.792655 10:-0.921569 11:-0.794734 12:-0.647059 13:-0.786385 14:-1 15:1 16:-0.92 17:1 18:-1 19:-1 20:-0.904762 21:-0.777778 22:-0.935484 23:-0.857143 24:-1 
1 1:-0.130435 2:-0.0576923 3:-1 4:-0.354167 5:-0.64557 6:-0.773847 7:-0.773847 8:-0.418182 9:-0.773847 10:-0.960784 11:-0.782194 12:-0.882353 13:-0.794734 14:-1 15:0.714637 16:-1 17:1 18:-1 19:-0.0909091 20:-1 21:-0.777778 22:-0.16129 23:0.142857 24:-1 
1 1:-0.478261 2:-0.5 3:1 4:-0.854167 5:-0.468354 6:-0.750834 7:-0.750834 8:-0.963636 9:-0.761303 10:-0.529412 11:-0.759186 12:-0.764706 13:-0.794734 14:-1 15:1 16:-1 17:1 18:-0.686275 19:-0.545455 20:-0.809524 21:-0.777778 22:-0.612903 23:-0.857143 24:-1 
1 1:-0.304348 2:-0.5 3:-1 4:-0.4375 5:-0.721519 6:-0.788462 7:-0.788462 8:-0.0181818 9:-0.788462 10:-0.568627 11:-0.765487 12:-0.882353 13:-0.759211 14:-1 15:0.8639 16:-0.92 17:1 18:-0.921569 19:-0.545455 20:-0.904762 21:-1 22:-0.548387 23:-0.571429 24:-1 
1 1:-0.565217 2:-0.673077 3:1 4:-0.9375 5:-0.544304 6:-0.750843 7:-0.750843 8:-0.745455 9:-0.792655 10:-0.921569 11:-0.765487 12:-0.764706 13:-0.794734 14:-1 15:1 16:-1 17:1 18:-1 19:-0.818182 20:-0.904762 21:-0.555556 22:-0.741935 23:-0.428571 24:-1 
1 1:-0.217391 2:-0.423077 3:-1 4:-0.5 5:-0.848101 6:-0.792655 7:-0.771747 8:-0.418182 9:-0.771747 10:-0.921569 11:-0.74665 12:-0.647059 13:-1 14:-0.857143 15:0.865883 16:-1 17:1 18:-0.843137 19:-1 20:-0.809524 21:-0.777778 22:-0.612903 23:-0.428571 24:-1 
1 1:-0.391304 2:-0.653846 3:-1 4:-0.583333 5:-0.898734 6:-0.792655 7:-0.792655 8:-0.272727 9:-0.792655 10:-0.843137 11:-0.765487 12:-0.294118 13:-0.773855 14:-0.714286 15:1 16:-0.68 17:1 18:-0.882353 19:-0.727273 20:-0.904762 21:-1 22:-0.806452 23:-0.571429 24:-1 
1 1:-0.304348 2:-0.288462 3:-1 4:-0.208333 5:-0.417722 6:-0.765452 7:-0.765452 8:-0.490909 9:-0.765452 10:-0.960784 11:-0.765487 12:-0.764706 13:-0.765458 14:-1 15:1 16:-1 17:0.949607 18:-0.921569 19:-0.454545 20:-0.714286 21:-1 22:-0.225806 23:-0.142857 24:-1 
1 1:-0.478261 2:-0.615385 3:1 4:-0.9375 5:-0.518987 6:-0.757083 7:-0.757083 8:-0.963636 9:-0.757083 10:-0.411765 11:-0.769634 12:-1 13:-0.788464 14:-1 15:0.763148 16:-0.92 17:1 18:-0.843137 19:-0.636364 20:-0.904762 21:-1 22:-0.806452 23:-0.857143 24:-1 
1 1:-0.217391 2:-0.653846 3:-1 4:-0.583333 5:-0.949367 6:-0.794979 7:-0.794979 8:-0.527273 9:-0.794979 10:-0.803922 11:-0.769634 12:-1 13:-0.792684 14:-1 15:1 16:-0.84 17:0.714637 18:-0.529412 19:-0.818182 20:-1 21:-1 22:-0.612903 23:-0.857143 24:-1 
1 1:-0.565217 2:-0.692308 3:-1 4:-0.625 5:-0.797468 6:-0.761295 7:-0.761295 8:-0.345455 9:-0.761295 10:-0.686275 11:-0.765487 12:-0.411765 13:-0.75499 14:-0.714286 15:1 16:-0.76 17:0.8639 18:-1 19:-1 20:-0.619048 21:-1 22:-0.870968 23:-0.714286 24:-1 
1 1:-0.391304 2:-0.557692 3:-1 4:-0.666667 5:-0.822785 6:-0.796833 7:-0.796833 8:-0.418182 9:-0.796833 10:-0.72549 11:-0.759203 12:-0.882353 13:-0.748734 14:-0.857143 15:0.763148 16:-0.84 17:0.8639 18:-0.960784 19:-0.818182 20:-0.809524 21:-1 22:-0.612903 23:-0.571429 24:-1 
1 1:-0.391304 2:-0.480769 3:1 4:-0.916667 5:-0.594937 6:-0.750843 7:-0.750843 8:-0.927273 9:-0.771747 10:-0.647059 11:-0.788452 12:-0.882353 13:-0.771747 14:-0.714286 15:0.681156 16:-0.68 17:1 18:-0.960784 19:-0.909091 20:-1 21:-0.777778 22:-0.548387 23:-0.571429 24:-1 
1 1:-0.130435 2:-0.730769 3:-1 4:-0.833333 5:-0.898734 6:-0.780335 7:-0.757083 8:-0.963636 9:-0.757083 10:-0.882353 11:-0.761295 12:-0.764706 13:-0.792655 14:-0.857143 15:0.763148 16:-1 17:0.763148 18:-0.843137 19:-1 20:-0.904762 21:-0.777778 22:-0.806452 23:-0.714286 24:-1 
1 1:1 2:0.0192308 3:1 4:-0.708333 5:0.265823 6:-0.790583 7:-0.794979 8:-0.927273 9:-1 10:-0.803922 11:-0.765487 12:-0.764706 13:-0.792655 14:-0.714286 15:1 16:-1 17:0.983141 18:-0.960784 19:-0.181818 20:-0.809524 21:0.333333 22:-0.0967742 23:-0.428571 24:-1 
1 1:-0.826087 2:-0.961538 3:-1 4:-0.9375 5:-1 6:-0.788464 7:-0.788464 8:-0.890909 9:-0.788464 10:-1 11:-0.769634 12:-1 13:-0.769634 14:-0.571429 15:0.763148 16:-0.92 17:0.763148 18:-1 19:-1 20:-1 21:-1 22:-0.935484 23:-1 24:-1 
1 1:-0.217391 2:-0.673077 3:-1 4:-0.9375 5:-1 6:-0.761295 7:-0.761295 8:-0.963636 9:-0.761295 10:-0.921569 11:-0.788452 12:-0.882353 13:-0.788452 14:-0.428571 15:1 16:-0.92 17:1 18:-0.843137 19:-0.727273 20:-0.809524 21:-0.555556 22:-0.806452 23:-1 
1 1:-0.391304 2:-0.692308 3:-1 4:-0.625 5:-0.772152 6:-0.794979 7:-0.794979 8:-0.781818 9:-0.794979 10:-0.882353 11:-0.788452 12:-0.764706 13:-0.765452 14:-0.428571 15:0.8639 16:-1 17:0.763148 18:-0.843137 19:-0.818182 20:-0.904762 21:-1 22:-0.870968 23:-0.714286 24:-1 
1 1:-0.478261 2:-0.730769 3:-1 4:-0.666667 5:-0.949367 6:-0.780335 7:-0.780335 8:-0.6 9:-0.780335 10:-0.882353 11:-0.769634 12:-1 13:-0.794768 14:-0.714286 15:1 16:-0.84 17:1 18:-1 19:-1 20:-0.809524 21:-1 22:-0.806452 23:-0.714286 24:-1 
1 1:-0.73913 2:-0.769231 3:-1 4:-0.875 5:-1 6:-0.761295 7:-0.761295 8:-0.927273 9:-0.761295 10:-0.843137 11:-0.788452 12:-0.882353 13:-0.771747 14:-0.714286 15:0.763148 16:-0.76 17:0.763148 18:-0.647059 19:-0.818182 20:-0.904762 21:-1 22:-0.935484 23:-1 24:-1 
1 1:-0.478261 2:-0.673077 3:-1 4:-0.604167 5:-0.822785 6:-0.759169 7:-0.759169 8:-0.672727 9:-0.759169 10:-0.882353 11:-0.757104 12:-0.764706 13:-0.759211 14:-1 15:0.763148 16:-1 17:0.628813 18:-1 19:-0.545455 20:-0.904762 21:-1 22:-0.806452 23:-0.714286 24:-1 
1 1:-0.478261 2:-0.673077 3:1 4:-0.895833 5:-0.670886 6:-0.790575 7:-0.790575 8:-0.890909 9:-0.780106 10:-0.882353 11:-0.769634 12:-1 13:-0.794768 14:-1 15:1 16:-0.84 17:0.983141 18:-1 19:-0.818182 20:-1 21:-0.333333 22:-0.741935 23:-0.714286 
1 1:-0.652174 2:-0.942308 3:-1 4:-0.895833 5:-1 6:-1 7:-1 8:-0.781818 9:-1 10:-0.960784 11:-0.786408 12:-0.764706 13:-0.786408 14:-0.571429 15:0.763148 16:-1 17:0.630528 18:-1 19:-1 20:-0.904762 21:-1 22:-1 23:-0.857143 24:-1 
1 1:-0.478261 2:-0.692308 3:-1 4:-0.645833 5:-0.924051 6:-0.750843 7:-0.796837 8:-0.672727 9:-0.750843 10:-0.843137 11:-0.757083 12:-0.764706 13:-0.796845 14:-1 15:0.8639 16:-1 17:1 18:-1 19:-0.909091 20:-0.904762 21:-0.777778 22:-0.612903 23:-0.714286 24:-1 
1 1:-0.565217 2:-0.807692 3:1 4:-0.958333 5:-0.696203 6:-0.750834 7:-0.750834 8:-0.927273 9:-0.757083 10:-0.843137 11:-0.765487 12:-0.882353 13:-0.788464 14:-1 15:1 16:-0.92 17:1 18:-0.921569 19:-1 20:-0.904762 21:-0.777778 22:-0.741935 23:-0.857143 24:-1 
1 1:-0.652174 2:-0.942308 3:-1 4:-0.895833 5:-0.974684 6:-1 7:-1 8:-0.781818 9:-1 10:-0.921569 11:-0.765487 12:-0.764706 13:-0.796845 14:-1 15:1 16:-1 17:0.763148 18:-1 19:-1 20:-0.904762 21:-1 22:-0.935484 23:-0.857143 24:-1 
1 1:-0.478261 2:-0.461538 3:-1 4:-0.479167 5:-0.949367 6:-0.761295 7:-0.759188 8:-0.890909 9:-0.761295 10:-0.647059 11:-0.765487 12:-0.647059 13:-0.759211 14:-1 15:1 16:-0.92 17:1 18:-1 19:-0.545455 20:-0.714286 21:-0.777778 22:-0.548387 23:-0.428571 24:-1 
1 1:0.0434783 2:-0.230769 3:1 4:-0.875 5:-0.468354 6:-0.780335 7:-0.780335 8:-0.890909 9:-0.780335 10:-0.529412 11:-0.761295 12:-0.764706 13:-0.792655 14:-0.857143 15:0.763148 16:-1 17:0.8639 18:-0.960784 19:-0.636364 20:-0.619048 21:-1 22:-0.419355 23:-0.428571 24:-1 
1 1:-0.478261 2:-0.673077 3:-1 4:-0.6875 5:-0.822785 6:-0.796833 7:-0.782224 8:-0.927273 9:-0.796833 10:-0.921569 11:-0.769634 12:-1 13:-0.771755 14:-0.285714 15:0.714637 16:-0.92 17:0.628813 18:-0.921569 19:-0.818182 20:-0.809524 21:-0.777778 22:-0.741935 23:-0.857143 24:-1 
1 1:-0.565217 2:-0.788462 3:-1 4:-0.729167 5:-1 6:-0.786378 7:-0.786378 8:-0.709091 9:-0.786378 10:-0.803922 11:-0.769634 12:-1 13:-0.794768 14:-1 15:1 16:-0.92 17:0.645605 18:-0.803922 19:-0.727273 20:-0.904762 21:-1 22:-0.741935 23:-0.714286 24:-1 
1 1:-0.565217 2:-0.711538 3:-1 4:-0.645833 5:-0.974684 6:-0.792655 7:-0.792655 8:-0.381818 9:-0.792655 10:-0.960784 11:-0.765487 12:-0.647059 13:1 14:-0.714286 15:1 16:-0.92 17:1 18:-0.921569 19:-0.818182 20:-0.904762 21:-1 22:-0.870968 23:-0.714286 24:-1 
1 1:-0.652174 2:-0.942308 3:-1 4:-0.895833 5:-1 6:-1 7:-1 8:-0.781818 9:-1 10:-0.960784 11:-0.765487 12:-0.647059 13:-0.765487 14:-0.714286 15:1 16:-0.92 17:0.763148 18:-1 19:-1 20:-0.809524 21:-1 22:-1 23:-0.857143 24:-1 
1 1:-0.565217 2:-0.846154 3:-1 4:-0.791667 5:-0.974684 6:-0.765452 7:-0.759203 8:-0.890909 9:-0.765452 10:-0.960784 11:-0.769634 12:-1 13:-0.794768 14:-0.857143 15:0.714637 16:-0.92 17:0.763148 18:-0.960784 19:-1 20:-1 21:-0.777778 22:-0.870968 23:-0.857143 24:-1 
1 1:-0.304348 2:-0.576923 3:-1 4:-0.5 5:-0.797468 6:-0.771747 7:-0.771747 8:-0.636364 9:-0.771747 10:-0.764706 11:-0.765487 12:-0.647059 13:-0.759211 14:-1 15:1 16:-0.92 17:0.8639 18:-0.843137 19:-0.818182 20:-0.809524 21:-1 22:-0.548387 23:-0.571429 24:-1 
1 1:-0.304348 2:-0.538462 3:1 4:-0.854167 5:-0.518987 6:-0.792655 7:-0.792655 8:-0.854545 9:-0.796833 10:-0.960784 11:-0.761295 12:-0.764706 13:-0.757104 14:-0.714286 15:0.763148 16:-1 17:1 18:-1 19:-0.727273 20:-0.619048 21:-0.555556 22:-0.741935 23:-0.428571 24:-1 
1 1:-0.478261 2:-0.692308 3:1 4:-0.958333 5:-0.594937 6:-0.757083 7:-0.757083 8:-0.963636 9:-0.757083 10:-0.490196 11:-0.769634 12:-1 13:-0.788464 14:-1 15:1 16:-0.92 17:0.628813 18:-0.921569 19:-0.727273 20:-0.904762 21:-1 22:-0.677419 23:-0.857143 24:-1 
1 1:-0.478261 2:-0.653846 3:-1 4:-0.729167 5:-0.924051 6:-0.759196 7:-0.759196 8:-0.709091 9:-0.759196 10:-0.921569 11:-0.769634 12:-1 13:-0.788464 14:-1 15:0.763148 16:-0.92 17:0.8639 18:-0.803922 19:-0.636364 20:-1 21:-1 22:-0.483871 23:-0.857143 24:-1 
1 1:-0.652174 2:-0.5 3:-1 4:-0.4375 5:-0.873418 6:-0.765452 7:-0.796862 8:-0.963636 9:-0.765452 10:-0.372549 11:-0.769634 12:-1 13:-0.788464 14:-1 15:0.714637 16:-0.92 17:0.714637 18:-0.254902 19:-0.181818 20:-0.52381 21:-0.777778 22:-0.483871 23:-1 24:-1 
1 1:-0.478261 2:-0.384615 3:-1 4:-0.354167 5:-0.924051 6:-0.792655 7:-0.792655 8:0.127273 9:-0.792655 10:-0.882353 11:-0.792655 12:-1 13:-0.759211 14:-1 15:0.865883 16:-1 17:1 18:-0.215686 19:-0.272727 20:-0.714286 21:-1 22:-0.548387 23:-0.571429 24:-1 
1 1:-0.652174 2:-0.730769 3:-1 4:-0.666667 5:-0.898734 6:-0.788456 7:-0.788456 8:-0.418182 9:-0.788456 10:-0.843137 11:-0.769634 12:-1 13:-0.782173 14:-0.857143 15:1 16:-0.76 17:0.8639 18:-1 19:-1 20:-1 21:-1 22:-0.612903 23:-0.428571 24:-1 
1 1:-0.565217 2:-0.711538 3:1 4:-0.875 5:-0.670886 6:-0.780335 7:-0.780335 8:-0.890909 9:-0.780335 10:-0.843137 11:-0.757102 12:-0.764706 13:-0.759211 14:-1 15:1 16:-0.92 17:0.949607 18:-1 19:-0.727273 20:-0.904762 21:-1 22:-0.806452 23:-0.714286 
1 1:-0.478261 2:-0.807692 3:1 4:-0.979167 5:-0.746835 6:-0.782224 7:-0.782224 8:-0.927273 9:-0.765452 10:-0.764706 11:-0.769634 12:-1 13:-0.761295 14:-0.857143 15:0.681156 16:-0.76 17:0.630528 18:-0.921569 19:-1 20:-1 21:-0.777778 22:-0.935484 23:-0.857143 24:-1 
1 1:-0.565217 2:-0.942308 3:1 4:-1 5:-0.949367 6:-0.792655 7:-0.792655 8:-0.890909 9:-0.792655 10:-0.960784 11:-0.794734 12:-0.764706 13:-0.794734 14:-1 15:1 16:-1 17:1 18:-1 19:-1 20:-0.904762 21:-1 22:-0.935484 23:-0.857143 24:-1 
1 1:-0.565217 2:-0.826923 3:-1 4:-0.875 5:-1 6:-1 7:-1 8:-0.745455 9:-1 10:-0.960784 11:-0.765487 12:-0.882353 13:-0.765464 14:-0.571429 15:0.763148 16:-1 17:0.763148 18:-0.843137 19:-1 20:-1 21:-1 22:-0.806452 23:-1 24:-1 
1 1:-0.217391 2:-0.346154 3:-1 4:-0.3125 5:-0.822785 6:-0.796833 7:-0.752927 8:-0.890909 9:-0.796833 10:-0.764706 11:-0.765487 12:-0.764706 13:-0.759211 14:-1 15:1 16:-1 17:0.8639 18:-0.960784 19:-0.363636 20:-0.619048 21:-0.777778 22:-0.677419 23:-0.428571 24:-1 
1 1:-0.478261 2:-0.846154 3:-1 4:-0.833333 5:-1 6:-0.782224 7:-0.782224 8:-0.745455 9:-0.782224 10:-0.960784 11:-0.784307 12:-0.764706 13:-0.788464 14:-1 15:0.763148 16:-1 17:0.714637 18:-0.843137 19:-1 20:-0.809524 21:-1 22:-0.806452 23:-0.714286 24:-1 
1 1:-0.652174 2:-0.846154 3:-1 4:-0.8125 5:-1 6:-1 7:-1 8:-0.636364 9:-1 10:-0.960784 11:-0.792684 12:-0.764706 13:-0.763492 14:-0.857143 15:0.714637 16:-0.52 17:0.714637 18:-0.960784 19:-0.818182 20:-0.904762 21:-1 22:-0.806452 23:-1 24:-1 
1 1:-0.826087 2:-0.961538 3:-1 4:-0.9375 5:-1 6:-1 7:-1 8:-0.854545 9:-1 10:-0.960784 11:-0.765487 12:-0.882353 13:-0.792669 14:-0.857143 15:0.714637 16:-1 17:0.714637 18:-0.960784 19:-1 20:-0.904762 21:-1 22:-0.935484 23:-1 24:-1 
1 1:-0.73913 2:-0.846154 3:-1 4:-0.8125 5:-1 6:-0.788477 7:-0.788477 8:-0.709091 9:-0.788477 10:-0.960784 11:-0.765487 12:-0.882353 13:-0.759211 14:-1 15:0.763148 16:-0.76 17:0.763148 18:-0.843137 19:-1 20:-1 21:-1 22:-0.870968 23:-1 24:-1 
1 1:-0.652174 2:-0.903846 3:-1 4:-0.854167 5:-1 6:-1 7:-1 8:-0.709091 9:-1 10:-0.960784 11:-0.765487 12:-0.647059 13:-0.765464 14:-0.857143 15:1 16:-0.92 17:0.763148 18:-0.921569 19:-1 20:-0.904762 21:-1 22:-0.870968 23:-0.857143 24:-1 
1 1:-0.391304 2:-0.365385 3:1 4:-0.770833 5:-0.341772 6:-0.780335 7:-0.780335 8:-0.781818 9:-0.788452 10:-0.843137 11:-0.761295 12:-0.764706 13:-0.788489 14:-0.714286 15:0.763148 16:-1 17:0.8639 18:-1 19:-0.727273 20:-0.428571 21:-0.777778 22:-0.677419 23:-0.428571 24:-1 
1 1:-0.478261 2:-0.596154 3:-1 4:-0.541667 5:-0.949367 6:-0.788456 7:-0.792655 8:-0.236364 9:-0.792655 10:-0.960784 11:-0.765487 12:-0.764706 13:-0.765452 14:-0.142857 15:1 16:-1 17:0.8639 18:-0.607843 19:-0.636364 20:-0.714286 21:-0.777778 22:-0.806452 23:-0.571429 24:-1 
1 1:-0.652174 2:-0.692308 3:-1 4:-0.625 5:-0.974684 6:-0.761295 7:-0.761295 8:-0.345455 9:-0.761295 10:-0.960784 11:-0.788452 12:-0.764706 13:-0.761295 14:-0.857143 15:1 16:-1 17:0.763148 18:-0.529412 19:-0.818182 20:-0.619048 21:-1 22:-0.806452 23:-0.857143 24:-1 
1 1:-0.217391 2:-0.230769 3:1 4:-0.666667 5:0.0632911 6:-0.796851 7:-0.771755 8:-0.927273 9:-0.796862 10:-0.529412 11:-0.765487 12:-0.647059 13:-0.773826 14:-0.285714 15:0.645605 16:-1 17:1 18:-0.72549 19:-0.818182 20:-0.904762 21:-0.111111 22:-0.419355 23:-0.142857 24:-1 
1 1:0.0434783 2:0.0384615 3:1 4:-0.5625 5:0.0886076 6:-0.761295 7:-0.750834 8:-0.927273 9:-0.792655 10:-0.568627 11:-0.788452 12:-0.882353 13:-0.786385 14:-1 15:0.8639 16:-1 17:0.714689 18:-1 19:-0.181818 20:-0.714286 21:-0.333333 22:-0.225806 23:-0.142857 24:-1 
1 1:-0.304348 2:-0.384615 3:-1 4:-0.5 5:-0.848101 6:-0.796837 7:-0.796833 8:-0.927273 9:-0.796837 10:-0.882353 11:-0.765487 12:-0.647059 13:-0.759211 14:-1 15:1 16:-0.92 17:0.763148 18:-0.803922 19:-0.727273 20:-0.904762 21:-0.555556 22:-0.677419 23:-0.428571 24:-1 
1 1:-0.478261 2:-0.826923 3:-1 4:-0.770833 5:-1 6:-0.750843 7:-0.786378 8:-0.672727 9:-0.750843 10:-0.960784 11:-0.788452 12:-0.764706 13:-0.794734 14:-1 15:0.8639 16:-1 17:0.628813 18:-0.843137 19:-1 20:-0.904762 21:-0.777778 22:-0.870968 23:-0.714286 24:-1 
1 1:-0.304348 2:-0.134615 3:1 4:-0.895833 5:-0.544304 6:-0.790563 7:-0.790563 8:-0.890909 9:-0.790563 10:-0.607843 11:-0.765487 12:-0.529412 13:-0.759211 14:-1 15:1 16:-0.84 17:0.8639 18:-1 19:-0.363636 20:-0.904762 21:-0.777778 22:-0.225806 23:-0.428571 24:-1 
1 1:-0.826087 2:-0.961538 3:-1 4:-0.9375 5:-1 6:-1 7:-1 8:-0.854545 9:-1 10:-0.960784 11:-0.759211 12:-0.647059 13:-0.759211 14:-1 15:0.763148 16:-0.92 17:0.763148 18:-1 19:-1 20:-0.809524 21:-1 22:-1 23:-1 24:-1 
1 1:-0.391304 2:-0.288462 3:1 4:-0.895833 5:-0.0379747 6:-0.796864 7:-0.796864 8:-0.854545 9:-0.759196 10:-0.372549 11:-0.792684 12:-0.764706 13:-0.788464 14:-1 15:1 16:-0.84 17:0.628813 18:-0.921569 19:-0.363636 20:-0.714286 21:-0.555556 22:-0.16129 23:-0.714286 24:-1 
1 1:-0.217391 2:-0.346154 3:-1 4:-0.25 5:-0.873418 6:-0.780104 7:-0.765464 8:-0.345455 9:-0.780104 10:-0.803922 11:-0.765487 12:-0.411765 13:-0.759211 14:-1 15:1 16:-0.76 17:0.8639 18:-0.960784 19:-0.636364 20:-0.809524 21:-0.777778 22:-0.483871 23:-0.428571 24:-1 
1 1:0.0434783 2:-0.576923 3:-1 4:-0.520833 5:-0.772152 6:-0.780335 7:-0.782224 8:-0.672727 9:-0.782224 10:-0.960784 11:-0.757083 12:-0.529412 13:-0.788464 14:-1 15:0.8639 16:-0.84 17:0.763148 18:-0.72549 19:-0.818182 20:-0.809524 21:0.111111 22:-0.741935 23:-0.857143 24:-1 
1 1:-0.565217 2:-0.673077 3:-1 4:-0.604167 5:-0.620253 6:-0.780104 7:-0.780104 8:-0.309091 9:-0.780104 10:-0.411765 11:-0.765487 12:-0.764706 13:-0.759211 14:-1 15:1 16:-1 17:1 18:-1 19:-1 20:-0.904762 21:-1 22:-0.612903 23:-0.285714 24:-1 
1 1:-0.0434783 2:-0.153846 3:-1 4:-0.0833333 5:-0.468354 6:-0.750843 7:-0.786378 8:-0.781818 9:-0.786378 10:-0.72549 11:-0.765487 12:-0.882353 13:-0.759211 14:-1 15:0.763148 16:-1 17:0.8639 18:-0.803922 19:-0.363636 20:-1 21:-0.333333 22:-0.0967742 23:-0.428571 24:-1 
1 1:-0.565217 2:-0.75 3:1 4:-0.979167 5:-0.822785 6:-0.761295 7:-0.761295 8:-0.890909 9:-0.761295 10:-0.882353 11:-0.765487 12:-0.882353 13:-0.759211 14:-1 15:0.763148 16:-0.28 17:0.763148 18:-0.882353 19:-0.818182 20:-1 21:-1 22:-0.677419 23:-1 24:-1 
1 1:-0.652174 2:-0.923077 3:1 4:-0.979167 5:-0.848101 6:-0.796833 7:-0.796833 8:-0.927273 9:-0.757083 10:-0.921569 11:-0.765487 12:-0.882353 13:-0.794734 14:-1 15:1 16:-0.76 17:1 18:-1 19:-1 20:-0.904762 21:-0.777778 22:-0.935484 23:-1 24:-1 
1 1:-0.478261 2:-0.634615 3:-1 4:-0.583333 5:-0.848101 6:-0.792655 7:-0.782224 8:-0.563636 9:-0.792655 10:-0.960784 11:-0.765487 12:-0.764706 13:-0.796832 14:-0.571429 15:1 16:-1 17:0.8639 18:-0.803922 19:-0.818182 20:-0.904762 21:-0.777778 22:-0.677419 23:-0.714286 24:-1 
1 1:-0.73913 2:-0.942308 3:-1 4:-0.895833 5:-1 6:-0.794768 7:-0.794768 8:-0.818182 9:-0.794768 10:-1 11:-0.769642 12:-0.764706 13:-0.771763 14:-0.857143 15:0.763148 16:-0.84 17:0.763148 18:-0.960784 19:-0.909091 20:-0.904762 21:-1 22:-0.935484 23:-1 24:-1 
1 1:-0.73913 2:-0.865385 3:1 4:-0.9375 5:-0.772152 6:-0.780104 7:-0.757083 8:-0.927273 9:-0.757083 10:-0.843137 11:-0.765487 12:-0.882353 13:-0.794734 14:-1 15:0.763148 16:-1 17:1 18:-0.921569 19:-1 20:-1 21:-0.777778 22:-0.870968 23:-0.857143 24:-1 
1 1:-0.826087 2:-0.961538 3:-1 4:-0.916667 5:-0.974684 6:-1 7:-1 8:-0.818182 9:-1 10:-0.921569 11:-0.786385 12:-0.647059 13:-0.786385 14:-1 15:0.763148 16:-0.92 17:0.763148 18:-1 19:-1 20:-0.904762 21:-1 22:-1 23:-1 24:-1 
1 1:-0.217391 2:-0.25 3:1 4:-0.708333 5:-0.594937 6:-0.761295 7:-0.761295 8:-0.963636 9:-0.761295 10:-0.960784 11:-0.769634 12:-1 13:-0.889021 14:-0.857143 15:1 16:-0.76 17:1 18:-0.803922 19:-0.363636 20:-0.714286 21:-0.777778 22:-0.354839 23:-0.571429 24:-1 
1 1:-0.565217 2:-0.769231 3:-1 4:-0.708333 5:-1 6:-1 7:-1 8:-0.454545 9:-1 10:-0.960784 11:-0.765487 12:-0.647059 13:-0.771747 14:-0.571429 15:1 16:-0.92 17:0.8639 18:-0.764706 19:-0.818182 20:-0.904762 21:-1 22:-0.806452 23:-0.714286 24:-1 
1 1:-0.391304 2:-0.673077 3:-1 4:-0.791667 5:-1 6:-1 7:-1 8:-0.6 9:-1 10:-0.960784 11:-0.765487 12:-0.647059 13:-0.794734 14:-1 15:1 16:-0.92 17:0.763148 18:-0.803922 19:-0.818182 20:-0.904762 21:-1 22:-0.612903 23:-0.571429 24:-1 
1 1:-0.73913 2:-0.865385 3:1 4:-0.979167 5:-0.822785 6:-1 7:-1 8:-0.927273 9:-1 10:-0.686275 11:-0.765473 12:-0.882353 13:-0.759211 14:-0.714286 15:-1 16:-0.92 17:-1 18:-0.72549 19:-0.818182 20:-1 21:-1 22:-0.870968 23:-1 24:-1 
1 1:-0.130435 2:-0.75 3:-1 4:-0.854167 5:-1 6:-0.759169 7:-0.765487 8:-0.927273 9:-0.759169 10:-0.882353 11:-0.769634 12:-1 13:-0.765487 14:-0.714286 15:0.714689 16:-0.84 17:0.763148 18:-1 19:-0.909091 20:-1 21:-0.777778 22:-0.806452 23:-0.714286 24:-1 
1 1:-0.391304 2:-0.596154 3:-1 4:-0.645833 5:-1 6:-0.780335 7:-0.754989 8:-0.672727 9:-0.780335 10:-0.764706 11:-0.792684 12:-0.764706 13:-0.790583 14:-0.428571 15:0.8639 16:-0.68 17:0.714637 18:-0.686275 19:-0.545455 20:-0.809524 21:-0.777778 22:-0.677419 23:-0.857143 24:-1 
1 1:-0.565217 2:-0.634615 3:-1 4:-0.708333 5:-0.822785 6:-1 7:-1 8:-0.454545 9:-1 10:-0.686275 11:-0.765487 12:-0.882353 13:-0.889021 14:-0.857143 15:1 16:-0.92 17:0.8639 18:-0.960784 19:-1 20:-1 21:-1 22:-0.677419 23:-0.428571 24:-1 
1 1:-0.652174 2:-0.961538 3:-1 4:-0.916667 5:-1 6:-1 7:-1 8:-0.818182 9:-1 10:-0.960784 11:-0.765487 12:-0.764706 13:-0.794734 14:-1 15:1 16:-1 17:0.763148 18:-1 19:-1 20:-0.904762 21:-1 22:-0.935484 23:-0.857143 24:-1 
1 1:-0.478261 2:-0.673077 3:1 4:-0.916667 5:-0.518987 6:-0.750834 7:-0.750834 8:-0.709091 9:-0.767577 10:-0.764706 11:-0.769634 12:-1 13:-0.788464 14:-1 15:0.714637 16:-0.76 17:1 18:-0.921569 19:-0.909091 20:-1 21:-0.777778 22:-0.548387 23:-0.714286 24:-1 
1 1:-0.391304 2:-0.519231 3:1 4:-0.916667 5:-0.493671 6:-0.750834 7:-0.750834 8:-0.963636 9:-0.750834 10:-0.411765 11:-0.765487 12:-0.647059 13:-0.794734 14:-1 15:1 16:-0.92 17:0.8639 18:-0.960784 19:-0.727273 20:-0.904762 21:-1 22:-0.677419 23:-0.428571 24:-1 
1 1:-0.304348 2:-0.673077 3:1 4:-0.916667 5:-0.822785 6:-0.792655 7:-0.761295 8:-0.927273 9:-0.761295 10:-0.960784 11:-0.765487 12:-0.882353 13:-0.792655 14:-0.857143 15:0.630646 16:-1 17:0.630646 18:-0.882353 19:-0.636364 20:-0.809524 21:-0.777778 22:-0.677419 23:-1 24:-1 
1 1:-0.391304 2:-0.673077 3:1 4:-0.895833 5:-0.56962 6:-1 7:-1 8:-0.781818 9:-1 10:-0.294118 11:-0.765487 12:-0.647059 13:-0.794734 14:-1 15:1 16:-0.92 17:0.8639 18:-1 19:-0.909091 20:-0.904762 21:-1 22:-0.612903 23:-0.571429 24:-1 
1 1:-0.130435 2:0.0961538 3:-1 4:-0.229167 5:-0.924051 6:-0.782224 7:-0.780335 8:-0.745455 9:-0.782224 10:-0.411765 11:-0.759171 12:-0.764706 13:-0.765479 14:-1 15:0.8639 16:-1 17:0.8639 18:-1 19:-0.727273 20:-0.714286 21:0.333333 22:-0.0322581 23:0.142857 24:-1 
1 1:-0.304348 2:-0.211538 3:-1 4:-0.104167 5:-0.64557 6:-0.759203 7:-0.759203 8:-0.672727 9:-0.759203 10:-0.215686 11:-0.759171 12:-0.764706 13:-0.784307 14:-1 15:1 16:-0.6 17:0.983141 18:-0.803922 19:-0.272727 20:-0.047619 21:-1 22:-0.290323 23:-0.428571 24:-1 
1 1:-0.652174 2:-0.942308 3:-1 4:-0.895833 5:-1 6:-1 7:-1 8:-0.781818 9:-1 10:-0.960784 11:-0.759169 12:-0.764706 13:-0.757083 14:-0.857143 15:1 16:-1 17:0.763148 18:-0.960784 19:-1 20:-0.904762 21:-1 22:-0.935484 23:-0.857143 24:-1 
1 1:-0.826087 2:-0.980769 3:1 4:-1 5:-0.924051 6:-0.761295 7:-0.761295 8:-0.927273 9:-0.761295 10:-0.960784 11:-0.765487 12:-0.882353 13:-0.794768 14:-1 15:-1 16:-1 17:-1 18:-0.882353 19:-1 20:-0.904762 21:-1 22:-0.935484 23:-1 24:-1 
1 1:-0.73913 2:-0.846154 3:1 4:-0.979167 5:-0.873418 6:-0.757083 7:-0.757083 8:-0.927273 9:-0.757083 10:-0.921569 11:-0.765487 12:-0.882353 13:-0.786378 14:-1 15:1 16:-0.84 17:1 18:-1 19:-1 20:-1 21:-1 22:-0.806452 23:-0.857143 24:-1 
1 1:-0.565217 2:-0.634615 3:1 4:-0.854167 5:-0.493671 6:-0.750834 7:-0.750834 8:-0.745455 9:-0.750834 10:-0.764706 11:-0.788452 12:-0.882353 13:-0.759211 14:-1 15:0.8639 16:-0.76 17:0.983141 18:-1 19:-0.818182 20:-1 21:-1 22:-0.612903 23:-0.571429 24:-1 
1 1:-0.217391 2:-0.365385 3:-1 4:-0.645833 5:-0.848101 6:-0.782224 7:-0.790583 8:-0.927273 9:-0.782224 10:-0.843137 11:-0.757083 12:-0.764706 13:-0.788464 14:-1 15:0.8639 16:-1 17:0.628813 18:-1 19:-0.545455 20:-0.904762 21:0.111111 22:-0.483871 23:-0.428571 24:-1 
1 1:-0.478261 2:-0.384615 3:-1 4:-0.375 5:-0.746835 6:-0.792655 7:-0.792655 8:0.0909091 9:-0.792655 10:-0.607843 11:-0.792655 12:-1 13:-0.771747 14:-0.285714 15:0.865883 16:-1 17:1 18:-0.529412 19:-0.272727 20:-0.714286 21:-1 22:-0.612903 23:-0.571429 24:-1 
1 1:-0.304348 2:-0.673077 3:-1 4:-0.604167 5:-0.924051 6:-0.792655 7:-0.761295 8:-0.636364 9:-0.792655 10:-0.960784 11:-0.765487 12:-0.647059 13:-0.759211 14:-1 15:1 16:-0.92 17:1 18:-1 19:-1 20:-0.904762 21:-0.777778 22:-0.612903 23:-0.428571 24:-1 
1 1:0.130435 2:-0.134615 3:1 4:-0.5 5:0.189873 6:-0.792655 7:-0.750834 8:-0.818182 9:-0.757083 10:-0.843137 11:-0.761295 12:-0.764706 13:-0.786385 14:-1 15:0.763148 16:-1 17:1 18:-0.921569 19:-0.454545 20:-0.714286 21:-0.111111 22:-0.16129 23:0.142857 24:-1 
1 1:-0.0434783 2:-0.115385 3:-1 4:-0.333333 5:-0.620253 6:-0.765452 7:-0.792655 8:-0.745455 9:-0.765452 10:-0.882353 11:-0.765487 12:-0.764706 13:-0.761295 14:-0.285714 15:1 16:-1 17:0.763148 18:-0.764706 19:-0.636364 20:-0.428571 21:-0.555556 22:-0.225806 23:-0.571429 24:-1 
1 1:-0.217391 2:-0.423077 3:-1 4:-0.479167 5:-0.949367 6:-0.792655 7:-0.771747 8:-0.418182 9:-0.792655 10:-0.921569 11:-0.74665 12:-0.647059 13:-0.771747 14:-0.714286 15:0.865883 16:-1 17:1 18:-0.647059 19:-1 20:-0.809524 21:-0.777778 22:-0.548387 23:-0.428571 24:-1 
1 1:-0.478261 2:-0.384615 3:-1 4:-0.291667 5:-0.367089 6:-0.796833 7:-0.796837 8:-0.854545 9:-0.796833 10:-0.843137 11:-0.757083 12:-0.764706 13:-0.765452 14:-1 15:0.714637 16:-1 17:0.714637 18:-0.72549 19:-0.454545 20:-0.142857 21:-0.777778 22:-0.612903 23:-1 24:-1 
1 1:-0.826087 2:-1 3:-1 4:-0.958333 5:-1 6:-1 7:-1 8:-0.890909 9:-1 10:-0.960784 11:-0.794768 12:-0.764706 13:-0.794768 14:-1 15:0.763148 16:-1 17:0.763148 18:-1 19:-1 20:-0.904762 21:-1 22:-1 23:-1 24:-1 
1 1:-0.565217 2:-0.653846 3:-1 4:-0.645833 5:-0.797468 6:-0.752927 7:-0.752927 8:-0.890909 9:-0.752927 10:-0.764706 11:-0.765487 12:-0.764706 13:-0.7801 14:-0.428571 15:1 16:-1 17:0.763148 18:-0.882353 19:-0.545455 20:-0.714286 21:-1 22:-0.935484 23:-0.714286 24:-1 
1 1:-0.652174 2:-0.807692 3:-1 4:-0.75 5:-0.848101 6:-0.792655 7:-0.792655 8:-0.563636 9:-0.792655 10:-0.764706 11:-0.792655 12:-0.529412 13:-0.788464 14:-1 15:0.763148 16:-1 17:0.714637 18:-1 19:-1 20:-0.809524 21:-1 22:-0.806452 23:-0.571429 24:-1 
1 1:-0.478261 2:-0.538462 3:1 4:-0.875 5:-0.417722 6:-0.782224 7:-0.782224 8:-0.672727 9:-0.782224 10:-0.686275 11:-0.765487 12:-0.882353 13:-0.759211 14:-1 15:0.8639 16:-0.92 17:0.8639 18:-1 19:-0.818182 20:-1 21:-1 22:-0.677419 23:-0.571429 24:-1 
1 1:-0.304348 2:-0.211538 3:-1 4:-0.104167 5:-0.64557 6:-0.759203 7:-0.759203 8:-0.672727 9:-0.759203 10:-0.215686 11:-0.759171 12:-0.764706 13:-0.784307 14:-1 15:1 16:-0.6 17:0.983141 18:-0.803922 19:-0.272727 20:-0.047619 21:-1 22:-0.290323 23:-0.428571 24:-1 
1 1:-0.652174 2:-0.673077 3:1 4:-0.770833 5:-0.518987 6:-0.790583 7:-0.796864 8:-0.890909 9:-0.796864 10:-0.803922 11:-0.769634 12:-1 13:-0.788464 14:-1 15:0.763148 16:-0.92 17:1 18:-0.803922 19:-1 20:-1 21:-0.777778 22:-0.483871 23:-0.857143 24:-1 
1 1:-0.130435 2:-0.5 3:-1 4:-0.583333 5:-0.873418 6:-0.782224 7:-0.792655 8:-0.854545 9:-0.782224 10:-0.960784 11:-0.759186 12:-0.764706 13:-0.792655 14:-0.428571 15:1 16:-1 17:0.8639 18:-0.921569 19:-0.909091 20:-0.904762 21:-0.777778 22:-0.741935 23:-0.571429 24:-1 
1 1:-0.217391 2:-0.423077 3:-1 4:-0.5625 5:-0.797468 6:-0.780335 7:-0.780104 8:-0.6 9:-0.780335 10:-0.960784 11:-0.769634 12:-1 13:-0.790563 14:-1 15:0.8639 16:-0.76 17:1 18:-1 19:-0.545455 20:-0.809524 21:-0.777778 22:-0.483871 23:-0.142857 24:-1 
1 1:-0.304348 2:-0.134615 3:-1 4:-0.333333 5:-0.670886 6:-0.792655 7:-0.796837 8:-0.818182 9:-0.780104 10:-0.72549 11:-0.757083 12:-0.764706 13:-0.765452 14:-1 15:0.8639 16:-1 17:0.8639 18:-0.686275 19:-0.181818 20:-0.52381 21:-0.333333 22:-0.225806 23:-0.428571 24:-1 
1 1:-0.304348 2:-0.615385 3:1 4:-0.854167 5:-0.670886 6:-0.761295 7:-0.761295 8:-0.745455 9:-0.761295 10:-0.960784 11:-0.769634 12:-1 13:-0.769634 14:-0.142857 15:1 16:-0.92 17:0.9665 18:-0.960784 19:-0.636364 20:-0.904762 21:-0.777778 22:-0.806452 23:-0.571429 24:-1 
1 1:0.217391 2:-0.25 3:-1 4:-0.166667 5:-0.721519 6:-0.782224 7:-0.780106 8:-0.418182 9:-0.792655 10:-0.882353 11:-0.765487 12:-0.764706 13:-0.759171 14:-0.428571 15:1 16:-1 17:0.865883 18:-0.72549 19:-0.545455 20:-0.904762 21:0.111111 22:-0.354839 23:-0.428571 
1 1:-0.217391 2:0.653846 3:1 4:-0.708333 5:0.139241 6:-0.792655 7:-0.792655 8:-1 9:-0.761295 10:-0.960784 11:-0.765487 12:-0.764706 13:-1 14:-0.571429 15:1 16:-1 17:0.714637 18:0.137255 19:0.909091 20:-0.52381 21:0.333333 22:-0.0967742 23:-0.571429 24:-1 
1 1:-0.391304 2:-0.557692 3:-1 4:-0.479167 5:-1 6:-0.790583 7:-0.790583 8:-0.563636 9:-0.790583 10:-0.490196 11:-0.771763 12:-0.647059 13:-0.794734 14:-1 15:0.8639 16:-0.92 17:0.983206 18:-0.490196 19:-0.636364 20:-0.52381 21:-1 22:-0.612903 23:-0.714286 24:-1 
1 1:-0.217391 2:-0.653846 3:1 4:-0.895833 5:-0.493671 6:-1 7:-1 8:-0.781818 9:-1 10:-0.176471 11:-0.788489 12:-0.647059 13:-0.759211 14:-1 15:1 16:-0.84 17:1 18:-1 19:-0.909091 20:-0.809524 21:-1 22:-0.612903 23:-0.428571 24:-1 
1 1:-0.478261 2:-0.5 3:-1 4:-0.416667 5:-0.848101 6:-0.765452 7:-0.757083 8:-0.927273 9:-0.765452 10:-0.764706 11:-0.765487 12:-0.529412 13:-0.759211 14:-1 15:0.714637 16:-1 17:0.714637 18:-1 19:-0.909091 20:-0.904762 21:-0.555556 22:-0.483871 23:-0.428571 24:-1 
1 1:-0.478261 2:-0.807692 3:-1 4:-0.854167 5:-1 6:-1 7:-1 8:-0.709091 9:-1 10:-0.960784 11:-0.769634 12:-1 13:-0.790563 14:-1 15:0.714689 16:-1 17:0.714637 18:-1 19:-1 20:-0.904762 21:-1 22:-0.741935 23:-0.714286 24:-1 
1 1:0.130435 2:-0.0576923 3:1 4:-0.770833 5:-0.291139 6:-1 7:-1 8:-0.890909 9:-0.792655 10:-0.960784 11:-0.765487 12:-0.882353 13:-0.794734 14:-1 15:0.8639 16:-1 17:0.714637 18:-0.686275 19:-0.272727 20:-0.52381 21:0.333333 22:-0.483871 23:-0.714286 24:-1 
1 1:-0.304348 2:-0.557692 3:1 4:-0.854167 5:-0.443038 6:-0.750843 7:-0.750843 8:-0.6 9:-0.750843 10:-0.843137 11:-0.794768 12:-0.764706 13:-0.773847 14:-1 15:1 16:-1 17:0.714637 18:-1 19:-0.909091 20:-0.52381 21:-1 22:-0.741935 24:-1 
1 1:-0.217391 2:-0.134615 3:1 4:-0.979167 5:-0.544304 6:-0.750834 7:-0.750834 8:-0.490909 9:-0.750834 10:-0.882353 11:-0.765487 12:-0.882353 13:-0.794734 14:-1 15:0.763148 16:-1 17:0.714637 18:-1 19:-0.363636 20:-0.809524 21:-0.777778 22:-0.354839 23:-0.285714 24:-1 
1 1:-0.478261 2:-0.538462 3:-1 4:-0.458333 5:-0.620253 6:-0.792655 7:-0.792655 8:-0.309091 9:-0.792655 10:-0.686275 11:-0.792655 12:-1 13:-0.796855 14:-0.714286 15:1 16:-0.84 17:1 18:-0.882353 19:-0.818182 20:-0.904762 21:-1 22:-0.548387 23:-0.285714 24:-1 
1 1:-0.0434783 2:-0.288462 3:-1 4:-0.375 5:-0.493671 6:-0.780104 7:-0.757083 8:-0.963636 9:-0.782224 10:-0.843137 11:-0.769634 12:-1 13:-0.788464 14:-1 15:0.763148 16:-0.92 17:0.628813 18:-0.921569 19:-0.636364 20:-1 21:0.333333 22:-0.290323 23:-0.428571 24:-1 
1 1:-0.913043 2:-0.673077 3:1 4:-0.958333 5:-0.696203 6:-1 7:-1 8:-0.890909 9:-1 10:-0.490196 11:-0.792684 12:-1 13:-0.788464 14:-1 15:-1 16:-0.84 17:-1 18:-0.529412 19:-0.363636 20:-0.904762 21:-1 22:-0.354839 23:-1 24:-1 
1 1:-0.304348 2:-0.0769231 3:1 4:-0.666667 5:-0.21519 6:-0.792684 7:-0.792684 8:-0.927273 9:-0.790583 10:-0.72549 11:-0.765487 12:-0.882353 13:-0.792669 14:-0.857143 15:0.764997 16:-0.92 17:0.714637 18:-1 20:-0.714286 21:-0.555556 22:-0.419355 23:-0.142857 24:-1 
1 1:-0.652174 2:-0.826923 3:-1 4:-0.770833 5:-0.974684 6:-1 7:-1 8:-0.563636 9:-1 10:-0.921569 11:-0.757083 12:-0.764706 13:-0.759211 14:-1 15:0.8639 16:-1 17:0.714637 18:-0.803922 19:-0.818182 20:-0.714286 21:-1 22:-0.870968 23:-0.857143 24:-1 
1 1:-0.652174 2:-0.673077 3:-1 4:-0.604167 5:-0.696203 6:-0.788456 7:-0.794768 8:-0.818182 9:-0.794768 10:-0.921569 11:-0.769642 12:-0.764706 13:-0.752918 14:-1 15:0.763148 16:-0.84 17:0.763148 18:-0.882353 19:-0.818182 20:-0.904762 21:-0.777778 22:-0.548387 23:-0.714286 24:-1 
1 1:-0.478261 2:-0.826923 3:1 4:-0.979167 5:-0.772152 6:-0.761295 7:-0.761295 8:-0.745455 9:-0.761295 10:-0.960784 11:-0.765487 12:-0.882353 13:-0.788452 14:-0.714286 15:1 16:-0.92 17:0.8639 18:-0.921569 19:-1 20:-1 21:-1 22:-0.870968 23:-0.857143 24:-1 
1 1:-0.652174 2:-0.942308 3:-1 4:-0.895833 5:-0.974684 6:-1 7:-1 8:-0.781818 9:-1 10:-0.921569 11:-0.765487 12:-0.764706 13:-0.796845 14:-1 15:1 16:-1 17:0.763148 18:-1 19:-1 20:-0.904762 21:-1 22:-0.935484 23:-0.857143 24:-1 
1 1:-0.304348 2:-0.134615 3:-1 4:-0.354167 5:-0.696203 6:-0.792655 7:-0.796837 8:-0.818182 9:-0.780104 10:-0.72549 11:-0.757083 12:-0.764706 13:-0.790575 14:-0.285714 15:0.8639 16:-1 17:0.8639 18:-0.72549 19:-0.181818 20:-0.52381 21:-0.333333 22:-0.290323 23:-0.428571 24:-1 
1 1:-0.0434783 2:-0.153846 3:1 4:-0.958333 5:-0.0379747 6:-0.796833 7:-0.796833 8:-0.854545 9:-0.782224 10:-0.803922 11:-0.769634 12:-1 13:-0.765479 14:-1 15:0.763148 16:-0.92 17:0.763148 18:-1 19:-0.454545 20:-0.714286 21:-0.111111 22:-0.290323 23:0.142857 24:-1 
1 1:0.130435 2:0.288462 3:1 4:-0.895833 5:-0.240506 6:-0.782224 7:-0.782224 8:-0.927273 9:-0.786378 10:-0.607843 11:-0.792655 12:-1 13:-0.796845 14:-1 15:0.8639 16:-0.76 17:0.8639 18:-0.72549 19:0.272727 20:-0.809524 21:-0.111111 22:0.354839 23:-0.142857 24:-1 
1 1:-0.391304 2:-0.75 3:-1 4:-0.6875 5:-1 6:-0.782224 7:-0.754989 8:-0.818182 9:-0.782224 10:-0.72549 11:-0.757083 12:-0.764706 13:-0.792655 14:-0.714286 15:0.8639 16:-1 17:0.714637 18:-0.607843 19:-0.818182 20:-0.809524 21:-0.555556 22:-0.870968 23:-0.857143 24:-1 
1 1:-0.652174 2:-0.615385 3:-1 4:-0.833333 5:-0.974684 6:-0.786385 7:-0.786385 8:-0.709091 9:-0.786385 10:-0.960784 11:-0.757083 12:-0.764706 13:-0.757083 14:-0.285714 15:0.8639 16:-1 17:0.714637 18:-0.921569 19:-0.454545 20:-0.904762 21:-1 22:-0.935484 23:-0.857143 24:-1 
1 1:0.130435 2:-0.134615 3:1 4:-0.5 5:0.139241 6:-0.792655 7:-0.750834 8:-0.818182 9:-0.757083 10:-0.921569 11:-0.761295 12:-0.764706 13:-0.794734 14:-1 15:0.763148 16:-1 17:1 18:-1 19:-0.454545 20:-0.714286 21:-0.111111 22:-0.16129 23:0.142857 24:-1 
1 1:-0.304348 2:-0.134615 3:-1 4:-0.354167 5:-0.696203 6:-0.792655 7:-0.796837 8:-0.818182 9:-0.780104 10:-0.72549 11:-0.757083 12:-0.764706 13:-0.790575 14:-0.285714 15:0.8639 16:-1 17:0.8639 18:-0.72549 19:-0.181818 20:-0.52381 21:-0.333333 22:-0.290323 23:-0.428571 24:-1 
1 1:-0.652174 2:-0.788462 3:-1 4:-0.729167 5:-0.848101 6:-0.780104 7:-0.792661 8:-0.6 9:-0.792661 10:-0.843137 11:-0.765487 12:-0.647059 13:-0.794734 14:-1 15:1 16:-0.92 17:0.8639 18:-1 19:-1 20:-0.904762 21:-0.777778 22:-0.806452 23:-0.714286 24:-1 
1 1:-0.217391 2:-0.0769231 3:-1 4:-0.333333 5:-0.822785 6:-0.786378 7:-0.786408 8:-0.418182 9:-0.786378 10:-0.882353 11:-0.792684 12:-0.764706 13:-0.765464 14:-0.857143 15:1 16:-0.52 17:0.647303 18:-1 19:-0.0909091 20:-0.619048 21:-0.555556 22:0.16129 23:-0.428571 
1 1:-0.391304 2:-0.692308 3:-1 4:-0.645833 5:-0.746835 6:-0.769663 7:-0.769663 8:-0.381818 9:-0.769663 10:-0.607843 11:-0.757104 12:-0.764706 13:-0.792655 14:-0.857143 15:0.763148 16:-1 17:0.8639 18:-1 19:-0.727273 20:-0.714286 21:-1 22:-0.806452 23:-0.714286 24:-1 
1 1:-0.652174 2:-0.903846 3:-1 4:-0.875 5:-1 6:-0.765479 7:-0.765479 8:-0.781818 9:-0.765479 10:-1 11:-0.769634 12:-1 13:-0.792669 14:-0.571429 15:0.763148 16:-0.92 17:0.628813 18:-1 19:-1 20:-1 21:-1 22:-0.870968 23:-0.857143 24:-1 
1 1:0.217391 2:-0.0769231 3:1 4:-0.75 5:0.0126582 6:-0.750834 7:-0.750834 8:-0.6 9:-0.792667 10:-1 11:-0.759171 12:-0.764706 13:-0.771751 14:-0.571429 15:1 16:-0.84 17:0.8639 18:-0.647059 19:-0.181818 20:-0.333333 21:-0.333333 22:-0.290323 23:-0.857143 24:-1 
1 1:-0.304348 2:-0.134615 3:1 4:-0.895833 5:-0.544304 6:-0.790563 7:-0.790563 8:-0.890909 9:-0.790563 10:-0.607843 11:-0.765487 12:-0.529412 13:-0.759211 14:-1 15:1 16:-0.84 17:0.8639 18:-1 19:-0.363636 20:-0.904762 21:-0.777778 22:-0.225806 23:-0.428571 24:-1 
1 1:0.130435 2:-0.25 3:1 4:-0.875 5:-0.797468 6:-0.792655 7:-0.792655 8:-0.963636 9:-0.792655 10:-0.960784 11:-0.757083 12:-0.764706 13:-0.769671 14:-1 15:0.763148 16:-1 17:1 18:-1 19:-0.454545 20:-0.619048 21:-0.555556 22:-0.290323 23:-0.428571 24:-1 
1 1:-0.478261 2:-0.788462 3:1 4:-0.958333 5:-0.721519 6:-0.790575 7:-0.790575 8:-0.963636 9:-0.790575 10:-0.686275 11:-0.765487 12:-0.764706 13:-0.794734 14:-1 15:1 16:-1 17:0.8639 18:-0.960784 19:-1 20:-0.904762 21:-1 22:-0.806452 23:-0.714286 24:-1 
1 1:-0.0434783 2:-0.192308 3:1 4:-0.770833 5:-0.0632911 6:-0.750834 7:-0.750834 8:-0.963636 9:-0.796862 10:-0.843137 11:-0.765487 12:-0.764706 13:-0.765452 14:-1 15:1 16:-1 17:1 18:0.0196078 20:-0.619048 21:-0.555556 22:-0.483871 23:-0.857143 24:-1 
1 1:-0.391304 2:-0.615385 3:-1 4:-0.541667 5:-1 6:-0.790575 7:-0.780104 8:-0.563636 9:-0.790575 10:-0.686275 11:-0.765487 12:-0.411765 13:-0.792655 14:-0.428571 15:1 16:-0.76 17:0.763148 18:-0.921569 19:-0.818182 20:-0.809524 21:-0.777778 22:-0.806452 23:-0.571429 
1 1:0.73913 2:-0.134615 3:1 4:-0.9375 5:-0.164557 6:-0.765458 7:-0.765458 8:-0.527273 9:-0.780335 10:-0.882353 11:-0.761295 12:-0.764706 13:-0.759211 14:-1 15:0.763148 16:-1 17:1 18:-1 19:-0.545455 20:-0.619048 21:0.111111 22:-0.16129 23:-0.285714 24:-1 
1 1:-0.391304 2:-0.538462 3:-1 4:-0.583333 5:-0.924051 6:-0.780335 7:-0.796862 8:-0.963636 9:-0.780335 10:-0.764706 11:-0.769634 12:-1 13:-0.792684 14:-1 15:0.763148 16:-0.92 17:1 18:-1 19:-0.727273 20:-1 21:-0.555556 22:-0.419355 23:-0.571429 24:-1 
1 1:-0.391304 2:-0.403846 3:1 4:-0.958333 5:-0.367089 6:-0.782224 7:-0.782224 8:-0.927273 9:-0.759196 10:-0.372549 11:-0.765487 12:-0.764706 13:-0.780104 14:-0.142857 15:1 16:-1 17:0.949607 18:-0.843137 19:-0.545455 20:-0.904762 21:-0.777778 22:-0.612903 23:-0.714286 24:-1 
1 1:-0.478261 2:-0.788462 3:-1 4:-0.729167 5:-0.924051 6:-0.750843 7:-0.750843 8:-0.818182 9:-0.750843 10:-0.803922 11:-0.765487 12:-0.764706 13:-0.757083 14:-0.714286 15:1 16:-1 17:1 18:-1 19:-1 20:-0.52381 21:-1 22:-0.935484 23:-0.714286 24:-1 
1 1:-0.0434783 2:-0.0192308 3:-1 4:0.0833333 5:-0.0886076 6:-0.792655 7:-0.790583 8:-0.672727 9:-0.782224 10:-0.882353 11:-0.765487 12:-0.764706 13:-0.788464 14:-1 15:1 16:-1 17:0.8639 18:-0.843137 19:-0.454545 20:-0.714286 21:-0.111111 22:0.0967742 23:-0.285714 24:-1 
1 1:-0.304348 2:-0.5 3:-1 4:-0.5 5:-0.822785 6:-0.794979 7:-0.792655 8:-0.563636 9:-0.794979 10:-0.843137 11:-0.769634 12:-1 13:-0.790563 14:-1 15:1 16:-1 17:0.8639 18:-1 19:-0.818182 20:-1 21:-0.777778 22:-0.419355 23:-0.285714 24:-1 
1 1:-0.217391 2:-0.653846 3:1 4:-0.916667 5:-0.696203 6:-0.782224 7:-0.782224 8:-0.927273 9:-0.757119 10:-0.843137 11:-0.794776 12:-0.764706 13:-0.794734 14:-1 15:0.8639 16:-1 17:0.882388 18:-0.882353 19:-0.818182 20:-0.904762 21:-0.333333 22:-0.677419 23:-0.714286 24:-1 
1 1:-0.826087 2:-0.942308 3:-1 4:-0.895833 5:-1 6:-1 7:-1 8:-0.781818 9:-1 10:-0.960784 11:-0.769634 12:-1 13:-0.794768 14:-1 15:0.714637 16:-0.76 17:0.714637 18:-1 19:-1 20:-1 21:-1 22:-0.870968 23:-1 24:-1 
1 1:0.304348 2:0.0769231 3:1 4:-0.791667 5:-0.0632911 6:-0.788452 7:-0.750834 8:-0.854545 9:-0.780104 10:-0.921569 11:-0.769634 12:-1 13:-0.788464 14:-1 15:0.8639 16:-0.52 17:0.8639 18:-0.921569 19:-0.545455 20:-0.714286 21:0.555556 22:-0.0967742 23:-0.428571 24:-1 
1 1:-0.73913 2:-0.807692 3:1 4:-0.979167 5:-0.797468 6:-1 7:-1 8:-0.927273 9:-1 10:-0.647059 11:-0.765487 12:-0.882353 13:-0.757104 14:-0.714286 15:0.8639 16:-0.92 17:0.8639 18:-0.843137 19:-0.909091 20:-1 21:-1 22:-0.806452 23:-1 24:-1 
1 1:-0.391304 2:-0.576923 3:-1 4:-0.666667 5:-0.797468 6:-0.796837 7:-0.773855 8:-0.927273 9:-0.796837 10:-0.921569 11:-0.767577 12:-0.764706 13:-0.79474 14:-0.285714 15:0.763148 16:-1 17:0.763148 18:-0.764706 19:-0.727273 20:-0.809524 21:-0.555556 22:-0.741935 23:-0.857143 24:-1 
1 1:0.391304 2:0.211538 3:1 4:-0.854167 5:-0.670886 6:-0.750834 7:-0.750834 8:-0.963636 9:-0.765479 10:-1 11:-0.780115 12:-0.647059 13:-0.771751 14:-0.571429 15:1 16:-0.68 17:1 18:-0.607843 19:0.545455 20:-0.52381 21:-0.333333 22:-0.0967742 23:-0.714286 24:-1 
1 1:-0.565217 2:-0.769231 3:-1 4:-0.770833 5:-0.924051 6:-0.790575 7:-0.761295 8:-0.927273 9:-0.790575 10:-0.843137 11:-0.788452 12:-0.882353 13:-0.796862 14:-0.714286 15:0.8639 16:-0.36 17:0.8639 18:-1 19:-1 20:-1 21:-0.777778 22:-0.741935 23:-1 
1 1:-0.391304 2:-0.596154 3:1 4:-0.9375 5:-0.746835 6:-0.780335 7:-0.780335 8:-0.709091 9:-0.780335 10:-0.960784 11:-0.765487 12:-0.764706 13:-0.794734 14:-1 15:1 16:-1 17:1 18:-0.882353 19:-0.909091 20:-0.904762 21:-0.555556 22:-0.677419 23:-0.571429 24:-1 
1 1:-0.565217 2:-0.826923 3:-1 4:-0.875 5:-1 6:-1 7:-1 8:-0.745455 9:-1 10:-0.960784 11:-0.765487 12:-0.882353 13:-0.765464 14:-0.571429 15:0.763148 16:-1 17:0.763148 18:-0.843137 19:-1 20:-1 21:-1 22:-0.806452 23:-1 24:-1 
1 1:0.0434783 2:-0.230769 3:1 4:-0.875 5:-0.443038 6:-0.780335 7:-0.780335 8:-0.890909 9:-0.780335 10:-0.490196 11:-0.761295 12:-0.764706 13:-0.792655 14:-0.857143 15:0.763148 16:-1 17:0.8639 18:-0.921569 19:-0.636364 20:-0.619048 21:-1 22:-0.419355 23:-0.428571 24:-1 
1 1:-0.217391 2:-0.538462 3:-1 4:-0.791667 5:-0.822785 6:-0.792655 7:-0.792655 8:-0.963636 9:-0.792655 10:-0.921569 11:-0.794734 12:-0.647059 13:-0.794734 14:-1 15:0.8639 16:-0.6 17:0.8639 18:-0.921569 19:-0.727273 20:-0.809524 21:-0.333333 22:-0.677419 23:-0.714286 24:-1 
1 1:-0.478261 2:-0.634615 3:1 4:-1 5:-0.797468 6:-0.780104 7:-0.780104 8:-0.890909 9:-0.780104 10:-0.803922 11:-0.765487 12:-0.882353 13:-0.794734 14:-1 15:1 16:-0.52 17:1 18:-1 19:-0.636364 20:-0.619048 21:-0.777778 22:-0.612903 23:-0.857143 24:-1 
1 1:-0.478261 2:-0.788462 3:1 4:-0.958333 5:-0.670886 6:-0.790575 7:-0.790575 8:-0.963636 9:-0.790575 10:-0.607843 11:-0.765487 12:-0.764706 13:-0.794734 14:-0.714286 15:1 16:-1 17:0.8639 18:-0.882353 19:-1 20:-0.904762 21:-1 22:-0.806452 23:-0.714286 24:-1 
1 1:-0.565217 2:-0.730769 3:-1 4:-0.75 5:-0.924051 6:-0.780104 7:-0.765452 8:-0.963636 9:-0.780104 10:-0.882353 11:-0.769634 12:-1 13:-0.790563 14:-1 15:1 16:-0.92 17:0.983141 18:-1 19:-1 20:-1 21:-0.777778 22:-0.612903 23:-0.571429 24:-1 
1 1:-0.0434783 2:-0.423077 3:-1 4:-0.4375 5:-0.974684 6:-0.796833 7:-0.754989 8:-0.781818 9:-0.796833 10:-0.882353 11:-0.757083 12:-0.529412 13:-0.796841 14:-1 15:0.8639 16:-0.84 17:0.8639 18:-0.137255 19:-0.181818 20:-0.52381 21:-0.111111 22:-0.612903 23:-1 24:-1 
1 1:-0.391304 2:-0.403846 3:-1 4:-0.375 5:-0.746835 6:-0.796833 7:-0.788475 8:-0.745455 9:-0.796833 10:-0.568627 11:-0.757083 12:-0.882353 13:-0.748734 14:-0.857143 15:0.714637 16:-1 17:0.628813 18:-1 19:-0.818182 20:-1 21:-0.777778 22:-0.483871 23:-0.571429 24:-1 
1 1:-0.478261 2:-0.711538 3:-1 4:-0.666667 5:-0.949367 6:-0.782224 7:-0.759196 8:-0.709091 9:-0.782224 10:-0.843137 11:-0.769634 12:-1 13:-0.765487 14:-1 15:0.763148 16:-0.92 17:0.628813 18:-1 19:-0.909091 20:-1 21:-0.777778 22:-0.741935 23:-0.714286 24:-1 
1 1:-0.304348 2:-0.403846 3:-1 4:-0.541667 5:-0.670886 6:-0.750834 7:-0.757111 8:-0.890909 9:-0.750834 10:-0.803922 11:-0.769634 12:-1 13:-0.784307 14:-0.428571 15:0.763148 16:-0.92 17:1 18:-0.921569 19:-0.545455 20:-0.904762 21:-0.555556 22:-0.483871 23:-0.714286 24:-1 
1 1:-0.217391 2:-0.576923 3:-1 4:-0.625 5:-0.924051 6:-0.765452 7:-0.792655 8:-0.818182 9:-0.765452 10:-0.960784 11:-0.765487 12:-0.882353 13:-0.759211 14:-1 15:0.763148 16:-0.84 17:1 18:-1 19:-0.909091 20:-0.904762 21:-0.555556 22:-0.483871 23:-0.714286 24:-1 
1 1:-0.304348 2:-0.0961538 3:1 4:-0.958333 5:-0.620253 6:-0.750843 7:-0.750843 8:-0.672727 9:-0.750843 10:-0.843137 11:-0.790592 12:-0.882353 13:-0.794734 14:-1 15:0.763148 16:-0.92 17:0.714637 18:-1 19:-0.454545 20:-0.238095 21:-0.333333 22:-0.290323 23:-0.285714 24:-1 
1 1:-0.565217 2:-0.461538 3:-1 4:-0.375 5:-0.443038 6:-0.79683 7:-0.754989 8:-0.563636 9:-0.754989 10:-0.843137 11:-0.771763 12:-0.764706 13:-0.792655 14:-0.714286 15:0.8639 16:-1 17:0.714637 18:-0.882353 19:-0.818182 20:-0.809524 21:-0.777778 22:-0.548387 23:-0.428571 24:-1 
1 1:-0.565217 2:-0.788462 3:-1 4:-0.729167 5:-1 6:-0.794979 7:-0.794979 8:-0.709091 9:-0.794979 10:-0.803922 11:-0.769634 12:-1 13:-0.792655 14:-0.571429 15:0.763148 16:-0.84 17:0.763148 18:-0.647059 19:-1 20:-0.809524 21:-1 22:-0.870968 23:-1 24:-1 
1 1:-0.478261 2:-0.634615 3:-1 4:-0.583333 5:-0.696203 6:-0.788452 7:-0.788452 8:-0.272727 9:-0.788452 10:-0.529412 11:-0.765487 12:-0.764706 13:-0.792655 14:-0.714286 15:1 16:-1 17:1 18:-1 19:-0.818182 20:-0.904762 21:-1 22:-0.741935 23:-0.285714 24:-1 
1 1:-0.130435 2:0.307692 3:1 4:-0.8125 5:0.468354 6:-0.786378 7:-0.771755 8:-0.927273 9:-0.759203 10:-0.764706 11:-0.765487 12:-0.647059 13:-0.759211 14:-1 15:1 16:-0.92 17:0.8639 18:-0.764706 19:0.181818 20:-0.714286 21:0.333333 22:0.16129 23:-0.571429 24:-1 
1 1:0.478261 3:1 4:-0.916667 5:-0.64557 6:-0.750834 7:-0.750834 8:-0.963636 9:-0.765479 10:-0.921569 11:-0.769634 12:-1 13:-0.794768 14:-1 15:1 16:-0.92 17:1 18:-0.921569 20:-1 21:-0.333333 22:0.0967742 23:-0.142857 24:-1 
1 1:-0.391304 2:-0.692308 3:1 4:-1 5:-0.873418 6:-0.761295 7:-0.761295 8:-0.963636 9:-0.761295 10:-0.843137 11:-0.796864 12:-0.647059 13:-0.796864 14:-0.714286 15:0.8639 16:-0.76 17:0.8639 18:-1 19:-0.636364 20:-0.809524 21:-1 22:-0.741935 23:-1 24:-1 
1 1:-0.304348 2:-0.519231 3:1 4:-0.791667 5:-0.620253 6:-0.780106 7:-0.780106 8:-0.745455 9:-0.794979 10:-0.764706 11:-0.769634 12:-1 13:-0.790563 14:-1 15:1 16:-0.92 17:0.882507 18:-1 19:-0.818182 20:-1 21:-0.555556 22:-0.419355 23:-0.428571 24:-1 
1 1:-0.304348 2:-0.807692 3:-1 4:-0.75 5:-1 6:-0.792655 7:-0.792669 8:-0.745455 9:-0.792655 10:-0.882353 11:-0.765487 12:-0.529412 13:-0.765464 14:-0.857143 15:1 16:-0.84 17:0.763148 18:-0.764706 19:-1 20:-0.809524 21:-0.777778 22:-0.870968 23:-0.857143 24:-1 
1 1:-0.652174 2:-0.846154 3:-1 4:-0.854167 5:-1 6:-1 7:-1 8:-0.709091 9:-1 10:-0.960784 11:-0.765487 12:-0.647059 13:-0.794734 14:-1 15:1 16:-0.92 17:0.647303 18:-0.921569 19:-1 20:-1 21:-1 22:-0.806452 23:-0.857143 24:-1 
1 1:-0.217391 2:-0.192308 3:-1 4:-0.104167 5:-0.240506 6:-0.782224 7:-0.792669 8:-0.781818 9:-0.782224 10:-0.803922 11:-0.769634 12:-1 13:-0.794768 14:-1 15:0.8639 16:-0.92 17:0.628813 18:-0.921569 19:-0.545455 20:-1 21:-0.777778 22:-0.290323 23:-0.571429 24:-1 
1 1:-0.652174 2:-0.538462 3:-1 4:-0.458333 5:-0.594937 6:-0.796862 7:-0.796862 8:-0.927273 9:-0.796862 10:-0.686275 11:-0.769634 12:-1 13:-0.788464 14:-1 15:0.8639 16:-0.84 17:0.714637 18:-0.882353 19:-0.545455 20:-0.904762 21:-1 22:-0.548387 23:-0.714286 24:-1 
1 1:-0.478261 2:-0.711538 3:-1 4:-0.6875 5:-0.924051 6:-0.761295 7:-0.780106 8:-0.745455 9:-0.761295 10:-0.960784 11:-0.788452 12:-0.882353 13:-0.794734 14:-1 15:0.8639 16:-0.92 17:0.763148 18:-0.921569 19:-0.818182 20:-1 21:-0.777778 22:-0.612903 23:-0.714286 24:-1 
1 1:-0.217391 2:-0.711538 3:-1 4:-0.791667 5:-1 6:-0.780335 7:-0.761295 8:-0.890909 9:-0.780335 10:-0.921569 11:-0.765487 12:-0.882353 13:-0.765462 14:-0.857143 15:0.763148 16:-1 17:0.714637 18:-0.803922 19:-0.909091 20:-1 21:-0.777778 22:-0.677419 23:-0.571429 24:-1 
1 1:-0.0434783 2:-0.557692 3:1 4:-0.895833 5:-0.594937 6:-0.790583 7:-0.790583 8:-0.818182 9:-0.757083 10:-0.843137 11:-0.782194 12:-0.882353 13:-0.786385 14:-1 15:0.763148 16:-1 17:0.983141 18:-1 19:-0.727273 20:-1 21:-0.777778 22:-0.548387 23:-0.571429 24:-1 
1 1:-0.391304 2:-0.673077 3:-1 4:-0.604167 5:-0.696203 6:-0.788456 7:-0.788456 8:-0.309091 9:-0.788456 10:-0.529412 11:-0.765487 12:-0.647059 13:-0.759211 14:-1 15:1 16:-0.92 17:0.983141 18:-0.960784 19:-1 20:-0.904762 21:-1 22:-0.677419 23:-0.428571 24:-1 
1 1:-0.217391 2:-0.192308 3:-1 4:-0.104167 5:-0.64557 6:-0.782224 7:-0.792669 8:-0.781818 9:-0.782224 10:-0.176471 11:-0.769634 12:-1 13:-0.765479 14:-1 15:0.8639 16:-0.92 17:0.628813 18:-1 19:-0.545455 20:-1 21:-0.777778 22:-0.290323 23:-0.571429 24:-1 
1 1:-0.391304 2:-0.769231 3:-1 4:-0.708333 5:-0.949367 6:-1 7:-1 8:-0.454545 9:-1 10:-0.882353 11:-0.769634 12:-1 13:-0.765487 14:-1 15:0.714637 16:-0.92 17:0.763148 18:-1 19:-0.818182 20:-1 21:-1 22:-0.677419 23:-0.714286 24:-1 
1 1:-0.565217 2:-0.557692 3:-1 4:-0.5 5:-0.898734 6:-0.761295 7:-0.761295 8:-0.490909 9:-0.761295 10:-0.764706 11:-0.757083 12:-0.529412 13:-0.788464 14:-1 15:0.8639 16:-0.84 17:0.714637 18:-0.607843 19:-0.636364 20:-0.714286 21:-1 22:-0.548387 23:-0.857143 24:-1 
1 1:-0.130435 2:-0.538462 3:-1 4:-0.708333 5:-0.873418 6:-0.792655 7:-0.79474 8:-0.818182 9:-0.792655 10:-0.960784 11:-0.765487 12:-0.882353 13:-0.788489 14:-0.714286 15:0.714637 16:-1 17:0.8639 18:-1 19:-0.909091 20:-0.714286 21:-0.111111 22:-0.548387 23:-0.428571 
1 1:-0.391304 2:-0.711538 3:1 4:-0.895833 5:-0.721519 6:-0.754989 7:-0.780104 8:-0.927273 9:-0.780104 10:-0.843137 11:-0.771734 12:-0.764706 13:-0.794734 14:-1 15:1 16:-1 17:0.8639 18:-1 19:-1 20:-0.904762 21:-0.777778 22:-0.548387 23:-0.571429 24:-1 
1 1:-0.478261 2:-0.788462 3:1 4:-0.958333 5:-0.721519 6:-0.790575 7:-0.790575 8:-0.963636 9:-0.790575 10:-0.686275 11:-0.765487 12:-0.764706 13:-0.794734 14:-1 15:1 16:-1 17:0.8639 18:-0.960784 19:-1 20:-0.904762 21:-1 22:-0.806452 23:-0.714286 24:-1 
1 1:-0.391304 2:-0.365385 3:1 4:-0.770833 5:-0.341772 6:-0.780335 7:-0.780335 8:-0.781818 9:-0.788452 10:-0.843137 11:-0.761295 12:-0.764706 13:-0.788489 14:-0.714286 15:0.763148 16:-1 17:0.8639 18:-1 19:-0.727273 20:-0.428571 21:-0.777778 22:-0.677419 23:-0.428571 24:-1 
1 1:-0.304348 2:-0.807692 3:-1 4:-0.75 5:-1 6:-0.761295 7:-0.761295 8:-0.636364 9:-0.761295 10:-0.921569 11:-0.765487 12:-0.764706 13:-0.759211 14:-1 15:1 16:-1 17:0.628813 18:-0.882353 19:-1 20:-0.904762 21:-1 22:-0.741935 23:-0.571429 24:-1 
1 1:-0.391304 2:-0.576923 3:-1 4:-0.666667 5:-0.797468 6:-0.796837 7:-0.773855 8:-0.927273 9:-0.796837 10:-0.921569 11:-0.767577 12:-0.764706 13:-0.79474 14:-0.285714 15:0.763148 16:-1 17:0.763148 18:-0.764706 19:-0.727273 20:-0.809524 21:-0.555556 22:-0.741935 23:-0.857143 24:-1 
1 1:-0.0434783 2:-0.673077 3:-1 4:-0.8125 5:-1 6:-0.780335 7:-0.761295 8:-0.927273 9:-0.780335 10:-0.960784 11:-0.767577 12:-0.764706 13:-0.759211 14:-1 15:0.763148 16:-1 17:0.763148 18:-0.72549 19:-1 20:-0.809524 21:-0.333333 22:-0.612903 23:-0.571429 24:-1 
1 1:-0.826087 2:-0.961538 3:-1 4:-0.9375 5:-0.974684 6:-1 7:-1 8:-0.854545 9:-1 10:-0.921569 11:-1 12:-0.529412 13:-1 14:-0.714286 15:0.763148 16:-1 17:0.763148 18:-1 19:-1 20:-0.904762 21:-1 22:-1 23:-1 24:-1 
1 1:-0.217391 2:-0.115385 3:-1 4:-0.0208333 5:-0.898734 6:-0.792655 7:-1 8:-0.236364 9:-0.792655 10:-0.843137 11:-0.765487 12:-0.764706 13:-0.788489 14:-0.714286 15:1 16:-1 17:0.8639 18:-1 19:-0.272727 20:-0.714286 21:-0.777778 22:-0.16129 23:-0.571429 24:-1 
1 1:-0.478261 2:-0.153846 3:-1 4:-0.229167 5:-0.822785 6:-0.788456 7:-0.792655 8:-0.818182 9:-0.782224 10:-0.764706 11:-0.769634 12:-1 13:-0.796862 14:-0.714286 15:1 16:-0.92 17:0.763148 18:-1 19:-0.545455 20:-0.904762 21:0.111111 22:-0.354839 24:-1 
1 1:-0.652174 2:-0.846154 3:-1 4:-0.791667 5:-0.924051 6:-0.759203 7:-0.796862 8:-0.963636 9:-0.759203 10:-0.882353 11:-0.769634 12:-1 13:-0.771734 14:-0.857143 15:0.714637 16:-0.92 17:0.865883 18:-1 19:-1 20:-1 21:-0.777778 22:-0.870968 23:-0.714286 24:-1 
1 1:-0.565217 2:-0.711538 3:-1 4:-0.645833 5:-0.924051 6:-0.780106 7:-0.780106 8:-0.563636 9:-0.780106 10:-0.921569 11:-0.765487 12:-0.764706 13:-0.759211 14:-1 15:1 16:-1 17:0.8639 18:-0.686275 19:-0.727273 20:-0.809524 21:-1 22:-0.612903 23:-0.714286 24:-1 
1 1:-0.217391 2:-0.480769 3:1 4:-0.895833 5:-0.265823 6:-0.765452 7:-0.765452 8:-0.818182 9:-0.759203 10:-0.686275 11:-0.765487 12:-0.764706 13:-0.759211 14:-1 15:1 16:-1 17:1 18:-0.921569 19:-0.909091 20:-0.904762 21:-0.777778 22:-0.419355 23:-0.285714 24:-1 
1 1:-0.73913 2:-0.865385 3:1 4:-0.979167 5:-0.822785 6:-1 7:-1 8:-0.927273 9:-1 10:-0.686275 11:-0.765473 12:-0.882353 13:-0.759211 14:-0.714286 15:-1 16:-0.92 17:-1 18:-0.72549 19:-0.818182 20:-1 21:-1 22:-0.870968 23:-1 24:-1 
1 1:-0.73913 2:-0.653846 3:1 4:-0.958333 5:-0.898734 6:-1 7:-1 8:-0.890909 9:-1 10:-0.803922 11:-0.792655 12:-1 13:-0.796845 14:-1 15:-1 16:-0.84 17:-1 18:-0.843137 19:-0.363636 20:-0.333333 21:-1 22:-0.806452 23:-1 24:-1 
1 1:-0.652174 2:-0.846154 3:-1 4:-0.791667 5:-1 6:-1 7:-1 8:-0.6 9:-1 10:-0.960784 11:-0.757083 12:-0.764706 13:-0.788464 14:-1 15:0.8639 16:-1 17:0.714637 18:-0.803922 19:-0.818182 20:-0.904762 21:-1 22:-0.806452 23:-0.857143 24:-1 
1 1:-0.478261 2:-0.788462 3:1 4:-0.9375 5:-0.772152 6:-1 7:-1 8:-0.854545 9:-1 10:-0.607843 11:-0.765487 12:-0.764706 13:-0.794734 14:-1 15:1 16:-1 17:0.8639 18:-1 19:-0.818182 20:-0.714286 21:-1 22:-0.870968 23:-0.571429 24:-1 
1 1:-0.304348 2:-0.557692 3:1 4:-1 5:-0.924051 6:-0.792655 7:-0.792655 8:-0.636364 9:-0.792655 10:-0.72549 11:-0.757083 12:-0.529412 13:-0.757083 14:-0.857143 15:0.763148 16:-1 17:0.763148 18:-0.960784 19:-0.454545 20:-0.809524 21:-1 22:-0.677419 23:-0.857143 24:-1 
1 1:0.0434783 2:-0.596154 3:-1 4:-0.666667 5:-0.873418 6:-0.792655 7:-0.761295 8:-0.927273 9:-0.792655 10:-0.921569 11:-0.792634 12:-0.529412 13:-0.792667 14:-1 15:1 16:-0.76 17:1 18:-1 19:-0.727273 20:-0.52381 21:-0.555556 22:-0.677419 23:-0.571429 24:-1 
1 1:-0.391304 2:-0.865385 3:-1 4:-0.833333 5:-1 6:-1 7:-1 8:-0.672727 9:-1 10:-0.960784 11:-0.765487 12:-0.882353 13:-0.792655 14:-0.428571 15:0.763148 16:-1 17:0.763148 18:-0.921569 19:-1 20:-0.904762 21:-1 22:-0.870968 23:-0.714286 24:-1 
1 1:-0.391304 2:-0.519231 3:1 4:-0.9375 5:-0.56962 6:-1 7:-1 8:-0.854545 9:-1 10:-0.294118 11:-0.757083 12:-0.294118 13:-0.757102 14:-0.714286 15:0.8639 16:-0.84 17:0.714637 18:-0.803922 19:-0.909091 20:-0.904762 21:-1 22:-0.548387 23:-0.857143 24:-1 
1 1:-0.217391 2:-0.134615 3:1 4:-0.75 5:-0.316456 6:-0.792655 7:-0.780104 8:-0.6 9:-0.780104 10:-0.843137 11:-0.788452 12:-0.882353 13:-0.748734 14:-0.857143 15:0.8639 16:-1 17:1 18:-1 19:-0.454545 20:-0.809524 21:-0.555556 22:0.0322581 23:-0.142857 24:-1 
1 1:-0.478261 2:-0.673077 3:1 4:-0.895833 5:-0.822785 6:-0.790575 7:-0.790575 8:-0.890909 9:-0.790575 10:-0.960784 11:-0.769634 12:-1 13:-0.79682 14:-1 15:1 16:-0.84 17:1 18:-0.843137 19:-0.818182 20:-1 21:-0.333333 22:-0.741935 23:-0.714286 
1 1:-0.0434783 2:-0.134615 3:-1 4:-0.145833 5:-0.898734 6:-0.790583 7:-0.765452 8:-0.781818 9:-0.790583 10:-0.372549 11:-0.765487 12:-0.882353 13:-0.759211 14:-1 15:0.763148 16:-1 17:0.8639 18:-1 19:-0.181818 20:-0.619048 21:-0.555556 22:-0.419355 23:-0.142857 24:-1 
1 1:-0.652174 2:-0.903846 3:1 4:-0.979167 5:-0.924051 6:-0.761295 7:-0.761295 8:-0.963636 9:-0.761295 10:-0.960784 11:-0.792655 12:-1 13:-0.794734 14:-1 15:-1 16:-0.92 17:-1 18:-0.882353 19:-1 20:-1 21:-0.777778 22:-0.935484 23:-1 24:-1 
1 1:-0.652174 2:-0.769231 3:-1 4:-0.708333 5:-0.873418 6:-0.788456 7:-0.788456 8:-0.490909 9:-0.788456 10:-0.803922 11:-0.765487 12:-0.764706 13:-0.757083 14:-0.857143 15:1 16:-1 17:0.8639 18:-1 19:-1 20:-0.904762 21:-1 22:-0.741935 23:-0.571429 24:-1 
1 1:-0.304348 2:-0.384615 3:-1 4:-0.3125 5:-0.848101 6:-1 7:-1 8:0.236364 9:-1 10:-0.72549 11:-0.792676 12:-0.882353 13:-0.784307 14:-1 15:0.8639 16:-1 17:0.8639 18:-0.882353 19:-0.818182 20:-0.714286 21:-1 22:-0.354839 23:-0.428571 24:-1 
1 1:-0.478261 2:-0.480769 3:-1 4:-0.4375 5:-0.56962 6:-0.780104 7:-0.780104 8:-0.0181818 9:-0.780104 10:-0.333333 11:-0.792676 12:-0.882353 13:-0.790563 14:-1 15:0.8639 16:-0.92 17:0.763148 18:-0.843137 19:-0.363636 20:-0.904762 21:-1 22:-0.290323 23:-0.714286 24:-1 
1 1:-0.565217 2:-0.673077 3:1 4:-0.833333 5:-0.594937 6:-0.765452 7:-0.765452 8:-0.963636 9:-0.765452 10:-0.72549 11:-0.765487 12:-0.647059 13:-0.786385 14:-0.714286 15:1 16:-0.92 17:1 18:-0.647059 19:-1 20:-0.52381 21:-1 22:-0.677419 23:-0.857143 24:-1 
1 1:-0.565217 2:-0.326923 3:-1 4:-0.229167 5:-0.544304 6:-1 7:-1 8:0.381818 9:-1 10:-0.254902 11:-0.794768 12:-0.764706 13:-0.792655 14:-0.571429 15:1 16:-1 17:0.647303 18:-0.647059 19:-0.454545 20:-0.52381 21:-1 22:-0.419355 23:-0.714286 24:-1 
1 1:-0.478261 2:-0.653846 3:-1 4:-0.729167 5:-0.924051 6:-0.759186 7:-0.759186 8:-0.781818 9:-0.759186 10:-0.372549 11:-0.765487 12:-0.882353 13:-0.788489 14:-0.714286 15:0.763148 16:-1 17:0.8639 18:-1 19:-0.818182 20:-0.904762 21:-1 22:-0.741935 23:-0.571429 24:-1 
1 1:0.130435 2:-0.307692 3:1 4:-0.791667 5:-0.696203 6:-0.796862 7:-0.796837 8:-0.818182 9:-0.796837 10:-0.882353 11:-0.761295 12:-0.764706 13:-0.788464 14:-1 15:1 16:-0.52 17:1 18:-0.686275 19:-0.818182 20:-0.809524 21:-0.111111 22:-0.354839 23:-0.142857 24:-1 
1 1:-0.391304 2:-0.480769 3:-1 4:-0.833333 5:-0.924051 6:-0.761295 7:-0.761295 8:-0.781818 9:-0.761295 10:-0.568627 11:-0.782194 12:-0.882353 13:-0.765452 14:-1 15:0.714689 16:-0.92 17:0.630528 18:-1 19:-1 20:-0.904762 21:-0.555556 22:-0.483871 23:-0.428571 24:-1 
1 1:-0.478261 2:-0.846154 3:-1 4:-0.791667 5:-1 6:-0.780335 7:-0.79683 8:-0.709091 9:-0.780335 10:-0.960784 11:-0.759211 12:-0.764706 13:-0.794734 14:-1 15:0.763148 16:-1 17:1 18:-0.921569 19:-1 20:-0.904762 21:-0.777778 22:-0.806452 23:-0.714286 24:-1 
1 1:-0.73913 2:-0.903846 3:1 4:-0.979167 5:-0.848101 6:-0.757083 7:-0.757083 8:-0.927273 9:-0.757083 10:-0.882353 11:-0.769634 12:-1 13:-0.765487 14:-0.428571 15:1 16:-0.84 17:1 18:-0.960784 19:-1 20:-1 21:-1 22:-0.935484 23:-1 24:-1 
1 1:-0.565217 2:-0.461538 3:-1 4:-0.375 5:-0.392405 6:-0.79683 7:-0.754989 8:-0.563636 9:-0.754989 10:-0.764706 11:-0.771763 12:-0.764706 13:-0.792655 14:-0.428571 15:0.8639 16:-1 17:0.714637 18:-0.960784 19:-0.818182 20:-0.809524 21:-0.777778 22:-0.548387 23:-0.428571 24:-1 
1 1:-0.478261 2:-0.5 3:-1 4:-0.416667 5:-0.898734 6:-0.765452 7:-0.757083 8:-0.927273 9:-0.765452 10:-0.843137 11:-0.765487 12:-0.529412 13:-0.794734 14:-1 15:0.714637 16:-1 17:0.647303 18:-1 19:-0.909091 20:-0.904762 21:-0.555556 22:-0.483871 23:-0.428571 24:-1 
1 1:-0.217391 2:-0.634615 3:-1 4:-0.583333 5:-1 6:-0.780335 7:-0.754989 8:-0.927273 9:-0.780335 10:-0.960784 11:-0.780104 12:-0.411765 13:-0.796855 14:-0.571429 15:0.714637 16:-1 17:0.8639 18:-0.882353 19:-0.727273 20:-0.714286 21:-0.555556 22:-0.677419 23:-0.857143 24:-1 
1 1:-0.130435 2:-0.5 3:-1 4:-0.4375 5:-0.974684 6:-0.780335 7:-0.782224 8:-0.381818 9:-0.780335 10:-0.960784 11:-0.765487 12:-0.764706 13:-0.79474 14:-0.428571 15:1 16:-1 17:0.8639 18:-0.568627 19:-0.909091 20:-0.714286 21:-0.555556 22:-0.612903 23:-0.428571 24:-1 
1 1:-0.304348 2:-0.346154 3:1 4:-0.8125 5:-0.113924 6:-0.782224 7:-0.782224 8:-0.963636 9:-0.786391 10:-0.803922 11:-0.771763 12:-0.764706 13:-0.786378 14:-1 15:0.8639 16:-1 17:0.8639 18:-0.921569 19:-0.636364 20:-0.904762 21:-0.555556 22:-0.419355 23:-0.142857 24:-1 
1 1:1 2:0.0192308 3:1 4:-0.708333 5:0.265823 6:-0.790583 7:-0.794979 8:-0.927273 9:-1 10:-0.803922 11:-0.765487 12:-0.764706 13:-0.765452 14:-0.857143 15:1 16:-1 17:0.983141 18:-0.921569 19:-0.181818 20:-0.809524 21:0.333333 22:-0.0322581 23:-0.428571 24:-1 
1 1:-0.565217 2:-0.807692 3:-1 4:-0.75 5:-0.898734 6:-0.792655 7:-0.792655 8:-0.563636 9:-0.792655 10:-0.843137 11:-0.765487 12:-0.764706 13:-0.765464 14:-0.857143 15:1 16:-1 17:0.8639 18:-1 19:-1 20:-0.904762 21:-1 22:-0.741935 23:-0.571429 24:-1 
1 1:-0.391304 2:-0.711538 3:1 4:-0.958333 5:-0.848101 6:-0.761295 7:-0.761295 8:-0.890909 9:-0.761295 10:-0.960784 11:-0.769634 12:-1 13:-0.771734 14:-0.857143 15:0.628813 16:-0.6 17:0.628813 18:-0.960784 19:-0.909091 20:-0.809524 21:-1 22:-0.806452 23:-0.857143 24:-1 
1 1:-0.478261 2:-0.807692 3:-1 4:-0.75 5:-0.949367 6:-0.796833 7:-0.754989 8:-0.818182 9:-0.796833 10:-0.843137 11:-0.769634 12:-1 13:-0.788464 14:-1 15:1 16:-0.92 17:0.714637 18:-0.803922 19:-0.818182 20:-1 21:-0.777778 22:-0.741935 23:-0.857143 24:-1 
1 1:-0.0434783 2:-0.557692 3:1 4:-0.895833 5:-0.594937 6:-0.790583 7:-0.790583 8:-0.818182 9:-0.757083 10:-0.843137 11:-0.782194 12:-0.882353 13:-0.786385 14:-1 15:0.763148 16:-1 17:0.983141 18:-1 19:-0.727273 20:-1 21:-0.777778 22:-0.548387 23:-0.571429 24:-1 
1 1:-0.478261 2:-0.653846 3:-1 4:-0.583333 5:-0.746835 6:-0.792655 7:-0.792655 8:-0.272727 9:-0.792655 10:-0.607843 11:-0.788452 12:-0.764706 13:-0.759211 14:-1 15:0.8639 16:-1 17:0.8639 18:-1 19:-1 20:-0.904762 21:-1 22:-0.677419 23:-0.285714 24:-1 
1 1:-0.565217 2:-0.730769 3:-1 4:-0.666667 5:-0.822785 6:-0.790583 7:-0.790583 8:-0.709091 9:-0.790583 10:-0.960784 11:-0.769634 12:-1 13:-0.792667 14:-1 15:1 16:-0.84 17:0.8639 18:-0.921569 19:-1 20:-0.904762 21:-1 22:-0.612903 23:-0.571429 24:-1 
1 1:-0.130435 2:-0.384615 3:-1 4:-0.291667 5:-0.594937 6:-0.780104 7:-0.765452 8:-0.854545 9:-0.790583 10:-0.764706 11:-0.794768 12:-0.764706 13:-0.794734 14:-1 15:0.763148 16:-1 17:0.763148 18:-0.843137 19:-0.545455 20:-0.904762 21:-0.333333 22:-0.225806 23:-0.571429 24:-1 
1 1:-0.0434783 2:-0.596154 3:-1 4:-0.791667 5:-1 6:-0.782224 7:-0.780335 8:-0.781818 9:-0.782224 10:-0.960784 11:-0.765487 12:-0.764706 13:-0.767552 14:-0.571429 15:1 16:-1 17:0.8639 18:-0.882353 19:-1 20:-0.809524 21:-0.555556 22:-0.741935 23:-0.571429 24:-1 
1 1:-0.73913 2:-0.942308 3:1 4:-1 5:-0.924051 6:-0.757083 7:-0.757083 8:-0.963636 9:-0.757083 10:-0.921569 11:-0.759211 12:-0.647059 13:-0.759211 14:-1 15:1 16:-0.92 17:1 18:-1 19:-1 20:-0.904762 21:-1 22:-0.935484 23:-1 24:-1 
1 1:-0.391304 2:-0.423077 3:-1 4:-0.5 5:-0.721519 6:-0.780335 7:-0.780335 8:-0.745455 9:-0.780335 10:-0.764706 11:-0.765487 12:-0.647059 13:-0.759211 14:-1 15:0.949607 16:-1 17:0.8639 18:-1 19:-0.909091 20:-0.904762 21:-0.777778 22:-0.419355 23:0.142857 24:-1 
1 1:-0.391304 2:-0.673077 3:-1 4:-0.604167 5:-0.822785 6:-0.780104 7:-0.796833 8:-0.709091 9:-0.780104 10:-0.843137 11:-0.790583 12:-0.764706 13:-0.794734 14:-1 15:0.714637 16:-1 17:0.763148 18:-0.843137 19:-0.727273 20:-0.52381 21:-0.777778 22:-0.806452 23:-0.714286 24:-1 
1 1:-0.565217 2:-0.596154 3:-1 4:-0.645833 5:-0.772152 6:-0.788462 7:-0.796837 8:-0.854545 9:-0.796837 10:-0.843137 11:-0.796855 12:-0.764706 13:-0.782207 14:-0.285714 15:0.763148 16:-1 17:0.628813 18:-0.921569 19:-0.636364 20:-0.904762 21:-0.777778 22:-0.677419 23:-0.714286 24:-1 
1 1:-0.304348 2:-0.461538 3:-1 4:-0.375 5:-0.974684 6:-0.780104 7:-0.780104 8:0.0909091 9:-0.780104 10:-0.960784 11:-0.788452 12:-0.764706 13:-0.796851 14:-0.571429 15:1 16:-1 17:0.763148 18:-1 19:-0.909091 20:-0.904762 21:-1 22:-0.483871 23:0.142857 
1 1:-0.478261 2:-0.673077 3:-1 4:-0.604167 5:-0.746835 6:-0.792655 7:-0.792655 8:-0.309091 9:-0.792655 10:-0.607843 11:-0.769634 12:-1 13:-0.788464 14:-1 15:1 16:-0.84 17:1 18:-1 19:-1 20:-1 21:-1 22:-0.612903 23:-0.285714 24:-1 
1 1:-0.478261 2:-0.730769 3:-1 4:-0.666667 5:-0.974684 6:-0.790583 7:-0.788462 8:-0.745455 9:-0.790583 10:-0.960784 11:-0.792684 12:-0.764706 13:-0.790563 14:-1 15:0.763148 16:-1 17:0.763148 18:-0.960784 19:-0.909091 20:-0.904762 21:-0.777778 22:-0.806452 23:-0.714286 24:-1 
1 1:-0.478261 2:-0.730769 3:-1 4:-0.666667 5:-1 6:-1 7:-1 8:-0.381818 9:-1 10:-0.960784 11:-0.765487 12:-0.764706 13:-0.765452 14:-0.571429 15:1 16:-1 17:0.763148 18:-0.882353 19:-0.818182 20:-0.904762 21:-1 22:-0.806452 23:-0.714286 24:-1 
1 1:-0.130435 2:-0.596154 3:1 4:-0.6875 5:-0.443038 6:-0.796837 7:-0.796837 8:-0.454545 9:-0.796837 10:-0.137255 11:-0.769634 12:-1 13:-0.765452 14:-0.428571 15:1 16:-1 17:0.630528 18:-1 19:-1 20:-1 21:-1 22:-0.483871 23:0.142857 24:-1 
1 1:-0.565217 2:-0.75 3:1 4:-0.833333 5:-0.64557 6:-0.786408 7:-0.786408 8:-0.927273 9:-0.786408 10:-0.843137 11:-0.769634 12:-1 13:-0.769634 14:-0.142857 15:0.628813 16:-0.84 17:0.628813 18:-0.921569 19:-1 20:-1 21:-1 22:-0.935484 23:-0.857143 24:-1 
1 1:-0.130435 2:-0.730769 3:-1 4:-0.833333 5:-0.898734 6:-0.780335 7:-0.757083 8:-0.963636 9:-0.757083 10:-0.882353 11:-0.761295 12:-0.764706 13:-0.792655 14:-0.857143 15:0.763148 16:-1 17:0.763148 18:-0.843137 19:-1 20:-0.904762 21:-0.777778 22:-0.806452 23:-0.714286 24:-1 
1 1:-0.217391 2:-0.634615 3:-1 4:-0.5625 5:-0.873418 6:-0.750843 7:-0.79683 8:-0.490909 9:-0.750843 10:-0.960784 11:-0.765487 12:-0.411765 13:-0.794734 14:-1 15:1 16:-0.76 17:1 18:-0.921569 19:-1 20:-0.904762 21:-0.777778 22:-0.612903 23:-0.428571 24:-1 
1 1:-0.391304 2:-0.769231 3:1 4:-0.979167 5:-0.64557 6:-0.761295 7:-0.761295 8:-0.927273 9:-0.761295 10:-0.568627 11:-0.765487 12:-0.882353 13:-0.769671 14:-1 15:0.8639 16:-0.68 17:0.8639 18:-1 19:-0.818182 20:-0.809524 21:-1 22:-0.741935 23:-0.857143 24:-1 
1 1:-0.478261 2:-0.192308 3:-1 4:-0.0833333 5:-0.620253 6:-0.796862 7:-0.796862 8:-0.636364 9:-0.796862 10:-0.254902 11:-0.792655 12:-1 13:-0.796845 14:-1 15:1 16:-0.76 17:0.8639 18:-0.882353 19:-0.454545 20:-1 21:-1 22:-0.354839 23:-0.428571 24:-1 
1 1:-0.304348 2:-0.557692 3:1 4:-1 5:-0.924051 6:-0.792655 7:-0.792655 8:-0.636364 9:-0.792655 10:-0.72549 11:-0.757083 12:-0.529412 13:-0.757083 14:-0.857143 15:0.763148 16:-1 17:0.763148 18:-0.960784 19:-0.454545 20:-0.809524 21:-1 22:-0.677419 23:-0.857143 24:-1 
1 1:-0.130435 2:-0.5 3:-1 4:-0.5625 5:-0.924051 6:-0.782224 7:-0.792655 8:-0.854545 9:-0.782224 10:-0.843137 11:-0.759186 12:-0.764706 13:-0.792655 14:-0.714286 15:1 16:-1 17:0.8639 18:-1 19:-0.909091 20:-0.904762 21:-0.777778 22:-0.677419 23:-0.571429 24:-1 
1 1:-0.217391 2:-0.557692 3:-1 4:-0.645833 5:-0.797468 6:-0.788456 7:-0.771763 8:-0.781818 9:-0.771734 10:-0.921569 11:-0.765487 12:-0.764706 13:-0.786385 14:-1 15:1 16:-1 17:0.714689 18:-1 19:-1 20:-0.904762 21:-0.555556 22:-0.483871 23:-0.285714 24:-1 
