svm_type c_svc
kernel_type sigmoid
gamma 0.04
coef0 0
nr_class 2
total_sv 1932
rho 16.3384
label 0 1
nr_sv 400 1532
SV
3.88 1:-0.565217 2:-0.722222 3:-1 4:-0.69697 5:-0.975309 6:-0.625802 7:0.373431 8:-0.766234 9:-0.625802 10:-0.921569 11:-0.966999 12:-1 13:-0.870435 14:-1 15:-0.343929 16:-0.95 17:0.999999 18:-0.764706 19:-0.909091 20:-1 21:-1 22:-0.837838 23:-0.857143 24:-1 25:-0.5 
3.88 1:-0.565217 2:-0.722222 3:-1 4:-0.69697 5:-0.975309 6:-0.625802 7:0.373431 8:-0.766234 9:-0.625802 10:-0.921569 11:-0.966999 12:-1 13:-0.870435 14:-1 15:-0.343929 16:-0.95 17:0.999999 18:-0.764706 19:-0.909091 20:-1 21:-1 22:-0.837838 23:-0.857143 24:-1 25:-0.5 
3.88 1:-0.652174 2:-0.777778 3:-1 4:-0.757576 5:-0.975309 6:-0.625802 7:0.373431 8:-0.87013 9:-0.625802 10:-0.921569 11:-0.964881 12:-1 13:-0.870435 14:-1 15:-0.343929 16:-0.95 17:0.389745 18:-0.764706 19:-0.909091 20:-0.904762 21:-1 22:-0.891892 23:-1 24:-1 25:-0.795455 
3.88 1:-0.652174 2:-0.759259 3:-1 4:-0.737374 5:-0.950617 6:-0.625802 7:0.373431 8:-0.844156 9:-0.625802 10:-0.843137 11:-0.964881 12:-1 13:-0.870435 14:-1 15:-0.343929 16:-0.95 17:0.389745 18:-0.764706 19:-0.909091 20:-0.904762 21:-1 22:-0.891892 23:-1 24:-1 25:-0.727273 
3.88 1:-0.565217 2:-0.703704 3:-1 4:-0.676768 5:-0.901235 6:-0.457329 7:0.427552 8:-0.766234 9:-0.457329 10:-0.803922 11:-0.964881 12:-1 13:-0.870435 14:-1 15:-0.343929 16:-0.95 17:0.649575 18:-0.764706 19:-0.909091 20:-0.904762 21:-1 22:-0.837838 23:-0.857143 24:-1 25:-0.727273 
3.88 1:-0.565217 2:-0.722222 3:-1 4:-0.69697 5:-0.975309 6:-0.625802 7:0.373431 8:-0.766234 9:-0.625802 10:-0.921569 11:-0.966999 12:-1 13:-0.870435 14:-1 15:-0.343929 16:-0.95 17:0.999999 18:-0.764706 19:-0.909091 20:-1 21:-1 22:-0.837838 23:-0.857143 24:-1 25:-0.5 
3.88 1:-0.652174 2:-0.777778 3:-1 4:-0.757576 5:-0.975309 6:-0.625802 7:0.373431 8:-0.87013 9:-0.625802 10:-0.921569 11:-0.964881 12:-1 13:-0.870435 14:-1 15:-0.343929 16:-0.95 17:0.389745 18:-0.764706 19:-0.909091 20:-0.904762 21:-1 22:-0.891892 23:-1 24:-1 25:-0.795455 
3.88 1:-0.652174 2:-0.759259 3:-1 4:-0.737374 5:-0.950617 6:-0.625802 7:0.373431 8:-0.844156 9:-0.625802 10:-0.843137 11:-0.964881 12:-1 13:-0.870435 14:-1 15:-0.343929 16:-0.95 17:0.389745 18:-0.764706 19:-0.909091 20:-0.904762 21:-1 22:-0.891892 23:-1 24:-1 25:-0.727273 
3.88 1:-0.565217 2:-0.722222 3:-1 4:-0.69697 5:-0.975309 6:-0.625802 7:0.373431 8:-0.766234 9:-0.625802 10:-0.921569 11:-0.966999 12:-1 13:-0.870435 14:-1 15:-0.343929 16:-0.95 17:0.999999 18:-0.764706 19:-0.909091 20:-1 21:-1 22:-0.837838 23:-0.857143 24:-1 25:-0.5 
3.88 1:-0.304348 2:-0.648148 3:-1 4:-0.616162 5:-0.950617 6:-0.497721 7:0.495398 8:-0.818182 9:-0.497721 10:-0.882353 11:-0.964881 12:-0.764706 13:-0.857449 14:-1 15:0.266326 16:-0.9 17:0.649575 18:-0.764706 19:-0.909091 20:-0.904762 21:-0.555556 22:-0.837838 23:-0.857143 24:-1 25:-0.727273 
3.88 1:-0.304348 2:-0.648148 3:-1 4:-0.616162 5:-0.950617 6:-0.497721 7:0.495398 8:-0.818182 9:-0.497721 10:-0.882353 11:-0.964881 12:-0.764706 13:-0.857449 14:-1 15:0.266326 16:-0.9 17:0.649575 18:-0.764706 19:-0.909091 20:-0.904762 21:-0.555556 22:-0.837838 23:-0.857143 24:-1 25:-0.727273 
3.88 1:-0.304348 2:-0.648148 3:-1 4:-0.616162 5:-0.950617 6:-0.497721 7:0.495398 8:-0.818182 9:-0.497721 10:-0.882353 11:-0.964881 12:-0.764706 13:-0.857449 14:-1 15:0.266326 16:-0.9 17:0.649575 18:-0.764706 19:-0.909091 20:-0.904762 21:-0.555556 22:-0.837838 23:-0.857143 24:-1 25:-0.727273 
3.88 1:-0.478261 2:-0.685185 3:-1 4:-0.676768 5:-0.925926 6:-0.494778 7:0.415522 8:-0.766234 9:-0.494778 10:-0.843137 11:-0.966999 12:-1 13:-0.857449 14:-1 15:-0.0840987 16:-0.95 17:1 18:-0.764706 19:-0.818182 20:-0.904762 21:-1 22:-0.837838 23:-0.714286 24:-1 25:-0.727273 
3.88 1:-0.478261 2:-0.555556 3:1 4:-0.878788 5:-0.506173 6:0.589604 7:0.868163 8:-0.922078 9:0.00748787 10:-0.843137 11:-0.9683 12:-0.764706 13:-0.870435 14:-1 15:0.389745 16:-1 17:-0.22051 18:-0.803922 19:-0.545455 20:-0.809524 21:-0.777778 22:-0.72973 23:-0.571429 24:-1 25:-0.704545 
3.88 1:-0.478261 2:-0.555556 3:1 4:-0.878788 5:-0.506173 6:0.589604 7:0.868163 8:-0.922078 9:0.00748787 10:-0.843137 11:-0.9683 12:-0.764706 13:-0.870435 14:-1 15:0.389745 16:-1 17:-0.22051 18:-0.803922 19:-0.545455 20:-0.809524 21:-0.777778 22:-0.72973 23:-0.571429 24:-1 25:-0.704545 
3.88 1:-0.565217 2:-0.62963 3:1 4:-0.89899 5:-0.530864 6:0.589604 7:0.868163 8:-0.948052 9:-0.110156 10:-0.72549 11:-0.954325 12:-0.764706 13:-0.857449 14:-1 15:0.389745 16:-1 17:0.389745 18:-0.843137 19:-0.727273 20:-0.714286 21:-1 22:-0.72973 23:-0.714286 24:-1 25:-0.568182 
3.88 1:-0.565217 2:-0.62963 3:1 4:-0.89899 5:-0.530864 6:0.589604 7:0.868163 8:-0.948052 9:-0.110156 10:-0.72549 11:-0.954325 12:-0.764706 13:-0.857449 14:-1 15:0.389745 16:-1 17:0.389745 18:-0.843137 19:-0.727273 20:-0.714286 21:-1 22:-0.72973 23:-0.714286 24:-1 25:-0.568182 
3.88 1:-0.391304 2:-0.333333 3:1 4:-0.878788 5:-0.259259 6:0.797495 7:0.934946 8:-0.922078 9:-0.0432995 10:-0.921569 11:-0.975149 12:-0.882353 13:-0.879229 14:-0.857143 15:0.999999 16:-1 17:0.3447 18:-0.568627 19:-0.454545 20:-1 21:-0.333333 22:-0.567568 23:-0.571429 24:-1 25:-0.545455 
3.88 1:-0.391304 2:-0.333333 3:1 4:-0.878788 5:-0.259259 6:0.797495 7:0.934946 8:-0.922078 9:-0.0432995 10:-0.921569 11:-0.975149 12:-0.882353 13:-0.879229 14:-0.857143 15:0.999999 16:-1 17:0.3447 18:-0.568627 19:-0.454545 20:-1 21:-0.333333 22:-0.567568 23:-0.571429 24:-1 25:-0.545455 
3.88 1:-0.0434783 2:0.37037 3:1 4:-0.939394 5:0.0617284 6:0.0894663 7:0.707496 8:-0.87013 9:-0.249512 10:-0.843137 11:-0.966999 12:-1 13:-0.866243 14:-0.857143 15:0.999999 16:-0.95 17:-0.00174038 18:-0.411765 19:-0.0909091 20:-1 21:-0.111111 22:0.297297 23:-0.142857 24:-0.333333 25:0.181818 
3.88 1:-0.0434783 2:0.37037 3:1 4:-0.939394 5:0.0617284 6:0.0894663 7:0.707496 8:-0.87013 9:-0.249512 10:-0.843137 11:-0.966999 12:-1 13:-0.866243 14:-0.857143 15:0.999999 16:-0.95 17:-0.00174038 18:-0.411765 19:-0.0909091 20:-1 21:-0.111111 22:0.297297 23:-0.142857 24:-0.333333 25:0.181818 
3.88 1:-0.0434783 2:0.37037 3:1 4:-0.939394 5:0.0617284 6:0.0894663 7:0.707496 8:-0.87013 9:-0.249512 10:-0.843137 11:-0.966999 12:-1 13:-0.866243 14:-0.857143 15:0.999999 16:-0.95 17:-0.00174038 18:-0.411765 19:-0.0909091 20:-1 21:-0.111111 22:0.297297 23:-0.142857 24:-0.333333 25:0.181818 
3.88 1:-0.0434783 2:0.37037 3:1 4:-0.939394 5:0.0617284 6:0.0894663 7:0.707496 8:-0.87013 9:-0.249512 10:-0.843137 11:-0.966999 12:-1 13:-0.866243 14:-0.857143 15:0.999999 16:-0.95 17:-0.00174038 18:-0.411765 19:-0.0909091 20:-1 21:-0.111111 22:0.297297 23:-0.142857 24:-0.333333 25:0.181818 
3.88 1:-0.217391 2:-0.703704 3:-1 4:-0.717172 5:-0.925926 6:-0.703439 7:0.549479 8:-0.87013 9:-0.703439 10:-0.960784 11:-0.964881 12:-0.764706 13:-0.857184 14:-1 15:0.389745 16:-0.95 17:0.0393206 18:-1 19:-1 20:-1 21:-0.333333 22:-0.783784 23:-0.857143 24:-1 25:-0.704545 
3.88 1:-0.217391 2:-0.703704 3:-1 4:-0.717172 5:-0.925926 6:-0.703439 7:0.549479 8:-0.87013 9:-0.703439 10:-0.960784 11:-0.964881 12:-0.764706 13:-0.857184 14:-1 15:0.389745 16:-0.95 17:0.0393206 18:-1 19:-1 20:-1 21:-0.333333 22:-0.783784 23:-0.857143 24:-1 25:-0.704545 
3.88 1:-0.217391 2:-0.703704 3:-1 4:-0.717172 5:-0.925926 6:-0.703439 7:0.549479 8:-0.87013 9:-0.703439 10:-0.960784 11:-0.964881 12:-0.764706 13:-0.857184 14:-1 15:0.389745 16:-0.95 17:0.0393206 18:-1 19:-1 20:-1 21:-0.333333 22:-0.783784 23:-0.857143 24:-1 25:-0.704545 
3.88 1:-0.130435 2:-0.240741 3:-1 4:-0.252525 5:-0.950617 6:-0.244401 7:0.707495 8:-0.532468 9:-0.244401 10:-0.921569 11:-0.966999 12:-1 13:-0.861464 14:-0.857143 15:0.389745 16:-0.95 17:-0.0840987 18:-0.921569 19:-0.636364 20:-0.619048 21:-0.777778 22:-0.513514 23:-0.571429 24:-1 25:-0.0909091 
3.88 1:-0.304348 2:-0.388889 3:-1 4:-0.535354 5:-0.802469 6:0.463631 7:0.934946 8:-0.948052 9:0.581275 10:-0.921569 11:-0.975149 12:-0.882353 13:-0.87017 14:-1 15:0.389745 16:-1 17:-0.343929 18:-0.960784 19:-0.727273 20:-0.714286 21:-0.555556 22:-0.675676 23:-0.714286 24:-1 25:-0.522727 
3.88 1:-0.130435 2:-0.240741 3:-1 4:-0.252525 5:-0.950617 6:-0.244401 7:0.707495 8:-0.532468 9:-0.244401 10:-0.921569 11:-0.966999 12:-1 13:-0.861464 14:-0.857143 15:0.389745 16:-0.95 17:-0.0840987 18:-0.921569 19:-0.636364 20:-0.619048 21:-0.777778 22:-0.513514 23:-0.571429 24:-1 25:-0.0909091 
1.558568800107909 1:-0.217391 2:-0.407407 3:-1 4:-0.454545 5:-0.901235 6:0.0046856 7:0.973297 8:-0.948052 9:0.0046856 10:-0.843137 11:-0.966999 12:-1 13:-0.87017 14:-1 15:0.389745 16:-0.95 17:-0.0840987 18:-1 19:-0.818182 20:-0.714286 21:-0.555556 22:-0.621622 23:-0.714286 24:-1 25:-0.386364 
3.88 1:-0.304348 2:-0.388889 3:-1 4:-0.535354 5:-0.802469 6:0.463631 7:0.934946 8:-0.948052 9:0.581275 10:-0.921569 11:-0.975149 12:-0.882353 13:-0.87017 14:-1 15:0.389745 16:-1 17:-0.343929 18:-0.960784 19:-0.727273 20:-0.714286 21:-0.555556 22:-0.675676 23:-0.714286 24:-1 25:-0.522727 
3.88 1:-0.130435 2:-0.388889 3:-1 4:-0.414141 5:-0.925926 6:-0.247345 7:0.787371 8:-0.87013 9:-0.247345 10:-0.921569 11:-0.964881 12:-0.764706 13:-0.857184 14:-1 15:0.389745 16:-0.95 17:-0.0840987 18:-1 19:-0.818182 20:-0.714286 21:-0.333333 22:-0.675676 23:-0.714286 24:-1 25:-0.477273 
3.88 1:-0.391304 2:-0.462963 3:-1 4:-0.555556 5:-0.82716 6:0.463631 7:0.934946 8:-0.948052 9:0.463631 10:-0.803922 11:-0.961174 12:-0.882353 13:-0.857184 14:-1 15:0.389745 16:-0.95 17:0.266326 18:-1 19:-0.818182 20:-0.619048 21:-0.777778 22:-0.675676 23:-0.714286 24:-1 25:-0.386364 
3.88 1:-0.130435 2:-0.388889 3:-1 4:-0.414141 5:-0.925926 6:-0.247345 7:0.787371 8:-0.87013 9:-0.247345 10:-0.921569 11:-0.964881 12:-0.764706 13:-0.857184 14:-1 15:0.389745 16:-0.95 17:-0.0840987 18:-1 19:-0.818182 20:-0.714286 21:-0.333333 22:-0.675676 23:-0.714286 24:-1 25:-0.477273 
1.496052672655607 1:-0.391304 2:-0.462963 3:-1 4:-0.555556 5:-0.82716 6:0.463631 7:0.934946 8:-0.948052 9:0.463631 10:-0.803922 11:-0.961174 12:-0.882353 13:-0.857184 14:-1 15:0.389745 16:-0.95 17:0.266326 18:-1 19:-0.818182 20:-0.619048 21:-0.777778 22:-0.675676 23:-0.714286 24:-1 25:-0.386364 
3.88 1:-0.130435 2:-0.388889 3:-1 4:-0.414141 5:-0.925926 6:-0.247345 7:0.787371 8:-0.87013 9:-0.247345 10:-0.921569 11:-0.964881 12:-0.764706 13:-0.857184 14:-1 15:0.389745 16:-0.95 17:-0.0840987 18:-1 19:-0.818182 20:-0.714286 21:-0.333333 22:-0.675676 23:-0.714286 24:-1 25:-0.477273 
3.88 1:-0.130435 2:-0.240741 3:-1 4:-0.252525 5:-0.950617 6:-0.244401 7:0.707495 8:-0.532468 9:-0.244401 10:-0.921569 11:-0.966999 12:-1 13:-0.861464 14:-0.857143 15:0.389745 16:-0.95 17:-0.0840987 18:-0.921569 19:-0.636364 20:-0.619048 21:-0.777778 22:-0.513514 23:-0.571429 24:-1 25:-0.0909091 
3.88 1:-0.130435 2:-0.240741 3:-1 4:-0.252525 5:-0.950617 6:-0.244401 7:0.707495 8:-0.532468 9:-0.244401 10:-0.921569 11:-0.966999 12:-1 13:-0.861464 14:-0.857143 15:0.389745 16:-0.95 17:-0.0840987 18:-0.921569 19:-0.636364 20:-0.619048 21:-0.777778 22:-0.513514 23:-0.571429 24:-1 25:-0.0909091 
3.88 1:-0.217391 2:-0.537037 3:-1 4:-0.474747 5:-0.950617 6:-0.740896 7:0.521569 8:-0.480519 9:-0.740896 10:-0.960784 11:-0.964881 12:-0.764706 13:-0.848478 14:-0.857143 15:0.999999 16:-0.95 17:0.299151 18:-0.921569 19:-0.818182 20:-0.809524 21:-0.777778 22:-0.621622 23:-0.571429 24:-1 25:-0.340909 
3.88 1:-0.217391 2:-0.537037 3:-1 4:-0.474747 5:-0.950617 6:-0.740896 7:0.521569 8:-0.480519 9:-0.740896 10:-0.960784 11:-0.964881 12:-0.764706 13:-0.848478 14:-0.857143 15:0.999999 16:-0.95 17:0.299151 18:-0.921569 19:-0.818182 20:-0.809524 21:-0.777778 22:-0.621622 23:-0.571429 24:-1 25:-0.340909 
3.88 1:-0.217391 2:-0.537037 3:-1 4:-0.474747 5:-0.950617 6:-0.740896 7:0.521569 8:-0.480519 9:-0.740896 10:-0.960784 11:-0.964881 12:-0.764706 13:-0.848478 14:-0.857143 15:0.999999 16:-0.95 17:0.299151 18:-0.921569 19:-0.818182 20:-0.809524 21:-0.777778 22:-0.621622 23:-0.571429 24:-1 25:-0.340909 
3.88 1:-0.217391 2:-0.407407 3:-1 4:-0.454545 5:-0.901235 6:0.0046856 7:0.973297 8:-0.948052 9:0.0046856 10:-0.843137 11:-0.966999 12:-1 13:-0.87017 14:-1 15:0.389745 16:-0.95 17:-0.0840987 18:-1 19:-0.818182 20:-0.714286 21:-0.555556 22:-0.621622 23:-0.714286 24:-1 25:-0.386364 
3.88 1:-0.217391 2:-0.407407 3:-1 4:-0.454545 5:-0.901235 6:0.0046856 7:0.973297 8:-0.948052 9:0.0046856 10:-0.843137 11:-0.966999 12:-1 13:-0.87017 14:-1 15:0.389745 16:-0.95 17:-0.0840987 18:-1 19:-0.818182 20:-0.714286 21:-0.555556 22:-0.621622 23:-0.714286 24:-1 25:-0.386364 
3.88 1:-0.652174 2:-0.796296 3:-1 4:-0.777778 5:-0.925926 6:-0.625802 7:0.598605 8:-0.87013 9:-0.625802 10:-0.764706 11:-0.964881 12:-1 13:-0.87017 14:-1 15:0.0393206 16:-1 17:0.389745 18:-1 19:-0.909091 20:-1 21:-1 22:-0.837838 23:-0.857143 24:-1 25:-0.75 
3.88 1:-0.652174 2:-0.796296 3:-1 4:-0.777778 5:-0.925926 6:-0.625802 7:0.598605 8:-0.87013 9:-0.625802 10:-0.764706 11:-0.964881 12:-1 13:-0.87017 14:-1 15:0.0393206 16:-1 17:0.389745 18:-1 19:-0.909091 20:-1 21:-1 22:-0.837838 23:-0.857143 24:-1 25:-0.75 
3.88 1:-0.391304 2:-0.62963 3:1 4:-0.939394 5:-0.802469 6:0.213255 7:0.747263 8:-0.922078 9:0.330899 10:-0.960784 11:-0.982055 12:-0.764706 13:-0.87017 14:-1 15:0.389745 16:-1 17:-0.22051 18:-0.921569 19:-0.727273 20:-0.904762 21:-0.555556 22:-0.783784 23:-0.714286 24:-1 25:-0.75 
3.88 1:-0.391304 2:-0.62963 3:1 4:-0.939394 5:-0.802469 6:0.213255 7:0.747263 8:-0.922078 9:0.330899 10:-0.960784 11:-0.982055 12:-0.764706 13:-0.87017 14:-1 15:0.389745 16:-1 17:-0.22051 18:-0.921569 19:-0.727273 20:-0.904762 21:-0.555556 22:-0.783784 23:-0.714286 24:-1 25:-0.75 
1.048983128993797 1:-0.478261 2:-0.703704 3:1 4:-0.959596 5:-0.82716 6:0.213255 7:0.747263 8:-0.948052 9:0.213255 10:-0.843137 11:-0.968079 12:-0.764706 13:-0.857184 14:-1 15:0.389745 16:-1 17:0.389745 18:-0.960784 19:-0.818182 20:-0.809524 21:-0.777778 22:-0.783784 23:-0.857143 24:-1 25:-0.613636 
3.88 1:-0.565217 2:-0.722222 3:-1 4:-0.69697 5:-0.975309 6:-0.625802 7:0.373431 8:-0.766234 9:-0.625802 10:-0.921569 11:-0.966999 12:-1 13:-0.870435 14:-1 15:-0.343929 16:-0.95 17:0.999999 18:-0.764706 19:-0.909091 20:-1 21:-1 22:-0.837838 23:-0.857143 24:-1 25:-0.5 
3.88 1:-0.826087 2:-0.888889 3:-1 4:-0.878788 5:-1 6:-1 7:0.357511 8:-0.818182 9:-1 10:-0.960784 11:-0.964881 12:-1 13:-0.87017 14:-1 15:-0.22051 16:-1 17:0.389745 18:-1 19:-1 20:-1 21:-1 22:-0.891892 23:-1 24:-1 25:-0.568182 
3.88 1:-0.826087 2:-0.87037 3:-1 4:-0.858586 5:-0.975309 6:-1 7:0.357511 8:-0.792208 9:-1 10:-0.921569 11:-0.964881 12:-1 13:-0.87017 14:-1 15:-0.22051 16:-1 17:0.389745 18:-1 19:-1 20:-1 21:-1 22:-0.891892 23:-1 24:-1 25:-0.5 
3.88 1:-0.73913 2:-0.814815 3:-1 4:-0.79798 5:-0.925926 6:-0.831527 7:0.411632 8:-0.714286 9:-0.831527 10:-0.843137 11:-0.964881 12:-1 13:-0.87017 14:-1 15:-0.22051 16:-1 17:0.649575 18:-1 19:-1 20:-1 21:-1 22:-0.837838 23:-0.857143 24:-1 25:-0.5 
3.88 1:-0.73913 2:-0.833333 3:-1 4:-0.79798 5:-1 6:-0.831519 7:0.411635 8:-0.74026 9:-0.831519 10:-0.960784 11:-0.966999 12:-1 13:-0.87017 14:-1 15:-0.343929 16:-0.9 17:0.182392 18:-1 19:-1 20:-1 21:-1 22:-0.837838 23:-0.857143 24:-1 25:-0.477273 
3.88 1:-0.826087 2:-0.888889 3:-1 4:-0.878788 5:-1 6:-1 7:0.357511 8:-0.818182 9:-1 10:-0.960784 11:-0.964881 12:-1 13:-0.87017 14:-1 15:-0.22051 16:-1 17:0.389745 18:-1 19:-1 20:-1 21:-1 22:-0.891892 23:-1 24:-1 25:-0.568182 
3.88 1:-0.826087 2:-0.87037 3:-1 4:-0.858586 5:-0.975309 6:-1 7:0.357511 8:-0.792208 9:-1 10:-0.921569 11:-0.964881 12:-1 13:-0.87017 14:-1 15:-0.22051 16:-1 17:0.389745 18:-1 19:-1 20:-1 21:-1 22:-0.891892 23:-1 24:-1 25:-0.5 
3.88 1:-0.73913 2:-0.833333 3:-1 4:-0.79798 5:-1 6:-0.831519 7:0.411635 8:-0.74026 9:-0.831519 10:-0.960784 11:-0.966999 12:-1 13:-0.87017 14:-1 15:-0.343929 16:-0.9 17:0.182392 18:-1 19:-1 20:-1 21:-1 22:-0.837838 23:-0.857143 24:-1 25:-0.477273 
3.88 1:-0.478261 2:-0.759259 3:-1 4:-0.717172 5:-0.975309 6:-0.87192 7:0.479478 8:-0.766234 9:-0.87192 10:-0.960784 11:-0.964881 12:-0.764706 13:-0.857184 14:-1 15:0.389745 16:-0.95 17:0.649575 18:-1 19:-1 20:-1 21:-0.777778 22:-0.837838 23:-0.857143 24:-1 25:-0.5 
3.88 1:-0.478261 2:-0.759259 3:-1 4:-0.717172 5:-0.975309 6:-0.87192 7:0.479478 8:-0.766234 9:-0.87192 10:-0.960784 11:-0.964881 12:-0.764706 13:-0.857184 14:-1 15:0.389745 16:-0.95 17:0.649575 18:-1 19:-1 20:-1 21:-0.777778 22:-0.837838 23:-0.857143 24:-1 25:-0.5 
3.88 1:-0.478261 2:-0.759259 3:-1 4:-0.717172 5:-0.975309 6:-0.87192 7:0.479478 8:-0.766234 9:-0.87192 10:-0.960784 11:-0.964881 12:-0.764706 13:-0.857184 14:-1 15:0.389745 16:-0.95 17:0.649575 18:-1 19:-1 20:-1 21:-0.777778 22:-0.837838 23:-0.857143 24:-1 25:-0.5 
3.88 1:-0.652174 2:-0.796296 3:-1 4:-0.79798 5:-0.950617 6:-0.868976 7:0.399602 8:-0.714286 9:-0.868976 10:-0.882353 11:-0.966999 12:-1 13:-0.857184 14:-1 15:0.0393206 16:-0.95 17:1 18:-1 19:-0.909091 20:-1 21:-1 22:-0.837838 23:-0.714286 24:-1 25:-0.5 
3.88 1:-0.652174 2:-0.796296 3:-1 4:-0.777778 5:-0.925926 6:-0.625802 7:0.598605 8:-0.87013 9:-0.625802 10:-0.764706 11:-0.964881 12:-1 13:-0.87017 14:-1 15:0.0393206 16:-1 17:0.389745 18:-1 19:-0.909091 20:-1 21:-1 22:-0.837838 23:-0.857143 24:-1 25:-0.75 
3.88 1:-0.652174 2:-0.796296 3:-1 4:-0.777778 5:-0.925926 6:-0.625802 7:0.598605 8:-0.87013 9:-0.625802 10:-0.764706 11:-0.964881 12:-1 13:-0.87017 14:-1 15:0.0393206 16:-1 17:0.389745 18:-1 19:-0.909091 20:-1 21:-1 22:-0.837838 23:-0.857143 24:-1 25:-0.75 
3.88 1:-0.652174 2:-0.796296 3:-1 4:-0.777778 5:-0.925926 6:-0.625802 7:0.598605 8:-0.87013 9:-0.625802 10:-0.764706 11:-0.964881 12:-1 13:-0.87017 14:-1 15:0.0393206 16:-1 17:0.389745 18:-1 19:-0.909091 20:-1 21:-1 22:-0.837838 23:-0.857143 24:-1 25:-0.75 
3.88 1:-0.652174 2:-0.796296 3:-1 4:-0.777778 5:-0.925926 6:-0.625802 7:0.598605 8:-0.87013 9:-0.625802 10:-0.764706 11:-0.964881 12:-1 13:-0.87017 14:-1 15:0.0393206 16:-1 17:0.389745 18:-1 19:-0.909091 20:-1 21:-1 22:-0.837838 23:-0.857143 24:-1 25:-0.75 
0.5560952852396753 1:-0.217391 2:-0.296296 3:1 4:-0.878788 5:-0.185185 6:0.751802 7:0.920268 8:-0.922078 9:-0.950938 10:-0.764706 11:-0.981113 12:-0.882353 13:-0.879229 14:-0.857143 15:0.389745 16:-1 17:0.22128 18:-0.490196 19:-0.454545 20:-1 21:-0.333333 22:-0.459459 23:-0.428571 24:-1 25:-0.5 
3.88 1:-0.391304 2:-0.62963 3:1 4:-0.89899 5:-0.604938 6:0.632421 7:0.881917 8:-0.974026 9:0.00576203 10:-0.803922 11:-0.989263 12:-0.764706 13:-0.87017 14:-1 15:0.389745 16:-1 17:-0.343929 18:-0.882353 19:-0.727273 20:-0.904762 21:-0.777778 22:-0.72973 23:-0.571429 24:-1 25:-0.772727 
3.88 1:-0.391304 2:-0.62963 3:1 4:-0.89899 5:-0.604938 6:0.632421 7:0.881917 8:-0.974026 9:0.00576203 10:-0.803922 11:-0.989263 12:-0.764706 13:-0.87017 14:-1 15:0.389745 16:-1 17:-0.343929 18:-0.882353 19:-0.727273 20:-0.904762 21:-0.777778 22:-0.72973 23:-0.571429 24:-1 25:-0.772727 
3.88 1:-0.478261 2:-0.703704 3:1 4:-0.919192 5:-0.62963 6:0.632421 7:0.881917 8:-0.974026 9:-0.111882 10:-0.686275 11:-0.975288 12:-0.764706 13:-0.857184 14:-1 15:0.389745 16:-1 17:0.266326 18:-0.921569 19:-0.818182 20:-0.904762 21:-1 22:-0.72973 23:-0.571429 24:-1 25:-0.636364 
3.88 1:-0.478261 2:-0.703704 3:1 4:-0.919192 5:-0.62963 6:0.632421 7:0.881917 8:-0.974026 9:-0.111882 10:-0.686275 11:-0.975288 12:-0.764706 13:-0.857184 14:-1 15:0.389745 16:-1 17:0.266326 18:-0.921569 19:-0.818182 20:-0.904762 21:-1 22:-0.72973 23:-0.571429 24:-1 25:-0.636364 
3.418950669033328 1:-0.565217 2:-0.722222 3:-1 4:-0.69697 5:-0.975309 6:-0.625802 7:0.373431 8:-0.766234 9:-0.625802 10:-0.921569 11:-0.966999 12:-1 13:-0.870435 14:-1 15:-0.343929 16:-0.95 17:0.999999 18:-0.764706 19:-0.909091 20:-1 21:-1 22:-0.837838 23:-0.857143 24:-1 25:-0.5 
3.88 1:-0.826087 2:-0.888889 3:-1 4:-0.878788 5:-1 6:-1 7:0.357511 8:-0.818182 9:-1 10:-0.960784 11:-0.964881 12:-1 13:-0.87017 14:-1 15:-0.22051 16:-1 17:0.389745 18:-1 19:-1 20:-1 21:-1 22:-0.891892 23:-1 24:-1 25:-0.568182 
3.88 1:-0.826087 2:-0.87037 3:-1 4:-0.858586 5:-0.975309 6:-1 7:0.357511 8:-0.792208 9:-1 10:-0.921569 11:-0.964881 12:-1 13:-0.87017 14:-1 15:-0.22051 16:-1 17:0.389745 18:-1 19:-1 20:-1 21:-1 22:-0.891892 23:-1 24:-1 25:-0.5 
3.88 1:-0.73913 2:-0.814815 3:-1 4:-0.79798 5:-0.925926 6:-0.831527 7:0.411632 8:-0.714286 9:-0.831527 10:-0.843137 11:-0.964881 12:-1 13:-0.87017 14:-1 15:-0.22051 16:-1 17:0.649575 18:-1 19:-1 20:-1 21:-1 22:-0.837838 23:-0.857143 24:-1 25:-0.5 
3.88 1:-0.73913 2:-0.833333 3:-1 4:-0.79798 5:-1 6:-0.831519 7:0.411635 8:-0.74026 9:-0.831519 10:-0.960784 11:-0.966999 12:-1 13:-0.87017 14:-1 15:-0.343929 16:-0.9 17:0.182392 18:-1 19:-1 20:-1 21:-1 22:-0.837838 23:-0.857143 24:-1 25:-0.477273 
3.88 1:-0.826087 2:-0.888889 3:-1 4:-0.878788 5:-1 6:-1 7:0.357511 8:-0.818182 9:-1 10:-0.960784 11:-0.964881 12:-1 13:-0.87017 14:-1 15:-0.22051 16:-1 17:0.389745 18:-1 19:-1 20:-1 21:-1 22:-0.891892 23:-1 24:-1 25:-0.568182 
3.88 1:-0.826087 2:-0.87037 3:-1 4:-0.858586 5:-0.975309 6:-1 7:0.357511 8:-0.792208 9:-1 10:-0.921569 11:-0.964881 12:-1 13:-0.87017 14:-1 15:-0.22051 16:-1 17:0.389745 18:-1 19:-1 20:-1 21:-1 22:-0.891892 23:-1 24:-1 25:-0.5 
3.88 1:-0.73913 2:-0.833333 3:-1 4:-0.79798 5:-1 6:-0.831519 7:0.411635 8:-0.74026 9:-0.831519 10:-0.960784 11:-0.966999 12:-1 13:-0.87017 14:-1 15:-0.343929 16:-0.9 17:0.182392 18:-1 19:-1 20:-1 21:-1 22:-0.837838 23:-0.857143 24:-1 25:-0.477273 
3.88 1:-0.478261 2:-0.759259 3:-1 4:-0.717172 5:-0.975309 6:-0.87192 7:0.479478 8:-0.766234 9:-0.87192 10:-0.960784 11:-0.964881 12:-0.764706 13:-0.857184 14:-1 15:0.389745 16:-0.95 17:0.649575 18:-1 19:-1 20:-1 21:-0.777778 22:-0.837838 23:-0.857143 24:-1 25:-0.5 
3.88 1:-0.478261 2:-0.759259 3:-1 4:-0.717172 5:-0.975309 6:-0.87192 7:0.479478 8:-0.766234 9:-0.87192 10:-0.960784 11:-0.964881 12:-0.764706 13:-0.857184 14:-1 15:0.389745 16:-0.95 17:0.649575 18:-1 19:-1 20:-1 21:-0.777778 22:-0.837838 23:-0.857143 24:-1 25:-0.5 
3.88 1:-0.478261 2:-0.759259 3:-1 4:-0.717172 5:-0.975309 6:-0.87192 7:0.479478 8:-0.766234 9:-0.87192 10:-0.960784 11:-0.964881 12:-0.764706 13:-0.857184 14:-1 15:0.389745 16:-0.95 17:0.649575 18:-1 19:-1 20:-1 21:-0.777778 22:-0.837838 23:-0.857143 24:-1 25:-0.5 
3.88 1:-0.652174 2:-0.796296 3:-1 4:-0.79798 5:-0.950617 6:-0.868976 7:0.399602 8:-0.714286 9:-0.868976 10:-0.882353 11:-0.966999 12:-1 13:-0.857184 14:-1 15:0.0393206 16:-0.95 17:1 18:-1 19:-0.909091 20:-1 21:-1 22:-0.837838 23:-0.714286 24:-1 25:-0.5 
3.88 1:-0.652174 2:-0.796296 3:-1 4:-0.777778 5:-0.925926 6:-0.625802 7:0.598605 8:-0.87013 9:-0.625802 10:-0.764706 11:-0.964881 12:-1 13:-0.87017 14:-1 15:0.0393206 16:-1 17:0.389745 18:-1 19:-0.909091 20:-1 21:-1 22:-0.837838 23:-0.857143 24:-1 25:-0.75 
3.88 1:-0.652174 2:-0.796296 3:-1 4:-0.777778 5:-0.925926 6:-0.625802 7:0.598605 8:-0.87013 9:-0.625802 10:-0.764706 11:-0.964881 12:-1 13:-0.87017 14:-1 15:0.0393206 16:-1 17:0.389745 18:-1 19:-0.909091 20:-1 21:-1 22:-0.837838 23:-0.857143 24:-1 25:-0.75 
3.88 1:-0.652174 2:-0.777778 3:-1 4:-0.757576 5:-0.975309 6:-0.625802 7:0.373431 8:-0.87013 9:-0.625802 10:-0.921569 11:-0.964881 12:-1 13:-0.870435 14:-1 15:-0.343929 16:-0.95 17:0.389745 18:-0.764706 19:-0.909091 20:-0.904762 21:-1 22:-0.891892 23:-1 24:-1 25:-0.795455 
3.88 1:-0.826087 2:-0.888889 3:-1 4:-0.878788 5:-1 6:-1 7:0.357511 8:-0.818182 9:-1 10:-0.960784 11:-0.964881 12:-1 13:-0.87017 14:-1 15:-0.22051 16:-1 17:0.389745 18:-1 19:-1 20:-1 21:-1 22:-0.891892 23:-1 24:-1 25:-0.568182 
3.88 1:-0.826087 2:-0.888889 3:-1 4:-0.878788 5:-1 6:-1 7:0.357511 8:-0.818182 9:-1 10:-0.960784 11:-0.964881 12:-1 13:-0.87017 14:-1 15:-0.22051 16:-1 17:0.389745 18:-1 19:-1 20:-1 21:-1 22:-0.891892 23:-1 24:-1 25:-0.568182 
3.88 1:-0.826087 2:-0.925926 3:-1 4:-0.919192 5:-0.975309 6:-1 7:0.357511 8:-0.87013 9:-1 10:-0.921569 11:-0.962763 12:-0.882353 13:-0.87017 14:-1 15:-0.22051 16:-1 17:-0.22051 18:-1 19:-1 20:-0.904762 21:-1 22:-0.945946 23:-1 24:-1 25:-0.772727 
3.88 1:-0.73913 2:-0.87037 3:-1 4:-0.858586 5:-0.925926 6:-0.831527 7:0.411632 8:-0.818182 9:-0.831527 10:-0.843137 11:-0.962763 12:-0.882353 13:-0.87017 14:-1 15:-0.22051 16:-1 17:0.0393206 18:-1 19:-1 20:-0.904762 21:-1 22:-0.837838 23:-0.857143 24:-1 25:-0.795455 
3.88 1:-0.826087 2:-0.888889 3:-1 4:-0.878788 5:-1 6:-1 7:0.357511 8:-0.818182 9:-1 10:-0.960784 11:-0.964881 12:-1 13:-0.87017 14:-1 15:-0.22051 16:-1 17:0.389745 18:-1 19:-1 20:-1 21:-1 22:-0.891892 23:-1 24:-1 25:-0.568182 
3.88 1:-0.826087 2:-0.925926 3:-1 4:-0.919192 5:-0.975309 6:-1 7:0.357511 8:-0.87013 9:-1 10:-0.921569 11:-0.962763 12:-0.882353 13:-0.87017 14:-1 15:-0.22051 16:-1 17:-0.22051 18:-1 19:-1 20:-0.904762 21:-1 22:-0.945946 23:-1 24:-1 25:-0.772727 
3.88 1:-0.826087 2:-0.888889 3:-1 4:-0.878788 5:-1 6:-1 7:0.357511 8:-0.818182 9:-1 10:-0.960784 11:-0.964881 12:-1 13:-0.87017 14:-1 15:-0.22051 16:-1 17:0.389745 18:-1 19:-1 20:-1 21:-1 22:-0.891892 23:-1 24:-1 25:-0.568182 
3.88 1:-0.478261 2:-0.814815 3:-1 4:-0.79798 5:-0.975309 6:-0.87192 7:0.479478 8:-0.87013 9:-0.87192 10:-0.960784 11:-0.962763 12:-0.764706 13:-0.857184 14:-1 15:0.389745 16:-0.95 17:0.0393206 18:-1 19:-1 20:-0.904762 21:-0.777778 22:-0.837838 23:-0.857143 24:-1 25:-0.795455 
3.88 1:-0.478261 2:-0.814815 3:-1 4:-0.79798 5:-0.975309 6:-0.87192 7:0.479478 8:-0.87013 9:-0.87192 10:-0.960784 11:-0.962763 12:-0.764706 13:-0.857184 14:-1 15:0.389745 16:-0.95 17:0.0393206 18:-1 19:-1 20:-0.904762 21:-0.777778 22:-0.837838 23:-0.857143 24:-1 25:-0.795455 
3.88 1:-0.478261 2:-0.814815 3:-1 4:-0.79798 5:-0.975309 6:-0.87192 7:0.479478 8:-0.87013 9:-0.87192 10:-0.960784 11:-0.962763 12:-0.764706 13:-0.857184 14:-1 15:0.389745 16:-0.95 17:0.0393206 18:-1 19:-1 20:-0.904762 21:-0.777778 22:-0.837838 23:-0.857143 24:-1 25:-0.795455 
3.88 1:-0.652174 2:-0.851852 3:-1 4:-0.858586 5:-0.950617 6:-0.868976 7:0.399602 8:-0.818182 9:-0.868976 10:-0.882353 11:-0.964881 12:-1 13:-0.857184 14:-1 15:0.0393206 16:-1 17:0.389745 18:-1 19:-0.909091 20:-0.904762 21:-1 22:-0.891892 23:-0.857143 24:-1 25:-0.795455 
3.88 1:-0.652174 2:-0.759259 3:-1 4:-0.737374 5:-0.950617 6:-0.625802 7:0.373431 8:-0.844156 9:-0.625802 10:-0.843137 11:-0.964881 12:-1 13:-0.870435 14:-1 15:-0.343929 16:-0.95 17:0.389745 18:-0.764706 19:-0.909091 20:-0.904762 21:-1 22:-0.891892 23:-1 24:-1 25:-0.727273 
3.88 1:-0.652174 2:-0.796296 3:-1 4:-0.777778 5:-0.925926 6:-0.625802 7:0.598605 8:-0.87013 9:-0.625802 10:-0.764706 11:-0.964881 12:-1 13:-0.87017 14:-1 15:0.0393206 16:-1 17:0.389745 18:-1 19:-0.909091 20:-1 21:-1 22:-0.837838 23:-0.857143 24:-1 25:-0.75 
3.88 1:-0.826087 2:-0.87037 3:-1 4:-0.858586 5:-0.975309 6:-1 7:0.357511 8:-0.792208 9:-1 10:-0.921569 11:-0.964881 12:-1 13:-0.87017 14:-1 15:-0.22051 16:-1 17:0.389745 18:-1 19:-1 20:-1 21:-1 22:-0.891892 23:-1 24:-1 25:-0.5 
3.88 1:-0.652174 2:-0.796296 3:-1 4:-0.777778 5:-0.925926 6:-0.625802 7:0.598605 8:-0.87013 9:-0.625802 10:-0.764706 11:-0.964881 12:-1 13:-0.87017 14:-1 15:0.0393206 16:-1 17:0.389745 18:-1 19:-0.909091 20:-1 21:-1 22:-0.837838 23:-0.857143 24:-1 25:-0.75 
3.88 1:-0.652174 2:-0.796296 3:-1 4:-0.777778 5:-0.925926 6:-0.625802 7:0.598605 8:-0.87013 9:-0.625802 10:-0.764706 11:-0.964881 12:-1 13:-0.87017 14:-1 15:0.0393206 16:-1 17:0.389745 18:-1 19:-0.909091 20:-1 21:-1 22:-0.837838 23:-0.857143 24:-1 25:-0.75 
3.88 1:-0.826087 2:-0.87037 3:-1 4:-0.858586 5:-0.975309 6:-1 7:0.357511 8:-0.792208 9:-1 10:-0.921569 11:-0.964881 12:-1 13:-0.87017 14:-1 15:-0.22051 16:-1 17:0.389745 18:-1 19:-1 20:-1 21:-1 22:-0.891892 23:-1 24:-1 25:-0.5 
3.88 1:-0.652174 2:-0.796296 3:-1 4:-0.777778 5:-0.925926 6:-0.625802 7:0.598605 8:-0.87013 9:-0.625802 10:-0.764706 11:-0.964881 12:-1 13:-0.87017 14:-1 15:0.0393206 16:-1 17:0.389745 18:-1 19:-0.909091 20:-1 21:-1 22:-0.837838 23:-0.857143 24:-1 25:-0.75 
3.88 1:-0.826087 2:-0.925926 3:-1 4:-0.919192 5:-0.975309 6:-1 7:0.357511 8:-0.87013 9:-1 10:-0.921569 11:-0.962763 12:-0.882353 13:-0.87017 14:-1 15:-0.22051 16:-1 17:-0.22051 18:-1 19:-1 20:-0.904762 21:-1 22:-0.945946 23:-1 24:-1 25:-0.772727 
3.88 1:-0.73913 2:-0.851852 3:-1 4:-0.838384 5:-0.876543 6:-0.831527 7:0.411632 8:-0.792208 9:-0.831527 10:-0.803922 11:-0.962763 12:-0.882353 13:-0.87017 14:-1 15:-0.22051 16:-1 17:0.0393206 18:-1 19:-1 20:-0.904762 21:-1 22:-0.891892 23:-0.857143 24:-1 25:-0.727273 
3.88 1:-0.826087 2:-0.87037 3:-1 4:-0.858586 5:-0.975309 6:-1 7:0.357511 8:-0.792208 9:-1 10:-0.921569 11:-0.964881 12:-1 13:-0.87017 14:-1 15:-0.22051 16:-1 17:0.389745 18:-1 19:-1 20:-1 21:-1 22:-0.891892 23:-1 24:-1 25:-0.5 
3.88 1:-0.826087 2:-0.925926 3:-1 4:-0.919192 5:-0.975309 6:-1 7:0.357511 8:-0.87013 9:-1 10:-0.921569 11:-0.962763 12:-0.882353 13:-0.87017 14:-1 15:-0.22051 16:-1 17:-0.22051 18:-1 19:-1 20:-0.904762 21:-1 22:-0.945946 23:-1 24:-1 25:-0.772727 
3.88 1:-0.826087 2:-0.87037 3:-1 4:-0.858586 5:-0.975309 6:-1 7:0.357511 8:-0.792208 9:-1 10:-0.921569 11:-0.964881 12:-1 13:-0.87017 14:-1 15:-0.22051 16:-1 17:0.389745 18:-1 19:-1 20:-1 21:-1 22:-0.891892 23:-1 24:-1 25:-0.5 
3.88 1:-0.478261 2:-0.796296 3:-1 4:-0.777778 5:-0.925926 6:-0.87192 7:0.479478 8:-0.844156 9:-0.87192 10:-0.882353 11:-0.962763 12:-0.764706 13:-0.857184 14:-1 15:0.389745 16:-0.95 17:0.0393206 18:-1 19:-1 20:-0.904762 21:-0.777778 22:-0.891892 23:-0.857143 24:-1 25:-0.727273 
3.88 1:-0.478261 2:-0.796296 3:-1 4:-0.777778 5:-0.925926 6:-0.87192 7:0.479478 8:-0.844156 9:-0.87192 10:-0.882353 11:-0.962763 12:-0.764706 13:-0.857184 14:-1 15:0.389745 16:-0.95 17:0.0393206 18:-1 19:-1 20:-0.904762 21:-0.777778 22:-0.891892 23:-0.857143 24:-1 25:-0.727273 
3.88 1:-0.478261 2:-0.796296 3:-1 4:-0.777778 5:-0.925926 6:-0.87192 7:0.479478 8:-0.844156 9:-0.87192 10:-0.882353 11:-0.962763 12:-0.764706 13:-0.857184 14:-1 15:0.389745 16:-0.95 17:0.0393206 18:-1 19:-1 20:-0.904762 21:-0.777778 22:-0.891892 23:-0.857143 24:-1 25:-0.727273 
3.88 1:-0.652174 2:-0.833333 3:-1 4:-0.838384 5:-0.901235 6:-0.868976 7:0.399602 8:-0.792208 9:-0.868976 10:-0.843137 11:-0.964881 12:-1 13:-0.857184 14:-1 15:0.0393206 16:-1 17:0.389745 18:-1 19:-0.909091 20:-0.904762 21:-1 22:-0.891892 23:-0.857143 24:-1 25:-0.727273 
3.88 1:-0.565217 2:-0.703704 3:-1 4:-0.676768 5:-0.901235 6:-0.457329 7:0.427552 8:-0.766234 9:-0.457329 10:-0.803922 11:-0.964881 12:-1 13:-0.870435 14:-1 15:-0.343929 16:-0.95 17:0.649575 18:-0.764706 19:-0.909091 20:-0.904762 21:-1 22:-0.837838 23:-0.857143 24:-1 25:-0.727273 
3.88 1:-0.73913 2:-0.814815 3:-1 4:-0.79798 5:-0.925926 6:-0.831527 7:0.411632 8:-0.714286 9:-0.831527 10:-0.843137 11:-0.964881 12:-1 13:-0.87017 14:-1 15:-0.22051 16:-1 17:0.649575 18:-1 19:-1 20:-1 21:-1 22:-0.837838 23:-0.857143 24:-1 25:-0.5 
3.88 1:-0.73913 2:-0.814815 3:-1 4:-0.79798 5:-0.925926 6:-0.831527 7:0.411632 8:-0.714286 9:-0.831527 10:-0.843137 11:-0.964881 12:-1 13:-0.87017 14:-1 15:-0.22051 16:-1 17:0.649575 18:-1 19:-1 20:-1 21:-1 22:-0.837838 23:-0.857143 24:-1 25:-0.5 
3.88 1:-0.73913 2:-0.87037 3:-1 4:-0.858586 5:-0.925926 6:-0.831527 7:0.411632 8:-0.818182 9:-0.831527 10:-0.843137 11:-0.962763 12:-0.882353 13:-0.87017 14:-1 15:-0.22051 16:-1 17:0.0393206 18:-1 19:-1 20:-0.904762 21:-1 22:-0.837838 23:-0.857143 24:-1 25:-0.795455 
3.88 1:-0.73913 2:-0.851852 3:-1 4:-0.838384 5:-0.876543 6:-0.831527 7:0.411632 8:-0.792208 9:-0.831527 10:-0.803922 11:-0.962763 12:-0.882353 13:-0.87017 14:-1 15:-0.22051 16:-1 17:0.0393206 18:-1 19:-1 20:-0.904762 21:-1 22:-0.891892 23:-0.857143 24:-1 25:-0.727273 
3.88 1:-0.73913 2:-0.814815 3:-1 4:-0.79798 5:-0.925926 6:-0.831527 7:0.411632 8:-0.714286 9:-0.831527 10:-0.843137 11:-0.964881 12:-1 13:-0.87017 14:-1 15:-0.22051 16:-1 17:0.649575 18:-1 19:-1 20:-1 21:-1 22:-0.837838 23:-0.857143 24:-1 25:-0.5 
3.88 1:-0.73913 2:-0.87037 3:-1 4:-0.858586 5:-0.925926 6:-0.831527 7:0.411632 8:-0.818182 9:-0.831527 10:-0.843137 11:-0.962763 12:-0.882353 13:-0.87017 14:-1 15:-0.22051 16:-1 17:0.0393206 18:-1 19:-1 20:-0.904762 21:-1 22:-0.837838 23:-0.857143 24:-1 25:-0.795455 
3.88 1:-0.73913 2:-0.851852 3:-1 4:-0.838384 5:-0.876543 6:-0.831527 7:0.411632 8:-0.792208 9:-0.831527 10:-0.803922 11:-0.962763 12:-0.882353 13:-0.87017 14:-1 15:-0.22051 16:-1 17:0.0393206 18:-1 19:-1 20:-0.904762 21:-1 22:-0.891892 23:-0.857143 24:-1 25:-0.727273 
3.88 1:-0.73913 2:-0.814815 3:-1 4:-0.79798 5:-0.925926 6:-0.831527 7:0.411632 8:-0.714286 9:-0.831527 10:-0.843137 11:-0.964881 12:-1 13:-0.87017 14:-1 15:-0.22051 16:-1 17:0.649575 18:-1 19:-1 20:-1 21:-1 22:-0.837838 23:-0.857143 24:-1 25:-0.5 
3.88 1:-0.391304 2:-0.740741 3:-1 4:-0.717172 5:-0.876543 6:-0.703447 7:0.533599 8:-0.766234 9:-0.703447 10:-0.843137 11:-0.962763 12:-0.764706 13:-0.857184 14:-1 15:0.389745 16:-0.95 17:0.299151 18:-1 19:-1 20:-0.904762 21:-0.777778 22:-0.783784 23:-0.714286 24:-1 25:-0.727273 
3.88 1:-0.391304 2:-0.740741 3:-1 4:-0.717172 5:-0.876543 6:-0.703447 7:0.533599 8:-0.766234 9:-0.703447 10:-0.843137 11:-0.962763 12:-0.764706 13:-0.857184 14:-1 15:0.389745 16:-0.95 17:0.299151 18:-1 19:-1 20:-0.904762 21:-0.777778 22:-0.783784 23:-0.714286 24:-1 25:-0.727273 
3.88 1:-0.391304 2:-0.740741 3:-1 4:-0.717172 5:-0.876543 6:-0.703447 7:0.533599 8:-0.766234 9:-0.703447 10:-0.843137 11:-0.962763 12:-0.764706 13:-0.857184 14:-1 15:0.389745 16:-0.95 17:0.299151 18:-1 19:-1 20:-0.904762 21:-0.777778 22:-0.783784 23:-0.714286 24:-1 25:-0.727273 
3.88 1:-0.565217 2:-0.777778 3:-1 4:-0.777778 5:-0.851852 6:-0.700503 7:0.453723 8:-0.714286 9:-0.700503 10:-0.764706 11:-0.964881 12:-1 13:-0.857184 14:-1 15:0.0393206 16:-1 17:0.649575 18:-1 19:-0.909091 20:-0.904762 21:-1 22:-0.837838 23:-0.714286 24:-1 25:-0.727273 
3.88 1:-0.73913 2:-0.833333 3:-1 4:-0.79798 5:-1 6:-0.831519 7:0.411635 8:-0.74026 9:-0.831519 10:-0.960784 11:-0.966999 12:-1 13:-0.87017 14:-1 15:-0.343929 16:-0.9 17:0.182392 18:-1 19:-1 20:-1 21:-1 22:-0.837838 23:-0.857143 24:-1 25:-0.477273 
3.88 1:-0.73913 2:-0.833333 3:-1 4:-0.79798 5:-1 6:-0.831519 7:0.411635 8:-0.74026 9:-0.831519 10:-0.960784 11:-0.966999 12:-1 13:-0.87017 14:-1 15:-0.343929 16:-0.9 17:0.182392 18:-1 19:-1 20:-1 21:-1 22:-0.837838 23:-0.857143 24:-1 25:-0.477273 
3.88 1:-0.73913 2:-0.833333 3:-1 4:-0.79798 5:-1 6:-0.831519 7:0.411635 8:-0.74026 9:-0.831519 10:-0.960784 11:-0.966999 12:-1 13:-0.87017 14:-1 15:-0.343929 16:-0.9 17:0.182392 18:-1 19:-1 20:-1 21:-1 22:-0.837838 23:-0.857143 24:-1 25:-0.477273 
3.88 1:-0.73913 2:-0.833333 3:-1 4:-0.79798 5:-1 6:-0.831519 7:0.411635 8:-0.74026 9:-0.831519 10:-0.960784 11:-0.966999 12:-1 13:-0.87017 14:-1 15:-0.343929 16:-0.9 17:0.182392 18:-1 19:-1 20:-1 21:-1 22:-0.837838 23:-0.857143 24:-1 25:-0.477273 
3.88 1:-0.391304 2:-0.759259 3:-1 4:-0.717172 5:-0.950617 6:-0.703439 7:0.533602 8:-0.792208 9:-0.703439 10:-0.960784 11:-0.964881 12:-0.764706 13:-0.857184 14:-1 15:0.266326 16:-0.9 17:-0.168032 18:-1 19:-1 20:-1 21:-0.777778 22:-0.783784 23:-0.714286 24:-1 25:-0.704545 
3.88 1:-0.391304 2:-0.759259 3:-1 4:-0.717172 5:-0.950617 6:-0.703439 7:0.533602 8:-0.792208 9:-0.703439 10:-0.960784 11:-0.964881 12:-0.764706 13:-0.857184 14:-1 15:0.266326 16:-0.9 17:-0.168032 18:-1 19:-1 20:-1 21:-0.777778 22:-0.783784 23:-0.714286 24:-1 25:-0.704545 
3.88 1:-0.391304 2:-0.759259 3:-1 4:-0.717172 5:-0.950617 6:-0.703439 7:0.533602 8:-0.792208 9:-0.703439 10:-0.960784 11:-0.964881 12:-0.764706 13:-0.857184 14:-1 15:0.266326 16:-0.9 17:-0.168032 18:-1 19:-1 20:-1 21:-0.777778 22:-0.783784 23:-0.714286 24:-1 25:-0.704545 
3.88 1:-0.565217 2:-0.796296 3:-1 4:-0.79798 5:-0.925926 6:-0.700495 7:0.453725 8:-0.74026 9:-0.700495 10:-0.882353 11:-0.966999 12:-1 13:-0.857184 14:-1 15:-0.0840987 16:-0.9 17:0.182393 18:-1 19:-0.909091 20:-1 21:-1 22:-0.837838 23:-0.714286 24:-1 25:-0.704545 
3.88 1:-0.478261 2:-0.555556 3:1 4:-0.878788 5:-0.506173 6:0.589604 7:0.868163 8:-0.922078 9:0.00748787 10:-0.843137 11:-0.9683 12:-0.764706 13:-0.870435 14:-1 15:0.389745 16:-1 17:-0.22051 18:-0.803922 19:-0.545455 20:-0.809524 21:-0.777778 22:-0.72973 23:-0.571429 24:-1 25:-0.704545 
3.88 1:-0.391304 2:-0.333333 3:1 4:-0.878788 5:-0.259259 6:0.797495 7:0.934946 8:-0.922078 9:-0.0432995 10:-0.921569 11:-0.975149 12:-0.882353 13:-0.879229 14:-0.857143 15:0.999999 16:-1 17:0.3447 18:-0.568627 19:-0.454545 20:-1 21:-0.333333 22:-0.567568 23:-0.571429 24:-1 25:-0.545455 
3.88 1:-0.304348 2:-0.388889 3:-1 4:-0.535354 5:-0.802469 6:0.463631 7:0.934946 8:-0.948052 9:0.581275 10:-0.921569 11:-0.975149 12:-0.882353 13:-0.87017 14:-1 15:0.389745 16:-1 17:-0.343929 18:-0.960784 19:-0.727273 20:-0.714286 21:-0.555556 22:-0.675676 23:-0.714286 24:-1 25:-0.522727 
3.88 1:-0.391304 2:-0.62963 3:1 4:-0.939394 5:-0.802469 6:0.213255 7:0.747263 8:-0.922078 9:0.330899 10:-0.960784 11:-0.982055 12:-0.764706 13:-0.87017 14:-1 15:0.389745 16:-1 17:-0.22051 18:-0.921569 19:-0.727273 20:-0.904762 21:-0.555556 22:-0.783784 23:-0.714286 24:-1 25:-0.75 
3.88 1:-0.391304 2:-0.62963 3:1 4:-0.89899 5:-0.604938 6:0.632421 7:0.881917 8:-0.974026 9:0.00576203 10:-0.803922 11:-0.989263 12:-0.764706 13:-0.87017 14:-1 15:0.389745 16:-1 17:-0.343929 18:-0.882353 19:-0.727273 20:-0.904762 21:-0.777778 22:-0.72973 23:-0.571429 24:-1 25:-0.772727 
3.88 1:-0.478261 2:-0.685185 3:1 4:-0.878788 5:-0.62963 6:0.00910907 7:0.681682 8:-0.974026 9:0.336733 10:-0.882353 11:-0.975149 12:-0.882353 13:-0.87017 14:-1 15:0.389745 16:-1 17:0.0393206 18:-0.921569 19:-0.818182 20:-1 21:-0.777778 22:-0.783784 23:-0.714286 24:-1 25:-0.636364 
3.88 1:-0.391304 2:-0.62963 3:1 4:-0.89899 5:-0.604938 6:0.632421 7:0.881917 8:-0.974026 9:0.00576203 10:-0.803922 11:-0.989263 12:-0.764706 13:-0.87017 14:-1 15:0.389745 16:-1 17:-0.343929 18:-0.882353 19:-0.727273 20:-0.904762 21:-0.777778 22:-0.72973 23:-0.571429 24:-1 25:-0.772727 
3.88 1:-0.391304 2:-0.333333 3:1 4:-0.878788 5:-0.259259 6:0.797495 7:0.934946 8:-0.922078 9:-0.0432995 10:-0.921569 11:-0.975149 12:-0.882353 13:-0.879229 14:-0.857143 15:0.999999 16:-1 17:0.3447 18:-0.568627 19:-0.454545 20:-1 21:-0.333333 22:-0.567568 23:-0.571429 24:-1 25:-0.545455 
3.88 1:-0.391304 2:-0.62963 3:1 4:-0.939394 5:-0.802469 6:0.213255 7:0.747263 8:-0.922078 9:0.330899 10:-0.960784 11:-0.982055 12:-0.764706 13:-0.87017 14:-1 15:0.389745 16:-1 17:-0.22051 18:-0.921569 19:-0.727273 20:-0.904762 21:-0.555556 22:-0.783784 23:-0.714286 24:-1 25:-0.75 
3.88 1:-0.304348 2:-0.388889 3:-1 4:-0.535354 5:-0.802469 6:0.463631 7:0.934946 8:-0.948052 9:0.581275 10:-0.921569 11:-0.975149 12:-0.882353 13:-0.87017 14:-1 15:0.389745 16:-1 17:-0.343929 18:-0.960784 19:-0.727273 20:-0.714286 21:-0.555556 22:-0.675676 23:-0.714286 24:-1 25:-0.522727 
3.88 1:-0.652174 2:-0.574074 3:1 4:-0.777778 5:-0.580247 6:-0.160943 7:0.627053 8:-0.74026 9:-0.0432995 10:-0.568627 11:-0.985672 12:-0.764706 13:-0.87017 14:-1 15:0.649575 16:-0.95 17:0.0393206 18:-0.843137 19:-0.545455 20:-0.904762 21:-1 22:-0.675676 23:-0.857143 24:-1 25:-0.681818 
3.88 1:-0.478261 2:-0.685185 3:1 4:-0.878788 5:-0.62963 6:0.00910907 7:0.681682 8:-0.974026 9:0.336733 10:-0.882353 11:-0.975149 12:-0.882353 13:-0.87017 14:-1 15:0.389745 16:-1 17:0.0393206 18:-0.921569 19:-0.818182 20:-1 21:-0.777778 22:-0.783784 23:-0.714286 24:-1 25:-0.636364 
3.88 1:-0.217391 2:0.037037 3:1 4:-0.959596 5:-0.358025 6:-0.0299154 7:0.669145 8:-0.922078 9:0.707189 10:-0.882353 11:-0.975149 12:-0.882353 13:-0.857184 14:-1 15:0.999999 16:-1 17:-0.56695 18:-0.764706 19:-0.363636 20:-1 21:-0.555556 22:0.027027 23:-0.285714 24:-0.333333 25:-0.0909091 
3.88 1:-0.478261 2:-0.481481 3:1 4:-0.878788 5:-0.654321 6:0.506452 7:0.841451 8:-0.87013 9:0.087724 10:-0.882353 11:-0.973031 12:-0.882353 13:-0.857184 14:-1 15:0.26769 16:-1 17:0.0393206 18:-0.960784 19:-0.727273 20:-0.904762 21:-0.777778 22:-0.621622 23:-0.428571 24:-1 25:-0.590909 
3.88 1:-0.217391 2:0.037037 3:1 4:-0.959596 5:-0.358025 6:-0.0299154 7:0.669145 8:-0.922078 9:0.707189 10:-0.882353 11:-0.975149 12:-0.882353 13:-0.857184 14:-1 15:0.999999 16:-1 17:-0.56695 18:-0.764706 19:-0.363636 20:-1 21:-0.555556 22:0.027027 23:-0.285714 24:-0.333333 25:-0.0909091 
3.88 1:-0.652174 2:-0.740741 3:1 4:-0.919192 5:-0.703704 6:0.678113 7:0.896596 8:-0.974026 9:0.795757 10:-0.843137 11:-0.969324 12:-0.764706 13:-0.857184 14:-1 15:0.999999 16:-1 17:0.389745 18:-0.960784 19:-0.909091 20:-0.904762 21:-1 22:-0.837838 23:-0.714286 24:-1 25:-0.681818 
3.88 1:-0.478261 2:-0.481481 3:1 4:-0.878788 5:-0.654321 6:0.506452 7:0.841451 8:-0.87013 9:0.087724 10:-0.882353 11:-0.973031 12:-0.882353 13:-0.857184 14:-1 15:0.26769 16:-1 17:0.0393206 18:-0.960784 19:-0.727273 20:-0.904762 21:-0.777778 22:-0.621622 23:-0.428571 24:-1 25:-0.590909 
3.88 1:-0.217391 2:0.037037 3:1 4:-0.959596 5:-0.358025 6:-0.0299154 7:0.669145 8:-0.922078 9:0.707189 10:-0.882353 11:-0.975149 12:-0.882353 13:-0.857184 14:-1 15:0.999999 16:-1 17:-0.56695 18:-0.764706 19:-0.363636 20:-1 21:-0.555556 22:0.027027 23:-0.285714 24:-0.333333 25:-0.0909091 
3.88 1:-0.652174 2:-0.740741 3:1 4:-0.919192 5:-0.703704 6:0.678113 7:0.896596 8:-0.974026 9:0.795757 10:-0.843137 11:-0.969324 12:-0.764706 13:-0.857184 14:-1 15:0.999999 16:-1 17:0.389745 18:-0.960784 19:-0.909091 20:-0.904762 21:-1 22:-0.837838 23:-0.714286 24:-1 25:-0.681818 
3.88 1:-0.478261 2:-0.481481 3:1 4:-0.878788 5:-0.654321 6:0.506452 7:0.841451 8:-0.87013 9:0.087724 10:-0.882353 11:-0.973031 12:-0.882353 13:-0.857184 14:-1 15:0.26769 16:-1 17:0.0393206 18:-0.960784 19:-0.727273 20:-0.904762 21:-0.777778 22:-0.621622 23:-0.428571 24:-1 25:-0.590909 
3.88 1:-0.217391 2:0.037037 3:1 4:-0.959596 5:-0.358025 6:-0.0299154 7:0.669145 8:-0.922078 9:0.707189 10:-0.882353 11:-0.975149 12:-0.882353 13:-0.857184 14:-1 15:0.999999 16:-1 17:-0.56695 18:-0.764706 19:-0.363636 20:-1 21:-0.555556 22:0.027027 23:-0.285714 24:-0.333333 25:-0.0909091 
3.88 1:-0.478261 2:-0.685185 3:1 4:-0.878788 5:-0.62963 6:0.00910907 7:0.681682 8:-0.974026 9:0.336733 10:-0.882353 11:-0.975149 12:-0.882353 13:-0.87017 14:-1 15:0.389745 16:-1 17:0.0393206 18:-0.921569 19:-0.818182 20:-1 21:-0.777778 22:-0.783784 23:-0.714286 24:-1 25:-0.636364 
3.88 1:-0.478261 2:-0.685185 3:1 4:-0.878788 5:-0.62963 6:0.00910907 7:0.681682 8:-0.974026 9:0.336733 10:-0.882353 11:-0.975149 12:-0.882353 13:-0.87017 14:-1 15:0.389745 16:-1 17:0.0393206 18:-0.921569 19:-0.818182 20:-1 21:-0.777778 22:-0.783784 23:-0.714286 24:-1 25:-0.636364 
3.832759325272059 1:-0.217391 2:-0.296296 3:1 4:-0.878788 5:-0.185185 6:0.751802 7:0.920268 8:-0.922078 9:-0.950938 10:-0.764706 11:-0.981113 12:-0.882353 13:-0.879229 14:-0.857143 15:0.389745 16:-1 17:0.22128 18:-0.490196 19:-0.454545 20:-1 21:-0.333333 22:-0.459459 23:-0.428571 24:-1 25:-0.5 
3.88 1:-0.391304 2:-0.62963 3:1 4:-0.89899 5:-0.604938 6:0.632421 7:0.881917 8:-0.974026 9:0.00576203 10:-0.803922 11:-0.989263 12:-0.764706 13:-0.87017 14:-1 15:0.389745 16:-1 17:-0.343929 18:-0.882353 19:-0.727273 20:-0.904762 21:-0.777778 22:-0.72973 23:-0.571429 24:-1 25:-0.772727 
3.88 1:-0.217391 2:-0.296296 3:1 4:-0.878788 5:-0.185185 6:0.751802 7:0.920268 8:-0.922078 9:-0.950938 10:-0.764706 11:-0.981113 12:-0.882353 13:-0.879229 14:-0.857143 15:0.389745 16:-1 17:0.22128 18:-0.490196 19:-0.454545 20:-1 21:-0.333333 22:-0.459459 23:-0.428571 24:-1 25:-0.5 
3.88 1:-0.391304 2:-0.62963 3:1 4:-0.89899 5:-0.604938 6:0.632421 7:0.881917 8:-0.974026 9:0.00576203 10:-0.803922 11:-0.989263 12:-0.764706 13:-0.87017 14:-1 15:0.389745 16:-1 17:-0.343929 18:-0.882353 19:-0.727273 20:-0.904762 21:-0.777778 22:-0.72973 23:-0.571429 24:-1 25:-0.772727 
3.88 1:-0.478261 2:-0.703704 3:1 4:-0.919192 5:-0.62963 6:0.632421 7:0.881917 8:-0.974026 9:-0.111882 10:-0.686275 11:-0.975288 12:-0.764706 13:-0.857184 14:-1 15:0.389745 16:-1 17:0.266326 18:-0.921569 19:-0.818182 20:-0.904762 21:-1 22:-0.72973 23:-0.571429 24:-1 25:-0.636364 
3.88 1:-0.478261 2:-0.703704 3:1 4:-0.919192 5:-0.62963 6:0.632421 7:0.881917 8:-0.974026 9:-0.111882 10:-0.686275 11:-0.975288 12:-0.764706 13:-0.857184 14:-1 15:0.389745 16:-1 17:0.266326 18:-0.921569 19:-0.818182 20:-0.904762 21:-1 22:-0.72973 23:-0.571429 24:-1 25:-0.636364 
3.88 1:-0.217391 2:-0.296296 3:1 4:-0.878788 5:-0.185185 6:0.751802 7:0.920268 8:-0.922078 9:-0.950938 10:-0.764706 11:-0.981113 12:-0.882353 13:-0.879229 14:-0.857143 15:0.389745 16:-1 17:0.22128 18:-0.490196 19:-0.454545 20:-1 21:-0.333333 22:-0.459459 23:-0.428571 24:-1 25:-0.5 
3.88 1:-0.391304 2:-0.333333 3:1 4:-0.878788 5:-0.259259 6:0.797495 7:0.934946 8:-0.922078 9:-0.0432995 10:-0.921569 11:-0.975149 12:-0.882353 13:-0.879229 14:-0.857143 15:0.999999 16:-1 17:0.3447 18:-0.568627 19:-0.454545 20:-1 21:-0.333333 22:-0.567568 23:-0.571429 24:-1 25:-0.545455 
3.414159364723867 1:-0.217391 2:-0.296296 3:1 4:-0.878788 5:-0.185185 6:0.751802 7:0.920268 8:-0.922078 9:-0.950938 10:-0.764706 11:-0.981113 12:-0.882353 13:-0.879229 14:-0.857143 15:0.389745 16:-1 17:0.22128 18:-0.490196 19:-0.454545 20:-1 21:-0.333333 22:-0.459459 23:-0.428571 24:-1 25:-0.5 
3.88 1:-0.391304 2:-0.333333 3:1 4:-0.878788 5:-0.259259 6:0.797495 7:0.934946 8:-0.922078 9:-0.0432995 10:-0.921569 11:-0.975149 12:-0.882353 13:-0.879229 14:-0.857143 15:0.999999 16:-1 17:0.3447 18:-0.568627 19:-0.454545 20:-1 21:-0.333333 22:-0.567568 23:-0.571429 24:-1 25:-0.545455 
3.88 1:-0.0434783 2:0.37037 3:1 4:-0.939394 5:0.0617284 6:0.0894663 7:0.707496 8:-0.87013 9:-0.249512 10:-0.843137 11:-0.966999 12:-1 13:-0.866243 14:-0.857143 15:0.999999 16:-0.95 17:-0.00174038 18:-0.411765 19:-0.0909091 20:-1 21:-0.111111 22:0.297297 23:-0.142857 24:-0.333333 25:0.181818 
3.88 1:-0.0434783 2:0.37037 3:1 4:-0.939394 5:0.0617284 6:0.0894663 7:0.707496 8:-0.87013 9:-0.249512 10:-0.843137 11:-0.966999 12:-1 13:-0.866243 14:-0.857143 15:0.999999 16:-0.95 17:-0.00174038 18:-0.411765 19:-0.0909091 20:-1 21:-0.111111 22:0.297297 23:-0.142857 24:-0.333333 25:0.181818 
3.88 1:-0.0434783 2:0.37037 3:1 4:-0.939394 5:0.0617284 6:0.0894663 7:0.707496 8:-0.87013 9:-0.249512 10:-0.843137 11:-0.966999 12:-1 13:-0.866243 14:-0.857143 15:0.999999 16:-0.95 17:-0.00174038 18:-0.411765 19:-0.0909091 20:-1 21:-0.111111 22:0.297297 23:-0.142857 24:-0.333333 25:0.181818 
3.88 1:-0.0434783 2:0.37037 3:1 4:-0.939394 5:0.0617284 6:0.0894663 7:0.707496 8:-0.87013 9:-0.249512 10:-0.843137 11:-0.966999 12:-1 13:-0.866243 14:-0.857143 15:0.999999 16:-0.95 17:-0.00174038 18:-0.411765 19:-0.0909091 20:-1 21:-0.111111 22:0.297297 23:-0.142857 24:-0.333333 25:0.181818 
3.88 1:-0.391304 2:-0.62963 3:1 4:-0.939394 5:-0.802469 6:0.213255 7:0.747263 8:-0.922078 9:0.330899 10:-0.960784 11:-0.982055 12:-0.764706 13:-0.87017 14:-1 15:0.389745 16:-1 17:-0.22051 18:-0.921569 19:-0.727273 20:-0.904762 21:-0.555556 22:-0.783784 23:-0.714286 24:-1 25:-0.75 
3.88 1:-0.391304 2:-0.62963 3:1 4:-0.939394 5:-0.802469 6:0.213255 7:0.747263 8:-0.922078 9:0.330899 10:-0.960784 11:-0.982055 12:-0.764706 13:-0.87017 14:-1 15:0.389745 16:-1 17:-0.22051 18:-0.921569 19:-0.727273 20:-0.904762 21:-0.555556 22:-0.783784 23:-0.714286 24:-1 25:-0.75 
3.88 1:-0.565217 2:-0.722222 3:-1 4:-0.69697 5:-0.975309 6:-0.625802 7:0.373431 8:-0.766234 9:-0.625802 10:-0.921569 11:-0.966999 12:-1 13:-0.870435 14:-1 15:-0.343929 16:-0.95 17:0.999999 18:-0.764706 19:-0.909091 20:-1 21:-1 22:-0.837838 23:-0.857143 24:-1 25:-0.5 
3.88 1:-0.826087 2:-0.888889 3:-1 4:-0.878788 5:-1 6:-1 7:0.357511 8:-0.818182 9:-1 10:-0.960784 11:-0.964881 12:-1 13:-0.87017 14:-1 15:-0.22051 16:-1 17:0.389745 18:-1 19:-1 20:-1 21:-1 22:-0.891892 23:-1 24:-1 25:-0.568182 
3.88 1:-0.826087 2:-0.87037 3:-1 4:-0.858586 5:-0.975309 6:-1 7:0.357511 8:-0.792208 9:-1 10:-0.921569 11:-0.964881 12:-1 13:-0.87017 14:-1 15:-0.22051 16:-1 17:0.389745 18:-1 19:-1 20:-1 21:-1 22:-0.891892 23:-1 24:-1 25:-0.5 
3.88 1:-0.73913 2:-0.814815 3:-1 4:-0.79798 5:-0.925926 6:-0.831527 7:0.411632 8:-0.714286 9:-0.831527 10:-0.843137 11:-0.964881 12:-1 13:-0.87017 14:-1 15:-0.22051 16:-1 17:0.649575 18:-1 19:-1 20:-1 21:-1 22:-0.837838 23:-0.857143 24:-1 25:-0.5 
3.88 1:-0.73913 2:-0.833333 3:-1 4:-0.79798 5:-1 6:-0.831519 7:0.411635 8:-0.74026 9:-0.831519 10:-0.960784 11:-0.966999 12:-1 13:-0.87017 14:-1 15:-0.343929 16:-0.9 17:0.182392 18:-1 19:-1 20:-1 21:-1 22:-0.837838 23:-0.857143 24:-1 25:-0.477273 
3.88 1:-0.826087 2:-0.888889 3:-1 4:-0.878788 5:-1 6:-1 7:0.357511 8:-0.818182 9:-1 10:-0.960784 11:-0.964881 12:-1 13:-0.87017 14:-1 15:-0.22051 16:-1 17:0.389745 18:-1 19:-1 20:-1 21:-1 22:-0.891892 23:-1 24:-1 25:-0.568182 
3.88 1:-0.826087 2:-0.87037 3:-1 4:-0.858586 5:-0.975309 6:-1 7:0.357511 8:-0.792208 9:-1 10:-0.921569 11:-0.964881 12:-1 13:-0.87017 14:-1 15:-0.22051 16:-1 17:0.389745 18:-1 19:-1 20:-1 21:-1 22:-0.891892 23:-1 24:-1 25:-0.5 
3.88 1:-0.73913 2:-0.833333 3:-1 4:-0.79798 5:-1 6:-0.831519 7:0.411635 8:-0.74026 9:-0.831519 10:-0.960784 11:-0.966999 12:-1 13:-0.87017 14:-1 15:-0.343929 16:-0.9 17:0.182392 18:-1 19:-1 20:-1 21:-1 22:-0.837838 23:-0.857143 24:-1 25:-0.477273 
3.88 1:-0.478261 2:-0.759259 3:-1 4:-0.717172 5:-0.975309 6:-0.87192 7:0.479478 8:-0.766234 9:-0.87192 10:-0.960784 11:-0.964881 12:-0.764706 13:-0.857184 14:-1 15:0.389745 16:-0.95 17:0.649575 18:-1 19:-1 20:-1 21:-0.777778 22:-0.837838 23:-0.857143 24:-1 25:-0.5 
3.88 1:-0.478261 2:-0.759259 3:-1 4:-0.717172 5:-0.975309 6:-0.87192 7:0.479478 8:-0.766234 9:-0.87192 10:-0.960784 11:-0.964881 12:-0.764706 13:-0.857184 14:-1 15:0.389745 16:-0.95 17:0.649575 18:-1 19:-1 20:-1 21:-0.777778 22:-0.837838 23:-0.857143 24:-1 25:-0.5 
3.88 1:-0.478261 2:-0.759259 3:-1 4:-0.717172 5:-0.975309 6:-0.87192 7:0.479478 8:-0.766234 9:-0.87192 10:-0.960784 11:-0.964881 12:-0.764706 13:-0.857184 14:-1 15:0.389745 16:-0.95 17:0.649575 18:-1 19:-1 20:-1 21:-0.777778 22:-0.837838 23:-0.857143 24:-1 25:-0.5 
3.88 1:-0.652174 2:-0.796296 3:-1 4:-0.79798 5:-0.950617 6:-0.868976 7:0.399602 8:-0.714286 9:-0.868976 10:-0.882353 11:-0.966999 12:-1 13:-0.857184 14:-1 15:0.0393206 16:-0.95 17:1 18:-1 19:-0.909091 20:-1 21:-1 22:-0.837838 23:-0.714286 24:-1 25:-0.5 
3.88 1:-0.478261 2:-0.722222 3:-1 4:-0.737374 5:-0.925926 6:-0.87192 7:0.479478 8:-0.792208 9:-0.87192 10:-0.882353 11:-0.980007 12:-0.647059 13:-0.857184 14:-1 15:-3.53027e-07 16:-0.75 17:-0.350425 18:-0.960784 19:-0.818182 20:-0.904762 21:-0.777778 22:-0.783784 23:-0.857143 24:-1 25:-0.659091 
3.88 1:-0.478261 2:-0.722222 3:-1 4:-0.737374 5:-0.925926 6:-0.87192 7:0.479478 8:-0.792208 9:-0.87192 10:-0.882353 11:-0.980007 12:-0.647059 13:-0.857184 14:-1 15:-3.53027e-07 16:-0.75 17:-0.350425 18:-0.960784 19:-0.818182 20:-0.904762 21:-0.777778 22:-0.783784 23:-0.857143 24:-1 25:-0.659091 
3.88 1:-0.478261 2:-0.722222 3:-1 4:-0.737374 5:-0.925926 6:-0.87192 7:0.479478 8:-0.792208 9:-0.87192 10:-0.882353 11:-0.980007 12:-0.647059 13:-0.857184 14:-1 15:-3.53027e-07 16:-0.75 17:-0.350425 18:-0.960784 19:-0.818182 20:-0.904762 21:-0.777778 22:-0.783784 23:-0.857143 24:-1 25:-0.659091 
3.88 1:-0.478261 2:-0.814815 3:-1 4:-0.79798 5:-0.975309 6:-0.87192 7:0.479478 8:-0.87013 9:-0.87192 10:-0.960784 11:-0.962763 12:-0.764706 13:-0.857184 14:-1 15:0.389745 16:-0.95 17:0.0393206 18:-1 19:-1 20:-0.904762 21:-0.777778 22:-0.837838 23:-0.857143 24:-1 25:-0.795455 
3.88 1:-0.652174 2:-0.851852 3:-1 4:-0.858586 5:-0.950617 6:-0.868976 7:0.399602 8:-0.818182 9:-0.868976 10:-0.882353 11:-0.964881 12:-1 13:-0.857184 14:-1 15:0.0393206 16:-1 17:0.389745 18:-1 19:-0.909091 20:-0.904762 21:-1 22:-0.891892 23:-0.857143 24:-1 25:-0.795455 
3.88 1:-0.652174 2:-0.759259 3:-1 4:-0.737374 5:-0.950617 6:-0.625802 7:0.373431 8:-0.844156 9:-0.625802 10:-0.843137 11:-0.964881 12:-1 13:-0.870435 14:-1 15:-0.343929 16:-0.95 17:0.389745 18:-0.764706 19:-0.909091 20:-0.904762 21:-1 22:-0.891892 23:-1 24:-1 25:-0.727273 
3.88 1:-0.652174 2:-0.796296 3:-1 4:-0.777778 5:-0.925926 6:-0.625802 7:0.598605 8:-0.87013 9:-0.625802 10:-0.764706 11:-0.964881 12:-1 13:-0.87017 14:-1 15:0.0393206 16:-1 17:0.389745 18:-1 19:-0.909091 20:-1 21:-1 22:-0.837838 23:-0.857143 24:-1 25:-0.75 
3.88 1:-0.826087 2:-0.87037 3:-1 4:-0.858586 5:-0.975309 6:-1 7:0.357511 8:-0.792208 9:-1 10:-0.921569 11:-0.964881 12:-1 13:-0.87017 14:-1 15:-0.22051 16:-1 17:0.389745 18:-1 19:-1 20:-1 21:-1 22:-0.891892 23:-1 24:-1 25:-0.5 
3.88 1:-0.652174 2:-0.796296 3:-1 4:-0.777778 5:-0.925926 6:-0.625802 7:0.598605 8:-0.87013 9:-0.625802 10:-0.764706 11:-0.964881 12:-1 13:-0.87017 14:-1 15:0.0393206 16:-1 17:0.389745 18:-1 19:-0.909091 20:-1 21:-1 22:-0.837838 23:-0.857143 24:-1 25:-0.75 
3.88 1:-0.652174 2:-0.796296 3:-1 4:-0.777778 5:-0.925926 6:-0.625802 7:0.598605 8:-0.87013 9:-0.625802 10:-0.764706 11:-0.964881 12:-1 13:-0.87017 14:-1 15:0.0393206 16:-1 17:0.389745 18:-1 19:-0.909091 20:-1 21:-1 22:-0.837838 23:-0.857143 24:-1 25:-0.75 
3.88 1:-0.826087 2:-0.87037 3:-1 4:-0.858586 5:-0.975309 6:-1 7:0.357511 8:-0.792208 9:-1 10:-0.921569 11:-0.964881 12:-1 13:-0.87017 14:-1 15:-0.22051 16:-1 17:0.389745 18:-1 19:-1 20:-1 21:-1 22:-0.891892 23:-1 24:-1 25:-0.5 
3.88 1:-0.652174 2:-0.796296 3:-1 4:-0.777778 5:-0.925926 6:-0.625802 7:0.598605 8:-0.87013 9:-0.625802 10:-0.764706 11:-0.964881 12:-1 13:-0.87017 14:-1 15:0.0393206 16:-1 17:0.389745 18:-1 19:-0.909091 20:-1 21:-1 22:-0.837838 23:-0.857143 24:-1 25:-0.75 
3.88 1:-0.826087 2:-0.925926 3:-1 4:-0.919192 5:-0.975309 6:-1 7:0.357511 8:-0.87013 9:-1 10:-0.921569 11:-0.962763 12:-0.882353 13:-0.87017 14:-1 15:-0.22051 16:-1 17:-0.22051 18:-1 19:-1 20:-0.904762 21:-1 22:-0.945946 23:-1 24:-1 25:-0.772727 
3.88 1:-0.73913 2:-0.851852 3:-1 4:-0.838384 5:-0.876543 6:-0.831527 7:0.411632 8:-0.792208 9:-0.831527 10:-0.803922 11:-0.962763 12:-0.882353 13:-0.87017 14:-1 15:-0.22051 16:-1 17:0.0393206 18:-1 19:-1 20:-0.904762 21:-1 22:-0.891892 23:-0.857143 24:-1 25:-0.727273 
3.88 1:-0.826087 2:-0.87037 3:-1 4:-0.858586 5:-0.975309 6:-1 7:0.357511 8:-0.792208 9:-1 10:-0.921569 11:-0.964881 12:-1 13:-0.87017 14:-1 15:-0.22051 16:-1 17:0.389745 18:-1 19:-1 20:-1 21:-1 22:-0.891892 23:-1 24:-1 25:-0.5 
3.88 1:-0.826087 2:-0.925926 3:-1 4:-0.919192 5:-0.975309 6:-1 7:0.357511 8:-0.87013 9:-1 10:-0.921569 11:-0.962763 12:-0.882353 13:-0.87017 14:-1 15:-0.22051 16:-1 17:-0.22051 18:-1 19:-1 20:-0.904762 21:-1 22:-0.945946 23:-1 24:-1 25:-0.772727 
3.88 1:-0.826087 2:-0.87037 3:-1 4:-0.858586 5:-0.975309 6:-1 7:0.357511 8:-0.792208 9:-1 10:-0.921569 11:-0.964881 12:-1 13:-0.87017 14:-1 15:-0.22051 16:-1 17:0.389745 18:-1 19:-1 20:-1 21:-1 22:-0.891892 23:-1 24:-1 25:-0.5 
3.88 1:-0.478261 2:-0.796296 3:-1 4:-0.777778 5:-0.925926 6:-0.87192 7:0.479478 8:-0.844156 9:-0.87192 10:-0.882353 11:-0.962763 12:-0.764706 13:-0.857184 14:-1 15:0.389745 16:-0.95 17:0.0393206 18:-1 19:-1 20:-0.904762 21:-0.777778 22:-0.891892 23:-0.857143 24:-1 25:-0.727273 
3.88 1:-0.478261 2:-0.796296 3:-1 4:-0.777778 5:-0.925926 6:-0.87192 7:0.479478 8:-0.844156 9:-0.87192 10:-0.882353 11:-0.962763 12:-0.764706 13:-0.857184 14:-1 15:0.389745 16:-0.95 17:0.0393206 18:-1 19:-1 20:-0.904762 21:-0.777778 22:-0.891892 23:-0.857143 24:-1 25:-0.727273 
3.88 1:-0.478261 2:-0.796296 3:-1 4:-0.777778 5:-0.925926 6:-0.87192 7:0.479478 8:-0.844156 9:-0.87192 10:-0.882353 11:-0.962763 12:-0.764706 13:-0.857184 14:-1 15:0.389745 16:-0.95 17:0.0393206 18:-1 19:-1 20:-0.904762 21:-0.777778 22:-0.891892 23:-0.857143 24:-1 25:-0.727273 
3.88 1:-0.652174 2:-0.833333 3:-1 4:-0.838384 5:-0.901235 6:-0.868976 7:0.399602 8:-0.792208 9:-0.868976 10:-0.843137 11:-0.964881 12:-1 13:-0.857184 14:-1 15:0.0393206 16:-1 17:0.389745 18:-1 19:-0.909091 20:-0.904762 21:-1 22:-0.891892 23:-0.857143 24:-1 25:-0.727273 
3.88 1:-0.652174 2:-0.574074 3:1 4:-0.777778 5:-0.580247 6:-0.160943 7:0.627053 8:-0.74026 9:-0.0432995 10:-0.568627 11:-0.985672 12:-0.764706 13:-0.87017 14:-1 15:0.649575 16:-0.95 17:0.0393206 18:-0.843137 19:-0.545455 20:-0.904762 21:-1 22:-0.675676 23:-0.857143 24:-1 25:-0.681818 
3.88 1:-0.652174 2:-0.574074 3:1 4:-0.777778 5:-0.580247 6:-0.160943 7:0.627053 8:-0.74026 9:-0.0432995 10:-0.568627 11:-0.985672 12:-0.764706 13:-0.87017 14:-1 15:0.649575 16:-0.95 17:0.0393206 18:-0.843137 19:-0.545455 20:-0.904762 21:-1 22:-0.675676 23:-0.857143 24:-1 25:-0.681818 
3.88 1:-0.73913 2:-0.833333 3:-1 4:-0.79798 5:-1 6:-0.831519 7:0.411635 8:-0.74026 9:-0.831519 10:-0.960784 11:-0.966999 12:-1 13:-0.87017 14:-1 15:-0.343929 16:-0.9 17:0.182392 18:-1 19:-1 20:-1 21:-1 22:-0.837838 23:-0.857143 24:-1 25:-0.477273 
3.88 1:-0.73913 2:-0.833333 3:-1 4:-0.79798 5:-1 6:-0.831519 7:0.411635 8:-0.74026 9:-0.831519 10:-0.960784 11:-0.966999 12:-1 13:-0.87017 14:-1 15:-0.343929 16:-0.9 17:0.182392 18:-1 19:-1 20:-1 21:-1 22:-0.837838 23:-0.857143 24:-1 25:-0.477273 
3.88 1:-0.73913 2:-0.833333 3:-1 4:-0.79798 5:-1 6:-0.831519 7:0.411635 8:-0.74026 9:-0.831519 10:-0.960784 11:-0.966999 12:-1 13:-0.87017 14:-1 15:-0.343929 16:-0.9 17:0.182392 18:-1 19:-1 20:-1 21:-1 22:-0.837838 23:-0.857143 24:-1 25:-0.477273 
3.88 1:-0.73913 2:-0.833333 3:-1 4:-0.79798 5:-1 6:-0.831519 7:0.411635 8:-0.74026 9:-0.831519 10:-0.960784 11:-0.966999 12:-1 13:-0.87017 14:-1 15:-0.343929 16:-0.9 17:0.182392 18:-1 19:-1 20:-1 21:-1 22:-0.837838 23:-0.857143 24:-1 25:-0.477273 
3.88 1:-0.391304 2:-0.759259 3:-1 4:-0.717172 5:-0.950617 6:-0.703439 7:0.533602 8:-0.792208 9:-0.703439 10:-0.960784 11:-0.964881 12:-0.764706 13:-0.857184 14:-1 15:0.266326 16:-0.9 17:-0.168032 18:-1 19:-1 20:-1 21:-0.777778 22:-0.783784 23:-0.714286 24:-1 25:-0.704545 
3.88 1:-0.391304 2:-0.759259 3:-1 4:-0.717172 5:-0.950617 6:-0.703439 7:0.533602 8:-0.792208 9:-0.703439 10:-0.960784 11:-0.964881 12:-0.764706 13:-0.857184 14:-1 15:0.266326 16:-0.9 17:-0.168032 18:-1 19:-1 20:-1 21:-0.777778 22:-0.783784 23:-0.714286 24:-1 25:-0.704545 
3.88 1:-0.391304 2:-0.759259 3:-1 4:-0.717172 5:-0.950617 6:-0.703439 7:0.533602 8:-0.792208 9:-0.703439 10:-0.960784 11:-0.964881 12:-0.764706 13:-0.857184 14:-1 15:0.266326 16:-0.9 17:-0.168032 18:-1 19:-1 20:-1 21:-0.777778 22:-0.783784 23:-0.714286 24:-1 25:-0.704545 
3.88 1:-0.565217 2:-0.796296 3:-1 4:-0.79798 5:-0.925926 6:-0.700495 7:0.453725 8:-0.74026 9:-0.700495 10:-0.882353 11:-0.966999 12:-1 13:-0.857184 14:-1 15:-0.0840987 16:-0.9 17:0.182393 18:-1 19:-0.909091 20:-1 21:-1 22:-0.837838 23:-0.714286 24:-1 25:-0.704545 
3.88 1:-0.478261 2:-0.555556 3:1 4:-0.878788 5:-0.506173 6:0.589604 7:0.868163 8:-0.922078 9:0.00748787 10:-0.843137 11:-0.9683 12:-0.764706 13:-0.870435 14:-1 15:0.389745 16:-1 17:-0.22051 18:-0.803922 19:-0.545455 20:-0.809524 21:-0.777778 22:-0.72973 23:-0.571429 24:-1 25:-0.704545 
3.88 1:-0.391304 2:-0.333333 3:1 4:-0.878788 5:-0.259259 6:0.797495 7:0.934946 8:-0.922078 9:-0.0432995 10:-0.921569 11:-0.975149 12:-0.882353 13:-0.879229 14:-0.857143 15:0.999999 16:-1 17:0.3447 18:-0.568627 19:-0.454545 20:-1 21:-0.333333 22:-0.567568 23:-0.571429 24:-1 25:-0.545455 
3.88 1:-0.304348 2:-0.388889 3:-1 4:-0.535354 5:-0.802469 6:0.463631 7:0.934946 8:-0.948052 9:0.581275 10:-0.921569 11:-0.975149 12:-0.882353 13:-0.87017 14:-1 15:0.389745 16:-1 17:-0.343929 18:-0.960784 19:-0.727273 20:-0.714286 21:-0.555556 22:-0.675676 23:-0.714286 24:-1 25:-0.522727 
3.88 1:-0.391304 2:-0.62963 3:1 4:-0.939394 5:-0.802469 6:0.213255 7:0.747263 8:-0.922078 9:0.330899 10:-0.960784 11:-0.982055 12:-0.764706 13:-0.87017 14:-1 15:0.389745 16:-1 17:-0.22051 18:-0.921569 19:-0.727273 20:-0.904762 21:-0.555556 22:-0.783784 23:-0.714286 24:-1 25:-0.75 
3.88 1:-0.391304 2:-0.62963 3:1 4:-0.89899 5:-0.604938 6:0.632421 7:0.881917 8:-0.974026 9:0.00576203 10:-0.803922 11:-0.989263 12:-0.764706 13:-0.87017 14:-1 15:0.389745 16:-1 17:-0.343929 18:-0.882353 19:-0.727273 20:-0.904762 21:-0.777778 22:-0.72973 23:-0.571429 24:-1 25:-0.772727 
3.88 1:-0.478261 2:-0.685185 3:1 4:-0.878788 5:-0.62963 6:0.00910907 7:0.681682 8:-0.974026 9:0.336733 10:-0.882353 11:-0.975149 12:-0.882353 13:-0.87017 14:-1 15:0.389745 16:-1 17:0.0393206 18:-0.921569 19:-0.818182 20:-1 21:-0.777778 22:-0.783784 23:-0.714286 24:-1 25:-0.636364 
3.88 1:-0.391304 2:-0.62963 3:1 4:-0.89899 5:-0.604938 6:0.632421 7:0.881917 8:-0.974026 9:0.00576203 10:-0.803922 11:-0.989263 12:-0.764706 13:-0.87017 14:-1 15:0.389745 16:-1 17:-0.343929 18:-0.882353 19:-0.727273 20:-0.904762 21:-0.777778 22:-0.72973 23:-0.571429 24:-1 25:-0.772727 
3.88 1:-0.391304 2:-0.333333 3:1 4:-0.878788 5:-0.259259 6:0.797495 7:0.934946 8:-0.922078 9:-0.0432995 10:-0.921569 11:-0.975149 12:-0.882353 13:-0.879229 14:-0.857143 15:0.999999 16:-1 17:0.3447 18:-0.568627 19:-0.454545 20:-1 21:-0.333333 22:-0.567568 23:-0.571429 24:-1 25:-0.545455 
3.88 1:-0.391304 2:-0.62963 3:1 4:-0.939394 5:-0.802469 6:0.213255 7:0.747263 8:-0.922078 9:0.330899 10:-0.960784 11:-0.982055 12:-0.764706 13:-0.87017 14:-1 15:0.389745 16:-1 17:-0.22051 18:-0.921569 19:-0.727273 20:-0.904762 21:-0.555556 22:-0.783784 23:-0.714286 24:-1 25:-0.75 
3.88 1:-0.304348 2:-0.388889 3:-1 4:-0.535354 5:-0.802469 6:0.463631 7:0.934946 8:-0.948052 9:0.581275 10:-0.921569 11:-0.975149 12:-0.882353 13:-0.87017 14:-1 15:0.389745 16:-1 17:-0.343929 18:-0.960784 19:-0.727273 20:-0.714286 21:-0.555556 22:-0.675676 23:-0.714286 24:-1 25:-0.522727 
3.88 1:-0.652174 2:-0.574074 3:1 4:-0.777778 5:-0.580247 6:-0.160943 7:0.627053 8:-0.74026 9:-0.0432995 10:-0.568627 11:-0.985672 12:-0.764706 13:-0.87017 14:-1 15:0.649575 16:-0.95 17:0.0393206 18:-0.843137 19:-0.545455 20:-0.904762 21:-1 22:-0.675676 23:-0.857143 24:-1 25:-0.681818 
3.88 1:-0.478261 2:-0.685185 3:1 4:-0.878788 5:-0.62963 6:0.00910907 7:0.681682 8:-0.974026 9:0.336733 10:-0.882353 11:-0.975149 12:-0.882353 13:-0.87017 14:-1 15:0.389745 16:-1 17:0.0393206 18:-0.921569 19:-0.818182 20:-1 21:-0.777778 22:-0.783784 23:-0.714286 24:-1 25:-0.636364 
3.88 1:-0.217391 2:0.037037 3:1 4:-0.959596 5:-0.358025 6:-0.0299154 7:0.669145 8:-0.922078 9:0.707189 10:-0.882353 11:-0.975149 12:-0.882353 13:-0.857184 14:-1 15:0.999999 16:-1 17:-0.56695 18:-0.764706 19:-0.363636 20:-1 21:-0.555556 22:0.027027 23:-0.285714 24:-0.333333 25:-0.0909091 
3.88 1:-0.478261 2:-0.481481 3:1 4:-0.878788 5:-0.654321 6:0.506452 7:0.841451 8:-0.87013 9:0.087724 10:-0.882353 11:-0.973031 12:-0.882353 13:-0.857184 14:-1 15:0.26769 16:-1 17:0.0393206 18:-0.960784 19:-0.727273 20:-0.904762 21:-0.777778 22:-0.621622 23:-0.428571 24:-1 25:-0.590909 
3.88 1:-0.217391 2:0.037037 3:1 4:-0.959596 5:-0.358025 6:-0.0299154 7:0.669145 8:-0.922078 9:0.707189 10:-0.882353 11:-0.975149 12:-0.882353 13:-0.857184 14:-1 15:0.999999 16:-1 17:-0.56695 18:-0.764706 19:-0.363636 20:-1 21:-0.555556 22:0.027027 23:-0.285714 24:-0.333333 25:-0.0909091 
3.88 1:-0.652174 2:-0.740741 3:1 4:-0.919192 5:-0.703704 6:0.678113 7:0.896596 8:-0.974026 9:0.795757 10:-0.843137 11:-0.969324 12:-0.764706 13:-0.857184 14:-1 15:0.999999 16:-1 17:0.389745 18:-0.960784 19:-0.909091 20:-0.904762 21:-1 22:-0.837838 23:-0.714286 24:-1 25:-0.681818 
3.88 1:-0.478261 2:-0.481481 3:1 4:-0.878788 5:-0.654321 6:0.506452 7:0.841451 8:-0.87013 9:0.087724 10:-0.882353 11:-0.973031 12:-0.882353 13:-0.857184 14:-1 15:0.26769 16:-1 17:0.0393206 18:-0.960784 19:-0.727273 20:-0.904762 21:-0.777778 22:-0.621622 23:-0.428571 24:-1 25:-0.590909 
3.88 1:-0.217391 2:0.037037 3:1 4:-0.959596 5:-0.358025 6:-0.0299154 7:0.669145 8:-0.922078 9:0.707189 10:-0.882353 11:-0.975149 12:-0.882353 13:-0.857184 14:-1 15:0.999999 16:-1 17:-0.56695 18:-0.764706 19:-0.363636 20:-1 21:-0.555556 22:0.027027 23:-0.285714 24:-0.333333 25:-0.0909091 
3.88 1:-0.652174 2:-0.740741 3:1 4:-0.919192 5:-0.703704 6:0.678113 7:0.896596 8:-0.974026 9:0.795757 10:-0.843137 11:-0.969324 12:-0.764706 13:-0.857184 14:-1 15:0.999999 16:-1 17:0.389745 18:-0.960784 19:-0.909091 20:-0.904762 21:-1 22:-0.837838 23:-0.714286 24:-1 25:-0.681818 
3.88 1:-0.478261 2:-0.481481 3:1 4:-0.878788 5:-0.654321 6:0.506452 7:0.841451 8:-0.87013 9:0.087724 10:-0.882353 11:-0.973031 12:-0.882353 13:-0.857184 14:-1 15:0.26769 16:-1 17:0.0393206 18:-0.960784 19:-0.727273 20:-0.904762 21:-0.777778 22:-0.621622 23:-0.428571 24:-1 25:-0.590909 
3.88 1:-0.217391 2:0.037037 3:1 4:-0.959596 5:-0.358025 6:-0.0299154 7:0.669145 8:-0.922078 9:0.707189 10:-0.882353 11:-0.975149 12:-0.882353 13:-0.857184 14:-1 15:0.999999 16:-1 17:-0.56695 18:-0.764706 19:-0.363636 20:-1 21:-0.555556 22:0.027027 23:-0.285714 24:-0.333333 25:-0.0909091 
3.88 1:-0.478261 2:-0.685185 3:1 4:-0.878788 5:-0.62963 6:0.00910907 7:0.681682 8:-0.974026 9:0.336733 10:-0.882353 11:-0.975149 12:-0.882353 13:-0.87017 14:-1 15:0.389745 16:-1 17:0.0393206 18:-0.921569 19:-0.818182 20:-1 21:-0.777778 22:-0.783784 23:-0.714286 24:-1 25:-0.636364 
3.88 1:-0.478261 2:-0.685185 3:1 4:-0.878788 5:-0.62963 6:0.00910907 7:0.681682 8:-0.974026 9:0.336733 10:-0.882353 11:-0.975149 12:-0.882353 13:-0.87017 14:-1 15:0.389745 16:-1 17:0.0393206 18:-0.921569 19:-0.818182 20:-1 21:-0.777778 22:-0.783784 23:-0.714286 24:-1 25:-0.636364 
3.88 1:-0.565217 2:-0.722222 3:-1 4:-0.69697 5:-0.975309 6:-0.625802 7:0.373431 8:-0.766234 9:-0.625802 10:-0.921569 11:-0.966999 12:-1 13:-0.870435 14:-1 15:-0.343929 16:-0.95 17:0.999999 18:-0.764706 19:-0.909091 20:-1 21:-1 22:-0.837838 23:-0.857143 24:-1 25:-0.5 
3.88 1:-0.826087 2:-0.888889 3:-1 4:-0.878788 5:-1 6:-1 7:0.357511 8:-0.818182 9:-1 10:-0.960784 11:-0.964881 12:-1 13:-0.87017 14:-1 15:-0.22051 16:-1 17:0.389745 18:-1 19:-1 20:-1 21:-1 22:-0.891892 23:-1 24:-1 25:-0.568182 
3.88 1:-0.826087 2:-0.87037 3:-1 4:-0.858586 5:-0.975309 6:-1 7:0.357511 8:-0.792208 9:-1 10:-0.921569 11:-0.964881 12:-1 13:-0.87017 14:-1 15:-0.22051 16:-1 17:0.389745 18:-1 19:-1 20:-1 21:-1 22:-0.891892 23:-1 24:-1 25:-0.5 
3.88 1:-0.73913 2:-0.814815 3:-1 4:-0.79798 5:-0.925926 6:-0.831527 7:0.411632 8:-0.714286 9:-0.831527 10:-0.843137 11:-0.964881 12:-1 13:-0.87017 14:-1 15:-0.22051 16:-1 17:0.649575 18:-1 19:-1 20:-1 21:-1 22:-0.837838 23:-0.857143 24:-1 25:-0.5 
3.88 1:-0.73913 2:-0.833333 3:-1 4:-0.79798 5:-1 6:-0.831519 7:0.411635 8:-0.74026 9:-0.831519 10:-0.960784 11:-0.966999 12:-1 13:-0.87017 14:-1 15:-0.343929 16:-0.9 17:0.182392 18:-1 19:-1 20:-1 21:-1 22:-0.837838 23:-0.857143 24:-1 25:-0.477273 
3.88 1:-0.826087 2:-0.888889 3:-1 4:-0.878788 5:-1 6:-1 7:0.357511 8:-0.818182 9:-1 10:-0.960784 11:-0.964881 12:-1 13:-0.87017 14:-1 15:-0.22051 16:-1 17:0.389745 18:-1 19:-1 20:-1 21:-1 22:-0.891892 23:-1 24:-1 25:-0.568182 
3.88 1:-0.826087 2:-0.87037 3:-1 4:-0.858586 5:-0.975309 6:-1 7:0.357511 8:-0.792208 9:-1 10:-0.921569 11:-0.964881 12:-1 13:-0.87017 14:-1 15:-0.22051 16:-1 17:0.389745 18:-1 19:-1 20:-1 21:-1 22:-0.891892 23:-1 24:-1 25:-0.5 
3.88 1:-0.73913 2:-0.833333 3:-1 4:-0.79798 5:-1 6:-0.831519 7:0.411635 8:-0.74026 9:-0.831519 10:-0.960784 11:-0.966999 12:-1 13:-0.87017 14:-1 15:-0.343929 16:-0.9 17:0.182392 18:-1 19:-1 20:-1 21:-1 22:-0.837838 23:-0.857143 24:-1 25:-0.477273 
3.88 1:-0.478261 2:-0.759259 3:-1 4:-0.717172 5:-0.975309 6:-0.87192 7:0.479478 8:-0.766234 9:-0.87192 10:-0.960784 11:-0.964881 12:-0.764706 13:-0.857184 14:-1 15:0.389745 16:-0.95 17:0.649575 18:-1 19:-1 20:-1 21:-0.777778 22:-0.837838 23:-0.857143 24:-1 25:-0.5 
3.88 1:-0.478261 2:-0.759259 3:-1 4:-0.717172 5:-0.975309 6:-0.87192 7:0.479478 8:-0.766234 9:-0.87192 10:-0.960784 11:-0.964881 12:-0.764706 13:-0.857184 14:-1 15:0.389745 16:-0.95 17:0.649575 18:-1 19:-1 20:-1 21:-0.777778 22:-0.837838 23:-0.857143 24:-1 25:-0.5 
3.88 1:-0.478261 2:-0.759259 3:-1 4:-0.717172 5:-0.975309 6:-0.87192 7:0.479478 8:-0.766234 9:-0.87192 10:-0.960784 11:-0.964881 12:-0.764706 13:-0.857184 14:-1 15:0.389745 16:-0.95 17:0.649575 18:-1 19:-1 20:-1 21:-0.777778 22:-0.837838 23:-0.857143 24:-1 25:-0.5 
3.88 1:-0.652174 2:-0.796296 3:-1 4:-0.79798 5:-0.950617 6:-0.868976 7:0.399602 8:-0.714286 9:-0.868976 10:-0.882353 11:-0.966999 12:-1 13:-0.857184 14:-1 15:0.0393206 16:-0.95 17:1 18:-1 19:-0.909091 20:-1 21:-1 22:-0.837838 23:-0.714286 24:-1 25:-0.5 
3.88 1:-0.0434783 2:0.37037 3:1 4:-0.939394 5:0.0617284 6:0.0894663 7:0.707496 8:-0.87013 9:-0.249512 10:-0.843137 11:-0.966999 12:-1 13:-0.866243 14:-0.857143 15:0.999999 16:-0.95 17:-0.00174038 18:-0.411765 19:-0.0909091 20:-1 21:-0.111111 22:0.297297 23:-0.142857 24:-0.333333 25:0.181818 
3.88 1:-0.217391 2:0.037037 3:1 4:-0.959596 5:-0.358025 6:-0.0299154 7:0.669145 8:-0.922078 9:0.707189 10:-0.882353 11:-0.975149 12:-0.882353 13:-0.857184 14:-1 15:0.999999 16:-1 17:-0.56695 18:-0.764706 19:-0.363636 20:-1 21:-0.555556 22:0.027027 23:-0.285714 24:-0.333333 25:-0.0909091 
3.88 1:-0.0434783 2:0.37037 3:1 4:-0.939394 5:0.0617284 6:0.0894663 7:0.707496 8:-0.87013 9:-0.249512 10:-0.843137 11:-0.966999 12:-1 13:-0.866243 14:-0.857143 15:0.999999 16:-0.95 17:-0.00174038 18:-0.411765 19:-0.0909091 20:-1 21:-0.111111 22:0.297297 23:-0.142857 24:-0.333333 25:0.181818 
3.88 1:-0.217391 2:0.037037 3:1 4:-0.959596 5:-0.358025 6:-0.0299154 7:0.669145 8:-0.922078 9:0.707189 10:-0.882353 11:-0.975149 12:-0.882353 13:-0.857184 14:-1 15:0.999999 16:-1 17:-0.56695 18:-0.764706 19:-0.363636 20:-1 21:-0.555556 22:0.027027 23:-0.285714 24:-0.333333 25:-0.0909091 
3.711549468595579 1:-0.304348 2:-0.037037 3:1 4:-0.979798 5:-0.382716 6:-0.0299154 7:0.669145 8:-0.922078 9:0.589545 10:-0.764706 11:-0.961174 12:-0.882353 13:-0.844198 14:-1 15:0.999999 16:-0.95 17:0.043305 18:-0.803922 19:-0.545455 20:-0.904762 21:-0.555556 22:0.027027 23:-0.285714 24:-0.333333 25:0.0454545 
3.88 1:-0.304348 2:-0.037037 3:1 4:-0.979798 5:-0.382716 6:-0.0299154 7:0.669145 8:-0.922078 9:0.589545 10:-0.764706 11:-0.961174 12:-0.882353 13:-0.844198 14:-1 15:0.999999 16:-0.95 17:0.043305 18:-0.803922 19:-0.545455 20:-0.904762 21:-0.555556 22:0.027027 23:-0.285714 24:-0.333333 25:0.0454545 
3.88 1:-0.478261 2:-0.481481 3:1 4:-0.878788 5:-0.654321 6:0.506452 7:0.841451 8:-0.87013 9:0.087724 10:-0.882353 11:-0.973031 12:-0.882353 13:-0.857184 14:-1 15:0.26769 16:-1 17:0.0393206 18:-0.960784 19:-0.727273 20:-0.904762 21:-0.777778 22:-0.621622 23:-0.428571 24:-1 25:-0.590909 
3.88 1:-0.478261 2:-0.481481 3:1 4:-0.878788 5:-0.654321 6:0.506452 7:0.841451 8:-0.87013 9:0.087724 10:-0.882353 11:-0.973031 12:-0.882353 13:-0.857184 14:-1 15:0.26769 16:-1 17:0.0393206 18:-0.960784 19:-0.727273 20:-0.904762 21:-0.777778 22:-0.621622 23:-0.428571 24:-1 25:-0.590909 
3.88 1:-0.0434783 2:0.37037 3:1 4:-0.939394 5:0.0617284 6:0.0894663 7:0.707496 8:-0.87013 9:-0.249512 10:-0.843137 11:-0.966999 12:-1 13:-0.866243 14:-0.857143 15:0.999999 16:-0.95 17:-0.00174038 18:-0.411765 19:-0.0909091 20:-1 21:-0.111111 22:0.297297 23:-0.142857 24:-0.333333 25:0.181818 
3.88 1:-0.217391 2:0.037037 3:1 4:-0.959596 5:-0.358025 6:-0.0299154 7:0.669145 8:-0.922078 9:0.707189 10:-0.882353 11:-0.975149 12:-0.882353 13:-0.857184 14:-1 15:0.999999 16:-1 17:-0.56695 18:-0.764706 19:-0.363636 20:-1 21:-0.555556 22:0.027027 23:-0.285714 24:-0.333333 25:-0.0909091 
3.88 1:-0.0434783 2:0.37037 3:1 4:-0.939394 5:0.0617284 6:0.0894663 7:0.707496 8:-0.87013 9:-0.249512 10:-0.843137 11:-0.966999 12:-1 13:-0.866243 14:-0.857143 15:0.999999 16:-0.95 17:-0.00174038 18:-0.411765 19:-0.0909091 20:-1 21:-0.111111 22:0.297297 23:-0.142857 24:-0.333333 25:0.181818 
3.88 1:-0.217391 2:0.037037 3:1 4:-0.959596 5:-0.358025 6:-0.0299154 7:0.669145 8:-0.922078 9:0.707189 10:-0.882353 11:-0.975149 12:-0.882353 13:-0.857184 14:-1 15:0.999999 16:-1 17:-0.56695 18:-0.764706 19:-0.363636 20:-1 21:-0.555556 22:0.027027 23:-0.285714 24:-0.333333 25:-0.0909091 
3.88 1:-0.304348 2:-0.037037 3:1 4:-0.979798 5:-0.382716 6:-0.0299154 7:0.669145 8:-0.922078 9:0.589545 10:-0.764706 11:-0.961174 12:-0.882353 13:-0.844198 14:-1 15:0.999999 16:-0.95 17:0.043305 18:-0.803922 19:-0.545455 20:-0.904762 21:-0.555556 22:0.027027 23:-0.285714 24:-0.333333 25:0.0454545 
3.88 1:-0.304348 2:-0.037037 3:1 4:-0.979798 5:-0.382716 6:-0.0299154 7:0.669145 8:-0.922078 9:0.589545 10:-0.764706 11:-0.961174 12:-0.882353 13:-0.844198 14:-1 15:0.999999 16:-0.95 17:0.043305 18:-0.803922 19:-0.545455 20:-0.904762 21:-0.555556 22:0.027027 23:-0.285714 24:-0.333333 25:0.0454545 
3.88 1:-0.304348 2:-0.648148 3:-1 4:-0.616162 5:-0.950617 6:-0.497721 7:0.495398 8:-0.818182 9:-0.497721 10:-0.882353 11:-0.964881 12:-0.764706 13:-0.857449 14:-1 15:0.266326 16:-0.9 17:0.649575 18:-0.764706 19:-0.909091 20:-0.904762 21:-0.555556 22:-0.837838 23:-0.857143 24:-1 25:-0.727273 
3.88 1:-0.217391 2:-0.703704 3:-1 4:-0.717172 5:-0.925926 6:-0.703439 7:0.549479 8:-0.87013 9:-0.703439 10:-0.960784 11:-0.964881 12:-0.764706 13:-0.857184 14:-1 15:0.389745 16:-0.95 17:0.0393206 18:-1 19:-1 20:-1 21:-0.333333 22:-0.783784 23:-0.857143 24:-1 25:-0.704545 
3.88 1:-0.130435 2:-0.388889 3:-1 4:-0.414141 5:-0.925926 6:-0.247345 7:0.787371 8:-0.87013 9:-0.247345 10:-0.921569 11:-0.964881 12:-0.764706 13:-0.857184 14:-1 15:0.389745 16:-0.95 17:-0.0840987 18:-1 19:-0.818182 20:-0.714286 21:-0.333333 22:-0.675676 23:-0.714286 24:-1 25:-0.477273 
3.88 1:-0.217391 2:-0.537037 3:-1 4:-0.474747 5:-0.950617 6:-0.740896 7:0.521569 8:-0.480519 9:-0.740896 10:-0.960784 11:-0.964881 12:-0.764706 13:-0.848478 14:-0.857143 15:0.999999 16:-0.95 17:0.299151 18:-0.921569 19:-0.818182 20:-0.809524 21:-0.777778 22:-0.621622 23:-0.571429 24:-1 25:-0.340909 
3.88 1:-0.478261 2:-0.759259 3:-1 4:-0.717172 5:-0.975309 6:-0.87192 7:0.479478 8:-0.766234 9:-0.87192 10:-0.960784 11:-0.964881 12:-0.764706 13:-0.857184 14:-1 15:0.389745 16:-0.95 17:0.649575 18:-1 19:-1 20:-1 21:-0.777778 22:-0.837838 23:-0.857143 24:-1 25:-0.5 
3.88 1:-0.478261 2:-0.759259 3:-1 4:-0.717172 5:-0.975309 6:-0.87192 7:0.479478 8:-0.766234 9:-0.87192 10:-0.960784 11:-0.964881 12:-0.764706 13:-0.857184 14:-1 15:0.389745 16:-0.95 17:0.649575 18:-1 19:-1 20:-1 21:-0.777778 22:-0.837838 23:-0.857143 24:-1 25:-0.5 
3.88 1:-0.478261 2:-0.814815 3:-1 4:-0.79798 5:-0.975309 6:-0.87192 7:0.479478 8:-0.87013 9:-0.87192 10:-0.960784 11:-0.962763 12:-0.764706 13:-0.857184 14:-1 15:0.389745 16:-0.95 17:0.0393206 18:-1 19:-1 20:-0.904762 21:-0.777778 22:-0.837838 23:-0.857143 24:-1 25:-0.795455 
3.88 1:-0.478261 2:-0.796296 3:-1 4:-0.777778 5:-0.925926 6:-0.87192 7:0.479478 8:-0.844156 9:-0.87192 10:-0.882353 11:-0.962763 12:-0.764706 13:-0.857184 14:-1 15:0.389745 16:-0.95 17:0.0393206 18:-1 19:-1 20:-0.904762 21:-0.777778 22:-0.891892 23:-0.857143 24:-1 25:-0.727273 
3.88 1:-0.391304 2:-0.740741 3:-1 4:-0.717172 5:-0.876543 6:-0.703447 7:0.533599 8:-0.766234 9:-0.703447 10:-0.843137 11:-0.962763 12:-0.764706 13:-0.857184 14:-1 15:0.389745 16:-0.95 17:0.299151 18:-1 19:-1 20:-0.904762 21:-0.777778 22:-0.783784 23:-0.714286 24:-1 25:-0.727273 
3.88 1:-0.391304 2:-0.759259 3:-1 4:-0.717172 5:-0.950617 6:-0.703439 7:0.533602 8:-0.792208 9:-0.703439 10:-0.960784 11:-0.964881 12:-0.764706 13:-0.857184 14:-1 15:0.266326 16:-0.9 17:-0.168032 18:-1 19:-1 20:-1 21:-0.777778 22:-0.783784 23:-0.714286 24:-1 25:-0.704545 
3.88 1:-0.478261 2:-0.759259 3:-1 4:-0.717172 5:-0.975309 6:-0.87192 7:0.479478 8:-0.766234 9:-0.87192 10:-0.960784 11:-0.964881 12:-0.764706 13:-0.857184 14:-1 15:0.389745 16:-0.95 17:0.649575 18:-1 19:-1 20:-1 21:-0.777778 22:-0.837838 23:-0.857143 24:-1 25:-0.5 
3.88 1:-0.478261 2:-0.722222 3:-1 4:-0.737374 5:-0.925926 6:-0.87192 7:0.479478 8:-0.792208 9:-0.87192 10:-0.882353 11:-0.980007 12:-0.647059 13:-0.857184 14:-1 15:-3.53027e-07 16:-0.75 17:-0.350425 18:-0.960784 19:-0.818182 20:-0.904762 21:-0.777778 22:-0.783784 23:-0.857143 24:-1 25:-0.659091 
3.88 1:-0.217391 2:-0.703704 3:-1 4:-0.717172 5:-0.925926 6:-0.703439 7:0.549479 8:-0.87013 9:-0.703439 10:-0.960784 11:-0.964881 12:-0.764706 13:-0.857184 14:-1 15:0.389745 16:-0.95 17:0.0393206 18:-1 19:-1 20:-1 21:-0.333333 22:-0.783784 23:-0.857143 24:-1 25:-0.704545 
3.88 1:-0.130435 2:-0.388889 3:-1 4:-0.414141 5:-0.925926 6:-0.247345 7:0.787371 8:-0.87013 9:-0.247345 10:-0.921569 11:-0.964881 12:-0.764706 13:-0.857184 14:-1 15:0.389745 16:-0.95 17:-0.0840987 18:-1 19:-0.818182 20:-0.714286 21:-0.333333 22:-0.675676 23:-0.714286 24:-1 25:-0.477273 
3.88 1:-0.217391 2:-0.537037 3:-1 4:-0.474747 5:-0.950617 6:-0.740896 7:0.521569 8:-0.480519 9:-0.740896 10:-0.960784 11:-0.964881 12:-0.764706 13:-0.848478 14:-0.857143 15:0.999999 16:-0.95 17:0.299151 18:-0.921569 19:-0.818182 20:-0.809524 21:-0.777778 22:-0.621622 23:-0.571429 24:-1 25:-0.340909 
3.88 1:-0.478261 2:-0.814815 3:-1 4:-0.79798 5:-0.975309 6:-0.87192 7:0.479478 8:-0.87013 9:-0.87192 10:-0.960784 11:-0.962763 12:-0.764706 13:-0.857184 14:-1 15:0.389745 16:-0.95 17:0.0393206 18:-1 19:-1 20:-0.904762 21:-0.777778 22:-0.837838 23:-0.857143 24:-1 25:-0.795455 
3.88 1:-0.478261 2:-0.796296 3:-1 4:-0.777778 5:-0.925926 6:-0.87192 7:0.479478 8:-0.844156 9:-0.87192 10:-0.882353 11:-0.962763 12:-0.764706 13:-0.857184 14:-1 15:0.389745 16:-0.95 17:0.0393206 18:-1 19:-1 20:-0.904762 21:-0.777778 22:-0.891892 23:-0.857143 24:-1 25:-0.727273 
3.88 1:-0.391304 2:-0.759259 3:-1 4:-0.717172 5:-0.950617 6:-0.703439 7:0.533602 8:-0.792208 9:-0.703439 10:-0.960784 11:-0.964881 12:-0.764706 13:-0.857184 14:-1 15:0.266326 16:-0.9 17:-0.168032 18:-1 19:-1 20:-1 21:-0.777778 22:-0.783784 23:-0.714286 24:-1 25:-0.704545 
3.88 1:-0.478261 2:-0.759259 3:-1 4:-0.717172 5:-0.975309 6:-0.87192 7:0.479478 8:-0.766234 9:-0.87192 10:-0.960784 11:-0.964881 12:-0.764706 13:-0.857184 14:-1 15:0.389745 16:-0.95 17:0.649575 18:-1 19:-1 20:-1 21:-0.777778 22:-0.837838 23:-0.857143 24:-1 25:-0.5 
3.88 1:-0.304348 2:-0.722222 3:-1 4:-0.717172 5:-0.901235 6:-0.740896 7:0.521569 8:-0.766234 9:-0.740896 10:-0.882353 11:-0.964881 12:-0.764706 13:-0.844198 14:-1 15:0.649575 16:-0.95 17:0.649575 18:-1 19:-0.909091 20:-0.904762 21:-0.777778 22:-0.837838 23:-0.714286 24:-1 25:-0.727273 
3.88 1:-0.565217 2:-0.62963 3:1 4:-0.89899 5:-0.530864 6:0.589604 7:0.868163 8:-0.948052 9:-0.110156 10:-0.72549 11:-0.954325 12:-0.764706 13:-0.857449 14:-1 15:0.389745 16:-1 17:0.389745 18:-0.843137 19:-0.727273 20:-0.714286 21:-1 22:-0.72973 23:-0.714286 24:-1 25:-0.568182 
0.8101074729422284 1:-0.391304 2:-0.462963 3:-1 4:-0.555556 5:-0.82716 6:0.463631 7:0.934946 8:-0.948052 9:0.463631 10:-0.803922 11:-0.961174 12:-0.882353 13:-0.857184 14:-1 15:0.389745 16:-0.95 17:0.266326 18:-1 19:-0.818182 20:-0.619048 21:-0.777778 22:-0.675676 23:-0.714286 24:-1 25:-0.386364 
3.88 1:-0.478261 2:-0.703704 3:1 4:-0.919192 5:-0.62963 6:0.632421 7:0.881917 8:-0.974026 9:-0.111882 10:-0.686275 11:-0.975288 12:-0.764706 13:-0.857184 14:-1 15:0.389745 16:-1 17:0.266326 18:-0.921569 19:-0.818182 20:-0.904762 21:-1 22:-0.72973 23:-0.571429 24:-1 25:-0.636364 
3.88 1:-0.652174 2:-0.740741 3:1 4:-0.919192 5:-0.703704 6:0.678113 7:0.896596 8:-0.974026 9:0.795757 10:-0.843137 11:-0.969324 12:-0.764706 13:-0.857184 14:-1 15:0.999999 16:-1 17:0.389745 18:-0.960784 19:-0.909091 20:-0.904762 21:-1 22:-0.837838 23:-0.714286 24:-1 25:-0.681818 
3.88 1:-0.478261 2:-0.703704 3:1 4:-0.919192 5:-0.62963 6:0.632421 7:0.881917 8:-0.974026 9:-0.111882 10:-0.686275 11:-0.975288 12:-0.764706 13:-0.857184 14:-1 15:0.389745 16:-1 17:0.266326 18:-0.921569 19:-0.818182 20:-0.904762 21:-1 22:-0.72973 23:-0.571429 24:-1 25:-0.636364 
3.88 1:-0.652174 2:-0.740741 3:1 4:-0.919192 5:-0.703704 6:0.678113 7:0.896596 8:-0.974026 9:0.795757 10:-0.843137 11:-0.969324 12:-0.764706 13:-0.857184 14:-1 15:0.999999 16:-1 17:0.389745 18:-0.960784 19:-0.909091 20:-0.904762 21:-1 22:-0.837838 23:-0.714286 24:-1 25:-0.681818 
3.88 1:-0.304348 2:-0.037037 3:1 4:-0.979798 5:-0.382716 6:-0.0299154 7:0.669145 8:-0.922078 9:0.589545 10:-0.764706 11:-0.961174 12:-0.882353 13:-0.844198 14:-1 15:0.999999 16:-0.95 17:0.043305 18:-0.803922 19:-0.545455 20:-0.904762 21:-0.555556 22:0.027027 23:-0.285714 24:-0.333333 25:0.0454545 
3.88 1:-0.304348 2:-0.037037 3:1 4:-0.979798 5:-0.382716 6:-0.0299154 7:0.669145 8:-0.922078 9:0.589545 10:-0.764706 11:-0.961174 12:-0.882353 13:-0.844198 14:-1 15:0.999999 16:-0.95 17:0.043305 18:-0.803922 19:-0.545455 20:-0.904762 21:-0.555556 22:0.027027 23:-0.285714 24:-0.333333 25:0.0454545 
3.88 1:-0.304348 2:-0.037037 3:1 4:-0.979798 5:-0.382716 6:-0.0299154 7:0.669145 8:-0.922078 9:0.589545 10:-0.764706 11:-0.961174 12:-0.882353 13:-0.844198 14:-1 15:0.999999 16:-0.95 17:0.043305 18:-0.803922 19:-0.545455 20:-0.904762 21:-0.555556 22:0.027027 23:-0.285714 24:-0.333333 25:0.0454545 
3.88 1:-0.304348 2:-0.037037 3:1 4:-0.979798 5:-0.382716 6:-0.0299154 7:0.669145 8:-0.922078 9:0.589545 10:-0.764706 11:-0.961174 12:-0.882353 13:-0.844198 14:-1 15:0.999999 16:-0.95 17:0.043305 18:-0.803922 19:-0.545455 20:-0.904762 21:-0.555556 22:0.027027 23:-0.285714 24:-0.333333 25:0.0454545 
3.88 1:-0.478261 2:-0.481481 3:1 4:-0.878788 5:-0.654321 6:0.506452 7:0.841451 8:-0.87013 9:0.087724 10:-0.882353 11:-0.973031 12:-0.882353 13:-0.857184 14:-1 15:0.26769 16:-1 17:0.0393206 18:-0.960784 19:-0.727273 20:-0.904762 21:-0.777778 22:-0.621622 23:-0.428571 24:-1 25:-0.590909 
3.88 1:-0.478261 2:-0.481481 3:1 4:-0.878788 5:-0.654321 6:0.506452 7:0.841451 8:-0.87013 9:0.087724 10:-0.882353 11:-0.973031 12:-0.882353 13:-0.857184 14:-1 15:0.26769 16:-1 17:0.0393206 18:-0.960784 19:-0.727273 20:-0.904762 21:-0.777778 22:-0.621622 23:-0.428571 24:-1 25:-0.590909 
3.88 1:-0.0434783 2:0.37037 3:1 4:-0.939394 5:0.0617284 6:0.0894663 7:0.707496 8:-0.87013 9:-0.249512 10:-0.843137 11:-0.966999 12:-1 13:-0.866243 14:-0.857143 15:0.999999 16:-0.95 17:-0.00174038 18:-0.411765 19:-0.0909091 20:-1 21:-0.111111 22:0.297297 23:-0.142857 24:-0.333333 25:0.181818 
3.88 1:-0.217391 2:0.037037 3:1 4:-0.959596 5:-0.358025 6:-0.0299154 7:0.669145 8:-0.922078 9:0.707189 10:-0.882353 11:-0.975149 12:-0.882353 13:-0.857184 14:-1 15:0.999999 16:-1 17:-0.56695 18:-0.764706 19:-0.363636 20:-1 21:-0.555556 22:0.027027 23:-0.285714 24:-0.333333 25:-0.0909091 
3.88 1:-0.0434783 2:0.37037 3:1 4:-0.939394 5:0.0617284 6:0.0894663 7:0.707496 8:-0.87013 9:-0.249512 10:-0.843137 11:-0.966999 12:-1 13:-0.866243 14:-0.857143 15:0.999999 16:-0.95 17:-0.00174038 18:-0.411765 19:-0.0909091 20:-1 21:-0.111111 22:0.297297 23:-0.142857 24:-0.333333 25:0.181818 
3.88 1:-0.217391 2:0.037037 3:1 4:-0.959596 5:-0.358025 6:-0.0299154 7:0.669145 8:-0.922078 9:0.707189 10:-0.882353 11:-0.975149 12:-0.882353 13:-0.857184 14:-1 15:0.999999 16:-1 17:-0.56695 18:-0.764706 19:-0.363636 20:-1 21:-0.555556 22:0.027027 23:-0.285714 24:-0.333333 25:-0.0909091 
2.120993208196562 1:-0.304348 2:-0.037037 3:1 4:-0.979798 5:-0.382716 6:-0.0299154 7:0.669145 8:-0.922078 9:0.589545 10:-0.764706 11:-0.961174 12:-0.882353 13:-0.844198 14:-1 15:0.999999 16:-0.95 17:0.043305 18:-0.803922 19:-0.545455 20:-0.904762 21:-0.555556 22:0.027027 23:-0.285714 24:-0.333333 25:0.0454545 
3.88 1:-0.304348 2:-0.648148 3:-1 4:-0.616162 5:-0.950617 6:-0.497721 7:0.495398 8:-0.818182 9:-0.497721 10:-0.882353 11:-0.964881 12:-0.764706 13:-0.857449 14:-1 15:0.266326 16:-0.9 17:0.649575 18:-0.764706 19:-0.909091 20:-0.904762 21:-0.555556 22:-0.837838 23:-0.857143 24:-1 25:-0.727273 
3.88 1:-0.217391 2:-0.703704 3:-1 4:-0.717172 5:-0.925926 6:-0.703439 7:0.549479 8:-0.87013 9:-0.703439 10:-0.960784 11:-0.964881 12:-0.764706 13:-0.857184 14:-1 15:0.389745 16:-0.95 17:0.0393206 18:-1 19:-1 20:-1 21:-0.333333 22:-0.783784 23:-0.857143 24:-1 25:-0.704545 
3.88 1:-0.130435 2:-0.388889 3:-1 4:-0.414141 5:-0.925926 6:-0.247345 7:0.787371 8:-0.87013 9:-0.247345 10:-0.921569 11:-0.964881 12:-0.764706 13:-0.857184 14:-1 15:0.389745 16:-0.95 17:-0.0840987 18:-1 19:-0.818182 20:-0.714286 21:-0.333333 22:-0.675676 23:-0.714286 24:-1 25:-0.477273 
3.88 1:-0.217391 2:-0.537037 3:-1 4:-0.474747 5:-0.950617 6:-0.740896 7:0.521569 8:-0.480519 9:-0.740896 10:-0.960784 11:-0.964881 12:-0.764706 13:-0.848478 14:-0.857143 15:0.999999 16:-0.95 17:0.299151 18:-0.921569 19:-0.818182 20:-0.809524 21:-0.777778 22:-0.621622 23:-0.571429 24:-1 25:-0.340909 
3.88 1:-0.478261 2:-0.759259 3:-1 4:-0.717172 5:-0.975309 6:-0.87192 7:0.479478 8:-0.766234 9:-0.87192 10:-0.960784 11:-0.964881 12:-0.764706 13:-0.857184 14:-1 15:0.389745 16:-0.95 17:0.649575 18:-1 19:-1 20:-1 21:-0.777778 22:-0.837838 23:-0.857143 24:-1 25:-0.5 
3.88 1:-0.478261 2:-0.759259 3:-1 4:-0.717172 5:-0.975309 6:-0.87192 7:0.479478 8:-0.766234 9:-0.87192 10:-0.960784 11:-0.964881 12:-0.764706 13:-0.857184 14:-1 15:0.389745 16:-0.95 17:0.649575 18:-1 19:-1 20:-1 21:-0.777778 22:-0.837838 23:-0.857143 24:-1 25:-0.5 
3.88 1:-0.478261 2:-0.814815 3:-1 4:-0.79798 5:-0.975309 6:-0.87192 7:0.479478 8:-0.87013 9:-0.87192 10:-0.960784 11:-0.962763 12:-0.764706 13:-0.857184 14:-1 15:0.389745 16:-0.95 17:0.0393206 18:-1 19:-1 20:-0.904762 21:-0.777778 22:-0.837838 23:-0.857143 24:-1 25:-0.795455 
3.88 1:-0.478261 2:-0.796296 3:-1 4:-0.777778 5:-0.925926 6:-0.87192 7:0.479478 8:-0.844156 9:-0.87192 10:-0.882353 11:-0.962763 12:-0.764706 13:-0.857184 14:-1 15:0.389745 16:-0.95 17:0.0393206 18:-1 19:-1 20:-0.904762 21:-0.777778 22:-0.891892 23:-0.857143 24:-1 25:-0.727273 
3.88 1:-0.391304 2:-0.740741 3:-1 4:-0.717172 5:-0.876543 6:-0.703447 7:0.533599 8:-0.766234 9:-0.703447 10:-0.843137 11:-0.962763 12:-0.764706 13:-0.857184 14:-1 15:0.389745 16:-0.95 17:0.299151 18:-1 19:-1 20:-0.904762 21:-0.777778 22:-0.783784 23:-0.714286 24:-1 25:-0.727273 
3.88 1:-0.391304 2:-0.759259 3:-1 4:-0.717172 5:-0.950617 6:-0.703439 7:0.533602 8:-0.792208 9:-0.703439 10:-0.960784 11:-0.964881 12:-0.764706 13:-0.857184 14:-1 15:0.266326 16:-0.9 17:-0.168032 18:-1 19:-1 20:-1 21:-0.777778 22:-0.783784 23:-0.714286 24:-1 25:-0.704545 
3.88 1:-0.478261 2:-0.759259 3:-1 4:-0.717172 5:-0.975309 6:-0.87192 7:0.479478 8:-0.766234 9:-0.87192 10:-0.960784 11:-0.964881 12:-0.764706 13:-0.857184 14:-1 15:0.389745 16:-0.95 17:0.649575 18:-1 19:-1 20:-1 21:-0.777778 22:-0.837838 23:-0.857143 24:-1 25:-0.5 
3.88 1:-0.478261 2:-0.722222 3:-1 4:-0.737374 5:-0.925926 6:-0.87192 7:0.479478 8:-0.792208 9:-0.87192 10:-0.882353 11:-0.980007 12:-0.647059 13:-0.857184 14:-1 15:-3.53027e-07 16:-0.75 17:-0.350425 18:-0.960784 19:-0.818182 20:-0.904762 21:-0.777778 22:-0.783784 23:-0.857143 24:-1 25:-0.659091 
3.88 1:-0.217391 2:-0.703704 3:-1 4:-0.717172 5:-0.925926 6:-0.703439 7:0.549479 8:-0.87013 9:-0.703439 10:-0.960784 11:-0.964881 12:-0.764706 13:-0.857184 14:-1 15:0.389745 16:-0.95 17:0.0393206 18:-1 19:-1 20:-1 21:-0.333333 22:-0.783784 23:-0.857143 24:-1 25:-0.704545 
3.88 1:-0.130435 2:-0.388889 3:-1 4:-0.414141 5:-0.925926 6:-0.247345 7:0.787371 8:-0.87013 9:-0.247345 10:-0.921569 11:-0.964881 12:-0.764706 13:-0.857184 14:-1 15:0.389745 16:-0.95 17:-0.0840987 18:-1 19:-0.818182 20:-0.714286 21:-0.333333 22:-0.675676 23:-0.714286 24:-1 25:-0.477273 
3.88 1:-0.217391 2:-0.537037 3:-1 4:-0.474747 5:-0.950617 6:-0.740896 7:0.521569 8:-0.480519 9:-0.740896 10:-0.960784 11:-0.964881 12:-0.764706 13:-0.848478 14:-0.857143 15:0.999999 16:-0.95 17:0.299151 18:-0.921569 19:-0.818182 20:-0.809524 21:-0.777778 22:-0.621622 23:-0.571429 24:-1 25:-0.340909 
3.88 1:-0.478261 2:-0.814815 3:-1 4:-0.79798 5:-0.975309 6:-0.87192 7:0.479478 8:-0.87013 9:-0.87192 10:-0.960784 11:-0.962763 12:-0.764706 13:-0.857184 14:-1 15:0.389745 16:-0.95 17:0.0393206 18:-1 19:-1 20:-0.904762 21:-0.777778 22:-0.837838 23:-0.857143 24:-1 25:-0.795455 
3.88 1:-0.478261 2:-0.796296 3:-1 4:-0.777778 5:-0.925926 6:-0.87192 7:0.479478 8:-0.844156 9:-0.87192 10:-0.882353 11:-0.962763 12:-0.764706 13:-0.857184 14:-1 15:0.389745 16:-0.95 17:0.0393206 18:-1 19:-1 20:-0.904762 21:-0.777778 22:-0.891892 23:-0.857143 24:-1 25:-0.727273 
3.88 1:-0.391304 2:-0.759259 3:-1 4:-0.717172 5:-0.950617 6:-0.703439 7:0.533602 8:-0.792208 9:-0.703439 10:-0.960784 11:-0.964881 12:-0.764706 13:-0.857184 14:-1 15:0.266326 16:-0.9 17:-0.168032 18:-1 19:-1 20:-1 21:-0.777778 22:-0.783784 23:-0.714286 24:-1 25:-0.704545 
3.88 1:-0.478261 2:-0.759259 3:-1 4:-0.717172 5:-0.975309 6:-0.87192 7:0.479478 8:-0.766234 9:-0.87192 10:-0.960784 11:-0.964881 12:-0.764706 13:-0.857184 14:-1 15:0.389745 16:-0.95 17:0.649575 18:-1 19:-1 20:-1 21:-0.777778 22:-0.837838 23:-0.857143 24:-1 25:-0.5 
3.88 1:-0.304348 2:-0.722222 3:-1 4:-0.717172 5:-0.901235 6:-0.740896 7:0.521569 8:-0.766234 9:-0.740896 10:-0.882353 11:-0.964881 12:-0.764706 13:-0.844198 14:-1 15:0.649575 16:-0.95 17:0.649575 18:-1 19:-0.909091 20:-0.904762 21:-0.777778 22:-0.837838 23:-0.714286 24:-1 25:-0.727273 
3.88 1:-0.565217 2:-0.62963 3:1 4:-0.89899 5:-0.530864 6:0.589604 7:0.868163 8:-0.948052 9:-0.110156 10:-0.72549 11:-0.954325 12:-0.764706 13:-0.857449 14:-1 15:0.389745 16:-1 17:0.389745 18:-0.843137 19:-0.727273 20:-0.714286 21:-1 22:-0.72973 23:-0.714286 24:-1 25:-0.568182 
3.831525623787326 1:-0.391304 2:-0.462963 3:-1 4:-0.555556 5:-0.82716 6:0.463631 7:0.934946 8:-0.948052 9:0.463631 10:-0.803922 11:-0.961174 12:-0.882353 13:-0.857184 14:-1 15:0.389745 16:-0.95 17:0.266326 18:-1 19:-0.818182 20:-0.619048 21:-0.777778 22:-0.675676 23:-0.714286 24:-1 25:-0.386364 
3.88 1:-0.478261 2:-0.703704 3:1 4:-0.919192 5:-0.62963 6:0.632421 7:0.881917 8:-0.974026 9:-0.111882 10:-0.686275 11:-0.975288 12:-0.764706 13:-0.857184 14:-1 15:0.389745 16:-1 17:0.266326 18:-0.921569 19:-0.818182 20:-0.904762 21:-1 22:-0.72973 23:-0.571429 24:-1 25:-0.636364 
3.88 1:-0.652174 2:-0.740741 3:1 4:-0.919192 5:-0.703704 6:0.678113 7:0.896596 8:-0.974026 9:0.795757 10:-0.843137 11:-0.969324 12:-0.764706 13:-0.857184 14:-1 15:0.999999 16:-1 17:0.389745 18:-0.960784 19:-0.909091 20:-0.904762 21:-1 22:-0.837838 23:-0.714286 24:-1 25:-0.681818 
3.88 1:-0.478261 2:-0.703704 3:1 4:-0.919192 5:-0.62963 6:0.632421 7:0.881917 8:-0.974026 9:-0.111882 10:-0.686275 11:-0.975288 12:-0.764706 13:-0.857184 14:-1 15:0.389745 16:-1 17:0.266326 18:-0.921569 19:-0.818182 20:-0.904762 21:-1 22:-0.72973 23:-0.571429 24:-1 25:-0.636364 
0.9238577032822697 1:-0.391304 2:-0.462963 3:-1 4:-0.555556 5:-0.82716 6:0.463631 7:0.934946 8:-0.948052 9:0.463631 10:-0.803922 11:-0.961174 12:-0.882353 13:-0.857184 14:-1 15:0.389745 16:-0.95 17:0.266326 18:-1 19:-0.818182 20:-0.619048 21:-0.777778 22:-0.675676 23:-0.714286 24:-1 25:-0.386364 
3.88 1:-0.652174 2:-0.740741 3:1 4:-0.919192 5:-0.703704 6:0.678113 7:0.896596 8:-0.974026 9:0.795757 10:-0.843137 11:-0.969324 12:-0.764706 13:-0.857184 14:-1 15:0.999999 16:-1 17:0.389745 18:-0.960784 19:-0.909091 20:-0.904762 21:-1 22:-0.837838 23:-0.714286 24:-1 25:-0.681818 
3.88 1:-0.304348 2:-0.037037 3:1 4:-0.979798 5:-0.382716 6:-0.0299154 7:0.669145 8:-0.922078 9:0.589545 10:-0.764706 11:-0.961174 12:-0.882353 13:-0.844198 14:-1 15:0.999999 16:-0.95 17:0.043305 18:-0.803922 19:-0.545455 20:-0.904762 21:-0.555556 22:0.027027 23:-0.285714 24:-0.333333 25:0.0454545 
3.88 1:-0.478261 2:-0.481481 3:1 4:-0.878788 5:-0.654321 6:0.506452 7:0.841451 8:-0.87013 9:0.087724 10:-0.882353 11:-0.973031 12:-0.882353 13:-0.857184 14:-1 15:0.26769 16:-1 17:0.0393206 18:-0.960784 19:-0.727273 20:-0.904762 21:-0.777778 22:-0.621622 23:-0.428571 24:-1 25:-0.590909 
3.88 1:-0.478261 2:-0.481481 3:1 4:-0.878788 5:-0.654321 6:0.506452 7:0.841451 8:-0.87013 9:0.087724 10:-0.882353 11:-0.973031 12:-0.882353 13:-0.857184 14:-1 15:0.26769 16:-1 17:0.0393206 18:-0.960784 19:-0.727273 20:-0.904762 21:-0.777778 22:-0.621622 23:-0.428571 24:-1 25:-0.590909 
3.88 1:-0.0434783 2:0.37037 3:1 4:-0.939394 5:0.0617284 6:0.0894663 7:0.707496 8:-0.87013 9:-0.249512 10:-0.843137 11:-0.966999 12:-1 13:-0.866243 14:-0.857143 15:0.999999 16:-0.95 17:-0.00174038 18:-0.411765 19:-0.0909091 20:-1 21:-0.111111 22:0.297297 23:-0.142857 24:-0.333333 25:0.181818 
3.88 1:-0.217391 2:0.037037 3:1 4:-0.959596 5:-0.358025 6:-0.0299154 7:0.669145 8:-0.922078 9:0.707189 10:-0.882353 11:-0.975149 12:-0.882353 13:-0.857184 14:-1 15:0.999999 16:-1 17:-0.56695 18:-0.764706 19:-0.363636 20:-1 21:-0.555556 22:0.027027 23:-0.285714 24:-0.333333 25:-0.0909091 
3.88 1:-0.0434783 2:0.37037 3:1 4:-0.939394 5:0.0617284 6:0.0894663 7:0.707496 8:-0.87013 9:-0.249512 10:-0.843137 11:-0.966999 12:-1 13:-0.866243 14:-0.857143 15:0.999999 16:-0.95 17:-0.00174038 18:-0.411765 19:-0.0909091 20:-1 21:-0.111111 22:0.297297 23:-0.142857 24:-0.333333 25:0.181818 
3.88 1:-0.217391 2:0.037037 3:1 4:-0.959596 5:-0.358025 6:-0.0299154 7:0.669145 8:-0.922078 9:0.707189 10:-0.882353 11:-0.975149 12:-0.882353 13:-0.857184 14:-1 15:0.999999 16:-1 17:-0.56695 18:-0.764706 19:-0.363636 20:-1 21:-0.555556 22:0.027027 23:-0.285714 24:-0.333333 25:-0.0909091 
3.88 1:-0.304348 2:-0.037037 3:1 4:-0.979798 5:-0.382716 6:-0.0299154 7:0.669145 8:-0.922078 9:0.589545 10:-0.764706 11:-0.961174 12:-0.882353 13:-0.844198 14:-1 15:0.999999 16:-0.95 17:0.043305 18:-0.803922 19:-0.545455 20:-0.904762 21:-0.555556 22:0.027027 23:-0.285714 24:-0.333333 25:0.0454545 
3.88 1:-0.304348 2:-0.037037 3:1 4:-0.979798 5:-0.382716 6:-0.0299154 7:0.669145 8:-0.922078 9:0.589545 10:-0.764706 11:-0.961174 12:-0.882353 13:-0.844198 14:-1 15:0.999999 16:-0.95 17:0.043305 18:-0.803922 19:-0.545455 20:-0.904762 21:-0.555556 22:0.027027 23:-0.285714 24:-0.333333 25:0.0454545 
3.88 1:-0.304348 2:-0.648148 3:-1 4:-0.616162 5:-0.950617 6:-0.497721 7:0.495398 8:-0.818182 9:-0.497721 10:-0.882353 11:-0.964881 12:-0.764706 13:-0.857449 14:-1 15:0.266326 16:-0.9 17:0.649575 18:-0.764706 19:-0.909091 20:-0.904762 21:-0.555556 22:-0.837838 23:-0.857143 24:-1 25:-0.727273 
3.88 1:-0.217391 2:-0.703704 3:-1 4:-0.717172 5:-0.925926 6:-0.703439 7:0.549479 8:-0.87013 9:-0.703439 10:-0.960784 11:-0.964881 12:-0.764706 13:-0.857184 14:-1 15:0.389745 16:-0.95 17:0.0393206 18:-1 19:-1 20:-1 21:-0.333333 22:-0.783784 23:-0.857143 24:-1 25:-0.704545 
3.88 1:-0.130435 2:-0.388889 3:-1 4:-0.414141 5:-0.925926 6:-0.247345 7:0.787371 8:-0.87013 9:-0.247345 10:-0.921569 11:-0.964881 12:-0.764706 13:-0.857184 14:-1 15:0.389745 16:-0.95 17:-0.0840987 18:-1 19:-0.818182 20:-0.714286 21:-0.333333 22:-0.675676 23:-0.714286 24:-1 25:-0.477273 
3.88 1:-0.217391 2:-0.537037 3:-1 4:-0.474747 5:-0.950617 6:-0.740896 7:0.521569 8:-0.480519 9:-0.740896 10:-0.960784 11:-0.964881 12:-0.764706 13:-0.848478 14:-0.857143 15:0.999999 16:-0.95 17:0.299151 18:-0.921569 19:-0.818182 20:-0.809524 21:-0.777778 22:-0.621622 23:-0.571429 24:-1 25:-0.340909 
3.88 1:-0.478261 2:-0.759259 3:-1 4:-0.717172 5:-0.975309 6:-0.87192 7:0.479478 8:-0.766234 9:-0.87192 10:-0.960784 11:-0.964881 12:-0.764706 13:-0.857184 14:-1 15:0.389745 16:-0.95 17:0.649575 18:-1 19:-1 20:-1 21:-0.777778 22:-0.837838 23:-0.857143 24:-1 25:-0.5 
3.88 1:-0.478261 2:-0.759259 3:-1 4:-0.717172 5:-0.975309 6:-0.87192 7:0.479478 8:-0.766234 9:-0.87192 10:-0.960784 11:-0.964881 12:-0.764706 13:-0.857184 14:-1 15:0.389745 16:-0.95 17:0.649575 18:-1 19:-1 20:-1 21:-0.777778 22:-0.837838 23:-0.857143 24:-1 25:-0.5 
3.88 1:-0.478261 2:-0.814815 3:-1 4:-0.79798 5:-0.975309 6:-0.87192 7:0.479478 8:-0.87013 9:-0.87192 10:-0.960784 11:-0.962763 12:-0.764706 13:-0.857184 14:-1 15:0.389745 16:-0.95 17:0.0393206 18:-1 19:-1 20:-0.904762 21:-0.777778 22:-0.837838 23:-0.857143 24:-1 25:-0.795455 
3.88 1:-0.478261 2:-0.796296 3:-1 4:-0.777778 5:-0.925926 6:-0.87192 7:0.479478 8:-0.844156 9:-0.87192 10:-0.882353 11:-0.962763 12:-0.764706 13:-0.857184 14:-1 15:0.389745 16:-0.95 17:0.0393206 18:-1 19:-1 20:-0.904762 21:-0.777778 22:-0.891892 23:-0.857143 24:-1 25:-0.727273 
3.88 1:-0.391304 2:-0.740741 3:-1 4:-0.717172 5:-0.876543 6:-0.703447 7:0.533599 8:-0.766234 9:-0.703447 10:-0.843137 11:-0.962763 12:-0.764706 13:-0.857184 14:-1 15:0.389745 16:-0.95 17:0.299151 18:-1 19:-1 20:-0.904762 21:-0.777778 22:-0.783784 23:-0.714286 24:-1 25:-0.727273 
3.88 1:-0.391304 2:-0.759259 3:-1 4:-0.717172 5:-0.950617 6:-0.703439 7:0.533602 8:-0.792208 9:-0.703439 10:-0.960784 11:-0.964881 12:-0.764706 13:-0.857184 14:-1 15:0.266326 16:-0.9 17:-0.168032 18:-1 19:-1 20:-1 21:-0.777778 22:-0.783784 23:-0.714286 24:-1 25:-0.704545 
3.88 1:-0.478261 2:-0.759259 3:-1 4:-0.717172 5:-0.975309 6:-0.87192 7:0.479478 8:-0.766234 9:-0.87192 10:-0.960784 11:-0.964881 12:-0.764706 13:-0.857184 14:-1 15:0.389745 16:-0.95 17:0.649575 18:-1 19:-1 20:-1 21:-0.777778 22:-0.837838 23:-0.857143 24:-1 25:-0.5 
3.88 1:-0.478261 2:-0.722222 3:-1 4:-0.737374 5:-0.925926 6:-0.87192 7:0.479478 8:-0.792208 9:-0.87192 10:-0.882353 11:-0.980007 12:-0.647059 13:-0.857184 14:-1 15:-3.53027e-07 16:-0.75 17:-0.350425 18:-0.960784 19:-0.818182 20:-0.904762 21:-0.777778 22:-0.783784 23:-0.857143 24:-1 25:-0.659091 
3.88 1:-0.217391 2:-0.703704 3:-1 4:-0.717172 5:-0.925926 6:-0.703439 7:0.549479 8:-0.87013 9:-0.703439 10:-0.960784 11:-0.964881 12:-0.764706 13:-0.857184 14:-1 15:0.389745 16:-0.95 17:0.0393206 18:-1 19:-1 20:-1 21:-0.333333 22:-0.783784 23:-0.857143 24:-1 25:-0.704545 
3.88 1:-0.130435 2:-0.388889 3:-1 4:-0.414141 5:-0.925926 6:-0.247345 7:0.787371 8:-0.87013 9:-0.247345 10:-0.921569 11:-0.964881 12:-0.764706 13:-0.857184 14:-1 15:0.389745 16:-0.95 17:-0.0840987 18:-1 19:-0.818182 20:-0.714286 21:-0.333333 22:-0.675676 23:-0.714286 24:-1 25:-0.477273 
3.88 1:-0.217391 2:-0.537037 3:-1 4:-0.474747 5:-0.950617 6:-0.740896 7:0.521569 8:-0.480519 9:-0.740896 10:-0.960784 11:-0.964881 12:-0.764706 13:-0.848478 14:-0.857143 15:0.999999 16:-0.95 17:0.299151 18:-0.921569 19:-0.818182 20:-0.809524 21:-0.777778 22:-0.621622 23:-0.571429 24:-1 25:-0.340909 
3.88 1:-0.478261 2:-0.814815 3:-1 4:-0.79798 5:-0.975309 6:-0.87192 7:0.479478 8:-0.87013 9:-0.87192 10:-0.960784 11:-0.962763 12:-0.764706 13:-0.857184 14:-1 15:0.389745 16:-0.95 17:0.0393206 18:-1 19:-1 20:-0.904762 21:-0.777778 22:-0.837838 23:-0.857143 24:-1 25:-0.795455 
3.88 1:-0.478261 2:-0.796296 3:-1 4:-0.777778 5:-0.925926 6:-0.87192 7:0.479478 8:-0.844156 9:-0.87192 10:-0.882353 11:-0.962763 12:-0.764706 13:-0.857184 14:-1 15:0.389745 16:-0.95 17:0.0393206 18:-1 19:-1 20:-0.904762 21:-0.777778 22:-0.891892 23:-0.857143 24:-1 25:-0.727273 
3.88 1:-0.391304 2:-0.759259 3:-1 4:-0.717172 5:-0.950617 6:-0.703439 7:0.533602 8:-0.792208 9:-0.703439 10:-0.960784 11:-0.964881 12:-0.764706 13:-0.857184 14:-1 15:0.266326 16:-0.9 17:-0.168032 18:-1 19:-1 20:-1 21:-0.777778 22:-0.783784 23:-0.714286 24:-1 25:-0.704545 
3.88 1:-0.478261 2:-0.759259 3:-1 4:-0.717172 5:-0.975309 6:-0.87192 7:0.479478 8:-0.766234 9:-0.87192 10:-0.960784 11:-0.964881 12:-0.764706 13:-0.857184 14:-1 15:0.389745 16:-0.95 17:0.649575 18:-1 19:-1 20:-1 21:-0.777778 22:-0.837838 23:-0.857143 24:-1 25:-0.5 
3.88 1:-0.304348 2:-0.722222 3:-1 4:-0.717172 5:-0.901235 6:-0.740896 7:0.521569 8:-0.766234 9:-0.740896 10:-0.882353 11:-0.964881 12:-0.764706 13:-0.844198 14:-1 15:0.649575 16:-0.95 17:0.649575 18:-1 19:-0.909091 20:-0.904762 21:-0.777778 22:-0.837838 23:-0.714286 24:-1 25:-0.727273 
3.88 1:-0.478261 2:-0.685185 3:-1 4:-0.676768 5:-0.925926 6:-0.494778 7:0.415522 8:-0.766234 9:-0.494778 10:-0.843137 11:-0.966999 12:-1 13:-0.857449 14:-1 15:-0.0840987 16:-0.95 17:1 18:-0.764706 19:-0.818182 20:-0.904762 21:-1 22:-0.837838 23:-0.714286 24:-1 25:-0.727273 
3.88 1:-0.652174 2:-0.796296 3:-1 4:-0.79798 5:-0.950617 6:-0.868976 7:0.399602 8:-0.714286 9:-0.868976 10:-0.882353 11:-0.966999 12:-1 13:-0.857184 14:-1 15:0.0393206 16:-0.95 17:1 18:-1 19:-0.909091 20:-1 21:-1 22:-0.837838 23:-0.714286 24:-1 25:-0.5 
3.88 1:-0.652174 2:-0.796296 3:-1 4:-0.79798 5:-0.950617 6:-0.868976 7:0.399602 8:-0.714286 9:-0.868976 10:-0.882353 11:-0.966999 12:-1 13:-0.857184 14:-1 15:0.0393206 16:-0.95 17:1 18:-1 19:-0.909091 20:-1 21:-1 22:-0.837838 23:-0.714286 24:-1 25:-0.5 
3.88 1:-0.652174 2:-0.851852 3:-1 4:-0.858586 5:-0.950617 6:-0.868976 7:0.399602 8:-0.818182 9:-0.868976 10:-0.882353 11:-0.964881 12:-1 13:-0.857184 14:-1 15:0.0393206 16:-1 17:0.389745 18:-1 19:-0.909091 20:-0.904762 21:-1 22:-0.891892 23:-0.857143 24:-1 25:-0.795455 
3.88 1:-0.652174 2:-0.833333 3:-1 4:-0.838384 5:-0.901235 6:-0.868976 7:0.399602 8:-0.792208 9:-0.868976 10:-0.843137 11:-0.964881 12:-1 13:-0.857184 14:-1 15:0.0393206 16:-1 17:0.389745 18:-1 19:-0.909091 20:-0.904762 21:-1 22:-0.891892 23:-0.857143 24:-1 25:-0.727273 
3.88 1:-0.565217 2:-0.777778 3:-1 4:-0.777778 5:-0.851852 6:-0.700503 7:0.453723 8:-0.714286 9:-0.700503 10:-0.764706 11:-0.964881 12:-1 13:-0.857184 14:-1 15:0.0393206 16:-1 17:0.649575 18:-1 19:-0.909091 20:-0.904762 21:-1 22:-0.837838 23:-0.714286 24:-1 25:-0.727273 
3.88 1:-0.565217 2:-0.796296 3:-1 4:-0.79798 5:-0.925926 6:-0.700495 7:0.453725 8:-0.74026 9:-0.700495 10:-0.882353 11:-0.966999 12:-1 13:-0.857184 14:-1 15:-0.0840987 16:-0.9 17:0.182393 18:-1 19:-0.909091 20:-1 21:-1 22:-0.837838 23:-0.714286 24:-1 25:-0.704545 
3.88 1:-0.652174 2:-0.796296 3:-1 4:-0.79798 5:-0.950617 6:-0.868976 7:0.399602 8:-0.714286 9:-0.868976 10:-0.882353 11:-0.966999 12:-1 13:-0.857184 14:-1 15:0.0393206 16:-0.95 17:1 18:-1 19:-0.909091 20:-1 21:-1 22:-0.837838 23:-0.714286 24:-1 25:-0.5 
