svm_type c_svc
kernel_type rbf
gamma 0.0344828
nr_class 2
total_sv 801
rho 0.609351
label 1 -1
nr_sv 340 461
SV
1 2:25 19:3 27:24 28:19 29:12 
1 2:12 27:11 28:10 29:5 
1 2:12 19:1 27:11 28:7 
1 2:4 27:3 28:1 
1 2:10 4:1 5:1 8:1 27:9 28:5 
1 2:8 4:1 5:1 8:1 27:7 28:4 
1 2:8 5:1 27:7 28:4 
1 2:6 5:1 27:5 28:2 
1 2:2 27:1 
1 2:10 14:1 19:1 27:9 28:8 29:4 
1 2:8 27:7 28:5 29:4 
1 2:2 27:1 
1 2:24 25:1 27:23 28:14 29:7 
1 2:11 25:1 27:10 28:8 29:4 
1 2:12 4:1 17:1 27:11 28:7 29:2 
1 2:2 27:1 
1 2:2 27:1 
1 2:7 12:1 14:1 27:6 28:4 
1 2:2 27:1 
1 2:3 10:1 27:2 28:1 
1 2:10 15:1 27:9 28:5 29:1 
1 2:3 27:2 28:1 
1 2:7 27:6 28:5 29:2 
1 2:6 27:5 28:4 29:1 
1 2:4 27:3 28:2 29:1 
1 2:10 25:1 27:9 28:7 29:1 
1 2:11 25:1 27:10 28:8 29:2 
1 2:13 25:1 27:12 28:10 29:4 
1 2:8 27:7 28:6 29:3 
1 2:9 27:8 28:7 29:4 
1 2:10 27:9 28:8 29:5 
1 2:12 27:11 28:10 29:7 
1 2:18 20:1 27:17 28:15 29:10 
1 2:2 27:1 
1 2:10 25:1 27:9 28:7 29:4 
1 2:5 14:1 27:4 28:3 
1 2:11 25:1 27:10 28:5 29:1 
1 2:24 15:1 27:23 28:20 29:14 
1 2:11 9:1 15:1 27:10 28:9 29:5 
1 2:16 15:1 27:15 28:11 29:7 
1 2:20 6:1 15:1 27:19 28:16 29:7 
1 2:22 6:1 15:1 27:21 28:18 29:8 
1 2:17 8:1 15:1 18:1 27:16 28:11 29:7 
1 2:12 19:1 27:11 28:8 29:4 
1 2:21 19:1 27:20 28:14 29:8 
1 2:14 19:1 26:1 27:13 28:11 29:3 
1 2:7 16:1 22:1 27:6 28:3 
1 2:9 16:1 22:1 27:8 28:5 
1 2:5 16:1 22:1 27:4 28:1 
1 2:7 16:1 22:1 27:6 28:3 
1 2:20 27:19 28:16 29:8 
1 2:22 27:21 28:18 29:10 
1 2:18 27:17 28:14 29:8 
1 2:20 27:19 28:16 29:10 
1 2:13 16:1 22:1 27:12 28:9 29:4 
1 2:9 16:1 22:1 27:8 28:5 29:1 
1 2:11 11:1 27:10 28:9 29:5 
1 2:8 11:1 27:7 28:6 29:2 
1 2:12 4:1 16:1 22:1 27:11 28:7 29:3 
1 2:25 21:1 27:24 28:19 29:12 
1 2:27 21:1 27:26 28:21 29:14 
1 2:23 21:1 27:22 28:17 29:12 
1 2:25 21:1 27:24 28:19 29:14 
1 2:19 21:1 27:18 28:15 29:11 
1 2:21 21:1 27:20 28:17 29:13 
1 2:17 21:1 27:16 28:14 29:11 
1 2:19 21:1 27:18 28:16 29:13 
1 2:2 27:1 
1 2:12 6:1 25:2 27:11 28:7 29:2 
1 2:6 17:1 27:5 28:3 
1 2:5 27:4 28:3 29:1 
1 2:4 19:1 27:3 28:2 29:1 
1 2:12 27:11 28:9 29:6 
1 2:7 20:1 27:6 28:5 29:4 
1 2:7 12:1 27:6 28:5 29:3 
1 2:3 27:2 28:1 
1 2:4 27:3 28:1 
1 2:6 27:5 28:3 
1 2:15 17:1 27:14 28:11 29:8 
1 2:10 4:1 6:1 27:9 28:6 29:1 
1 2:9 4:1 6:1 27:8 28:5 29:2 
1 2:7 6:2 26:1 27:6 28:4 29:2 
1 2:21 6:2 26:1 27:20 28:14 29:5 
1 2:15 4:1 6:1 19:2 20:1 27:14 28:10 29:6 
1 2:17 19:1 20:1 27:16 28:12 29:6 
1 2:5 27:4 28:3 29:2 
1 2:4 17:1 27:3 28:2 29:1 
1 2:2 27:1 
1 2:6 17:1 27:5 28:3 
1 2:13 27:12 28:8 29:4 
1 2:10 27:9 28:8 29:3 
1 2:12 27:11 28:6 29:3 
1 2:7 27:6 28:5 29:3 
1 2:17 27:16 28:15 29:12 
1 2:7 5:1 23:1 25:1 27:6 28:4 29:1 
1 2:2 27:1 
1 2:4 27:3 28:2 
1 2:7 6:1 27:6 28:4 29:2 
1 2:2 27:1 
1 2:17 27:16 28:14 29:9 
1 2:6 23:1 27:5 28:3 29:1 
1 2:2 27:1 
1 2:6 16:1 27:5 28:4 29:2 
1 2:10 16:1 27:9 28:6 29:4 
1 2:16 10:1 27:15 28:12 29:9 
1 2:5 27:4 28:3 29:2 
1 2:7 27:6 28:5 29:4 
1 2:1 10:1 14:1 
1 2:8 27:7 28:5 29:2 
1 2:10 16:1 27:9 28:8 29:2 
1 2:8 16:1 27:7 28:6 29:1 
1 2:11 6:1 27:10 28:9 29:3 
1 2:18 6:2 27:17 28:15 29:7 
1 2:2 27:1 
1 2:10 8:1 27:9 28:4 29:1 
1 2:12 11:1 17:1 27:11 28:8 29:5 
1 2:10 15:1 27:9 28:8 29:6 
1 2:2 27:1 
1 2:6 20:1 26:1 27:5 28:4 29:3 
1 2:5 27:4 28:3 29:1 
1 2:8 11:1 27:7 28:6 29:5 
1 2:10 11:1 27:9 28:8 29:5 
1 2:2 27:1 
1 2:9 27:7 28:4 29:2 
1 2:11 27:10 28:8 29:3 
1 2:9 27:8 28:4 29:1 
1 2:2 27:1 
1 2:2 27:1 
1 2:2 27:1 
1 2:2 27:1 
1 2:7 27:6 28:5 29:2 
1 2:5 27:4 28:1 
1 2:4 27:3 28:2 
1 2:2 27:1 
1 2:3 27:2 
1 2:4 25:1 27:3 28:2 29:1 
1 2:18 3:1 16:1 27:17 28:16 29:11 
1 2:14 3:1 9:1 13:1 25:1 27:13 28:9 29:4 
1 2:30 25:1 27:29 28:24 29:17 
1 2:8 26:1 27:7 28:3 
1 2:4 9:1 27:3 28:2 
1 2:7 9:1 27:6 28:4 29:2 
1 2:2 9:1 27:1 
1 2:5 9:1 27:4 28:2 29:1 
1 2:2 11:1 27:1 
1 2:10 27:9 28:6 29:1 
1 2:7 27:6 28:4 29:1 
1 2:2 27:1 
1 2:4 25:1 27:3 28:2 29:1 
1 2:15 8:1 27:14 28:12 29:10 
1 2:9 9:1 27:8 28:7 29:2 
1 2:3 16:1 27:2 28:1 
1 2:2 15:1 27:1 
1 2:15 10:1 11:1 25:1 27:14 28:10 29:7 
1 2:5 27:4 28:3 29:2 
1 2:6 27:5 28:4 29:3 
1 2:12 17:1 18:1 27:11 28:10 29:6 
1 2:14 17:1 18:1 27:13 28:12 29:8 
1 2:44 15:1 27:43 28:37 29:27 
1 2:39 15:1 27:38 28:32 29:23 
1 2:24 18:1 25:1 27:23 28:17 29:7 
1 2:26 18:1 25:1 27:25 28:19 29:9 
1 2:1 
1 2:4 27:3 28:2 
1 2:2 27:1 
1 2:3 27:2 
1 2:4 16:1 27:3 28:1 
1 2:2 27:1 
1 2:12 27:11 28:7 29:4 
1 2:15 8:1 16:1 27:14 28:7 29:2 
1 2:17 8:1 16:1 27:16 28:9 29:2 
1 2:14 14:1 27:13 28:12 29:10 
1 2:22 14:1 27:21 28:19 29:16 
1 2:7 10:1 27:6 28:5 29:3 
1 2:2 27:1 
1 2:7 14:1 27:6 28:5 29:2 
1 2:5 10:1 27:4 28:3 
1 2:7 10:1 27:6 28:5 29:2 
1 2:5 27:4 28:3 29:1 
1 2:12 18:1 25:1 27:11 28:9 29:5 
1 2:6 23:1 27:5 28:4 29:2 
1 2:2 27:1 
1 2:24 14:2 27:23 28:18 29:14 
1 2:4 25:1 27:3 28:2 29:1 
1 2:5 27:4 28:2 
1 2:1 8:1 23:1 
1 2:8 16:1 27:7 28:6 29:3 
1 2:15 25:1 27:13 28:10 29:8 
1 2:11 18:1 27:10 28:8 29:4 
1 2:9 17:1 27:8 28:4 29:1 
1 2:13 18:1 25:1 27:12 28:8 29:3 
1 2:2 18:1 27:1 
1 2:2 27:1 
1 2:13 17:1 27:12 28:9 29:4 
1 2:3 27:2 
1 2:13 7:1 16:1 27:12 28:8 29:5 
1 2:14 7:1 16:1 27:13 28:8 29:5 
1 2:15 7:1 16:1 27:14 28:9 29:5 
1 2:16 7:1 16:1 27:15 28:10 29:6 
1 2:11 13:1 27:10 28:9 29:5 
1 2:5 27:4 28:3 29:2 
1 2:5 10:1 27:4 28:3 29:2 
1 2:4 27:3 28:2 
1 2:2 27:1 
1 2:2 27:1 
1 2:2 27:1 
1 2:9 5:1 27:8 28:4 29:1 
1 2:12 5:1 27:11 28:6 29:2 
1 2:7 5:1 27:6 28:3 29:1 
1 2:10 5:1 27:9 28:5 29:2 
1 2:17 3:1 10:1 27:16 28:13 29:8 
1 2:27 3:1 10:1 14:1 27:26 28:19 29:12 
1 2:11 27:10 28:9 29:7 
1 2:6 10:1 27:5 28:4 29:2 
1 2:14 10:1 27:13 28:11 29:7 
1 2:15 10:1 24:1 27:14 28:13 29:9 
1 2:16 10:1 24:1 27:15 28:14 29:10 
1 2:24 10:1 24:1 27:23 28:21 29:15 
1 2:5 26:1 27:4 28:2 
1 2:5 27:4 28:2 
1 2:6 17:1 24:1 27:5 28:4 29:2 
1 2:13 17:1 24:2 27:12 28:7 29:2 
1 2:3 10:1 27:2 28:1 
1 2:13 7:1 14:1 27:12 28:7 29:2 
1 2:2 27:1 
1 2:2 27:1 
1 2:2 27:1 
1 2:7 27:6 28:5 29:3 
1 2:5 27:4 28:3 29:2 
1 2:5 27:4 28:3 29:2 
1 2:16 12:1 27:15 28:14 29:8 
1 2:6 25:1 27:5 28:3 
1 2:1 10:1 14:1 
1 2:1 
1 2:1 8:1 23:1 
1 2:1 10:1 14:1 
1 2:1 
1 2:1 8:1 23:1 
1 2:1 10:1 14:1 
1 2:1 
1 2:1 8:1 23:1 
0.001265885740185896 2:17 8:1 15:1 18:1 
0.001712173854040214 2:21 6:2 26:1 
1 2:1 10:1 14:1 
0.0005944911210652992 2:18 3:1 16:1 
0.001080026670384149 2:39 15:1 
1 2:1 
0.002810114005567427 2:24 14:2 
1 2:1 8:1 23:1 
0.00144144668996428 2:13 17:1 24:2 
0.009185920419800108 2:2 
1 2:1 10:1 14:1 
0.5471224481924268 2:2 
1 2:2 
1 2:2 
0.02053045753339967 2:18 3:1 16:1 
0.001766941544340483 2:30 25:1 
1 2:2 
0.03472585501695893 2:15 10:1 11:1 25:1 
0.002258580323703407 2:44 15:1 
1 2:1 
1 2:2 
1 2:2 
1 2:2 
1 2:2 
0.01723554350740849 2:24 14:2 
1 2:1 8:1 23:1 
1 2:2 
1 2:2 
1 2:2 
1 2:2 
0.01010111326731075 2:13 17:1 24:2 
1 2:2 
1 2:2 
1 2:2 
0.6936845931143265 2:25 19:3 
1 2:2 
1 2:2 
1 2:2 
1 2:2 
1 2:2 
1 2:2 
0.2882866097182361 2:17 8:1 15:1 18:1 
0.01496386041972027 2:21 21:1 
1 2:2 
0.1144717114264991 2:12 6:1 25:2 
0.6568351324333407 2:21 6:2 26:1 
0.5407546250730051 2:15 4:1 6:1 19:2 20:1 
1 2:2 
1 2:2 
1 2:2 
1 2:2 
1 2:1 10:1 14:1 
1 2:2 
1 2:2 
1 2:2 
1 2:2 
1 2:2 
1 2:2 
1 2:2 
1 2:2 
0.2015902193061596 2:30 25:1 
1 2:2 
0.1639919425252187 2:44 15:1 
0.04627336455209791 2:39 15:1 
1 2:1 
1 2:2 
1 2:2 
1 2:2 
1 2:2 
1 2:1 8:1 23:1 
1 2:2 
1 2:2 
1 2:2 
1 2:2 
1 2:2 
1 2:2 
1 2:2 
1 2:2 
0.08618724396929939 2:18 3:1 16:1 
0.3531763705272256 2:14 3:1 9:1 13:1 25:1 
1 2:30 25:1 
1 2:2 
0.9994777779090883 2:44 15:1 
1 2:39 15:1 
1 2:1 
1 2:2 
1 2:2 
1 2:2 
1 2:2 
0.3983127854202551 2:24 14:2 
1 2:1 8:1 23:1 
1 2:2 
1 2:2 
1 2:2 
1 2:2 
0.4911032219924145 2:13 17:1 24:2 
1 2:2 
1 2:2 
1 2:2 
-0.2284186674835224 2:7 27:6 28:5 29:4 
-0.002835267021238523 2:10 27:9 28:8 29:7 
-0.8509025436591962 2:2 27:1 
-1 2:5 27:4 28:3 29:2 
-1 2:8 27:7 28:6 29:1 
-1 2:7 27:6 28:5 29:1 
-1 2:5 27:4 28:3 
-0.03245531117917435 2:4 27:3 28:2 
-0.1019727046973014 2:18 4:1 27:17 28:15 29:9 
-0.7130106496834837 2:14 27:13 28:10 29:4 
-0.01690295675157296 2:27 27:26 28:22 29:16 
-1 2:11 25:1 27:10 28:9 29:6 
-1 2:12 17:1 27:11 28:8 29:5 
-1 2:14 17:1 27:13 28:10 29:7 
-0.2385007909913077 2:4 27:3 28:2 29:1 
-0.1120282954051945 2:5 27:4 28:3 29:2 
-0.06626152714400729 2:2 27:1 
-0.1134947264582421 2:5 27:4 28:3 29:2 
-0.009256649176882854 2:4 27:3 28:2 29:1 
-0.4325851454445224 2:16 5:1 8:1 27:15 28:11 29:7 
-0.2483811670638365 2:9 27:8 28:3 
-0.5656059572338648 1:1 2:27 8:1 27:26 28:19 29:12 
-0.01253535255711763 2:24 8:1 27:23 28:16 29:9 
-0.06282176121936794 2:7 27:6 28:5 29:4 
-0.1317352261205753 2:7 27:6 28:4 29:1 
-1 2:13 27:12 28:10 29:5 
-0.4238694675198193 2:27 25:2 27:26 28:21 29:9 
-0.1016241932328528 2:34 25:2 27:33 28:27 29:15 
-0.1559450003340529 1:1 2:23 25:2 27:22 28:18 29:8 
-0.4335777266117189 2:25 27:24 28:20 29:10 
-0.03800854993596569 2:20 25:2 27:19 28:15 29:5 
-0.5192846265080568 2:22 25:2 27:21 28:17 29:7 
-1 2:22 27:21 28:17 29:9 
-0.2490012591473522 1:1 2:25 25:2 27:24 28:19 29:11 
-0.2445062372190631 1:1 2:14 25:2 27:13 28:9 29:3 
-0.1858085483422445 2:16 25:2 27:15 28:11 29:5 
-0.6051691169264903 2:18 27:17 28:13 29:7 
-0.9451070694730642 2:3 25:2 27:2 
-0.3331625530604146 2:23 4:1 25:1 27:22 28:16 29:7 
-1 2:13 4:1 27:12 28:7 29:3 
-0.05436978889733093 2:12 4:1 27:11 28:6 29:2 
-0.08761916011034386 2:10 4:1 27:9 28:4 29:2 
-1 2:8 20:1 27:7 28:5 29:2 
-0.9686331779978311 2:6 20:1 27:5 28:3 29:2 
-0.2702220313603475 2:16 27:15 28:14 29:13 
-0.1082157055256404 2:36 12:1 27:35 28:28 29:21 
-0.5046607409527477 2:40 12:1 27:39 28:32 29:25 
-0.1848914208231755 2:49 12:1 20:1 27:48 28:40 29:30 
-0.318332725302175 2:56 12:1 20:1 27:55 28:46 29:35 
-0.3907895170661412 2:69 12:1 20:1 27:68 28:59 29:48 
-0.6562515495119865 2:28 12:1 27:27 28:20 29:13 
-0.06058782750542845 2:32 12:1 27:31 28:24 29:17 
-0.1246369793001017 2:48 12:1 20:1 27:47 28:38 29:27 
-0.1889984185044227 1:1 2:53 12:1 20:1 27:52 28:43 29:32 
-0.3804283219541152 2:61 12:1 20:1 27:60 28:51 29:40 
-0.2618559344202766 2:40 12:1 20:1 27:39 28:31 29:21 
-0.9125868108989911 2:45 12:1 20:1 27:44 28:36 29:26 
-0.06438320682119805 2:20 20:1 27:19 28:16 29:11 
-0.7207869131265577 2:25 20:1 27:24 28:21 29:16 
-0.2454121793364758 2:33 20:1 27:32 28:29 29:24 
-1 2:16 20:1 27:15 28:12 29:8 
-0.6304479650657575 2:21 20:1 27:20 28:17 29:13 
-0.2683153406796979 2:29 20:1 27:28 28:25 29:21 
-0.9148355427986473 2:20 27:19 28:17 29:16 
-1 2:11 27:10 28:9 29:5 
-0.260677053306036 1:1 2:33 4:1 16:1 25:2 27:32 28:24 29:19 
-0.03604491862215754 2:1 12:1 
-0.2312691513280898 2:11 17:1 27:10 28:6 29:3 
-1 2:10 9:1 15:1 27:9 28:8 29:5 
-0.7382348104783969 2:12 9:1 15:1 27:11 28:10 29:6 
-0.2274609333810473 1:1 2:30 15:1 27:29 28:25 29:18 
-0.5670528403478076 2:41 9:1 15:2 27:40 28:36 29:25 
-0.01415694703826975 1:1 2:17 9:1 15:1 27:16 28:14 29:9 
-0.1383496425266655 2:13 4:1 17:1 27:12 28:9 29:7 
-0.03011769729225574 2:24 4:1 17:1 27:23 28:18 29:10 
-1 2:9 27:8 28:6 29:2 
-1 2:12 19:1 26:1 27:11 28:9 29:3 
-0.4769177269663052 2:6 27:5 28:2 
-1 2:8 27:7 28:4 
-1 2:7 9:1 27:6 28:3 29:2 
-1 2:8 9:1 27:7 28:4 29:3 
-0.5234148198995421 2:6 27:5 28:2 
-0.644751345743739 1:1 2:10 19:1 27:9 28:8 29:5 
-0.0388278100557482 1:1 2:27 13:1 17:1 27:25 28:20 29:12 
-0.122945435492078 1:1 2:14 10:1 25:2 27:13 28:9 29:3 
-1 2:7 10:1 25:1 27:6 28:4 29:1 
-1 2:5 25:1 27:4 28:2 
-1 2:7 6:1 27:6 28:5 29:1 
-0.1451770018372874 2:5 4:1 6:1 27:4 28:1 
-0.05172889679226431 2:2 6:1 27:1 
-1 2:6 6:1 27:5 28:4 29:1 
-0.8397265534859901 2:14 6:1 26:1 27:13 28:8 29:2 
-0.08621685719874284 2:41 19:1 20:1 27:40 28:34 29:21 
-0.5501343232521912 2:26 4:1 6:1 19:1 27:25 28:22 29:14 
-0.8124599693383048 2:24 27:23 28:20 29:12 
-1 2:6 17:1 27:5 28:4 29:1 
-0.4873155275742574 2:11 17:1 27:10 28:6 29:3 
-0.1700492688963001 2:28 5:1 8:1 25:1 27:27 28:18 29:5 
-1 2:10 5:1 8:1 27:9 28:6 29:2 
-0.1921380935666493 1:1 2:22 5:1 8:1 25:1 27:21 28:14 29:3 
-1 2:12 25:1 27:11 28:6 
-0.340350152711042 2:10 5:1 25:1 27:9 28:6 29:4 
-0.119106900017152 2:9 23:1 27:8 28:7 29:5 
-0.05652227192228271 2:19 23:2 27:18 28:14 29:10 
-0.45944454741659 1:1 2:39 3:1 23:2 26:1 27:37 28:31 29:22 
-0.2872698342307947 2:30 3:1 23:1 26:1 27:28 28:23 29:16 
-0.5522697647790475 2:11 23:1 27:10 28:8 29:3 
-0.1040748735680986 2:39 24:1 26:1 27:38 28:26 29:13 
-0.3180301655684236 2:45 24:1 26:1 27:44 28:31 29:16 
-0.09252615986055918 2:37 24:1 26:1 27:36 28:24 29:13 
-0.03273073111745942 2:43 24:1 26:1 27:42 28:29 29:16 
-1 2:6 27:5 28:3 
-0.4101008594895014 2:16 3:1 27:15 28:13 29:7 
-0.03307898665952429 2:27 26:1 27:26 28:19 29:7 
-0.1820352424739455 2:31 15:1 27:30 28:21 29:15 
-0.7162180169557307 2:10 10:1 14:1 27:9 28:6 29:1 
-0.1539568361910611 2:1 4:1 
-0.5234396024775415 2:11 4:1 27:10 28:7 
-1 2:7 6:1 27:6 28:4 29:2 
-0.1616222068798272 2:3 17:1 27:2 28:1 
-1 2:9 27:8 28:7 29:3 
-1 2:5 27:4 28:3 
-0.1209788241486668 2:15 4:1 20:1 26:1 27:14 28:10 29:5 
-0.9487023376136675 2:9 4:1 27:8 28:4 29:1 
-1 2:17 27:16 28:12 29:8 
-0.3628496299172143 2:23 11:1 27:22 28:21 29:18 
-1 2:7 27:6 28:5 29:2 
-0.8005712114168534 2:15 11:1 27:14 28:13 29:10 
-0.08669765095981842 1:1 2:14 7:1 17:1 24:1 27:13 28:5 29:1 
-0.1295820089598704 1:1 2:20 7:1 17:1 24:1 27:19 28:10 29:2 
-0.04774753725984483 1:1 2:24 7:1 17:1 24:1 27:23 28:13 29:5 
-0.2933270974616118 1:1 2:34 7:1 15:1 17:1 24:1 27:33 28:18 29:6 
-0.1958993522899468 1:1 2:29 15:1 17:1 27:28 28:14 29:5 
-0.07299110246481902 1:1 2:20 15:1 27:19 28:11 29:4 
-0.005600281786653298 1:1 2:26 27:25 28:17 29:8 
-1 2:11 7:1 24:1 27:10 28:8 29:3 
-0.9132092193530013 2:15 7:1 24:1 27:14 28:12 29:5 
-0.3194182894316975 2:18 7:1 24:1 27:17 28:14 29:7 
-0.4134223679804365 2:4 7:1 24:1 27:3 28:2 29:1 
-0.2587177508484954 1:1 2:27 14:1 27:25 28:22 29:15 
-0.9003632476759489 2:20 27:18 28:15 29:8 
-0.07856788102137838 2:26 22:1 26:1 27:24 28:21 29:14 
-0.2981120568166352 2:4 22:1 26:1 27:3 28:2 29:1 
-1 2:6 22:1 26:1 27:5 28:4 29:3 
-1 2:4 22:1 26:1 27:3 28:2 29:1 
-1 2:15 25:1 27:14 28:10 29:5 
-1 2:11 25:1 27:10 28:7 29:4 
-0.868057400611997 2:14 25:1 27:13 28:10 29:7 
-1 2:13 25:1 27:12 28:9 29:6 
-0.9534983192305923 2:7 27:6 28:4 29:1 
-1 2:12 24:1 25:1 27:11 28:9 29:1 
-1 2:5 8:1 27:4 28:2 29:1 
-0.1228606521561485 2:22 7:1 13:1 24:1 27:21 28:17 29:12 
-0.06853279603376422 2:2 24:1 27:1 
-0.1159178315174774 2:5 27:4 28:3 
-1 2:7 14:1 27:6 28:5 29:4 
-1 2:11 14:1 27:10 28:8 29:4 
-1 2:13 17:1 27:11 28:9 29:5 
-0.5509613376296725 2:8 15:1 27:7 28:5 29:3 
-1 2:10 27:9 28:7 29:2 
-0.9641171209645437 2:21 24:1 26:1 27:20 28:17 29:6 
-0.3904885953611754 2:12 10:1 27:11 28:10 29:7 
-1 2:14 10:1 27:13 28:12 29:9 
-0.08417069327135709 2:21 10:1 27:20 28:18 29:13 
-1 2:23 10:1 27:22 28:20 29:15 
-0.6687337069733522 2:9 10:1 27:8 28:7 29:4 
-1 2:18 10:1 27:17 28:15 29:10 
-0.2868187672646574 2:19 12:1 13:1 27:18 28:14 29:7 
-1 2:6 12:1 27:5 28:3 29:1 
-0.1987146942326577 2:16 12:1 13:1 27:15 28:9 29:5 
-0.09780913518528703 2:11 25:1 27:10 28:9 29:7 
-0.7918682677937121 1:1 2:14 19:1 27:13 28:10 29:7 
-1 2:9 4:1 27:8 28:5 
-0.5722269959360188 2:16 15:1 27:15 28:14 29:10 
-1 2:6 25:1 27:5 28:2 
-0.09263493274187469 1:1 2:21 4:1 7:1 27:20 28:16 29:7 
-0.007337684808474789 2:8 20:1 27:7 28:5 29:3 
-0.2669340805340497 2:18 17:1 20:1 27:17 28:9 29:4 
-1 2:9 5:1 27:8 28:6 29:2 
-1 2:4 5:1 27:3 28:2 
-0.8892699236242797 2:11 15:1 27:10 28:9 29:5 
-0.5267097774103884 2:18 15:1 27:17 28:16 29:12 
-0.07926172633257937 2:17 3:1 5:1 27:16 28:12 29:7 
-0.5123940780222848 2:21 27:20 28:15 29:12 
-0.3330634786986951 2:12 24:1 27:11 28:6 29:2 
-1 2:16 7:1 27:15 28:12 29:7 
-0.2338751105961215 2:30 7:1 27:29 28:26 29:14 
-1 2:12 27:11 28:10 29:5 
-1 2:15 8:1 15:1 27:14 28:11 29:8 
-1 2:11 17:1 27:10 28:5 29:1 
-1 2:7 27:6 28:5 29:3 
-0.08948606950847891 2:38 23:1 26:1 27:37 28:30 29:19 
-0.1716167673438785 2:26 23:1 26:1 27:25 28:18 29:9 
-1 2:7 27:6 28:5 29:3 
-1 2:5 14:1 27:4 28:3 
-1 2:3 14:1 27:2 28:1 
-1 2:11 4:1 27:10 28:8 29:1 
-0.5772095623651475 2:1 
-1 2:17 27:16 28:15 29:12 
-0.421268537794474 2:16 27:15 28:14 29:11 
-1 2:1 
-1 2:1 
-1 2:7 27:6 28:5 29:3 
-0.04957237722438321 2:7 25:1 27:6 28:4 
-1 2:16 27:15 28:12 29:10 
-1 2:24 27:23 28:16 29:12 
-0.438511300971804 2:6 27:5 28:4 29:1 
-0.4101128263304237 2:20 10:1 27:19 28:13 29:7 
-0.7923462894248171 2:14 10:1 27:13 28:7 29:5 
-0.9169948185985616 2:19 3:1 27:18 28:15 29:11 
-0.8843999811302364 2:19 27:18 28:16 29:10 
-1 2:11 27:10 28:9 29:5 
-1 2:17 27:16 28:14 29:9 
-0.8407476550029891 2:4 27:3 28:2 
-0.1956914381611865 2:4 17:1 27:3 28:2 29:1 
-0.6509320456461364 2:6 17:1 27:5 28:4 29:3 
-0.9115152468151059 2:16 27:15 28:12 29:9 
-1 2:24 27:23 28:19 29:12 
-1 2:10 27:9 28:8 29:4 
-0.3665508558139456 2:6 27:5 28:4 29:2 
-1 2:8 27:7 28:6 29:2 
-1 2:1 
-0.3601044781316403 2:5 27:4 28:2 
-0.8164877090366092 1:1 2:15 3:1 10:1 27:14 28:12 29:7 
-1 2:5 16:1 27:4 28:3 29:1 
-1 2:7 16:1 27:6 28:5 29:2 
-1 2:1 
-1 2:8 27:7 28:6 29:3 
-0.2820160126576257 1:1 2:49 25:1 27:48 28:45 29:33 
-0.1895816422936083 2:11 27:10 28:9 29:8 
-1 2:1 
-1 2:18 17:1 27:17 28:16 29:9 
-0.417476250423945 2:18 18:1 25:1 27:17 28:14 29:10 
-0.08372550445308624 2:31 18:1 25:1 27:30 28:21 29:14 
-1 2:13 27:12 28:7 29:4 
-0.01460733978118888 2:19 4:1 18:1 25:1 27:18 28:12 29:6 
-1 2:9 4:1 18:1 25:1 27:8 28:6 29:3 
-0.34745215419992 2:20 16:1 23:1 27:19 28:13 29:5 
-0.07958990998888651 2:22 16:1 23:1 27:21 28:14 29:5 
-1 1:1 2:14 16:1 27:13 28:7 29:1 
-1 2:16 16:1 27:15 28:8 29:1 
-0.7318371734021339 2:10 27:9 28:6 29:2 
-1 2:8 27:7 28:4 29:1 
-1 2:1 
-0.02339824164148315 1:1 2:33 14:2 27:32 28:27 29:23 
-1 1:1 2:6 10:1 27:5 28:1 
-1 2:1 
-0.9507517812590528 1:1 2:5 8:1 23:1 27:4 28:3 
-1 2:4 27:3 28:2 
-1 2:11 25:1 27:10 28:6 29:3 
-1 2:13 25:1 27:12 28:8 29:4 
-1 2:2 27:1 
-1 2:2 27:1 
-0.3282884679333785 2:23 20:1 25:1 27:22 28:15 29:6 
-0.1689887060676512 2:40 20:1 25:1 27:39 28:27 29:14 
-1 2:2 27:1 
-1 2:4 27:3 28:2 
-1 2:2 27:1 
-1 2:2 27:1 
-1 2:2 27:1 
-0.4396040061121917 2:21 27:20 28:17 29:10 
-1 2:8 3:1 26:1 27:6 28:4 29:2 
-1 2:2 27:1 
-1 2:5 16:1 27:4 28:3 29:2 
-0.9219387922378494 2:11 7:1 27:10 28:6 29:3 
-1 2:1 
-1 2:2 27:1 
-1 2:1 
-1 2:2 27:1 
-1 2:1 
-1 2:1 
-1 2:6 17:1 27:5 28:3 
-0.924235275940221 2:5 17:1 27:4 28:2 
-1 2:1 
-1 2:2 27:1 
-1 2:1 
-1 2:2 27:1 
-1 2:1 
-1 2:2 27:1 
-1 2:1 
-1 2:2 27:1 
-1 2:1 
-1 2:1 
-1 2:2 27:1 
-0.4060002804333899 2:13 27:12 28:11 29:10 
-1 2:1 
-1 2:2 27:1 
-1 2:1 
-1 2:2 27:1 
-1 2:1 
-1 2:2 27:1 
-1 2:1 
-1 2:1 
-1 2:2 27:1 
-1 2:5 27:4 28:3 29:2 
-1 2:1 
-1 2:2 27:1 
-1 2:5 27:4 28:3 29:2 
-1 2:1 
-1 2:2 27:1 
-1 2:1 
-1 2:2 27:1 
-1 2:5 27:4 28:3 29:2 
-1 2:1 
-1 2:2 27:1 
-1 2:5 27:4 28:3 29:2 
-1 2:1 
-1 2:2 27:1 
-1 2:1 
-1 2:1 
-1 2:13 27:12 28:8 29:5 
-1 2:2 27:1 
-0.9667082904771067 2:12 27:11 28:7 29:4 
-1 2:1 
-1 2:5 27:4 28:3 29:2 
-1 2:2 27:1 
-0.6830566221690911 2:8 14:1 27:7 28:2 
-1 2:2 27:1 
-1 2:2 27:1 
-1 2:2 27:1 
-0.612026784467124 2:6 26:1 27:5 28:3 
-1 2:2 27:1 
-1 2:2 27:1 
-1 2:2 27:1 
-1 2:2 27:1 
-1 2:2 27:1 
-1 2:2 27:1 
-1 2:1 
-1 2:2 27:1 
-0.8261043927091318 2:5 27:4 28:3 29:2 
-1 2:7 27:6 28:5 29:4 
-1 2:2 27:1 
-1 2:2 27:1 
-0.3049948623797112 2:21 27:20 28:14 29:8 
-1 2:8 27:7 28:4 
-0.2893796190824086 2:11 3:1 27:10 28:9 29:6 
-1 1:1 2:6 10:1 27:5 28:2 
-1 2:9 8:1 27:8 28:5 
-1 2:2 27:1 
-1 2:2 27:1 
-0.08923836641320471 2:11 27:10 28:9 29:8 
-1 2:7 27:6 28:5 29:4 
-1 2:1 
-1 2:2 27:1 
-1 2:2 27:1 
-1 2:7 27:6 28:5 29:4 
-0.5487133112987895 2:14 27:13 28:12 29:11 
-0.0375636209916024 2:8 27:7 28:6 29:5 
-0.3632267661545203 2:7 27:6 28:5 29:4 
-1 2:9 5:1 26:1 27:8 28:6 29:1 
-1 2:1 
-1 2:2 27:1 
-0.8994741475550329 2:10 23:1 27:9 28:3 
-1 2:4 23:1 27:3 28:2 
-1 2:2 23:1 27:1 
-0.2977859145150109 2:7 24:1 27:6 28:1 
-1 2:1 
-1 2:2 27:1 
-1 2:4 27:3 28:2 29:1 
-1 2:6 27:5 28:4 29:2 
-1 2:1 
-0.2865385851782401 2:3 27:2 28:1 
-1 2:2 27:1 
-0.8766690649082675 2:4 27:3 28:2 
-1 2:2 27:1 
-1 2:2 27:1 
-1 2:9 5:1 25:1 27:8 28:3 
-1 2:12 5:1 8:1 27:11 28:6 29:1 
-1 2:2 27:1 
-0.4103138625794798 2:5 17:1 27:4 28:3 
-0.06310856277007967 2:3 17:1 27:2 28:1 
-1 2:2 27:1 
-1 2:1 
-0.3062790168318655 2:11 8:1 27:10 28:4 29:1 
-1 2:2 27:1 
-1 2:2 27:1 
-0.20809124595322 1:1 2:17 12:1 27:16 28:15 29:10 
-0.315927687535882 2:9 17:1 27:8 28:4 29:2 
-1 2:2 27:1 
-1 2:12 4:1 17:1 27:11 28:10 29:5 
-1 2:8 27:7 28:4 29:1 
-0.5728530812527444 2:25 14:1 26:1 27:24 28:16 29:6 
-0.02317920024194562 2:34 14:1 26:1 27:33 28:21 29:8 
-0.3578860328070076 2:18 4:1 10:1 14:1 27:17 28:11 29:4 
-1 2:1 
-1 2:26 27:25 28:18 29:12 
-1 2:2 27:1 
-1 2:2 27:1 
-0.006735316186298241 2:1 13:1 
-0.08104478968536601 2:5 27:4 28:3 
-1 2:10 27:9 28:8 29:4 
-1 2:11 13:1 27:10 28:9 29:4 
-0.1436373342519162 2:6 13:1 27:5 28:4 29:1 
-0.1756521607564742 2:1 13:1 
-1 2:1 
-1 2:3 27:2 28:1 
-1 2:2 27:1 
-1 2:2 27:1 
-0.03482529970210361 2:11 13:1 27:10 28:8 29:2 
-1 2:12 13:1 27:11 28:9 29:3 
-0.05233661230123844 1:1 2:30 8:1 13:1 27:29 28:27 29:19 
-0.1737630027911703 1:1 2:22 8:1 13:1 27:21 28:19 29:14 
-0.01950310437647153 2:28 8:1 13:1 27:27 28:25 29:19 
-1 2:1 
-0.3116127195853953 2:18 8:1 27:17 28:16 29:13 
-1 2:6 27:5 28:4 29:2 
-0.3264067783322069 2:6 8:1 27:5 28:1 
-1 2:1 
-1 2:2 27:1 
-0.4355072483471638 2:5 12:1 27:4 28:3 
-0.7527704510012729 1:1 2:24 24:1 26:1 27:23 28:20 29:15 
-0.2279107802360016 2:25 24:1 26:1 27:24 28:21 29:16 
-1 2:1 
-0.7745315925265817 2:24 12:1 27:23 28:19 29:12 
-1 2:1 
-0.7097413797908538 2:8 4:1 27:7 28:5 
-1 2:3 27:2 28:1 
-0.3280329992489538 2:20 4:1 11:1 27:19 28:18 29:9 
-1 2:2 27:1 
-1 2:4 27:3 28:2 29:1 
-0.07092426324868566 2:22 8:1 27:21 28:12 29:8 
-1 2:16 8:1 27:15 28:8 29:5 
-1 2:11 25:1 27:10 28:6 29:2 
-0.5933497883647023 2:19 16:1 26:1 27:18 28:16 29:9 
-1 2:1 
-0.9121834997939255 2:10 27:9 28:8 29:7 
-1 2:2 27:1 
-0.5865479073696703 2:9 12:1 27:8 28:7 29:5 
-0.4921792427501436 2:15 12:1 27:14 28:13 29:8 
-0.6835832149469588 2:24 25:1 27:23 28:13 29:7 
-1 2:2 27:1 
-1 2:2 27:1 
-1 2:2 27:1 
-1 2:4 27:3 28:2 29:1 
-0.08521024906644914 2:33 4:1 14:1 27:32 28:23 29:8 
-0.1486902722750079 2:35 4:1 14:1 27:34 28:25 29:10 
-0.6259277538199158 2:14 14:1 27:13 28:8 29:3 
-0.08158940042770972 2:28 4:1 14:1 27:27 28:19 29:7 
-1 2:2 27:1 
-0.7378765329660265 2:4 27:3 28:2 29:1 
-1 2:2 27:1 
-0.2180630508555257 2:19 13:1 20:1 27:18 28:13 29:7 
-0.4152612010692385 2:15 13:1 20:1 27:14 28:10 29:5 
-1 2:2 27:1 
-1 2:1 
-1 2:3 27:2 28:1 
-1 2:2 27:1 
-1 2:1 
-1 2:2 27:1 
-1 2:1 
-1 2:2 27:1 
-0.1238640807373967 2:1 
-0.623376556911919 2:3 27:2 28:1 
-1 2:2 27:1 
-0.2342924219292604 2:16 26:1 27:15 28:14 29:8 
-1 2:2 27:1 
-1 2:2 27:1 
-0.07766918422593387 2:31 3:1 4:1 13:1 27:30 28:27 29:17 
-0.09986619328263119 2:29 3:1 4:1 13:1 27:28 28:25 29:17 
-1 2:11 27:10 28:7 29:3 
-0.451325500078654 2:22 3:1 27:21 28:18 29:12 
