svm_type c_svc
kernel_type rbf
gamma 0.0344828
nr_class 2
total_sv 2340
rho -2.8155
label 1 -1
nr_sv 1171 1169
SV
1 2:0.352941 19:1 27:0.352941 28:0.322034 29:0.25 
1 2:0.161765 27:0.161765 28:0.169492 29:0.104167 
1 2:0.161765 19:0.333333 27:0.161765 28:0.118644 
1 2:0.0441176 27:0.0441176 28:0.0169492 
1 2:0.132353 4:1 5:1 8:1 27:0.132353 28:0.0847458 
1 2:0.102941 4:1 5:1 8:1 27:0.102941 28:0.0677966 
1 2:0.102941 5:1 27:0.102941 28:0.0677966 
1 2:0.0735294 5:1 27:0.0735294 28:0.0338983 
1 2:0.0147059 27:0.0147059 
1 2:0.132353 14:0.5 19:0.333333 27:0.132353 28:0.135593 29:0.0833333 
1 2:0.102941 27:0.102941 28:0.0847458 29:0.0833333 
1 2:0.0147059 27:0.0147059 
1 2:0.338235 25:0.5 27:0.338235 28:0.237288 29:0.145833 
1 2:0.147059 25:0.5 27:0.147059 28:0.135593 29:0.0833333 
1 2:0.161765 4:1 17:0.5 27:0.161765 28:0.118644 29:0.0416667 
1 2:0.0147059 27:0.0147059 
1 2:0.0147059 27:0.0147059 
1 2:0.0882353 12:1 14:0.5 27:0.0882353 28:0.0677966 
1 2:0.0147059 27:0.0147059 
1 2:0.0294118 10:1 27:0.0294118 28:0.0169492 
1 2:0.132353 15:0.5 27:0.132353 28:0.0847458 29:0.0208333 
1 2:0.0294118 27:0.0294118 28:0.0169492 
1 2:0.0882353 27:0.0882353 28:0.0847458 29:0.0416667 
1 2:0.0735294 27:0.0735294 28:0.0677966 29:0.0208333 
1 2:0.0441176 27:0.0441176 28:0.0338983 29:0.0208333 
1 2:0.132353 25:0.5 27:0.132353 28:0.118644 29:0.0208333 
1 2:0.147059 25:0.5 27:0.147059 28:0.135593 29:0.0416667 
1 2:0.176471 25:0.5 27:0.176471 28:0.169492 29:0.0833333 
1 2:0.102941 27:0.102941 28:0.101695 29:0.0625 
1 2:0.117647 27:0.117647 28:0.118644 29:0.0833333 
1 2:0.132353 27:0.132353 28:0.135593 29:0.104167 
1 2:0.161765 27:0.161765 28:0.169492 29:0.145833 
1 2:0.25 20:1 27:0.25 28:0.254237 29:0.208333 
1 2:0.0147059 27:0.0147059 
1 2:0.132353 25:0.5 27:0.132353 28:0.118644 29:0.0833333 
1 2:0.0588235 14:0.5 27:0.0588235 28:0.0508475 
1 2:0.147059 25:0.5 27:0.147059 28:0.0847458 29:0.0208333 
1 2:0.338235 15:0.5 27:0.338235 28:0.338983 29:0.291667 
1 2:0.147059 9:1 15:0.5 27:0.147059 28:0.152542 29:0.104167 
1 2:0.220588 15:0.5 27:0.220588 28:0.186441 29:0.145833 
1 2:0.279412 6:0.5 15:0.5 27:0.279412 28:0.271186 29:0.145833 
1 2:0.308824 6:0.5 15:0.5 27:0.308824 28:0.305085 29:0.166667 
1 2:0.235294 8:1 15:0.5 18:1 27:0.235294 28:0.186441 29:0.145833 
1 2:0.161765 19:0.333333 27:0.161765 28:0.135593 29:0.0833333 
1 2:0.294118 19:0.333333 27:0.294118 28:0.237288 29:0.166667 
1 2:0.191176 19:0.333333 26:1 27:0.191176 28:0.186441 29:0.0625 
1 2:0.0882353 16:1 22:1 27:0.0882353 28:0.0508475 
1 2:0.117647 16:1 22:1 27:0.117647 28:0.0847458 
1 2:0.0882353 16:1 22:1 27:0.0882353 28:0.0508475 
1 2:0.279412 27:0.279412 28:0.271186 29:0.166667 
1 2:0.308824 27:0.308824 28:0.305085 29:0.208333 
1 2:0.25 27:0.25 28:0.237288 29:0.166667 
1 2:0.279412 27:0.279412 28:0.271186 29:0.208333 
1 2:0.176471 16:1 22:1 27:0.176471 28:0.152542 29:0.0833333 
1 2:0.117647 16:1 22:1 27:0.117647 28:0.0847458 29:0.0208333 
1 2:0.147059 11:1 27:0.147059 28:0.152542 29:0.104167 
1 2:0.102941 11:1 27:0.102941 28:0.101695 29:0.0416667 
1 2:0.161765 4:1 16:1 22:1 27:0.161765 28:0.118644 29:0.0625 
1 2:0.352941 21:1 27:0.352941 28:0.322034 29:0.25 
1 2:0.382353 21:1 27:0.382353 28:0.355932 29:0.291667 
1 2:0.323529 21:1 27:0.323529 28:0.288136 29:0.25 
1 2:0.352941 21:1 27:0.352941 28:0.322034 29:0.291667 
1 2:0.264706 21:1 27:0.264706 28:0.254237 29:0.229167 
1 2:0.294118 21:1 27:0.294118 28:0.288136 29:0.270833 
1 2:0.235294 21:1 27:0.235294 28:0.237288 29:0.229167 
1 2:0.264706 21:1 27:0.264706 28:0.271186 29:0.270833 
1 2:0.0147059 27:0.0147059 
1 2:0.161765 6:0.5 25:1 27:0.161765 28:0.118644 29:0.0416667 
1 2:0.0735294 17:0.5 27:0.0735294 28:0.0508475 
1 2:0.0588235 27:0.0588235 28:0.0508475 29:0.0208333 
1 2:0.0441176 19:0.333333 27:0.0441176 28:0.0338983 29:0.0208333 
1 2:0.161765 27:0.161765 28:0.152542 29:0.125 
1 2:0.0882353 20:1 27:0.0882353 28:0.0847458 29:0.0833333 
1 2:0.0882353 12:1 27:0.0882353 28:0.0847458 29:0.0625 
1 2:0.0294118 27:0.0294118 28:0.0169492 
1 2:0.0441176 27:0.0441176 28:0.0169492 
1 2:0.0735294 27:0.0735294 28:0.0508475 
1 2:0.205882 17:0.5 27:0.205882 28:0.186441 29:0.166667 
1 2:0.132353 4:1 6:0.5 27:0.132353 28:0.101695 29:0.0208333 
1 2:0.117647 4:1 6:0.5 27:0.117647 28:0.0847458 29:0.0416667 
1 2:0.0882353 6:1 26:1 27:0.0882353 28:0.0677966 29:0.0416667 
1 2:0.294118 6:1 26:1 27:0.294118 28:0.237288 29:0.104167 
1 2:0.205882 4:1 6:0.5 19:0.666667 20:1 27:0.205882 28:0.169492 29:0.125 
1 2:0.235294 19:0.333333 20:1 27:0.235294 28:0.20339 29:0.125 
1 2:0.0588235 27:0.0588235 28:0.0508475 29:0.0416667 
1 2:0.0441176 17:0.5 27:0.0441176 28:0.0338983 29:0.0208333 
1 2:0.0147059 27:0.0147059 
1 2:0.0735294 17:0.5 27:0.0735294 28:0.0508475 
1 2:0.176471 27:0.176471 28:0.135593 29:0.0833333 
1 2:0.132353 27:0.132353 28:0.135593 29:0.0625 
1 2:0.161765 27:0.161765 28:0.101695 29:0.0625 
1 2:0.0882353 27:0.0882353 28:0.0847458 29:0.0625 
1 2:0.235294 27:0.235294 28:0.254237 29:0.25 
1 2:0.0147059 27:0.0147059 
1 2:0.0441176 27:0.0441176 28:0.0338983 
1 2:0.0882353 6:0.5 27:0.0882353 28:0.0677966 29:0.0416667 
1 2:0.0147059 27:0.0147059 
1 2:0.235294 27:0.235294 28:0.237288 29:0.1875 
1 2:0.0735294 23:0.5 27:0.0735294 28:0.0508475 29:0.0208333 
1 2:0.0147059 27:0.0147059 
1 2:0.0735294 16:1 27:0.0735294 28:0.0677966 29:0.0416667 
1 2:0.132353 16:1 27:0.132353 28:0.101695 29:0.0833333 
1 2:0.220588 10:1 27:0.220588 28:0.20339 29:0.1875 
1 2:0.0588235 27:0.0588235 28:0.0508475 29:0.0416667 
1 2:0.0882353 27:0.0882353 28:0.0847458 29:0.0833333 
1 2:0.102941 27:0.102941 28:0.0847458 29:0.0416667 
1 2:0.132353 16:1 27:0.132353 28:0.135593 29:0.0416667 
1 2:0.102941 16:1 27:0.102941 28:0.101695 29:0.0208333 
1 2:0.147059 6:0.5 27:0.147059 28:0.152542 29:0.0625 
1 2:0.25 6:1 27:0.25 28:0.254237 29:0.145833 
1 2:0.0147059 27:0.0147059 
1 2:0.132353 8:1 27:0.132353 28:0.0677966 29:0.0208333 
1 2:0.161765 11:1 17:0.5 27:0.161765 28:0.135593 29:0.104167 
1 2:0.132353 15:0.5 27:0.132353 28:0.135593 29:0.125 
1 2:0.0147059 27:0.0147059 
1 2:0.0735294 20:1 26:1 27:0.0735294 28:0.0677966 29:0.0625 
1 2:0.0588235 27:0.0588235 28:0.0508475 29:0.0208333 
1 2:0.102941 11:1 27:0.102941 28:0.101695 29:0.104167 
1 2:0.132353 11:1 27:0.132353 28:0.135593 29:0.104167 
1 2:0.0147059 27:0.0147059 
1 2:0.117647 27:0.102941 28:0.0677966 29:0.0416667 
1 2:0.147059 27:0.147059 28:0.135593 29:0.0625 
1 2:0.117647 27:0.117647 28:0.0677966 29:0.0208333 
1 2:0.0147059 27:0.0147059 
1 2:0.0147059 27:0.0147059 
1 2:0.0147059 27:0.0147059 
1 2:0.0147059 27:0.0147059 
1 2:0.0882353 27:0.0882353 28:0.0847458 29:0.0416667 
1 2:0.0588235 27:0.0588235 28:0.0169492 
1 2:0.0441176 27:0.0441176 28:0.0338983 
1 2:0.0147059 27:0.0147059 
1 2:0.0294118 27:0.0294118 
1 2:0.0441176 25:0.5 27:0.0441176 28:0.0338983 29:0.0208333 
1 2:0.25 3:1 16:1 27:0.25 28:0.271186 29:0.229167 
1 2:0.191176 3:1 9:1 13:1 25:0.5 27:0.191176 28:0.152542 29:0.0833333 
1 2:0.426471 25:0.5 27:0.426471 28:0.40678 29:0.354167 
1 2:0.102941 26:1 27:0.102941 28:0.0508475 
1 2:0.0441176 9:1 27:0.0441176 28:0.0338983 
1 2:0.0882353 9:1 27:0.0882353 28:0.0677966 29:0.0416667 
1 2:0.0147059 9:1 27:0.0147059 
1 2:0.0588235 9:1 27:0.0588235 28:0.0338983 29:0.0208333 
1 2:0.0147059 11:1 27:0.0147059 
1 2:0.132353 27:0.132353 28:0.101695 29:0.0208333 
1 2:0.0882353 27:0.0882353 28:0.0677966 29:0.0208333 
1 2:0.0147059 27:0.0147059 
1 2:0.0441176 25:0.5 27:0.0441176 28:0.0338983 29:0.0208333 
1 2:0.205882 8:1 27:0.205882 28:0.20339 29:0.208333 
1 2:0.117647 9:1 27:0.117647 28:0.118644 29:0.0416667 
1 2:0.0294118 16:1 27:0.0294118 28:0.0169492 
1 2:0.0147059 15:0.5 27:0.0147059 
0.6055544150326408 2:0.205882 10:1 11:1 25:0.5 27:0.205882 28:0.169492 29:0.145833 
1 2:0.0588235 27:0.0588235 28:0.0508475 29:0.0416667 
1 2:0.0735294 27:0.0735294 28:0.0677966 29:0.0625 
1 2:0.161765 17:0.5 18:1 27:0.161765 28:0.169492 29:0.125 
1 2:0.191176 17:0.5 18:1 27:0.191176 28:0.20339 29:0.166667 
1 2:0.632353 15:0.5 27:0.632353 28:0.627119 29:0.5625 
1 2:0.558824 15:0.5 27:0.558824 28:0.542373 29:0.479167 
1 2:0.338235 18:1 25:0.5 27:0.338235 28:0.288136 29:0.145833 
1 2:0.367647 18:1 25:0.5 27:0.367647 28:0.322034 29:0.1875 
1 
1 2:0.0441176 27:0.0441176 28:0.0338983 
1 2:0.0147059 27:0.0147059 
1 2:0.0294118 27:0.0294118 
1 2:0.0441176 16:1 27:0.0441176 28:0.0169492 
1 2:0.0147059 27:0.0147059 
1 2:0.161765 27:0.161765 28:0.118644 29:0.0833333 
1 2:0.205882 8:1 16:1 27:0.205882 28:0.118644 29:0.0416667 
1 2:0.235294 8:1 16:1 27:0.235294 28:0.152542 29:0.0416667 
1 2:0.191176 14:0.5 27:0.191176 28:0.20339 29:0.208333 
1 2:0.308824 14:0.5 27:0.308824 28:0.322034 29:0.333333 
1 2:0.0882353 10:1 27:0.0882353 28:0.0847458 29:0.0625 
1 2:0.0147059 27:0.0147059 
1 2:0.0882353 14:0.5 27:0.0882353 28:0.0847458 29:0.0416667 
1 2:0.0588235 10:1 27:0.0588235 28:0.0508475 
1 2:0.0882353 10:1 27:0.0882353 28:0.0847458 29:0.0416667 
1 2:0.0588235 27:0.0588235 28:0.0508475 29:0.0208333 
1 2:0.161765 18:1 25:0.5 27:0.161765 28:0.152542 29:0.104167 
1 2:0.0735294 23:0.5 27:0.0735294 28:0.0677966 29:0.0416667 
1 2:0.0147059 27:0.0147059 
1 2:0.338235 14:1 27:0.338235 28:0.305085 29:0.291667 
1 2:0.0441176 25:0.5 27:0.0441176 28:0.0338983 29:0.0208333 
1 2:0.0588235 27:0.0588235 28:0.0338983 
1 8:1 23:0.5 
1 2:0.102941 16:1 27:0.102941 28:0.101695 29:0.0625 
1 2:0.205882 25:0.5 27:0.191176 28:0.169492 29:0.166667 
1 2:0.147059 18:1 27:0.147059 28:0.135593 29:0.0833333 
1 2:0.117647 17:0.5 27:0.117647 28:0.0677966 29:0.0208333 
1 2:0.176471 18:1 25:0.5 27:0.176471 28:0.135593 29:0.0625 
1 2:0.0147059 18:1 27:0.0147059 
1 2:0.0147059 27:0.0147059 
1 2:0.176471 17:0.5 27:0.176471 28:0.152542 29:0.0833333 
1 2:0.0294118 27:0.0294118 
1 2:0.176471 7:1 16:1 27:0.176471 28:0.135593 29:0.104167 
1 2:0.191176 7:1 16:1 27:0.191176 28:0.135593 29:0.104167 
1 2:0.205882 7:1 16:1 27:0.205882 28:0.152542 29:0.104167 
1 2:0.220588 7:1 16:1 27:0.220588 28:0.169492 29:0.125 
1 2:0.147059 13:1 27:0.147059 28:0.152542 29:0.104167 
1 2:0.0588235 27:0.0588235 28:0.0508475 29:0.0416667 
1 2:0.0588235 10:1 27:0.0588235 28:0.0508475 29:0.0416667 
1 2:0.0441176 27:0.0441176 28:0.0338983 
1 2:0.0147059 27:0.0147059 
1 2:0.0147059 27:0.0147059 
1 2:0.0147059 27:0.0147059 
1 2:0.117647 5:1 27:0.117647 28:0.0677966 29:0.0208333 
1 2:0.161765 5:1 27:0.161765 28:0.101695 29:0.0416667 
1 2:0.0882353 5:1 27:0.0882353 28:0.0508475 29:0.0208333 
1 2:0.132353 5:1 27:0.132353 28:0.0847458 29:0.0416667 
1 2:0.235294 3:1 10:1 27:0.235294 28:0.220339 29:0.166667 
1 2:0.382353 3:1 10:1 14:0.5 27:0.382353 28:0.322034 29:0.25 
1 2:0.147059 27:0.147059 28:0.152542 29:0.145833 
1 2:0.0735294 10:1 27:0.0735294 28:0.0677966 29:0.0416667 
1 2:0.191176 10:1 27:0.191176 28:0.186441 29:0.145833 
1 2:0.205882 10:1 24:0.5 27:0.205882 28:0.220339 29:0.1875 
1 2:0.220588 10:1 24:0.5 27:0.220588 28:0.237288 29:0.208333 
1 2:0.338235 10:1 24:0.5 27:0.338235 28:0.355932 29:0.3125 
1 2:0.0588235 26:1 27:0.0588235 28:0.0338983 
1 2:0.0588235 27:0.0588235 28:0.0338983 
1 2:0.0735294 17:0.5 24:0.5 27:0.0735294 28:0.0677966 29:0.0416667 
1 2:0.176471 17:0.5 24:1 27:0.176471 28:0.118644 29:0.0416667 
1 2:0.0294118 10:1 27:0.0294118 28:0.0169492 
1 2:0.176471 7:1 14:0.5 27:0.176471 28:0.118644 29:0.0416667 
1 2:0.0147059 27:0.0147059 
1 2:0.0147059 27:0.0147059 
1 2:0.0147059 27:0.0147059 
1 2:0.0882353 27:0.0882353 28:0.0847458 29:0.0625 
1 2:0.0588235 27:0.0588235 28:0.0508475 29:0.0416667 
1 2:0.0588235 27:0.0588235 28:0.0508475 29:0.0416667 
1 2:0.220588 12:1 27:0.220588 28:0.237288 29:0.166667 
1 2:0.0735294 25:0.5 27:0.0735294 28:0.0508475 
1 2:0.161765 
1 2:0.161765 19:0.333333 
1 2:0.0441176 
1 2:0.0735294 5:1 
1 2:0.0147059 
1 2:0.102941 
1 2:0.0147059 
1 2:0.147059 25:0.5 
1 2:0.161765 4:1 17:0.5 
1 2:0.0147059 
1 2:0.0147059 
1 2:0.0147059 
1 2:0.0294118 10:1 
1 2:0.132353 15:0.5 
1 2:0.0294118 
1 2:0.0882353 
1 2:0.0735294 
1 2:0.0441176 
1 2:0.132353 25:0.5 
1 2:0.147059 25:0.5 
1 2:0.176471 25:0.5 
1 2:0.102941 
1 2:0.117647 
1 2:0.132353 
1 2:0.161765 
1 2:0.25 20:1 
1 2:0.0147059 
1 2:0.132353 25:0.5 
1 2:0.0588235 14:0.5 
1 2:0.147059 25:0.5 
1 2:0.220588 15:0.5 
1 2:0.161765 19:0.333333 
1 2:0.294118 19:0.333333 
1 2:0.191176 19:0.333333 26:1 
1 2:0.279412 
1 2:0.308824 
1 2:0.25 
1 2:0.279412 
1 2:0.0147059 
1 2:0.0735294 17:0.5 
1 2:0.0588235 
1 2:0.0441176 19:0.333333 
1 2:0.161765 
1 2:0.0882353 20:1 
1 2:0.0882353 12:1 
1 2:0.0294118 
1 2:0.0441176 
1 2:0.0735294 
1 2:0.205882 17:0.5 
1 2:0.132353 4:1 6:0.5 
1 2:0.117647 4:1 6:0.5 
1 2:0.0588235 
1 2:0.0441176 17:0.5 
1 2:0.0147059 
1 2:0.0735294 17:0.5 
1 2:0.176471 
1 2:0.132353 
1 2:0.161765 
1 2:0.0882353 
1 2:0.235294 
1 2:0.0147059 
1 2:0.0441176 
1 2:0.0882353 6:0.5 
1 2:0.0147059 
1 2:0.235294 
1 2:0.0735294 23:0.5 
1 2:0.0147059 
1 2:0.0588235 
1 2:0.0882353 
1 2:0.102941 
1 2:0.147059 6:0.5 
1 2:0.0147059 
1 2:0.132353 8:1 
1 2:0.132353 15:0.5 
1 2:0.0147059 
1 2:0.0735294 20:1 26:1 
1 2:0.0588235 
1 2:0.0147059 
1 2:0.117647 
1 2:0.147059 
1 2:0.117647 
1 2:0.0147059 
1 2:0.0147059 
1 2:0.0147059 
1 2:0.0147059 
1 2:0.0882353 
1 2:0.0588235 
1 2:0.0441176 
1 2:0.0147059 
1 2:0.0294118 
1 2:0.0441176 25:0.5 
1 2:0.102941 26:1 
1 2:0.0147059 9:1 
1 2:0.0147059 11:1 
1 2:0.132353 
1 2:0.0882353 
1 2:0.0147059 
1 2:0.0441176 25:0.5 
1 2:0.205882 8:1 
1 2:0.0147059 15:0.5 
1 2:0.0588235 
1 2:0.0735294 
1 
1 2:0.0441176 
1 2:0.0147059 
1 2:0.0294118 
1 2:0.0147059 
1 2:0.161765 
1 2:0.191176 14:0.5 
1 2:0.0147059 
1 2:0.0882353 14:0.5 
1 2:0.0588235 
1 2:0.0735294 23:0.5 
1 2:0.0147059 
1 2:0.0441176 25:0.5 
1 2:0.0588235 
1 8:1 23:0.5 
1 2:0.205882 25:0.5 
1 2:0.117647 17:0.5 
1 2:0.0147059 18:1 
1 2:0.0147059 
1 2:0.176471 17:0.5 
1 2:0.0294118 
1 2:0.147059 13:1 
1 2:0.0588235 
1 2:0.0441176 
1 2:0.0147059 
1 2:0.0147059 
1 2:0.0147059 
1 2:0.0882353 5:1 
1 2:0.147059 
1 2:0.0588235 26:1 
1 2:0.0588235 
1 2:0.0735294 17:0.5 24:0.5 
1 2:0.0294118 10:1 
1 2:0.176471 7:1 14:0.5 
1 2:0.0147059 
1 2:0.0147059 
1 2:0.0147059 
1 2:0.0882353 
1 2:0.0588235 
1 2:0.0588235 
1 2:0.220588 12:1 
1 2:0.0735294 25:0.5 
1 2:0.161765 
1 2:0.161765 19:0.333333 
1 2:0.0441176 
1 2:0.0735294 5:1 
1 2:0.0147059 
1 2:0.102941 
1 2:0.0147059 
1 2:0.147059 25:0.5 
1 2:0.161765 4:1 17:0.5 
1 2:0.0147059 
1 2:0.0147059 
1 2:0.0147059 
1 2:0.0294118 10:1 
1 2:0.132353 15:0.5 
1 2:0.0294118 
1 2:0.0882353 
1 2:0.0735294 
1 2:0.0441176 
1 2:0.132353 25:0.5 
1 2:0.147059 25:0.5 
1 2:0.176471 25:0.5 
1 2:0.102941 
1 2:0.117647 
1 2:0.132353 
1 2:0.161765 
1 2:0.25 20:1 
1 2:0.0147059 
1 2:0.132353 25:0.5 
1 2:0.0588235 14:0.5 
1 2:0.147059 25:0.5 
1 2:0.220588 15:0.5 
1 2:0.161765 19:0.333333 
1 2:0.294118 19:0.333333 
1 2:0.191176 19:0.333333 26:1 
1 2:0.279412 
1 2:0.308824 
1 2:0.25 
1 2:0.279412 
1 2:0.0147059 
1 2:0.0735294 17:0.5 
1 2:0.0588235 
1 2:0.0441176 19:0.333333 
1 2:0.161765 
1 2:0.0882353 20:1 
1 2:0.0882353 12:1 
1 2:0.0294118 
1 2:0.0441176 
1 2:0.0735294 
1 2:0.205882 17:0.5 
1 2:0.132353 4:1 6:0.5 
1 2:0.117647 4:1 6:0.5 
1 2:0.0588235 
1 2:0.0441176 17:0.5 
1 2:0.0147059 
1 2:0.0735294 17:0.5 
1 2:0.176471 
1 2:0.132353 
1 2:0.161765 
1 2:0.0882353 
1 2:0.235294 
1 2:0.0147059 
1 2:0.0441176 
1 2:0.0882353 6:0.5 
1 2:0.0147059 
1 2:0.235294 
1 2:0.0735294 23:0.5 
1 2:0.0147059 
1 2:0.0588235 
1 2:0.0882353 
1 2:0.102941 
1 2:0.147059 6:0.5 
1 2:0.0147059 
1 2:0.132353 8:1 
1 2:0.132353 15:0.5 
1 2:0.0147059 
1 2:0.0735294 20:1 26:1 
1 2:0.0588235 
1 2:0.0147059 
1 2:0.117647 
1 2:0.147059 
1 2:0.117647 
1 2:0.0147059 
1 2:0.0147059 
1 2:0.0147059 
1 2:0.0147059 
1 2:0.0882353 
1 2:0.0588235 
1 2:0.0441176 
1 2:0.0147059 
1 2:0.0294118 
1 2:0.0441176 25:0.5 
1 2:0.102941 26:1 
1 2:0.0147059 9:1 
1 2:0.0147059 11:1 
1 2:0.132353 
1 2:0.0882353 
1 2:0.0147059 
1 2:0.0441176 25:0.5 
1 2:0.205882 8:1 
1 2:0.0147059 15:0.5 
1 2:0.0588235 
1 2:0.0735294 
1 
1 2:0.0441176 
1 2:0.0147059 
1 2:0.0294118 
1 2:0.0147059 
1 2:0.161765 
1 2:0.191176 14:0.5 
1 2:0.0147059 
1 2:0.0882353 14:0.5 
1 2:0.0588235 
1 2:0.0735294 23:0.5 
1 2:0.0147059 
1 2:0.0441176 25:0.5 
1 2:0.0588235 
1 8:1 23:0.5 
1 2:0.205882 25:0.5 
1 2:0.117647 17:0.5 
1 2:0.0147059 18:1 
1 2:0.0147059 
1 2:0.176471 17:0.5 
1 2:0.0294118 
1 2:0.147059 13:1 
1 2:0.0588235 
1 2:0.0441176 
1 2:0.0147059 
1 2:0.0147059 
1 2:0.0147059 
1 2:0.0882353 5:1 
1 2:0.147059 
1 2:0.0588235 26:1 
1 2:0.0588235 
1 2:0.0735294 17:0.5 24:0.5 
1 2:0.0294118 10:1 
1 2:0.176471 7:1 14:0.5 
1 2:0.0147059 
1 2:0.0147059 
1 2:0.0147059 
1 2:0.0882353 
1 2:0.0588235 
1 2:0.0588235 
1 2:0.220588 12:1 
1 2:0.0735294 25:0.5 
1 2:0.161765 
1 2:0.161765 19:0.333333 
1 2:0.0441176 
0.1180003456658826 2:0.102941 4:1 5:1 8:1 
1 2:0.0735294 5:1 
1 2:0.0147059 
1 2:0.102941 
1 2:0.0147059 
1 2:0.147059 25:0.5 
1 2:0.161765 4:1 17:0.5 
1 2:0.0147059 
1 2:0.0147059 
1 2:0.0147059 
1 2:0.0294118 10:1 
1 2:0.132353 15:0.5 
1 2:0.0294118 
1 2:0.0882353 
1 2:0.0735294 
1 2:0.0441176 
1 2:0.132353 25:0.5 
1 2:0.147059 25:0.5 
1 2:0.176471 25:0.5 
1 2:0.102941 
1 2:0.117647 
1 2:0.132353 
1 2:0.161765 
1 2:0.25 20:1 
1 2:0.0147059 
1 2:0.132353 25:0.5 
1 2:0.0588235 14:0.5 
1 2:0.147059 25:0.5 
1 2:0.220588 15:0.5 
1 2:0.161765 19:0.333333 
1 2:0.294118 19:0.333333 
1 2:0.191176 19:0.333333 26:1 
1 2:0.279412 
1 2:0.308824 
1 2:0.25 
1 2:0.279412 
1 2:0.0147059 
1 2:0.0735294 17:0.5 
1 2:0.0588235 
1 2:0.0441176 19:0.333333 
1 2:0.161765 
1 2:0.0882353 20:1 
1 2:0.0882353 12:1 
1 2:0.0294118 
1 2:0.0441176 
1 2:0.0735294 
1 2:0.205882 17:0.5 
1 2:0.132353 4:1 6:0.5 
1 2:0.117647 4:1 6:0.5 
1 2:0.0588235 
1 2:0.0441176 17:0.5 
1 2:0.0147059 
1 2:0.0735294 17:0.5 
1 2:0.176471 
1 2:0.132353 
1 2:0.161765 
1 2:0.0882353 
1 2:0.235294 
1 2:0.0147059 
1 2:0.0441176 
1 2:0.0882353 6:0.5 
1 2:0.0147059 
1 2:0.235294 
1 2:0.0735294 23:0.5 
1 2:0.0147059 
1 2:0.0588235 
1 2:0.0882353 
1 2:0.102941 
1 2:0.147059 6:0.5 
1 2:0.0147059 
1 2:0.132353 8:1 
1 2:0.132353 15:0.5 
1 2:0.0147059 
1 2:0.0735294 20:1 26:1 
1 2:0.0588235 
1 2:0.0147059 
1 2:0.117647 
1 2:0.147059 
1 2:0.117647 
1 2:0.0147059 
1 2:0.0147059 
1 2:0.0147059 
1 2:0.0147059 
1 2:0.0882353 
1 2:0.0588235 
1 2:0.0441176 
1 2:0.0147059 
1 2:0.0294118 
1 2:0.0441176 25:0.5 
1 2:0.102941 26:1 
1 2:0.0147059 9:1 
1 2:0.0147059 11:1 
1 2:0.132353 
1 2:0.0882353 
1 2:0.0147059 
1 2:0.0441176 25:0.5 
1 2:0.205882 8:1 
1 2:0.0147059 15:0.5 
1 2:0.0588235 
1 2:0.0735294 
1 
1 2:0.0441176 
1 2:0.0147059 
1 2:0.0294118 
1 2:0.0147059 
1 2:0.161765 
1 2:0.191176 14:0.5 
1 2:0.0147059 
1 2:0.0882353 14:0.5 
0.3499401869885894 2:0.0588235 10:1 
1 2:0.0588235 
1 2:0.0735294 23:0.5 
1 2:0.0147059 
1 2:0.0441176 25:0.5 
1 2:0.0588235 
1 8:1 23:0.5 
1 2:0.205882 25:0.5 
1 2:0.117647 17:0.5 
1 2:0.0147059 18:1 
1 2:0.0147059 
1 2:0.176471 17:0.5 
1 2:0.0294118 
1 2:0.147059 13:1 
1 2:0.0588235 
1 2:0.0588235 10:1 
1 2:0.0441176 
1 2:0.0147059 
1 2:0.0147059 
1 2:0.0147059 
1 2:0.0882353 5:1 
1 2:0.147059 
1 2:0.0588235 26:1 
1 2:0.0588235 
1 2:0.0735294 17:0.5 24:0.5 
1 2:0.0294118 10:1 
1 2:0.176471 7:1 14:0.5 
1 2:0.0147059 
1 2:0.0147059 
1 2:0.0147059 
1 2:0.0882353 
1 2:0.0588235 
1 2:0.0588235 
1 2:0.220588 12:1 
1 2:0.0735294 25:0.5 
1 2:0.161765 
1 2:0.161765 19:0.333333 
1 2:0.0441176 
1 2:0.102941 4:1 5:1 8:1 
1 2:0.0735294 5:1 
1 2:0.0147059 
1 2:0.102941 
1 2:0.0147059 
1 2:0.147059 25:0.5 
1 2:0.161765 4:1 17:0.5 
1 2:0.0147059 
1 2:0.0147059 
1 2:0.0147059 
1 2:0.0294118 10:1 
1 2:0.132353 15:0.5 
1 2:0.0294118 
1 2:0.0882353 
1 2:0.0735294 
1 2:0.0441176 
1 2:0.132353 25:0.5 
1 2:0.147059 25:0.5 
1 2:0.176471 25:0.5 
1 2:0.102941 
1 2:0.117647 
1 2:0.132353 
1 2:0.161765 
1 2:0.25 20:1 
1 2:0.0147059 
1 2:0.132353 25:0.5 
1 2:0.0588235 14:0.5 
1 2:0.147059 25:0.5 
1 2:0.220588 15:0.5 
1 2:0.161765 19:0.333333 
1 2:0.294118 19:0.333333 
1 2:0.191176 19:0.333333 26:1 
1 2:0.279412 
1 2:0.308824 
1 2:0.25 
1 2:0.279412 
1 2:0.0147059 
1 2:0.0735294 17:0.5 
1 2:0.0588235 
1 2:0.0441176 19:0.333333 
1 2:0.161765 
1 2:0.0882353 20:1 
1 2:0.0882353 12:1 
1 2:0.0294118 
1 2:0.0441176 
1 2:0.0735294 
1 2:0.205882 17:0.5 
1 2:0.132353 4:1 6:0.5 
1 2:0.117647 4:1 6:0.5 
1 2:0.0588235 
1 2:0.0441176 17:0.5 
1 2:0.0147059 
1 2:0.0735294 17:0.5 
1 2:0.176471 
1 2:0.132353 
1 2:0.161765 
1 2:0.0882353 
1 2:0.235294 
1 2:0.0147059 
1 2:0.0441176 
1 2:0.0882353 6:0.5 
1 2:0.0147059 
1 2:0.235294 
1 2:0.0735294 23:0.5 
1 2:0.0147059 
1 2:0.0588235 
1 2:0.0882353 
1 2:0.102941 
1 2:0.147059 6:0.5 
1 2:0.0147059 
1 2:0.132353 8:1 
1 2:0.132353 15:0.5 
1 2:0.0147059 
1 2:0.0735294 20:1 26:1 
1 2:0.0588235 
1 2:0.0147059 
1 2:0.117647 
1 2:0.147059 
1 2:0.117647 
1 2:0.0147059 
1 2:0.0147059 
1 2:0.0147059 
1 2:0.0147059 
1 2:0.0882353 
1 2:0.0588235 
1 2:0.0441176 
1 2:0.0147059 
1 2:0.0294118 
1 2:0.0441176 25:0.5 
1 2:0.102941 26:1 
1 2:0.0147059 9:1 
1 2:0.0147059 11:1 
1 2:0.132353 
1 2:0.0882353 
1 2:0.0147059 
1 2:0.0441176 25:0.5 
1 2:0.205882 8:1 
1 2:0.0147059 15:0.5 
1 2:0.0588235 
1 2:0.0735294 
1 
1 2:0.0441176 
1 2:0.0147059 
1 2:0.0294118 
1 2:0.0147059 
1 2:0.161765 
1 2:0.191176 14:0.5 
1 2:0.0147059 
1 2:0.0882353 14:0.5 
1 2:0.0588235 10:1 
1 2:0.0588235 
1 2:0.0735294 23:0.5 
1 2:0.0147059 
1 2:0.0441176 25:0.5 
1 2:0.0588235 
1 8:1 23:0.5 
1 2:0.205882 25:0.5 
1 2:0.117647 17:0.5 
1 2:0.0147059 18:1 
1 2:0.0147059 
1 2:0.176471 17:0.5 
1 2:0.0294118 
1 2:0.147059 13:1 
1 2:0.0588235 
1 2:0.0588235 10:1 
1 2:0.0441176 
1 2:0.0147059 
1 2:0.0147059 
1 2:0.0147059 
1 2:0.0882353 5:1 
1 2:0.147059 
1 2:0.0588235 26:1 
1 2:0.0588235 
1 2:0.0735294 17:0.5 24:0.5 
1 2:0.0294118 10:1 
1 2:0.176471 7:1 14:0.5 
1 2:0.0147059 
1 2:0.0147059 
1 2:0.0147059 
1 2:0.0882353 
1 2:0.0588235 
1 2:0.0588235 
1 2:0.220588 12:1 
1 2:0.0735294 25:0.5 
1 2:0.161765 
1 2:0.161765 19:0.333333 
1 2:0.0441176 
1 2:0.102941 4:1 5:1 8:1 
1 2:0.0735294 5:1 
1 2:0.0147059 
1 2:0.102941 
1 2:0.0147059 
1 2:0.147059 25:0.5 
1 2:0.161765 4:1 17:0.5 
1 2:0.0147059 
1 2:0.0147059 
1 2:0.0147059 
1 2:0.0294118 10:1 
1 2:0.132353 15:0.5 
1 2:0.0294118 
1 2:0.0882353 
1 2:0.0735294 
1 2:0.0441176 
1 2:0.132353 25:0.5 
1 2:0.147059 25:0.5 
1 2:0.176471 25:0.5 
1 2:0.102941 
1 2:0.117647 
1 2:0.132353 
1 2:0.161765 
1 2:0.25 20:1 
1 2:0.0147059 
1 2:0.132353 25:0.5 
1 2:0.0588235 14:0.5 
1 2:0.147059 25:0.5 
1 2:0.220588 15:0.5 
1 2:0.161765 19:0.333333 
1 2:0.294118 19:0.333333 
1 2:0.191176 19:0.333333 26:1 
1 2:0.279412 
1 2:0.308824 
1 2:0.25 
1 2:0.279412 
1 2:0.0147059 
1 2:0.0735294 17:0.5 
1 2:0.0588235 
1 2:0.0441176 19:0.333333 
1 2:0.161765 
1 2:0.0882353 20:1 
1 2:0.0882353 12:1 
1 2:0.0294118 
1 2:0.0441176 
1 2:0.0735294 
1 2:0.205882 17:0.5 
1 2:0.132353 4:1 6:0.5 
1 2:0.117647 4:1 6:0.5 
1 2:0.0588235 
1 2:0.0441176 17:0.5 
1 2:0.0147059 
1 2:0.0735294 17:0.5 
1 2:0.176471 
1 2:0.132353 
1 2:0.161765 
1 2:0.0882353 
1 2:0.235294 
1 2:0.0147059 
1 2:0.0441176 
1 2:0.0882353 6:0.5 
1 2:0.0147059 
1 2:0.235294 
1 2:0.0735294 23:0.5 
1 2:0.0147059 
1 2:0.0588235 
1 2:0.0882353 
1 2:0.102941 
1 2:0.147059 6:0.5 
1 2:0.0147059 
1 2:0.132353 8:1 
1 2:0.132353 15:0.5 
1 2:0.0147059 
1 2:0.0735294 20:1 26:1 
1 2:0.0588235 
1 2:0.0147059 
1 2:0.117647 
1 2:0.147059 
1 2:0.117647 
1 2:0.0147059 
1 2:0.0147059 
1 2:0.0147059 
1 2:0.0147059 
1 2:0.0882353 
1 2:0.0588235 
1 2:0.0441176 
1 2:0.0147059 
1 2:0.0294118 
1 2:0.0441176 25:0.5 
1 2:0.102941 26:1 
1 2:0.0441176 9:1 
1 2:0.0147059 9:1 
1 2:0.0147059 11:1 
1 2:0.132353 
1 2:0.0882353 
1 2:0.0147059 
1 2:0.0441176 25:0.5 
1 2:0.205882 8:1 
1 2:0.0147059 15:0.5 
1 2:0.0588235 
1 2:0.0735294 
1 
1 2:0.0441176 
1 2:0.0147059 
1 2:0.0294118 
1 2:0.0147059 
1 2:0.161765 
1 2:0.191176 14:0.5 
1 2:0.0147059 
1 2:0.0882353 14:0.5 
1 2:0.0588235 10:1 
1 2:0.0588235 
1 2:0.0735294 23:0.5 
1 2:0.0147059 
1 2:0.0441176 25:0.5 
1 2:0.0588235 
1 8:1 23:0.5 
1 2:0.205882 25:0.5 
1 2:0.117647 17:0.5 
1 2:0.0147059 18:1 
1 2:0.0147059 
1 2:0.176471 17:0.5 
1 2:0.0294118 
1 2:0.147059 13:1 
1 2:0.0588235 
1 2:0.0588235 10:1 
1 2:0.0441176 
1 2:0.0147059 
1 2:0.0147059 
1 2:0.0147059 
1 2:0.0882353 5:1 
1 2:0.147059 
1 2:0.0588235 26:1 
1 2:0.0588235 
1 2:0.0735294 17:0.5 24:0.5 
1 2:0.0294118 10:1 
1 2:0.176471 7:1 14:0.5 
1 2:0.0147059 
1 2:0.0147059 
1 2:0.0147059 
1 2:0.0882353 
1 2:0.0588235 
1 2:0.0588235 
1 2:0.220588 12:1 
1 2:0.0735294 25:0.5 
1 2:0.161765 
1 2:0.161765 19:0.333333 
1 2:0.0441176 
1 2:0.102941 4:1 5:1 8:1 
1 2:0.0735294 5:1 
1 2:0.0147059 
1 2:0.102941 
1 2:0.0147059 
1 2:0.147059 25:0.5 
1 2:0.161765 4:1 17:0.5 
1 2:0.0147059 
1 2:0.0147059 
1 2:0.0147059 
1 2:0.0294118 10:1 
1 2:0.132353 15:0.5 
1 2:0.0294118 
1 2:0.0882353 
1 2:0.0735294 
1 2:0.0441176 
1 2:0.132353 25:0.5 
1 2:0.147059 25:0.5 
1 2:0.176471 25:0.5 
1 2:0.102941 
1 2:0.117647 
1 2:0.132353 
1 2:0.161765 
1 2:0.25 20:1 
1 2:0.0147059 
1 2:0.132353 25:0.5 
1 2:0.0588235 14:0.5 
1 2:0.147059 25:0.5 
1 2:0.220588 15:0.5 
1 2:0.161765 19:0.333333 
1 2:0.294118 19:0.333333 
1 2:0.191176 19:0.333333 26:1 
1 2:0.279412 
1 2:0.308824 
1 2:0.25 
1 2:0.279412 
0.2751570409656074 2:0.161765 4:1 16:1 22:1 
1 2:0.0147059 
1 2:0.0735294 17:0.5 
1 2:0.0588235 
1 2:0.0441176 19:0.333333 
1 2:0.161765 
1 2:0.0882353 20:1 
1 2:0.0882353 12:1 
1 2:0.0294118 
1 2:0.0441176 
1 2:0.0735294 
1 2:0.205882 17:0.5 
1 2:0.132353 4:1 6:0.5 
1 2:0.117647 4:1 6:0.5 
0.1422239198303196 2:0.0882353 6:1 26:1 
1 2:0.0588235 
1 2:0.0441176 17:0.5 
1 2:0.0147059 
1 2:0.0735294 17:0.5 
1 2:0.176471 
1 2:0.132353 
1 2:0.161765 
1 2:0.0882353 
1 2:0.235294 
1 2:0.0147059 
1 2:0.0441176 
1 2:0.0882353 6:0.5 
1 2:0.0147059 
1 2:0.235294 
1 2:0.0735294 23:0.5 
1 2:0.0147059 
1 2:0.0588235 
1 2:0.0882353 
1 2:0.102941 
1 2:0.147059 6:0.5 
1 2:0.0147059 
1 2:0.132353 8:1 
1 2:0.132353 15:0.5 
1 2:0.0147059 
1 2:0.0735294 20:1 26:1 
1 2:0.0588235 
1 2:0.0147059 
1 2:0.117647 
1 2:0.147059 
1 2:0.117647 
1 2:0.0147059 
1 2:0.0147059 
1 2:0.0147059 
1 2:0.0147059 
1 2:0.0882353 
1 2:0.0588235 
1 2:0.0441176 
1 2:0.0147059 
1 2:0.0294118 
1 2:0.0441176 25:0.5 
1 2:0.102941 26:1 
1 2:0.0441176 9:1 
1 2:0.0147059 9:1 
1 2:0.0147059 11:1 
1 2:0.132353 
1 2:0.0882353 
1 2:0.0147059 
1 2:0.0441176 25:0.5 
1 2:0.205882 8:1 
1 2:0.0147059 15:0.5 
1 2:0.0588235 
1 2:0.0735294 
1 
1 2:0.0441176 
1 2:0.0147059 
1 2:0.0294118 
1 2:0.0147059 
1 2:0.161765 
1 2:0.191176 14:0.5 
1 2:0.0147059 
1 2:0.0882353 14:0.5 
1 2:0.0588235 10:1 
1 2:0.0588235 
1 2:0.0735294 23:0.5 
1 2:0.0147059 
1 2:0.0441176 25:0.5 
1 2:0.0588235 
1 8:1 23:0.5 
1 2:0.205882 25:0.5 
1 2:0.117647 17:0.5 
1 2:0.0147059 18:1 
1 2:0.0147059 
1 2:0.176471 17:0.5 
1 2:0.0294118 
1 2:0.147059 13:1 
1 2:0.0588235 
1 2:0.0588235 10:1 
1 2:0.0441176 
1 2:0.0147059 
1 2:0.0147059 
1 2:0.0147059 
1 2:0.0882353 5:1 
1 2:0.147059 
1 2:0.0588235 26:1 
1 2:0.0588235 
1 2:0.0735294 17:0.5 24:0.5 
1 2:0.0294118 10:1 
1 2:0.176471 7:1 14:0.5 
1 2:0.0147059 
1 2:0.0147059 
1 2:0.0147059 
1 2:0.0882353 
1 2:0.0588235 
1 2:0.0588235 
1 2:0.220588 12:1 
1 2:0.0735294 25:0.5 
1 2:0.0441176 
1 2:0.0147059 
1 2:0.0294118 
1 2:0.0441176 25:0.5 
1 2:0.102941 26:1 
0.9249574693448702 2:0.0441176 9:1 
1 2:0.0147059 9:1 
1 2:0.0147059 11:1 
1 2:0.132353 
1 2:0.0882353 
1 2:0.0147059 
1 2:0.0441176 25:0.5 
1 2:0.205882 8:1 
1 2:0.0147059 15:0.5 
1 2:0.0588235 
1 2:0.0735294 
1 
1 2:0.0441176 
1 2:0.0147059 
1 2:0.0294118 
1 2:0.0147059 
1 2:0.161765 
1 2:0.191176 14:0.5 
1 2:0.0147059 
1 2:0.0882353 14:0.5 
1 2:0.0588235 10:1 
1 2:0.0588235 
1 2:0.0735294 23:0.5 
1 2:0.0147059 
1 2:0.0441176 25:0.5 
1 2:0.0588235 
1 8:1 23:0.5 
1 2:0.205882 25:0.5 
1 2:0.117647 17:0.5 
1 2:0.0147059 18:1 
1 2:0.0147059 
1 2:0.176471 17:0.5 
1 2:0.0294118 
0.6327781387039553 2:0.176471 7:1 16:1 
1 2:0.147059 13:1 
1 2:0.0588235 
1 2:0.0588235 10:1 
1 2:0.0441176 
1 2:0.0147059 
1 2:0.0147059 
1 2:0.0147059 
1 2:0.0882353 5:1 
0.1393250281642173 2:0.235294 3:1 10:1 
1 2:0.147059 
1 2:0.0588235 26:1 
1 2:0.0588235 
1 2:0.0735294 17:0.5 24:0.5 
1 2:0.0294118 10:1 
1 2:0.176471 7:1 14:0.5 
1 2:0.0147059 
1 2:0.0147059 
1 2:0.0147059 
1 2:0.0882353 
1 2:0.0588235 
1 2:0.0588235 
1 2:0.220588 12:1 
1 2:0.0735294 25:0.5 
-1 2:0.0882353 27:0.0882353 28:0.0847458 29:0.0833333 
-1 2:0.102941 27:0.102941 28:0.101695 29:0.104167 
-1 2:0.132353 27:0.132353 28:0.135593 29:0.145833 
-1 2:0.0147059 27:0.0147059 
-1 2:0.0294118 27:0.0294118 28:0.0169492 
-1 2:0.0588235 27:0.0588235 28:0.0508475 29:0.0416667 
-1 
-1 2:0.0294118 27:0.0294118 28:0.0169492 
-1 2:0.0147059 27:0.0147059 
-1 
-1 2:0.0294118 27:0.0294118 28:0.0169492 
-1 2:0.0441176 27:0.0441176 28:0.0338983 
-1 2:0.0735294 27:0.0735294 28:0.0677966 29:0.0208333 
-1 2:0.102941 27:0.102941 28:0.101695 29:0.0208333 
-1 2:0.0147059 27:0.0147059 
-1 2:0.0294118 27:0.0294118 28:0.0169492 
-1 2:0.0588235 27:0.0588235 28:0.0508475 29:0.0208333 
-1 2:0.0882353 27:0.0882353 28:0.0847458 29:0.0208333 
-1 
-1 2:0.0294118 27:0.0294118 28:0.0169492 
-1 2:0.0588235 27:0.0588235 28:0.0508475 
-1 2:0.0147059 27:0.0147059 
-1 2:0.0441176 27:0.0441176 28:0.0338983 
-1 2:0.0147059 27:0.0147059 
-1 2:0.191176 27:0.191176 28:0.169492 29:0.0833333 
-1 2:0.147059 25:0.5 27:0.147059 28:0.152542 29:0.125 
-1 2:0.220588 27:0.220588 28:0.186441 29:0.104167 
-1 2:0.161765 17:0.5 27:0.161765 28:0.135593 29:0.104167 
-1 2:0.191176 17:0.5 27:0.191176 28:0.169492 29:0.145833 
-1 2:0.0147059 27:0.0147059 
-1 2:0.0294118 27:0.0294118 28:0.0169492 
-1 2:0.0441176 27:0.0441176 28:0.0338983 29:0.0208333 
-1 2:0.0588235 27:0.0588235 28:0.0508475 29:0.0416667 
-1 2:0.0735294 27:0.0735294 28:0.0677966 29:0.0625 
-1 2:0.102941 27:0.102941 28:0.101695 29:0.104167 
-1 
-1 2:0.0147059 27:0.0147059 
-1 2:0.0294118 27:0.0294118 28:0.0169492 
-1 2:0.0588235 27:0.0588235 28:0.0508475 29:0.0416667 
-1 
-1 2:0.0147059 27:0.0147059 
-1 2:0.0441176 27:0.0441176 28:0.0338983 29:0.0208333 
-1 2:0.147059 26:1 27:0.147059 28:0.152542 29:0.0625 
-1 
-1 2:0.0294118 27:0.0294118 28:0.0169492 
-1 2:0.132353 26:1 27:0.132353 28:0.135593 29:0.0416667 
-1 2:0.0147059 27:0.0147059 
-1 2:0.117647 26:1 27:0.117647 28:0.118644 29:0.0208333 
-1 2:0.0882353 26:1 27:0.0882353 28:0.0847458 29:0.0208333 
-1 
-1 2:0.0294118 27:0.0294118 28:0.0169492 
-1 2:0.0147059 27:0.0147059 
-1 2:0.0147059 27:0.0147059 
-1 2:0.0147059 27:0.0147059 
-1 2:0.0147059 27:0.0147059 
-1 2:0.0147059 27:0.0147059 
-1 2:0.220588 5:1 8:1 27:0.220588 28:0.186441 29:0.145833 
-1 2:0.191176 5:1 8:1 27:0.191176 28:0.169492 29:0.145833 
-1 2:0.0294118 27:0.0294118 
-1 2:0.0147059 27:0.0147059 
-1 2:0.0441176 26:1 27:0.0441176 28:0.0338983 
-1 2:0.0147059 26:1 27:0.0147059 
-1 2:0.0294118 27:0.0294118 
-1 2:0.0588235 27:0.0588235 28:0.0338983 29:0.0208333 
-1 2:0.0147059 27:0.0147059 
-1 2:0.117647 27:0.117647 28:0.0508475 
-1 2:0.0294118 27:0.0294118 
-1 2:0.191176 27:0.191176 28:0.169492 29:0.145833 
-1 2:0.205882 8:1 27:0.205882 28:0.135593 29:0.0625 
-0.4687091219197757 2:0.338235 8:1 27:0.338235 28:0.271186 29:0.1875 
-1 2:0.0147059 27:0.0147059 
-1 2:0.102941 27:0.102941 28:0.101695 29:0.104167 
-1 2:0.0735294 27:0.0735294 28:0.0677966 29:0.0625 
-1 2:0.0882353 27:0.0882353 28:0.0508475 29:0.0416667 
-1 2:0.0588235 27:0.0588235 28:0.0508475 29:0.0416667 
-1 2:0.0882353 27:0.0882353 28:0.0847458 29:0.0833333 
-1 2:0.0147059 27:0.0147059 
-1 2:0.0588235 27:0.0588235 28:0.0508475 29:0.0416667 
-1 2:0.0882353 27:0.0882353 28:0.0847458 29:0.0833333 
-1 2:0.0147059 27:0.0147059 
-1 2:0.0735294 7:1 27:0.0735294 28:0.0169492 
-1 2:0.0294118 27:0.0294118 
-1 2:0.0735294 27:0.0735294 28:0.0508475 29:0.0416667 
-1 2:0.0294118 27:0.0294118 28:0.0169492 
-1 2:0.0735294 27:0.0735294 28:0.0508475 29:0.0208333 
-1 2:0.0882353 27:0.0882353 28:0.0677966 29:0.0208333 
-1 2:0.117647 27:0.117647 28:0.101695 29:0.0625 
-1 2:0.176471 27:0.176471 28:0.169492 29:0.104167 
-1 2:0.382353 25:1 27:0.382353 28:0.355932 29:0.1875 
-1 
-1 2:0.0294118 27:0.0294118 28:0.0169492 
-1 2:0.294118 25:1 27:0.294118 28:0.271186 29:0.125 
-1 2:0.0147059 27:0.0147059 
-1 2:0.279412 25:1 27:0.279412 28:0.254237 29:0.104167 
-1 2:0.308824 25:1 27:0.308824 28:0.288136 29:0.145833 
-1 2:0.25 25:1 27:0.25 28:0.220339 29:0.104167 
-1 2:0.279412 25:1 27:0.279412 28:0.254237 29:0.145833 
-1 2:0.220588 25:1 27:0.220588 28:0.186441 29:0.104167 
-1 2:0.294118 25:1 27:0.294118 28:0.254237 29:0.1875 
-1 2:0.0147059 27:0.0147059 
-1 2:0.0441176 27:0.0441176 28:0.0338983 29:0.0208333 
-1 2:0.0882353 27:0.0882353 28:0.0677966 29:0.0625 
-1 2:0.0147059 27:0.0147059 
-1 2:0.0588235 27:0.0588235 28:0.0338983 29:0.0208333 
-1 2:0.0294118 25:1 27:0.0294118 
-1 
-1 2:0.0294118 27:0.0294118 28:0.0169492 
-1 2:0.117647 4:1 27:0.117647 28:0.0847458 29:0.0416667 
-1 2:0.0147059 27:0.0147059 
-1 2:0.102941 4:1 27:0.102941 28:0.0677966 29:0.0208333 
-1 2:0.0735294 4:1 27:0.0735294 28:0.0338983 29:0.0208333 
-1 2:0.132353 4:1 27:0.132353 28:0.0677966 29:0.0416667 
-1 2:0.0441176 27:0.0441176 
-1 2:0.0294118 7:1 27:0.0294118 28:0.0169492 
-1 2:0.0882353 7:1 27:0.0882353 28:0.0338983 
-1 
-1 2:0.0147059 27:0.0147059 
-1 2:0.0294118 27:0.0294118 28:0.0169492 
-1 2:0.0441176 27:0.0441176 28:0.0338983 29:0.0208333 
-1 2:0.0588235 27:0.0588235 28:0.0508475 29:0.0416667 
-1 2:0.0735294 27:0.0735294 28:0.0677966 29:0.0625 
-1 2:0.102941 27:0.102941 28:0.101695 29:0.104167 
-1 
-1 2:0.0147059 27:0.0147059 
-1 2:0.0294118 27:0.0294118 28:0.0169492 
-1 2:0.0441176 27:0.0441176 28:0.0338983 29:0.0208333 
-1 2:0.0588235 27:0.0588235 28:0.0508475 29:0.0416667 
-1 2:0.0882353 27:0.0882353 28:0.0847458 29:0.0833333 
-1 
-1 2:0.0147059 27:0.0147059 
-1 2:0.0294118 27:0.0294118 28:0.0169492 
-1 2:0.0441176 27:0.0441176 28:0.0338983 29:0.0208333 
-1 2:0.0735294 27:0.0735294 28:0.0677966 29:0.0625 
-1 
-1 2:0.0147059 27:0.0147059 
-1 2:0.0294118 27:0.0294118 28:0.0169492 
-1 2:0.0588235 27:0.0588235 28:0.0508475 29:0.0416667 
-1 
-1 2:0.0147059 27:0.0147059 
-1 2:0.0441176 27:0.0441176 28:0.0338983 29:0.0208333 
-1 
-1 2:0.0294118 27:0.0294118 28:0.0169492 
-1 2:0.0147059 27:0.0147059 
-1 
-1 2:0.0147059 27:0.0147059 
-1 2:0.0441176 27:0.0441176 28:0.0338983 29:0.0208333 
-1 2:0.132353 20:1 27:0.132353 28:0.118644 29:0.0833333 
-1 
-1 2:0.0294118 27:0.0294118 28:0.0169492 
-1 2:0.117647 20:1 27:0.117647 28:0.101695 29:0.0625 
-1 2:0.0147059 27:0.0147059 
-1 2:0.102941 20:1 27:0.102941 28:0.0847458 29:0.0416667 
-1 2:0.0735294 20:1 27:0.0735294 28:0.0508475 29:0.0416667 
-1 2:0.102941 27:0.102941 28:0.101695 29:0.104167 
-1 2:0.102941 27:0.102941 28:0.101695 29:0.104167 
-1 2:0.279412 12:1 27:0.279412 28:0.220339 29:0.145833 
-1 2:0.0441176 27:0.0441176 28:0.0338983 29:0.0208333 
-1 2:0.176471 20:1 27:0.176471 28:0.169492 29:0.125 
-1 2:0.279412 20:1 27:0.279412 28:0.271186 29:0.229167 
-1 2:0.117647 20:1 27:0.117647 28:0.101695 29:0.0625 
-1 2:0.220588 20:1 27:0.220588 28:0.20339 29:0.166667 
-1 2:0.0882353 27:0.0882353 28:0.0677966 29:0.0625 
-1 2:0.0588235 27:0.0588235 28:0.0508475 29:0.0416667 
-1 2:0.102941 27:0.102941 28:0.101695 29:0.0833333 
-1 2:0.0588235 27:0.0588235 28:0.0338983 
-1 2:0.176471 25:0.5 27:0.176471 28:0.186441 29:0.1875 
-1 2:0.0882353 27:0.0882353 28:0.0677966 29:0.0625 
-1 2:0.147059 27:0.147059 28:0.152542 29:0.104167 
-1 2:0.0294118 27:0.0294118 28:0.0169492 
-1 
-1 2:0.25 25:0.5 27:0.25 28:0.186441 29:0.145833 
-1 2:0.102941 27:0.102941 28:0.0338983 29:0.0208333 
-1 12:1 
-1 2:0.147059 17:0.5 27:0.147059 28:0.101695 29:0.0625 
-1 2:0.0147059 27:0.0147059 
-1 2:0.0294118 27:0.0294118 28:0.0169492 
-1 2:0.0735294 27:0.0735294 28:0.0338983 29:0.0208333 
-1 2:0.0294118 27:0.0294118 
-1 2:0.0441176 27:0.0441176 28:0.0169492 
-1 2:0.0735294 27:0.0735294 28:0.0508475 29:0.0416667 
-1 
-1 2:0.0294118 27:0.0294118 28:0.0169492 
-1 2:0.0147059 27:0.0147059 
-1 2:0.132353 9:1 15:0.5 27:0.132353 28:0.135593 29:0.104167 
-1 2:0.161765 9:1 15:0.5 27:0.161765 28:0.169492 29:0.125 
-1 2:0.0147059 27:0.0147059 
-1 2:0.147059 15:0.5 27:0.147059 28:0.152542 29:0.145833 
-1 2:0.176471 15:0.5 27:0.176471 28:0.186441 29:0.166667 
-1 2:0.0147059 27:0.0147059 
-1 2:0.0147059 27:0.0147059 
-1 2:0.0735294 27:0.0735294 28:0.0508475 29:0.0416667 
-1 2:0.0147059 27:0.0147059 
-1 2:0.132353 17:0.5 27:0.132353 28:0.118644 29:0.104167 
-1 2:0.176471 4:1 17:0.5 27:0.176471 28:0.152542 29:0.145833 
-1 2:0.0294118 4:1 27:0.0294118 
-1 2:0.117647 27:0.117647 28:0.101695 29:0.0416667 
-1 2:0.0147059 27:0.0147059 
-1 2:0.0147059 27:0.0147059 
-1 
-1 2:0.0294118 27:0.0294118 28:0.0169492 
-1 2:0.0147059 27:0.0147059 
-1 2:0.176471 26:1 27:0.176471 28:0.101695 29:0.0208333 
-1 2:0.117647 27:0.117647 28:0.0677966 29:0.0416667 
-1 2:0.0147059 27:0.0147059 
-1 2:0.161765 19:0.333333 26:1 27:0.161765 28:0.152542 29:0.0625 
-1 2:0.0147059 27:0.0147059 
-1 2:0.0147059 27:0.0147059 
-1 2:0.0294118 27:0.0294118 28:0.0169492 
-1 2:0.0882353 27:0.0882353 28:0.0847458 29:0.0833333 
-1 2:0.0441176 27:0.0441176 28:0.0338983 29:0.0208333 
-1 2:0.0147059 27:0.0147059 
-1 2:0.161765 27:0.161765 28:0.169492 29:0.125 
-1 2:0.132353 27:0.132353 28:0.135593 29:0.125 
-1 2:0.102941 27:0.102941 28:0.0677966 29:0.0416667 
-1 2:0.132353 27:0.132353 28:0.101695 29:0.0833333 
-1 2:0.0147059 27:0.0147059 
-1 2:0.0441176 27:0.0441176 28:0.0338983 29:0.0208333 
-1 2:0.0294118 27:0.0294118 28:0.0169492 
-1 2:0.117647 27:0.117647 28:0.118644 29:0.104167 
-1 2:0.0147059 27:0.0147059 
-1 2:0.0735294 27:0.0735294 28:0.0338983 
-1 2:0.102941 27:0.102941 28:0.0677966 
-1 2:0.0441176 27:0.0441176 
-1 2:0.0735294 27:0.0735294 28:0.0338983 
-1 2:0.0147059 27:0.0147059 
-1 2:0.0147059 27:0.0147059 
-1 2:0.0882353 9:1 27:0.0882353 28:0.0508475 29:0.0416667 
-1 2:0.102941 9:1 27:0.102941 28:0.0677966 29:0.0625 
-1 2:0.132353 9:1 27:0.132353 28:0.101695 29:0.104167 
-1 
-1 2:0.0294118 27:0.0294118 28:0.0169492 
-1 2:0.0147059 27:0.0147059 
-1 2:0.0147059 27:0.0147059 
-1 2:0.0735294 27:0.0735294 28:0.0338983 
-1 2:0.0441176 27:0.0441176 
-1 2:0.0147059 27:0.0147059 
-1 2:0.0147059 27:0.0147059 
-1 2:0.0441176 4:1 27:0.0441176 
-1 2:0.0735294 4:1 27:0.0735294 28:0.0338983 29:0.0208333 
-1 2:0.0147059 27:0.0147059 
-1 
-1 2:0.102941 27:0.102941 28:0.0677966 29:0.0416667 
-1 2:0.0735294 27:0.0735294 28:0.0677966 29:0.0625 
-1 
-1 2:0.117647 27:0.117647 28:0.0677966 29:0.0625 
-1 
-1 2:0.0882353 26:1 27:0.0882353 28:0.0677966 29:0.0416667 
-1 2:0.102941 26:1 27:0.102941 28:0.0847458 29:0.0416667 
-1 2:0.0735294 26:1 27:0.0735294 28:0.0508475 29:0.0416667 
-1 2:0.0882353 26:1 27:0.0882353 28:0.0677966 29:0.0416667 
-1 
-1 2:0.0147059 27:0.0147059 
-1 2:0.0882353 25:0.5 27:0.0882353 28:0.0508475 29:0.0208333 
-1 1:1 2:0.191176 10:1 25:1 27:0.191176 28:0.152542 29:0.0625 
-1 2:0.264706 10:1 25:1 27:0.264706 28:0.220339 29:0.125 
-1 2:0.0882353 10:1 25:0.5 27:0.0882353 28:0.0677966 29:0.0208333 
-1 1:1 2:0.161765 10:1 25:0.5 27:0.161765 28:0.135593 29:0.0833333 
-1 2:0.0588235 25:0.5 27:0.0588235 28:0.0338983 
-1 2:0.0294118 4:1 6:0.5 27:0.0294118 
-1 2:0.0882353 6:0.5 27:0.0882353 28:0.0847458 29:0.0208333 
-1 2:0.0294118 4:1 6:0.5 27:0.0294118 
-1 2:0.0588235 4:1 6:0.5 27:0.0588235 28:0.0169492 
-1 2:0.0147059 6:0.5 27:0.0147059 
-1 2:0.0735294 6:0.5 27:0.0735294 28:0.0677966 29:0.0208333 
-1 2:0.0441176 6:0.5 26:1 27:0.0441176 28:0.0338983 29:0.0208333 
-1 2:0.191176 6:0.5 26:1 27:0.191176 28:0.135593 29:0.0416667 
-1 2:0.102941 4:1 27:0.102941 28:0.0847458 29:0.0416667 
-0.6748845467986507 2:0.117647 4:1 27:0.117647 28:0.101695 29:0.0625 
-1 
-1 2:0.0294118 27:0.0294118 28:0.0169492 
-1 2:0.0147059 27:0.0147059 
-1 2:0.0147059 27:0.0147059 
-1 2:0.0735294 17:0.5 27:0.0735294 28:0.0677966 29:0.0208333 
-1 1:1 2:0.235294 17:1 27:0.235294 28:0.186441 29:0.104167 
-1 2:0.308824 17:1 27:0.308824 28:0.271186 29:0.208333 
-1 2:0.147059 17:0.5 27:0.147059 28:0.101695 29:0.0625 
-1 2:0.0588235 27:0.0588235 28:0.0508475 29:0.0416667 
-1 2:0.0735294 27:0.0735294 28:0.0508475 29:0.0208333 
-1 1:1 2:0.220588 5:1 8:1 27:0.220588 28:0.169492 29:0.0833333 
-1 2:0.397059 5:1 8:1 25:0.5 27:0.397059 28:0.305085 29:0.104167 
-1 2:0.132353 5:1 8:1 27:0.132353 28:0.101695 29:0.0416667 
-1 1:1 2:0.308824 5:1 8:1 25:0.5 27:0.308824 28:0.237288 29:0.0625 
-1 2:0.161765 25:0.5 27:0.161765 28:0.101695 
-1 2:0.132353 5:1 25:0.5 27:0.132353 28:0.101695 29:0.0833333 
-1 2:0.117647 23:0.5 27:0.117647 28:0.118644 29:0.104167 
-1 2:0.264706 23:1 27:0.264706 28:0.237288 29:0.208333 
-1 2:0.0294118 27:0.0294118 
-1 2:0.0735294 27:0.0735294 28:0.0677966 29:0.0208333 
-1 2:0.0441176 27:0.0441176 28:0.0338983 29:0.0208333 
-1 2:0.0147059 27:0.0147059 
-1 2:0.161765 3:1 12:1 27:0.161765 28:0.135593 29:0.125 
-1 2:0.0147059 27:0.0147059 
-1 2:0.0147059 27:0.0147059 
-1 2:0.147059 23:0.5 27:0.147059 28:0.135593 29:0.0625 
-1 
-1 2:0.132353 25:0.5 27:0.132353 28:0.135593 29:0.145833 
-1 2:0.0294118 27:0.0294118 28:0.0169492 
-1 2:0.0882353 27:0.0882353 28:0.0847458 29:0.0833333 
-1 2:0.0441176 27:0.0441176 28:0.0338983 29:0.0208333 
-1 2:0.0882353 27:0.0882353 28:0.0338983 29:0.0208333 
-1 
-1 
-1 1:1 2:0.147059 5:1 23:0.5 25:0.5 27:0.147059 28:0.135593 29:0.104167 
-1 2:0.0441176 27:0.0441176 28:0.0338983 29:0.0208333 
-1 2:0.0147059 27:0.0147059 
-1 2:0.0294118 27:0.0294118 
-1 2:0.102941 27:0.102941 28:0.0508475 
-1 2:0.132353 27:0.132353 28:0.0847458 29:0.0416667 
-1 2:0.0588235 27:0.0588235 28:0.0169492 
-1 2:0.0882353 27:0.0882353 28:0.0508475 29:0.0416667 
-1 2:0.0147059 27:0.0147059 
-1 2:0.0147059 27:0.0147059 
-1 2:0.0735294 27:0.0735294 28:0.0508475 29:0.0208333 
-1 1:1 2:0.0735294 11:1 25:0.5 27:0.0735294 28:0.0677966 29:0.0208333 
-1 2:0.147059 10:1 27:0.147059 28:0.135593 29:0.104167 
-1 2:0.0735294 27:0.0735294 28:0.0508475 
-1 2:0.102941 3:1 27:0.102941 28:0.101695 29:0.0625 
-1 2:0.0147059 27:0.0147059 
-1 2:0.0147059 27:0.0147059 
-0.02025015703564555 2:0.235294 15:0.5 27:0.235294 28:0.220339 29:0.25 
-1 2:0.132353 10:1 14:0.5 27:0.132353 28:0.101695 29:0.0208333 
-1 1:1 2:0.117647 10:1 27:0.117647 28:0.0847458 29:0.0208333 
-1 4:1 
-1 2:0.147059 4:1 27:0.147059 28:0.118644 
-1 1:1 2:0.132353 10:1 27:0.132353 28:0.101695 
-1 25:0.5 
-1 2:0.0147059 27:0.0147059 
-1 2:0.0147059 27:0.0147059 
-1 2:0.0882353 6:0.5 27:0.0882353 28:0.0677966 29:0.0416667 
-1 2:0.0294118 17:0.5 27:0.0294118 28:0.0169492 
-1 2:0.0735294 27:0.0735294 28:0.0677966 29:0.0416667 
-1 2:0.117647 27:0.117647 28:0.118644 29:0.0625 
-1 2:0.0294118 27:0.0294118 28:0.0169492 
-1 2:0.0294118 27:0.0294118 28:0.0169492 
-1 2:0.0441176 27:0.0441176 28:0.0338983 29:0.0208333 
-1 2:0.0588235 27:0.0588235 28:0.0508475 29:0.0416667 
-1 2:0.0735294 27:0.0735294 28:0.0677966 29:0.0625 
-1 2:0.0882353 27:0.0882353 28:0.0847458 29:0.0833333 
-1 
-1 2:0.0147059 27:0.0147059 
-1 2:0.0294118 27:0.0294118 28:0.0169492 
-1 2:0.0441176 27:0.0441176 28:0.0338983 29:0.0208333 
-1 
-1 2:0.0147059 27:0.0147059 
-1 2:0.0294118 27:0.0294118 28:0.0169492 
-1 
-1 2:0.0147059 27:0.0147059 
-1 
-1 2:0.0588235 27:0.0588235 28:0.0169492 
-1 
-1 2:0.0294118 27:0.0294118 28:0.0169492 
-1 2:0.0588235 27:0.0588235 28:0.0508475 
-1 2:0.0147059 27:0.0147059 
-1 2:0.0441176 27:0.0441176 28:0.0338983 
-1 2:0.0147059 27:0.0147059 
-1 2:0.0147059 27:0.0147059 
-1 
-1 2:0.0735294 27:0.0735294 28:0.0677966 29:0.0416667 
-1 2:0.0588235 27:0.0588235 28:0.0508475 29:0.0416667 
-1 2:0.0294118 27:0.0294118 
-1 2:0.0441176 27:0.0441176 28:0.0169492 
-1 2:0.0588235 27:0.0588235 28:0.0338983 29:0.0208333 
-1 
-1 2:0.0147059 27:0.0147059 
-1 
-1 2:0.0735294 27:0.0735294 28:0.0677966 29:0.0416667 
-1 
-1 2:0.0147059 27:0.0147059 
-1 2:0.0441176 27:0.0441176 28:0.0338983 29:0.0208333 
-1 2:0.0588235 27:0.0588235 28:0.0508475 29:0.0416667 
-1 
-1 2:0.0294118 27:0.0294118 28:0.0169492 
-1 2:0.0441176 27:0.0441176 28:0.0338983 29:0.0208333 
-1 2:0.0147059 27:0.0147059 
-1 2:0.0294118 27:0.0294118 28:0.0169492 
-1 
-1 2:0.191176 4:1 20:1 26:1 27:0.191176 28:0.152542 29:0.104167 
-1 2:0.102941 4:1 27:0.102941 28:0.0508475 29:0.0208333 
-1 2:0.117647 4:1 27:0.117647 28:0.0677966 29:0.0208333 
-1 
-1 2:0.176471 25:0.5 26:1 27:0.176471 28:0.186441 29:0.125 
-1 2:0.102941 26:1 27:0.102941 28:0.0847458 29:0.0208333 
-1 2:0.147059 26:1 27:0.147059 28:0.118644 29:0.0625 
-1 2:0.0294118 27:0.0294118 
-1 2:0.0294118 27:0.0294118 28:0.0169492 
-1 2:0.0735294 27:0.0735294 28:0.0677966 29:0.0625 
-1 2:0.102941 27:0.102941 28:0.101695 29:0.104167 
-1 2:0.0147059 27:0.0147059 
-1 2:0.117647 27:0.117647 28:0.118644 29:0.0833333 
-1 2:0.264706 11:1 27:0.264706 28:0.288136 29:0.25 
-1 2:0.0882353 27:0.0882353 28:0.0847458 29:0.0416667 
-1 2:0.205882 11:1 27:0.205882 28:0.220339 29:0.208333 
-1 2:0.0147059 27:0.0147059 
-1 2:0.0147059 27:0.0147059 
-1 2:0.0588235 27:0.0588235 28:0.0338983 29:0.0208333 
-1 2:0.0147059 27:0.0147059 
-1 2:0.0441176 27:0.0441176 28:0.0338983 29:0.0208333 
-1 2:0.0147059 27:0.0147059 
-1 1:1 2:0.117647 17:0.5 27:0.117647 28:0.0169492 
-1 2:0.0882353 27:0.0882353 28:0.0677966 29:0.0208333 
-1 2:0.147059 7:1 24:0.5 27:0.147059 28:0.135593 29:0.0625 
-1 2:0.0441176 7:1 24:0.5 27:0.0441176 28:0.0338983 29:0.0208333 
-1 2:0.102941 7:1 24:0.5 27:0.102941 28:0.101695 29:0.0625 
-1 2:0.147059 7:1 24:0.5 27:0.147059 28:0.135593 29:0.104167 
-1 2:0.0441176 27:0.0441176 28:0.0338983 29:0.0208333 
-1 2:0.0882353 27:0.0882353 28:0.0677966 29:0.0625 
-1 2:0.0294118 27:0.0294118 
-1 2:0.0588235 17:0.5 27:0.0588235 28:0.0169492 
-1 2:0.0882353 4:1 17:0.5 27:0.0882353 28:0.0508475 29:0.0208333 
-1 2:0.0147059 27:0.0147059 
-1 2:0.102941 27:0.102941 28:0.0677966 29:0.0416667 
-1 2:0.0147059 27:0.0147059 
-1 2:0.147059 4:1 8:1 14:0.5 27:0.161765 28:0.135593 29:0.0625 
-1 2:0.176471 4:1 8:1 14:0.5 27:0.191176 28:0.169492 29:0.104167 
-1 2:0.0147059 27:0.0147059 
-1 2:0.0147059 27:0.0147059 
-1 2:0.0441176 22:1 26:1 27:0.0441176 28:0.0338983 29:0.0208333 
-1 2:0.0735294 22:1 26:1 27:0.0735294 28:0.0677966 29:0.0625 
-1 2:0.0147059 22:1 26:1 27:0.0147059 
-1 2:0.0441176 22:1 26:1 27:0.0441176 28:0.0338983 29:0.0208333 
-1 2:0.0147059 27:0.0147059 
-1 2:0.0441176 4:1 27:0.0441176 
-1 2:0.0735294 27:0.0735294 28:0.0677966 29:0.0416667 
-1 2:0.205882 25:0.5 27:0.205882 28:0.169492 29:0.104167 
-1 2:0.0882353 27:0.0882353 28:0.0677966 29:0.0625 
-1 2:0.0882353 27:0.0882353 28:0.0677966 29:0.0625 
-1 2:0.0735294 27:0.0735294 28:0.0338983 29:0.0208333 
-1 2:0.0588235 7:1 27:0.0588235 28:0.0508475 29:0.0416667 
-1 2:0.0882353 7:1 27:0.0882353 28:0.0847458 29:0.0833333 
-1 2:0.0147059 27:0.0147059 
-1 2:0.0147059 27:0.0147059 
-1 2:0.0147059 27:0.0147059 
-1 2:0.0882353 7:1 27:0.0882353 28:0.0677966 
-1 
-1 2:0.0147059 27:0.0147059 
-1 2:0.0294118 27:0.0294118 28:0.0169492 
-1 2:0.0588235 27:0.0588235 28:0.0508475 29:0.0416667 
-1 
-1 2:0.0147059 27:0.0147059 
-1 2:0.0441176 27:0.0441176 28:0.0338983 29:0.0208333 
-1 
-1 2:0.0294118 27:0.0294118 28:0.0169492 
-1 2:0.0147059 27:0.0147059 
-1 
-1 2:0.147059 25:0.5 27:0.147059 28:0.118644 29:0.0833333 
-1 2:0.191176 25:0.5 27:0.191176 28:0.169492 29:0.145833 
-1 2:0.132353 25:0.5 27:0.132353 28:0.101695 29:0.0625 
-1 2:0.176471 25:0.5 27:0.176471 28:0.152542 29:0.125 
-1 2:0.0294118 27:0.0294118 28:0.0169492 
-1 2:0.0882353 27:0.0882353 28:0.0508475 29:0.0416667 
-1 2:0.0588235 27:0.0588235 28:0.0169492 
-1 2:0.0735294 27:0.0735294 28:0.0338983 29:0.0208333 
-1 2:0.0882353 27:0.0882353 28:0.0508475 29:0.0416667 
-1 2:0.102941 27:0.102941 28:0.0677966 29:0.0625 
-1 2:0.132353 27:0.132353 28:0.101695 29:0.104167 
-1 
-1 2:0.0147059 27:0.0147059 
-1 2:0.0294118 27:0.0294118 28:0.0169492 
-1 2:0.0588235 27:0.0588235 28:0.0508475 29:0.0416667 
-1 
-1 2:0.0147059 27:0.0147059 
-1 2:0.0441176 27:0.0441176 28:0.0338983 29:0.0208333 
-1 
-1 2:0.0294118 27:0.0294118 28:0.0169492 
-1 2:0.0147059 27:0.0147059 
-1 2:0.0882353 27:0.0882353 28:0.0677966 29:0.0208333 
-1 2:0.117647 27:0.117647 28:0.101695 29:0.0625 
-1 2:0.0147059 27:0.0147059 
-1 2:0.102941 25:0.5 27:0.102941 28:0.0677966 29:0.0208333 
-1 2:0.132353 25:0.5 27:0.132353 28:0.101695 29:0.0625 
-1 2:0.0147059 27:0.0147059 
-1 2:0.161765 24:0.5 25:0.5 27:0.161765 28:0.152542 29:0.0208333 
-1 2:0.0147059 27:0.0147059 
-1 2:0.0294118 27:0.0294118 28:0.0169492 
-1 2:0.0588235 8:1 27:0.0588235 28:0.0338983 29:0.0208333 
-1 2:0.0441176 7:1 27:0.0441176 28:0.0169492 
-1 2:0.0147059 24:0.5 27:0.0147059 
-1 2:0.0147059 27:0.0147059 
-1 2:0.0588235 27:0.0588235 28:0.0508475 
-1 2:0.0294118 27:0.0294118 28:0.0169492 
-1 2:0.0588235 27:0.0588235 28:0.0508475 29:0.0416667 
-1 2:0.117647 27:0.117647 28:0.118644 29:0.125 
-1 2:0.0588235 26:1 27:0.0588235 28:0.0508475 29:0.0416667 
-1 2:0.0882353 14:0.5 27:0.0882353 28:0.0847458 29:0.0833333 
-1 2:0.147059 14:0.5 27:0.147059 28:0.135593 29:0.0833333 
-1 2:0.176471 17:0.5 27:0.161765 28:0.152542 29:0.104167 
-1 2:0.0294118 27:0.0294118 28:0.0169492 
-1 
-1 2:0.0588235 4:1 27:0.0588235 28:0.0169492 
-1 2:0.0735294 4:1 27:0.0735294 28:0.0338983 29:0.0208333 
-1 
-1 2:0.0147059 27:0.0147059 
-1 2:0.0441176 27:0.0441176 28:0.0338983 29:0.0208333 
-1 2:0.0588235 27:0.0588235 28:0.0508475 29:0.0416667 
-1 2:0.0147059 27:0.0147059 
-1 2:0.0294118 27:0.0294118 28:0.0169492 
-1 
-1 
-1 2:0.0147059 27:0.0147059 
-1 2:0.132353 15:0.5 27:0.132353 28:0.118644 29:0.104167 
-1 2:0.102941 15:0.5 27:0.102941 28:0.0847458 29:0.0625 
-1 
-1 2:0.0294118 27:0.0294118 28:0.0169492 
-1 2:0.0147059 27:0.0147059 
-1 2:0.132353 27:0.132353 28:0.118644 29:0.0416667 
-1 2:0.0294118 27:0.0294118 28:0.0169492 
-1 2:0.0147059 27:0.0147059 
-1 2:0.0294118 27:0.0294118 28:0.0169492 
-1 2:0.161765 10:1 27:0.161765 28:0.169492 29:0.145833 
-1 2:0.191176 10:1 27:0.191176 28:0.20339 29:0.1875 
-1 2:0.294118 10:1 27:0.294118 28:0.305085 29:0.270833 
-1 2:0.323529 10:1 27:0.323529 28:0.338983 29:0.3125 
-1 2:0.117647 10:1 27:0.117647 28:0.118644 29:0.0833333 
-1 2:0.147059 10:1 27:0.147059 28:0.152542 29:0.125 
-1 2:0.25 10:1 27:0.25 28:0.254237 29:0.208333 
-1 2:0.279412 10:1 27:0.279412 28:0.288136 29:0.25 
-1 2:0.0147059 27:0.0147059 
-1 2:0.117647 27:0.117647 28:0.101695 29:0.0625 
-1 2:0.147059 27:0.147059 28:0.135593 29:0.104167 
-1 2:0.0882353 27:0.0882353 28:0.0677966 29:0.0625 
-1 2:0.117647 27:0.117647 28:0.101695 29:0.104167 
-1 2:0.0147059 27:0.0147059 
-1 
-1 2:0.0147059 27:0.0147059 
-1 2:0.0441176 27:0.0441176 28:0.0338983 
-1 2:0.0147059 27:0.0147059 
-1 2:0.0147059 27:0.0147059 
-1 2:0.161765 27:0.161765 28:0.152542 29:0.145833 
-1 2:0.0147059 27:0.0147059 
-1 2:0.0294118 27:0.0294118 
-1 2:0.0147059 27:0.0147059 
-1 2:0.0294118 27:0.0294118 
-1 2:0.0294118 4:1 27:0.0294118 
-1 2:0.0147059 27:0.0147059 
-1 2:0.264706 12:1 13:1 27:0.264706 28:0.237288 29:0.145833 
-1 2:0.147059 13:1 27:0.147059 28:0.118644 29:0.0833333 
-1 2:0.0735294 12:1 27:0.0735294 28:0.0508475 29:0.0208333 
-1 2:0.0147059 27:0.0147059 
-1 2:0.117647 7:1 27:0.117647 28:0.0847458 29:0.0208333 
-1 2:0.102941 7:1 27:0.102941 28:0.0677966 29:0.0208333 
-1 
-1 2:0.220588 12:1 13:1 27:0.220588 28:0.152542 29:0.104167 
-1 2:0.0147059 27:0.0147059 
-1 
-1 
-1 2:0.147059 25:0.5 27:0.147059 28:0.152542 29:0.145833 
-1 2:0.132353 25:0.5 27:0.132353 28:0.135593 29:0.145833 
-1 2:0.102941 27:0.102941 28:0.0847458 29:0.0416667 
-1 2:0.117647 4:1 27:0.117647 28:0.0847458 
-1 2:0.161765 15:0.5 27:0.161765 28:0.169492 29:0.125 
-1 2:0.220588 15:0.5 27:0.220588 28:0.237288 29:0.208333 
-1 2:0.0441176 27:0.0441176 28:0.0338983 29:0.0208333 
-1 2:0.0735294 25:0.5 27:0.0735294 28:0.0338983 
-1 2:0.117647 27:0.117647 28:0.0847458 29:0.0416667 
-1 
-1 2:0.0147059 27:0.0147059 
-1 2:0.0735294 4:1 27:0.0735294 28:0.0677966 29:0.0208333 
-1 
-1 2:0.0441176 4:1 27:0.0441176 28:0.0338983 
-1 2:0.25 17:0.5 20:1 27:0.25 28:0.152542 29:0.0625 
-1 2:0.102941 20:1 27:0.102941 28:0.0847458 29:0.0625 
-1 1:1 2:0.220588 17:0.5 20:1 27:0.220588 28:0.118644 29:0.0625 
-1 2:0.25 17:0.5 20:1 27:0.25 28:0.152542 29:0.0833333 
-1 2:0.102941 17:0.5 27:0.102941 28:0.0169492 
-1 1:1 2:0.132353 17:0.5 27:0.132353 28:0.0508475 29:0.0208333 
-1 2:0.0147059 27:0.0147059 
-1 2:0.117647 5:1 27:0.117647 28:0.101695 29:0.0416667 
-1 2:0.0441176 5:1 27:0.0441176 28:0.0338983 
-1 
-1 2:0.0294118 27:0.0294118 28:0.0169492 
-1 2:0.0147059 27:0.0147059 
-1 2:0.147059 15:0.5 27:0.147059 28:0.152542 29:0.104167 
-1 2:0.117647 15:0.5 27:0.117647 28:0.118644 29:0.104167 
-1 2:0.0147059 27:0.0147059 
-1 2:0.0294118 27:0.0294118 28:0.0169492 
-1 2:0.0588235 27:0.0588235 28:0.0508475 
-1 2:0.0294118 27:0.0294118 28:0.0169492 
-1 2:0.205882 15:0.5 27:0.205882 28:0.220339 29:0.229167 
-1 2:0.0147059 27:0.0147059 
-1 2:0.191176 15:0.5 27:0.191176 28:0.20339 29:0.229167 
-1 2:0.205882 15:0.5 27:0.205882 28:0.220339 29:0.25 
-1 2:0.161765 15:0.5 27:0.161765 28:0.169492 29:0.1875 
-1 2:0.176471 15:0.5 27:0.176471 28:0.186441 29:0.208333 
-1 
-1 2:0.117647 27:0.117647 28:0.101695 29:0.0833333 
-1 2:0.191176 27:0.191176 28:0.186441 29:0.0833333 
-1 2:0.235294 3:1 5:1 27:0.235294 28:0.20339 29:0.145833 
-1 2:0.0588235 27:0.0588235 28:0.0508475 29:0.0416667 
-1 2:0.132353 27:0.132353 28:0.0677966 29:0.0416667 
-1 2:0.0147059 27:0.0147059 
-1 2:0.0147059 27:0.0147059 
-1 2:0.0588235 27:0.0588235 28:0.0508475 29:0.0416667 
-1 2:0.0147059 27:0.0147059 
-1 2:0.147059 24:0.5 27:0.147059 28:0.101695 29:0.0416667 
-1 2:0.161765 24:0.5 27:0.161765 28:0.101695 29:0.0416667 
-1 2:0.205882 24:0.5 27:0.205882 28:0.152542 29:0.0833333 
-1 
-1 2:0.0441176 27:0.0441176 28:0.0338983 29:0.0208333 
-1 2:0.102941 27:0.102941 28:0.101695 29:0.104167 
-1 2:0.0294118 27:0.0294118 28:0.0169492 
-1 2:0.0882353 27:0.0882353 28:0.0847458 29:0.0833333 
-1 2:0.0441176 27:0.0441176 28:0.0338983 29:0.0208333 
-1 2:0.0588235 3:1 27:0.0588235 28:0.0508475 29:0.0416667 
-1 2:0.0735294 27:0.0735294 28:0.0677966 29:0.0416667 
-1 2:0.161765 27:0.161765 28:0.169492 29:0.104167 
-1 2:0.0735294 27:0.0735294 28:0.0677966 29:0.0625 
-1 2:0.0882353 27:0.0882353 28:0.0847458 29:0.0833333 
-1 2:0.102941 27:0.102941 28:0.101695 29:0.0833333 
-1 
-1 2:0.0147059 27:0.0147059 
-1 
-1 2:0.205882 8:1 15:0.5 27:0.205882 28:0.186441 29:0.166667 
-1 2:0.0882353 27:0.0882353 28:0.0338983 29:0.0208333 
-1 
-1 2:0.102941 27:0.102941 28:0.0508475 29:0.0208333 
-1 2:0.0882353 27:0.0882353 28:0.0338983 29:0.0208333 
-1 2:0.0147059 27:0.0147059 
-1 2:0.0147059 27:0.0147059 
-1 
-1 2:0.0294118 27:0.0294118 28:0.0169492 
-1 2:0.0441176 26:1 27:0.0441176 28:0.0338983 29:0.0208333 
-1 2:0.0147059 27:0.0147059 
-1 2:0.0294118 26:1 27:0.0294118 28:0.0169492 
-1 26:1 
-1 2:0.0588235 3:1 27:0.0588235 28:0.0508475 29:0.0416667 
-1 2:0.147059 17:0.5 27:0.147059 28:0.0847458 29:0.0208333 
-1 2:0.0588235 27:0.0588235 28:0.0508475 29:0.0416667 
-1 2:0.102941 27:0.102941 28:0.101695 29:0.104167 
-1 2:0.176471 27:0.176471 28:0.169492 29:0.125 
-1 
-1 2:0.0294118 27:0.0294118 28:0.0169492 
-1 
-1 2:0.0441176 27:0.0441176 28:0.0338983 29:0.0208333 
-1 2:0.0588235 27:0.0588235 28:0.0508475 29:0.0416667 
-1 
-1 2:0.0147059 27:0.0147059 
-1 2:0.0441176 27:0.0441176 28:0.0338983 29:0.0208333 
-1 2:0.0882353 27:0.0882353 28:0.0847458 29:0.0625 
-1 
-1 2:0.0294118 27:0.0294118 28:0.0169492 
-1 2:0.0735294 27:0.0735294 28:0.0677966 29:0.0416667 
-1 2:0.0147059 27:0.0147059 
-1 2:0.0588235 27:0.0588235 28:0.0508475 29:0.0208333 
-1 2:0.0294118 27:0.0294118 28:0.0169492 
-1 
-1 2:0.0147059 27:0.0147059 
-1 2:0.0441176 27:0.0441176 28:0.0338983 29:0.0208333 
-1 
-1 2:0.0294118 27:0.0294118 28:0.0169492 
-1 2:0.0147059 27:0.0147059 
-1 
-1 2:0.0147059 27:0.0147059 
-1 2:0.0441176 27:0.0441176 28:0.0338983 29:0.0208333 
-1 2:0.0735294 27:0.0735294 28:0.0677966 29:0.0625 
-1 2:0.102941 27:0.102941 28:0.101695 29:0.104167 
-1 2:0.147059 27:0.147059 28:0.152542 29:0.145833 
-1 
-1 2:0.0294118 27:0.0294118 28:0.0169492 
-1 2:0.0588235 27:0.0588235 28:0.0508475 29:0.0416667 
-1 2:0.0882353 27:0.0882353 28:0.0847458 29:0.0833333 
-1 2:0.132353 27:0.132353 28:0.135593 29:0.125 
-1 2:0.0147059 27:0.0147059 
-1 2:0.0441176 27:0.0441176 28:0.0338983 29:0.0208333 
-1 2:0.0735294 27:0.0735294 28:0.0677966 29:0.0625 
-1 2:0.117647 27:0.117647 28:0.118644 29:0.104167 
-1 2:0.0147059 27:0.0147059 
-1 2:0.0441176 27:0.0441176 28:0.0338983 29:0.0208333 
-1 2:0.0882353 27:0.0882353 28:0.0847458 29:0.0625 
-1 2:0.0147059 27:0.0147059 
-1 2:0.0588235 27:0.0588235 28:0.0508475 29:0.0208333 
-1 2:0.0294118 27:0.0294118 28:0.0169492 
-1 2:0.0588235 27:0.0588235 28:0.0338983 29:0.0208333 
-1 2:0.102941 27:0.102941 28:0.0508475 29:0.0208333 
-1 2:0.0294118 27:0.0294118 28:0.0169492 
-1 2:0.0735294 27:0.0735294 28:0.0677966 29:0.0625 
-1 2:0.117647 27:0.117647 28:0.118644 29:0.125 
-1 2:0.0294118 27:0.0294118 28:0.0169492 
-1 2:0.0735294 27:0.0735294 28:0.0677966 29:0.0625 
-1 2:0.117647 27:0.117647 28:0.118644 29:0.125 
-1 2:0.0294118 27:0.0294118 28:0.0169492 
-1 2:0.0735294 27:0.0735294 28:0.0677966 29:0.0625 
-1 2:0.0294118 27:0.0294118 28:0.0169492 
-1 2:0.0147059 27:0.0147059 
-1 2:0.0147059 27:0.0147059 
-1 2:0.0588235 14:0.5 27:0.0588235 28:0.0508475 
-1 2:0.0294118 14:0.5 27:0.0294118 28:0.0169492 
-1 2:0.117647 15:0.5 27:0.117647 28:0.118644 29:0.0833333 
-1 2:0.0882353 27:0.0882353 28:0.0847458 29:0.0833333 
-1 2:0.0735294 27:0.0735294 28:0.0338983 29:0.0208333 
-1 2:0.102941 27:0.102941 28:0.0677966 29:0.0625 
-1 2:0.0147059 27:0.0147059 
-1 2:0.0735294 27:0.0735294 28:0.0338983 29:0.0208333 
-1 2:0.102941 27:0.102941 28:0.0677966 29:0.0625 
-1 2:0.0147059 27:0.0147059 
-1 2:0.0147059 27:0.0147059 
-1 2:0.0147059 27:0.0147059 
-1 2:0.0588235 27:0.0588235 28:0.0508475 29:0.0416667 
-1 2:0.0882353 27:0.0882353 28:0.0847458 29:0.0833333 
-1 2:0.0882353 4:1 27:0.0882353 28:0.0847458 29:0.0416667 
-1 
-1 2:0.0294118 27:0.0294118 28:0.0169492 
-1 2:0.0441176 27:0.0441176 28:0.0338983 29:0.0208333 
-1 2:0.147059 27:0.147059 28:0.152542 29:0.145833 
-1 2:0.161765 27:0.161765 28:0.169492 29:0.166667 
-1 2:0.0147059 27:0.0147059 
-1 2:0.0294118 27:0.0294118 28:0.0169492 
-1 2:0.132353 27:0.132353 28:0.135593 29:0.125 
-1 2:0.147059 27:0.147059 28:0.152542 29:0.145833 
-1 
-1 2:0.102941 27:0.102941 28:0.101695 29:0.104167 
-1 2:0.117647 27:0.117647 28:0.118644 29:0.125 
-1 2:0.0882353 27:0.0882353 28:0.0847458 29:0.0833333 
-1 2:0.102941 27:0.102941 28:0.101695 29:0.104167 
-1 
-1 2:0.0735294 27:0.0735294 28:0.0677966 29:0.0416667 
-1 2:0.102941 27:0.102941 28:0.101695 29:0.0833333 
-1 2:0.0588235 27:0.0588235 28:0.0508475 29:0.0208333 
-1 2:0.0882353 27:0.0882353 28:0.0847458 29:0.0625 
-1 2:0.0147059 27:0.0147059 
-1 2:0.0882353 25:0.5 27:0.0882353 28:0.0677966 
-1 2:0.0588235 27:0.0588235 28:0.0169492 
-1 2:0.102941 27:0.102941 28:0.0508475 29:0.0208333 
-1 2:0.0294118 27:0.0294118 28:0.0169492 
-1 2:0.0735294 27:0.0735294 28:0.0677966 29:0.0208333 
-1 2:0.279412 10:1 27:0.279412 28:0.220339 29:0.145833 
-1 2:0.191176 10:1 27:0.191176 28:0.118644 29:0.104167 
-1 2:0.117647 27:0.117647 28:0.0847458 29:0.0625 
-1 2:0.0294118 27:0.0294118 28:0.0169492 
-1 2:0.0147059 27:0.0147059 
-1 2:0.0588235 27:0.0588235 28:0.0508475 29:0.0416667 
-1 2:0.0294118 27:0.0294118 28:0.0169492 
-1 2:0.220588 4:1 25:0.5 27:0.220588 28:0.152542 29:0.0833333 
-1 2:0.0147059 27:0.0147059 
-1 2:0.176471 27:0.176471 28:0.186441 29:0.125 
-1 2:0.147059 27:0.147059 28:0.152542 29:0.104167 
-1 2:0.0735294 27:0.0735294 28:0.0508475 29:0.0416667 
-1 2:0.102941 27:0.102941 28:0.0847458 29:0.0833333 
-1 2:0.0147059 27:0.0147059 
-1 2:0.0147059 27:0.0147059 
-1 2:0.0441176 27:0.0441176 28:0.0338983 
-1 2:0.0147059 27:0.0147059 
-1 2:0.0441176 17:0.5 27:0.0441176 28:0.0338983 29:0.0208333 
-1 2:0.0735294 17:0.5 27:0.0735294 28:0.0677966 29:0.0625 
-1 2:0.0147059 27:0.0147059 
-1 2:0.102941 27:0.102941 28:0.0847458 29:0.0625 
-1 2:0.0147059 27:0.0147059 
-1 2:0.132353 27:0.132353 28:0.135593 29:0.0833333 
-1 2:0.0735294 27:0.0735294 28:0.0677966 29:0.0416667 
-1 2:0.102941 27:0.102941 28:0.101695 29:0.0416667 
-1 2:0.0147059 27:0.0147059 
-1 
-1 2:0.0294118 27:0.0294118 28:0.0169492 
-1 2:0.0735294 27:0.0735294 28:0.0508475 29:0.0208333 
-1 2:0.0147059 27:0.0147059 
-1 2:0.0588235 27:0.0588235 28:0.0338983 
-1 2:0.0294118 27:0.0294118 
-1 2:0.0588235 4:1 27:0.0588235 28:0.0338983 
-1 2:0.102941 27:0.102941 28:0.0847458 29:0.0625 
-1 2:0.132353 10:1 27:0.132353 28:0.118644 29:0.104167 
-1 2:0.102941 3:1 27:0.102941 28:0.0847458 29:0.0416667 
-1 2:0.0588235 3:1 27:0.0588235 28:0.0508475 29:0.0416667 
-1 2:0.0147059 27:0.0147059 
-1 2:0.0147059 27:0.0147059 
-1 2:0.0147059 27:0.0147059 
-1 2:0.0588235 16:1 27:0.0588235 28:0.0508475 29:0.0208333 
-1 2:0.0882353 16:1 27:0.0882353 28:0.0847458 29:0.0416667 
-1 2:0.0147059 27:0.0147059 
-1 
-1 2:0.0294118 27:0.0294118 28:0.0169492 
-1 2:0.117647 27:0.117647 28:0.118644 29:0.0833333 
-1 2:0.0147059 27:0.0147059 
-1 2:0.102941 27:0.102941 28:0.101695 29:0.0625 
-1 2:0.0735294 27:0.0735294 28:0.0677966 29:0.0625 
-1 2:0.0441176 27:0.0441176 28:0.0338983 29:0.0208333 
-1 2:0.0735294 27:0.0735294 28:0.0508475 29:0.0416667 
-1 2:0.0147059 27:0.0147059 
-1 2:0.147059 27:0.147059 28:0.152542 29:0.166667 
-1 
-1 2:0.0147059 27:0.0147059 
-1 2:0.147059 25:0.5 27:0.147059 28:0.0677966 29:0.0416667 
-1 2:0.176471 27:0.176471 28:0.169492 29:0.125 
-1 2:0.0147059 27:0.0147059 
-1 2:0.25 17:0.5 27:0.25 28:0.271186 29:0.1875 
-1 2:0.0147059 27:0.0147059 
-1 2:0.25 18:1 25:0.5 27:0.25 28:0.237288 29:0.208333 
-1 2:0.441176 18:1 25:0.5 27:0.441176 28:0.355932 29:0.291667 
-1 2:0.0735294 27:0.0735294 28:0.0508475 29:0.0416667 
-1 2:0.176471 27:0.176471 28:0.118644 29:0.0833333 
-1 2:0.132353 27:0.132353 28:0.0847458 29:0.0416667 
-1 2:0.264706 4:1 18:1 25:0.5 27:0.264706 28:0.20339 29:0.125 
-1 2:0.117647 4:1 18:1 25:0.5 27:0.117647 28:0.101695 29:0.0625 
-1 2:0.279412 16:1 23:0.5 27:0.279412 28:0.220339 29:0.104167 
-1 2:0.308824 16:1 23:0.5 27:0.308824 28:0.237288 29:0.104167 
-1 1:1 2:0.191176 16:1 27:0.191176 28:0.118644 29:0.0208333 
-1 2:0.220588 16:1 27:0.220588 28:0.135593 29:0.0208333 
-1 2:0.0147059 27:0.0147059 
-1 2:0.0294118 27:0.0294118 28:0.0169492 
-1 2:0.25 25:0.5 27:0.25 28:0.135593 29:0.0625 
-1 2:0.0147059 27:0.0147059 
-1 2:0.117647 27:0.117647 28:0.0847458 29:0.0416667 
-1 2:0.132353 27:0.132353 28:0.101695 29:0.0416667 
-1 2:0.0882353 27:0.0882353 28:0.0508475 29:0.0208333 
-1 2:0.102941 27:0.102941 28:0.0677966 29:0.0208333 
-1 
-1 2:0.132353 7:1 27:0.132353 28:0.101695 29:0.0833333 
-1 2:0.0882353 27:0.0882353 28:0.0677966 29:0.0416667 
-1 2:0.117647 27:0.117647 28:0.118644 29:0.125 
-1 1:1 2:0.0735294 10:1 27:0.0735294 28:0.0169492 
-1 2:0.132353 10:1 25:0.5 27:0.132353 28:0.0677966 29:0.0208333 
-1 
-1 2:0.0294118 27:0.0294118 28:0.0169492 
-1 2:0.117647 26:1 27:0.117647 28:0.101695 29:0.0416667 
-1 2:0.0147059 27:0.0147059 
-1 2:0.102941 26:1 27:0.102941 28:0.0847458 29:0.0208333 
-1 2:0.0735294 26:1 27:0.0735294 28:0.0508475 29:0.0208333 
-1 2:0.102941 3:1 27:0.102941 28:0.0847458 29:0.0833333 
-1 1:1 2:0.0588235 8:1 23:0.5 27:0.0588235 28:0.0508475 
-1 2:0.0441176 27:0.0441176 28:0.0338983 
-1 2:0.0147059 27:0.0147059 
-1 2:0.0441176 27:0.0441176 28:0.0169492 
-1 2:0.147059 25:0.5 27:0.147059 28:0.101695 29:0.0625 
-1 2:0.176471 25:0.5 27:0.176471 28:0.135593 29:0.0833333 
-1 2:0.0588235 27:0.0588235 
-1 2:0.0882353 27:0.0882353 28:0.0338983 29:0.0208333 
-1 2:0.0147059 27:0.0147059 
-1 2:0.0147059 27:0.0147059 
-1 2:0.323529 20:1 25:0.5 27:0.323529 28:0.254237 29:0.125 
-1 2:0.294118 20:1 25:0.5 27:0.294118 28:0.220339 29:0.125 
-1 2:0.0147059 27:0.0147059 
-1 2:0.0441176 27:0.0441176 28:0.0338983 
-1 2:0.0147059 27:0.0147059 
-1 2:0.161765 27:0.161765 28:0.135593 29:0.125 
-1 2:0.191176 27:0.191176 28:0.169492 29:0.145833 
-1 2:0.0147059 27:0.0147059 
-1 2:0.0147059 27:0.0147059 
-1 2:0.102941 27:0.102941 28:0.101695 29:0.104167 
-1 2:0.102941 3:1 26:1 27:0.0882353 28:0.0677966 29:0.0416667 
-1 2:0.0441176 17:0.5 27:0.0441176 28:0.0338983 
-1 2:0.0588235 27:0.0588235 28:0.0169492 
-1 2:0.0735294 27:0.0735294 28:0.0508475 29:0.0208333 
-1 2:0.0441176 27:0.0441176 28:0.0169492 
-1 2:0.0735294 27:0.0735294 28:0.0508475 29:0.0208333 
-1 2:0.102941 26:1 27:0.102941 28:0.0847458 29:0.0416667 
-1 2:0.0147059 27:0.0147059 
-1 2:0.0588235 16:1 27:0.0588235 28:0.0508475 29:0.0416667 
-1 2:0.102941 7:1 27:0.102941 28:0.0677966 29:0.0416667 
-1 2:0.117647 7:1 27:0.117647 28:0.0677966 29:0.0416667 
-1 2:0.132353 7:1 27:0.132353 28:0.0847458 29:0.0416667 
-1 2:0.147059 7:1 27:0.147059 28:0.101695 29:0.0625 
-1 
-1 2:0.0147059 27:0.0147059 
-1 2:0.0294118 27:0.0294118 28:0.0169492 
-1 
-1 2:0.0147059 27:0.0147059 
-1 
-1 2:0.102941 27:0.102941 28:0.101695 29:0.104167 
-1 
-1 2:0.0735294 17:0.5 27:0.0735294 28:0.0508475 
-1 2:0.0588235 17:0.5 27:0.0588235 28:0.0338983 
-1 
-1 2:0.0147059 27:0.0147059 
-1 2:0.0294118 27:0.0294118 28:0.0169492 
-1 2:0.0441176 27:0.0441176 28:0.0338983 29:0.0208333 
-1 2:0.0735294 27:0.0735294 28:0.0677966 29:0.0625 
-1 
-1 2:0.0147059 27:0.0147059 
-1 2:0.0294118 27:0.0294118 28:0.0169492 
-1 2:0.0588235 27:0.0588235 28:0.0508475 29:0.0416667 
-1 
-1 2:0.0147059 27:0.0147059 
-1 2:0.0441176 27:0.0441176 28:0.0338983 29:0.0208333 
-1 
-1 2:0.0294118 27:0.0294118 28:0.0169492 
-1 2:0.0147059 27:0.0147059 
-1 
-1 
-1 2:0.0147059 27:0.0147059 
-1 2:0.0294118 27:0.0294118 28:0.0169492 
-1 2:0.0441176 27:0.0441176 28:0.0338983 29:0.0208333 
-1 2:0.0735294 27:0.0735294 28:0.0677966 29:0.0625 
-1 2:0.0882353 27:0.0882353 28:0.0847458 29:0.0833333 
-1 2:0.102941 27:0.102941 28:0.101695 29:0.104167 
-1 2:0.117647 27:0.117647 28:0.118644 29:0.125 
-1 2:0.132353 27:0.132353 28:0.135593 29:0.145833 
-1 
-1 2:0.0147059 27:0.0147059 
-1 2:0.0294118 27:0.0294118 28:0.0169492 
-1 2:0.0441176 27:0.0441176 28:0.0338983 29:0.0208333 
-1 2:0.0588235 27:0.0588235 28:0.0508475 29:0.0416667 
-1 2:0.0735294 27:0.0735294 28:0.0677966 29:0.0625 
-1 2:0.0882353 27:0.0882353 28:0.0847458 29:0.0833333 
-1 2:0.102941 27:0.102941 28:0.101695 29:0.104167 
-1 2:0.132353 27:0.132353 28:0.135593 29:0.145833 
-1 
-1 2:0.0147059 27:0.0147059 
-1 2:0.0294118 27:0.0294118 28:0.0169492 
-1 2:0.0441176 27:0.0441176 28:0.0338983 29:0.0208333 
-1 2:0.0588235 27:0.0588235 28:0.0508475 29:0.0416667 
-1 2:0.0735294 27:0.0735294 28:0.0677966 29:0.0625 
-1 2:0.102941 27:0.102941 28:0.101695 29:0.104167 
-1 2:0.117647 27:0.117647 28:0.118644 29:0.125 
-1 2:0.147059 27:0.147059 28:0.152542 29:0.166667 
-1 
-1 2:0.0147059 27:0.0147059 
-1 2:0.0294118 27:0.0294118 28:0.0169492 
-1 2:0.0441176 27:0.0441176 28:0.0338983 29:0.0208333 
-1 2:0.0735294 27:0.0735294 28:0.0677966 29:0.0625 
-1 2:0.0882353 27:0.0882353 28:0.0847458 29:0.0833333 
-1 2:0.102941 27:0.102941 28:0.101695 29:0.104167 
-1 2:0.132353 27:0.132353 28:0.135593 29:0.145833 
-1 2:0.147059 27:0.147059 28:0.152542 29:0.166667 
-1 
-1 2:0.0294118 27:0.0294118 28:0.0169492 
-1 2:0.0441176 27:0.0441176 28:0.0338983 29:0.0208333 
-1 2:0.0588235 27:0.0588235 28:0.0508475 29:0.0416667 
-1 2:0.0735294 27:0.0735294 28:0.0677966 29:0.0625 
-1 2:0.0882353 27:0.0882353 28:0.0847458 29:0.0833333 
-1 2:0.117647 27:0.117647 28:0.118644 29:0.125 
-1 
-1 2:0.0147059 27:0.0147059 
-1 2:0.0294118 27:0.0294118 28:0.0169492 
-1 2:0.0441176 27:0.0441176 28:0.0338983 29:0.0208333 
-1 2:0.0588235 27:0.0588235 28:0.0508475 29:0.0416667 
-1 2:0.102941 27:0.102941 28:0.101695 29:0.104167 
-1 2:0.117647 27:0.117647 28:0.118644 29:0.125 
-1 
-1 2:0.0147059 27:0.0147059 
-1 2:0.0294118 27:0.0294118 28:0.0169492 
-1 2:0.0441176 27:0.0441176 28:0.0338983 29:0.0208333 
-1 2:0.0588235 27:0.0588235 28:0.0508475 29:0.0416667 
-1 2:0.0882353 27:0.0882353 28:0.0847458 29:0.0833333 
-1 
-1 2:0.0147059 27:0.0147059 
-1 2:0.0294118 27:0.0294118 28:0.0169492 
-1 2:0.0441176 27:0.0441176 28:0.0338983 29:0.0208333 
-1 2:0.0882353 27:0.0882353 28:0.0847458 29:0.0833333 
-1 
-1 2:0.0147059 27:0.0147059 
-1 2:0.0294118 27:0.0294118 28:0.0169492 
-1 2:0.0588235 27:0.0588235 28:0.0508475 29:0.0416667 
-1 2:0.0735294 27:0.0735294 28:0.0677966 29:0.0625 
-1 
-1 2:0.0147059 27:0.0147059 
-1 2:0.0441176 27:0.0441176 28:0.0338983 29:0.0208333 
-1 2:0.0588235 27:0.0588235 28:0.0508475 29:0.0416667 
-1 
-1 2:0.0294118 27:0.0294118 28:0.0169492 
-1 2:0.0441176 27:0.0441176 28:0.0338983 29:0.0208333 
-1 2:0.0147059 27:0.0147059 
-1 2:0.0294118 27:0.0294118 28:0.0169492 
-1 
-1 
-1 2:0.0294118 27:0.0294118 28:0.0169492 
-1 2:0.176471 27:0.176471 28:0.135593 29:0.104167 
-1 2:0.0147059 27:0.0147059 
-1 2:0.161765 27:0.161765 28:0.118644 29:0.0833333 
-1 2:0.132353 27:0.132353 28:0.0847458 29:0.0833333 
-1 2:0.0294118 27:0.0294118 28:0.0169492 
-1 2:0.0882353 27:0.0882353 28:0.0847458 29:0.0833333 
-1 2:0.117647 27:0.117647 28:0.118644 29:0.125 
-1 
-1 2:0.0294118 27:0.0294118 28:0.0169492 
-1 2:0.0588235 27:0.0588235 28:0.0508475 29:0.0416667 
-1 2:0.0882353 27:0.0882353 28:0.0847458 29:0.0833333 
-1 2:0.0441176 27:0.0441176 28:0.0338983 29:0.0208333 
-1 2:0.0147059 27:0.0147059 
-1 2:0.0441176 27:0.0441176 28:0.0338983 29:0.0208333 
-1 2:0.102941 14:0.5 27:0.102941 28:0.0338983 
-1 2:0.264706 14:0.5 25:0.5 27:0.264706 28:0.186441 29:0.145833 
-1 2:0.102941 25:0.5 27:0.102941 28:0.101695 29:0.104167 
-1 2:0.147059 25:0.5 27:0.147059 28:0.135593 29:0.145833 
-1 2:0.0294118 27:0.0294118 
-1 2:0.0441176 27:0.0441176 28:0.0338983 29:0.0208333 
-1 2:0.0441176 27:0.0441176 28:0.0338983 29:0.0208333 
-1 2:0.0147059 27:0.0147059 
-1 2:0.0147059 27:0.0147059 
-1 2:0.0147059 27:0.0147059 
-1 2:0.0735294 26:1 27:0.0735294 28:0.0508475 
-1 2:0.0441176 26:1 27:0.0441176 28:0.0169492 
-1 2:0.0147059 27:0.0147059 
-1 2:0.0147059 27:0.0147059 
-1 2:0.0147059 27:0.0147059 
-1 2:0.0294118 27:0.0294118 
-1 2:0.0147059 27:0.0147059 
-1 2:0.0147059 27:0.0147059 
-1 2:0.0147059 27:0.0147059 
-1 2:0.0294118 27:0.0294118 28:0.0169492 
-1 
-1 2:0.0147059 27:0.0147059 
-1 2:0.0588235 27:0.0588235 28:0.0508475 29:0.0416667 
-1 2:0.0882353 27:0.0882353 28:0.0847458 29:0.0833333 
-1 2:0.0147059 27:0.0147059 
-1 2:0.0441176 27:0.0441176 28:0.0169492 
-1 2:0.0735294 27:0.0735294 28:0.0508475 29:0.0416667 
-1 2:0.0147059 27:0.0147059 
-1 2:0.102941 27:0.102941 28:0.101695 29:0.0833333 
-1 2:0.102941 27:0.102941 28:0.0677966 
-1 2:0.147059 26:1 27:0.147059 28:0.135593 29:0.104167 
-1 2:0.0735294 27:0.0735294 28:0.0338983 29:0.0208333 
-1 1:1 2:0.0735294 10:1 27:0.0735294 28:0.0338983 
-1 1:1 2:0.220588 10:1 14:0.5 27:0.220588 28:0.135593 29:0.0833333 
-1 2:0.0735294 3:1 27:0.0735294 28:0.0677966 29:0.0416667 
-1 2:0.0882353 8:1 27:0.0882353 28:0.0508475 
-1 2:0.117647 8:1 27:0.117647 28:0.0847458 
-1 2:0.0147059 27:0.0147059 
-1 2:0.0147059 27:0.0147059 
-1 2:0.102941 27:0.102941 28:0.101695 29:0.104167 
-1 2:0.117647 27:0.117647 28:0.118644 29:0.125 
-1 2:0.147059 27:0.147059 28:0.152542 29:0.166667 
-1 2:0.0735294 27:0.0735294 28:0.0677966 29:0.0625 
-1 2:0.0882353 27:0.0882353 28:0.0847458 29:0.0833333 
-1 2:0.117647 27:0.117647 28:0.118644 29:0.125 
-1 
-1 2:0.0294118 27:0.0294118 28:0.0169492 
-1 2:0.0147059 27:0.0147059 
-1 2:0.0147059 27:0.0147059 
-1 2:0.0882353 27:0.0882353 28:0.0847458 29:0.0833333 
-1 2:0.132353 27:0.132353 28:0.135593 29:0.145833 
-1 2:0.0588235 27:0.0588235 28:0.0508475 29:0.0416667 
-1 2:0.102941 27:0.102941 28:0.101695 29:0.104167 
-1 2:0.0294118 27:0.0294118 28:0.0169492 
-1 2:0.0882353 27:0.0882353 28:0.0847458 29:0.0833333 
-1 2:0.0441176 27:0.0441176 28:0.0338983 29:0.0208333 
-1 2:0.117647 5:1 26:1 27:0.117647 28:0.101695 29:0.0208333 
-1 2:0.279412 10:1 25:0.5 27:0.279412 28:0.288136 29:0.208333 
-1 1:1 2:0.117647 10:1 25:0.5 27:0.117647 28:0.101695 29:0.0416667 
-1 2:0.102941 27:0.102941 28:0.0847458 29:0.0833333 
-1 
-1 2:0.117647 27:0.117647 28:0.101695 29:0.0833333 
-1 2:0.102941 27:0.102941 28:0.0847458 29:0.0833333 
-1 2:0.0147059 27:0.0147059 
-1 2:0.147059 27:0.147059 28:0.135593 29:0.104167 
-1 2:0.117647 27:0.117647 28:0.101695 29:0.0625 
-1 2:0.0294118 27:0.0294118 
-1 2:0.102941 27:0.102941 28:0.0677966 29:0.0625 
-1 2:0.0588235 27:0.0588235 28:0.0338983 29:0.0208333 
-1 2:0.132353 27:0.132353 28:0.118644 29:0.104167 
-1 2:0.132353 23:0.5 27:0.132353 28:0.0508475 
-1 2:0.161765 27:0.161765 28:0.0847458 29:0.0208333 
-1 2:0.0588235 27:0.0588235 28:0.0169492 
-1 2:0.0882353 27:0.0882353 28:0.0508475 29:0.0208333 
-1 2:0.117647 27:0.117647 28:0.0847458 29:0.0416667 
-1 2:0.0441176 23:0.5 27:0.0441176 28:0.0338983 
-1 2:0.0147059 23:0.5 27:0.0147059 
-1 2:0.0882353 24:0.5 27:0.0882353 28:0.0169492 
-1 
-1 2:0.0147059 27:0.0147059 
-1 2:0.0441176 27:0.0441176 28:0.0338983 29:0.0208333 
-1 2:0.0735294 27:0.0735294 28:0.0677966 29:0.0416667 
-1 
-1 2:0.0294118 27:0.0294118 28:0.0169492 
-1 2:0.0588235 27:0.0588235 28:0.0508475 29:0.0208333 
-1 2:0.0147059 27:0.0147059 
-1 2:0.0441176 27:0.0441176 28:0.0338983 
-1 2:0.0147059 27:0.0147059 
-1 2:0.0147059 27:0.0147059 
-1 2:0.102941 27:0.102941 28:0.0847458 29:0.0416667 
-1 2:0.0735294 27:0.0735294 28:0.0677966 29:0.0625 
-1 2:0.0441176 27:0.0441176 
-1 2:0.117647 5:1 25:0.5 27:0.117647 28:0.0508475 
-1 2:0.161765 5:1 8:1 27:0.161765 28:0.101695 29:0.0208333 
-1 2:0.0147059 27:0.0147059 
-1 2:0.0588235 17:0.5 27:0.0588235 28:0.0508475 
-1 2:0.0294118 17:0.5 27:0.0294118 28:0.0169492 
-1 2:0.102941 25:0.5 27:0.102941 28:0.0508475 29:0.0208333 
-1 2:0.0294118 27:0.0294118 
-1 2:0.0147059 27:0.0147059 
-1 2:0.191176 8:1 27:0.191176 28:0.101695 29:0.0208333 
-1 
-0.4901751349508423 1:1 2:0.161765 8:1 27:0.161765 28:0.0677966 29:0.0208333 
-1 2:0.147059 8:1 27:0.147059 28:0.0677966 29:0.0208333 
-1 2:0.0882353 25:0.5 27:0.0882353 28:0.0508475 29:0.0208333 
-1 2:0.0147059 27:0.0147059 
-1 2:0.0147059 27:0.0147059 
-1 2:0.117647 17:0.5 27:0.117647 28:0.0677966 29:0.0416667 
-1 2:0.147059 17:0.5 27:0.147059 28:0.101695 29:0.0833333 
-1 2:0.0147059 27:0.0147059 
-1 2:0.161765 4:1 17:0.5 27:0.161765 28:0.169492 29:0.104167 
-1 2:0.102941 27:0.102941 28:0.0677966 29:0.0208333 
-1 2:0.117647 27:0.117647 28:0.0677966 29:0.0416667 
-1 2:0.220588 14:0.5 26:1 27:0.220588 28:0.169492 29:0.0625 
-1 2:0.117647 27:0.117647 28:0.0508475 29:0.0208333 
-1 2:0.25 4:1 10:1 14:0.5 27:0.25 28:0.186441 29:0.0833333 
-1 
-1 2:0.102941 27:0.102941 28:0.0508475 29:0.0416667 
-1 2:0.0882353 27:0.0882353 28:0.0677966 29:0.0416667 
-1 2:0.0147059 27:0.0147059 
-1 2:0.176471 27:0.176471 28:0.152542 29:0.125 
-1 2:0.0147059 27:0.0147059 
-1 13:1 
-1 2:0.0588235 27:0.0588235 28:0.0508475 
-1 2:0.132353 27:0.132353 28:0.135593 29:0.0833333 
-0.5339175839911678 2:0.147059 13:1 27:0.147059 28:0.152542 29:0.0833333 
-1 2:0.0441176 27:0.0441176 28:0.0338983 
-1 2:0.117647 27:0.117647 28:0.118644 29:0.0833333 
-1 2:0.132353 13:1 27:0.132353 28:0.135593 29:0.0833333 
-1 2:0.0588235 27:0.0588235 28:0.0508475 29:0.0208333 
-1 2:0.0735294 13:1 27:0.0735294 28:0.0677966 29:0.0208333 
-1 13:1 
-1 2:0.102941 13:1 27:0.102941 28:0.0677966 29:0.0208333 
-1 
-1 2:0.0294118 27:0.0294118 28:0.0169492 
-1 2:0.0147059 27:0.0147059 
-1 2:0.0147059 27:0.0147059 
-1 2:0.147059 13:1 27:0.147059 28:0.135593 29:0.0416667 
-1 2:0.161765 13:1 27:0.161765 28:0.152542 29:0.0625 
-1 2:0.117647 13:1 27:0.117647 28:0.101695 29:0.0416667 
-1 2:0.132353 13:1 27:0.132353 28:0.118644 29:0.0625 
-1 
-1 2:0.176471 8:1 27:0.176471 28:0.186441 29:0.1875 
-1 2:0.161765 8:1 27:0.161765 28:0.169492 29:0.166667 
-1 2:0.25 8:1 27:0.25 28:0.271186 29:0.270833 
-1 2:0.0735294 27:0.0735294 28:0.0677966 29:0.0416667 
-1 2:0.0735294 8:1 27:0.0735294 28:0.0169492 
-1 2:0.0882353 8:1 27:0.0882353 28:0.0338983 
-1 
-1 2:0.0147059 27:0.0147059 
-1 2:0.0147059 12:1 27:0.0147059 
-1 2:0.0588235 12:1 27:0.0588235 28:0.0508475 
-1 
-1 
-1 2:0.102941 4:1 27:0.102941 28:0.0847458 
-1 2:0.102941 27:0.102941 28:0.0677966 29:0.0416667 
-1 2:0.117647 27:0.117647 28:0.0847458 29:0.0625 
-1 2:0.0294118 27:0.0294118 28:0.0169492 
-1 2:0.0147059 27:0.0147059 
-1 2:0.102941 4:1 27:0.102941 28:0.101695 29:0.0625 
-1 2:0.117647 27:0.117647 28:0.0847458 29:0.0416667 
-1 2:0.0441176 27:0.0441176 28:0.0338983 29:0.0208333 
-1 2:0.0294118 27:0.0294118 
-1 2:0.0735294 27:0.0735294 28:0.0508475 29:0.0416667 
-1 2:0.308824 8:1 27:0.308824 28:0.20339 29:0.166667 
-1 2:0.220588 8:1 27:0.220588 28:0.135593 29:0.104167 
-1 2:0.147059 25:0.5 27:0.147059 28:0.101695 29:0.0416667 
-1 2:0.264706 16:1 26:1 27:0.264706 28:0.271186 29:0.1875 
-1 
-1 2:0.132353 27:0.132353 28:0.135593 29:0.145833 
-1 2:0.0147059 27:0.0147059 
-1 2:0.117647 12:1 27:0.117647 28:0.118644 29:0.104167 
-1 2:0.205882 12:1 27:0.205882 28:0.220339 29:0.166667 
-1 2:0.338235 25:0.5 27:0.338235 28:0.220339 29:0.145833 
-1 2:0.0441176 27:0.0441176 
-1 2:0.0147059 27:0.0147059 
-1 2:0.0147059 27:0.0147059 
-1 2:0.0147059 27:0.0147059 
-1 2:0.0441176 27:0.0441176 28:0.0338983 29:0.0208333 
-1 2:0.191176 14:0.5 27:0.191176 28:0.135593 29:0.0625 
-1 2:0.0147059 27:0.0147059 
-1 2:0.0441176 27:0.0441176 28:0.0338983 29:0.0208333 
-1 2:0.0735294 27:0.0735294 28:0.0677966 29:0.0625 
-1 2:0.0147059 27:0.0147059 
-1 2:0.264706 13:1 20:1 27:0.264706 28:0.220339 29:0.145833 
-1 2:0.205882 13:1 20:1 27:0.205882 28:0.169492 29:0.104167 
-1 2:0.0147059 27:0.0147059 
-1 
-1 2:0.0294118 27:0.0294118 28:0.0169492 
-1 2:0.0147059 27:0.0147059 
-1 
-1 2:0.0147059 27:0.0147059 
-1 2:0.0441176 17:0.5 27:0.0441176 28:0.0338983 
-1 
-1 2:0.0147059 27:0.0147059 
-1 2:0.0441176 27:0.0441176 28:0.0338983 29:0.0208333 
-1 
-1 2:0.0294118 27:0.0294118 28:0.0169492 
-1 2:0.0147059 27:0.0147059 
-1 2:0.0147059 27:0.0147059 
-1 2:0.0147059 27:0.0147059 
-1 2:0.147059 27:0.147059 28:0.118644 29:0.0625 
