svm_type c_svc
kernel_type rbf
gamma 0.00195312
nr_class 2
total_sv 527
rho 2.22712
label 1 -1
nr_sv 215 312
SV
512 2:12 27:11 28:10 29:5 
512 2:4 27:3 28:1 
512 2:10 4:1 5:1 8:1 27:9 28:5 
512 2:8 4:1 5:1 8:1 27:7 28:4 
512 2:8 5:1 27:7 28:4 
512 2:6 5:1 27:5 28:2 
512 2:2 27:1 
512 2:8 27:7 28:5 29:4 
512 2:2 27:1 
512 2:24 25:1 27:23 28:14 29:7 
512 2:11 25:1 27:10 28:8 29:4 
512 2:12 4:1 17:1 27:11 28:7 29:2 
512 2:2 27:1 
512 2:2 27:1 
512 2:7 12:1 14:1 27:6 28:4 
512 2:2 27:1 
512 2:10 15:1 27:9 28:5 29:1 
512 2:3 27:2 28:1 
512 2:7 27:6 28:5 29:2 
512 2:6 27:5 28:4 29:1 
512 2:4 27:3 28:2 29:1 
512 2:10 25:1 27:9 28:7 29:1 
512 2:11 25:1 27:10 28:8 29:2 
512 2:13 25:1 27:12 28:10 29:4 
512 2:8 27:7 28:6 29:3 
512 2:9 27:8 28:7 29:4 
512 2:10 27:9 28:8 29:5 
512 2:12 27:11 28:10 29:7 
512 2:18 20:1 27:17 28:15 29:10 
512 2:2 27:1 
512 2:10 25:1 27:9 28:7 29:4 
512 2:5 14:1 27:4 28:3 
512 2:11 25:1 27:10 28:5 29:1 
512 2:24 15:1 27:23 28:20 29:14 
512 2:11 9:1 15:1 27:10 28:9 29:5 
512 2:16 15:1 27:15 28:11 29:7 
170.2106889752062 2:22 6:1 15:1 27:21 28:18 29:8 
14.07412865488379 2:17 8:1 15:1 18:1 27:16 28:11 29:7 
512 2:21 19:1 27:20 28:14 29:8 
512 2:14 19:1 26:1 27:13 28:11 29:3 
148.3227005701893 2:5 16:1 22:1 27:4 28:1 
512 2:20 27:19 28:16 29:8 
512 2:22 27:21 28:18 29:10 
512 2:18 27:17 28:14 29:8 
512 2:20 27:19 28:16 29:10 
512 2:11 11:1 27:10 28:9 29:5 
349.2334248276919 2:27 21:1 27:26 28:21 29:14 
308.6099942909228 2:17 21:1 27:16 28:14 29:11 
512 2:2 27:1 
168.0654176836213 2:12 6:1 25:2 27:11 28:7 29:2 
512 2:6 17:1 27:5 28:3 
512 2:5 27:4 28:3 29:1 
512 2:4 19:1 27:3 28:2 29:1 
512 2:12 27:11 28:9 29:6 
512 2:7 20:1 27:6 28:5 29:4 
512 2:7 12:1 27:6 28:5 29:3 
512 2:3 27:2 28:1 
512 2:4 27:3 28:1 
512 2:6 27:5 28:3 
512 2:15 17:1 27:14 28:11 29:8 
512 2:10 4:1 6:1 27:9 28:6 29:1 
512 2:9 4:1 6:1 27:8 28:5 29:2 
512 2:7 6:2 26:1 27:6 28:4 29:2 
49.71466407630653 2:21 6:2 26:1 27:20 28:14 29:5 
86.28354832454187 2:17 19:1 20:1 27:16 28:12 29:6 
512 2:5 27:4 28:3 29:2 
512 2:4 17:1 27:3 28:2 29:1 
512 2:2 27:1 
512 2:6 17:1 27:5 28:3 
512 2:13 27:12 28:8 29:4 
512 2:10 27:9 28:8 29:3 
512 2:12 27:11 28:6 29:3 
512 2:7 27:6 28:5 29:3 
512 2:17 27:16 28:15 29:12 
25.40120708057882 2:7 5:1 23:1 25:1 27:6 28:4 29:1 
512 2:2 27:1 
512 2:4 27:3 28:2 
512 2:7 6:1 27:6 28:4 29:2 
512 2:2 27:1 
512 2:17 27:16 28:14 29:9 
512 2:6 23:1 27:5 28:3 29:1 
512 2:2 27:1 
512 2:6 16:1 27:5 28:4 29:2 
512 2:16 10:1 27:15 28:12 29:9 
512 2:5 27:4 28:3 29:2 
512 2:7 27:6 28:5 29:4 
512 2:8 27:7 28:5 29:2 
512 2:11 6:1 27:10 28:9 29:3 
512 2:2 27:1 
512 2:10 8:1 27:9 28:4 29:1 
293.5817750050784 2:12 11:1 17:1 27:11 28:8 29:5 
512 2:10 15:1 27:9 28:8 29:6 
512 2:2 27:1 
512 2:6 20:1 26:1 27:5 28:4 29:3 
512 2:5 27:4 28:3 29:1 
512 2:2 27:1 
512 2:9 27:7 28:4 29:2 
512 2:11 27:10 28:8 29:3 
512 2:9 27:8 28:4 29:1 
512 2:2 27:1 
512 2:2 27:1 
512 2:2 27:1 
512 2:2 27:1 
512 2:7 27:6 28:5 29:2 
512 2:5 27:4 28:1 
512 2:4 27:3 28:2 
512 2:2 27:1 
512 2:3 27:2 
512 2:4 25:1 27:3 28:2 29:1 
512 2:18 3:1 16:1 27:17 28:16 29:11 
512 2:14 3:1 9:1 13:1 25:1 27:13 28:9 29:4 
512 2:30 25:1 27:29 28:24 29:17 
512 2:8 26:1 27:7 28:3 
501.6376695546077 2:4 9:1 27:3 28:2 
512 2:7 9:1 27:6 28:4 29:2 
512 2:5 9:1 27:4 28:2 29:1 
465.3414491924283 2:2 11:1 27:1 
512 2:10 27:9 28:6 29:1 
512 2:7 27:6 28:4 29:1 
512 2:2 27:1 
512 2:4 25:1 27:3 28:2 29:1 
512 2:15 8:1 27:14 28:12 29:10 
512 2:9 9:1 27:8 28:7 29:2 
512 2:3 16:1 27:2 28:1 
512 2:2 15:1 27:1 
512 2:15 10:1 11:1 25:1 27:14 28:10 29:7 
512 2:5 27:4 28:3 29:2 
512 2:6 27:5 28:4 29:3 
512 2:14 17:1 18:1 27:13 28:12 29:8 
403.2928633844091 2:44 15:1 27:43 28:37 29:27 
512 2:39 15:1 27:38 28:32 29:23 
512 2:24 18:1 25:1 27:23 28:17 29:7 
512 2:26 18:1 25:1 27:25 28:19 29:9 
512 2:1 
512 2:4 27:3 28:2 
512 2:2 27:1 
512 2:3 27:2 
512 2:4 16:1 27:3 28:1 
512 2:2 27:1 
512 2:12 27:11 28:7 29:4 
264.9082166596649 2:15 8:1 16:1 27:14 28:7 29:2 
512 2:17 8:1 16:1 27:16 28:9 29:2 
512 2:14 14:1 27:13 28:12 29:10 
512 2:22 14:1 27:21 28:19 29:16 
512 2:7 10:1 27:6 28:5 29:3 
512 2:2 27:1 
512 2:7 14:1 27:6 28:5 29:2 
512 2:5 10:1 27:4 28:3 
512 2:7 10:1 27:6 28:5 29:2 
512 2:5 27:4 28:3 29:1 
131.0452434584678 2:12 18:1 25:1 27:11 28:9 29:5 
512 2:6 23:1 27:5 28:4 29:2 
512 2:2 27:1 
512 2:4 25:1 27:3 28:2 29:1 
512 2:5 27:4 28:2 
512 2:15 25:1 27:13 28:10 29:8 
512 2:9 17:1 27:8 28:4 29:1 
512 2:13 18:1 25:1 27:12 28:8 29:3 
512 2:2 18:1 27:1 
512 2:2 27:1 
512 2:13 17:1 27:12 28:9 29:4 
512 2:3 27:2 
512 2:16 7:1 16:1 27:15 28:10 29:6 
512 2:11 13:1 27:10 28:9 29:5 
512 2:5 27:4 28:3 29:2 
512 2:5 10:1 27:4 28:3 29:2 
512 2:4 27:3 28:2 
512 2:2 27:1 
512 2:2 27:1 
512 2:2 27:1 
512 2:9 5:1 27:8 28:4 29:1 
512 2:12 5:1 27:11 28:6 29:2 
512 2:7 5:1 27:6 28:3 29:1 
512 2:10 5:1 27:9 28:5 29:2 
512 2:17 3:1 10:1 27:16 28:13 29:8 
408.5568431468577 2:27 3:1 10:1 14:1 27:26 28:19 29:12 
512 2:11 27:10 28:9 29:7 
512 2:6 10:1 27:5 28:4 29:2 
512 2:14 10:1 27:13 28:11 29:7 
512 2:15 10:1 24:1 27:14 28:13 29:9 
512 2:16 10:1 24:1 27:15 28:14 29:10 
512 2:24 10:1 24:1 27:23 28:21 29:15 
512 2:5 26:1 27:4 28:2 
512 2:5 27:4 28:2 
512 2:6 17:1 24:1 27:5 28:4 29:2 
512 2:13 17:1 24:2 27:12 28:7 29:2 
376.2416105012461 2:3 10:1 27:2 28:1 
512 2:13 7:1 14:1 27:12 28:7 29:2 
512 2:2 27:1 
512 2:2 27:1 
512 2:2 27:1 
512 2:7 27:6 28:5 29:3 
512 2:5 27:4 28:3 29:2 
512 2:5 27:4 28:3 29:2 
512 2:16 12:1 27:15 28:14 29:8 
512 2:6 25:1 27:5 28:3 
512 2:1 
512 2:1 
0.04645225995172188 2:44 15:1 
512 2:1 
18.0143149029957 2:1 8:1 23:1 
0.1234208551118428 2:2 
512 2:1 
0.3355413847126046 2:44 15:1 
512 2:1 
0.05834166001319165 2:2 
82.35486532175896 2:1 8:1 23:1 
512 2:1 
419.1093721584043 2:1 8:1 23:1 
1.250358395260545 2:44 15:1 
512 2:1 
509.9896679014386 2:1 8:1 23:1 
118.0615354867307 2:2 
512 2:2 
512 2:2 
-124.447268406667 2:1 
-490.6584539185031 2:2 27:1 
-512 2:1 
-119.5263876472597 2:3 27:2 28:1 
-223.2392714310112 2:5 27:4 28:3 29:1 
-367.8149300558553 2:27 27:26 28:22 29:16 
-512 2:11 25:1 27:10 28:9 29:6 
-121.6935192273465 2:27 25:1 27:26 28:22 29:12 
-512 2:12 17:1 27:11 28:8 29:5 
-512 2:14 17:1 27:13 28:10 29:7 
-8.993118194717198 2:4 27:3 28:2 29:1 
-310.3835250817361 2:14 5:1 8:1 27:13 28:10 29:7 
-156.896050690239 2:15 8:1 27:14 28:8 29:3 
-315.2187670191818 2:24 8:1 27:23 28:16 29:9 
-165.1274653980695 2:7 27:6 28:4 29:1 
-512 2:13 27:12 28:10 29:5 
-313.3274961642795 2:27 25:2 27:26 28:21 29:9 
-512 2:25 27:24 28:20 29:10 
-14.43731795673724 2:2 27:1 
-125.9592494858427 2:20 25:2 27:19 28:15 29:5 
-295.6653854096331 2:22 27:21 28:17 29:9 
-14.77725717717516 2:16 25:2 27:15 28:11 29:5 
-36.26803680762679 2:4 27:3 28:2 29:1 
-58.94208591854411 2:2 27:1 
-19.47145057830211 2:2 27:1 
-138.1671884236772 2:5 27:4 28:3 29:2 
-22.92883623016832 2:2 27:1 
-17.37048778122425 2:2 27:1 
-87.92719077649242 2:4 27:3 28:2 29:1 
-52.64978711732386 2:5 27:4 28:3 29:2 
-31.30735725012428 2:4 27:3 28:2 29:1 
-58.14160731352298 2:2 27:1 
-512 2:6 20:1 27:5 28:3 29:2 
-191.1192324458793 2:16 27:15 28:14 29:13 
-209.7187411177889 2:40 12:1 27:39 28:32 29:25 
-8.143772848628128 2:49 12:1 20:1 27:48 28:40 29:30 
-28.2676484708361 2:48 12:1 20:1 27:47 28:38 29:27 
-29.5552132387902 2:20 12:1 27:19 28:13 29:7 
-127.4135682952645 2:45 12:1 20:1 27:44 28:36 29:26 
-49.9398273856945 2:4 27:3 28:2 29:1 
-263.721870394651 2:13 20:1 27:12 28:10 29:6 
-231.9302738675363 2:16 20:1 27:15 28:12 29:8 
-34.61516682460167 2:29 20:1 27:28 28:25 29:21 
-19.70361609233975 2:5 27:4 28:3 29:2 
-512 2:5 27:4 28:2 
-38.88517581160127 2:3 27:2 28:1 
-512 2:11 17:1 27:10 28:6 29:3 
-512 2:10 9:1 15:1 27:9 28:8 29:5 
-512 2:12 9:1 15:1 27:11 28:10 29:6 
-24.21992124785974 1:1 2:30 15:1 27:29 28:25 29:18 
-407.7572724921935 2:41 9:1 15:2 27:40 28:36 29:25 
-176.0559905958073 2:10 17:1 27:9 28:7 29:5 
-512 2:9 27:8 28:6 29:2 
-512 2:12 19:1 26:1 27:11 28:9 29:3 
-19.90300548753703 2:2 27:1 
-269.7463376647021 2:12 27:11 28:10 29:6 
-96.23848627028903 2:2 27:1 
-146.8787918908515 2:4 27:3 28:2 29:1 
-29.11171455351496 2:2 27:1 
-244.5889507312365 2:6 27:5 28:2 
-512 2:8 27:7 28:4 
-20.97215005049117 2:2 27:1 
-512 2:7 9:1 27:6 28:3 29:2 
-512 2:8 9:1 27:7 28:4 29:3 
-512 2:10 9:1 27:9 28:6 29:5 
-19.81873381241151 2:2 27:1 
-7.184702096387148 2:6 27:5 28:2 
-24.49242976012079 2:1 
-512 2:7 10:1 25:1 27:6 28:4 29:1 
-512 2:7 6:1 27:6 28:5 29:1 
-512 2:5 4:1 6:1 27:4 28:1 
-512 2:6 6:1 27:5 28:4 29:1 
-512 2:4 6:1 26:1 27:3 28:2 29:1 
-512 2:14 6:1 26:1 27:13 28:8 29:2 
-482.2715698207065 2:3 27:2 28:1 
-512 2:2 27:1 
-32.44410500448726 2:41 19:1 20:1 27:40 28:34 29:21 
-194.0551520541387 2:26 4:1 6:1 19:1 27:25 28:22 29:14 
-512 2:6 17:1 27:5 28:4 29:1 
-57.7792202507942 2:22 17:2 27:21 28:16 29:10 
-512 2:11 17:1 27:10 28:6 29:3 
-185.4186574281146 2:5 27:4 28:3 29:2 
-512 2:10 5:1 8:1 27:9 28:6 29:2 
-512 2:10 5:1 25:1 27:9 28:6 29:4 
-148.2218149130122 2:9 23:1 27:8 28:7 29:5 
-14.66366731551479 2:6 27:5 28:4 29:1 
-512 2:8 27:7 28:3 
-392.623032719 2:2 27:1 
-455.7024689114143 1:1 2:6 11:1 25:1 27:5 28:4 29:1 
-512 2:11 10:1 27:10 28:8 29:5 
-512 2:6 27:5 28:3 
-495.4466522072564 2:16 3:1 27:15 28:13 29:7 
-46.5214959691081 2:2 27:1 
-18.70431474125474 2:17 15:1 27:16 28:13 29:12 
-122.9401235262448 2:31 15:1 27:30 28:21 29:15 
-512 2:10 10:1 14:1 27:9 28:6 29:1 
-109.4009504265968 2:11 4:1 27:10 28:7 
-461.8744816588554 2:1 25:1 
-512 2:7 6:1 27:6 28:4 29:2 
-307.9057225511418 2:6 27:5 28:4 29:2 
-75.13728922720489 2:4 27:3 28:2 29:1 
-97.35113101154829 2:5 27:4 28:3 29:2 
-2.961027436740303 2:1 
-11.38345689888723 2:2 27:1 
-512 2:6 27:5 28:4 29:2 
-431.0579866647494 2:2 27:1 
-356.9465450333483 2:4 27:3 28:2 29:1 
-242.8536428519642 2:9 4:1 27:8 28:4 29:1 
-28.69270842268646 2:2 27:1 
-358.6969015156606 2:19 11:1 27:18 28:17 29:12 
-512 2:7 27:6 28:5 29:2 
-512 2:15 11:1 27:14 28:13 29:10 
-9.714010510842094 2:2 27:1 
-282.7445541088216 2:4 27:3 28:2 29:1 
-15.75303366431409 1:1 2:29 15:1 17:1 27:28 28:14 29:5 
-155.5409730405566 2:7 27:6 28:4 29:1 
-386.6401501874893 2:18 7:1 24:1 27:17 28:14 29:7 
-512 2:11 7:1 24:1 27:10 28:8 29:5 
-172.8597534404421 2:4 27:3 28:2 29:1 
-16.44995581807216 2:36 14:1 27:33 28:28 29:18 
-86.5287989867343 1:1 2:27 14:1 27:25 28:22 29:15 
-188.354266984212 2:20 27:18 28:15 29:8 
-128.7180566733439 2:2 22:1 26:1 27:1 
-132.9375394853074 2:6 27:5 28:4 29:2 
-92.25889000126317 2:15 25:1 27:14 28:10 29:5 
-33.46691016047615 2:2 27:1 
-291.9290458921525 2:4 27:3 28:2 29:1 
-2.574787622746121 2:3 27:2 28:1 
-512 2:11 25:1 27:10 28:7 29:4 
-6.04585066075764 2:3 27:2 28:1 
-45.92661117961678 2:5 27:4 28:3 29:2 
-308.7683553405552 2:4 27:3 28:2 29:1 
-14.07907247568951 2:3 27:2 28:1 
-28.69197211775021 2:2 27:1 
-224.4308051686991 2:7 27:6 28:4 29:1 
-15.16534431152628 2:2 27:1 
-441.2216024324159 2:12 24:1 25:1 27:11 28:9 29:1 
-18.4362565161608 2:2 27:1 
-8.461407567127011 2:3 27:2 28:1 
-512 2:5 8:1 27:4 28:2 29:1 
-129.938729252281 2:22 7:1 13:1 24:1 27:21 28:17 29:12 
-245.75688481323 2:2 24:1 27:1 
-27.31729135979463 2:2 27:1 
-7.600497861044347 2:3 27:2 28:1 
-366.5326789047729 2:14 27:13 28:12 29:11 
-367.9360494068953 2:7 14:1 27:6 28:5 29:4 
-512 2:11 14:1 27:10 28:8 29:4 
-512 2:13 17:1 27:11 28:9 29:5 
-7.230860562087879 2:3 27:2 28:1 
-176.7833462057335 2:4 27:3 28:2 29:1 
-151.5488752977328 2:2 27:1 
-512 2:8 15:1 27:7 28:5 29:3 
-24.40518938041227 2:3 27:2 28:1 
-512 2:10 27:9 28:7 29:2 
-512 2:12 10:1 27:11 28:10 29:7 
-432.7679508885366 2:14 10:1 27:13 28:12 29:9 
-512 2:21 10:1 27:20 28:18 29:13 
-512 2:23 10:1 27:22 28:20 29:15 
-512 2:9 10:1 27:8 28:7 29:4 
-512 2:11 10:1 27:10 28:9 29:6 
-483.9065094384868 2:20 10:1 27:19 28:17 29:12 
-38.74118064393905 2:2 27:1 
-87.01805735962577 2:2 27:1 
-74.97979644087364 2:2 27:1 
-512 2:6 12:1 27:5 28:3 29:1 
-149.7690159159819 2:2 27:1 
-115.8877689665515 2:9 7:1 27:8 28:5 29:1 
-7.356014348107438 2:16 12:1 13:1 27:15 28:9 29:5 
-224.0903292375036 2:2 27:1 
-226.7205008259109 2:11 25:1 27:10 28:9 29:7 
-172.7071710766811 1:1 2:14 19:1 27:13 28:10 29:7 
-512 2:9 4:1 27:8 28:5 
-164.8922100549167 2:4 27:3 28:2 29:1 
-365.1740058955575 2:8 20:1 27:7 28:5 29:3 
-512 2:9 5:1 27:8 28:6 29:2 
-512 2:4 5:1 27:3 28:2 
-512 2:3 27:2 28:1 
-121.0516066378684 2:2 27:1 
-82.15136207764093 2:2 27:1 
-322.8357114031984 2:3 27:2 28:1 
-142.4423277605327 2:17 15:1 27:16 28:15 29:11 
-512 2:18 15:1 27:17 28:16 29:12 
-14.36994979009049 2:3 27:2 28:1 
-12.68226638568314 2:2 27:1 
-286.2323001482773 2:11 24:1 27:10 28:6 29:2 
-326.1082045717664 2:15 24:1 27:14 28:9 29:4 
-512 2:19 24:1 27:18 28:13 29:8 
-241.4834240584514 2:6 27:5 28:4 29:2 
-512 2:12 27:11 28:10 29:5 
-220.9938016060593 2:14 27:13 28:12 29:6 
-82.02003653194201 2:15 8:1 15:1 27:14 28:11 29:8 
-30.41680689187437 2:1 26:1 
-512 2:11 17:1 27:10 28:5 29:1 
-512 2:13 27:12 28:10 29:6 
-512 2:5 27:4 28:3 29:1 
-512 2:5 27:4 28:3 29:1 
-51.82658987128441 2:5 14:1 27:4 28:3 
-512 2:3 14:1 27:2 28:1 
-512 2:9 15:1 27:8 28:7 29:4 
-235.3542217843701 2:15 27:14 28:13 29:11 
-512 2:5 27:4 28:3 29:1 
-512 2:7 25:1 27:6 28:4 
-449.2368996007219 2:6 27:5 28:4 29:1 
-351.6419379658807 2:20 10:1 27:19 28:13 29:7 
-512 2:19 3:1 27:18 28:15 29:11 
-512 2:13 27:12 28:11 29:6 
-431.4237293956208 2:8 27:7 28:6 29:2 
-510.4834824835449 2:5 27:4 28:2 
-512 2:10 10:1 27:9 28:7 29:5 
-512 2:5 16:1 27:4 28:3 29:1 
-512 2:7 16:1 27:6 28:5 29:2 
-11.6666208259585 1:1 2:49 25:1 27:48 28:45 29:33 
-512 2:13 27:12 28:10 29:6 
-163.6091040629631 2:18 17:1 27:17 28:16 29:9 
-512 2:18 18:1 25:1 27:17 28:14 29:10 
-359.5554426439559 2:31 18:1 25:1 27:30 28:21 29:14 
-512 2:19 4:1 18:1 25:1 27:18 28:12 29:6 
-512 2:9 4:1 18:1 25:1 27:8 28:6 29:3 
-423.0089377494248 2:20 16:1 23:1 27:19 28:13 29:5 
-512 2:16 16:1 27:15 28:8 29:1 
-137.4816954295547 2:10 27:9 28:6 29:2 
-129.0873597520484 1:1 2:33 14:2 27:32 28:27 29:23 
-512 2:10 10:1 25:1 27:9 28:4 29:1 
-247.1126302234296 2:16 27:15 28:12 29:7 
-302.6195134246709 2:13 25:1 27:12 28:8 29:4 
-223.4553570863835 2:23 20:1 25:1 27:22 28:15 29:6 
-512 2:8 3:1 26:1 27:6 28:4 29:2 
-512 2:5 16:1 27:4 28:3 29:2 
-512 2:6 17:1 27:5 28:3 
-130.0316407817553 2:5 17:1 27:4 28:2 
-274.1690558715752 2:5 27:4 28:3 29:2 
-512 2:5 27:4 28:3 29:2 
-512 2:5 27:4 28:3 29:2 
-512 2:5 27:4 28:3 29:2 
-512 2:19 14:1 25:1 27:18 28:11 29:7 
-512 2:5 27:4 28:3 29:2 
-93.88779909840999 2:21 27:20 28:14 29:8 
-512 2:8 27:7 28:4 
-512 2:7 8:1 27:6 28:3 
-310.0131231823103 2:2 27:1 
-512 2:2 27:1 
-512 2:2 27:1 
-512 2:5 27:4 28:3 29:2 
-512 2:9 5:1 26:1 27:8 28:6 29:1 
-512 2:2 27:1 
-512 2:10 23:1 27:9 28:3 
-512 2:4 23:1 27:3 28:2 
-512 2:2 23:1 27:1 
-512 2:2 27:1 
-512 2:5 27:4 28:3 29:1 
-512 2:2 27:1 
-512 2:2 27:1 
-512 2:2 27:1 
-512 2:9 5:1 25:1 27:8 28:3 
-512 2:12 5:1 8:1 27:11 28:6 29:1 
-512 2:2 27:1 
-505.3437381573239 2:5 17:1 27:4 28:3 
-199.2878758186613 2:3 17:1 27:2 28:1 
-512 2:2 27:1 
-512 2:2 27:1 
-512 2:2 27:1 
-512 2:2 27:1 
-14.96493840963853 2:25 14:1 26:1 27:24 28:16 29:6 
-512 2:2 27:1 
-512 2:2 27:1 
-440.9297468186506 2:11 13:1 27:10 28:9 29:4 
-512 2:5 27:4 28:3 29:1 
-512 2:2 27:1 
-512 2:2 27:1 
-494.8349194476207 2:12 13:1 27:11 28:9 29:3 
-67.08737353505498 2:13 8:1 27:12 28:11 29:9 
-512 2:6 27:5 28:4 29:2 
-512 2:6 8:1 27:5 28:1 
-232.7437185193247 2:7 8:1 27:6 28:2 
-512 2:2 27:1 
-228.79012001264 2:5 12:1 27:4 28:3 
-1.301047037488312 2:25 24:1 26:1 27:24 28:21 29:16 
-110.898212594861 2:1 
-512 2:1 
-366.6216763912195 2:8 4:1 27:7 28:5 
-512 2:2 27:1 
-434.854583704406 2:4 27:3 28:2 29:1 
-445.3170708011436 2:11 25:1 27:10 28:6 29:2 
-252.1864195984711 2:19 16:1 26:1 27:18 28:16 29:9 
-512 2:1 
-512 2:2 27:1 
-244.0649513693033 2:9 12:1 27:8 28:7 29:5 
-512 2:15 12:1 27:14 28:13 29:8 
-24.82013133642868 2:24 25:1 27:23 28:13 29:7 
-512 2:2 27:1 
-512 2:2 27:1 
-512 2:2 27:1 
-512 2:4 27:3 28:2 29:1 
-408.2307311111623 2:14 14:1 27:13 28:8 29:3 
-512 2:2 27:1 
-512 2:4 27:3 28:2 29:1 
-512 2:2 27:1 
-512 2:2 27:1 
-512 2:1 
-512 2:3 27:2 28:1 
-512 2:2 27:1 
-512 2:1 
-512 2:2 27:1 
-512 2:1 
-512 2:2 27:1 
-512 2:4 27:3 28:2 29:1 
-512 2:1 
-512 2:3 27:2 28:1 
-512 2:2 27:1 
-512 2:2 27:1 
-512 2:2 27:1 
-512 2:22 3:1 27:21 28:18 29:12 
