svm_type c_svc
kernel_type rbf
gamma 0.000488288
nr_class 2
total_sv 516
rho 22.6976
label 1 -1
nr_sv 239 277
SV
32768 2:12 27:11 28:10 29:5 
32768 2:4 27:3 28:1 
32768 2:10 4:1 5:1 8:1 27:9 28:5 
26507.83371434309 2:8 4:1 5:1 8:1 27:7 28:4 
32768 2:8 5:1 27:7 28:4 
8158.11149787749 2:6 5:1 27:5 28:2 
32768 2:2 27:1 
32768 2:8 27:7 28:5 29:4 
32768 2:2 27:1 
32768 2:24 25:1 27:23 28:14 29:7 
32768 2:11 25:1 27:10 28:8 29:4 
32768 2:12 4:1 17:1 27:11 28:7 29:2 
32768 2:2 27:1 
32768 2:2 27:1 
32768 2:7 12:1 14:1 27:6 28:4 
32768 2:2 27:1 
32768 2:10 15:1 27:9 28:5 29:1 
32768 2:3 27:2 28:1 
32768 2:7 27:6 28:5 29:2 
32768 2:6 27:5 28:4 29:1 
32768 2:4 27:3 28:2 29:1 
32768 2:10 25:1 27:9 28:7 29:1 
32768 2:11 25:1 27:10 28:8 29:2 
32768 2:13 25:1 27:12 28:10 29:4 
32768 2:8 27:7 28:6 29:3 
32768 2:9 27:8 28:7 29:4 
32768 2:10 27:9 28:8 29:5 
32768 2:12 27:11 28:10 29:7 
32768 2:18 20:1 27:17 28:15 29:10 
32768 2:2 27:1 
32768 2:10 25:1 27:9 28:7 29:4 
32768 2:5 14:1 27:4 28:3 
32768 2:11 25:1 27:10 28:5 29:1 
32768 2:24 15:1 27:23 28:20 29:14 
32768 2:11 9:1 15:1 27:10 28:9 29:5 
32768 2:16 15:1 27:15 28:11 29:7 
32768 2:14 19:1 26:1 27:13 28:11 29:3 
32768 2:20 27:19 28:16 29:8 
32768 2:22 27:21 28:18 29:10 
32768 2:18 27:17 28:14 29:8 
32768 2:20 27:19 28:16 29:10 
6065.98135488864 2:11 11:1 27:10 28:9 29:5 
1349.824748015365 2:12 4:1 16:1 22:1 27:11 28:7 29:3 
2469.353289323543 2:25 21:1 27:24 28:19 29:14 
32768 2:2 27:1 
9050.016698356741 2:12 6:1 25:2 27:11 28:7 29:2 
32768 2:6 17:1 27:5 28:3 
32768 2:5 27:4 28:3 29:1 
4502.527577821012 2:4 19:1 27:3 28:2 29:1 
32768 2:12 27:11 28:9 29:6 
32768 2:7 20:1 27:6 28:5 29:4 
32768 2:7 12:1 27:6 28:5 29:3 
32768 2:3 27:2 28:1 
32768 2:4 27:3 28:1 
32768 2:6 27:5 28:3 
32768 2:15 17:1 27:14 28:11 29:8 
32768 2:10 4:1 6:1 27:9 28:6 29:1 
32768 2:9 4:1 6:1 27:8 28:5 29:2 
32768 2:7 6:2 26:1 27:6 28:4 29:2 
32768 2:5 27:4 28:3 29:2 
32768 2:4 17:1 27:3 28:2 29:1 
32768 2:2 27:1 
32768 2:6 17:1 27:5 28:3 
32768 2:13 27:12 28:8 29:4 
32768 2:10 27:9 28:8 29:3 
32768 2:12 27:11 28:6 29:3 
32768 2:7 27:6 28:5 29:3 
32768 2:17 27:16 28:15 29:12 
32768 2:2 27:1 
32768 2:4 27:3 28:2 
32768 2:7 6:1 27:6 28:4 29:2 
32768 2:2 27:1 
32768 2:17 27:16 28:14 29:9 
32768 2:6 23:1 27:5 28:3 29:1 
32768 2:2 27:1 
3336.586578079997 2:6 16:1 27:5 28:4 29:2 
32768 2:16 10:1 27:15 28:12 29:9 
32768 2:5 27:4 28:3 29:2 
32768 2:7 27:6 28:5 29:4 
32768 2:8 27:7 28:5 29:2 
25070.10405326624 2:8 16:1 27:7 28:6 29:1 
788.5261228029972 2:11 6:1 27:10 28:9 29:3 
32768 2:2 27:1 
32768 2:10 8:1 27:9 28:4 29:1 
32768 2:10 15:1 27:9 28:8 29:6 
32768 2:2 27:1 
32768 2:6 20:1 26:1 27:5 28:4 29:3 
32768 2:5 27:4 28:3 29:1 
32768 2:2 27:1 
32768 2:9 27:7 28:4 29:2 
32768 2:11 27:10 28:8 29:3 
32768 2:9 27:8 28:4 29:1 
32768 2:2 27:1 
32768 2:2 27:1 
32768 2:2 27:1 
32768 2:2 27:1 
32768 2:7 27:6 28:5 29:2 
32768 2:5 27:4 28:1 
32768 2:4 27:3 28:2 
32768 2:2 27:1 
32768 2:3 27:2 
32768 2:4 25:1 27:3 28:2 29:1 
32768 2:14 3:1 9:1 13:1 25:1 27:13 28:9 29:4 
32768 2:30 25:1 27:29 28:24 29:17 
32768 2:8 26:1 27:7 28:3 
32768 2:7 9:1 27:6 28:4 29:2 
32768 2:5 9:1 27:4 28:2 29:1 
32768 2:10 27:9 28:6 29:1 
32768 2:7 27:6 28:4 29:1 
32768 2:2 27:1 
32768 2:4 25:1 27:3 28:2 29:1 
32768 2:15 8:1 27:14 28:12 29:10 
32768 2:9 9:1 27:8 28:7 29:2 
23872.21481821139 2:3 16:1 27:2 28:1 
32768 2:2 15:1 27:1 
32768 2:15 10:1 11:1 25:1 27:14 28:10 29:7 
32768 2:5 27:4 28:3 29:2 
32768 2:6 27:5 28:4 29:3 
32768 2:14 17:1 18:1 27:13 28:12 29:8 
6.804506780723268 2:44 15:1 27:43 28:37 29:27 
9262.012037076012 2:39 15:1 27:38 28:32 29:23 
5227.915163145733 2:24 18:1 25:1 27:23 28:17 29:7 
32768 2:26 18:1 25:1 27:25 28:19 29:9 
32768 2:1 
32768 2:4 27:3 28:2 
32768 2:2 27:1 
32768 2:3 27:2 
32768 2:4 16:1 27:3 28:1 
32768 2:2 27:1 
32768 2:12 27:11 28:7 29:4 
12495.03676417406 2:15 8:1 16:1 27:14 28:7 29:2 
32768 2:14 14:1 27:13 28:12 29:10 
12357.86544217285 2:22 14:1 27:21 28:19 29:16 
32768 2:7 10:1 27:6 28:5 29:3 
32768 2:2 27:1 
32768 2:7 14:1 27:6 28:5 29:2 
23212.59058433735 2:5 10:1 27:4 28:3 
32768 2:7 10:1 27:6 28:5 29:2 
32768 2:5 27:4 28:3 29:1 
7251.770860363875 2:12 18:1 25:1 27:11 28:9 29:5 
32768 2:6 23:1 27:5 28:4 29:2 
32768 2:2 27:1 
32768 2:4 25:1 27:3 28:2 29:1 
32768 2:5 27:4 28:2 
32768 2:15 25:1 27:13 28:10 29:8 
32768 2:9 17:1 27:8 28:4 29:1 
26335.41870370272 2:13 18:1 25:1 27:12 28:8 29:3 
7829.720898374068 2:2 18:1 27:1 
32768 2:2 27:1 
32768 2:13 17:1 27:12 28:9 29:4 
32768 2:3 27:2 
23260.95754083907 2:13 7:1 16:1 27:12 28:8 29:5 
16043.57708030748 2:16 7:1 16:1 27:15 28:10 29:6 
32768 2:11 13:1 27:10 28:9 29:5 
32768 2:5 27:4 28:3 29:2 
32768 2:5 10:1 27:4 28:3 29:2 
32768 2:4 27:3 28:2 
32768 2:2 27:1 
32768 2:2 27:1 
32768 2:2 27:1 
32768 2:9 5:1 27:8 28:4 29:1 
32768 2:12 5:1 27:11 28:6 29:2 
32768 2:7 5:1 27:6 28:3 29:1 
32768 2:10 5:1 27:9 28:5 29:2 
32768 2:17 3:1 10:1 27:16 28:13 29:8 
13757.06262200002 2:27 3:1 10:1 14:1 27:26 28:19 29:12 
32768 2:11 27:10 28:9 29:7 
32768 2:6 10:1 27:5 28:4 29:2 
32768 2:14 10:1 27:13 28:11 29:7 
32768 2:15 10:1 24:1 27:14 28:13 29:9 
32768 2:16 10:1 24:1 27:15 28:14 29:10 
11704.26140475342 2:24 10:1 24:1 27:23 28:21 29:15 
32768 2:5 26:1 27:4 28:2 
32768 2:5 27:4 28:2 
32768 2:6 17:1 24:1 27:5 28:4 29:2 
32768 2:13 17:1 24:2 27:12 28:7 29:2 
32768 2:13 7:1 14:1 27:12 28:7 29:2 
32768 2:2 27:1 
32768 2:2 27:1 
32768 2:2 27:1 
32768 2:7 27:6 28:5 29:3 
32768 2:5 27:4 28:3 29:2 
32768 2:5 27:4 28:3 29:2 
32768 2:16 12:1 27:15 28:14 29:8 
32768 2:6 25:1 27:5 28:3 
32768 2:1 
32768 2:1 
0.06027011538430053 2:1 8:1 23:1 
28.37590186420849 2:2 
4.726443081209731 2:2 
131.9688094241478 2:2 
22.29228062365155 2:2 
20.36498708880081 2:2 
19.5361910160941 2:2 
0.7838333797240372 2:2 
32768 2:1 
1.937224178427294 2:2 
13.53488006435731 2:2 
14.27220928987162 2:2 
2.281779304278505 2:2 
11.61517489821337 2:2 
16.39238964654425 2:2 
2.612660788828335 2:2 
32768 2:1 
22.4559497194217 2:2 
27.86372343394747 2:2 
929.4252658365622 2:1 8:1 23:1 
19.71919303596348 2:2 
0.9556157884587716 2:2 
70.68941143265272 2:2 
63.18908746222319 2:2 
75.02200740169201 2:2 
78.3980548200458 2:2 
116.5066312695874 2:2 
147.158808543891 2:2 
15.36443216973086 2:2 
113.4119950155251 2:2 
55.27132585542755 2:2 
94.91954331241018 2:2 
41.15892668034923 2:2 
136.4562843908154 2:2 
32768 2:1 
6225.723482192147 2:1 8:1 23:1 
230.6831607094089 2:2 
50.59538236299203 2:2 
73.6062984040371 2:2 
32768 2:1 
1.155775786388796 2:2 
2440.85241253908 2:1 8:1 23:1 
658.8862074706784 2:2 
654.9430292518573 2:2 
70.95800927207503 2:2 
32768 2:1 
28.85249126638105 2:2 
21324.38115791226 2:1 8:1 23:1 
38.93558081830703 2:2 
170.7292086119767 2:2 
80.41077499495059 2:2 
380.9482865400288 2:2 
-340.9724587732322 2:1 
-846.9567030750543 2:1 
-132.4191541099031 2:1 
-31238.02664976551 2:5 27:4 28:3 
-8432.637791569767 2:14 27:13 28:10 29:4 
-32768 2:11 25:1 27:10 28:9 29:6 
-28396.87517534368 2:27 25:1 27:26 28:22 29:12 
-184.7786964356191 2:12 17:1 27:11 28:8 29:5 
-32768 2:14 17:1 27:13 28:10 29:7 
-32768 2:4 27:3 28:2 29:1 
-2948.625836944163 2:1 
-32768 2:4 27:3 28:2 29:1 
-174.640273319144 2:1 
-1153.097561721036 2:14 5:1 8:1 27:13 28:10 29:7 
-4190.82056281042 2:2 26:1 27:1 
-32768 2:13 27:12 28:10 29:5 
-3995.506358857103 2:29 25:2 27:28 28:23 29:11 
-448.6649929944659 2:31 27:30 28:25 29:13 
-3482.923668806613 2:34 25:2 27:33 28:27 29:15 
-22779.58605691771 2:18 25:2 27:17 28:13 29:5 
-32768 2:22 27:21 28:17 29:9 
-4676.753758540218 2:16 25:2 27:15 28:11 29:5 
-11871.02426921613 2:18 27:17 28:13 29:7 
-6852.789571403343 2:4 27:3 
-7494.163895110301 2:7 7:1 27:6 28:2 
-16459.5108105297 2:4 27:3 28:2 29:1 
-1148.560376971691 2:1 
-32768 2:4 27:3 28:2 29:1 
-27709.04338572072 2:6 20:1 27:5 28:3 29:2 
-32768 2:4 27:3 28:2 29:1 
-32768 2:13 20:1 27:12 28:10 29:6 
-9441.595324887106 2:20 20:1 27:19 28:16 29:11 
-3270.634335797685 2:33 20:1 27:32 28:29 29:24 
-32768 2:11 27:10 28:9 29:5 
-32768 2:11 17:1 27:10 28:6 29:3 
-32768 2:4 27:3 28:1 
-32768 2:10 9:1 15:1 27:9 28:8 29:5 
-29679.18859662344 2:12 9:1 15:1 27:11 28:10 29:6 
-4022.184855763311 2:41 9:1 15:2 27:40 28:36 29:25 
-25310.89919655582 2:10 17:1 27:9 28:7 29:5 
-32768 2:9 27:8 28:6 29:2 
-32768 2:12 19:1 26:1 27:11 28:9 29:3 
-589.7563581604921 2:4 27:3 28:2 29:1 
-32768 2:8 27:7 28:4 
-32768 2:4 27:3 
-44.36834898126358 2:2 27:1 
-32768 2:7 9:1 27:6 28:3 29:2 
-32768 2:8 9:1 27:7 28:4 29:3 
-32768 2:10 9:1 27:9 28:6 29:5 
-29474.44388400751 2:1 
-135.1333015196016 2:2 27:1 
-12062.97738480301 2:4 27:3 
-235.2366162553484 2:2 27:1 
-186.4907685152112 2:1 
-2647.807275793739 2:1 
-32768 2:7 10:1 25:1 27:6 28:4 29:1 
-32768 2:5 25:1 27:4 28:2 
-32768 2:7 6:1 27:6 28:5 29:1 
-32768 2:5 4:1 6:1 27:4 28:1 
-32768 2:6 6:1 27:5 28:4 29:1 
-9063.300418361874 2:4 6:1 26:1 27:3 28:2 29:1 
-32768 2:14 6:1 26:1 27:13 28:8 29:2 
-160.3083678155685 2:41 19:1 20:1 27:40 28:34 29:21 
-1903.073616270359 2:26 4:1 6:1 19:1 27:25 28:22 29:14 
-9711.767480031664 2:24 27:23 28:20 29:12 
-32768 2:6 17:1 27:5 28:4 29:1 
-32768 2:11 17:1 27:10 28:6 29:3 
-32768 2:10 5:1 8:1 27:9 28:6 29:2 
-6792.905235056336 2:12 25:1 27:11 28:6 
-32768 2:10 5:1 25:1 27:9 28:6 29:4 
-22351.28927495504 2:9 23:1 27:8 28:7 29:5 
-15118.31816085171 2:4 27:3 28:2 29:1 
-63.97448031547692 2:2 27:1 
-30209.61059038976 2:17 27:16 28:13 29:9 
-1851.497443937126 1:1 2:6 11:1 25:1 27:5 28:4 29:1 
-32768 2:11 10:1 27:10 28:8 29:5 
-18770.58479895447 2:6 27:5 28:3 
-26477.28486058977 2:16 3:1 27:15 28:13 29:7 
-16815.00743421623 2:31 15:1 27:30 28:21 29:15 
-32768 2:10 10:1 14:1 27:9 28:6 29:1 
-20632.7806404854 2:1 25:1 
-32768 2:7 6:1 27:6 28:4 29:2 
-32768 2:9 27:8 28:7 29:3 
-2517.273152305313 2:4 27:3 28:2 29:1 
-2430.176781258323 2:1 
-19435.41869804601 2:4 27:3 28:2 29:1 
-338.162768093513 2:1 
-30.12799707633308 2:2 27:1 
-956.6687271420342 2:5 27:4 28:3 
-32768 2:4 27:3 28:1 
-26141.92868775913 2:4 27:3 28:2 29:1 
-1439.762124103419 2:4 27:3 28:2 29:1 
-3091.838858768002 2:19 11:1 27:18 28:17 29:12 
-32768 2:15 11:1 27:14 28:13 29:10 
-1376.385437991085 2:4 27:3 28:2 29:1 
-41.63820043848474 2:2 27:1 
-8518.573857299521 2:11 7:1 24:1 27:10 28:8 29:3 
-24081.02599215706 2:18 7:1 24:1 27:17 28:14 29:7 
-32768 2:11 7:1 24:1 27:10 28:8 29:5 
-2394.360256098451 2:4 27:3 28:2 29:1 
-13345.45138897555 2:20 27:18 28:15 29:8 
-1233.056282827102 2:2 22:1 26:1 27:1 
-2463.881843739402 2:1 
-32768 2:4 27:3 28:2 29:1 
-331.3481424393216 2:1 
-664.7332330914111 2:1 
-123.0081458397296 2:2 27:1 
-32768 2:4 27:3 28:2 29:1 
-32768 2:8 25:1 27:7 28:4 29:1 
-17705.32326737295 2:12 24:1 25:1 27:11 28:9 29:1 
-32768 2:5 8:1 27:4 28:2 29:1 
-836.6801182343178 2:22 7:1 13:1 24:1 27:21 28:17 29:12 
-18246.67809056172 2:2 24:1 27:1 
-17639.52451095379 2:5 27:4 28:3 
-3225.005076228837 2:14 27:13 28:12 29:11 
-32768 2:7 14:1 27:6 28:5 29:4 
-32768 2:11 14:1 27:10 28:8 29:4 
-32768 2:13 17:1 27:11 28:9 29:5 
-233.9069458997831 2:1 
-261.5411338866194 2:2 27:1 
-26848.75206175205 2:10 15:1 27:9 28:7 29:5 
-32768 2:8 15:1 27:7 28:5 29:3 
-32768 2:10 27:9 28:7 29:2 
-32768 2:12 10:1 27:11 28:10 29:7 
-32768 2:14 10:1 27:13 28:12 29:9 
-20357.26630079472 2:21 10:1 27:20 28:18 29:13 
-32768 2:23 10:1 27:22 28:20 29:15 
-32768 2:9 10:1 27:8 28:7 29:4 
-32768 2:11 10:1 27:10 28:9 29:6 
-23901.16153480007 2:18 10:1 27:17 28:15 29:10 
-203.9969222984149 2:1 
-25.44756308630636 2:2 27:1 
-65.57667971426579 2:2 27:1 
-12292.97787190772 2:19 12:1 13:1 27:18 28:14 29:7 
-17799.28578608444 2:11 13:1 27:10 28:7 29:4 
-6892.397953308616 2:6 12:1 27:5 28:3 29:1 
-355.8586245876783 2:2 27:1 
-31926.99964420285 2:11 25:1 27:10 28:9 29:7 
-32768 2:9 4:1 27:8 28:5 
-10922.1941038861 2:4 27:3 28:2 29:1 
-32768 2:9 27:8 28:5 29:2 
-17.87169320841515 2:1 
-25338.43048647508 2:8 20:1 27:7 28:5 29:3 
-32768 2:9 5:1 27:8 28:6 29:2 
-32768 2:4 5:1 27:3 28:2 
-195.6647789912166 2:2 27:1 
-20264.34716235775 2:18 15:1 27:17 28:16 29:12 
-2641.642325225632 2:1 
-58.5985630311558 2:2 27:1 
-6563.859657048946 2:11 24:1 27:10 28:6 29:2 
-32768 2:15 24:1 27:14 28:9 29:4 
-32768 2:19 24:1 27:18 28:13 29:8 
-4899.664096439988 2:1 
-32768 2:4 27:3 28:2 29:1 
-26477.13983794796 2:4 27:3 28:2 29:1 
-2132.701242301088 2:15 8:1 15:1 27:14 28:11 29:8 
-32768 2:1 26:1 
-32768 2:11 17:1 27:10 28:5 29:1 
-26736.66002015152 2:13 27:12 28:10 29:6 
-3092.815082578319 2:1 
-32768 2:4 27:3 28:2 29:1 
-32768 2:4 27:3 28:2 29:1 
-2916.823334946484 2:1 
-3462.47481126771 2:1 
-32768 2:4 27:3 28:2 29:1 
-9880.734488534054 2:1 
-297.4943927246441 2:1 
-32768 2:4 27:3 28:2 29:1 
-32768 2:4 27:3 28:2 29:1 
-32768 2:4 27:3 28:2 29:1 
-6509.27551367212 2:5 14:1 27:4 28:3 
-23316.10588921124 2:3 14:1 27:2 28:1 
-32768 2:9 15:1 27:8 28:7 29:4 
-313.2215286841781 2:1 
-32768 2:4 27:3 28:2 29:1 
-2568.392253303087 2:1 
-6518.710033470156 2:1 
-32768 2:7 25:1 27:6 28:4 
-696.4892162442636 2:19 3:1 27:18 28:15 29:11 
-32768 2:11 27:10 28:9 29:5 
-16300.0156632367 2:10 27:9 28:8 29:4 
-32768 2:8 27:7 28:6 29:2 
-2998.761445830241 2:1 
-32768 2:10 10:1 27:9 28:7 29:5 
-32768 2:5 16:1 27:4 28:3 29:1 
-32768 2:7 16:1 27:6 28:5 29:2 
-32767.96004641733 2:1 
-28793.14895381607 2:4 27:3 28:2 29:1 
-1984.375815236461 2:13 27:12 28:10 29:6 
-17548.37875991141 2:20 17:1 27:19 28:17 29:10 
-32768 2:18 18:1 25:1 27:17 28:14 29:10 
-12749.49971453268 2:31 18:1 25:1 27:30 28:21 29:14 
-30961.64096071988 2:19 4:1 18:1 25:1 27:18 28:12 29:6 
-32768 2:9 4:1 18:1 25:1 27:8 28:6 29:3 
-4196.971936565518 2:20 16:1 23:1 27:19 28:13 29:5 
-32768 2:16 16:1 27:15 28:8 29:1 
-32768 2:9 27:8 28:5 29:2 
-3878.718165157065 1:1 2:33 14:2 27:32 28:27 29:23 
-32768 2:10 10:1 25:1 27:9 28:4 29:1 
-32768 2:16 27:15 28:12 29:7 
-32768 2:4 27:3 28:1 
-21106.55622334763 2:8 3:1 26:1 27:6 28:4 29:2 
-32768 2:4 27:3 28:1 
-32768 2:5 16:1 27:4 28:3 29:2 
-32768 2:6 17:1 27:5 28:3 
-22448.44027918339 2:5 17:1 27:4 28:2 
-32768 2:4 27:3 28:2 29:1 
-32768 2:4 27:3 28:2 29:1 
-27412.3999610657 2:14 27:13 28:12 29:11 
-32768 2:19 14:1 25:1 27:18 28:11 29:7 
-32768 2:4 27:3 28:1 
-32768 2:8 27:7 28:4 
-32768 2:7 8:1 27:6 28:3 
-2695.923226799374 2:9 8:1 27:8 28:5 
-8162.643871079028 2:2 27:1 
-32768 2:2 27:1 
-32768 2:2 27:1 
-32768 2:9 5:1 26:1 27:8 28:6 29:1 
-32768 2:2 27:1 
-4879.52746601895 2:10 23:1 27:9 28:3 
-32768 2:9 27:8 28:5 29:2 
-32768 2:4 23:1 27:3 28:2 
-32768 2:2 23:1 27:1 
-32768 2:2 27:1 
-3334.233806573486 2:4 27:3 28:2 29:1 
-32768 2:2 27:1 
-32768 2:2 27:1 
-32768 2:2 27:1 
-32768 2:4 27:3 
-32768 2:9 5:1 25:1 27:8 28:3 
-32768 2:12 5:1 8:1 27:11 28:6 29:1 
-32768 2:2 27:1 
-32768 2:5 17:1 27:4 28:3 
-32768 2:2 27:1 
-32768 2:2 27:1 
-32768 2:2 27:1 
-31529.20750323101 2:2 27:1 
-32768 2:2 27:1 
-32386.03831716874 2:2 27:1 
-25564.10935312114 2:5 27:4 28:3 
-28410.12613751491 2:10 27:9 28:8 29:4 
-25021.89242521497 2:11 13:1 27:10 28:9 29:4 
-221.6753636155481 2:1 
-32768 2:2 27:1 
-32702.16544963461 2:2 27:1 
-10351.56410457902 2:10 13:1 27:9 28:7 29:3 
-1765.033283227259 2:13 8:1 27:12 28:11 29:9 
-16762.47922692775 2:18 8:1 27:17 28:16 29:13 
-11477.00293382516 2:7 8:1 27:6 28:2 
-28507.6108048079 2:1 
-32768 2:2 27:1 
-32768 2:5 12:1 27:4 28:3 
-30850.9464983578 2:1 
-17567.6486400883 2:1 
-32768 2:8 4:1 27:7 28:5 
-32768 2:2 27:1 
-32768 2:9 27:8 28:5 29:2 
-6210.281834541864 2:4 27:3 28:2 29:1 
-30484.01953668147 2:1 
-32768 2:2 27:1 
-26380.7076160549 2:9 12:1 27:8 28:7 29:5 
-20464.23203860122 2:15 12:1 27:14 28:13 29:8 
-32768 2:4 27:3 
-32768 2:2 27:1 
-30874.7026633058 2:2 27:1 
-1321.198005562886 2:4 27:3 28:2 29:1 
-19652.4393211635 2:14 14:1 27:13 28:8 29:3 
-32768 2:2 27:1 
-9214.434471787119 2:4 27:3 28:2 29:1 
-25104.04124074251 2:1 
-8284.395313174602 2:2 27:1 
-32768 2:1 
-32768 2:1 
-32768 2:4 27:3 28:2 29:1 
-32768 2:1 
-32768 2:2 27:1 
-32768 2:22 3:1 27:21 28:18 29:12 
