svm_type c_svc
kernel_type rbf
gamma 8
nr_class 2
total_sv 987
rho 0.393657
label 1 -1
nr_sv 413 574
SV
1.233128922738798 2:0.352941 19:1 27:0.352941 28:0.322034 29:0.25 
8 2:0.161765 27:0.161765 28:0.169492 29:0.104167 
8 2:0.0441176 27:0.0441176 28:0.0169492 
0.7655916062146837 2:0.132353 4:1 5:1 8:1 27:0.132353 28:0.0847458 
3.214595948280302 2:0.0735294 5:1 27:0.0735294 28:0.0338983 
8 2:0.0147059 27:0.0147059 
1.696235678416669 2:0.132353 14:0.5 19:0.333333 27:0.132353 28:0.135593 29:0.0833333 
8 2:0.102941 27:0.102941 28:0.0847458 29:0.0833333 
8 2:0.0147059 27:0.0147059 
8 2:0.338235 25:0.5 27:0.338235 28:0.237288 29:0.145833 
8 2:0.147059 25:0.5 27:0.147059 28:0.135593 29:0.0833333 
8 2:0.161765 4:1 17:0.5 27:0.161765 28:0.118644 29:0.0416667 
8 2:0.0147059 27:0.0147059 
8 2:0.0147059 27:0.0147059 
1.477087731677226 2:0.0882353 12:1 14:0.5 27:0.0882353 28:0.0677966 
8 2:0.0147059 27:0.0147059 
8 2:0.132353 15:0.5 27:0.132353 28:0.0847458 29:0.0208333 
8 2:0.0294118 27:0.0294118 28:0.0169492 
8 2:0.0882353 27:0.0882353 28:0.0847458 29:0.0416667 
8 2:0.0735294 27:0.0735294 28:0.0677966 29:0.0208333 
8 2:0.0441176 27:0.0441176 28:0.0338983 29:0.0208333 
8 2:0.132353 25:0.5 27:0.132353 28:0.118644 29:0.0208333 
8 2:0.147059 25:0.5 27:0.147059 28:0.135593 29:0.0416667 
8 2:0.176471 25:0.5 27:0.176471 28:0.169492 29:0.0833333 
8 2:0.102941 27:0.102941 28:0.101695 29:0.0625 
8 2:0.117647 27:0.117647 28:0.118644 29:0.0833333 
8 2:0.132353 27:0.132353 28:0.135593 29:0.104167 
8 2:0.161765 27:0.161765 28:0.169492 29:0.145833 
8 2:0.25 20:1 27:0.25 28:0.254237 29:0.208333 
8 2:0.0147059 27:0.0147059 
8 2:0.132353 25:0.5 27:0.132353 28:0.118644 29:0.0833333 
8 2:0.0588235 14:0.5 27:0.0588235 28:0.0508475 
8 2:0.147059 25:0.5 27:0.147059 28:0.0847458 29:0.0208333 
8 2:0.338235 15:0.5 27:0.338235 28:0.338983 29:0.291667 
8 2:0.147059 9:1 15:0.5 27:0.147059 28:0.152542 29:0.104167 
8 2:0.220588 15:0.5 27:0.220588 28:0.186441 29:0.145833 
1.105480054585678 2:0.308824 6:0.5 15:0.5 27:0.308824 28:0.305085 29:0.166667 
0.9883965992171065 2:0.235294 8:1 15:0.5 18:1 27:0.235294 28:0.186441 29:0.145833 
1.478678591983464 2:0.294118 19:0.333333 27:0.294118 28:0.237288 29:0.166667 
8 2:0.191176 19:0.333333 26:1 27:0.191176 28:0.186441 29:0.0625 
8 2:0.279412 27:0.279412 28:0.271186 29:0.166667 
8 2:0.308824 27:0.308824 28:0.305085 29:0.208333 
8 2:0.25 27:0.25 28:0.237288 29:0.166667 
8 2:0.279412 27:0.279412 28:0.271186 29:0.208333 
0.863379645990334 2:0.176471 16:1 22:1 27:0.176471 28:0.152542 29:0.0833333 
6.111965070904255 2:0.147059 11:1 27:0.147059 28:0.152542 29:0.104167 
0.8184813937783308 2:0.161765 4:1 16:1 22:1 27:0.161765 28:0.118644 29:0.0625 
1.074797759031035 2:0.382353 21:1 27:0.382353 28:0.355932 29:0.291667 
0.4053735727011586 2:0.235294 21:1 27:0.235294 28:0.237288 29:0.229167 
8 2:0.0147059 27:0.0147059 
0.9164205289181857 2:0.161765 6:0.5 25:1 27:0.161765 28:0.118644 29:0.0416667 
8 2:0.0735294 17:0.5 27:0.0735294 28:0.0508475 
8 2:0.0588235 27:0.0588235 28:0.0508475 29:0.0208333 
1.444681487157143 2:0.0441176 19:0.333333 27:0.0441176 28:0.0338983 29:0.0208333 
8 2:0.161765 27:0.161765 28:0.152542 29:0.125 
8 2:0.0882353 20:1 27:0.0882353 28:0.0847458 29:0.0833333 
8 2:0.0882353 12:1 27:0.0882353 28:0.0847458 29:0.0625 
8 2:0.0294118 27:0.0294118 28:0.0169492 
8 2:0.0441176 27:0.0441176 28:0.0169492 
8 2:0.0735294 27:0.0735294 28:0.0508475 
8 2:0.205882 17:0.5 27:0.205882 28:0.186441 29:0.166667 
5.47993641212075 2:0.117647 4:1 6:0.5 27:0.117647 28:0.0847458 29:0.0416667 
1.119208966178916 2:0.294118 6:1 26:1 27:0.294118 28:0.237288 29:0.104167 
0.9294976981151222 2:0.205882 4:1 6:0.5 19:0.666667 20:1 27:0.205882 28:0.169492 29:0.125 
2.086282469986275 2:0.235294 19:0.333333 20:1 27:0.235294 28:0.20339 29:0.125 
8 2:0.0588235 27:0.0588235 28:0.0508475 29:0.0416667 
8 2:0.0441176 17:0.5 27:0.0441176 28:0.0338983 29:0.0208333 
8 2:0.0147059 27:0.0147059 
8 2:0.0735294 17:0.5 27:0.0735294 28:0.0508475 
8 2:0.176471 27:0.176471 28:0.135593 29:0.0833333 
8 2:0.132353 27:0.132353 28:0.135593 29:0.0625 
8 2:0.161765 27:0.161765 28:0.101695 29:0.0625 
8 2:0.0882353 27:0.0882353 28:0.0847458 29:0.0625 
8 2:0.235294 27:0.235294 28:0.254237 29:0.25 
0.882396223201721 2:0.0882353 5:1 23:0.5 25:0.5 27:0.0882353 28:0.0677966 29:0.0208333 
8 2:0.0147059 27:0.0147059 
8 2:0.0441176 27:0.0441176 28:0.0338983 
8 2:0.0882353 6:0.5 27:0.0882353 28:0.0677966 29:0.0416667 
8 2:0.0147059 27:0.0147059 
8 2:0.235294 27:0.235294 28:0.237288 29:0.1875 
8 2:0.0735294 23:0.5 27:0.0735294 28:0.0508475 29:0.0208333 
8 2:0.0147059 27:0.0147059 
8 2:0.132353 16:1 27:0.132353 28:0.101695 29:0.0833333 
8 2:0.220588 10:1 27:0.220588 28:0.20339 29:0.1875 
8 2:0.0588235 27:0.0588235 28:0.0508475 29:0.0416667 
8 2:0.0882353 27:0.0882353 28:0.0847458 29:0.0833333 
8 2:0.102941 27:0.102941 28:0.0847458 29:0.0416667 
8 2:0.132353 16:1 27:0.132353 28:0.135593 29:0.0416667 
6.158178005353104 2:0.102941 16:1 27:0.102941 28:0.101695 29:0.0208333 
8 2:0.147059 6:0.5 27:0.147059 28:0.152542 29:0.0625 
0.8731158303908517 2:0.25 6:1 27:0.25 28:0.254237 29:0.145833 
8 2:0.0147059 27:0.0147059 
8 2:0.132353 8:1 27:0.132353 28:0.0677966 29:0.0208333 
0.8677200528808607 2:0.161765 11:1 17:0.5 27:0.161765 28:0.135593 29:0.104167 
8 2:0.132353 15:0.5 27:0.132353 28:0.135593 29:0.125 
8 2:0.0147059 27:0.0147059 
0.7418742430422445 2:0.0735294 20:1 26:1 27:0.0735294 28:0.0677966 29:0.0625 
8 2:0.0588235 27:0.0588235 28:0.0508475 29:0.0208333 
8 2:0.0147059 27:0.0147059 
8 2:0.117647 27:0.102941 28:0.0677966 29:0.0416667 
8 2:0.147059 27:0.147059 28:0.135593 29:0.0625 
8 2:0.117647 27:0.117647 28:0.0677966 29:0.0208333 
8 2:0.0147059 27:0.0147059 
8 2:0.0147059 27:0.0147059 
8 2:0.0147059 27:0.0147059 
8 2:0.0147059 27:0.0147059 
8 2:0.0882353 27:0.0882353 28:0.0847458 29:0.0416667 
8 2:0.0588235 27:0.0588235 28:0.0169492 
8 2:0.0441176 27:0.0441176 28:0.0338983 
8 2:0.0147059 27:0.0147059 
8 2:0.0294118 27:0.0294118 
8 2:0.0441176 25:0.5 27:0.0441176 28:0.0338983 29:0.0208333 
1.141430620457509 2:0.25 3:1 16:1 27:0.25 28:0.271186 29:0.229167 
0.8788684152271795 2:0.191176 3:1 9:1 13:1 25:0.5 27:0.191176 28:0.152542 29:0.0833333 
8 2:0.426471 25:0.5 27:0.426471 28:0.40678 29:0.354167 
8 2:0.102941 26:1 27:0.102941 28:0.0508475 
8 2:0.0882353 9:1 27:0.0882353 28:0.0677966 29:0.0416667 
7.895795760689089 2:0.0588235 9:1 27:0.0588235 28:0.0338983 29:0.0208333 
8 2:0.132353 27:0.132353 28:0.101695 29:0.0208333 
8 2:0.0882353 27:0.0882353 28:0.0677966 29:0.0208333 
8 2:0.0147059 27:0.0147059 
8 2:0.0441176 25:0.5 27:0.0441176 28:0.0338983 29:0.0208333 
8 2:0.205882 8:1 27:0.205882 28:0.20339 29:0.208333 
8 2:0.117647 9:1 27:0.117647 28:0.118644 29:0.0416667 
6.316524181978191 2:0.0147059 15:0.5 27:0.0147059 
0.9436905705382864 2:0.205882 10:1 11:1 25:0.5 27:0.205882 28:0.169492 29:0.145833 
8 2:0.0588235 27:0.0588235 28:0.0508475 29:0.0416667 
8 2:0.0735294 27:0.0735294 28:0.0677966 29:0.0625 
0.9218094220345393 2:0.191176 17:0.5 18:1 27:0.191176 28:0.20339 29:0.166667 
3.096613358055978 2:0.558824 15:0.5 27:0.558824 28:0.542373 29:0.479167 
2.040368843480882 2:0.338235 18:1 25:0.5 27:0.338235 28:0.288136 29:0.145833 
8 2:0.367647 18:1 25:0.5 27:0.367647 28:0.322034 29:0.1875 
8 
8 2:0.0441176 27:0.0441176 28:0.0338983 
8 2:0.0147059 27:0.0147059 
8 2:0.0294118 27:0.0294118 
6.081746792583209 2:0.0441176 16:1 27:0.0441176 28:0.0169492 
8 2:0.0147059 27:0.0147059 
8 2:0.161765 27:0.161765 28:0.118644 29:0.0833333 
0.914670114880502 2:0.235294 8:1 16:1 27:0.235294 28:0.152542 29:0.0416667 
8 2:0.191176 14:0.5 27:0.191176 28:0.20339 29:0.208333 
8 2:0.0882353 10:1 27:0.0882353 28:0.0847458 29:0.0625 
8 2:0.0147059 27:0.0147059 
8 2:0.0882353 14:0.5 27:0.0882353 28:0.0847458 29:0.0416667 
8 2:0.0882353 10:1 27:0.0882353 28:0.0847458 29:0.0416667 
8 2:0.0588235 27:0.0588235 28:0.0508475 29:0.0208333 
3.883821710370885 2:0.161765 18:1 25:0.5 27:0.161765 28:0.152542 29:0.104167 
8 2:0.0735294 23:0.5 27:0.0735294 28:0.0677966 29:0.0416667 
8 2:0.0147059 27:0.0147059 
1.077609764967793 2:0.338235 14:1 27:0.338235 28:0.305085 29:0.291667 
8 2:0.0441176 25:0.5 27:0.0441176 28:0.0338983 29:0.0208333 
8 2:0.0588235 27:0.0588235 28:0.0338983 
8 2:0.205882 25:0.5 27:0.191176 28:0.169492 29:0.166667 
0.5649288060770871 2:0.147059 18:1 27:0.147059 28:0.135593 29:0.0833333 
8 2:0.117647 17:0.5 27:0.117647 28:0.0677966 29:0.0208333 
8 2:0.0147059 27:0.0147059 
8 2:0.176471 17:0.5 27:0.176471 28:0.152542 29:0.0833333 
8 2:0.0294118 27:0.0294118 
0.9454077809083556 2:0.220588 7:1 16:1 27:0.220588 28:0.169492 29:0.125 
8 2:0.147059 13:1 27:0.147059 28:0.152542 29:0.104167 
8 2:0.0588235 27:0.0588235 28:0.0508475 29:0.0416667 
8 2:0.0441176 27:0.0441176 28:0.0338983 
8 2:0.0147059 27:0.0147059 
8 2:0.0147059 27:0.0147059 
8 2:0.0147059 27:0.0147059 
4.780229078601415 2:0.161765 5:1 27:0.161765 28:0.101695 29:0.0416667 
6.261737542251072 2:0.0882353 5:1 27:0.0882353 28:0.0508475 29:0.0208333 
0.9236021057016586 2:0.235294 3:1 10:1 27:0.235294 28:0.220339 29:0.166667 
1.213300970791443 2:0.382353 3:1 10:1 14:0.5 27:0.382353 28:0.322034 29:0.25 
8 2:0.147059 27:0.147059 28:0.152542 29:0.145833 
4.55971352023364 2:0.0735294 10:1 27:0.0735294 28:0.0677966 29:0.0416667 
8 2:0.191176 10:1 27:0.191176 28:0.186441 29:0.145833 
0.572363102095928 2:0.205882 10:1 24:0.5 27:0.205882 28:0.220339 29:0.1875 
1.10304147991515 2:0.338235 10:1 24:0.5 27:0.338235 28:0.355932 29:0.3125 
8 2:0.0588235 26:1 27:0.0588235 28:0.0338983 
8 2:0.0588235 27:0.0588235 28:0.0338983 
1.449711062181881 2:0.0735294 17:0.5 24:0.5 27:0.0735294 28:0.0677966 29:0.0416667 
0.7452937416030871 2:0.176471 17:0.5 24:1 27:0.176471 28:0.118644 29:0.0416667 
0.9070251344711152 2:0.176471 7:1 14:0.5 27:0.176471 28:0.118644 29:0.0416667 
8 2:0.0147059 27:0.0147059 
8 2:0.0147059 27:0.0147059 
8 2:0.0147059 27:0.0147059 
8 2:0.0882353 27:0.0882353 28:0.0847458 29:0.0625 
8 2:0.0588235 27:0.0588235 28:0.0508475 29:0.0416667 
8 2:0.0588235 27:0.0588235 28:0.0508475 29:0.0416667 
8 2:0.220588 12:1 27:0.220588 28:0.237288 29:0.166667 
8 2:0.0735294 25:0.5 27:0.0735294 28:0.0508475 
8 
7.747364219672164 2:0.0441176 17:0.5 
8 
7.712096433609264 2:0.0588235 26:1 
1.102182857433324 2:0.0147059 
8 2:0.0147059 
8 2:0.0147059 
8 2:0.0147059 
8 2:0.0147059 
8 2:0.0147059 
8 2:0.0147059 
8 2:0.0147059 
8 2:0.0147059 
8 2:0.0147059 
2.505647739882626 2:0.0882353 12:1 
8 2:0.0441176 17:0.5 
8 2:0.0147059 
8 2:0.0147059 
8 2:0.0147059 
8 2:0.0147059 
8 2:0.0147059 
8 2:0.0147059 
8 2:0.0147059 
8 2:0.0147059 
8 2:0.0147059 
8 2:0.0147059 
8 2:0.0147059 
8 2:0.0147059 
8 2:0.0147059 
8 
8 2:0.0147059 
8 2:0.0147059 
8 2:0.0147059 
8 2:0.0147059 
8 2:0.0147059 
8 2:0.0147059 
8 2:0.0147059 
8 2:0.0147059 
8 2:0.0588235 26:1 
8 2:0.0147059 
8 2:0.0147059 
8 2:0.0147059 
8 2:0.0147059 
8 2:0.0147059 
8 2:0.0147059 
8 2:0.0147059 
8 2:0.0147059 
8 2:0.0147059 
8 2:0.0147059 
8 2:0.0882353 12:1 
8 2:0.0441176 17:0.5 
8 2:0.0147059 
8 2:0.0147059 
8 2:0.0147059 
8 2:0.0147059 
8 2:0.0147059 
8 2:0.0147059 
8 2:0.0147059 
8 2:0.0147059 
8 2:0.0147059 
8 2:0.0147059 
8 2:0.0147059 
8 2:0.0147059 
8 2:0.0147059 
8 
8 2:0.0147059 
8 2:0.0147059 
8 2:0.0147059 
8 2:0.0147059 
8 2:0.0147059 
8 2:0.0147059 
8 2:0.0147059 
8 2:0.0147059 
8 2:0.0588235 26:1 
8 2:0.0147059 
8 2:0.0147059 
8 2:0.0147059 
8 2:0.0147059 
8 2:0.0147059 
8 2:0.0147059 
8 2:0.0147059 
8 2:0.0147059 
8 2:0.0147059 
3.625316951760329 2:0.0588235 14:0.5 
8 2:0.0147059 
3.28449715801821 2:0.0882353 20:1 
8 2:0.0882353 12:1 
5.89512519323456 2:0.117647 4:1 6:0.5 
8 2:0.0441176 17:0.5 
8 2:0.0147059 
8 2:0.0147059 
1.512962847235293 2:0.0882353 6:0.5 
8 2:0.0147059 
8 2:0.0147059 
8 2:0.0147059 
6.176214094129691 2:0.132353 8:1 
8 2:0.0147059 
8 2:0.0147059 
8 2:0.0147059 
8 2:0.0147059 
8 2:0.0147059 
8 2:0.0147059 
8 2:0.0147059 
8 2:0.0147059 
8 
8 2:0.0147059 
8 2:0.0147059 
8 2:0.0147059 
8 2:0.0147059 
8 2:0.0147059 
8 2:0.0147059 
8 2:0.0147059 
8 2:0.0147059 
8 2:0.0588235 26:1 
8 2:0.0147059 
8 2:0.0147059 
8 2:0.0147059 
1.234707568005712 2:0.352941 19:1 
0.07143917757135444 2:0.132353 4:1 5:1 8:1 
0.6986506912395563 2:0.102941 4:1 5:1 8:1 
3.582979238329162 2:0.0735294 5:1 
8 2:0.0147059 
8 2:0.0147059 
5.889839962968892 2:0.161765 4:1 17:0.5 
8 2:0.0147059 
8 2:0.0147059 
8 2:0.0147059 
0.1753336859009941 2:0.25 20:1 
8 2:0.0147059 
7.019573183836981 2:0.0588235 14:0.5 
2.875179149220235 2:0.147059 9:1 15:0.5 
0.08779740687102894 2:0.279412 6:0.5 15:0.5 
0.4852438062576988 2:0.308824 6:0.5 15:0.5 
0.9883537889239922 2:0.235294 8:1 15:0.5 18:1 
0.546485716959058 2:0.191176 19:0.333333 26:1 
0.7338747046081744 2:0.0588235 16:1 22:1 
0.2075076522061751 2:0.176471 16:1 22:1 
0.8185022017956558 2:0.161765 4:1 16:1 22:1 
0.6945421193519435 2:0.382353 21:1 
0.6420323197168579 2:0.235294 21:1 
8 2:0.0147059 
0.8339132438488386 2:0.161765 6:0.5 25:1 
8 2:0.0882353 20:1 
8 2:0.0882353 12:1 
8 2:0.117647 4:1 6:0.5 
0.9048636137776636 2:0.0882353 6:1 26:1 
0.4909014592073928 2:0.294118 6:1 26:1 
0.928989795154902 2:0.205882 4:1 6:0.5 19:0.666667 20:1 
0.1264001133197019 2:0.235294 19:0.333333 20:1 
7.058556049752108 2:0.0441176 17:0.5 
8 2:0.0147059 
0.6898632900333933 2:0.0882353 5:1 23:0.5 25:0.5 
8 2:0.0147059 
6.035438600556403 2:0.0882353 6:0.5 
8 2:0.0147059 
8 2:0.0147059 
0.04707483664328079 2:0.220588 10:1 
2.857982124067667 10:1 14:0.5 
0.1951658700956892 2:0.132353 16:1 
1.01842046516704 2:0.25 6:1 
8 2:0.0147059 
7.952670601437822 2:0.132353 8:1 
0.5721116185887647 2:0.161765 11:1 17:0.5 
8 2:0.0147059 
0.7289673469765904 2:0.0735294 20:1 26:1 
8 2:0.0147059 
8 2:0.0147059 
8 2:0.0147059 
8 2:0.0147059 
8 2:0.0147059 
8 2:0.0147059 
8 2:0.0147059 
8 
8 2:0.0147059 
8 2:0.0147059 
8 2:0.0147059 
2.139672475895061 2:0.0735294 23:0.5 
8 2:0.0147059 
8 2:0.0147059 
2.867854992409287 2:0.147059 13:1 
8 2:0.0147059 
8 2:0.0147059 
8 2:0.0147059 
8 2:0.0588235 26:1 
8 2:0.0147059 
8 2:0.0147059 
8 2:0.0147059 
8 2:0.0147059 
1.140808148981808 2:0.25 3:1 16:1 
0.8788569415804548 2:0.191176 3:1 9:1 13:1 25:0.5 
8 2:0.0147059 
7.151348583388118 2:0.0441176 25:0.5 
4.589453687081074 2:0.0294118 16:1 
0.9428740371905346 2:0.205882 10:1 11:1 25:0.5 
0.1304518123476203 2:0.161765 17:0.5 18:1 
0.7078438502627824 2:0.191176 17:0.5 18:1 
0.6387908167689789 2:0.632353 15:0.5 
0.5097843990320137 2:0.367647 18:1 25:0.5 
8 
8 2:0.0147059 
8 2:0.0147059 
0.7020476585423837 2:0.205882 8:1 16:1 
0.2141485101829321 2:0.235294 8:1 16:1 
8 2:0.0147059 
6.444940405684412 2:0.0735294 23:0.5 
8 2:0.0147059 
1.242349524107211 2:0.338235 14:1 
7.78639543752591 2:0.0441176 25:0.5 
1.488193997513689 8:1 23:0.5 
0.7578377290919437 2:0.0147059 18:1 
8 2:0.0147059 
0.7006149478645569 2:0.176471 7:1 16:1 
0.2540807002551854 2:0.220588 7:1 16:1 
7.992522798814082 2:0.147059 13:1 
8 2:0.0147059 
8 2:0.0147059 
8 2:0.0147059 
0.9289177838811931 2:0.235294 3:1 10:1 
1.15170807609277 2:0.382353 3:1 10:1 14:0.5 
1.085034797592069 2:0.338235 10:1 24:0.5 
8 2:0.0588235 26:1 
0.7283442231602328 2:0.176471 17:0.5 24:1 
0.864037747865445 2:0.176471 7:1 14:0.5 
8 2:0.0147059 
8 2:0.0147059 
7.995379354907932 2:0.0147059 
-0.01762523257033124 2:0.0882353 27:0.0882353 28:0.0847458 29:0.0833333 
-0.05613917058628677 2:0.102941 27:0.102941 28:0.101695 29:0.104167 
-3.06723468512834 2:0.132353 27:0.132353 28:0.135593 29:0.145833 
-4.351212215491757 2:0.0147059 27:0.0147059 
-2.214075785809589 2:0.0441176 27:0.0441176 28:0.0338983 
-8 2:0.102941 27:0.102941 28:0.101695 29:0.0208333 
-8 2:0.0882353 27:0.0882353 28:0.0847458 29:0.0208333 
-8 2:0.0588235 27:0.0588235 28:0.0508475 
-0.4095675442250992 2:0.0441176 27:0.0441176 28:0.0338983 
-0.1695115334212316 1:1 2:0.411765 27:0.411765 28:0.40678 29:0.333333 
-0.3739262270374147 2:0.382353 27:0.382353 28:0.372881 29:0.333333 
-8 2:0.147059 25:0.5 27:0.147059 28:0.152542 29:0.125 
-8 2:0.382353 25:0.5 27:0.382353 28:0.372881 29:0.25 
-1.265311458293566 2:0.220588 27:0.220588 28:0.186441 29:0.104167 
-0.3511368006989906 2:0.470588 17:1 27:0.470588 28:0.372881 29:0.270833 
-4.914075615217761 2:0.191176 17:0.5 27:0.191176 28:0.169492 29:0.145833 
-5.13065984919892 2:0.0147059 27:0.0147059 
-0.1406955307462791 2:0.0735294 27:0.0735294 28:0.0677966 29:0.0625 
-0.001871303689428232 2:0.102941 27:0.102941 28:0.101695 29:0.104167 
-0.275197015541007 2:0.220588 5:1 8:1 27:0.220588 28:0.186441 29:0.145833 
-8 2:0.0441176 26:1 27:0.0441176 28:0.0338983 
-8 2:0.0147059 26:1 27:0.0147059 
-1.606433060078748 2:0.0294118 27:0.0294118 
-0.5202009681426492 1:1 2:0.382353 8:1 27:0.382353 28:0.322034 29:0.25 
-0.06889969865220666 2:0.102941 27:0.102941 28:0.101695 29:0.104167 
-0.08547581288138982 2:0.0735294 27:0.0735294 28:0.0677966 29:0.0625 
-0.09024276527119263 2:0.0882353 27:0.0882353 28:0.0847458 29:0.0833333 
-8 2:0.0294118 27:0.0294118 
-0.8193852428002949 2:0.441176 27:0.441176 28:0.423729 29:0.270833 
-0.6343128125502264 2:0.485294 25:1 27:0.485294 28:0.457627 29:0.3125 
-0.3918942866041007 2:0.25 25:1 27:0.25 28:0.220339 29:0.104167 
-0.4155170808388393 1:1 2:0.352941 25:1 27:0.352941 28:0.322034 29:0.229167 
-0.3622970111865652 1:1 2:0.191176 25:1 27:0.191176 28:0.152542 29:0.0625 
-6.530439913893657 2:0.25 27:0.25 28:0.220339 29:0.145833 
-0.7277273383787757 2:0.0294118 25:1 27:0.0294118 
-0.08699162166427968 2:0.323529 4:1 25:0.5 27:0.323529 28:0.271186 29:0.145833 
-0.59113193587549 2:0.0294118 7:1 27:0.0294118 28:0.0169492 
-0.2244211769949976 2:0.0735294 27:0.0735294 28:0.0677966 29:0.0625 
-6.628225429557737 2:0.102941 20:1 27:0.102941 28:0.0847458 29:0.0416667 
-8 2:0.0735294 20:1 27:0.0735294 28:0.0508475 29:0.0416667 
-2.96767832900057 2:0.220588 27:0.220588 28:0.237288 29:0.270833 
-0.5011747494293112 2:0.573529 12:1 27:0.573529 28:0.542373 29:0.520833 
-0.3179845266533702 2:0.808824 12:1 20:1 27:0.808824 28:0.779661 29:0.729167 
-0.5336998224294313 2:1 12:1 20:1 27:1 28:1 29:1 
-0.9910374034518478 2:0.102941 27:0.102941 28:0.101695 29:0.104167 
-0.4576065669589796 1:1 2:0.588235 12:1 20:1 27:0.588235 28:0.542373 29:0.458333 
-0.2269296464529638 2:0.691176 12:1 20:1 27:0.691176 28:0.644068 29:0.5625 
-0.457441740725294 1:1 2:0.764706 12:1 20:1 27:0.764706 28:0.728814 29:0.666667 
-2.208700907001884 2:0.279412 12:1 27:0.279412 28:0.220339 29:0.145833 
-0.5264957683881276 2:0.470588 12:1 20:1 27:0.470588 28:0.423729 29:0.333333 
-0.08324356630403054 2:0.647059 12:1 20:1 27:0.647059 28:0.610169 29:0.541667 
-0.00890064781843421 2:0.764706 12:1 20:1 27:0.764706 28:0.745763 29:0.708333 
-5.013175963837124 2:0.279412 20:1 27:0.279412 28:0.271186 29:0.229167 
-2.176133190543172 2:0.294118 20:1 27:0.294118 28:0.288136 29:0.270833 
-0.272374772422087 2:0.279412 27:0.279412 28:0.288136 29:0.333333 
-2.313167607548094 2:0.25 25:0.5 27:0.25 28:0.254237 29:0.208333 
-0.2746354444505961 2:0.0882353 27:0.0882353 28:0.0677966 29:0.0625 
-2.304403415751288 2:0.25 25:0.5 27:0.25 28:0.186441 29:0.145833 
-0.6064490959906199 1:1 2:0.470588 4:1 16:1 25:1 27:0.470588 28:0.40678 29:0.395833 
-6.693677118094219 12:1 
-1.601438320939305 2:0.0294118 27:0.0294118 
-8 2:0.132353 9:1 15:0.5 27:0.132353 28:0.135593 29:0.104167 
-2.239079002873144 2:0.161765 9:1 15:0.5 27:0.161765 28:0.169492 29:0.125 
-3.726318300747674 2:0.0147059 27:0.0147059 
-0.472348141125791 1:1 2:0.426471 15:0.5 27:0.426471 28:0.423729 29:0.375 
-0.6061028724683364 2:0.588235 9:1 15:1 27:0.588235 28:0.610169 29:0.520833 
-0.6056581446897524 1:1 2:0.235294 9:1 15:0.5 27:0.235294 28:0.237288 29:0.1875 
-8 2:0.0147059 27:0.0147059 
-0.2318471742117374 2:0.338235 4:1 17:0.5 27:0.338235 28:0.305085 29:0.208333 
-0.3360881880997076 1:1 2:0.161765 4:1 27:0.161765 28:0.118644 29:0.0416667 
-8 2:0.161765 19:0.333333 26:1 27:0.161765 28:0.152542 29:0.0625 
-1.289870043170878 2:0.0882353 27:0.0882353 28:0.0847458 29:0.0833333 
-6.22277428238277 2:0.0147059 27:0.0147059 
-8 2:0.0147059 27:0.0147059 
-0.8023975291570464 2:0.0147059 27:0.0147059 
-8 2:0.0882353 9:1 27:0.0882353 28:0.0508475 29:0.0416667 
-8 2:0.102941 9:1 27:0.102941 28:0.0677966 29:0.0625 
-7.275047025281174 2:0.132353 9:1 27:0.132353 28:0.101695 29:0.104167 
-0.606025940242252 2:0.352941 4:1 26:1 27:0.352941 28:0.271186 29:0.208333 
-0.1438508040764616 1:1 2:0.132353 19:0.333333 27:0.132353 28:0.135593 29:0.104167 
-0.04741169815920163 2:0.0735294 27:0.0735294 28:0.0677966 29:0.0625 
-0.2934147117356968 2:0.397059 13:1 17:0.5 27:0.382353 28:0.355932 29:0.25 
-0.3973066049920698 2:0.529412 13:1 17:0.5 27:0.514706 28:0.457627 29:0.333333 
-0.5757236798792077 1:1 2:0.382353 13:1 17:0.5 27:0.367647 28:0.338983 29:0.25 
-8 2:0.0882353 25:0.5 27:0.0882353 28:0.0508475 29:0.0208333 
-0.5451732694140871 1:1 2:0.191176 10:1 25:1 27:0.191176 28:0.152542 29:0.0625 
-0.5300006982415465 2:0.264706 10:1 25:1 27:0.264706 28:0.220339 29:0.125 
-0.693980147093513 2:0.0882353 10:1 25:0.5 27:0.0882353 28:0.0677966 29:0.0208333 
-0.2571614224258313 1:1 2:0.161765 10:1 25:0.5 27:0.161765 28:0.135593 29:0.0833333 
-8 2:0.0588235 25:0.5 27:0.0588235 28:0.0338983 
-2.123125266826438 2:0.0294118 4:1 6:0.5 27:0.0294118 
-8 2:0.0882353 6:0.5 27:0.0882353 28:0.0847458 29:0.0208333 
-8 2:0.0294118 4:1 6:0.5 27:0.0294118 
-8 2:0.0588235 4:1 6:0.5 27:0.0588235 28:0.0169492 
-6.573648100996176 2:0.0735294 6:0.5 27:0.0735294 28:0.0677966 29:0.0208333 
-0.4819866932245054 2:0.0441176 6:0.5 26:1 27:0.0441176 28:0.0338983 29:0.0208333 
-0.4104876875120041 2:0.191176 6:0.5 26:1 27:0.191176 28:0.135593 29:0.0416667 
-0.5338715561782167 2:0.588235 19:0.333333 20:1 27:0.588235 28:0.576271 29:0.4375 
-0.787941515959618 2:0.367647 4:1 6:0.5 19:0.333333 27:0.367647 28:0.372881 29:0.291667 
-0.5354962935505633 1:1 2:0.235294 17:1 27:0.235294 28:0.186441 29:0.104167 
-0.3482620385679651 2:0.308824 17:1 27:0.308824 28:0.271186 29:0.208333 
-0.5434977286967091 1:1 2:0.220588 5:1 8:1 27:0.220588 28:0.169492 29:0.0833333 
-0.574531031781667 2:0.397059 5:1 8:1 25:0.5 27:0.397059 28:0.305085 29:0.104167 
-0.379123607277053 2:0.132353 5:1 8:1 27:0.132353 28:0.101695 29:0.0416667 
-0.543852992950248 1:1 2:0.308824 5:1 8:1 25:0.5 27:0.308824 28:0.237288 29:0.0625 
-3.387985941434316 2:0.161765 25:0.5 27:0.161765 28:0.101695 
-0.09079365911972065 2:0.132353 5:1 25:0.5 27:0.132353 28:0.101695 29:0.0833333 
-4.77106942966954 2:0.117647 23:0.5 27:0.117647 28:0.118644 29:0.104167 
-0.4740215027055701 2:0.264706 23:1 27:0.264706 28:0.237288 29:0.208333 
-0.6061967983473725 1:1 2:0.558824 3:1 23:1 26:1 27:0.544118 28:0.525424 29:0.458333 
-0.2428675440622388 1:1 2:0.132353 23:0.5 27:0.132353 28:0.101695 29:0.0833333 
-0.5746820986411263 2:0.426471 3:1 23:0.5 26:1 27:0.411765 28:0.389831 29:0.333333 
-0.3951140277746816 2:0.279412 3:1 26:1 27:0.264706 28:0.254237 29:0.208333 
-5.281030676357169 2:0.0294118 27:0.0294118 
-0.4719299761170852 2:0.0735294 27:0.0735294 28:0.0677966 29:0.0208333 
-0.6061753527277817 2:0.161765 3:1 12:1 27:0.161765 28:0.135593 29:0.125 
-0.3323698585331821 1:1 2:0.176471 7:1 27:0.176471 28:0.101695 29:0.0416667 
-0.02039187924651985 2:0.0882353 27:0.0882353 28:0.0847458 29:0.0833333 
-0.6068478359630547 1:1 2:0.147059 5:1 23:0.5 25:0.5 27:0.147059 28:0.135593 29:0.104167 
-8 2:0.0294118 27:0.0294118 
-0.5171319788478029 2:0.647059 24:0.5 26:1 27:0.647059 28:0.525424 29:0.333333 
-0.5795767787187228 1:1 2:0.0735294 11:1 25:0.5 27:0.0735294 28:0.0677966 29:0.0208333 
-8 2:0.147059 10:1 27:0.147059 28:0.135593 29:0.104167 
-6.756563690498412 2:0.0735294 27:0.0735294 28:0.0508475 
-0.4304620621761325 1:1 2:0.132353 3:1 27:0.132353 28:0.135593 29:0.104167 
-0.5016567196715963 2:0.382353 26:1 27:0.382353 28:0.322034 29:0.145833 
-6.596743305879105 2:0.441176 15:0.5 27:0.441176 28:0.355932 29:0.3125 
-2.665416937357554 2:0.132353 10:1 14:0.5 27:0.132353 28:0.101695 29:0.0208333 
-0.1970310403037923 2:0.147059 4:1 27:0.147059 28:0.118644 
-0.1381173119340844 1:1 2:0.132353 10:1 27:0.132353 28:0.101695 
-8 25:0.5 
-8 2:0.0882353 6:0.5 27:0.0882353 28:0.0677966 29:0.0416667 
-8 2:0.0294118 17:0.5 27:0.0294118 28:0.0169492 
-0.7752187797185373 2:0.117647 27:0.117647 28:0.118644 29:0.0625 
-8 2:0.0588235 27:0.0588235 28:0.0508475 
-1.241624630294664 2:0.0294118 27:0.0294118 
-0.3046925223456537 2:0.191176 4:1 20:1 26:1 27:0.191176 28:0.152542 29:0.104167 
-0.3037784128511543 2:0.205882 4:1 20:1 26:1 27:0.205882 28:0.169492 29:0.104167 
-0.4672862218572883 2:0.411765 25:0.5 26:1 27:0.411765 28:0.423729 29:0.25 
-0.3019037901058034 2:0.176471 25:0.5 26:1 27:0.176471 28:0.186441 29:0.125 
-0.5373121066093627 1:1 2:0.294118 25:0.5 26:1 27:0.294118 28:0.305085 29:0.166667 
-0.4263814135911317 1:1 2:0.235294 11:1 27:0.235294 28:0.254237 29:0.25 
-8 2:0.0882353 27:0.0882353 28:0.0847458 29:0.0416667 
-5.840578507219866 2:0.205882 11:1 27:0.205882 28:0.220339 29:0.208333 
-0.1557442710985792 1:1 2:0.235294 11:1 27:0.235294 28:0.254237 29:0.208333 
-0.4962293554326672 1:1 2:0.0588235 7:1 24:0.5 27:0.0588235 28:0.0338983 
-0.3367058063098074 1:1 2:0.191176 7:1 17:0.5 24:0.5 27:0.191176 28:0.0847458 29:0.0208333 
-0.3429294110764312 1:1 2:0.338235 7:1 17:0.5 24:0.5 27:0.338235 28:0.220339 29:0.104167 
-0.5676851567861781 1:1 2:0.485294 7:1 15:0.5 17:0.5 24:0.5 27:0.485294 28:0.305085 29:0.125 
-0.4097732363797892 1:1 2:0.117647 17:0.5 27:0.117647 28:0.0169492 
-0.49926429055905 1:1 2:0.411765 15:0.5 17:0.5 27:0.411765 28:0.237288 29:0.104167 
-0.1256565278789095 1:1 2:0.279412 15:0.5 27:0.279412 28:0.186441 29:0.0833333 
-0.4224390692154679 1:1 2:0.132353 15:0.5 27:0.132353 28:0.0508475 
-0.2423328036521629 1:1 2:0.455882 27:0.455882 28:0.355932 29:0.208333 
-0.4040742217744054 2:0.25 7:1 24:0.5 27:0.25 28:0.237288 29:0.145833 
-0.4018537609902424 2:0.0441176 7:1 24:0.5 27:0.0441176 28:0.0338983 29:0.0208333 
-8 2:0.0588235 17:0.5 27:0.0588235 28:0.0169492 
-1.127478201621607 2:0.514706 14:0.5 27:0.485294 28:0.474576 29:0.375 
-0.4098577625868354 1:1 2:0.382353 14:0.5 27:0.367647 28:0.372881 29:0.3125 
-8 2:0.0882353 4:1 17:0.5 27:0.0882353 28:0.0508475 29:0.0208333 
-0.3091830600101267 2:0.147059 4:1 8:1 14:0.5 27:0.161765 28:0.135593 29:0.0625 
-0.3085597729033452 2:0.176471 4:1 8:1 14:0.5 27:0.191176 28:0.169492 29:0.104167 
-8 2:0.279412 27:0.264706 28:0.254237 29:0.166667 
-8 2:0.308824 27:0.294118 28:0.288136 29:0.208333 
-0.5809009653259403 2:0.367647 22:1 26:1 27:0.352941 28:0.355932 29:0.291667 
-0.1429746157298947 2:0.0735294 22:1 26:1 27:0.0735294 28:0.0677966 29:0.0625 
-0.4641756916854492 2:0.0147059 22:1 26:1 27:0.0147059 
-0.07275855714149411 2:0.0441176 4:1 27:0.0441176 
-8 2:0.205882 25:0.5 27:0.205882 28:0.169492 29:0.104167 
-0.4537146244190289 2:0.132353 25:0.5 27:0.132353 28:0.101695 29:0.0625 
-4.364334864411735 2:0.132353 27:0.132353 28:0.101695 29:0.104167 
-5.116386895604592 2:0.0882353 27:0.0882353 28:0.0677966 29:0.0208333 
-8 2:0.102941 25:0.5 27:0.102941 28:0.0677966 29:0.0208333 
-2.766481452682101 2:0.132353 25:0.5 27:0.132353 28:0.101695 29:0.0625 
-0.5205058186458043 2:0.161765 24:0.5 25:0.5 27:0.161765 28:0.152542 29:0.0208333 
-3.095390297458289 2:0.0588235 8:1 27:0.0588235 28:0.0338983 29:0.0208333 
-0.6062773675892884 1:1 2:0.279412 7:1 13:1 27:0.279412 28:0.254237 29:0.229167 
-0.6063440637106942 2:0.308824 7:1 13:1 24:0.5 27:0.308824 28:0.288136 29:0.25 
-1.839272260580342 2:0.220588 13:1 27:0.220588 28:0.20339 29:0.1875 
-0.5445782251087989 1:1 2:0.25 13:1 24:0.5 27:0.25 28:0.237288 29:0.208333 
-0.5968733628918066 2:0.0147059 24:0.5 27:0.0147059 
-6.413655143398027 2:0.0588235 27:0.0588235 28:0.0508475 
-0.01221246572638042 2:0.191176 27:0.191176 28:0.20339 29:0.229167 
-1.525815756341721 2:0.117647 27:0.117647 28:0.118644 29:0.125 
-8 2:0.0882353 14:0.5 27:0.0882353 28:0.0847458 29:0.0833333 
-8 2:0.147059 14:0.5 27:0.147059 28:0.135593 29:0.0833333 
-8 2:0.176471 17:0.5 27:0.161765 28:0.152542 29:0.104167 
-0.5443681649473779 2:0.514706 4:1 25:0.5 27:0.514706 28:0.474576 29:0.416667 
-5.493535943370084 
-8 
-8 
-8 2:0.132353 15:0.5 27:0.132353 28:0.118644 29:0.104167 
-8 2:0.102941 15:0.5 27:0.102941 28:0.0847458 29:0.0625 
-0.2601555418815576 1:1 2:0.25 25:0.5 27:0.25 28:0.254237 29:0.1875 
-4.884130199666732 2:0.264706 27:0.264706 28:0.271186 29:0.208333 
-8 
-0.6242071490000424 2:0.132353 27:0.132353 28:0.118644 29:0.0416667 
-0.3297863980541091 2:0.294118 24:0.5 26:1 27:0.294118 28:0.288136 29:0.125 
-0.05339767744707786 1:1 
-2.340384355836009 2:0.294118 10:1 27:0.294118 28:0.305085 29:0.270833 
-1.303066870416472 2:0.323529 10:1 27:0.323529 28:0.338983 29:0.3125 
-8 2:0.117647 10:1 27:0.117647 28:0.118644 29:0.0833333 
-7.13435691330363 2:0.147059 10:1 27:0.147059 28:0.152542 29:0.125 
-8 
-0.5238392627157372 1:1 2:0.176471 13:1 27:0.176471 28:0.152542 29:0.0833333 
-0.3182888073365659 2:0.264706 12:1 13:1 27:0.264706 28:0.237288 29:0.145833 
-4.897185978291943 2:0.147059 13:1 27:0.147059 28:0.118644 29:0.0833333 
-0.6056160241133043 1:1 2:0.235294 12:1 13:1 27:0.235294 28:0.20339 29:0.145833 
-8 2:0.0735294 12:1 27:0.0735294 28:0.0508475 29:0.0208333 
-0.246408464645272 1:1 2:0.0882353 7:1 27:0.0882353 28:0.0508475 29:0.0208333 
-8 
-0.3187750008672592 2:0.220588 12:1 13:1 27:0.220588 28:0.152542 29:0.104167 
-8 
-8 
-3.344498753872053 2:0.147059 25:0.5 27:0.147059 28:0.152542 29:0.145833 
-0.2507291581410176 1:1 2:0.191176 19:0.333333 27:0.191176 28:0.169492 29:0.145833 
-8 2:0.0735294 25:0.5 27:0.0735294 28:0.0338983 
-0.606250235420304 1:1 2:0.294118 4:1 7:1 27:0.294118 28:0.271186 29:0.145833 
-8 
-8 
-0.336454001299675 1:1 2:0.0588235 4:1 27:0.0588235 28:0.0508475 
-0.5468717145102751 1:1 2:0.132353 20:1 27:0.132353 28:0.118644 29:0.0625 
-0.369936174962889 1:1 2:0.279412 17:0.5 20:1 27:0.279412 28:0.186441 29:0.0833333 
-5.608724202603483 2:0.102941 20:1 27:0.102941 28:0.0847458 29:0.0625 
-0.2045442044173374 1:1 2:0.220588 17:0.5 20:1 27:0.220588 28:0.118644 29:0.0625 
-0.4733331006970743 2:0.25 17:0.5 20:1 27:0.25 28:0.152542 29:0.0833333 
-6.024589227738002 2:0.102941 17:0.5 27:0.102941 28:0.0169492 
-0.898696535752466 2:0.352941 5:1 27:0.352941 28:0.355932 29:0.25 
-8 2:0.117647 5:1 27:0.117647 28:0.101695 29:0.0416667 
-8 2:0.0441176 5:1 27:0.0441176 28:0.0338983 
-8 
-0.1323244948761055 2:0.147059 15:0.5 27:0.147059 28:0.152542 29:0.104167 
-0.2215410542502783 2:0.235294 15:0.5 27:0.235294 28:0.254237 29:0.229167 
-8 2:0.25 15:0.5 27:0.25 28:0.271186 29:0.25 
-0.246551986971304 1:1 
-8 
-6.431393829605224 2:0.191176 27:0.191176 28:0.186441 29:0.0833333 
-0.6065120335080162 2:0.235294 3:1 5:1 27:0.235294 28:0.20339 29:0.145833 
-0.4604870853506574 2:0.264706 24:0.5 27:0.264706 28:0.220339 29:0.166667 
-8 
-0.02410340166344386 2:0.0588235 3:1 27:0.0588235 28:0.0508475 29:0.0416667 
-0.3329348296122133 2:0.220588 7:1 27:0.220588 28:0.20339 29:0.145833 
-0.5023211632505797 2:0.426471 7:1 27:0.426471 28:0.440678 29:0.291667 
-3.820460416629755 2:0.161765 27:0.161765 28:0.169492 29:0.104167 
-8 2:0.191176 27:0.191176 28:0.20339 29:0.125 
-8 
-8 
-0.5323120728184054 2:0.205882 8:1 15:0.5 27:0.205882 28:0.186441 29:0.166667 
-8 
-0.1590096129212631 1:1 2:0.279412 26:1 27:0.279412 28:0.254237 29:0.1875 
-8 
-8 2:0.0441176 26:1 27:0.0441176 28:0.0338983 29:0.0208333 
-8 2:0.0294118 26:1 27:0.0294118 28:0.0169492 
-8 26:1 
-0.4720341745027493 1:1 2:0.102941 26:1 27:0.102941 28:0.101695 29:0.0416667 
-8 
-8 
-8 
-8 
-8 
-0.4832527521055603 2:0.544118 23:0.5 26:1 27:0.544118 28:0.508475 29:0.395833 
-8 
-0.2208464395943449 1:1 2:0.382353 23:0.5 26:1 27:0.382353 28:0.322034 29:0.208333 
-0.375355297865189 1:1 2:0.441176 23:0.5 26:1 27:0.441176 28:0.389831 29:0.270833 
-0.4155206258707346 2:0.323529 23:0.5 26:1 27:0.323529 28:0.271186 29:0.1875 
-8 
-8 
-8 2:0.0147059 27:0.0147059 
-7.457470651175643 2:0.0882353 27:0.0882353 28:0.0847458 29:0.0625 
-8 2:0.0147059 27:0.0147059 
-8 2:0.0147059 27:0.0147059 
-8 2:0.0147059 27:0.0147059 
-8 2:0.0588235 14:0.5 27:0.0588235 28:0.0508475 
-8 2:0.0294118 14:0.5 27:0.0294118 28:0.0169492 
-8 2:0.117647 15:0.5 27:0.117647 28:0.118644 29:0.0833333 
-8 2:0.0147059 27:0.0147059 
-8 2:0.0147059 27:0.0147059 
-8 2:0.0147059 27:0.0147059 
-8 2:0.0147059 27:0.0147059 
-8 
-2.141486938711895 2:0.235294 27:0.235294 28:0.254237 29:0.25 
-1.508003809277938 2:0.264706 27:0.264706 28:0.288136 29:0.291667 
-8 2:0.0147059 27:0.0147059 
-1.153621720635878 2:0.220588 27:0.220588 28:0.237288 29:0.229167 
-8 
-8 
-6.462752178971484 2:0.0588235 27:0.0588235 28:0.0508475 29:0.0208333 
-7.773269301815815 2:0.0882353 27:0.0882353 28:0.0847458 29:0.0625 
-8 2:0.0147059 27:0.0147059 
-8 2:0.0882353 25:0.5 27:0.0882353 28:0.0677966 
-7.673679997404677 2:0.0735294 27:0.0735294 28:0.0677966 29:0.0208333 
-0.6711495992661599 2:0.191176 10:1 27:0.191176 28:0.118644 29:0.104167 
-0.4302947870434103 1:1 2:0.308824 3:1 27:0.308824 28:0.305085 29:0.25 
-8 2:0.0147059 27:0.0147059 
-0.4442782733677497 2:0.220588 4:1 25:0.5 27:0.220588 28:0.152542 29:0.0833333 
-8 2:0.0147059 27:0.0147059 
-3.678250152887787 2:0.176471 27:0.176471 28:0.186441 29:0.125 
-6.031152643981614 2:0.264706 27:0.264706 28:0.271186 29:0.208333 
-1.045112409450313 2:0.147059 27:0.147059 28:0.152542 29:0.104167 
-5.720786154448044 2:0.235294 27:0.235294 28:0.237288 29:0.1875 
-8 2:0.0147059 27:0.0147059 
-8 2:0.0147059 27:0.0147059 
-8 2:0.0147059 27:0.0147059 
-8 2:0.0441176 17:0.5 27:0.0441176 28:0.0338983 29:0.0208333 
-8 2:0.0147059 27:0.0147059 
-8 2:0.0147059 27:0.0147059 
-5.213250642267469 2:0.132353 27:0.132353 28:0.135593 29:0.0833333 
-7.372093058111168 2:0.102941 27:0.102941 28:0.101695 29:0.0416667 
-8 2:0.0147059 27:0.0147059 
-8 
-8 2:0.0147059 27:0.0147059 
-8 2:0.132353 10:1 27:0.132353 28:0.118644 29:0.104167 
-0.6066185607381788 1:1 2:0.205882 3:1 10:1 27:0.205882 28:0.20339 29:0.145833 
-0.5010403789097453 2:0.0588235 3:1 27:0.0588235 28:0.0508475 29:0.0416667 
-8 2:0.0147059 27:0.0147059 
-8 2:0.0147059 27:0.0147059 
-8 2:0.0147059 27:0.0147059 
-8 2:0.0588235 16:1 27:0.0588235 28:0.0508475 29:0.0208333 
-8 2:0.0882353 16:1 27:0.0882353 28:0.0847458 29:0.0416667 
-8 2:0.0147059 27:0.0147059 
-8 
-8 2:0.0147059 27:0.0147059 
-8 2:0.102941 27:0.102941 28:0.101695 29:0.0625 
-0.6042597351046239 1:1 2:0.705882 25:0.5 27:0.705882 28:0.762712 29:0.6875 
-8 2:0.0147059 27:0.0147059 
-4.091370646103368 2:0.147059 27:0.147059 28:0.152542 29:0.166667 
-8 
-8 2:0.0147059 27:0.0147059 
-0.1961126420188266 2:0.323529 4:1 27:0.323529 28:0.322034 29:0.229167 
-8 2:0.0147059 27:0.0147059 
-0.01919057667990904 2:0.279412 17:0.5 27:0.279412 28:0.288136 29:0.208333 
-0.3652510956987145 1:1 2:0.308824 17:0.5 27:0.308824 28:0.322034 29:0.25 
-3.4417572670296 2:0.25 17:0.5 27:0.25 28:0.271186 29:0.1875 
-8 2:0.0147059 27:0.0147059 
-8 2:0.25 18:1 25:0.5 27:0.25 28:0.237288 29:0.208333 
-5.542102558157396 2:0.441176 18:1 25:0.5 27:0.441176 28:0.355932 29:0.291667 
-8 2:0.176471 27:0.176471 28:0.118644 29:0.0833333 
-0.3716190767792905 2:0.264706 4:1 18:1 25:0.5 27:0.264706 28:0.20339 29:0.125 
-0.3723638817651712 2:0.117647 4:1 18:1 25:0.5 27:0.117647 28:0.101695 29:0.0625 
-0.5973202377067558 2:0.279412 16:1 23:0.5 27:0.279412 28:0.220339 29:0.104167 
-0.606420460070585 1:1 2:0.191176 16:1 27:0.191176 28:0.118644 29:0.0208333 
-8 2:0.220588 16:1 27:0.220588 28:0.135593 29:0.0208333 
-8 2:0.0147059 27:0.0147059 
-2.832649602072151 2:0.25 25:0.5 27:0.25 28:0.135593 29:0.0625 
-8 2:0.0147059 27:0.0147059 
-4.885262496930018 2:0.132353 27:0.132353 28:0.101695 29:0.0416667 
-8 
-0.5684115637493748 1:1 2:0.470588 14:1 27:0.470588 28:0.457627 29:0.479167 
-0.3858071538704766 1:1 2:0.0735294 10:1 27:0.0735294 28:0.0169492 
-8 
-0.6058806234467077 1:1 2:0.235294 3:1 26:1 27:0.235294 28:0.220339 29:0.166667 
-8 2:0.0147059 27:0.0147059 
-6.78048953111614 2:0.0735294 26:1 27:0.0735294 28:0.0508475 29:0.0208333 
-0.5509861217619653 1:1 2:0.0588235 8:1 23:0.5 27:0.0588235 28:0.0508475 
-4.704454239703487 2:0.0441176 27:0.0441176 28:0.0338983 
-8 2:0.0147059 27:0.0147059 
-0.3402637579243997 1:1 2:0.0735294 25:0.5 27:0.0735294 28:0.0677966 29:0.0208333 
-1.269475115057135 2:0.176471 25:0.5 27:0.176471 28:0.135593 29:0.0833333 
-8 2:0.0147059 27:0.0147059 
-8 2:0.0147059 27:0.0147059 
-0.4687115538182204 2:0.573529 20:1 25:0.5 27:0.573529 28:0.457627 29:0.291667 
-0.4418931627234185 2:0.294118 20:1 25:0.5 27:0.294118 28:0.220339 29:0.125 
-8 2:0.0147059 27:0.0147059 
-8 2:0.0441176 27:0.0441176 28:0.0338983 
-8 2:0.0147059 27:0.0147059 
-0.8687809401443674 2:0.161765 27:0.161765 28:0.135593 29:0.125 
-8 2:0.0147059 27:0.0147059 
-8 2:0.0147059 27:0.0147059 
-0.4568756281224722 2:0.102941 3:1 26:1 27:0.0882353 28:0.0677966 29:0.0416667 
-8 2:0.0441176 17:0.5 27:0.0441176 28:0.0338983 
-8 2:0.0147059 27:0.0147059 
-8 2:0.0588235 16:1 27:0.0588235 28:0.0508475 29:0.0416667 
-8 
-8 2:0.0147059 27:0.0147059 
-8 
-8 2:0.0147059 27:0.0147059 
-8 
-8 
-8 2:0.0588235 17:0.5 27:0.0588235 28:0.0338983 
-8 
-8 2:0.0147059 27:0.0147059 
-8 
-8 2:0.0147059 27:0.0147059 
-8 
-8 2:0.0147059 27:0.0147059 
-8 
-8 2:0.0147059 27:0.0147059 
-8 
-8 
-8 2:0.0147059 27:0.0147059 
-0.0168559865187361 2:0.176471 27:0.176471 28:0.186441 29:0.208333 
-8 
-8 2:0.0147059 27:0.0147059 
-8 
-8 2:0.0147059 27:0.0147059 
-8 
-8 2:0.0147059 27:0.0147059 
-8 
-8 
-8 2:0.0147059 27:0.0147059 
-8 
-8 2:0.0147059 27:0.0147059 
-7.757272049260917 2:0.0588235 27:0.0588235 28:0.0508475 29:0.0416667 
-8 
-8 2:0.0147059 27:0.0147059 
-8 
-8 2:0.0147059 27:0.0147059 
-8 2:0.0588235 27:0.0588235 28:0.0508475 29:0.0416667 
-8 
-8 2:0.0147059 27:0.0147059 
-8 2:0.0588235 27:0.0588235 28:0.0508475 29:0.0416667 
-8 
-8 2:0.0147059 27:0.0147059 
-8 
-8 
-0.1433832711591702 2:0.176471 27:0.176471 28:0.135593 29:0.104167 
-8 2:0.0147059 27:0.0147059 
-7.161932535825292 2:0.161765 27:0.161765 28:0.118644 29:0.0833333 
-4.29587928023127 2:0.132353 27:0.132353 28:0.0847458 29:0.0833333 
-8 
-8 2:0.0588235 27:0.0588235 28:0.0508475 29:0.0416667 
-8 2:0.0147059 27:0.0147059 
-0.4600951346941888 1:1 2:0.220588 14:0.5 25:0.5 27:0.220588 28:0.152542 29:0.104167 
-0.6413993039082425 2:0.264706 14:0.5 25:0.5 27:0.264706 28:0.186441 29:0.145833 
-8 2:0.102941 25:0.5 27:0.102941 28:0.101695 29:0.104167 
-8 2:0.0147059 27:0.0147059 
-8 2:0.0147059 27:0.0147059 
-8 2:0.0147059 27:0.0147059 
-8 2:0.0735294 26:1 27:0.0735294 28:0.0508475 
-8 2:0.0441176 26:1 27:0.0441176 28:0.0169492 
-8 2:0.0147059 27:0.0147059 
-8 2:0.0147059 27:0.0147059 
-8 2:0.0147059 27:0.0147059 
-8 2:0.0147059 27:0.0147059 
-8 2:0.0147059 27:0.0147059 
-8 2:0.0147059 27:0.0147059 
-8 
-8 2:0.0147059 27:0.0147059 
-8 2:0.0588235 27:0.0588235 28:0.0508475 29:0.0416667 
-8 2:0.0147059 27:0.0147059 
-8 2:0.0147059 27:0.0147059 
-1.035402167103863 2:0.102941 27:0.102941 28:0.0677966 
-0.5514227633984755 1:1 2:0.220588 10:1 14:0.5 27:0.220588 28:0.135593 29:0.0833333 
-0.4177680171199026 1:1 2:0.132353 14:0.5 27:0.132353 28:0.0508475 29:0.0208333 
-8 2:0.0147059 27:0.0147059 
-8 2:0.0147059 27:0.0147059 
-0.03821523641008007 2:0.147059 27:0.147059 28:0.152542 29:0.166667 
-8 
-8 2:0.0147059 27:0.0147059 
-8 2:0.0147059 27:0.0147059 
-8 2:0.0588235 27:0.0588235 28:0.0508475 29:0.0416667 
-8 2:0.0882353 27:0.0882353 28:0.0847458 29:0.0833333 
-0.606449425718226 2:0.117647 5:1 26:1 27:0.117647 28:0.101695 29:0.0208333 
-0.2665024297818893 2:0.279412 10:1 25:0.5 27:0.279412 28:0.288136 29:0.208333 
-0.2222151590746561 1:1 2:0.117647 10:1 25:0.5 27:0.117647 28:0.101695 29:0.0416667 
-8 
-7.019878257278931 2:0.102941 27:0.102941 28:0.0847458 29:0.0833333 
-8 2:0.0147059 27:0.0147059 
-8 2:0.0294118 27:0.0294118 
-6.427586926479988 2:0.132353 27:0.132353 28:0.118644 29:0.104167 
-5.079577791547234 2:0.132353 23:0.5 27:0.132353 28:0.0508475 
-7.747458883198556 2:0.161765 27:0.161765 28:0.0847458 29:0.0208333 
-0.2945922344509977 1:1 2:0.191176 23:0.5 27:0.191176 28:0.118644 29:0.0416667 
-8 2:0.0441176 23:0.5 27:0.0441176 28:0.0338983 
-8 2:0.0147059 23:0.5 27:0.0147059 
-8 
-8 2:0.0147059 27:0.0147059 
-8 
-8 2:0.0588235 27:0.0588235 28:0.0508475 29:0.0208333 
-8 2:0.0147059 27:0.0147059 
-8 2:0.0441176 27:0.0441176 28:0.0338983 
-8 2:0.0147059 27:0.0147059 
-8 2:0.0147059 27:0.0147059 
-4.180635619909312 2:0.102941 27:0.102941 28:0.0847458 29:0.0416667 
-0.9475617414235717 2:0.117647 5:1 25:0.5 27:0.117647 28:0.0508475 
-8 2:0.0147059 27:0.0147059 
-8 2:0.0588235 17:0.5 27:0.0588235 28:0.0508475 
-8 2:0.0294118 17:0.5 27:0.0294118 28:0.0169492 
-6.092023327545711 2:0.102941 25:0.5 27:0.102941 28:0.0508475 29:0.0208333 
-8 2:0.0294118 27:0.0294118 
-8 2:0.0147059 27:0.0147059 
-8 
-0.4497181464732443 1:1 2:0.161765 8:1 27:0.161765 28:0.0677966 29:0.0208333 
-1.058891708001346 2:0.147059 8:1 27:0.147059 28:0.0677966 29:0.0208333 
-8 2:0.0882353 25:0.5 27:0.0882353 28:0.0508475 29:0.0208333 
-8 2:0.0147059 27:0.0147059 
-8 2:0.0147059 27:0.0147059 
-0.5964076585150481 1:1 2:0.235294 12:1 27:0.235294 28:0.254237 29:0.208333 
-8 2:0.0147059 27:0.0147059 
-5.286302585846783 2:0.161765 4:1 17:0.5 27:0.161765 28:0.169492 29:0.104167 
-0.4580519676293748 2:0.485294 14:0.5 26:1 27:0.485294 28:0.355932 29:0.166667 
-0.3840485228794078 2:0.220588 14:0.5 26:1 27:0.220588 28:0.169492 29:0.0625 
-0.5453470659167414 1:1 2:0.352941 14:0.5 26:1 27:0.352941 28:0.254237 29:0.104167 
-0.6058869940557285 2:0.25 4:1 10:1 14:0.5 27:0.25 28:0.186441 29:0.0833333 
-8 
-0.483736015985285 2:0.0882353 27:0.0882353 28:0.0677966 29:0.0416667 
-8 2:0.0147059 27:0.0147059 
-8 2:0.0147059 27:0.0147059 
-0.07921546527245089 13:1 
-8 2:0.132353 27:0.132353 28:0.135593 29:0.0833333 
-8 2:0.0441176 27:0.0441176 28:0.0338983 
-7.774376192854311 2:0.117647 27:0.117647 28:0.118644 29:0.0833333 
-7.766260814182264 2:0.0588235 27:0.0588235 28:0.0508475 29:0.0208333 
-4.096216992264806 13:1 
-8 2:0.102941 13:1 27:0.102941 28:0.0677966 29:0.0208333 
-8 
-8 2:0.0147059 27:0.0147059 
-8 2:0.0147059 27:0.0147059 
-0.3279587554698853 2:0.338235 8:1 13:1 27:0.338235 28:0.355932 29:0.291667 
-0.3710424784536832 1:1 2:0.426471 8:1 13:1 27:0.426471 28:0.457627 29:0.395833 
-0.3707227028625475 1:1 2:0.308824 8:1 13:1 27:0.308824 28:0.322034 29:0.291667 
-0.3317833326217681 2:0.397059 8:1 13:1 27:0.397059 28:0.423729 29:0.395833 
-8 
-4.095069893554857 2:0.176471 8:1 27:0.176471 28:0.186441 29:0.1875 
-2.956906439478824 2:0.25 8:1 27:0.25 28:0.271186 29:0.270833 
-8 2:0.0735294 8:1 27:0.0735294 28:0.0169492 
-8 2:0.0882353 8:1 27:0.0882353 28:0.0338983 
-8 
-8 2:0.0147059 27:0.0147059 
-8 2:0.0147059 12:1 27:0.0147059 
-8 2:0.0588235 12:1 27:0.0588235 28:0.0508475 
-0.5558325774032647 1:1 2:0.338235 24:0.5 26:1 27:0.338235 28:0.338983 29:0.3125 
-0.2213612498588904 2:0.352941 24:0.5 26:1 27:0.352941 28:0.355932 29:0.333333 
-8 
-0.9011086735653009 2:0.323529 12:1 27:0.323529 28:0.322034 29:0.25 
-8 
-0.53348356555403 2:0.191176 4:1 27:0.191176 28:0.135593 29:0.0416667 
-0.6054093310468667 2:0.279412 4:1 11:1 27:0.279412 28:0.305085 29:0.1875 
-8 2:0.0147059 27:0.0147059 
-8 2:0.0294118 27:0.0294118 
-3.12399958570175 2:0.220588 8:1 27:0.220588 28:0.135593 29:0.104167 
-0.6063313553714265 2:0.264706 16:1 26:1 27:0.264706 28:0.271186 29:0.1875 
-8 
-0.6329192264431133 2:0.132353 27:0.132353 28:0.135593 29:0.145833 
-8 2:0.0147059 27:0.0147059 
-4.71162058520842 2:0.117647 12:1 27:0.117647 28:0.118644 29:0.104167 
-4.631387888652949 2:0.205882 12:1 27:0.205882 28:0.220339 29:0.166667 
-0.5971310959635028 1:1 2:0.558824 12:1 25:0.5 27:0.558824 28:0.474576 29:0.333333 
-2.955782021387753 2:0.426471 25:0.5 27:0.426471 28:0.322034 29:0.208333 
-1.34590595819518 2:0.338235 25:0.5 27:0.338235 28:0.220339 29:0.145833 
-8 2:0.0147059 27:0.0147059 
-8 2:0.0147059 27:0.0147059 
-8 2:0.0147059 27:0.0147059 
-0.0292844159063361 1:1 2:0.264706 14:0.5 27:0.264706 28:0.20339 29:0.0833333 
-0.3664538449281436 2:0.5 4:1 14:0.5 27:0.5 28:0.423729 29:0.208333 
-1.215771493810931 2:0.191176 14:0.5 27:0.191176 28:0.135593 29:0.0625 
-0.2697346008725928 2:0.397059 4:1 14:0.5 27:0.397059 28:0.322034 29:0.145833 
-8 2:0.0147059 27:0.0147059 
-8 2:0.0735294 27:0.0735294 28:0.0677966 29:0.0625 
-0.3716521746588317 2:0.323529 13:1 20:1 27:0.323529 28:0.288136 29:0.229167 
-8 2:0.0147059 27:0.0147059 
-0.3036625867775031 1:1 2:0.235294 13:1 20:1 27:0.235294 28:0.186441 29:0.104167 
-0.3705348555308982 2:0.205882 13:1 20:1 27:0.205882 28:0.169492 29:0.104167 
-0.3068654694429205 1:1 2:0.235294 13:1 20:1 27:0.235294 28:0.20339 29:0.145833 
-8 2:0.0147059 27:0.0147059 
-8 
-0.8794309163006125 2:0.0294118 27:0.0294118 28:0.0169492 
-8 2:0.0147059 27:0.0147059 
-8 
-8 2:0.0147059 27:0.0147059 
-8 2:0.0441176 17:0.5 27:0.0441176 28:0.0338983 
-8 
-8 2:0.0147059 27:0.0147059 
-4.993759319844442 2:0.0441176 27:0.0441176 28:0.0338983 29:0.0208333 
-8 
-8 2:0.0294118 27:0.0294118 28:0.0169492 
-8 2:0.0147059 27:0.0147059 
-8 2:0.0147059 27:0.0147059 
-8 2:0.0147059 27:0.0147059 
-0.4416783431783063 2:0.279412 4:1 13:1 27:0.279412 28:0.271186 29:0.166667 
-0.3026839675215862 2:0.441176 3:1 4:1 13:1 27:0.441176 28:0.457627 29:0.354167 
-0.4412139434072245 2:0.0882353 4:1 13:1 27:0.0882353 28:0.0847458 29:0.0416667 
-0.3106642350376234 2:0.411765 3:1 4:1 13:1 27:0.411765 28:0.423729 29:0.354167 
-0.525083045080914 2:0.308824 3:1 27:0.308824 28:0.305085 29:0.25 
