svm_type c_svc
kernel_type rbf
gamma 0.0131579
nr_class 2
total_sv 24821
rho 0.603797
label 1 -1
nr_sv 12501 12320
SV
1 2:2 74:1 
1 2:2 74:1 
1 2:4 6:1 74:3 75:1 
1 2:2 74:1 
1 2:3 74:2 
1 2:19 22:1 61:1 74:18 75:15 76:10 
1 2:16 22:1 61:1 74:15 75:12 76:7 
1 2:7 61:1 74:6 75:5 76:3 
1 2:10 74:9 75:6 76:5 
1 2:2 74:1 
1 2:2 74:1 
1 2:2 14:1 74:1 
1 2:2 74:1 
1 2:4 59:1 74:3 75:2 76:1 
1 2:5 61:1 74:4 75:3 76:1 
1 2:2 74:1 
1 2:3 74:2 75:1 
1 2:2 74:1 
1 2:2 74:1 
1 2:2 74:1 
1 2:2 74:1 
1 2:2 74:1 
1 2:7 74:6 75:4 76:2 
1 2:2 74:1 
1 2:5 74:4 75:2 
1 2:3 74:2 
1 2:3 74:2 75:1 
1 2:5 14:1 38:1 74:4 75:3 76:1 
1 2:4 59:1 74:3 75:2 76:1 
1 2:4 9:1 10:1 74:3 75:2 76:1 
1 2:4 74:3 75:2 76:1 
1 2:5 10:1 56:1 74:4 75:3 76:2 
1 2:4 21:1 74:3 75:2 76:1 
1 2:3 21:1 74:2 75:1 
1 2:2 21:1 74:1 
1 2:7 74:6 75:5 76:4 
1 2:14 39:1 74:13 75:12 76:8 
1 2:17 39:1 70:1 73:1 74:16 75:15 76:12 
1 2:19 74:18 75:14 76:9 
1 2:18 74:17 75:13 76:9 
1 2:14 74:13 75:10 76:6 
1 2:9 74:8 75:6 76:4 
1 2:4 74:3 75:2 76:1 
1 2:3 74:2 75:1 
1 2:2 74:1 
1 2:4 74:3 75:2 
1 2:5 74:4 75:2 
1 2:6 74:5 75:3 
1 2:8 74:7 75:5 76:2 
1 2:2 74:1 
1 2:2 74:1 
1 2:7 6:1 22:1 73:1 74:6 75:3 
1 2:9 65:1 72:1 74:8 75:6 76:3 
1 2:7 6:1 47:1 74:6 75:5 76:4 
1 2:12 6:1 47:1 74:11 75:10 76:7 
1 2:16 6:1 47:1 74:15 75:14 76:10 
1 2:2 74:1 
1 2:5 61:1 74:4 75:3 76:2 
1 2:2 61:1 74:1 
1 2:7 64:1 74:6 75:4 76:2 
1 2:2 74:1 
1 2:9 4:1 22:1 71:1 74:8 75:3 
1 2:11 4:1 22:1 71:1 74:10 75:5 76:1 
1 2:8 42:1 74:7 75:6 76:4 
0.8784634844944413 2:23 63:1 74:22 75:14 76:8 
1 2:8 58:1 74:7 75:6 76:4 
1 2:2 74:1 
1 2:2 74:1 
1 2:2 74:1 
1 2:5 74:4 75:2 
1 2:3 74:2 
1 2:18 13:1 35:1 62:1 74:17 75:16 76:13 
1 2:15 13:1 35:1 62:1 74:14 75:13 76:11 
1 2:2 74:1 
1 2:2 74:1 
1 2:9 22:1 74:8 75:6 76:3 
1 2:6 74:5 75:4 76:2 
1 2:4 74:3 75:2 
1 2:2 74:1 
1 2:6 64:1 74:5 75:4 76:3 
1 2:6 74:5 75:4 76:3 
1 2:20 13:1 16:1 18:1 37:1 62:1 74:19 75:15 76:9 
1 2:3 74:2 
1 2:2 74:1 
1 2:7 74:6 75:4 76:1 
1 2:13 4:1 12:1 13:1 32:1 35:1 39:1 74:12 75:8 76:1 
1 2:3 39:1 74:2 75:1 
1 2:2 74:1 
1 2:3 39:1 74:2 75:1 
1 2:2 74:1 
1 2:13 74:12 75:11 76:6 
1 2:15 37:1 74:14 75:12 76:6 
1 2:17 37:1 74:16 75:14 76:8 
1 2:2 74:1 
1 2:7 24:1 74:6 75:5 76:4 
1 2:7 39:1 74:6 75:5 76:4 
1 2:4 74:3 75:1 
1 2:5 74:4 75:2 
1 2:6 74:5 75:3 76:1 
1 2:9 74:8 75:6 76:3 
1 2:11 74:10 75:8 76:5 
1 2:4 74:3 75:1 
1 2:6 74:5 75:3 
1 2:14 66:1 74:13 75:11 76:7 
1 2:15 66:1 74:14 75:12 76:8 
1 2:17 66:1 74:16 75:14 76:10 
1 2:9 66:1 74:8 75:6 76:4 
1 2:14 66:1 74:13 75:11 76:8 
1 2:27 6:1 8:1 39:1 74:26 75:17 76:10 
1 2:2 74:1 
1 2:8 39:1 74:7 75:6 76:5 
1 2:2 74:1 
1 2:9 4:1 6:1 12:1 74:8 75:5 76:3 
1 2:4 59:1 74:3 75:2 76:1 
1 2:2 74:1 
1 2:2 74:1 
1 2:4 38:1 74:3 75:2 
1 2:5 74:4 75:3 76:2 
1 2:5 28:1 74:4 75:3 76:2 
1 2:7 28:1 74:6 75:5 76:4 
1 2:12 4:1 12:1 59:1 74:12 75:10 76:7 
1 2:14 4:1 12:1 59:1 74:14 75:12 76:9 
1 2:21 39:1 70:1 74:20 75:19 76:15 
1 2:18 39:1 70:1 74:17 75:16 76:12 
1 2:17 39:1 70:1 74:16 75:15 76:11 
1 2:16 39:1 70:1 74:15 75:14 76:10 
1 2:15 39:1 70:1 74:14 75:13 76:9 
0.318121659379411 2:12 39:1 70:1 74:11 75:10 76:7 
1 2:3 74:2 75:1 
1 2:5 74:4 75:3 76:2 
1 2:1 
1 2:4 74:3 75:2 76:1 
1 2:1 
1 2:5 74:4 75:2 
1 2:4 74:3 75:2 76:1 
1 2:16 13:1 37:1 62:1 74:15 75:11 76:5 
1 2:2 74:1 
1 2:4 74:3 75:2 
1 2:1 
1 2:4 56:1 74:3 75:2 76:1 
1 2:3 56:1 74:2 75:1 
1 2:2 74:1 
1 2:15 24:1 73:1 74:14 75:10 76:4 
1 2:16 24:2 39:1 73:1 74:15 75:11 76:3 
1 2:15 39:1 73:1 74:14 75:10 76:4 
1 2:2 74:1 
1 2:2 74:1 
1 2:4 74:3 75:2 76:1 
1 2:2 74:1 
1 2:3 74:2 
1 2:18 3:1 27:1 31:1 36:1 74:17 75:15 76:10 
1 2:12 74:11 75:8 76:3 
1 2:28 26:1 74:27 75:24 76:14 
1 2:5 12:1 74:4 75:3 76:1 
1 2:4 45:1 74:3 75:2 
1 2:2 74:1 
1 2:2 74:1 
1 2:2 74:1 
1 2:9 18:1 47:1 74:8 75:7 76:5 
1 2:4 6:1 72:1 74:3 75:2 76:1 
1 2:5 74:4 75:3 76:2 
1 2:9 38:1 74:8 75:7 76:5 
1 2:10 38:1 74:9 75:8 76:6 
1 2:11 38:1 74:10 75:9 76:7 
1 2:12 38:1 74:11 75:10 76:8 
1 2:14 38:1 74:13 75:12 76:10 
1 2:2 74:1 
1 2:9 47:1 74:8 75:7 76:5 
1 2:10 28:1 74:9 75:8 76:5 
1 2:6 28:1 74:5 75:4 76:2 
1 2:5 12:1 70:1 74:4 75:3 76:1 
1 2:13 74:12 75:10 76:5 
1 2:14 74:13 75:11 76:6 
1 2:15 74:14 75:12 76:7 
1 2:16 74:15 75:13 76:8 
1 2:17 74:16 75:14 76:9 
1 2:11 13:1 37:1 62:1 74:10 75:8 76:3 
1 2:2 74:1 
1 2:13 61:1 71:1 74:12 75:10 76:4 
1 2:17 61:1 71:1 74:16 75:13 76:5 
1 2:19 61:1 71:1 74:18 75:15 76:6 
1 2:11 13:1 35:1 41:1 65:1 74:10 75:8 76:4 
1 2:9 34:1 74:8 75:6 76:5 
1 2:7 34:1 74:6 75:4 76:3 
1 2:6 6:1 74:5 75:4 76:2 
1 2:20 34:1 39:1 74:19 75:16 76:14 
1 2:28 62:1 74:27 75:25 76:21 
1 2:25 12:1 33:1 52:1 74:24 75:20 76:11 
1 2:15 72:1 74:14 75:9 76:5 
1 2:18 22:1 34:1 74:17 75:13 76:8 
1 2:22 22:1 34:1 74:21 75:17 76:11 
1 2:4 74:3 75:2 76:1 
1 2:5 39:1 74:4 75:3 76:2 
1 2:5 39:1 74:4 75:3 76:2 
1 2:8 74:7 75:4 76:1 
1 2:9 74:8 75:5 76:1 
1 2:10 74:9 75:6 76:2 
1 2:11 74:10 75:7 76:3 
1 2:13 74:12 75:9 76:5 
1 2:14 74:13 75:10 76:6 
1 2:9 74:8 75:7 76:5 
1 2:11 41:1 74:10 75:7 76:1 
1 1:1 2:21 41:1 61:1 64:1 74:20 75:16 76:7 
1 2:13 6:1 72:1 74:12 75:11 76:10 
1 2:13 6:1 72:1 74:12 75:11 76:10 
1 2:15 74:14 75:9 76:5 
1 2:15 74:14 75:11 76:6 
1 2:2 74:1 
1 2:3 74:2 75:1 
1 2:2 74:1 
1 2:8 4:1 14:1 74:7 75:5 76:2 
1 2:2 74:1 
1 2:2 74:1 
1 2:3 74:2 75:1 
1 2:6 74:5 75:4 76:2 
1 2:7 47:1 68:1 74:6 75:5 76:4 
1 2:9 5:1 47:1 68:1 74:8 75:7 76:5 
1 2:6 16:1 74:5 75:4 76:2 
1 2:5 42:1 74:4 75:3 76:1 
1 2:3 42:1 74:2 75:1 
1 2:11 74:10 75:9 76:7 
1 2:2 74:1 
1 2:2 74:1 
1 2:2 74:1 
1 2:4 47:1 74:3 75:2 
1 2:7 47:1 74:6 75:5 76:4 
1 2:2 74:1 
1 2:9 24:1 74:8 75:7 76:5 
1 2:6 35:1 74:5 75:4 76:2 
1 2:4 74:3 75:2 76:1 
1 2:9 74:8 75:5 76:3 
1 2:8 74:7 75:4 76:2 
1 2:7 74:6 75:3 76:2 
1 2:4 74:3 75:2 76:1 
1 2:3 24:1 74:2 75:1 
1 2:6 74:5 75:4 76:1 
1 2:4 74:3 75:2 76:1 
1 2:2 74:1 
1 2:2 74:1 
1 2:2 74:1 
1 2:2 74:1 
1 2:2 74:1 
1 2:4 74:3 75:1 
1 2:11 39:1 74:10 75:8 76:6 
1 2:5 67:1 74:4 75:3 76:1 
1 2:19 6:1 24:1 47:1 74:18 75:14 76:6 
1 2:20 6:1 24:1 47:1 74:19 75:15 76:7 
1 2:22 6:1 24:1 47:1 74:21 75:17 76:9 
1 2:2 74:1 
1 2:11 12:1 21:1 74:10 75:9 76:7 
1 2:2 38:1 74:1 
1 2:2 38:1 74:1 
1 2:3 38:1 74:2 75:1 
1 2:4 38:1 74:3 75:2 76:1 
1 2:6 38:1 74:5 75:4 76:3 
1 2:20 4:1 30:1 31:1 39:1 41:1 74:19 75:16 76:7 
1 2:2 74:1 
1 2:2 74:1 
1 2:5 10:1 56:1 74:4 75:3 76:2 
1 2:14 12:1 74:13 75:10 76:8 
1 2:7 58:1 74:6 75:3 76:2 
1 2:2 74:1 
1 2:3 74:2 75:1 
1 2:4 74:3 75:2 76:1 
1 2:7 74:6 75:5 76:3 
1 2:7 39:1 74:6 75:5 76:4 
1 2:2 74:1 
1 2:2 74:1 
1 2:7 23:1 74:6 75:4 76:2 
1 2:9 74:8 75:7 76:5 
1 2:2 74:1 
1 2:2 74:1 
1 2:9 36:1 74:8 75:7 76:5 
1 2:10 36:1 74:9 75:8 76:6 
1 2:11 36:1 74:10 75:9 76:7 
1 2:12 36:1 74:11 75:10 76:8 
1 2:13 36:1 74:12 75:11 76:9 
1 2:14 36:1 74:13 75:12 76:10 
1 2:15 36:1 74:14 75:13 76:11 
1 2:16 36:1 74:15 75:14 76:12 
1 2:17 36:1 74:16 75:15 76:13 
1 2:18 36:1 74:17 75:16 76:14 
1 2:19 36:1 74:18 75:17 76:15 
1 2:23 36:1 74:22 75:20 76:17 
1 2:24 36:1 74:23 75:21 76:18 
1 2:25 36:1 74:24 75:22 76:19 
1 2:27 36:1 74:26 75:24 76:21 
1 2:9 36:1 74:8 75:7 76:5 
1 2:4 74:3 75:2 
1 2:24 72:1 74:23 75:16 76:9 
1 2:8 16:1 74:7 75:6 76:4 
1 2:4 74:3 75:2 76:1 
1 2:4 74:3 75:2 76:1 
1 2:3 74:2 75:1 
1 2:4 44:1 74:3 75:2 
1 2:18 44:1 74:17 75:16 76:12 
1 2:19 44:1 74:18 75:17 76:13 
1 2:20 44:1 74:19 75:18 76:14 
1 2:10 13:1 33:1 37:1 71:1 74:9 75:7 76:2 
1 2:4 44:1 74:3 75:2 
0.573822199420932 2:20 44:1 74:19 75:17 76:14 
1 2:20 3:1 11:1 36:1 72:1 74:19 75:12 76:7 
1 2:13 54:1 74:12 75:11 76:8 
1 2:11 54:1 74:10 75:9 76:7 
1 2:2 74:1 
1 2:4 14:1 74:3 75:1 
1 2:5 12:1 74:4 75:2 
1 2:16 16:1 74:15 75:13 76:8 
1 2:15 16:1 74:14 75:12 76:7 
1 2:14 16:1 74:13 75:11 76:7 
1 2:3 74:2 75:1 
1 2:2 74:1 
1 2:4 74:3 75:2 
0.7142687954209728 2:12 4:1 6:1 12:1 74:11 75:8 76:2 
1 2:14 4:1 6:1 12:1 74:13 75:10 76:3 
1 2:10 4:1 6:1 12:1 74:9 75:6 76:1 
1 2:12 4:1 6:1 12:1 74:11 75:8 76:2 
1 2:3 74:2 75:1 
1 2:6 74:5 75:4 
1 2:18 12:1 47:1 52:1 59:1 74:17 75:15 76:6 
1 2:10 12:1 29:1 74:9 75:8 76:6 
1 2:16 12:1 71:1 74:15 75:12 76:6 
1 2:20 12:1 71:1 74:19 75:15 76:7 
1 2:21 12:1 71:1 74:20 75:16 76:8 
1 2:23 12:1 71:1 74:22 75:18 76:10 
1 2:24 12:1 71:1 74:23 75:19 76:11 
1 2:27 12:1 71:1 74:26 75:22 76:14 
1 2:30 12:1 71:1 74:29 75:25 76:15 
1 2:2 74:1 
1 2:3 74:2 75:1 
1 2:4 74:3 75:2 76:1 
1 2:2 59:1 74:1 
1 2:5 74:4 75:2 76:1 
1 2:12 73:1 74:11 75:8 76:3 
1 2:2 74:1 
1 2:6 24:1 74:5 75:4 76:3 
1 2:2 74:1 
1 2:2 74:1 
1 2:2 74:1 
1 2:6 24:1 74:5 75:4 76:3 
1 2:6 24:1 74:5 75:4 76:3 
1 2:7 37:1 52:1 74:6 75:5 76:3 
1 2:19 24:1 74:18 75:14 76:9 
1 2:2 74:1 
1 1:1 2:12 6:1 74:11 75:7 76:5 
1 2:2 74:1 
1 2:4 10:1 31:1 74:3 75:2 76:1 
1 2:10 74:9 75:7 76:4 
1 2:11 74:10 75:8 76:5 
1 2:12 74:11 75:9 76:6 
1 2:13 74:12 75:10 76:7 
1 2:14 74:13 75:11 76:8 
1 2:16 74:15 75:13 76:10 
1 2:11 13:1 37:1 62:1 74:10 75:8 76:3 
1 2:11 37:1 55:1 74:10 75:9 76:7 
1 2:4 44:1 74:3 75:2 
1 2:1 
1 2:2 74:1 
1 2:3 74:2 75:1 
1 2:4 74:3 75:2 76:1 
1 2:3 74:2 75:1 
1 2:4 44:1 74:3 75:2 
1 2:41 10:1 12:1 44:1 56:2 71:1 74:40 75:34 76:19 
1 2:12 40:1 47:1 74:11 75:10 76:7 
1 2:5 74:4 75:1 
1 2:10 4:1 12:1 34:1 74:9 75:6 76:2 
1 2:2 74:1 
1 2:12 74:11 75:10 76:9 
1 2:17 42:1 74:16 75:14 76:12 
1 2:7 56:1 74:6 75:5 76:3 
1 2:2 74:1 
1 2:2 74:1 
1 2:5 74:4 75:2 76:1 
1 2:7 74:6 75:4 76:3 
1 2:11 7:1 74:10 75:7 76:5 
1 2:13 7:1 74:12 75:9 76:7 
1 2:3 74:2 75:1 
1 2:4 74:3 75:2 76:1 
1 2:5 74:4 75:3 76:2 
1 2:13 33:1 34:1 74:12 75:9 76:5 
1 2:36 10:1 38:1 51:1 74:35 75:32 76:26 
1 2:5 74:4 75:1 
1 2:7 74:6 75:3 76:1 
1 2:8 74:7 75:4 76:2 
1 2:10 74:9 75:6 76:4 
1 2:4 74:3 75:2 76:1 
1 2:4 74:3 75:2 76:1 
1 2:3 74:2 75:1 
1 2:2 74:1 
1 2:2 74:1 
1 2:11 70:1 72:1 74:10 75:8 76:4 
1 2:8 15:1 74:7 75:5 
1 2:5 39:1 74:4 75:3 76:2 
1 2:7 70:1 73:1 74:6 75:5 76:4 
1 2:14 31:1 74:13 75:12 76:9 
1 2:17 31:1 74:16 75:15 76:11 
1 2:18 31:1 74:17 75:16 76:12 
1 2:21 31:1 74:20 75:19 76:14 
1 2:17 31:1 74:16 75:15 76:11 
1 2:20 31:1 74:19 75:18 76:13 
1 2:10 31:1 74:9 75:8 76:6 
1 2:11 31:1 74:10 75:9 76:7 
1 2:14 31:1 74:13 75:12 76:9 
1 2:15 31:1 74:14 75:13 76:10 
1 2:18 31:1 74:17 75:16 76:12 
1 2:2 74:1 
1 2:5 74:4 75:3 76:1 
1 2:6 74:5 75:4 76:2 
1 2:7 74:6 75:5 76:3 
1 2:9 74:8 75:7 76:5 
1 2:4 6:1 74:3 75:1 
1 2:17 4:1 7:1 61:1 74:16 75:13 76:6 
1 2:15 4:1 7:1 61:1 74:14 75:11 76:6 
1 2:2 74:1 
1 2:6 74:5 75:3 76:2 
1 2:17 4:1 7:1 61:1 74:16 75:13 76:6 
1 2:15 4:1 7:1 61:1 74:14 75:11 76:6 
1 2:2 74:1 
1 2:6 74:5 75:3 76:2 
1 2:2 74:1 
1 2:2 74:1 
1 2:6 74:5 75:3 76:1 
1 2:2 74:1 
1 2:3 74:2 
1 2:8 74:7 75:5 76:2 
1 2:3 74:2 
1 2:2 74:1 
1 2:7 74:6 75:4 76:1 
1 2:2 74:1 
1 2:14 61:1 74:13 75:12 76:8 
1 2:7 61:1 74:6 75:5 76:3 
1 2:9 61:1 74:8 75:7 76:5 
0.4517707959213337 2:8 31:1 74:7 75:6 76:4 
1 2:11 61:1 74:10 75:9 76:6 
1 2:7 74:6 75:5 76:3 
1 2:24 4:1 12:1 13:1 32:1 37:1 39:1 74:23 75:19 76:9 
1 2:10 14:1 74:9 75:3 
1 2:12 14:1 74:11 75:5 76:1 
1 2:2 74:1 
1 2:2 14:1 74:1 
1 2:7 33:1 54:1 73:1 74:6 75:5 76:1 
1 2:7 74:6 75:4 76:2 
1 2:2 74:1 
1 2:2 74:1 
1 2:5 61:1 74:4 75:3 76:2 
1 2:6 61:1 74:5 75:4 76:3 
1 2:2 74:1 
1 2:7 74:6 75:5 76:3 
1 2:6 74:5 75:4 76:2 
1 2:5 74:4 75:3 76:1 
1 2:4 74:3 75:2 
1 2:2 74:1 
1 2:12 6:1 47:1 74:11 75:10 76:7 
1 2:13 6:1 47:1 74:12 75:11 76:8 
1 2:14 6:1 47:1 74:13 75:12 76:9 
1 2:16 6:1 47:1 74:15 75:14 76:11 
1 2:4 74:3 75:2 76:1 
1 2:9 74:8 75:7 76:3 
1 2:19 22:1 74:18 75:17 76:12 
1 2:6 10:1 63:1 74:5 75:4 76:3 
1 2:6 74:5 75:2 76:1 
1 2:6 74:5 75:3 76:2 
1 2:2 74:1 
1 2:3 74:2 75:1 
1 2:6 74:5 75:4 76:1 
1 2:2 74:1 
1 2:3 74:2 
1 2:2 74:1 
1 2:2 74:1 
1 2:5 74:4 75:3 76:2 
1 2:2 74:1 
1 2:5 74:4 75:3 76:1 
1 2:12 39:1 74:11 75:8 76:6 
1 2:2 74:1 
1 2:8 66:1 74:7 75:6 76:4 
1 2:10 66:1 74:9 75:8 76:6 
1 2:7 66:1 74:6 75:5 76:4 
1 2:9 66:1 74:8 75:7 76:6 
1 2:3 74:2 
1 2:2 74:1 
1 2:11 64:1 74:10 75:7 76:5 
1 2:6 74:5 75:4 76:3 
1 2:4 74:3 75:2 76:1 
1 2:2 74:1 
1 2:2 74:1 
1 2:2 74:1 
1 2:2 74:1 
1 2:3 74:2 75:1 
1 2:8 74:7 75:6 76:5 
1 2:7 74:6 75:3 76:1 
1 2:7 16:1 74:6 75:5 76:4 
1 2:2 74:1 
1 2:11 22:1 59:1 74:10 75:7 76:4 
1 2:9 59:1 74:8 75:5 76:3 
1 2:7 59:1 74:6 75:4 76:3 
1 2:11 74:10 75:7 76:3 
1 2:8 74:7 75:6 76:3 
1 2:9 37:1 74:8 75:7 76:5 
1 2:7 37:1 74:6 75:5 76:3 
1 2:8 74:7 75:6 76:5 
1 2:2 74:1 
1 2:4 44:1 74:3 75:2 
1 2:8 44:1 74:7 75:6 76:4 
1 2:10 44:1 74:9 75:8 76:6 
1 2:11 44:1 74:10 75:9 76:7 
1 2:12 44:1 74:11 75:10 76:8 
1 2:13 44:1 74:12 75:11 76:9 
1 2:14 44:1 74:13 75:12 76:10 
1 2:15 44:1 74:14 75:13 76:11 
1 2:16 44:1 74:15 75:14 76:12 
1 2:18 44:1 74:17 75:16 76:14 
1 2:4 74:3 75:1 
1 2:10 74:9 75:3 
1 2:12 74:11 75:4 
1 2:2 74:1 
1 2:4 74:3 75:1 
1 2:8 74:7 75:2 
1 2:10 74:9 75:3 
1 2:8 74:7 75:2 
1 2:3 74:2 75:1 
1 2:9 74:8 75:7 76:3 
1 2:2 74:1 
1 2:3 74:2 75:1 
1 2:6 34:1 47:1 74:5 75:4 76:3 
1 2:3 74:2 75:1 
1 2:4 74:3 75:2 76:1 
1 2:6 74:5 75:4 76:3 
1 2:2 74:1 
1 2:7 74:6 75:3 76:2 
1 2:19 25:1 61:1 74:18 75:14 76:9 
1 2:26 25:1 61:1 74:25 75:18 76:10 
1 2:31 25:1 61:1 74:30 75:23 76:15 
1 2:33 25:1 61:1 74:32 75:25 76:17 
1 2:35 25:1 61:1 74:34 75:27 76:18 
1 2:3 74:2 75:1 
1 2:26 23:1 44:1 47:1 48:1 74:25 75:21 76:14 
1 2:30 23:1 44:1 47:1 48:1 74:29 75:25 76:18 
1 2:32 23:1 44:1 47:1 48:1 74:31 75:27 76:20 
1 2:9 74:8 75:6 76:1 
1 2:12 74:11 75:9 76:3 
1 2:15 74:14 75:12 76:6 
1 2:16 74:15 75:13 76:7 
1 2:17 74:16 75:14 76:8 
1 2:19 74:18 75:16 76:10 
1 2:20 74:19 75:17 76:11 
1 2:22 74:21 75:19 76:13 
1 2:21 18:1 47:1 74:20 75:19 76:12 
1 2:19 13:1 35:1 61:1 62:1 74:18 75:15 76:9 
1 2:20 13:1 35:1 61:1 62:1 74:19 75:16 76:10 
1 2:21 13:1 35:1 61:1 62:1 74:20 75:17 76:11 
1 2:22 13:1 35:1 61:1 62:1 74:21 75:18 76:12 
1 2:24 13:1 35:1 61:1 62:1 74:23 75:20 76:14 
1 2:26 13:1 35:1 61:1 62:1 74:25 75:22 76:16 
1 2:30 13:1 35:1 61:1 62:1 74:29 75:26 76:20 
1 2:18 74:17 75:9 76:4 
1 2:19 74:18 75:10 76:5 
1 2:3 74:2 75:1 
1 2:9 13:1 37:1 62:1 74:8 75:7 76:4 
1 2:1 
1 2:8 45:1 74:7 75:6 76:4 
1 2:4 22:1 74:3 75:2 76:1 
1 2:7 22:2 74:6 75:5 76:4 
1 2:9 22:2 74:8 75:7 76:5 
1 2:10 22:2 74:9 75:8 76:6 
1 2:3 74:2 
1 2:4 74:3 75:1 
1 2:3 74:2 75:1 
1 2:2 74:1 
1 2:13 11:1 13:1 37:1 59:1 74:12 75:11 76:8 
1 2:3 74:2 75:1 
1 2:4 74:3 75:2 76:1 
1 2:10 22:1 74:9 75:8 76:4 
1 2:11 22:1 74:10 75:9 76:5 
1 2:12 22:1 74:11 75:10 76:6 
1 2:13 22:1 74:12 75:11 76:7 
1 2:23 22:2 74:22 75:21 76:12 
1 2:24 22:2 74:23 75:22 76:13 
1 2:26 22:2 74:25 75:24 76:15 
1 1:1 2:33 22:2 24:1 74:32 75:30 76:18 
1 2:10 6:1 10:1 74:9 75:6 
1 2:6 74:5 75:4 76:3 
1 2:2 74:1 
1 2:8 74:7 75:6 76:4 
1 2:5 42:1 74:4 75:3 76:2 
1 2:2 74:1 
1 2:9 33:1 74:8 75:5 
1 2:5 74:4 75:1 
1 2:27 6:1 58:1 74:26 75:20 76:13 
1 2:35 6:1 24:1 58:1 63:1 74:34 75:26 76:17 
1 2:25 6:1 58:1 74:24 75:18 76:12 
1 2:33 6:1 24:1 58:1 63:1 74:32 75:24 76:16 
1 2:22 58:1 74:21 75:15 76:10 
1 2:30 24:1 58:1 63:1 74:29 75:21 76:14 
1 2:16 61:1 74:14 75:11 76:8 
1 2:14 61:1 74:12 75:9 76:7 
1 2:3 74:2 75:1 
1 2:25 38:1 74:24 75:23 76:19 
1 2:3 38:1 74:2 75:1 
1 2:17 38:1 74:16 75:15 76:12 
1 2:19 38:1 74:18 75:17 76:14 
1 2:20 38:1 74:19 75:18 76:15 
1 2:22 38:1 74:21 75:20 76:17 
1 2:10 6:1 13:1 14:1 26:1 35:1 74:9 75:8 76:2 
1 2:8 74:7 75:6 76:5 
1 2:6 74:5 75:4 76:3 
1 2:5 74:4 75:3 
1 2:2 74:1 
1 2:8 61:1 74:7 75:6 76:4 
1 2:7 61:1 74:6 75:5 76:3 
1 2:6 74:5 75:3 
1 2:9 24:1 74:8 75:7 76:5 
1 2:2 74:1 
1 2:2 74:1 
1 2:6 10:1 34:1 74:5 75:4 76:3 
1 2:2 74:1 
1 2:3 74:2 
1 2:2 74:1 
1 2:6 4:1 12:1 71:1 74:5 75:3 76:1 
1 2:6 6:1 47:1 74:5 75:4 76:3 
1 2:11 13:1 14:1 37:1 62:1 74:10 75:8 76:3 
0.07250682475377676 2:23 12:1 13:1 14:1 37:1 62:1 74:21 75:18 76:8 
1 1:1 2:31 12:1 13:1 14:1 37:1 62:1 74:29 75:21 76:10 
1 2:34 12:1 13:1 24:1 37:1 39:1 62:1 74:33 75:26 76:16 
1 2:31 12:1 24:1 74:30 75:23 76:14 
1 2:24 12:1 24:1 74:23 75:18 76:10 
1 2:1 
1 2:5 74:4 75:2 
1 2:14 10:1 15:1 67:1 74:13 75:8 76:1 
1 2:15 10:1 15:1 67:1 74:14 75:9 76:2 
1 2:11 34:1 72:2 74:10 75:6 76:2 
1 2:5 41:1 74:4 75:3 76:1 
1 2:4 41:1 74:3 75:2 
1 2:2 41:1 74:1 
1 2:17 12:1 56:1 74:16 75:15 76:10 
1 2:20 12:1 56:1 74:19 75:17 76:12 
1 2:24 12:1 56:1 74:23 75:20 76:12 
1 2:4 74:3 75:2 76:1 
1 2:16 7:1 48:1 74:15 75:13 76:8 
1 2:18 7:1 48:1 74:17 75:15 76:10 
1 2:3 74:2 75:1 
1 2:11 58:1 74:10 75:9 76:6 
1 2:14 47:1 71:1 74:13 75:8 76:4 
1 2:3 24:1 74:2 75:1 
1 2:2 74:1 
1 2:8 64:1 74:7 75:6 76:4 
1 2:9 57:1 74:8 75:6 76:4 
1 2:4 68:1 72:1 74:3 75:2 76:1 
1 2:5 68:1 72:1 74:4 75:3 76:2 
1 2:7 68:1 72:1 74:6 75:5 76:4 
1 2:5 74:4 75:3 76:2 
1 2:7 74:6 75:5 76:3 
1 2:8 74:7 75:6 76:4 
1 2:9 74:8 75:7 76:5 
1 2:10 74:9 75:8 76:6 
1 2:13 74:12 75:11 76:8 
1 2:8 34:1 74:7 75:4 76:2 
1 2:13 24:1 34:1 72:1 74:12 75:8 76:3 
1 2:12 24:1 34:1 72:1 74:11 75:7 76:2 
1 2:5 74:4 75:3 76:2 
1 2:7 74:6 75:5 76:4 
1 2:12 45:1 74:11 75:9 76:7 
1 2:30 12:2 38:1 56:1 70:1 71:1 74:29 75:26 76:17 
1 2:22 12:2 56:1 70:1 71:1 74:21 75:19 76:12 
1 2:20 12:2 56:1 70:1 71:1 74:19 75:17 76:10 
1 2:2 74:1 
1 2:7 74:6 75:5 76:4 
1 2:8 11:1 74:7 75:6 76:4 
1 2:3 74:2 
1 2:3 74:2 75:1 
1 2:8 11:1 74:7 75:6 76:4 
1 2:21 60:1 74:20 75:16 76:10 
1 2:14 57:1 74:13 75:12 76:7 
1 2:7 14:1 74:6 75:5 76:2 
1 2:11 45:1 74:10 75:9 76:6 
1 2:14 37:1 74:13 75:12 76:7 
1 2:15 37:1 74:14 75:13 76:8 
1 2:2 74:1 
1 2:5 74:4 75:3 
1 2:3 56:1 74:2 75:1 
1 2:2 74:1 
1 2:5 74:4 75:3 76:1 
1 2:4 59:1 74:3 75:2 76:1 
1 2:3 74:2 75:1 
1 2:10 42:1 74:9 75:4 
1 2:16 42:1 74:15 75:10 76:6 
1 2:17 42:1 74:16 75:11 76:7 
1 2:18 42:1 74:17 75:12 76:8 
1 2:2 74:1 
1 2:21 6:1 12:1 47:1 53:1 74:20 75:17 76:9 
1 2:11 47:1 61:1 74:10 75:5 76:1 
1 2:4 74:3 75:2 
1 2:2 74:1 
1 2:6 59:1 74:5 75:4 76:2 
1 2:4 59:1 74:3 75:2 76:1 
1 2:22 6:1 12:1 59:1 74:21 75:20 76:17 
1 2:21 6:1 12:1 59:1 74:20 75:19 76:16 
1 2:20 6:1 12:1 59:1 74:19 75:18 76:15 
1 2:19 6:1 12:1 59:1 74:18 75:17 76:14 
1 2:18 6:1 12:1 59:1 74:17 75:16 76:13 
1 2:16 6:1 12:1 59:1 74:15 75:14 76:11 
1 2:4 71:1 74:3 75:1 
1 2:2 74:1 
1 2:6 74:5 75:3 76:1 
1 2:3 74:2 75:1 
1 2:1 
1 2:5 74:4 75:2 
1 2:2 74:1 
1 2:7 13:1 37:1 62:1 74:6 75:5 76:3 
1 2:2 74:1 
1 2:2 74:1 
1 2:2 74:1 
1 2:2 74:1 
1 2:2 74:1 
1 2:15 37:1 39:1 64:1 74:14 75:10 76:4 
1 2:14 37:1 39:1 64:1 74:13 75:9 76:4 
1 2:5 74:4 75:3 76:1 
1 2:2 74:1 
1 2:3 74:2 75:1 
1 2:10 74:9 75:6 76:2 
1 2:12 74:11 75:8 76:3 
1 2:4 44:1 74:3 75:2 
1 2:41 10:1 12:1 44:1 56:2 71:1 74:40 75:34 76:19 
1 2:8 74:7 75:6 76:5 
1 2:11 74:10 75:9 76:7 
1 2:12 74:11 75:10 76:8 
1 2:13 74:12 75:11 76:9 
1 2:14 74:13 75:12 76:10 
1 2:15 74:14 75:13 76:11 
1 2:7 74:6 75:5 76:4 
1 2:10 74:9 75:8 76:6 
1 2:11 74:10 75:9 76:7 
1 2:12 74:11 75:10 76:8 
1 2:13 74:12 75:11 76:9 
1 2:14 74:13 75:12 76:10 
1 2:4 74:3 75:2 76:1 
1 2:7 74:6 75:5 76:3 
1 2:8 74:7 75:6 76:4 
1 2:9 74:8 75:7 76:5 
1 2:10 74:9 75:8 76:6 
1 2:11 74:10 75:9 76:7 
1 2:6 74:5 75:4 76:2 
1 2:7 74:6 75:5 76:3 
1 2:9 74:8 75:7 76:4 
1 2:10 74:9 75:8 76:5 
1 2:12 74:11 75:10 76:7 
1 2:8 74:7 75:6 76:3 
1 2:9 74:8 75:7 76:4 
1 2:11 74:10 75:9 76:6 
1 2:2 74:1 
1 2:3 74:2 75:1 
1 2:4 74:3 75:2 76:1 
1 2:6 74:5 75:4 76:3 
1 2:4 74:3 75:2 
1 2:5 74:4 75:3 76:1 
1 2:6 74:5 75:4 76:2 
1 2:8 74:7 75:6 76:4 
1 2:11 74:10 75:7 76:5 
1 2:10 74:9 75:6 76:4 
1 2:9 74:8 75:5 76:3 
1 2:8 74:7 75:4 76:2 
1 2:7 74:6 75:3 76:1 
1 2:5 74:4 75:2 76:1 
1 2:8 31:1 74:7 75:6 76:4 
1 2:2 74:1 
1 2:4 74:3 75:2 76:1 
1 2:8 74:7 75:4 76:2 
1 2:9 74:8 75:5 76:3 
1 2:2 74:1 
1 2:7 74:6 75:5 76:2 
1 2:13 14:1 42:1 74:12 75:11 76:5 
1 2:13 14:1 42:1 74:12 75:11 76:5 
1 2:2 74:1 
1 2:2 74:1 
1 2:2 74:1 
1 2:4 38:1 74:3 75:2 
1 2:2 74:1 
1 2:8 39:1 74:7 75:6 76:4 
0.2137373128747881 2:16 39:1 67:1 74:15 75:8 76:5 
1 2:6 67:1 74:5 75:3 76:2 
1 2:2 74:1 
1 2:8 74:7 75:6 76:5 
1 2:5 74:4 75:3 76:2 
1 2:9 8:1 74:8 75:6 76:3 
1 2:6 33:1 74:5 75:4 76:2 
0.290553931025079 2:12 4:1 45:1 74:11 75:6 76:3 
1 2:16 4:1 45:1 74:15 75:10 76:7 
1 2:15 7:1 74:14 75:12 76:4 
1 2:12 18:1 72:1 74:11 75:10 76:8 
1 2:6 22:1 74:5 75:4 76:1 
1 2:4 74:3 75:2 
1 2:2 74:1 
1 2:8 74:7 75:4 
1 2:13 6:1 72:1 74:12 75:8 76:3 
1 2:2 74:1 
1 2:6 74:5 75:4 76:3 
1 2:9 33:1 55:1 74:8 75:7 76:4 
1 2:4 45:1 74:3 75:2 
1 2:7 9:1 74:6 75:5 76:3 
1 2:2 74:1 
1 2:3 74:2 75:1 
1 2:5 74:4 75:3 76:2 
1 2:3 74:2 75:1 
1 2:2 74:1 
1 2:2 74:1 
1 2:2 74:1 
1 2:2 74:1 
1 2:3 74:2 
1 2:2 74:1 
1 2:2 74:1 
1 2:4 74:3 75:2 
1 2:2 74:1 
1 2:2 74:1 
1 2:2 74:1 
1 2:12 74:11 75:10 76:7 
1 2:11 74:10 75:9 76:6 
1 2:10 74:9 75:8 76:5 
1 2:9 74:8 75:7 76:4 
1 2:8 74:7 75:6 76:3 
1 2:7 74:6 75:5 76:2 
1 2:6 74:5 75:4 76:1 
1 2:4 74:3 75:2 76:1 
1 2:3 39:1 74:2 75:1 
1 2:4 24:1 74:3 75:2 
1 2:2 74:1 
1 2:4 74:3 75:2 
1 2:2 74:1 
1 2:17 12:1 13:1 16:1 35:1 62:1 74:16 75:12 76:4 
1 2:2 74:1 
1 2:3 74:2 75:1 
1 2:14 74:13 75:10 76:3 
1 2:5 74:4 75:2 
1 2:3 74:2 
1 2:3 74:2 
1 2:8 74:7 75:5 76:3 
1 2:17 48:1 74:16 75:15 76:8 
1 2:18 12:1 29:1 43:1 52:1 74:17 75:12 76:6 
1 2:2 74:1 
1 2:2 74:1 
1 2:2 74:1 
1 2:21 72:1 74:20 75:10 76:5 
1 2:2 74:1 
1 2:5 39:1 74:4 75:3 76:2 
1 2:7 39:1 74:6 75:5 76:4 
0.585994671327021 2:13 39:1 64:1 74:12 75:8 76:2 
1 2:15 39:1 64:1 74:14 75:10 76:3 
1 2:4 74:3 75:2 76:1 
1 2:2 74:1 
1 2:2 74:1 
1 2:7 74:6 75:5 76:3 
1 2:4 74:3 75:2 76:1 
1 2:7 74:6 75:5 76:3 
1 2:5 35:1 74:4 75:3 76:1 
1 2:8 35:1 74:7 75:6 76:3 
1 2:9 35:1 74:8 75:7 76:4 
1 2:10 35:1 74:9 75:8 76:5 
1 2:11 35:1 74:10 75:9 76:6 
0.4076827026217631 2:9 58:1 74:8 75:4 
1 2:4 44:1 74:3 75:2 
1 2:7 74:6 75:5 76:3 
1 2:2 74:1 
1 2:2 74:1 
1 2:2 74:1 
1 2:4 74:3 75:1 
1 2:6 10:1 59:1 74:5 75:4 76:3 
1 2:2 74:1 
1 2:3 74:2 75:1 
1 2:2 74:1 
1 2:4 74:3 75:2 
1 2:5 38:1 74:4 75:3 76:1 
1 2:8 38:1 74:7 75:6 76:4 
1 2:9 38:1 74:8 75:7 76:5 
1 2:10 38:1 74:9 75:8 76:6 
1 2:11 38:1 74:10 75:9 76:7 
1 2:12 38:1 74:11 75:10 76:8 
1 2:13 38:1 74:12 75:11 76:9 
1 2:15 38:1 74:14 75:13 76:11 
1 2:2 74:1 
1 2:2 74:1 
1 2:5 74:4 75:2 76:1 
1 2:2 74:1 
1 2:2 74:1 
1 2:4 74:3 75:2 
1 2:2 74:1 
1 2:11 6:1 74:10 75:9 76:6 
1 2:13 64:1 74:12 75:11 76:10 
1 2:20 12:1 47:1 66:1 71:1 74:19 75:15 76:12 
1 2:2 74:1 
1 2:2 74:1 
1 2:2 74:1 
1 2:2 74:1 
1 2:7 73:1 74:6 75:4 76:2 
1 2:4 18:1 72:1 74:3 75:2 76:1 
1 2:17 18:1 24:1 72:1 74:16 75:14 76:11 
1 2:11 74:10 75:3 76:1 
1 2:2 74:1 
1 2:4 9:1 10:1 74:3 75:2 76:1 
0.2001083161798623 2:4 9:1 47:1 74:3 75:2 76:1 
1 2:9 41:1 74:8 75:7 76:4 
1 2:4 41:1 74:3 75:2 
1 2:19 6:1 39:1 74:18 75:13 76:6 
1 2:20 6:1 39:1 74:19 75:14 76:4 
1 2:8 74:7 75:5 76:2 
1 2:3 74:2 
1 2:3 74:2 
1 2:5 24:1 74:4 75:3 76:2 
1 2:3 38:1 74:2 75:1 
1 2:17 38:1 74:16 75:15 76:12 
1 2:19 38:1 74:18 75:17 76:14 
1 2:20 38:1 74:19 75:18 76:15 
1 2:22 38:1 74:21 75:20 76:17 
1 2:23 14:1 41:1 47:2 59:1 74:22 75:19 76:16 
1 2:13 47:2 59:1 74:12 75:9 76:7 
1 2:15 47:2 59:1 74:14 75:11 76:8 
1 2:8 74:7 75:4 76:2 
1 2:10 74:9 75:6 76:4 
1 2:1 
1 2:5 74:4 75:2 
1 2:8 39:1 74:7 75:6 76:4 
1 2:16 13:1 35:1 57:1 62:1 74:15 75:12 76:7 
1 2:2 74:1 
1 2:10 74:9 75:7 76:2 
1 2:12 39:1 74:11 75:9 76:2 
1 2:8 74:7 75:5 76:4 
1 2:4 74:3 75:2 76:1 
1 2:6 22:1 47:1 74:5 75:4 76:3 
1 2:7 22:1 47:1 74:6 75:5 76:4 
1 2:9 22:1 47:1 74:8 75:7 76:6 
1 2:11 22:1 47:1 74:10 75:9 76:7 
1 2:4 47:1 74:3 75:2 76:1 
1 2:6 24:1 74:5 75:4 76:3 
1 2:2 74:1 
1 2:3 74:2 75:1 
1 2:4 74:3 75:2 
1 2:8 74:7 75:5 76:2 
1 2:10 74:9 75:7 76:4 
1 2:2 74:1 
1 2:15 37:1 74:14 75:12 76:7 
1 2:7 37:1 74:6 75:4 76:2 
1 2:5 74:4 75:3 76:2 
1 2:2 74:1 
1 2:17 6:1 72:1 74:16 75:15 76:13 
1 2:34 10:1 37:1 38:1 51:1 74:33 75:28 76:15 
1 2:35 10:1 37:1 38:1 51:1 74:34 75:29 76:16 
1 2:2 74:1 
1 2:7 74:6 75:5 76:3 
1 2:4 74:3 75:2 
1 2:3 74:2 75:1 
1 2:2 74:1 
1 2:3 56:1 74:2 75:1 
1 2:6 45:1 74:5 75:4 76:3 
1 2:2 74:1 
1 2:4 74:3 75:1 
1 2:18 47:1 60:1 68:1 71:1 74:17 75:11 76:7 
1 2:3 74:2 75:1 
1 2:6 47:1 71:1 74:5 75:4 76:3 
1 2:3 74:2 
1 2:25 72:1 74:24 75:16 76:9 
1 2:27 72:1 74:26 75:18 76:11 
1 2:7 74:6 75:5 76:4 
1 2:14 16:1 47:1 74:13 75:10 76:8 
1 2:5 74:4 75:3 76:2 
1 2:5 74:4 75:3 76:2 
1 2:3 74:2 
1 2:9 16:1 74:8 75:7 76:6 
1 2:7 16:1 74:6 75:4 76:3 
1 2:4 34:1 74:3 75:1 
1 2:2 74:1 
1 2:15 47:1 74:14 75:13 76:9 
1 2:13 16:1 74:12 75:11 76:9 
1 2:2 74:1 
1 2:5 74:4 75:2 76:1 
1 2:6 74:5 75:4 76:3 
1 2:4 74:3 75:2 
1 2:2 74:1 
1 2:5 74:4 75:2 76:1 
1 2:15 47:1 74:14 75:13 76:9 
1 2:6 45:1 74:5 75:4 76:3 
1 2:2 74:1 
1 2:5 24:1 74:4 75:3 76:2 
1 2:5 74:4 75:1 
1 2:11 4:1 6:1 12:1 74:10 75:7 76:1 
1 2:5 39:1 74:4 75:3 76:2 
1 2:8 12:1 74:7 75:6 76:4 
1 2:3 74:2 75:1 
1 2:8 74:7 75:4 76:1 
1 2:11 74:10 75:7 76:3 
1 2:14 74:13 75:10 76:6 
1 2:17 74:16 75:13 76:9 
1 2:6 19:1 74:5 75:4 76:3 
1 2:2 74:1 
1 2:2 74:1 
1 2:5 74:4 75:1 
1 2:12 74:11 75:10 76:7 
1 2:6 45:1 74:5 75:4 76:3 
1 2:8 38:1 45:1 74:7 75:6 76:5 
1 2:6 42:1 74:5 75:3 76:2 
1 2:3 74:2 75:1 
1 2:2 74:1 
1 2:15 4:1 50:1 74:14 75:11 76:2 
1 2:20 4:1 50:1 74:19 75:15 76:5 
1 2:21 4:1 50:1 74:20 75:16 76:6 
0.02492971269732383 2:22 4:1 50:1 74:21 75:17 76:7 
0.7148449126182497 2:24 4:1 50:1 74:23 75:19 76:9 
1 2:25 4:1 50:1 74:24 75:20 76:10 
1 2:27 4:1 50:1 74:26 75:22 76:12 
1 2:2 74:1 
1 2:7 74:6 75:4 76:3 
1 2:2 74:1 
1 2:3 74:2 75:1 
1 2:2 74:1 
1 2:4 74:3 75:2 
1 2:21 13:1 24:1 35:1 39:1 62:1 74:20 75:16 76:8 
1 2:2 74:1 
1 2:3 74:2 75:1 
1 2:4 74:3 75:2 76:1 
1 2:5 74:4 75:3 76:2 
1 2:6 74:5 75:4 76:3 
1 2:7 74:6 75:5 76:4 
1 2:8 74:7 75:6 76:5 
1 2:9 74:8 75:7 76:6 
1 2:10 74:9 75:8 76:7 
1 2:11 74:10 75:9 76:8 
1 2:12 74:11 75:10 76:9 
1 2:13 74:12 75:11 76:10 
1 2:15 74:14 75:13 76:12 
1 2:14 8:1 13:1 35:1 62:1 74:13 75:11 76:6 
1 2:2 74:1 
1 2:2 74:1 
1 2:2 74:1 
1 2:8 67:1 74:7 75:6 76:5 
1 2:4 67:1 74:3 75:2 76:1 
1 2:21 37:1 45:1 65:1 74:20 75:17 76:9 
1 2:6 19:1 74:5 75:4 76:2 
1 2:2 74:1 
1 2:6 6:1 74:5 75:4 76:2 
1 2:3 74:2 75:1 
1 2:2 74:1 
1 2:3 74:2 
1 2:6 74:5 75:3 76:1 
1 2:7 74:6 75:4 76:2 
1 2:8 74:7 75:5 76:3 
1 2:9 74:8 75:6 76:4 
1 2:10 74:9 75:7 76:5 
1 2:11 74:10 75:8 76:6 
1 2:3 74:2 75:1 
1 2:8 74:7 75:6 76:5 
1 2:19 64:1 74:18 75:17 76:14 
1 2:8 47:1 74:7 75:6 76:4 
1 2:8 34:1 73:1 74:7 75:3 
1 2:2 74:1 
1 2:12 39:1 73:1 74:11 75:9 76:7 
1 2:4 72:1 74:3 75:2 
1 2:2 74:1 
1 2:24 4:1 10:1 12:1 71:1 74:23 75:17 76:8 
1 2:2 74:1 
1 2:3 74:2 75:1 
1 2:2 74:1 
1 2:12 12:1 56:1 74:11 75:10 76:8 
1 2:17 10:1 74:16 75:13 76:3 
1 2:19 10:1 74:18 75:15 76:5 
1 1:1 2:25 10:1 12:1 24:1 32:1 74:24 75:20 76:7 
1 2:7 74:6 75:4 76:2 
1 2:8 74:7 75:5 76:2 
1 2:9 74:8 75:6 76:3 
1 2:10 74:9 75:7 76:4 
1 2:11 74:10 75:8 76:5 
1 2:14 74:13 75:10 76:7 
1 2:10 74:9 75:8 76:4 
1 2:2 74:1 
1 2:3 74:2 75:1 
1 2:2 74:1 
1 2:2 74:1 
1 2:3 74:2 
1 2:2 74:1 
1 2:5 74:4 75:3 76:2 
1 2:2 74:1 
1 2:10 13:1 35:1 74:9 75:7 76:2 
1 2:4 44:1 74:3 75:2 
1 2:4 44:1 74:3 75:2 
1 2:3 74:2 75:1 
1 2:1 
1 2:4 74:3 75:1 
1 2:6 5:1 74:5 75:4 76:3 
1 2:19 5:1 74:18 75:15 76:9 
1 2:8 39:1 74:7 75:6 76:4 
1 2:10 39:1 74:9 75:8 76:6 
1 2:3 74:2 75:1 
1 2:4 74:3 75:2 76:1 
1 2:6 74:5 75:4 76:3 
1 2:6 74:5 75:4 76:2 
1 2:8 74:7 75:5 76:3 
1 2:6 74:5 75:4 76:2 
1 2:10 39:1 74:9 75:8 76:6 
1 2:14 39:1 74:13 75:10 76:8 
1 2:9 39:1 74:8 75:7 76:5 
1 2:13 39:1 74:12 75:9 76:7 
1 2:8 39:1 74:7 75:6 76:4 
1 2:12 39:1 74:11 75:8 76:6 
1 2:5 39:1 74:4 75:3 76:2 
1 2:9 39:1 74:8 75:5 76:4 
1 2:5 39:1 74:4 75:3 76:2 
1 2:7 39:1 74:6 75:5 76:4 
1 2:9 24:1 74:8 75:7 76:5 
1 2:10 24:1 74:9 75:8 76:6 
1 2:17 24:1 39:1 74:16 75:14 76:11 
1 2:18 24:1 39:1 74:17 75:15 76:12 
1 2:19 24:1 39:1 74:18 75:16 76:13 
1 2:6 41:1 74:5 75:4 76:2 
1 2:13 13:1 24:1 37:1 65:1 74:12 75:10 76:5 
1 2:5 39:1 74:4 75:3 76:2 
1 2:8 39:1 74:7 75:5 76:4 
1 2:4 72:1 74:3 75:2 
1 2:3 74:2 
1 2:2 74:1 
1 2:25 16:1 49:1 74:24 75:22 76:15 
1 2:26 16:1 49:1 74:25 75:23 76:16 
1 2:21 16:1 49:1 74:20 75:18 76:11 
1 2:22 16:1 49:1 74:21 75:19 76:12 
1 2:23 16:1 49:1 74:22 75:20 76:13 
1 2:7 37:1 57:1 74:6 75:5 76:3 
1 2:2 74:1 
1 2:7 47:1 74:6 75:5 76:4 
1 2:2 74:1 
1 2:2 74:1 
1 2:3 74:2 75:1 
1 2:10 6:1 64:1 74:9 75:8 76:6 
1 2:18 39:1 64:1 74:17 75:15 76:5 
1 2:2 74:1 
1 2:3 74:2 
1 2:7 16:1 74:6 75:5 76:4 
1 2:6 74:5 75:4 76:2 
1 2:8 16:1 74:7 75:6 76:4 
1 2:7 16:1 74:6 75:5 76:4 
1 2:2 74:1 
1 2:9 16:1 74:8 75:7 76:5 
1 2:10 16:1 74:9 75:8 76:6 
1 2:12 16:1 74:11 75:10 76:7 
1 2:9 16:1 74:8 75:7 76:5 
1 2:13 64:1 74:12 75:11 76:8 
1 2:4 61:1 74:3 75:2 
1 2:8 64:1 74:7 75:6 76:5 
1 2:10 73:1 74:9 75:7 76:4 
1 2:13 73:1 74:12 75:9 76:6 
1 2:14 73:1 74:13 75:9 76:6 
1 2:16 73:1 74:15 75:11 76:7 
1 2:6 10:1 74:5 75:4 76:3 
1 2:2 74:1 
1 2:9 74:8 75:6 76:3 
1 2:24 47:1 57:1 74:23 75:20 76:12 
1 2:2 74:1 
1 2:6 74:5 75:2 76:1 
1 2:2 74:1 
1 2:6 74:5 75:2 76:1 
1 2:2 74:1 
1 2:2 74:1 
1 2:2 74:1 
1 2:7 39:1 74:6 75:5 76:4 
1 2:2 74:1 
1 2:17 11:1 12:1 74:16 75:15 76:12 
1 2:4 74:3 75:2 76:1 
1 2:3 74:2 
1 2:2 74:1 
1 2:10 74:9 75:7 76:1 
1 2:11 74:10 75:8 76:2 
1 2:12 74:11 75:9 76:3 
1 2:14 74:13 75:11 76:5 
1 2:5 74:4 75:3 76:1 
1 2:3 74:2 75:1 
1 2:6 74:5 75:4 76:3 
1 2:5 74:4 75:3 76:2 
1 2:12 4:1 38:1 50:1 74:11 75:7 76:3 
0.1534798483263805 2:11 4:1 37:1 47:1 59:1 60:1 74:10 75:7 76:3 
1 2:3 74:2 
1 2:5 74:4 75:2 
1 2:6 31:1 74:5 75:4 76:3 
1 2:4 31:1 74:3 75:1 
1 2:8 74:7 75:6 76:5 
1 2:10 74:9 75:8 76:6 
1 2:12 22:1 74:11 75:10 76:7 
1 2:13 22:1 74:12 75:11 76:9 
1 2:10 74:9 75:7 76:5 
1 2:2 74:1 
1 2:2 74:1 
1 2:2 74:1 
1 2:11 40:1 74:10 75:8 76:5 
1 2:10 40:1 74:9 75:7 76:4 
1 2:9 40:1 74:8 75:6 76:4 
1 2:4 47:1 74:3 75:2 
1 2:12 13:1 35:1 62:1 74:11 75:9 76:3 
1 2:6 74:5 75:4 76:3 
1 2:5 74:4 75:3 76:1 
1 2:24 68:1 74:23 75:22 76:15 
1 2:16 74:15 75:12 76:6 
1 2:6 14:1 74:5 75:4 76:2 
1 2:4 74:3 75:1 
1 2:3 74:2 
1 2:2 74:1 
1 2:8 44:1 74:7 75:6 76:4 
1 2:4 7:1 74:3 75:1 
1 2:2 74:1 
1 2:5 39:1 74:4 75:3 76:2 
1 2:14 74:13 75:11 76:4 
1 2:11 74:10 75:8 76:2 
1 2:2 74:1 
1 2:2 74:1 
1 2:11 74:10 75:9 76:5 
1 2:18 4:1 7:1 27:1 74:17 75:13 76:5 
1 2:3 74:2 
1 2:3 64:1 74:2 75:1 
1 2:2 74:1 
1 2:5 74:4 75:3 
1 2:2 74:1 
1 2:3 74:2 75:1 
1 2:4 74:3 75:2 76:1 
1 2:5 74:4 75:3 76:2 
1 2:17 4:1 12:1 29:1 71:1 74:16 75:13 76:7 
1 2:16 10:1 13:1 26:1 35:1 51:1 74:15 75:11 76:7 
1 2:2 74:1 
1 2:8 4:1 12:1 71:1 74:7 75:5 76:3 
1 2:11 4:1 12:1 71:1 74:10 75:8 76:5 
1 2:4 74:3 75:2 76:1 
1 2:3 74:2 75:1 
1 2:6 61:1 74:5 75:3 76:2 
1 2:2 74:1 
1 2:4 74:3 75:2 76:1 
1 2:2 74:1 
1 2:2 74:1 
1 2:2 74:1 
1 2:14 61:1 74:13 75:12 76:8 
1 2:7 24:1 74:6 75:5 76:4 
1 2:16 39:1 42:1 74:15 75:10 76:8 
1 2:2 74:1 
1 2:3 74:2 75:1 
1 2:3 74:2 75:1 
1 2:1 
1 2:21 74:20 75:16 76:11 
1 2:4 74:3 75:2 76:1 
1 2:6 74:5 75:4 76:2 
1 2:5 74:4 75:3 76:1 
1 2:4 74:3 75:2 
1 2:2 74:1 
1 2:5 74:4 75:3 
1 2:4 38:1 74:3 75:2 
1 2:16 38:1 74:15 75:14 76:11 
1 2:17 38:1 74:16 75:15 76:12 
1 2:18 38:1 74:17 75:16 76:13 
1 2:19 38:1 74:18 75:17 76:14 
1 2:20 38:1 74:19 75:18 76:15 
1 2:21 38:1 74:20 75:19 76:16 
1 2:22 38:1 74:21 75:20 76:17 
1 2:23 38:1 74:22 75:21 76:18 
1 2:24 38:1 74:23 75:22 76:19 
1 2:25 38:1 74:24 75:23 76:20 
1 2:26 38:1 74:25 75:24 76:21 
1 2:3 38:1 74:2 75:1 
1 2:5 38:1 74:4 75:3 76:1 
0.647421499700676 2:7 38:1 74:6 75:5 76:3 
1 2:3 38:1 74:2 75:1 
1 2:2 74:1 
1 2:3 74:2 75:1 
1 2:7 74:6 75:5 76:4 
1 2:2 38:1 74:1 
1 2:3 38:1 74:2 75:1 
1 2:4 38:1 74:3 75:2 76:1 
1 2:5 38:1 74:4 75:3 76:2 
1 2:6 38:1 74:5 75:4 76:3 
1 2:7 38:1 74:6 75:5 76:4 
1 2:8 38:1 74:7 75:6 76:5 
1 2:10 38:1 74:9 75:8 76:7 
1 2:11 38:1 74:10 75:9 76:8 
1 2:12 38:1 74:11 75:10 76:9 
1 2:13 38:1 74:12 75:11 76:10 
1 2:14 38:1 74:13 75:12 76:11 
1 2:9 22:1 74:8 75:6 76:3 
1 2:6 74:5 75:4 76:2 
1 2:4 74:3 75:2 
1 2:2 74:1 
1 2:3 74:2 
1 2:3 74:2 
1 2:2 74:1 
1 2:2 74:1 
1 2:2 74:1 
1 2:6 71:1 72:1 74:5 75:4 76:3 
1 2:2 74:1 
1 2:4 74:3 75:2 76:1 
1 2:9 8:1 74:8 75:5 76:2 
1 2:2 74:1 
1 2:5 61:1 74:4 75:3 76:2 
1 2:3 74:2 
1 2:4 74:3 75:2 76:1 
1 2:8 74:7 75:6 76:5 
1 2:2 74:1 
1 2:6 74:5 75:4 76:3 
1 2:11 61:1 74:10 75:9 76:6 
1 2:7 74:6 75:5 76:2 
1 2:2 74:1 
1 2:3 74:2 75:1 
1 2:4 74:3 75:2 76:1 
1 2:7 74:6 75:4 76:3 
1 2:8 74:7 75:5 76:3 
1 2:10 74:9 75:7 76:5 
1 2:2 74:1 
1 2:14 22:1 47:1 61:1 74:13 75:12 76:6 
1 2:40 4:1 12:1 22:3 68:1 74:39 75:34 76:23 
1 2:32 4:1 12:1 22:1 68:1 74:31 75:27 76:16 
1 2:28 4:1 12:1 68:1 74:27 75:23 76:14 
1 2:8 4:1 12:1 68:1 74:7 75:5 76:3 
1 2:2 74:1 
1 2:3 74:2 75:1 
1 2:20 10:1 33:1 67:1 74:19 75:11 76:3 
1 2:30 10:1 33:1 67:1 74:29 75:21 76:13 
1 2:3 74:2 75:1 
1 2:2 74:1 
1 2:3 74:2 75:1 
1 2:4 74:3 75:2 76:1 
1 2:13 74:12 75:11 76:6 
1 2:15 74:14 75:13 76:8 
1 2:3 74:2 75:1 
1 2:5 12:1 74:4 75:3 76:1 
1 2:7 12:1 74:6 75:5 76:3 
1 2:4 22:1 74:3 75:2 76:1 
1 2:5 22:1 74:4 75:3 76:2 
1 2:7 22:1 74:6 75:5 76:4 
1 2:9 22:1 74:8 75:7 76:5 
1 2:15 22:1 74:14 75:13 76:10 
1 2:18 22:1 74:17 75:15 76:12 
1 2:20 22:2 74:19 75:17 76:13 
1 2:22 22:2 74:21 75:19 76:14 
1 2:11 42:1 74:10 75:9 76:6 
1 2:8 42:1 74:7 75:6 76:4 
1 2:9 47:1 74:8 75:7 76:5 
1 2:8 43:1 47:1 74:7 75:6 76:4 
1 2:13 12:1 74:12 75:11 76:8 
1 2:2 42:1 74:1 
1 2:3 74:2 75:1 
1 2:3 74:2 
1 2:12 63:1 74:11 75:8 76:4 
1 2:3 74:2 75:1 
1 2:12 18:1 64:1 74:11 75:8 76:4 
1 2:13 18:1 64:1 74:12 75:9 76:5 
0.5978449716367389 2:5 18:1 47:1 74:4 75:3 76:2 
1 2:12 18:1 64:1 74:11 75:8 76:4 
1 2:13 18:1 64:1 74:12 75:9 76:5 
1 2:7 74:6 75:4 76:2 
1 2:9 74:8 75:6 76:4 
1 2:9 74:8 75:6 76:2 
1 2:8 74:7 75:5 76:1 
1 2:6 74:5 75:3 
1 2:2 74:1 
1 2:2 74:1 
1 2:5 74:4 75:3 76:2 
1 2:12 74:11 75:9 76:7 
1 2:5 74:4 75:2 76:1 
1 2:6 34:1 47:1 74:5 75:4 76:3 
1 2:34 12:1 41:1 45:1 59:1 71:1 74:33 75:29 76:19 
1 2:33 12:1 41:1 45:1 59:1 71:1 74:32 75:28 76:18 
1 2:28 12:1 41:1 45:1 59:1 71:1 74:27 75:23 76:13 
1 2:6 47:1 60:1 74:5 75:4 76:3 
1 2:11 74:10 75:8 76:3 
1 2:10 74:9 75:7 76:2 
1 2:8 74:7 75:5 76:2 
1 2:1 
0.5988869039362784 2:21 38:1 74:20 75:16 76:9 
1 2:11 24:1 74:10 75:9 76:6 
1 2:12 24:1 74:11 75:10 76:7 
1 2:13 24:1 74:12 75:11 76:8 
1 2:15 24:1 74:14 75:13 76:10 
1 2:3 74:2 75:1 
1 2:9 10:1 71:1 74:8 75:7 76:6 
1 2:3 74:2 75:1 
1 2:6 74:5 75:4 76:2 
1 2:4 74:3 75:2 
1 2:8 74:7 75:6 76:5 
1 2:2 74:1 
1 2:3 74:2 
1 2:4 74:3 75:2 
1 2:2 74:1 
1 2:2 74:1 
1 2:2 74:1 
1 2:3 74:2 
1 2:11 74:10 75:9 76:6 
0.4609211742863212 2:18 12:1 21:1 47:1 74:17 75:14 76:8 
1 2:14 6:1 47:1 74:13 75:10 76:7 
1 2:4 74:3 75:2 
1 2:2 74:1 
1 2:4 74:3 75:1 
1 2:3 34:1 74:2 75:1 
1 2:5 34:1 38:1 74:4 75:3 76:2 
1 2:6 57:1 74:5 75:4 76:3 
1 2:2 74:1 
1 2:5 74:4 75:3 76:1 
1 2:3 74:2 75:1 
1 2:6 74:5 75:4 76:1 
1 2:15 74:14 75:13 76:6 
1 2:16 74:15 75:14 76:7 
1 2:20 10:1 22:1 47:1 71:1 74:19 75:10 76:3 
1 2:10 74:9 75:8 76:4 
1 2:11 74:10 75:9 76:5 
1 2:12 74:11 75:10 76:6 
1 2:13 74:12 75:11 76:7 
1 2:7 33:1 74:6 75:5 76:3 
1 2:8 39:1 74:7 75:6 76:4 
1 2:13 37:1 74:12 75:9 76:2 
1 2:13 39:1 51:1 74:12 75:8 76:2 
1 2:18 13:1 22:1 35:1 62:1 74:17 75:12 76:7 
1 2:15 13:1 22:1 35:1 62:1 74:14 75:10 76:6 
1 2:11 13:1 35:1 62:1 74:10 75:7 76:4 
1 2:7 13:1 35:1 62:1 74:6 75:3 76:1 
1 2:28 34:1 39:1 47:1 74:27 75:19 76:12 
1 2:29 34:1 39:1 47:1 74:28 75:20 76:12 
1 2:1 
1 2:2 74:1 
1 2:2 74:1 
1 2:4 74:3 75:1 
1 2:4 74:3 75:2 76:1 
1 2:4 18:1 74:3 75:1 
1 2:18 4:1 10:1 51:1 74:17 75:14 76:7 
1 2:2 74:1 
1 2:17 4:1 59:1 74:16 75:14 76:10 
1 2:17 4:1 59:1 74:16 75:14 76:10 
1 2:17 4:1 59:1 74:16 75:14 76:10 
1 2:2 74:1 
1 2:2 74:1 
1 2:4 24:1 74:3 75:2 76:1 
1 2:3 74:2 75:1 
1 2:2 74:1 
1 2:2 74:1 
1 2:3 74:2 
1 2:2 74:1 
1 2:4 34:1 74:3 75:1 
1 2:2 74:1 
1 2:6 74:5 75:3 76:2 
1 2:2 74:1 
1 2:2 74:1 
1 2:16 13:1 37:1 74:15 75:12 76:6 
1 2:2 14:1 74:1 
1 2:4 14:1 38:1 74:3 75:2 76:1 
1 2:6 14:1 74:5 75:4 76:1 
1 2:5 71:1 74:4 75:3 76:2 
0.8995594363500409 2:17 56:1 74:16 75:12 76:7 
1 2:21 74:20 75:13 76:8 
1 2:19 47:2 71:1 74:18 75:14 76:4 
1 2:5 74:4 75:3 76:2 
1 2:8 6:1 72:1 74:7 75:6 76:4 
1 2:5 74:4 75:3 76:2 
1 2:4 74:3 75:2 76:1 
1 2:2 74:1 
1 2:3 74:2 75:1 
1 2:8 56:1 74:7 75:6 76:5 
1 2:11 56:1 74:10 75:8 76:6 
1 2:2 74:1 
1 2:22 64:2 74:21 75:17 76:14 
1 2:2 74:1 
1 2:2 74:1 
1 2:5 6:1 74:4 75:2 76:1 
1 2:2 74:1 
1 2:3 74:2 75:1 
1 2:2 74:1 
1 2:2 74:1 
1 2:2 74:1 
1 2:23 11:1 13:1 35:1 74:22 75:18 76:13 
1 2:17 4:1 12:1 22:1 74:16 75:13 76:6 
1 2:12 74:11 75:7 76:4 
1 2:11 33:1 74:10 75:9 76:7 
1 2:4 47:1 63:1 74:3 75:2 76:1 
1 2:7 74:6 75:5 76:4 
1 2:10 74:9 75:7 76:5 
1 2:2 74:1 
1 2:5 42:1 74:4 75:3 76:2 
1 2:19 20:1 35:1 74:17 75:13 76:7 
1 2:2 74:1 
1 2:2 74:1 
1 2:2 74:1 
1 2:3 74:2 75:1 
1 2:5 74:4 75:3 76:1 
1 2:2 74:1 
1 2:3 74:2 75:1 
1 2:5 74:4 75:3 76:2 
1 2:12 12:1 52:1 74:11 75:10 76:7 
1 2:9 12:1 52:1 74:8 75:7 76:5 
1 2:4 18:1 72:1 74:3 75:2 76:1 
1 2:5 18:1 72:1 74:4 75:3 76:2 
1 2:2 74:1 
1 2:2 74:1 
1 2:2 74:1 
1 2:3 74:2 75:1 
1 2:3 74:2 75:1 
1 2:2 74:1 
1 2:2 74:1 
1 2:4 74:3 75:2 76:1 
1 2:5 74:4 75:3 76:2 
1 2:7 74:6 75:5 76:4 
1 2:3 74:2 
1 2:5 42:1 74:4 75:3 76:2 
1 2:2 74:1 
1 2:2 74:1 
1 2:3 74:2 75:1 
1 2:7 8:1 74:6 75:5 76:3 
1 2:8 8:1 74:7 75:6 76:4 
1 2:10 8:1 74:9 75:8 76:6 
1 2:3 74:2 75:1 
1 2:5 74:4 75:3 76:2 
1 2:5 59:1 74:4 75:3 76:2 
1 2:2 74:1 
1 2:5 74:4 75:3 
1 2:3 74:2 75:1 
1 2:2 74:1 
1 2:2 74:1 
1 2:8 74:7 75:2 76:1 
1 2:2 74:1 
1 2:4 34:1 74:3 75:1 
1 2:2 74:1 
1 2:2 74:1 
1 2:7 74:6 75:5 76:2 
1 2:3 74:2 
1 2:2 74:1 
1 2:4 74:3 75:2 76:1 
1 2:3 74:2 
1 2:2 74:1 
1 2:3 74:2 75:1 
1 2:4 74:3 75:2 76:1 
1 2:7 67:1 71:1 72:1 74:6 75:5 76:4 
1 2:8 67:1 71:1 72:1 74:7 75:6 76:5 
1 2:9 67:1 71:1 72:1 74:8 75:7 76:6 
1 2:4 74:3 75:2 76:1 
1 2:4 74:3 75:2 76:1 
1 2:4 47:1 71:1 74:3 75:2 76:1 
1 2:4 34:1 74:3 75:1 
1 2:2 74:1 
1 2:4 74:3 75:2 76:1 
1 2:3 74:2 
1 2:20 45:1 47:1 74:19 75:16 76:9 
0.08016917293694723 2:22 45:1 47:1 74:21 75:18 76:11 
1 2:24 45:1 47:1 74:23 75:20 76:13 
1 2:15 74:14 75:10 76:4 
1 2:17 74:16 75:10 76:4 
1 2:7 74:6 75:5 76:2 
1 2:5 68:1 74:4 75:2 
1 2:23 64:1 74:22 75:20 76:14 
1 2:21 64:1 74:20 75:18 76:13 
1 2:2 74:1 
1 2:2 74:1 
1 2:2 74:1 
1 2:2 74:1 
1 2:10 74:9 75:8 76:4 
1 2:11 74:10 75:9 76:5 
1 2:13 74:12 75:11 76:7 
1 2:2 74:1 
1 2:2 74:1 
1 2:2 14:1 74:1 
1 2:4 14:1 74:3 75:2 76:1 
1 2:2 74:1 
1 2:22 7:1 12:1 74:21 75:18 76:9 
1 2:9 13:1 35:1 65:1 74:8 75:6 76:2 
1 2:15 13:1 35:1 45:1 65:1 74:14 75:12 76:8 
1 2:42 11:1 13:2 31:1 35:2 45:1 59:1 65:1 74:41 75:35 76:24 
1 2:3 74:2 75:1 
1 2:5 74:4 75:2 76:1 
1 2:6 74:5 75:2 76:1 
1 2:7 74:6 75:3 76:1 
1 2:9 74:8 75:5 76:3 
1 2:11 74:10 75:7 76:4 
1 2:12 74:11 75:8 76:5 
1 2:13 74:12 75:9 76:6 
1 2:14 74:13 75:10 76:7 
1 2:15 74:14 75:11 76:8 
1 2:16 74:15 75:12 76:9 
1 2:18 74:17 75:14 76:11 
1 2:11 4:1 13:1 35:1 47:1 54:1 60:1 74:10 75:7 76:2 
1 2:28 6:1 12:1 35:1 47:1 59:2 74:27 75:20 76:9 
1 2:23 6:1 12:1 35:1 47:1 59:2 74:22 75:15 76:6 
1 2:3 74:2 75:1 
1 2:2 74:1 
1 2:2 74:1 
1 2:13 34:1 59:1 74:12 75:7 76:3 
1 2:13 74:12 75:7 76:5 
1 2:2 74:1 
1 2:7 35:1 74:6 75:5 76:4 
1 2:9 35:1 74:8 75:7 76:6 
1 2:13 5:1 74:12 75:8 76:5 
1 2:14 5:1 74:13 75:10 76:6 
1 2:16 5:1 74:15 75:12 76:8 
1 2:2 74:1 
1 2:4 38:1 74:3 75:2 
1 2:3 74:2 75:1 
1 2:3 74:2 75:1 
1 2:3 74:2 75:1 
1 2:5 74:4 75:3 76:1 
1 2:2 74:1 
1 2:21 10:1 22:1 39:1 53:1 74:20 75:14 76:8 
1 2:2 74:1 
1 2:5 74:4 75:3 76:1 
1 2:3 74:2 75:1 
1 2:6 74:5 75:4 76:2 
1 2:8 31:1 74:7 75:6 76:4 
1 2:2 74:1 
1 2:4 74:3 75:2 76:1 
1 2:8 74:7 75:4 76:2 
1 2:9 74:8 75:5 76:3 
1 2:2 74:1 
1 2:7 74:6 75:5 76:2 
1 2:13 14:1 42:1 74:12 75:11 76:5 
1 2:2 74:1 
1 2:25 72:1 74:24 75:16 76:9 
1 2:4 43:1 74:3 75:2 
1 2:5 74:4 75:3 76:2 
1 2:3 74:2 
1 2:6 16:1 74:5 75:4 76:3 
1 2:2 74:1 
1 2:5 74:4 75:3 76:1 
1 2:6 74:5 75:4 76:2 
1 2:8 74:7 75:6 76:4 
1 2:9 74:8 75:7 76:5 
1 2:3 74:2 
1 2:3 74:2 75:1 
1 2:8 74:7 75:6 76:3 
1 2:35 22:2 74:34 75:29 76:17 
1 2:31 22:1 74:30 75:25 76:13 
1 2:29 22:1 74:28 75:23 76:13 
1 2:17 74:16 75:14 76:8 
1 2:16 74:15 75:13 76:8 
1 2:4 6:1 74:3 75:2 
1 2:8 6:1 22:1 74:7 75:5 76:3 
1 2:4 6:1 74:3 75:1 
1 2:2 74:1 
1 2:6 74:5 75:4 76:3 
1 2:8 42:1 47:1 74:7 75:6 76:5 
1 2:5 24:1 74:4 75:3 76:2 
1 2:18 6:1 57:1 74:17 75:14 76:7 
1 2:19 6:1 57:1 74:18 75:15 76:8 
1 2:22 6:1 57:1 74:21 75:18 76:10 
1 2:10 24:1 74:9 75:8 76:6 
1 2:7 12:1 74:6 75:5 76:3 
1 2:6 74:5 75:3 76:2 
1 2:13 47:1 71:1 74:12 75:8 76:3 
1 2:22 13:1 35:1 57:1 59:1 74:21 75:17 76:7 
1 2:3 74:2 
1 2:7 12:1 74:6 75:4 76:3 
1 2:2 74:1 
1 2:2 74:1 
1 2:4 74:3 75:1 
1 2:1 
1 2:4 74:3 75:2 
1 2:11 7:1 12:1 74:10 75:9 76:6 
1 2:13 7:1 12:1 74:12 75:11 76:8 
1 2:1 
1 2:3 74:2 75:1 
1 2:6 74:5 75:4 76:3 
1 2:2 74:1 
1 2:3 74:2 
1 2:2 74:1 
1 2:7 37:1 57:1 74:6 75:5 76:3 
1 2:14 37:1 57:1 74:13 75:11 76:8 
1 2:2 74:1 
1 2:2 74:1 
1 2:4 74:3 75:2 76:1 
1 2:10 4:1 12:1 34:1 74:9 75:4 
1 2:6 74:5 75:3 76:1 
1 2:7 74:6 75:3 76:1 
1 2:9 74:8 75:5 76:2 
1 2:11 74:10 75:8 76:5 
1 2:9 74:8 75:7 76:4 
1 2:8 74:7 75:6 76:3 
1 2:7 74:6 75:5 76:2 
1 2:5 74:4 75:3 76:2 
1 2:2 74:1 
1 2:2 74:1 
1 2:2 74:1 
1 2:6 9:1 74:5 75:4 76:2 
1 2:17 13:1 34:1 35:1 37:1 65:1 74:16 75:11 76:4 
1 2:19 13:1 34:1 35:1 37:1 65:1 74:18 75:13 76:6 
1 2:2 74:1 
1 2:8 13:1 37:1 74:7 75:6 76:3 
1 2:1 14:1 
1 2:2 74:1 
1 2:19 45:1 74:18 75:15 76:8 
1 2:2 74:1 
1 2:2 74:1 
1 2:2 74:1 
1 2:5 4:1 74:4 75:2 
1 2:17 4:1 74:16 75:14 76:7 
1 2:4 74:3 75:2 76:1 
1 2:2 74:1 
1 2:13 13:1 37:1 61:1 62:1 74:12 75:10 76:4 
1 2:9 22:1 74:8 75:6 76:3 
1 2:6 74:5 75:4 76:2 
1 2:4 74:3 75:2 
1 2:2 74:1 
1 2:3 74:2 75:1 
1 2:3 74:2 
0.4965094788984297 2:24 40:1 42:1 47:1 74:23 75:11 76:6 
1 2:12 14:1 56:1 74:11 75:10 76:6 
1 2:16 14:1 56:1 74:15 75:14 76:8 
1 2:15 14:1 56:1 74:14 75:13 76:7 
1 2:1 
1 2:2 74:1 
1 2:3 74:2 75:1 
1 2:4 74:3 75:2 76:1 
1 2:5 74:4 75:3 76:2 
1 2:6 74:5 75:4 76:3 
1 2:8 74:7 75:6 76:5 
1 2:9 74:8 75:7 76:6 
1 2:10 74:9 75:8 76:7 
1 2:11 74:10 75:9 76:8 
1 2:12 74:11 75:10 76:9 
1 2:13 74:12 75:11 76:10 
1 2:17 74:16 75:15 76:14 
1 2:1 
1 2:2 74:1 
1 2:2 74:1 
1 2:2 74:1 
1 2:12 71:1 74:11 75:10 76:7 
1 2:2 74:1 
1 2:2 74:1 
1 2:2 74:1 
1 2:2 74:1 
1 2:2 74:1 
1 2:11 42:1 74:10 75:9 76:6 
1 2:8 31:1 74:7 75:6 76:4 
1 2:21 12:2 40:1 71:1 74:20 75:14 76:5 
1 2:11 4:1 6:1 12:1 74:10 75:7 76:1 
1 2:4 74:3 75:1 
1 2:18 4:1 12:1 67:1 74:17 75:14 76:9 
1 2:2 74:1 
1 2:12 74:11 75:6 76:4 
1 2:11 74:10 75:6 76:4 
1 2:4 74:3 75:2 
1 2:2 74:1 
1 2:2 74:1 
1 2:2 74:1 
1 2:2 74:1 
1 1:1 2:2 39:1 74:1 
1 2:2 74:1 
1 2:3 74:2 
1 2:6 74:5 75:4 76:3 
1 2:5 74:4 75:3 76:2 
1 2:7 54:1 72:1 74:6 75:5 76:3 
1 2:3 74:2 75:1 
1 2:2 74:1 
1 2:11 33:1 74:10 75:9 76:7 
1 2:9 24:1 74:8 75:7 76:5 
1 2:3 39:1 74:2 75:1 
1 2:22 15:1 55:1 74:21 75:15 76:8 
1 2:5 74:4 75:3 76:2 
1 2:3 74:2 75:1 
1 2:8 74:7 75:3 76:2 
1 2:16 14:1 38:1 47:1 74:15 75:10 76:4 
1 2:10 39:1 73:1 74:9 75:7 76:5 
1 2:21 41:1 47:1 61:1 74:20 75:17 76:9 
1 2:2 74:1 
1 2:2 74:1 
1 2:4 38:1 74:3 75:2 
1 2:2 74:1 
1 2:2 74:1 
1 2:16 4:1 6:1 12:1 74:15 75:10 76:4 
1 2:25 4:1 6:1 12:1 74:24 75:18 76:9 
1 2:2 74:1 
1 2:12 13:1 37:1 43:1 47:1 54:1 67:1 74:11 75:8 76:3 
1 2:10 74:9 75:8 76:6 
1 2:2 74:1 
1 2:5 74:4 75:3 76:2 
1 2:14 74:13 75:12 76:9 
1 2:4 74:3 75:2 
1 2:2 74:1 
1 2:4 74:3 75:2 76:1 
1 2:4 34:1 72:1 74:3 75:2 76:1 
1 2:4 6:1 33:1 72:1 74:3 75:2 
1 2:2 74:1 
1 2:14 4:1 12:1 70:1 74:13 75:11 76:6 
1 2:20 11:1 72:1 74:19 75:15 76:11 
1 2:2 74:1 
1 2:2 74:1 
1 2:3 74:2 75:1 
1 2:12 13:1 35:1 74:11 75:10 76:7 
1 2:5 74:4 75:3 76:2 
1 2:3 74:2 
1 2:2 74:1 
1 2:4 74:3 75:2 76:1 
1 2:3 74:2 
1 2:2 74:1 
1 2:7 37:1 57:1 74:6 75:5 76:3 
1 2:2 74:1 
1 2:19 6:1 39:1 59:1 74:18 75:13 76:9 
1 2:6 6:1 74:5 75:3 76:2 
1 2:2 74:1 
1 2:2 74:1 
1 2:5 59:1 74:4 75:3 76:2 
1 2:2 74:1 
1 2:3 74:2 
1 2:25 18:1 37:1 74:24 75:21 76:16 
1 2:24 18:1 37:1 74:23 75:20 76:15 
1 2:23 18:1 37:1 74:22 75:19 76:14 
1 2:20 18:1 37:1 74:19 75:16 76:11 
1 2:19 18:1 37:1 74:18 75:15 76:10 
1 2:5 10:1 74:4 75:3 
1 2:2 74:1 
1 2:2 74:1 
1 2:2 74:1 
1 2:2 74:1 
1 2:3 24:1 74:2 75:1 
1 2:2 74:1 
1 2:3 74:2 
1 2:19 6:1 24:1 72:1 74:18 75:15 76:12 
1 2:11 64:1 74:10 75:9 76:7 
1 2:10 74:9 75:8 76:7 
1 2:9 57:1 74:8 75:7 76:4 
1 2:4 59:1 74:3 75:2 76:1 
1 2:26 16:1 74:25 75:19 76:14 
1 2:4 59:1 74:3 75:2 76:1 
1 2:6 74:5 75:4 76:3 
1 2:8 74:7 75:6 76:5 
1 2:9 74:8 75:7 76:6 
1 2:7 74:6 75:5 76:4 
1 2:4 39:1 74:3 75:2 
1 2:2 74:1 
1 2:4 67:1 74:3 75:2 76:1 
1 2:20 4:1 16:1 31:1 39:1 73:1 74:19 75:14 76:5 
1 2:10 71:1 74:9 75:6 76:4 
1 2:14 4:1 12:1 71:1 74:13 75:9 76:6 
1 2:11 71:1 74:10 75:7 76:5 
1 2:2 74:1 
1 2:11 71:1 74:10 75:7 76:5 
1 2:2 74:1 
1 2:1 
1 2:17 34:1 72:1 74:16 75:12 76:5 
1 2:3 74:2 75:1 
1 2:3 74:2 75:1 
1 2:5 72:1 74:4 75:3 76:2 
1 2:3 74:2 75:1 
1 2:3 74:2 75:1 
1 2:8 4:1 12:1 71:1 74:7 75:5 76:3 
1 2:4 74:3 75:2 76:1 
1 2:4 74:3 75:2 76:1 
1 2:11 3:1 35:1 74:10 75:9 76:5 
1 2:3 42:1 74:2 75:1 
1 2:2 42:1 74:1 
1 2:2 74:1 
1 2:2 74:1 
1 2:2 74:1 
1 2:2 74:1 
1 2:25 11:1 39:1 74:24 75:21 76:9 
1 2:24 11:1 39:1 74:23 75:20 76:8 
1 2:22 11:1 39:1 74:21 75:18 76:7 
1 2:5 24:1 74:4 75:3 76:2 
1 2:10 4:1 12:1 47:1 60:1 74:9 75:6 
1 2:12 4:1 12:1 22:1 47:1 60:1 74:11 75:8 76:2 
1 2:2 74:1 
1 2:5 16:1 74:4 75:3 76:2 
1 2:3 74:2 75:1 
1 2:3 74:2 75:1 
1 2:2 74:1 
1 2:2 74:1 
1 2:3 74:2 75:1 
0.07789003791205751 2:18 33:1 44:1 74:17 75:15 76:11 
1 2:19 33:1 44:1 74:18 75:16 76:12 
1 2:24 33:1 44:1 74:23 75:21 76:17 
1 2:25 33:1 44:1 74:24 75:22 76:18 
1 2:30 33:1 44:1 74:29 75:27 76:23 
1 2:31 33:1 44:1 74:30 75:28 76:24 
1 2:32 33:1 44:1 74:31 75:29 76:25 
1 2:37 17:1 33:1 44:1 74:36 75:34 76:30 
1 2:38 17:1 33:1 44:1 74:37 75:35 76:31 
0.2222086717071621 2:49 17:1 33:1 44:1 74:48 75:46 76:42 
1 2:53 17:1 33:1 44:1 74:52 75:50 76:46 
1 2:61 17:1 33:1 44:1 74:60 75:58 76:54 
1 2:4 10:1 74:3 75:1 
1 2:9 10:1 74:8 75:6 76:4 
1 2:10 10:1 74:9 75:7 76:5 
1 2:11 10:1 74:10 75:8 76:6 
1 2:12 10:1 74:11 75:9 76:7 
1 2:13 10:1 74:12 75:10 76:8 
1 2:14 10:1 74:13 75:11 76:9 
1 2:17 10:1 74:16 75:14 76:12 
1 2:18 10:1 74:17 75:15 76:13 
1 2:19 10:1 74:18 75:16 76:14 
1 2:20 10:1 74:19 75:17 76:15 
1 2:21 10:1 74:20 75:18 76:16 
1 2:22 10:1 74:21 75:19 76:17 
1 2:23 10:1 74:22 75:20 76:18 
1 2:24 10:1 74:23 75:21 76:19 
1 2:25 10:1 74:24 75:22 76:20 
1 2:26 10:1 74:25 75:23 76:21 
1 2:27 10:1 74:26 75:24 76:22 
1 2:28 10:1 74:27 75:25 76:23 
1 2:29 10:1 74:28 75:26 76:24 
1 2:30 10:1 74:29 75:27 76:25 
1 2:31 10:1 74:30 75:28 76:26 
1 2:4 10:1 74:3 75:1 
1 2:9 10:1 74:8 75:6 76:4 
1 2:10 10:1 74:9 75:7 76:5 
1 2:11 10:1 74:10 75:8 76:6 
1 2:13 10:1 74:12 75:10 76:8 
1 2:15 10:1 74:14 75:10 76:7 
1 2:16 10:1 74:15 75:11 76:8 
1 2:17 10:1 74:16 75:12 76:9 
1 2:12 33:1 39:1 74:11 75:9 76:7 
1 2:2 74:1 
1 2:11 9:1 74:10 75:9 76:6 
1 2:6 9:1 74:5 75:4 76:2 
1 2:5 74:4 75:3 76:1 
1 2:6 74:5 75:4 76:2 
1 2:8 74:7 75:6 76:4 
1 2:9 74:8 75:7 76:5 
1 2:10 74:9 75:8 76:6 
1 2:17 74:16 75:15 76:13 
1 2:13 8:1 74:12 75:9 76:6 
1 2:16 8:1 74:15 75:12 76:8 
1 2:17 8:1 74:16 75:13 76:9 
1 2:18 8:1 74:17 75:14 76:10 
1 2:19 8:1 74:18 75:15 76:11 
1 2:21 8:1 74:20 75:17 76:13 
0.5640765613423677 2:27 8:1 22:1 74:26 75:23 76:19 
0.8127945845526744 2:28 8:1 22:1 74:27 75:24 76:20 
1 2:32 8:1 22:1 74:31 75:28 76:24 
1 2:2 74:1 
1 2:35 24:1 38:1 74:34 75:31 76:26 
1 2:42 24:1 38:1 74:41 75:38 76:33 
0.2618892403829655 2:33 7:1 38:1 39:1 74:32 75:29 76:28 
1 2:38 7:1 38:1 39:1 74:37 75:34 76:33 
1 2:51 7:1 38:1 39:1 74:50 75:47 76:46 
1 2:56 7:1 38:1 39:1 74:55 75:52 76:51 
1 2:60 7:1 38:1 39:1 74:59 75:56 76:54 
1 2:2 74:1 
1 2:23 39:1 42:1 57:1 74:22 75:17 76:11 
1 2:15 39:1 57:1 74:14 75:13 76:10 
1 2:2 74:1 
1 2:2 74:1 
1 2:2 74:1 
1 2:4 6:1 74:3 75:1 
1 2:2 74:1 
1 2:3 74:2 
1 2:19 22:1 61:1 74:18 75:15 76:10 
1 2:16 22:1 61:1 74:15 75:12 76:7 
1 2:7 61:1 74:6 75:5 76:3 
1 2:10 74:9 75:6 76:5 
1 2:2 74:1 
1 2:2 74:1 
1 2:2 14:1 74:1 
1 2:2 74:1 
1 2:4 59:1 74:3 75:2 76:1 
1 2:5 61:1 74:4 75:3 76:1 
1 2:2 74:1 
1 2:3 74:2 75:1 
1 2:2 74:1 
1 2:2 74:1 
1 2:2 74:1 
1 2:2 74:1 
1 2:2 74:1 
1 2:7 74:6 75:4 76:2 
1 2:2 74:1 
1 2:5 74:4 75:2 
1 2:3 74:2 
1 2:3 74:2 75:1 
1 2:5 14:1 38:1 74:4 75:3 76:1 
1 2:4 59:1 74:3 75:2 76:1 
1 2:4 9:1 10:1 74:3 75:2 76:1 
1 2:4 74:3 75:2 76:1 
1 2:5 10:1 56:1 74:4 75:3 76:2 
1 2:4 21:1 74:3 75:2 76:1 
1 2:3 21:1 74:2 75:1 
1 2:2 21:1 74:1 
1 2:7 74:6 75:5 76:4 
1 2:14 39:1 74:13 75:12 76:8 
1 2:17 39:1 70:1 73:1 74:16 75:15 76:12 
1 2:19 74:18 75:14 76:9 
1 2:18 74:17 75:13 76:9 
1 2:14 74:13 75:10 76:6 
1 2:9 74:8 75:6 76:4 
1 2:4 74:3 75:2 76:1 
1 2:3 74:2 75:1 
1 2:2 74:1 
1 2:4 74:3 75:2 
1 2:5 74:4 75:2 
1 2:6 74:5 75:3 
1 2:8 74:7 75:5 76:2 
1 2:2 74:1 
1 2:2 74:1 
1 2:7 6:1 22:1 73:1 74:6 75:3 
1 2:9 65:1 72:1 74:8 75:6 76:3 
1 2:7 6:1 47:1 74:6 75:5 76:4 
1 2:12 6:1 47:1 74:11 75:10 76:7 
1 2:16 6:1 47:1 74:15 75:14 76:10 
1 2:2 74:1 
1 2:5 61:1 74:4 75:3 76:2 
1 2:2 61:1 74:1 
1 2:7 64:1 74:6 75:4 76:2 
1 2:2 74:1 
1 2:9 4:1 22:1 71:1 74:8 75:3 
1 2:11 4:1 22:1 71:1 74:10 75:5 76:1 
1 2:8 42:1 74:7 75:6 76:4 
1 2:21 63:1 74:20 75:12 76:6 
1 2:23 63:1 74:22 75:14 76:8 
1 2:8 58:1 74:7 75:6 76:4 
1 2:2 74:1 
1 2:2 74:1 
1 2:2 74:1 
1 2:5 74:4 75:2 
1 2:3 74:2 
1 2:18 13:1 35:1 62:1 74:17 75:16 76:13 
1 2:15 13:1 35:1 62:1 74:14 75:13 76:11 
1 2:2 74:1 
1 2:2 74:1 
1 2:9 22:1 74:8 75:6 76:3 
1 2:6 74:5 75:4 76:2 
1 2:4 74:3 75:2 
1 2:2 74:1 
1 2:6 64:1 74:5 75:4 76:3 
1 2:6 74:5 75:4 76:3 
1 2:20 13:1 16:1 18:1 37:1 62:1 74:19 75:15 76:9 
1 2:3 74:2 
1 2:2 74:1 
1 2:7 74:6 75:4 76:1 
1 2:13 4:1 12:1 13:1 32:1 35:1 39:1 74:12 75:8 76:1 
1 2:3 39:1 74:2 75:1 
1 2:2 74:1 
1 2:3 39:1 74:2 75:1 
1 2:2 74:1 
1 2:13 74:12 75:11 76:6 
1 2:15 37:1 74:14 75:12 76:6 
1 2:17 37:1 74:16 75:14 76:8 
1 2:2 74:1 
1 2:7 24:1 74:6 75:5 76:4 
1 2:7 39:1 74:6 75:5 76:4 
1 2:4 74:3 75:1 
1 2:5 74:4 75:2 
1 2:6 74:5 75:3 76:1 
1 2:9 74:8 75:6 76:3 
1 2:11 74:10 75:8 76:5 
1 2:4 74:3 75:1 
1 2:6 74:5 75:3 
1 2:14 66:1 74:13 75:11 76:7 
1 2:15 66:1 74:14 75:12 76:8 
1 2:17 66:1 74:16 75:14 76:10 
1 2:9 66:1 74:8 75:6 76:4 
0.6793617956031636 2:12 66:1 74:11 75:9 76:6 
1 2:14 66:1 74:13 75:11 76:8 
1 2:27 6:1 8:1 39:1 74:26 75:17 76:10 
1 2:2 74:1 
1 2:8 39:1 74:7 75:6 76:5 
1 2:2 74:1 
1 2:9 4:1 6:1 12:1 74:8 75:5 76:3 
1 2:4 59:1 74:3 75:2 76:1 
1 2:2 74:1 
1 2:2 74:1 
1 2:4 38:1 74:3 75:2 
1 2:5 74:4 75:3 76:2 
1 2:5 28:1 74:4 75:3 76:2 
1 2:7 28:1 74:6 75:5 76:4 
0.8072419605770349 2:11 4:1 12:1 59:1 74:11 75:9 76:6 
1 2:12 4:1 12:1 59:1 74:12 75:10 76:7 
1 2:14 4:1 12:1 59:1 74:14 75:12 76:9 
1 2:21 39:1 70:1 74:20 75:19 76:15 
1 2:18 39:1 70:1 74:17 75:16 76:12 
1 2:17 39:1 70:1 74:16 75:15 76:11 
1 2:16 39:1 70:1 74:15 75:14 76:10 
1 2:15 39:1 70:1 74:14 75:13 76:9 
1 2:12 39:1 70:1 74:11 75:10 76:7 
1 2:3 74:2 75:1 
1 2:5 74:4 75:3 76:2 
1 2:1 
1 2:4 74:3 75:2 76:1 
1 2:1 
1 2:5 74:4 75:2 
1 2:4 74:3 75:2 76:1 
1 2:16 13:1 37:1 62:1 74:15 75:11 76:5 
1 2:2 74:1 
1 2:4 74:3 75:2 
1 2:1 
1 2:4 56:1 74:3 75:2 76:1 
1 2:3 56:1 74:2 75:1 
1 2:2 74:1 
1 2:15 24:1 73:1 74:14 75:10 76:4 
1 2:16 24:2 39:1 73:1 74:15 75:11 76:3 
1 2:15 39:1 73:1 74:14 75:10 76:4 
1 2:2 74:1 
1 2:2 74:1 
1 2:4 74:3 75:2 76:1 
1 2:2 74:1 
1 2:3 74:2 
1 2:18 3:1 27:1 31:1 36:1 74:17 75:15 76:10 
1 2:12 74:11 75:8 76:3 
1 2:28 26:1 74:27 75:24 76:14 
1 2:5 12:1 74:4 75:3 76:1 
1 2:4 45:1 74:3 75:2 
1 2:2 74:1 
1 2:2 74:1 
1 2:2 74:1 
1 2:9 18:1 47:1 74:8 75:7 76:5 
1 2:4 6:1 72:1 74:3 75:2 76:1 
1 2:5 74:4 75:3 76:2 
1 2:9 38:1 74:8 75:7 76:5 
1 2:10 38:1 74:9 75:8 76:6 
1 2:11 38:1 74:10 75:9 76:7 
1 2:12 38:1 74:11 75:10 76:8 
1 2:14 38:1 74:13 75:12 76:10 
1 2:2 74:1 
1 2:9 47:1 74:8 75:7 76:5 
1 2:10 28:1 74:9 75:8 76:5 
1 2:6 28:1 74:5 75:4 76:2 
1 2:5 12:1 70:1 74:4 75:3 76:1 
1 2:13 74:12 75:10 76:5 
1 2:14 74:13 75:11 76:6 
1 2:15 74:14 75:12 76:7 
1 2:16 74:15 75:13 76:8 
1 2:17 74:16 75:14 76:9 
1 2:11 13:1 37:1 62:1 74:10 75:8 76:3 
1 2:2 74:1 
1 2:13 61:1 71:1 74:12 75:10 76:4 
1 2:17 61:1 71:1 74:16 75:13 76:5 
1 2:19 61:1 71:1 74:18 75:15 76:6 
1 2:11 13:1 35:1 41:1 65:1 74:10 75:8 76:4 
1 2:9 34:1 74:8 75:6 76:5 
1 2:7 34:1 74:6 75:4 76:3 
1 2:6 6:1 74:5 75:4 76:2 
1 2:20 34:1 39:1 74:19 75:16 76:14 
1 2:28 62:1 74:27 75:25 76:21 
1 2:25 12:1 33:1 52:1 74:24 75:20 76:11 
1 2:15 72:1 74:14 75:9 76:5 
1 2:18 22:1 34:1 74:17 75:13 76:8 
1 2:22 22:1 34:1 74:21 75:17 76:11 
1 2:4 74:3 75:2 76:1 
1 2:5 39:1 74:4 75:3 76:2 
1 2:5 39:1 74:4 75:3 76:2 
1 2:8 74:7 75:4 76:1 
1 2:9 74:8 75:5 76:1 
1 2:10 74:9 75:6 76:2 
1 2:11 74:10 75:7 76:3 
1 2:13 74:12 75:9 76:5 
1 2:14 74:13 75:10 76:6 
1 2:9 74:8 75:7 76:5 
1 2:11 41:1 74:10 75:7 76:1 
0.6130140477708681 2:13 41:1 74:12 75:9 76:3 
1 1:1 2:21 41:1 61:1 64:1 74:20 75:16 76:7 
1 2:13 6:1 72:1 74:12 75:11 76:10 
1 2:13 6:1 72:1 74:12 75:11 76:10 
1 2:15 74:14 75:9 76:5 
1 2:15 74:14 75:11 76:6 
1 2:2 74:1 
1 2:3 74:2 75:1 
1 2:2 74:1 
1 2:8 4:1 14:1 74:7 75:5 76:2 
1 2:2 74:1 
1 2:2 74:1 
1 2:3 74:2 75:1 
1 2:6 74:5 75:4 76:2 
1 2:7 47:1 68:1 74:6 75:5 76:4 
1 2:9 5:1 47:1 68:1 74:8 75:7 76:5 
1 2:6 16:1 74:5 75:4 76:2 
1 2:5 42:1 74:4 75:3 76:1 
1 2:3 42:1 74:2 75:1 
1 2:11 74:10 75:9 76:7 
1 2:2 74:1 
1 2:2 74:1 
1 2:2 74:1 
1 2:4 47:1 74:3 75:2 
1 2:7 47:1 74:6 75:5 76:4 
1 2:2 74:1 
1 2:9 24:1 74:8 75:7 76:5 
1 2:6 35:1 74:5 75:4 76:2 
1 2:4 74:3 75:2 76:1 
1 2:9 74:8 75:5 76:3 
1 2:8 74:7 75:4 76:2 
1 2:7 74:6 75:3 76:2 
1 2:4 74:3 75:2 76:1 
1 2:3 24:1 74:2 75:1 
1 2:6 74:5 75:4 76:1 
1 2:4 74:3 75:2 76:1 
1 2:2 74:1 
1 2:2 74:1 
1 2:2 74:1 
1 2:2 74:1 
1 2:2 74:1 
1 2:4 74:3 75:1 
1 2:11 39:1 74:10 75:8 76:6 
1 2:5 67:1 74:4 75:3 76:1 
1 2:19 6:1 24:1 47:1 74:18 75:14 76:6 
1 2:20 6:1 24:1 47:1 74:19 75:15 76:7 
1 2:22 6:1 24:1 47:1 74:21 75:17 76:9 
1 2:2 74:1 
1 2:11 12:1 21:1 74:10 75:9 76:7 
1 2:2 38:1 74:1 
1 2:2 38:1 74:1 
1 2:3 38:1 74:2 75:1 
1 2:4 38:1 74:3 75:2 76:1 
1 2:6 38:1 74:5 75:4 76:3 
1 2:20 4:1 30:1 31:1 39:1 41:1 74:19 75:16 76:7 
1 2:2 74:1 
1 2:2 74:1 
1 2:5 10:1 56:1 74:4 75:3 76:2 
1 2:14 12:1 74:13 75:10 76:8 
1 2:7 58:1 74:6 75:3 76:2 
1 2:2 74:1 
1 2:3 74:2 75:1 
1 2:4 74:3 75:2 76:1 
1 2:7 74:6 75:5 76:3 
1 2:7 39:1 74:6 75:5 76:4 
1 2:2 74:1 
1 2:2 74:1 
1 2:7 23:1 74:6 75:4 76:2 
1 2:9 74:8 75:7 76:5 
1 2:2 74:1 
1 2:2 74:1 
1 2:9 36:1 74:8 75:7 76:5 
1 2:10 36:1 74:9 75:8 76:6 
1 2:11 36:1 74:10 75:9 76:7 
1 2:12 36:1 74:11 75:10 76:8 
1 2:13 36:1 74:12 75:11 76:9 
1 2:14 36:1 74:13 75:12 76:10 
1 2:15 36:1 74:14 75:13 76:11 
1 2:16 36:1 74:15 75:14 76:12 
1 2:17 36:1 74:16 75:15 76:13 
1 2:18 36:1 74:17 75:16 76:14 
1 2:19 36:1 74:18 75:17 76:15 
1 2:23 36:1 74:22 75:20 76:17 
1 2:24 36:1 74:23 75:21 76:18 
1 2:25 36:1 74:24 75:22 76:19 
1 2:27 36:1 74:26 75:24 76:21 
1 2:9 36:1 74:8 75:7 76:5 
1 2:4 74:3 75:2 
1 2:24 72:1 74:23 75:16 76:9 
1 2:8 16:1 74:7 75:6 76:4 
1 2:4 74:3 75:2 76:1 
1 2:4 74:3 75:2 76:1 
1 2:3 74:2 75:1 
1 2:4 44:1 74:3 75:2 
1 2:18 44:1 74:17 75:16 76:12 
1 2:19 44:1 74:18 75:17 76:13 
1 2:20 44:1 74:19 75:18 76:14 
1 2:10 13:1 33:1 37:1 71:1 74:9 75:7 76:2 
1 2:4 44:1 74:3 75:2 
1 2:20 44:1 74:19 75:17 76:14 
1 2:20 3:1 11:1 36:1 72:1 74:19 75:12 76:7 
1 2:13 54:1 74:12 75:11 76:8 
1 2:11 54:1 74:10 75:9 76:7 
1 2:2 74:1 
1 2:4 14:1 74:3 75:1 
1 2:5 12:1 74:4 75:2 
0.4237148122907756 2:20 12:1 32:1 49:1 74:19 75:15 76:7 
1 2:16 16:1 74:15 75:13 76:8 
1 2:15 16:1 74:14 75:12 76:7 
1 2:14 16:1 74:13 75:11 76:7 
1 2:3 74:2 75:1 
1 2:2 74:1 
1 2:4 74:3 75:2 
1 2:12 4:1 6:1 12:1 74:11 75:8 76:2 
1 2:14 4:1 6:1 12:1 74:13 75:10 76:3 
1 2:10 4:1 6:1 12:1 74:9 75:6 76:1 
1 2:12 4:1 6:1 12:1 74:11 75:8 76:2 
1 2:3 74:2 75:1 
1 2:6 74:5 75:4 
1 2:18 12:1 47:1 52:1 59:1 74:17 75:15 76:6 
0.6437300668979863 2:34 6:1 10:1 37:1 55:1 74:33 75:25 76:10 
0.7856683839540625 2:41 6:1 10:1 37:1 55:1 74:40 75:32 76:14 
1 2:15 12:1 14:1 52:1 74:14 75:11 76:2 
1 2:10 12:1 29:1 74:9 75:8 76:6 
1 2:16 12:1 71:1 74:15 75:12 76:6 
1 2:20 12:1 71:1 74:19 75:15 76:7 
1 2:21 12:1 71:1 74:20 75:16 76:8 
1 2:23 12:1 71:1 74:22 75:18 76:10 
1 2:24 12:1 71:1 74:23 75:19 76:11 
1 2:27 12:1 71:1 74:26 75:22 76:14 
1 2:30 12:1 71:1 74:29 75:25 76:15 
0.3303340710448641 2:10 39:1 74:9 75:7 76:5 
1 2:2 74:1 
1 2:3 74:2 75:1 
1 2:4 74:3 75:2 76:1 
1 2:2 59:1 74:1 
1 2:5 74:4 75:2 76:1 
1 2:12 73:1 74:11 75:8 76:3 
1 2:2 74:1 
1 2:6 24:1 74:5 75:4 76:3 
1 2:2 74:1 
1 2:2 74:1 
1 2:2 74:1 
1 2:6 24:1 74:5 75:4 76:3 
1 2:6 24:1 74:5 75:4 76:3 
0.4620224385543011 2:22 32:1 37:1 47:1 61:1 74:21 75:17 76:8 
1 2:7 37:1 52:1 74:6 75:5 76:3 
1 2:19 24:1 74:18 75:14 76:9 
1 2:2 74:1 
1 1:1 2:12 6:1 74:11 75:7 76:5 
1 2:2 74:1 
1 2:4 10:1 31:1 74:3 75:2 76:1 
1 2:10 74:9 75:7 76:4 
1 2:11 74:10 75:8 76:5 
1 2:12 74:11 75:9 76:6 
1 2:13 74:12 75:10 76:7 
1 2:14 74:13 75:11 76:8 
1 2:16 74:15 75:13 76:10 
1 2:11 13:1 37:1 62:1 74:10 75:8 76:3 
1 2:11 37:1 55:1 74:10 75:9 76:7 
1 2:4 44:1 74:3 75:2 
1 2:1 
1 2:2 74:1 
1 2:3 74:2 75:1 
1 2:4 74:3 75:2 76:1 
1 2:3 74:2 75:1 
1 2:4 44:1 74:3 75:2 
1 2:41 10:1 12:1 44:1 56:2 71:1 74:40 75:34 76:19 
1 2:12 40:1 47:1 74:11 75:10 76:7 
1 2:5 74:4 75:1 
1 2:10 4:1 12:1 34:1 74:9 75:6 76:2 
1 2:2 74:1 
1 2:12 74:11 75:10 76:9 
1 2:17 42:1 74:16 75:14 76:12 
1 2:7 56:1 74:6 75:5 76:3 
1 2:2 74:1 
1 2:2 74:1 
1 2:5 74:4 75:2 76:1 
1 2:7 74:6 75:4 76:3 
1 2:11 7:1 74:10 75:7 76:5 
1 2:13 7:1 74:12 75:9 76:7 
1 2:3 74:2 75:1 
1 2:4 74:3 75:2 76:1 
1 2:5 74:4 75:3 76:2 
1 2:13 33:1 34:1 74:12 75:9 76:5 
1 2:36 10:1 38:1 51:1 74:35 75:32 76:26 
1 2:5 74:4 75:1 
1 2:7 74:6 75:3 76:1 
1 2:8 74:7 75:4 76:2 
1 2:10 74:9 75:6 76:4 
1 2:4 74:3 75:2 76:1 
1 2:4 74:3 75:2 76:1 
0.5451781179085698 2:6 4:1 12:1 71:1 74:5 75:3 
1 2:3 74:2 75:1 
1 2:2 74:1 
1 2:2 74:1 
1 2:11 70:1 72:1 74:10 75:8 76:4 
1 2:8 15:1 74:7 75:5 
1 2:5 39:1 74:4 75:3 76:2 
1 2:7 70:1 73:1 74:6 75:5 76:4 
1 2:14 31:1 74:13 75:12 76:9 
1 2:17 31:1 74:16 75:15 76:11 
1 2:18 31:1 74:17 75:16 76:12 
1 2:21 31:1 74:20 75:19 76:14 
1 2:17 31:1 74:16 75:15 76:11 
1 2:20 31:1 74:19 75:18 76:13 
1 2:8 31:1 74:7 75:6 76:4 
1 2:10 31:1 74:9 75:8 76:6 
1 2:11 31:1 74:10 75:9 76:7 
1 2:14 31:1 74:13 75:12 76:9 
1 2:15 31:1 74:14 75:13 76:10 
1 2:18 31:1 74:17 75:16 76:12 
1 2:2 74:1 
1 2:5 74:4 75:3 76:1 
1 2:6 74:5 75:4 76:2 
1 2:7 74:6 75:5 76:3 
1 2:9 74:8 75:7 76:5 
1 2:4 6:1 74:3 75:1 
1 2:17 4:1 7:1 61:1 74:16 75:13 76:6 
1 2:15 4:1 7:1 61:1 74:14 75:11 76:6 
1 2:2 74:1 
1 2:6 74:5 75:3 76:2 
1 2:17 4:1 7:1 61:1 74:16 75:13 76:6 
1 2:15 4:1 7:1 61:1 74:14 75:11 76:6 
1 2:2 74:1 
1 2:6 74:5 75:3 76:2 
1 2:2 74:1 
1 2:2 74:1 
1 2:6 74:5 75:3 76:1 
1 2:2 74:1 
1 2:3 74:2 
1 2:8 74:7 75:5 76:2 
1 2:3 74:2 
1 2:2 74:1 
0.1485744157406112 2:42 59:1 72:1 74:41 75:29 76:13 
1 2:23 12:1 29:1 37:1 71:1 74:22 75:17 76:10 
1 2:7 74:6 75:4 76:1 
1 2:2 74:1 
1 2:14 61:1 74:13 75:12 76:8 
1 2:7 61:1 74:6 75:5 76:3 
1 2:9 61:1 74:8 75:7 76:5 
1 2:8 31:1 74:7 75:6 76:4 
1 2:11 61:1 74:10 75:9 76:6 
1 2:7 74:6 75:5 76:3 
1 2:24 4:1 12:1 13:1 32:1 37:1 39:1 74:23 75:19 76:9 
1 2:10 14:1 74:9 75:3 
1 2:12 14:1 74:11 75:5 76:1 
1 2:2 74:1 
1 2:2 14:1 74:1 
1 2:7 33:1 54:1 73:1 74:6 75:5 76:1 
1 2:7 74:6 75:4 76:2 
1 2:2 74:1 
1 2:2 74:1 
1 2:5 61:1 74:4 75:3 76:2 
1 2:6 61:1 74:5 75:4 76:3 
1 2:2 74:1 
0.6147054741493782 2:9 35:1 65:1 74:8 75:7 76:4 
1 2:7 74:6 75:5 76:3 
1 2:6 74:5 75:4 76:2 
1 2:5 74:4 75:3 76:1 
1 2:4 74:3 75:2 
1 2:2 74:1 
1 2:12 6:1 47:1 74:11 75:10 76:7 
1 2:13 6:1 47:1 74:12 75:11 76:8 
1 2:14 6:1 47:1 74:13 75:12 76:9 
1 2:16 6:1 47:1 74:15 75:14 76:11 
1 2:4 74:3 75:2 76:1 
1 2:9 74:8 75:7 76:3 
1 2:19 22:1 74:18 75:17 76:12 
1 2:6 10:1 63:1 74:5 75:4 76:3 
1 2:6 74:5 75:2 76:1 
1 2:6 74:5 75:3 76:2 
1 2:2 74:1 
1 2:3 74:2 75:1 
1 2:6 74:5 75:4 76:1 
1 2:2 74:1 
1 2:3 74:2 
1 2:2 74:1 
1 2:2 74:1 
1 2:5 74:4 75:3 76:2 
1 2:2 74:1 
1 2:5 74:4 75:3 76:1 
1 2:12 39:1 74:11 75:8 76:6 
1 2:2 74:1 
1 2:8 66:1 74:7 75:6 76:4 
1 2:10 66:1 74:9 75:8 76:6 
1 2:7 66:1 74:6 75:5 76:4 
1 2:9 66:1 74:8 75:7 76:6 
1 2:3 74:2 
1 2:2 74:1 
1 2:11 64:1 74:10 75:7 76:5 
1 2:6 74:5 75:4 76:3 
1 2:4 74:3 75:2 76:1 
1 2:2 74:1 
1 2:2 74:1 
1 2:2 74:1 
1 2:2 74:1 
1 2:3 74:2 75:1 
1 2:8 74:7 75:6 76:5 
1 2:7 74:6 75:3 76:1 
1 2:7 16:1 74:6 75:5 76:4 
1 2:2 74:1 
1 2:11 22:1 59:1 74:10 75:7 76:4 
1 2:9 59:1 74:8 75:5 76:3 
1 2:7 59:1 74:6 75:4 76:3 
1 2:11 74:10 75:7 76:3 
1 2:8 74:7 75:6 76:3 
1 2:9 37:1 74:8 75:7 76:5 
1 2:7 37:1 74:6 75:5 76:3 
1 2:8 74:7 75:6 76:5 
1 2:2 74:1 
1 2:4 44:1 74:3 75:2 
1 2:8 44:1 74:7 75:6 76:4 
1 2:10 44:1 74:9 75:8 76:6 
1 2:11 44:1 74:10 75:9 76:7 
1 2:12 44:1 74:11 75:10 76:8 
1 2:13 44:1 74:12 75:11 76:9 
1 2:14 44:1 74:13 75:12 76:10 
1 2:15 44:1 74:14 75:13 76:11 
1 2:16 44:1 74:15 75:14 76:12 
1 2:18 44:1 74:17 75:16 76:14 
1 2:4 74:3 75:1 
1 2:10 74:9 75:3 
1 2:12 74:11 75:4 
1 2:2 74:1 
1 2:4 74:3 75:1 
1 2:8 74:7 75:2 
1 2:10 74:9 75:3 
1 2:8 74:7 75:2 
1 2:3 74:2 75:1 
1 2:9 74:8 75:7 76:3 
1 2:2 74:1 
1 2:3 74:2 75:1 
1 2:6 34:1 47:1 74:5 75:4 76:3 
1 2:3 74:2 75:1 
1 2:4 74:3 75:2 76:1 
1 2:6 74:5 75:4 76:3 
1 2:2 74:1 
1 2:7 74:6 75:3 76:2 
1 2:19 25:1 61:1 74:18 75:14 76:9 
1 2:26 25:1 61:1 74:25 75:18 76:10 
1 2:29 25:1 61:1 74:28 75:21 76:13 
1 2:31 25:1 61:1 74:30 75:23 76:15 
1 2:33 25:1 61:1 74:32 75:25 76:17 
1 2:35 25:1 61:1 74:34 75:27 76:18 
1 2:3 74:2 75:1 
0.9486111126070694 2:25 23:1 44:1 47:1 48:1 74:24 75:20 76:13 
1 2:26 23:1 44:1 47:1 48:1 74:25 75:21 76:14 
1 2:30 23:1 44:1 47:1 48:1 74:29 75:25 76:18 
1 2:32 23:1 44:1 47:1 48:1 74:31 75:27 76:20 
1 2:9 74:8 75:6 76:1 
1 2:12 74:11 75:9 76:3 
1 2:15 74:14 75:12 76:6 
1 2:16 74:15 75:13 76:7 
1 2:17 74:16 75:14 76:8 
1 2:19 74:18 75:16 76:10 
1 2:20 74:19 75:17 76:11 
1 2:22 74:21 75:19 76:13 
1 2:21 18:1 47:1 74:20 75:19 76:12 
1 2:19 13:1 35:1 61:1 62:1 74:18 75:15 76:9 
1 2:20 13:1 35:1 61:1 62:1 74:19 75:16 76:10 
1 2:21 13:1 35:1 61:1 62:1 74:20 75:17 76:11 
1 2:22 13:1 35:1 61:1 62:1 74:21 75:18 76:12 
1 2:24 13:1 35:1 61:1 62:1 74:23 75:20 76:14 
1 2:26 13:1 35:1 61:1 62:1 74:25 75:22 76:16 
0.7059441521766233 2:28 13:1 35:1 61:1 62:1 74:27 75:24 76:18 
1 2:30 13:1 35:1 61:1 62:1 74:29 75:26 76:20 
1 2:18 74:17 75:9 76:4 
1 2:19 74:18 75:10 76:5 
1 2:3 74:2 75:1 
1 2:9 13:1 37:1 62:1 74:8 75:7 76:4 
1 2:1 
1 2:8 45:1 74:7 75:6 76:4 
1 2:4 22:1 74:3 75:2 76:1 
1 2:7 22:2 74:6 75:5 76:4 
1 2:9 22:2 74:8 75:7 76:5 
1 2:10 22:2 74:9 75:8 76:6 
1 2:3 74:2 
1 2:4 74:3 75:1 
1 2:3 74:2 75:1 
1 2:2 74:1 
1 2:13 11:1 13:1 37:1 59:1 74:12 75:11 76:8 
1 2:3 74:2 75:1 
1 2:4 74:3 75:2 76:1 
0.6251346783969651 2:28 22:2 38:1 74:27 75:26 76:16 
1 2:10 22:1 74:9 75:8 76:4 
1 2:11 22:1 74:10 75:9 76:5 
1 2:12 22:1 74:11 75:10 76:6 
1 2:13 22:1 74:12 75:11 76:7 
1 2:23 22:2 74:22 75:21 76:12 
1 2:24 22:2 74:23 75:22 76:13 
1 2:26 22:2 74:25 75:24 76:15 
1 1:1 2:33 22:2 24:1 74:32 75:30 76:18 
1 2:10 6:1 10:1 74:9 75:6 
1 2:6 74:5 75:4 76:3 
1 2:2 74:1 
1 2:8 74:7 75:6 76:4 
1 2:5 42:1 74:4 75:3 76:2 
1 2:2 74:1 
1 2:9 33:1 74:8 75:5 
1 2:5 74:4 75:1 
1 2:27 6:1 58:1 74:26 75:20 76:13 
1 2:35 6:1 24:1 58:1 63:1 74:34 75:26 76:17 
1 2:25 6:1 58:1 74:24 75:18 76:12 
1 2:33 6:1 24:1 58:1 63:1 74:32 75:24 76:16 
1 2:22 58:1 74:21 75:15 76:10 
1 2:30 24:1 58:1 63:1 74:29 75:21 76:14 
1 2:16 61:1 74:14 75:11 76:8 
1 2:14 61:1 74:12 75:9 76:7 
1 2:3 74:2 75:1 
1 2:25 38:1 74:24 75:23 76:19 
1 2:3 38:1 74:2 75:1 
1 2:17 38:1 74:16 75:15 76:12 
1 2:19 38:1 74:18 75:17 76:14 
1 2:20 38:1 74:19 75:18 76:15 
1 2:22 38:1 74:21 75:20 76:17 
1 2:10 6:1 13:1 14:1 26:1 35:1 74:9 75:8 76:2 
1 2:8 74:7 75:6 76:5 
1 2:6 74:5 75:4 76:3 
1 2:5 74:4 75:3 
1 2:2 74:1 
1 2:8 61:1 74:7 75:6 76:4 
1 2:7 61:1 74:6 75:5 76:3 
1 2:6 74:5 75:3 
1 2:9 24:1 74:8 75:7 76:5 
1 2:2 74:1 
1 2:2 74:1 
1 2:6 10:1 34:1 74:5 75:4 76:3 
1 2:2 74:1 
1 2:3 74:2 
1 2:2 74:1 
1 2:6 4:1 12:1 71:1 74:5 75:3 76:1 
1 2:6 6:1 47:1 74:5 75:4 76:3 
1 2:11 13:1 14:1 37:1 62:1 74:10 75:8 76:3 
1 2:23 12:1 13:1 14:1 37:1 62:1 74:21 75:18 76:8 
1 1:1 2:31 12:1 13:1 14:1 37:1 62:1 74:29 75:21 76:10 
1 2:34 12:1 13:1 24:1 37:1 39:1 62:1 74:33 75:26 76:16 
1 2:31 12:1 24:1 74:30 75:23 76:14 
1 2:24 12:1 24:1 74:23 75:18 76:10 
1 2:1 
1 2:5 74:4 75:2 
1 2:14 10:1 15:1 67:1 74:13 75:8 76:1 
1 2:15 10:1 15:1 67:1 74:14 75:9 76:2 
1 2:11 34:1 72:2 74:10 75:6 76:2 
1 2:5 41:1 74:4 75:3 76:1 
1 2:4 41:1 74:3 75:2 
1 2:2 41:1 74:1 
1 2:17 12:1 56:1 74:16 75:15 76:10 
1 2:20 12:1 56:1 74:19 75:17 76:12 
1 2:24 12:1 56:1 74:23 75:20 76:12 
1 2:4 74:3 75:2 76:1 
1 2:16 7:1 48:1 74:15 75:13 76:8 
1 2:18 7:1 48:1 74:17 75:15 76:10 
1 2:3 74:2 75:1 
1 2:11 58:1 74:10 75:9 76:6 
1 2:14 47:1 71:1 74:13 75:8 76:4 
1 2:3 24:1 74:2 75:1 
1 2:2 74:1 
1 2:8 64:1 74:7 75:6 76:4 
1 2:9 57:1 74:8 75:6 76:4 
1 2:4 68:1 72:1 74:3 75:2 76:1 
1 2:5 68:1 72:1 74:4 75:3 76:2 
1 2:7 68:1 72:1 74:6 75:5 76:4 
1 2:5 74:4 75:3 76:2 
1 2:7 74:6 75:5 76:3 
1 2:8 74:7 75:6 76:4 
1 2:9 74:8 75:7 76:5 
1 2:10 74:9 75:8 76:6 
1 2:13 74:12 75:11 76:8 
1 2:8 34:1 74:7 75:4 76:2 
1 2:13 24:1 34:1 72:1 74:12 75:8 76:3 
1 2:12 24:1 34:1 72:1 74:11 75:7 76:2 
1 2:5 74:4 75:3 76:2 
1 2:7 74:6 75:5 76:4 
1 2:12 45:1 74:11 75:9 76:7 
1 2:30 12:2 38:1 56:1 70:1 71:1 74:29 75:26 76:17 
1 2:22 12:2 56:1 70:1 71:1 74:21 75:19 76:12 
1 2:20 12:2 56:1 70:1 71:1 74:19 75:17 76:10 
1 2:2 74:1 
1 2:7 74:6 75:5 76:4 
1 2:8 11:1 74:7 75:6 76:4 
1 2:3 74:2 
1 2:3 74:2 75:1 
1 2:8 11:1 74:7 75:6 76:4 
1 2:21 60:1 74:20 75:16 76:10 
1 2:14 57:1 74:13 75:12 76:7 
1 2:7 14:1 74:6 75:5 76:2 
1 2:11 45:1 74:10 75:9 76:6 
0.9924940337923936 2:13 37:1 74:12 75:11 76:6 
1 2:14 37:1 74:13 75:12 76:7 
1 2:15 37:1 74:14 75:13 76:8 
1 2:2 74:1 
1 2:5 74:4 75:3 
1 2:3 56:1 74:2 75:1 
1 2:2 74:1 
1 2:5 74:4 75:3 76:1 
1 2:4 59:1 74:3 75:2 76:1 
1 2:3 74:2 75:1 
1 2:10 42:1 74:9 75:4 
1 2:16 42:1 74:15 75:10 76:6 
1 2:17 42:1 74:16 75:11 76:7 
1 2:18 42:1 74:17 75:12 76:8 
1 2:2 74:1 
1 2:21 6:1 12:1 47:1 53:1 74:20 75:17 76:9 
1 2:11 47:1 61:1 74:10 75:5 76:1 
1 2:4 74:3 75:2 
1 2:2 74:1 
1 2:6 59:1 74:5 75:4 76:2 
1 2:4 59:1 74:3 75:2 76:1 
1 2:22 6:1 12:1 59:1 74:21 75:20 76:17 
1 2:21 6:1 12:1 59:1 74:20 75:19 76:16 
1 2:20 6:1 12:1 59:1 74:19 75:18 76:15 
1 2:19 6:1 12:1 59:1 74:18 75:17 76:14 
1 2:18 6:1 12:1 59:1 74:17 75:16 76:13 
1 2:16 6:1 12:1 59:1 74:15 75:14 76:11 
1 2:4 71:1 74:3 75:1 
0.4899153341995421 2:6 4:1 12:1 68:1 74:5 75:3 76:1 
1 2:2 74:1 
1 2:6 74:5 75:3 76:1 
1 2:3 74:2 75:1 
1 2:1 
1 2:5 74:4 75:2 
1 2:2 74:1 
1 2:7 13:1 37:1 62:1 74:6 75:5 76:3 
1 2:2 74:1 
1 2:2 74:1 
1 2:2 74:1 
1 2:2 74:1 
1 2:2 74:1 
1 2:15 37:1 39:1 64:1 74:14 75:10 76:4 
1 2:14 37:1 39:1 64:1 74:13 75:9 76:4 
1 2:5 74:4 75:3 76:1 
1 2:2 74:1 
1 2:3 74:2 75:1 
1 2:10 74:9 75:6 76:2 
1 2:12 74:11 75:8 76:3 
1 2:4 44:1 74:3 75:2 
1 2:41 10:1 12:1 44:1 56:2 71:1 74:40 75:34 76:19 
1 2:8 74:7 75:6 76:5 
1 2:11 74:10 75:9 76:7 
1 2:12 74:11 75:10 76:8 
1 2:13 74:12 75:11 76:9 
1 2:14 74:13 75:12 76:10 
1 2:15 74:14 75:13 76:11 
1 2:7 74:6 75:5 76:4 
1 2:10 74:9 75:8 76:6 
1 2:11 74:10 75:9 76:7 
1 2:12 74:11 75:10 76:8 
1 2:13 74:12 75:11 76:9 
1 2:14 74:13 75:12 76:10 
1 2:4 74:3 75:2 76:1 
1 2:7 74:6 75:5 76:3 
1 2:8 74:7 75:6 76:4 
1 2:9 74:8 75:7 76:5 
1 2:10 74:9 75:8 76:6 
1 2:11 74:10 75:9 76:7 
1 2:6 74:5 75:4 76:2 
1 2:7 74:6 75:5 76:3 
1 2:9 74:8 75:7 76:4 
1 2:10 74:9 75:8 76:5 
1 2:12 74:11 75:10 76:7 
1 2:8 74:7 75:6 76:3 
1 2:9 74:8 75:7 76:4 
1 2:11 74:10 75:9 76:6 
1 2:2 74:1 
1 2:3 74:2 75:1 
1 2:4 74:3 75:2 76:1 
1 2:6 74:5 75:4 76:3 
1 2:4 74:3 75:2 
1 2:5 74:4 75:3 76:1 
1 2:6 74:5 75:4 76:2 
1 2:8 74:7 75:6 76:4 
1 2:11 74:10 75:7 76:5 
1 2:10 74:9 75:6 76:4 
1 2:9 74:8 75:5 76:3 
1 2:8 74:7 75:4 76:2 
1 2:7 74:6 75:3 76:1 
1 2:5 74:4 75:2 76:1 
1 2:8 31:1 74:7 75:6 76:4 
1 2:2 74:1 
1 2:4 74:3 75:2 76:1 
1 2:8 74:7 75:4 76:2 
1 2:9 74:8 75:5 76:3 
1 2:2 74:1 
1 2:7 74:6 75:5 76:2 
1 2:13 14:1 42:1 74:12 75:11 76:5 
1 2:13 14:1 42:1 74:12 75:11 76:5 
1 2:2 74:1 
1 2:2 74:1 
1 2:2 74:1 
1 2:4 38:1 74:3 75:2 
1 2:2 74:1 
1 2:8 39:1 74:7 75:6 76:4 
1 2:16 39:1 67:1 74:15 75:8 76:5 
1 2:6 67:1 74:5 75:3 76:2 
1 2:2 74:1 
1 2:8 74:7 75:6 76:5 
1 2:5 74:4 75:3 76:2 
1 2:9 8:1 74:8 75:6 76:3 
1 2:6 33:1 74:5 75:4 76:2 
1 2:12 4:1 45:1 74:11 75:6 76:3 
1 2:16 4:1 45:1 74:15 75:10 76:7 
0.6229830435153305 2:17 4:1 45:1 74:16 75:11 76:8 
1 2:15 7:1 74:14 75:12 76:4 
1 2:12 18:1 72:1 74:11 75:10 76:8 
1 2:6 22:1 74:5 75:4 76:1 
1 2:4 74:3 75:2 
1 2:2 74:1 
1 2:8 74:7 75:4 
1 2:13 6:1 72:1 74:12 75:8 76:3 
1 2:2 74:1 
1 2:6 74:5 75:4 76:3 
1 2:9 33:1 55:1 74:8 75:7 76:4 
1 2:4 45:1 74:3 75:2 
1 2:7 9:1 74:6 75:5 76:3 
1 2:2 74:1 
1 2:3 74:2 75:1 
1 2:5 74:4 75:3 76:2 
1 2:3 74:2 75:1 
1 2:2 74:1 
1 2:2 74:1 
1 2:2 74:1 
1 2:2 74:1 
1 2:3 74:2 
1 2:2 74:1 
1 2:2 74:1 
1 2:4 74:3 75:2 
1 2:2 74:1 
1 2:2 74:1 
1 2:2 74:1 
1 2:12 74:11 75:10 76:7 
1 2:11 74:10 75:9 76:6 
1 2:10 74:9 75:8 76:5 
1 2:9 74:8 75:7 76:4 
1 2:8 74:7 75:6 76:3 
1 2:7 74:6 75:5 76:2 
1 2:6 74:5 75:4 76:1 
1 2:4 74:3 75:2 76:1 
1 2:3 39:1 74:2 75:1 
0.8943425876891187 2:5 45:1 74:4 75:3 
1 2:4 24:1 74:3 75:2 
1 2:2 74:1 
1 2:4 74:3 75:2 
1 2:2 74:1 
1 2:17 12:1 13:1 16:1 35:1 62:1 74:16 75:12 76:4 
1 2:2 74:1 
1 2:3 74:2 75:1 
1 2:14 74:13 75:10 76:3 
0.01893516716216826 2:19 13:1 37:1 44:1 47:1 65:1 74:18 75:14 76:8 
1 2:5 74:4 75:2 
1 2:3 74:2 
1 2:3 74:2 
1 2:8 74:7 75:5 76:3 
1 2:17 48:1 74:16 75:15 76:8 
1 2:18 12:1 29:1 43:1 52:1 74:17 75:12 76:6 
1 2:2 74:1 
1 2:2 74:1 
1 2:2 74:1 
1 2:21 72:1 74:20 75:10 76:5 
1 2:2 74:1 
1 2:5 39:1 74:4 75:3 76:2 
1 2:7 39:1 74:6 75:5 76:4 
1 2:13 39:1 64:1 74:12 75:8 76:2 
1 2:15 39:1 64:1 74:14 75:10 76:3 
1 2:4 74:3 75:2 76:1 
1 2:2 74:1 
1 2:2 74:1 
1 2:7 74:6 75:5 76:3 
1 2:4 74:3 75:2 76:1 
1 2:7 74:6 75:5 76:3 
1 2:5 35:1 74:4 75:3 76:1 
1 2:8 35:1 74:7 75:6 76:3 
1 2:9 35:1 74:8 75:7 76:4 
1 2:10 35:1 74:9 75:8 76:5 
1 2:11 35:1 74:10 75:9 76:6 
1 2:9 58:1 74:8 75:4 
1 2:4 44:1 74:3 75:2 
1 2:7 74:6 75:5 76:3 
1 2:2 74:1 
1 2:2 74:1 
1 2:2 74:1 
1 2:4 74:3 75:1 
1 2:6 10:1 59:1 74:5 75:4 76:3 
1 2:2 74:1 
1 2:3 74:2 75:1 
1 2:2 74:1 
1 2:4 74:3 75:2 
1 2:5 38:1 74:4 75:3 76:1 
0.9199202000745742 2:6 38:1 74:5 75:4 76:2 
1 2:7 38:1 74:6 75:5 76:3 
1 2:8 38:1 74:7 75:6 76:4 
1 2:9 38:1 74:8 75:7 76:5 
1 2:10 38:1 74:9 75:8 76:6 
1 2:11 38:1 74:10 75:9 76:7 
1 2:12 38:1 74:11 75:10 76:8 
1 2:13 38:1 74:12 75:11 76:9 
1 2:15 38:1 74:14 75:13 76:11 
1 2:2 74:1 
1 2:2 74:1 
1 2:5 74:4 75:2 76:1 
1 2:2 74:1 
1 2:2 74:1 
1 2:4 74:3 75:2 
1 2:2 74:1 
1 2:11 6:1 74:10 75:9 76:6 
1 2:13 64:1 74:12 75:11 76:10 
1 2:20 12:1 47:1 66:1 71:1 74:19 75:15 76:12 
1 2:2 74:1 
1 2:2 74:1 
1 2:2 74:1 
1 2:2 74:1 
1 2:7 73:1 74:6 75:4 76:2 
1 2:4 18:1 72:1 74:3 75:2 76:1 
1 2:17 18:1 24:1 72:1 74:16 75:14 76:11 
1 2:11 74:10 75:3 76:1 
1 2:2 74:1 
1 2:4 9:1 10:1 74:3 75:2 76:1 
1 2:4 9:1 47:1 74:3 75:2 76:1 
1 2:9 41:1 74:8 75:7 76:4 
1 2:4 41:1 74:3 75:2 
1 2:19 6:1 39:1 74:18 75:13 76:6 
1 2:20 6:1 39:1 74:19 75:14 76:4 
1 2:8 74:7 75:5 76:2 
1 2:3 74:2 
1 2:3 74:2 
1 2:5 24:1 74:4 75:3 76:2 
1 2:3 38:1 74:2 75:1 
1 2:17 38:1 74:16 75:15 76:12 
1 2:19 38:1 74:18 75:17 76:14 
1 2:20 38:1 74:19 75:18 76:15 
1 2:22 38:1 74:21 75:20 76:17 
1 2:23 14:1 41:1 47:2 59:1 74:22 75:19 76:16 
1 2:13 47:2 59:1 74:12 75:9 76:7 
1 2:15 47:2 59:1 74:14 75:11 76:8 
1 2:8 74:7 75:4 76:2 
1 2:10 74:9 75:6 76:4 
1 2:1 
1 2:5 74:4 75:2 
1 2:8 39:1 74:7 75:6 76:4 
1 2:16 13:1 35:1 57:1 62:1 74:15 75:12 76:7 
1 2:2 74:1 
1 2:10 74:9 75:7 76:2 
1 2:12 39:1 74:11 75:9 76:2 
1 2:8 74:7 75:5 76:4 
1 2:4 74:3 75:2 76:1 
1 2:6 22:1 47:1 74:5 75:4 76:3 
1 2:7 22:1 47:1 74:6 75:5 76:4 
1 2:9 22:1 47:1 74:8 75:7 76:6 
1 2:11 22:1 47:1 74:10 75:9 76:7 
1 2:4 47:1 74:3 75:2 76:1 
1 2:6 24:1 74:5 75:4 76:3 
1 2:2 74:1 
1 2:3 74:2 75:1 
1 2:4 74:3 75:2 
1 2:8 74:7 75:5 76:2 
1 2:10 74:9 75:7 76:4 
1 2:2 74:1 
1 2:15 37:1 74:14 75:12 76:7 
1 2:7 37:1 74:6 75:4 76:2 
1 2:5 74:4 75:3 76:2 
1 2:2 74:1 
1 2:17 6:1 72:1 74:16 75:15 76:13 
1 2:34 10:1 37:1 38:1 51:1 74:33 75:28 76:15 
1 2:35 10:1 37:1 38:1 51:1 74:34 75:29 76:16 
1 2:2 74:1 
1 2:7 74:6 75:5 76:3 
1 2:4 74:3 75:2 
1 2:3 74:2 75:1 
1 2:2 74:1 
1 2:3 56:1 74:2 75:1 
1 2:6 45:1 74:5 75:4 76:3 
1 2:2 74:1 
1 2:4 74:3 75:1 
0.4247505123822267 2:19 47:1 60:1 68:1 71:1 74:18 75:11 76:7 
1 2:18 47:1 60:1 68:1 71:1 74:17 75:11 76:7 
1 2:3 74:2 75:1 
1 2:6 47:1 71:1 74:5 75:4 76:3 
1 2:3 74:2 
1 2:25 72:1 74:24 75:16 76:9 
1 2:27 72:1 74:26 75:18 76:11 
1 2:7 74:6 75:5 76:4 
1 2:14 16:1 47:1 74:13 75:10 76:8 
1 2:5 74:4 75:3 76:2 
1 2:5 74:4 75:3 76:2 
1 2:3 74:2 
1 2:9 16:1 74:8 75:7 76:6 
1 2:7 16:1 74:6 75:4 76:3 
1 2:4 34:1 74:3 75:1 
1 2:2 74:1 
1 2:15 47:1 74:14 75:13 76:9 
1 2:13 16:1 74:12 75:11 76:9 
1 2:2 74:1 
1 2:5 74:4 75:2 76:1 
1 2:6 74:5 75:4 76:3 
1 2:4 74:3 75:2 
1 2:2 74:1 
1 2:5 74:4 75:2 76:1 
1 2:15 47:1 74:14 75:13 76:9 
1 2:6 45:1 74:5 75:4 76:3 
1 2:2 74:1 
1 2:5 24:1 74:4 75:3 76:2 
1 2:5 74:4 75:1 
1 2:11 4:1 6:1 12:1 74:10 75:7 76:1 
1 2:5 39:1 74:4 75:3 76:2 
1 2:8 12:1 74:7 75:6 76:4 
1 2:3 74:2 75:1 
1 2:8 74:7 75:4 76:1 
1 2:11 74:10 75:7 76:3 
1 2:14 74:13 75:10 76:6 
1 2:17 74:16 75:13 76:9 
1 2:6 19:1 74:5 75:4 76:3 
1 2:2 74:1 
1 2:2 74:1 
1 2:5 74:4 75:1 
1 2:12 74:11 75:10 76:7 
1 2:6 45:1 74:5 75:4 76:3 
1 2:8 38:1 45:1 74:7 75:6 76:5 
1 2:6 42:1 74:5 75:3 76:2 
1 2:3 74:2 75:1 
1 2:2 74:1 
1 2:15 4:1 50:1 74:14 75:11 76:2 
1 2:20 4:1 50:1 74:19 75:15 76:5 
1 2:21 4:1 50:1 74:20 75:16 76:6 
1 2:22 4:1 50:1 74:21 75:17 76:7 
1 2:24 4:1 50:1 74:23 75:19 76:9 
1 2:25 4:1 50:1 74:24 75:20 76:10 
1 2:27 4:1 50:1 74:26 75:22 76:12 
1 2:2 74:1 
1 2:7 74:6 75:4 76:3 
1 2:2 74:1 
1 2:3 74:2 75:1 
1 2:2 74:1 
1 2:4 74:3 75:2 
1 2:21 13:1 24:1 35:1 39:1 62:1 74:20 75:16 76:8 
1 2:2 74:1 
1 2:3 74:2 75:1 
1 2:4 74:3 75:2 76:1 
1 2:5 74:4 75:3 76:2 
1 2:6 74:5 75:4 76:3 
1 2:7 74:6 75:5 76:4 
1 2:8 74:7 75:6 76:5 
1 2:9 74:8 75:7 76:6 
1 2:10 74:9 75:8 76:7 
1 2:11 74:10 75:9 76:8 
1 2:12 74:11 75:10 76:9 
1 2:13 74:12 75:11 76:10 
1 2:15 74:14 75:13 76:12 
1 2:12 8:1 13:1 35:1 62:1 74:11 75:9 76:4 
1 2:14 8:1 13:1 35:1 62:1 74:13 75:11 76:6 
1 2:2 74:1 
1 2:4 18:1 47:1 74:3 75:2 76:1 
1 2:2 74:1 
1 2:2 74:1 
1 2:8 67:1 74:7 75:6 76:5 
1 2:4 67:1 74:3 75:2 76:1 
1 2:21 37:1 45:1 65:1 74:20 75:17 76:9 
0.4860991798322577 2:23 37:1 45:1 65:1 74:22 75:19 76:10 
1 2:6 19:1 74:5 75:4 76:2 
1 2:2 74:1 
1 2:6 6:1 74:5 75:4 76:2 
1 2:3 74:2 75:1 
1 2:2 74:1 
1 2:3 74:2 
1 2:6 74:5 75:3 76:1 
1 2:7 74:6 75:4 76:2 
1 2:8 74:7 75:5 76:3 
1 2:9 74:8 75:6 76:4 
1 2:10 74:9 75:7 76:5 
1 2:11 74:10 75:8 76:6 
1 2:3 74:2 75:1 
1 2:8 74:7 75:6 76:5 
1 2:19 64:1 74:18 75:17 76:14 
1 2:8 47:1 74:7 75:6 76:4 
1 2:8 34:1 73:1 74:7 75:3 
1 2:2 74:1 
1 2:12 39:1 73:1 74:11 75:9 76:7 
1 2:4 72:1 74:3 75:2 
1 2:2 74:1 
1 2:24 4:1 10:1 12:1 71:1 74:23 75:17 76:8 
1 2:2 74:1 
1 2:3 74:2 75:1 
1 2:2 74:1 
1 2:12 12:1 56:1 74:11 75:10 76:8 
0.5824504250447073 2:15 10:1 74:14 75:11 76:1 
1 2:17 10:1 74:16 75:13 76:3 
1 2:19 10:1 74:18 75:15 76:5 
1 1:1 2:25 10:1 12:1 24:1 32:1 74:24 75:20 76:7 
1 2:7 74:6 75:4 76:2 
1 2:8 74:7 75:5 76:2 
1 2:9 74:8 75:6 76:3 
1 2:10 74:9 75:7 76:4 
1 2:11 74:10 75:8 76:5 
1 2:14 74:13 75:10 76:7 
1 2:10 74:9 75:8 76:4 
1 2:2 74:1 
1 2:3 74:2 75:1 
1 2:2 74:1 
1 2:2 74:1 
1 2:3 74:2 
1 2:2 74:1 
1 2:5 74:4 75:3 76:2 
1 2:2 74:1 
1 2:10 13:1 35:1 74:9 75:7 76:2 
1 2:4 44:1 74:3 75:2 
1 2:4 44:1 74:3 75:2 
1 2:3 74:2 75:1 
1 2:1 
1 2:4 74:3 75:1 
1 2:6 5:1 74:5 75:4 76:3 
1 2:19 5:1 74:18 75:15 76:9 
0.02391293354582703 2:16 13:1 37:1 39:1 58:1 62:1 74:15 75:12 76:7 
1 2:8 39:1 74:7 75:6 76:4 
1 2:10 39:1 74:9 75:8 76:6 
1 2:3 74:2 75:1 
1 2:4 74:3 75:2 76:1 
1 2:6 74:5 75:4 76:3 
1 2:6 74:5 75:4 76:2 
1 2:8 74:7 75:5 76:3 
1 2:6 74:5 75:4 76:2 
1 2:10 39:1 74:9 75:8 76:6 
1 2:14 39:1 74:13 75:10 76:8 
1 2:9 39:1 74:8 75:7 76:5 
1 2:13 39:1 74:12 75:9 76:7 
1 2:8 39:1 74:7 75:6 76:4 
1 2:12 39:1 74:11 75:8 76:6 
1 2:5 39:1 74:4 75:3 76:2 
1 2:9 39:1 74:8 75:5 76:4 
1 2:5 39:1 74:4 75:3 76:2 
1 2:7 39:1 74:6 75:5 76:4 
1 2:9 24:1 74:8 75:7 76:5 
1 2:10 24:1 74:9 75:8 76:6 
1 2:17 24:1 39:1 74:16 75:14 76:11 
1 2:18 24:1 39:1 74:17 75:15 76:12 
1 2:19 24:1 39:1 74:18 75:16 76:13 
1 2:6 41:1 74:5 75:4 76:2 
1 2:13 13:1 24:1 37:1 65:1 74:12 75:10 76:5 
1 2:5 39:1 74:4 75:3 76:2 
1 2:8 39:1 74:7 75:5 76:4 
1 2:4 72:1 74:3 75:2 
1 2:3 74:2 
1 2:2 74:1 
0.9093288427078214 2:24 16:1 49:1 74:23 75:21 76:14 
1 2:25 16:1 49:1 74:24 75:22 76:15 
1 2:26 16:1 49:1 74:25 75:23 76:16 
1 2:21 16:1 49:1 74:20 75:18 76:11 
1 2:22 16:1 49:1 74:21 75:19 76:12 
1 2:23 16:1 49:1 74:22 75:20 76:13 
1 2:7 37:1 57:1 74:6 75:5 76:3 
1 2:2 74:1 
1 2:7 47:1 74:6 75:5 76:4 
1 2:2 74:1 
1 2:2 74:1 
1 2:3 74:2 75:1 
1 2:10 6:1 64:1 74:9 75:8 76:6 
0.9500534028176628 2:14 24:1 74:13 75:10 76:6 
1 2:18 39:1 64:1 74:17 75:15 76:5 
1 2:2 74:1 
1 2:3 74:2 
1 2:7 16:1 74:6 75:5 76:4 
1 2:6 74:5 75:4 76:2 
1 2:8 16:1 74:7 75:6 76:4 
1 2:7 16:1 74:6 75:5 76:4 
1 2:2 74:1 
1 2:9 16:1 74:8 75:7 76:5 
1 2:10 16:1 74:9 75:8 76:6 
1 2:12 16:1 74:11 75:10 76:7 
1 2:9 16:1 74:8 75:7 76:5 
1 2:13 64:1 74:12 75:11 76:8 
1 2:4 61:1 74:3 75:2 
1 2:8 64:1 74:7 75:6 76:5 
1 2:10 73:1 74:9 75:7 76:4 
1 2:13 73:1 74:12 75:9 76:6 
1 2:14 73:1 74:13 75:9 76:6 
1 2:16 73:1 74:15 75:11 76:7 
1 2:6 10:1 74:5 75:4 76:3 
1 2:2 74:1 
1 2:9 74:8 75:6 76:3 
1 2:24 47:1 57:1 74:23 75:20 76:12 
0.3886200213317595 2:26 38:1 47:1 57:1 74:25 75:22 76:14 
1 2:2 74:1 
1 2:6 74:5 75:2 76:1 
1 2:2 74:1 
1 2:6 74:5 75:2 76:1 
1 2:2 74:1 
1 2:2 74:1 
1 2:2 74:1 
1 2:7 39:1 74:6 75:5 76:4 
1 2:2 74:1 
1 2:17 11:1 12:1 74:16 75:15 76:12 
1 2:4 74:3 75:2 76:1 
1 2:3 74:2 
1 2:2 74:1 
1 2:10 74:9 75:7 76:1 
1 2:11 74:10 75:8 76:2 
1 2:12 74:11 75:9 76:3 
1 2:14 74:13 75:11 76:5 
1 2:5 74:4 75:3 76:1 
1 2:3 74:2 75:1 
1 2:6 74:5 75:4 76:3 
1 2:5 74:4 75:3 76:2 
1 2:12 4:1 38:1 50:1 74:11 75:7 76:3 
1 2:11 4:1 37:1 47:1 59:1 60:1 74:10 75:7 76:3 
1 2:3 74:2 
1 2:5 74:4 75:2 
1 2:6 31:1 74:5 75:4 76:3 
1 2:4 31:1 74:3 75:1 
1 2:8 74:7 75:6 76:5 
1 2:10 74:9 75:8 76:6 
1 2:12 22:1 74:11 75:10 76:7 
1 2:13 22:1 74:12 75:11 76:9 
1 2:10 74:9 75:7 76:5 
1 2:2 74:1 
1 2:2 74:1 
1 2:2 74:1 
1 2:11 40:1 74:10 75:8 76:5 
1 2:10 40:1 74:9 75:7 76:4 
1 2:9 40:1 74:8 75:6 76:4 
1 2:4 47:1 74:3 75:2 
1 2:12 13:1 35:1 62:1 74:11 75:9 76:3 
1 2:6 74:5 75:4 76:3 
1 2:5 74:4 75:3 76:1 
1 2:24 68:1 74:23 75:22 76:15 
1 2:16 74:15 75:12 76:6 
1 2:6 14:1 74:5 75:4 76:2 
1 2:4 74:3 75:1 
1 2:3 74:2 
1 2:2 74:1 
1 2:8 44:1 74:7 75:6 76:4 
1 2:4 7:1 74:3 75:1 
1 2:2 74:1 
1 2:5 39:1 74:4 75:3 76:2 
1 2:14 74:13 75:11 76:4 
1 2:11 74:10 75:8 76:2 
1 2:2 74:1 
1 2:2 74:1 
1 2:11 74:10 75:9 76:5 
1 2:18 4:1 7:1 27:1 74:17 75:13 76:5 
1 2:3 74:2 
1 2:3 64:1 74:2 75:1 
1 2:2 74:1 
1 2:5 74:4 75:3 
1 2:2 74:1 
1 2:3 74:2 75:1 
1 2:4 74:3 75:2 76:1 
1 2:5 74:4 75:3 76:2 
1 2:17 4:1 12:1 29:1 71:1 74:16 75:13 76:7 
0.7176287958126047 2:19 10:1 13:1 26:1 35:1 51:1 74:18 75:14 76:8 
1 2:16 10:1 13:1 26:1 35:1 51:1 74:15 75:11 76:7 
1 2:2 74:1 
1 2:8 4:1 12:1 71:1 74:7 75:5 76:3 
1 2:11 4:1 12:1 71:1 74:10 75:8 76:5 
0.1243190574918416 2:28 12:2 47:1 51:1 61:1 71:1 74:27 75:24 76:16 
1 2:4 74:3 75:2 76:1 
1 2:3 74:2 75:1 
1 2:6 61:1 74:5 75:3 76:2 
1 2:2 74:1 
1 2:4 74:3 75:2 76:1 
1 2:2 74:1 
1 2:2 74:1 
1 2:2 74:1 
1 2:14 61:1 74:13 75:12 76:8 
1 2:7 24:1 74:6 75:5 76:4 
1 2:16 39:1 42:1 74:15 75:10 76:8 
1 2:2 74:1 
1 2:3 74:2 75:1 
1 2:3 74:2 75:1 
1 2:1 
1 2:21 74:20 75:16 76:11 
1 2:4 74:3 75:2 76:1 
1 2:6 74:5 75:4 76:2 
1 2:5 74:4 75:3 76:1 
1 2:4 74:3 75:2 
1 2:2 74:1 
1 2:5 74:4 75:3 
1 2:4 38:1 74:3 75:2 
1 2:16 38:1 74:15 75:14 76:11 
1 2:17 38:1 74:16 75:15 76:12 
1 2:18 38:1 74:17 75:16 76:13 
1 2:19 38:1 74:18 75:17 76:14 
1 2:20 38:1 74:19 75:18 76:15 
1 2:21 38:1 74:20 75:19 76:16 
1 2:22 38:1 74:21 75:20 76:17 
1 2:23 38:1 74:22 75:21 76:18 
1 2:24 38:1 74:23 75:22 76:19 
1 2:25 38:1 74:24 75:23 76:20 
1 2:26 38:1 74:25 75:24 76:21 
1 2:3 38:1 74:2 75:1 
1 2:5 38:1 74:4 75:3 76:1 
1 2:7 38:1 74:6 75:5 76:3 
1 2:3 38:1 74:2 75:1 
1 2:2 74:1 
1 2:3 74:2 75:1 
1 2:7 74:6 75:5 76:4 
1 2:2 38:1 74:1 
1 2:3 38:1 74:2 75:1 
1 2:4 38:1 74:3 75:2 76:1 
1 2:5 38:1 74:4 75:3 76:2 
1 2:6 38:1 74:5 75:4 76:3 
1 2:7 38:1 74:6 75:5 76:4 
1 2:8 38:1 74:7 75:6 76:5 
1 2:10 38:1 74:9 75:8 76:7 
1 2:11 38:1 74:10 75:9 76:8 
1 2:12 38:1 74:11 75:10 76:9 
1 2:13 38:1 74:12 75:11 76:10 
1 2:14 38:1 74:13 75:12 76:11 
1 2:9 22:1 74:8 75:6 76:3 
1 2:6 74:5 75:4 76:2 
1 2:4 74:3 75:2 
1 2:2 74:1 
1 2:3 74:2 
1 2:3 74:2 
1 2:2 74:1 
1 2:2 74:1 
1 2:2 74:1 
1 2:6 71:1 72:1 74:5 75:4 76:3 
1 2:2 74:1 
1 2:4 74:3 75:2 76:1 
1 2:9 8:1 74:8 75:5 76:2 
1 2:2 74:1 
1 2:5 61:1 74:4 75:3 76:2 
1 2:3 74:2 
1 2:4 74:3 75:2 76:1 
1 2:8 74:7 75:6 76:5 
1 2:2 74:1 
1 2:6 74:5 75:4 76:3 
1 2:11 61:1 74:10 75:9 76:6 
1 2:7 74:6 75:5 76:2 
1 2:2 74:1 
1 2:3 74:2 75:1 
1 2:4 74:3 75:2 76:1 
1 2:7 74:6 75:4 76:3 
1 2:8 74:7 75:5 76:3 
1 2:10 74:9 75:7 76:5 
1 2:2 74:1 
1 2:14 22:1 47:1 61:1 74:13 75:12 76:6 
1 2:40 4:1 12:1 22:3 68:1 74:39 75:34 76:23 
0.5951954810481386 2:37 4:1 12:1 22:3 68:1 74:36 75:32 76:21 
1 2:32 4:1 12:1 22:1 68:1 74:31 75:27 76:16 
0.9105646982270736 2:31 4:1 12:1 22:1 68:1 74:30 75:26 76:15 
1 2:28 4:1 12:1 68:1 74:27 75:23 76:14 
0.6207530260332738 2:21 4:1 12:1 68:1 74:20 75:16 76:8 
1 2:8 4:1 12:1 68:1 74:7 75:5 76:3 
1 2:2 74:1 
1 2:3 74:2 75:1 
1 2:20 10:1 33:1 67:1 74:19 75:11 76:3 
1 2:30 10:1 33:1 67:1 74:29 75:21 76:13 
1 2:3 74:2 75:1 
1 2:2 74:1 
1 2:3 74:2 75:1 
1 2:4 74:3 75:2 76:1 
1 2:13 74:12 75:11 76:6 
1 2:15 74:14 75:13 76:8 
1 2:3 74:2 75:1 
1 2:5 12:1 74:4 75:3 76:1 
1 2:7 12:1 74:6 75:5 76:3 
1 2:4 22:1 74:3 75:2 76:1 
1 2:5 22:1 74:4 75:3 76:2 
1 2:7 22:1 74:6 75:5 76:4 
1 2:9 22:1 74:8 75:7 76:5 
1 2:15 22:1 74:14 75:13 76:10 
1 2:18 22:1 74:17 75:15 76:12 
1 2:20 22:2 74:19 75:17 76:13 
1 2:22 22:2 74:21 75:19 76:14 
1 2:11 42:1 74:10 75:9 76:6 
1 2:8 42:1 74:7 75:6 76:4 
1 2:9 47:1 74:8 75:7 76:5 
1 2:8 43:1 47:1 74:7 75:6 76:4 
1 2:13 12:1 74:12 75:11 76:8 
1 2:2 42:1 74:1 
1 2:3 74:2 75:1 
1 2:3 74:2 
1 2:12 63:1 74:11 75:8 76:4 
1 2:3 74:2 75:1 
1 2:12 18:1 64:1 74:11 75:8 76:4 
1 2:13 18:1 64:1 74:12 75:9 76:5 
1 2:4 18:1 47:1 74:3 75:2 76:1 
1 2:12 18:1 64:1 74:11 75:8 76:4 
1 2:13 18:1 64:1 74:12 75:9 76:5 
1 2:7 74:6 75:4 76:2 
1 2:9 74:8 75:6 76:4 
1 2:9 74:8 75:6 76:2 
1 2:8 74:7 75:5 76:1 
1 2:6 74:5 75:3 
1 2:2 74:1 
1 2:2 74:1 
1 2:5 74:4 75:3 76:2 
1 2:12 74:11 75:9 76:7 
1 2:5 74:4 75:2 76:1 
1 2:6 34:1 47:1 74:5 75:4 76:3 
1 2:34 12:1 41:1 45:1 59:1 71:1 74:33 75:29 76:19 
1 2:33 12:1 41:1 45:1 59:1 71:1 74:32 75:28 76:18 
0.08672385623326956 2:32 12:1 41:1 45:1 59:1 71:1 74:31 75:27 76:17 
1 2:28 12:1 41:1 45:1 59:1 71:1 74:27 75:23 76:13 
1 2:6 47:1 60:1 74:5 75:4 76:3 
1 2:11 74:10 75:8 76:3 
1 2:10 74:9 75:7 76:2 
1 2:8 74:7 75:5 76:2 
1 2:1 
1 2:11 24:1 74:10 75:9 76:6 
1 2:12 24:1 74:11 75:10 76:7 
1 2:13 24:1 74:12 75:11 76:8 
1 2:15 24:1 74:14 75:13 76:10 
1 2:3 74:2 75:1 
1 2:9 10:1 71:1 74:8 75:7 76:6 
1 2:3 74:2 75:1 
1 2:6 74:5 75:4 76:2 
1 2:4 74:3 75:2 
1 2:8 74:7 75:6 76:5 
1 2:2 74:1 
1 2:3 74:2 
1 2:4 74:3 75:2 
1 2:2 74:1 
1 2:2 74:1 
1 2:2 74:1 
1 2:3 74:2 
1 2:11 74:10 75:9 76:6 
1 2:18 12:1 21:1 47:1 74:17 75:14 76:8 
1 2:14 6:1 47:1 74:13 75:10 76:7 
1 2:4 74:3 75:2 
1 2:2 74:1 
0.1442045727069039 2:10 6:1 13:1 37:1 74:9 75:7 76:2 
1 2:4 74:3 75:1 
1 2:3 34:1 74:2 75:1 
1 2:5 34:1 38:1 74:4 75:3 76:2 
1 2:6 57:1 74:5 75:4 76:3 
1 2:2 74:1 
1 2:5 74:4 75:3 76:1 
1 2:3 74:2 75:1 
1 2:6 74:5 75:4 76:1 
1 2:15 74:14 75:13 76:6 
1 2:16 74:15 75:14 76:7 
1 2:20 10:1 22:1 47:1 71:1 74:19 75:10 76:3 
1 2:10 74:9 75:8 76:4 
1 2:11 74:10 75:9 76:5 
1 2:12 74:11 75:10 76:6 
1 2:13 74:12 75:11 76:7 
1 2:4 18:1 47:1 74:3 75:2 76:1 
1 2:7 33:1 74:6 75:5 76:3 
1 2:8 39:1 74:7 75:6 76:4 
1 2:13 37:1 74:12 75:9 76:2 
1 2:13 39:1 51:1 74:12 75:8 76:2 
1 2:18 13:1 22:1 35:1 62:1 74:17 75:12 76:7 
1 2:15 13:1 22:1 35:1 62:1 74:14 75:10 76:6 
1 2:11 13:1 35:1 62:1 74:10 75:7 76:4 
1 2:7 13:1 35:1 62:1 74:6 75:3 76:1 
0.4051602819950135 2:16 34:1 39:1 47:1 74:15 75:9 76:3 
1 2:28 34:1 39:1 47:1 74:27 75:19 76:12 
1 2:29 34:1 39:1 47:1 74:28 75:20 76:12 
1 2:1 
1 2:2 74:1 
1 2:2 74:1 
1 2:4 74:3 75:1 
1 2:4 74:3 75:2 76:1 
1 2:4 18:1 74:3 75:1 
1 2:18 4:1 10:1 51:1 74:17 75:14 76:7 
1 2:2 74:1 
1 2:17 4:1 59:1 74:16 75:14 76:10 
1 2:17 4:1 59:1 74:16 75:14 76:10 
1 2:17 4:1 59:1 74:16 75:14 76:10 
1 2:2 74:1 
1 2:2 74:1 
1 2:4 24:1 74:3 75:2 76:1 
1 2:3 74:2 75:1 
1 2:2 74:1 
1 2:2 74:1 
1 2:3 74:2 
1 2:2 74:1 
1 2:4 34:1 74:3 75:1 
1 2:2 74:1 
1 2:6 74:5 75:3 76:2 
1 2:2 74:1 
1 2:2 74:1 
1 2:16 13:1 37:1 74:15 75:12 76:6 
1 2:2 14:1 74:1 
1 2:4 14:1 38:1 74:3 75:2 76:1 
1 2:6 14:1 74:5 75:4 76:1 
1 2:5 71:1 74:4 75:3 76:2 
1 2:17 56:1 74:16 75:12 76:7 
1 2:17 56:1 74:16 75:12 76:7 
1 2:21 74:20 75:13 76:8 
1 2:19 47:2 71:1 74:18 75:14 76:4 
1 2:5 74:4 75:3 76:2 
1 2:8 6:1 72:1 74:7 75:6 76:4 
1 2:5 74:4 75:3 76:2 
1 2:4 74:3 75:2 76:1 
1 2:2 74:1 
1 2:3 74:2 75:1 
1 2:8 56:1 74:7 75:6 76:5 
1 2:11 56:1 74:10 75:8 76:6 
1 2:2 74:1 
1 2:22 64:2 74:21 75:17 76:14 
1 2:2 74:1 
1 2:2 74:1 
1 2:5 6:1 74:4 75:2 76:1 
1 2:2 74:1 
1 2:3 74:2 75:1 
0.6423064033890268 2:15 12:1 71:1 74:14 75:10 76:4 
1 2:2 74:1 
1 2:2 74:1 
1 2:2 74:1 
1 2:23 11:1 13:1 35:1 74:22 75:18 76:13 
1 2:17 4:1 12:1 22:1 74:16 75:13 76:6 
1 2:12 74:11 75:7 76:4 
1 2:11 33:1 74:10 75:9 76:7 
1 2:4 47:1 63:1 74:3 75:2 76:1 
1 2:7 74:6 75:5 76:4 
1 2:10 74:9 75:7 76:5 
1 2:2 74:1 
1 2:5 42:1 74:4 75:3 76:2 
1 2:19 20:1 35:1 74:17 75:13 76:7 
1 2:2 74:1 
1 2:2 74:1 
1 2:2 74:1 
1 2:3 74:2 75:1 
1 2:5 74:4 75:3 76:1 
1 2:2 74:1 
1 2:3 74:2 75:1 
1 2:5 74:4 75:3 76:2 
1 2:12 12:1 52:1 74:11 75:10 76:7 
1 2:9 12:1 52:1 74:8 75:7 76:5 
1 2:4 18:1 72:1 74:3 75:2 76:1 
1 2:5 18:1 72:1 74:4 75:3 76:2 
1 2:2 74:1 
1 2:2 74:1 
1 2:2 74:1 
1 2:3 74:2 75:1 
1 2:3 74:2 75:1 
1 2:2 74:1 
1 2:2 74:1 
1 2:4 74:3 75:2 76:1 
1 2:5 74:4 75:3 76:2 
1 2:7 74:6 75:5 76:4 
1 2:3 74:2 
1 2:5 42:1 74:4 75:3 76:2 
1 2:2 74:1 
1 2:2 74:1 
1 2:3 74:2 75:1 
1 2:7 8:1 74:6 75:5 76:3 
1 2:8 8:1 74:7 75:6 76:4 
1 2:10 8:1 74:9 75:8 76:6 
1 2:3 74:2 75:1 
1 2:5 74:4 75:3 76:2 
1 2:5 59:1 74:4 75:3 76:2 
1 2:2 74:1 
1 2:5 74:4 75:3 
1 2:3 74:2 75:1 
1 2:2 74:1 
1 2:2 74:1 
1 2:8 74:7 75:2 76:1 
1 2:2 74:1 
1 2:4 34:1 74:3 75:1 
1 2:2 74:1 
1 2:2 74:1 
1 2:4 18:1 47:1 74:3 75:2 76:1 
1 2:7 74:6 75:5 76:2 
0.3748990304949774 2:4 67:1 74:3 75:1 
1 2:3 74:2 
1 2:2 74:1 
1 2:4 74:3 75:2 76:1 
1 2:3 74:2 
1 2:2 74:1 
1 2:3 74:2 75:1 
1 2:4 74:3 75:2 76:1 
0.6372613978912978 2:6 67:1 71:1 72:1 74:5 75:4 76:3 
1 2:7 67:1 71:1 72:1 74:6 75:5 76:4 
1 2:8 67:1 71:1 72:1 74:7 75:6 76:5 
1 2:9 67:1 71:1 72:1 74:8 75:7 76:6 
1 2:4 74:3 75:2 76:1 
1 2:4 74:3 75:2 76:1 
1 2:4 47:1 71:1 74:3 75:2 76:1 
1 2:4 34:1 74:3 75:1 
1 2:2 74:1 
1 2:4 74:3 75:2 76:1 
1 2:3 74:2 
0.8749841426743208 2:15 6:1 25:1 61:1 72:2 74:14 75:5 76:2 
0.2985897254926005 2:19 45:1 47:1 74:18 75:15 76:8 
1 2:20 45:1 47:1 74:19 75:16 76:9 
1 2:22 45:1 47:1 74:21 75:18 76:11 
1 2:24 45:1 47:1 74:23 75:20 76:13 
1 2:15 74:14 75:10 76:4 
1 2:17 74:16 75:10 76:4 
1 2:7 74:6 75:5 76:2 
1 2:5 68:1 74:4 75:2 
1 2:23 64:1 74:22 75:20 76:14 
1 2:21 64:1 74:20 75:18 76:13 
1 2:2 74:1 
1 2:2 74:1 
1 2:2 74:1 
1 2:2 74:1 
1 2:10 74:9 75:8 76:4 
1 2:11 74:10 75:9 76:5 
1 2:13 74:12 75:11 76:7 
1 2:2 74:1 
1 2:2 74:1 
1 2:2 14:1 74:1 
1 2:4 14:1 74:3 75:2 76:1 
1 2:2 74:1 
1 2:22 7:1 12:1 74:21 75:18 76:9 
1 2:9 13:1 35:1 65:1 74:8 75:6 76:2 
1 2:15 13:1 35:1 45:1 65:1 74:14 75:12 76:8 
0.02545813603095359 2:24 13:1 31:1 35:1 45:1 65:1 74:23 75:20 76:14 
1 2:42 11:1 13:2 31:1 35:2 45:1 59:1 65:1 74:41 75:35 76:24 
1 2:3 74:2 75:1 
1 2:5 74:4 75:2 76:1 
1 2:6 74:5 75:2 76:1 
1 2:7 74:6 75:3 76:1 
1 2:9 74:8 75:5 76:3 
1 2:11 74:10 75:7 76:4 
1 2:12 74:11 75:8 76:5 
1 2:13 74:12 75:9 76:6 
1 2:14 74:13 75:10 76:7 
1 2:15 74:14 75:11 76:8 
1 2:16 74:15 75:12 76:9 
1 2:18 74:17 75:14 76:11 
1 2:11 4:1 13:1 35:1 47:1 54:1 60:1 74:10 75:7 76:2 
0.02537593063514978 2:30 6:1 12:1 35:1 47:1 59:2 74:29 75:21 76:10 
1 2:28 6:1 12:1 35:1 47:1 59:2 74:27 75:20 76:9 
0.05320190170333535 2:25 6:1 12:1 35:1 47:1 59:2 74:24 75:17 76:6 
1 2:23 6:1 12:1 35:1 47:1 59:2 74:22 75:15 76:6 
1 2:3 74:2 75:1 
1 2:2 74:1 
1 2:2 74:1 
0.9025799943358174 2:13 34:1 59:1 74:12 75:7 76:3 
1 2:13 74:12 75:7 76:5 
1 2:2 74:1 
1 2:7 35:1 74:6 75:5 76:4 
1 2:9 35:1 74:8 75:7 76:6 
1 2:13 5:1 74:12 75:8 76:5 
1 2:14 5:1 74:13 75:10 76:6 
1 2:16 5:1 74:15 75:12 76:8 
1 2:2 74:1 
1 2:4 38:1 74:3 75:2 
1 2:3 74:2 75:1 
1 2:3 74:2 75:1 
1 2:3 74:2 75:1 
1 2:5 74:4 75:3 76:1 
1 2:2 74:1 
1 2:21 10:1 22:1 39:1 53:1 74:20 75:14 76:8 
1 2:2 74:1 
1 2:5 74:4 75:3 76:1 
1 2:3 74:2 75:1 
1 2:6 74:5 75:4 76:2 
1 2:8 31:1 74:7 75:6 76:4 
1 2:2 74:1 
1 2:4 74:3 75:2 76:1 
1 2:8 74:7 75:4 76:2 
1 2:9 74:8 75:5 76:3 
1 2:2 74:1 
1 2:7 74:6 75:5 76:2 
1 2:13 14:1 42:1 74:12 75:11 76:5 
1 2:2 74:1 
1 2:25 72:1 74:24 75:16 76:9 
1 2:4 43:1 74:3 75:2 
1 2:5 74:4 75:3 76:2 
1 2:3 74:2 
1 2:6 16:1 74:5 75:4 76:3 
1 2:2 74:1 
1 2:5 74:4 75:3 76:1 
1 2:6 74:5 75:4 76:2 
1 2:8 74:7 75:6 76:4 
1 2:9 74:8 75:7 76:5 
1 2:3 74:2 
1 2:3 74:2 75:1 
1 2:8 74:7 75:6 76:3 
1 2:35 22:2 74:34 75:29 76:17 
1 2:31 22:1 74:30 75:25 76:13 
1 2:29 22:1 74:28 75:23 76:13 
1 2:17 74:16 75:14 76:8 
1 2:16 74:15 75:13 76:8 
1 2:4 6:1 74:3 75:2 
1 2:8 6:1 22:1 74:7 75:5 76:3 
1 2:4 6:1 74:3 75:1 
1 2:2 74:1 
1 2:6 74:5 75:4 76:3 
1 2:8 42:1 47:1 74:7 75:6 76:5 
1 2:5 24:1 74:4 75:3 76:2 
0.9125456460472592 2:17 6:1 57:1 74:16 75:13 76:6 
1 2:18 6:1 57:1 74:17 75:14 76:7 
1 2:19 6:1 57:1 74:18 75:15 76:8 
1 2:22 6:1 57:1 74:21 75:18 76:10 
1 2:10 24:1 74:9 75:8 76:6 
1 2:7 12:1 74:6 75:5 76:3 
1 2:6 74:5 75:3 76:2 
1 2:13 47:1 71:1 74:12 75:8 76:3 
1 2:22 13:1 35:1 57:1 59:1 74:21 75:17 76:7 
1 2:3 74:2 
1 2:7 12:1 74:6 75:4 76:3 
1 2:2 74:1 
1 2:2 74:1 
1 2:4 74:3 75:1 
1 2:1 
1 2:4 74:3 75:2 
1 2:11 7:1 12:1 74:10 75:9 76:6 
1 2:13 7:1 12:1 74:12 75:11 76:8 
1 2:1 
1 2:3 74:2 75:1 
1 2:6 74:5 75:4 76:3 
1 2:2 74:1 
1 2:3 74:2 
1 2:2 74:1 
1 2:7 37:1 57:1 74:6 75:5 76:3 
1 2:14 37:1 57:1 74:13 75:11 76:8 
1 2:2 74:1 
1 2:2 74:1 
1 2:4 74:3 75:2 76:1 
1 2:10 4:1 12:1 34:1 74:9 75:4 
1 2:6 74:5 75:3 76:1 
1 2:7 74:6 75:3 76:1 
1 2:9 74:8 75:5 76:2 
0.7429255266389513 2:22 8:1 14:2 48:1 74:21 75:15 76:9 
1 2:11 74:10 75:8 76:5 
1 2:9 74:8 75:7 76:4 
1 2:8 74:7 75:6 76:3 
1 2:7 74:6 75:5 76:2 
1 2:5 74:4 75:3 76:2 
1 2:2 74:1 
1 2:2 74:1 
1 2:2 74:1 
1 2:6 9:1 74:5 75:4 76:2 
0.6080668669234388 2:16 13:1 34:1 35:1 37:1 65:1 74:15 75:10 76:3 
1 2:17 13:1 34:1 35:1 37:1 65:1 74:16 75:11 76:4 
1 2:19 13:1 34:1 35:1 37:1 65:1 74:18 75:13 76:6 
1 2:2 74:1 
1 2:8 13:1 37:1 74:7 75:6 76:3 
1 2:1 14:1 
1 2:2 74:1 
1 2:19 45:1 74:18 75:15 76:8 
1 2:2 74:1 
1 2:2 74:1 
1 2:2 74:1 
1 2:5 4:1 74:4 75:2 
1 2:17 4:1 74:16 75:14 76:7 
1 2:4 74:3 75:2 76:1 
1 2:2 74:1 
1 2:13 13:1 37:1 61:1 62:1 74:12 75:10 76:4 
1 2:9 22:1 74:8 75:6 76:3 
1 2:6 74:5 75:4 76:2 
1 2:4 74:3 75:2 
1 2:2 74:1 
1 2:3 74:2 75:1 
1 2:3 74:2 
0.9355418115042903 2:24 40:1 42:1 47:1 74:23 75:11 76:6 
1 2:12 14:1 56:1 74:11 75:10 76:6 
1 2:16 14:1 56:1 74:15 75:14 76:8 
1 2:15 14:1 56:1 74:14 75:13 76:7 
0.2090232046189004 2:14 14:1 56:1 74:13 75:12 76:6 
1 2:1 
1 2:2 74:1 
1 2:3 74:2 75:1 
1 2:4 74:3 75:2 76:1 
1 2:5 74:4 75:3 76:2 
1 2:6 74:5 75:4 76:3 
1 2:8 74:7 75:6 76:5 
1 2:9 74:8 75:7 76:6 
1 2:10 74:9 75:8 76:7 
1 2:11 74:10 75:9 76:8 
1 2:12 74:11 75:10 76:9 
1 2:13 74:12 75:11 76:10 
1 2:17 74:16 75:15 76:14 
1 2:1 
1 2:2 74:1 
1 2:2 74:1 
1 2:2 74:1 
1 2:12 71:1 74:11 75:10 76:7 
1 2:2 74:1 
1 2:2 74:1 
1 2:2 74:1 
1 2:2 74:1 
1 2:2 74:1 
1 2:11 42:1 74:10 75:9 76:6 
1 2:8 31:1 74:7 75:6 76:4 
1 2:21 12:2 40:1 71:1 74:20 75:14 76:5 
1 2:11 4:1 6:1 12:1 74:10 75:7 76:1 
1 2:4 74:3 75:1 
1 2:18 4:1 12:1 67:1 74:17 75:14 76:9 
1 2:2 74:1 
1 2:12 74:11 75:6 76:4 
1 2:11 74:10 75:6 76:4 
1 2:4 74:3 75:2 
1 2:2 74:1 
1 2:2 74:1 
1 2:2 74:1 
1 2:2 74:1 
1 1:1 2:2 39:1 74:1 
1 2:2 74:1 
1 2:3 74:2 
1 2:6 74:5 75:4 76:3 
1 2:5 74:4 75:3 76:2 
1 2:7 54:1 72:1 74:6 75:5 76:3 
1 2:3 74:2 75:1 
1 2:2 74:1 
1 2:11 33:1 74:10 75:9 76:7 
1 2:9 24:1 74:8 75:7 76:5 
1 2:3 39:1 74:2 75:1 
1 2:22 15:1 55:1 74:21 75:15 76:8 
1 2:5 74:4 75:3 76:2 
0.112077024036908 2:12 42:1 74:11 75:10 76:6 
1 2:3 74:2 75:1 
1 2:8 74:7 75:3 76:2 
1 2:16 14:1 38:1 47:1 74:15 75:10 76:4 
1 2:10 39:1 73:1 74:9 75:7 76:5 
0.6469203391895859 2:17 41:1 47:1 61:1 74:16 75:14 76:8 
1 2:21 41:1 47:1 61:1 74:20 75:17 76:9 
0.1553606294423485 2:6 13:1 37:1 62:1 74:5 75:4 76:1 
1 2:2 74:1 
1 2:2 74:1 
1 2:4 38:1 74:3 75:2 
1 2:2 74:1 
1 2:2 74:1 
0.03887045909178703 2:24 4:1 6:1 12:1 22:1 74:23 75:18 76:10 
1 2:17 4:1 6:1 12:1 74:16 75:11 76:5 
1 2:16 4:1 6:1 12:1 74:15 75:10 76:4 
1 2:25 4:1 6:1 12:1 74:24 75:18 76:9 
1 2:2 74:1 
1 2:12 13:1 37:1 43:1 47:1 54:1 67:1 74:11 75:8 76:3 
1 2:10 74:9 75:8 76:6 
1 2:2 74:1 
1 2:5 74:4 75:3 76:2 
1 2:12 74:11 75:8 76:4 
0.03802111758070643 2:28 10:1 38:1 42:1 51:1 74:27 75:19 76:11 
1 2:14 74:13 75:12 76:9 
1 2:4 74:3 75:2 
1 2:2 74:1 
1 2:4 74:3 75:2 76:1 
1 2:4 34:1 72:1 74:3 75:2 76:1 
1 2:4 6:1 33:1 72:1 74:3 75:2 
1 2:2 74:1 
1 2:14 4:1 12:1 70:1 74:13 75:11 76:6 
1 2:20 11:1 72:1 74:19 75:15 76:11 
1 2:2 74:1 
1 2:2 74:1 
1 2:3 74:2 75:1 
1 2:12 13:1 35:1 74:11 75:10 76:7 
1 2:5 74:4 75:3 76:2 
1 2:3 74:2 
1 2:2 74:1 
1 2:4 74:3 75:2 76:1 
1 2:3 74:2 
1 2:2 74:1 
1 2:7 37:1 57:1 74:6 75:5 76:3 
1 2:2 74:1 
1 2:19 6:1 39:1 59:1 74:18 75:13 76:9 
1 2:6 6:1 74:5 75:3 76:2 
1 2:2 74:1 
1 2:2 74:1 
1 2:5 59:1 74:4 75:3 76:2 
1 2:2 74:1 
1 2:3 74:2 
1 2:25 18:1 37:1 74:24 75:21 76:16 
1 2:24 18:1 37:1 74:23 75:20 76:15 
1 2:23 18:1 37:1 74:22 75:19 76:14 
0.002223507921448606 2:21 18:1 37:1 74:20 75:17 76:12 
1 2:20 18:1 37:1 74:19 75:16 76:11 
1 2:19 18:1 37:1 74:18 75:15 76:10 
1 2:4 18:1 47:1 74:3 75:2 76:1 
1 2:5 10:1 74:4 75:3 
1 2:2 74:1 
1 2:2 74:1 
1 2:2 74:1 
1 2:2 74:1 
1 2:3 24:1 74:2 75:1 
1 2:2 74:1 
1 2:3 74:2 
1 2:19 6:1 24:1 72:1 74:18 75:15 76:12 
1 2:11 64:1 74:10 75:9 76:7 
1 2:10 74:9 75:8 76:7 
1 2:9 57:1 74:8 75:7 76:4 
1 2:4 59:1 74:3 75:2 76:1 
1 2:26 16:1 74:25 75:19 76:14 
1 2:4 59:1 74:3 75:2 76:1 
1 2:6 74:5 75:4 76:3 
1 2:8 74:7 75:6 76:5 
1 2:9 74:8 75:7 76:6 
1 2:7 74:6 75:5 76:4 
1 2:4 39:1 74:3 75:2 
1 2:2 74:1 
1 2:4 67:1 74:3 75:2 76:1 
1 2:20 4:1 16:1 31:1 39:1 73:1 74:19 75:14 76:5 
1 2:10 71:1 74:9 75:6 76:4 
1 2:14 4:1 12:1 71:1 74:13 75:9 76:6 
1 2:11 71:1 74:10 75:7 76:5 
1 2:2 74:1 
1 2:11 71:1 74:10 75:7 76:5 
1 2:2 74:1 
1 2:1 
1 2:17 34:1 72:1 74:16 75:12 76:5 
1 2:3 74:2 75:1 
1 2:3 74:2 75:1 
1 2:5 72:1 74:4 75:3 76:2 
1 2:3 74:2 75:1 
1 2:3 74:2 75:1 
1 2:8 4:1 12:1 71:1 74:7 75:5 76:3 
1 2:4 74:3 75:2 76:1 
1 2:4 74:3 75:2 76:1 
1 2:11 3:1 35:1 74:10 75:9 76:5 
1 2:3 42:1 74:2 75:1 
1 2:2 42:1 74:1 
1 2:2 74:1 
1 2:2 74:1 
1 2:2 74:1 
1 2:2 74:1 
1 2:25 11:1 39:1 74:24 75:21 76:9 
1 2:24 11:1 39:1 74:23 75:20 76:8 
1 2:22 11:1 39:1 74:21 75:18 76:7 
1 2:5 24:1 74:4 75:3 76:2 
1 2:10 4:1 12:1 47:1 60:1 74:9 75:6 
1 2:12 4:1 12:1 22:1 47:1 60:1 74:11 75:8 76:2 
1 2:2 74:1 
1 2:5 16:1 74:4 75:3 76:2 
1 2:3 74:2 75:1 
1 2:3 74:2 75:1 
1 2:2 74:1 
1 2:2 74:1 
1 2:3 74:2 75:1 
1 2:18 33:1 44:1 74:17 75:15 76:11 
1 2:19 33:1 44:1 74:18 75:16 76:12 
1 2:24 33:1 44:1 74:23 75:21 76:17 
1 2:25 33:1 44:1 74:24 75:22 76:18 
0.3579168231779081 2:27 33:1 44:1 74:26 75:24 76:20 
0.7308508372369352 2:28 33:1 44:1 74:27 75:25 76:21 
1 2:30 33:1 44:1 74:29 75:27 76:23 
1 2:31 33:1 44:1 74:30 75:28 76:24 
1 2:32 33:1 44:1 74:31 75:29 76:25 
1 2:37 17:1 33:1 44:1 74:36 75:34 76:30 
1 2:38 17:1 33:1 44:1 74:37 75:35 76:31 
0.06301348290939907 2:39 17:1 33:1 44:1 74:38 75:36 76:32 
0.4075857135987275 2:42 17:1 33:1 44:1 74:41 75:39 76:35 
0.6627930851548929 2:43 17:1 33:1 44:1 74:42 75:40 76:36 
0.01859978222403614 2:44 17:1 33:1 44:1 74:43 75:41 76:37 
0.2460044199662865 2:45 17:1 33:1 44:1 74:44 75:42 76:38 
1 2:49 17:1 33:1 44:1 74:48 75:46 76:42 
0.3735063509114097 2:52 17:1 33:1 44:1 74:51 75:49 76:45 
1 2:53 17:1 33:1 44:1 74:52 75:50 76:46 
0.7306061105560665 2:57 17:1 33:1 44:1 74:56 75:54 76:50 
1 2:61 17:1 33:1 44:1 74:60 75:58 76:54 
1 2:4 10:1 74:3 75:1 
1 2:9 10:1 74:8 75:6 76:4 
1 2:10 10:1 74:9 75:7 76:5 
1 2:11 10:1 74:10 75:8 76:6 
1 2:12 10:1 74:11 75:9 76:7 
1 2:13 10:1 74:12 75:10 76:8 
1 2:14 10:1 74:13 75:11 76:9 
1 2:17 10:1 74:16 75:14 76:12 
1 2:18 10:1 74:17 75:15 76:13 
1 2:19 10:1 74:18 75:16 76:14 
1 2:20 10:1 74:19 75:17 76:15 
1 2:21 10:1 74:20 75:18 76:16 
1 2:22 10:1 74:21 75:19 76:17 
1 2:23 10:1 74:22 75:20 76:18 
1 2:24 10:1 74:23 75:21 76:19 
1 2:25 10:1 74:24 75:22 76:20 
1 2:26 10:1 74:25 75:23 76:21 
1 2:27 10:1 74:26 75:24 76:22 
1 2:28 10:1 74:27 75:25 76:23 
1 2:29 10:1 74:28 75:26 76:24 
1 2:30 10:1 74:29 75:27 76:25 
1 2:31 10:1 74:30 75:28 76:26 
1 2:4 10:1 74:3 75:1 
1 2:9 10:1 74:8 75:6 76:4 
1 2:10 10:1 74:9 75:7 76:5 
1 2:11 10:1 74:10 75:8 76:6 
1 2:13 10:1 74:12 75:10 76:8 
1 2:15 10:1 74:14 75:10 76:7 
1 2:16 10:1 74:15 75:11 76:8 
1 2:17 10:1 74:16 75:12 76:9 
0.06967293649907884 2:18 10:1 74:17 75:13 76:10 
1 2:12 33:1 39:1 74:11 75:9 76:7 
1 2:2 74:1 
1 2:11 9:1 74:10 75:9 76:6 
1 2:6 9:1 74:5 75:4 76:2 
1 2:5 74:4 75:3 76:1 
1 2:6 74:5 75:4 76:2 
1 2:8 74:7 75:6 76:4 
1 2:9 74:8 75:7 76:5 
1 2:10 74:9 75:8 76:6 
1 2:17 74:16 75:15 76:13 
1 2:13 8:1 74:12 75:9 76:6 
1 2:16 8:1 74:15 75:12 76:8 
1 2:17 8:1 74:16 75:13 76:9 
1 2:18 8:1 74:17 75:14 76:10 
1 2:19 8:1 74:18 75:15 76:11 
1 2:21 8:1 74:20 75:17 76:13 
1 2:27 8:1 22:1 74:26 75:23 76:19 
1 2:28 8:1 22:1 74:27 75:24 76:20 
1 2:32 8:1 22:1 74:31 75:28 76:24 
1 2:2 74:1 
0.7970438698587037 2:34 24:1 38:1 74:33 75:30 76:25 
1 2:35 24:1 38:1 74:34 75:31 76:26 
1 2:42 24:1 38:1 74:41 75:38 76:33 
0.3473231879564621 2:28 38:1 39:1 74:27 75:24 76:23 
1 2:33 7:1 38:1 39:1 74:32 75:29 76:28 
1 2:38 7:1 38:1 39:1 74:37 75:34 76:33 
1 2:42 7:1 38:1 39:1 74:41 75:38 76:37 
0.062925848122938 2:45 7:1 38:1 39:1 74:44 75:41 76:40 
0.973867288215325 2:46 7:1 38:1 39:1 74:45 75:42 76:41 
0.4102302988185657 2:47 7:1 38:1 39:1 74:46 75:43 76:42 
1 2:51 7:1 38:1 39:1 74:50 75:47 76:46 
0.5087285862044119 2:55 7:1 38:1 39:1 74:54 75:51 76:50 
1 2:56 7:1 38:1 39:1 74:55 75:52 76:51 
1 2:60 7:1 38:1 39:1 74:59 75:56 76:54 
0.02526713682168577 2:66 7:1 38:1 39:1 74:65 75:62 76:60 
0.6826221518830725 2:67 7:1 38:1 39:1 74:66 75:63 76:61 
0.2592012463538914 2:71 5:1 7:1 38:1 39:1 74:70 75:67 76:62 
1 2:2 74:1 
1 2:23 39:1 42:1 57:1 74:22 75:17 76:11 
1 2:15 39:1 57:1 74:14 75:13 76:10 
1 2:2 74:1 
1 2:2 74:1 
1 2:2 74:1 
1 2:4 6:1 74:3 75:1 
1 2:2 74:1 
1 2:3 74:2 
1 2:19 22:1 61:1 74:18 75:15 76:10 
1 2:16 22:1 61:1 74:15 75:12 76:7 
1 2:7 61:1 74:6 75:5 76:3 
1 2:10 74:9 75:6 76:5 
0.1141420842708301 2:12 34:1 37:1 74:11 75:8 76:3 
1 2:2 74:1 
1 2:2 74:1 
1 2:2 14:1 74:1 
1 2:2 74:1 
1 2:4 59:1 74:3 75:2 76:1 
1 2:5 61:1 74:4 75:3 76:1 
1 2:2 74:1 
1 2:3 74:2 75:1 
1 2:2 74:1 
1 2:2 74:1 
0.6974582917597096 2:8 4:1 10:1 60:1 74:7 75:6 76:2 
1 2:2 74:1 
1 2:2 74:1 
1 2:2 74:1 
1 2:7 74:6 75:4 76:2 
1 2:2 74:1 
1 2:5 74:4 75:2 
1 2:3 74:2 
1 2:3 74:2 75:1 
1 2:5 14:1 38:1 74:4 75:3 76:1 
1 2:4 59:1 74:3 75:2 76:1 
1 2:4 9:1 10:1 74:3 75:2 76:1 
1 2:4 74:3 75:2 76:1 
1 2:4 21:1 74:3 75:2 76:1 
1 2:3 21:1 74:2 75:1 
1 2:2 21:1 74:1 
1 2:7 74:6 75:5 76:4 
1 2:14 39:1 74:13 75:12 76:8 
1 2:17 39:1 70:1 73:1 74:16 75:15 76:12 
1 2:19 74:18 75:14 76:9 
1 2:18 74:17 75:13 76:9 
1 2:14 74:13 75:10 76:6 
1 2:9 74:8 75:6 76:4 
1 2:4 74:3 75:2 76:1 
1 2:3 74:2 75:1 
1 2:2 74:1 
1 2:4 74:3 75:2 
1 2:5 74:4 75:2 
1 2:6 74:5 75:3 
1 2:8 74:7 75:5 76:2 
1 2:2 74:1 
1 2:2 74:1 
1 2:7 6:1 22:1 73:1 74:6 75:3 
1 2:9 65:1 72:1 74:8 75:6 76:3 
1 2:7 6:1 47:1 74:6 75:5 76:4 
1 2:12 6:1 47:1 74:11 75:10 76:7 
1 2:16 6:1 47:1 74:15 75:14 76:10 
1 2:2 74:1 
1 2:5 61:1 74:4 75:3 76:2 
1 2:2 61:1 74:1 
1 2:7 64:1 74:6 75:4 76:2 
1 2:2 74:1 
1 2:9 4:1 22:1 71:1 74:8 75:3 
1 2:11 4:1 22:1 71:1 74:10 75:5 76:1 
1 2:8 42:1 74:7 75:6 76:4 
0.6637609871557959 2:21 63:1 74:20 75:12 76:6 
1 2:23 63:1 74:22 75:14 76:8 
1 2:8 58:1 74:7 75:6 76:4 
1 2:2 74:1 
1 2:2 74:1 
1 2:2 74:1 
1 2:5 74:4 75:2 
1 2:3 74:2 
1 2:18 13:1 35:1 62:1 74:17 75:16 76:13 
1 2:15 13:1 35:1 62:1 74:14 75:13 76:11 
1 2:2 74:1 
1 2:2 74:1 
1 2:9 22:1 74:8 75:6 76:3 
1 2:6 74:5 75:4 76:2 
1 2:4 74:3 75:2 
1 2:2 74:1 
1 2:6 64:1 74:5 75:4 76:3 
1 2:6 74:5 75:4 76:3 
1 2:20 13:1 16:1 18:1 37:1 62:1 74:19 75:15 76:9 
1 2:3 74:2 
1 2:2 74:1 
1 2:7 74:6 75:4 76:1 
1 2:13 4:1 12:1 13:1 32:1 35:1 39:1 74:12 75:8 76:1 
1 2:3 39:1 74:2 75:1 
1 2:2 74:1 
1 2:3 39:1 74:2 75:1 
1 2:2 74:1 
1 2:13 74:12 75:11 76:6 
1 2:15 37:1 74:14 75:12 76:6 
1 2:17 37:1 74:16 75:14 76:8 
1 2:2 74:1 
1 2:7 24:1 74:6 75:5 76:4 
1 2:7 39:1 74:6 75:5 76:4 
1 2:4 74:3 75:1 
1 2:5 74:4 75:2 
1 2:6 74:5 75:3 76:1 
1 2:9 74:8 75:6 76:3 
1 2:11 74:10 75:8 76:5 
1 2:4 74:3 75:1 
1 2:6 74:5 75:3 
1 2:12 66:1 74:11 75:9 76:6 
1 2:14 66:1 74:13 75:11 76:7 
1 2:15 66:1 74:14 75:12 76:8 
1 2:17 66:1 74:16 75:14 76:10 
1 2:9 66:1 74:8 75:6 76:4 
0.7931575175810819 2:12 66:1 74:11 75:9 76:6 
1 2:14 66:1 74:13 75:11 76:8 
1 2:27 6:1 8:1 39:1 74:26 75:17 76:10 
1 2:2 74:1 
1 2:8 39:1 74:7 75:6 76:5 
1 2:2 74:1 
1 2:9 4:1 6:1 12:1 74:8 75:5 76:3 
1 2:4 59:1 74:3 75:2 76:1 
1 2:2 74:1 
1 2:2 74:1 
1 2:4 38:1 74:3 75:2 
