svm_type c_svc
kernel_type rbf
gamma 0.04
nr_class 2
total_sv 2300
rho -7.03248
label 1 0
nr_sv 921 1379
SV
1.5 1:-0.478261 2:-0.722222 3:-1 4:-0.777778 5:-0.898734 6:-0.978739 7:-0.848862 8:-0.87013 9:-0.978739 10:-0.843137 11:-0.992671 12:-1 13:-0.846545 14:-1 15:0.999999 16:-0.85 17:0.299151 18:-1 19:-0.909091 20:-1 21:-0.777778 22:-0.837838 23:-0.714286 24:-1 25:-0.272727 
1.5 1:-0.565217 2:-0.703704 3:-1 4:-0.656566 5:-0.924051 6:-0.978764 7:-0.868361 8:-0.688312 9:-0.978764 10:-0.921569 11:-0.962763 12:-0.764706 13:-0.846545 14:-1 15:0.999999 16:-1 17:0.299151 18:-0.686275 19:-0.727273 20:-0.809524 21:-1 22:-0.675676 23:-0.714286 24:-1 25:-0.727273 
1.5 1:-0.565217 2:-0.759259 3:-1 4:-0.757576 5:-0.924051 6:-0.990488 7:-0.848777 8:-0.948052 9:-0.990488 10:-0.803922 11:-0.987814 12:-0.882353 13:-0.852758 14:-0.857143 15:0.299151 16:-0.55 17:0.299151 18:-1 19:-1 20:-1 21:-0.777778 22:-0.72973 23:-1 24:-0.333333 25:-0.659091 
1.5 1:-0.478261 2:-0.796296 3:1 4:-0.939394 5:-0.721519 6:-0.981372 7:-0.870824 8:-0.948052 9:-0.958023 10:-0.803922 11:-0.966999 12:-1 13:-0.876911 14:-1 15:0.999999 16:-0.95 17:0.999999 18:-0.647059 19:-1 20:-1 21:-0.777778 22:-0.837838 23:-1 24:-1 25:-0.454545 
1.5 1:-0.478261 2:-0.796296 3:1 4:-0.979798 5:-0.746835 6:-0.981372 7:-0.870824 8:-0.948052 9:-0.962369 10:-0.764706 11:-0.966999 12:-1 13:-0.848654 14:-0.857143 15:-0.635215 16:-0.85 17:-0.90802 18:-0.921569 19:-1 20:-1 21:-0.777778 22:-0.945946 23:-0.857143 24:-1 25:-0.522727 
1.5 1:-0.0434783 2:-0.166667 3:1 4:-0.959596 5:-0.0886076 6:-0.997256 7:-0.885821 8:-0.896104 9:-0.981372 10:-0.72549 11:-0.966999 12:-1 13:-0.879175 14:-1 15:-0.22051 16:-0.95 17:-0.22051 18:-0.921569 19:-0.454545 20:-0.714286 21:-0.111111 22:-0.405405 23:0.142857 24:-1 25:-0.272727 
1.5 1:-0.478261 2:-0.703704 3:-1 4:-0.676768 5:-0.949367 6:-0.981367 7:-0.846512 8:-0.792208 9:-0.981367 10:-0.843137 11:-0.966999 12:-1 13:-0.853134 14:-1 15:-0.22051 16:-0.95 17:-0.91339 18:-1 19:-0.909091 20:-1 21:-0.777778 22:-0.783784 23:-0.714286 24:-1 25:-0.795455 
1.5 1:-0.478261 2:-0.444444 3:-1 4:-0.373737 5:-0.772152 6:-0.946488 7:-0.870824 8:-0.662338 9:-0.946488 10:-0.803922 11:-0.966999 12:-1 13:-0.853044 14:-1 15:0.999999 16:-0.85 17:0.299151 18:-1 19:-0.818182 20:-0.904762 21:-0.777778 22:-0.459459 23:-0.428571 24:-1 25:-0.477273 
1.5 1:-0.565217 2:-0.592593 3:-1 4:-0.656566 5:-0.974684 6:-0.987926 7:-0.885861 8:-0.896104 9:-0.987926 10:-0.960784 11:-0.99751 12:-0.764706 13:-0.853044 14:-1 15:-0.22051 16:-1 17:-0.91339 18:-0.607843 19:-0.636364 20:-0.904762 21:-0.777778 22:-0.72973 23:-0.714286 24:-1 25:-0.568182 
1.5 1:-0.391304 2:-0.425926 3:1 4:-0.939394 5:-0.392405 6:-0.995229 7:-0.883908 8:-0.922078 9:-0.97907 10:-0.764706 11:-0.962763 12:-0.882353 13:-0.876911 14:-1 15:-0.46462 16:-0.85 17:0.999999 18:-0.686275 19:-0.818182 20:-0.619048 21:-0.333333 22:-0.621622 23:-0.857143 24:-1 25:-0.477273 
1.5 1:-0.73913 2:-0.814815 3:-1 4:-0.777778 5:-0.848101 6:-0.995325 7:-0.883998 8:-0.714286 9:-0.995325 10:-0.764706 11:-0.962763 12:-0.764706 13:-0.883782 14:-1 15:0.999999 16:-1 17:0.299151 18:-1 19:-1 20:-0.904762 21:-1 22:-0.837838 23:-0.714286 24:-1 25:-0.840909 
1.5 1:-0.73913 2:-0.796296 3:1 4:-0.89899 5:-0.797468 6:-0.958019 7:-0.848774 8:-0.87013 9:-0.958019 10:-0.686275 11:-0.987814 12:-0.882353 13:-0.883434 14:-1 15:0.299151 16:-1 17:0.999999 18:-1 19:-1 20:-1 21:-1 22:-0.837838 23:-0.571429 24:-1 25:-0.204545 
1.5 1:-0.652174 2:-0.740741 3:1 4:-0.838384 5:-0.620253 6:-0.946391 7:-0.837794 8:-0.896104 9:-0.978764 10:-0.921569 11:-0.969647 12:-0.764706 13:-0.876911 14:-1 15:0.299151 16:-1 17:-0.82678 18:-1 19:-0.818182 20:-0.809524 21:-0.777778 22:-0.891892 23:-0.857143 24:-1 25:-0.659091 
1.5 1:-0.391304 2:-0.407407 3:1 4:-0.838384 5:-0.64557 6:-0.992671 7:-0.881492 8:-0.974026 9:-0.992671 10:-0.803922 11:-0.992671 12:-1 13:-0.868217 14:-0.857143 15:0.299151 16:-0.95 17:0.299151 18:-0.882353 19:-0.727273 20:-1 21:-0.333333 22:-0.459459 23:-0.714286 24:-1 25:-0.5 
1.5 1:-0.73913 2:-0.814815 3:-1 4:-0.79798 5:-0.898734 6:-1 7:-0.888412 8:-0.714286 9:-1 10:-0.803922 11:-0.966999 12:-1 13:-0.876911 14:-1 15:-0.22051 16:-0.95 17:0.299151 18:-1 19:-1 20:-1 21:-1 22:-0.783784 23:-0.857143 24:-1 25:-0.613636 
1.5 1:0.0434783 2:0.351852 3:1 4:-0.79798 5:0.316456 6:-0.946391 7:-0.837794 8:-0.974026 9:-0.962671 10:-1 11:-0.966999 12:-1 13:-0.859601 14:-0.714286 15:0.999999 16:-0.8 17:0.299151 18:-0.607843 19:0.272727 20:-0.904762 21:-0.333333 22:-0.0810811 23:-0.285714 24:-1 
1.5 1:-0.652174 2:-0.722222 3:1 4:-0.939394 5:-0.670886 6:-0.958023 7:-0.848777 8:-0.974026 9:-0.958023 10:-0.647059 11:-0.962763 12:-0.764706 13:-0.876911 14:-1 15:0.999999 16:-1 17:-0.91339 18:-1 19:-1 20:-0.904762 21:-1 22:-0.675676 23:-0.714286 24:-1 25:-0.727273 
1.5 1:-0.0434783 2:-0.296296 3:1 4:-0.575758 5:-0.113924 6:-0.9976 7:-0.846579 8:-0.974026 9:-0.995229 10:-0.568627 11:-0.966999 12:-1 13:-0.876911 14:-1 15:-0.46462 16:-0.85 17:-0.46462 18:-0.647059 19:-0.272727 20:-0.714286 21:-0.111111 22:-0.513514 23:-1 24:-1 25:-0.454545 
1.5 1:-0.73913 2:-0.888889 3:1 4:-0.959596 5:-0.848101 6:-0.969274 7:-0.886124 8:-0.974026 9:-0.992671 10:-0.921569 11:-0.966999 12:-1 13:-0.879171 14:-0.857143 15:0.999999 16:-0.9 17:0.999999 18:-1 19:-0.909091 20:-1 21:-0.555556 22:-0.945946 23:-1 24:-1 25:-0.340909 
1.5 1:-0.73913 2:-0.462963 3:1 4:-0.79798 5:-0.265823 6:-0.985695 7:-0.874905 8:-0.974026 9:-0.985695 10:-0.215686 11:-0.953069 12:-0.882353 13:-0.885828 14:-1 15:0.299151 16:-0.9 17:0.299151 18:-0.176471 19:-0.454545 20:-0.809524 21:-1 22:-0.459459 23:-0.857143 24:-1 25:-0.340909 
1.5 1:-0.652174 2:-0.814815 3:-1 4:-0.777778 5:-0.898734 6:-0.955324 7:-0.846229 8:-0.714286 9:-0.955324 10:-0.843137 11:-0.969741 12:-0.647059 13:-0.883434 14:-1 15:0.299151 16:-0.95 17:-0.467348 18:-1 19:-1 20:-0.904762 21:-1 22:-0.891892 23:-0.714286 24:-1 25:-0.863636 
1.5 1:-0.217391 2:-0.240741 3:1 4:-0.89899 5:-0.0632911 6:-0.986021 7:-0.875213 8:-0.922078 9:-0.950719 10:-0.882353 11:-0.966999 12:-1 13:-0.853044 14:-1 15:-0.208211 16:-0.55 17:0.999999 18:-0.294118 19:-0.363636 20:-0.809524 21:-0.111111 22:-0.459459 23:-0.857143 24:-1 25:-0.363636 
1.5 1:-0.217391 2:-0.148148 3:1 4:-0.979798 5:-0.544304 6:-0.946391 7:-0.837794 8:-0.636364 9:-0.946391 10:-0.882353 11:-0.962763 12:-0.882353 13:-0.883434 14:-1 15:-0.22051 16:-1 17:-0.467348 18:-1 19:-0.363636 20:-0.809524 21:-0.777778 22:-0.459459 23:-0.285714 24:-1 25:-0.25 
1.5 1:-0.391304 2:-0.685185 3:1 4:-0.939394 5:-0.670886 6:-0.981367 7:-0.870819 8:-0.948052 9:-0.997603 10:-0.72549 11:-0.966999 12:-1 13:-0.844197 14:-0.714286 15:0.999999 16:-0.95 17:0.999999 18:-1 19:-0.818182 20:-1 21:-0.777778 22:-0.72973 23:-0.714286 24:-1 25:-0.431818 
1.5 1:-0.304348 2:-0.592593 3:1 4:-0.838384 5:-0.417722 6:-0.969742 7:-0.859842 8:-0.662338 9:-0.969742 10:-0.921569 11:-0.992671 12:-1 13:-0.868171 14:-1 15:0.999999 16:-0.75 17:0.299151 18:-1 19:-0.636364 20:-0.619048 21:-1 22:-0.837838 23:-0.714286 24:-1 
1.5 1:-0.391304 2:-0.759259 3:-1 4:-0.717172 5:-1 6:-1 7:-0.888412 8:-0.61039 9:-1 10:-0.960784 11:-0.966999 12:-1 13:-0.881675 14:-1 15:-0.467348 16:-0.95 17:-0.22051 18:-0.921569 19:-0.818182 20:-1 21:-1 22:-0.72973 23:-0.714286 24:-1 25:-0.363636 
1.5 1:-0.652174 2:-0.574074 3:1 4:-0.79798 5:-0.594937 6:-0.978976 7:-0.841881 8:-0.87013 9:-0.950719 10:-0.960784 11:-0.997228 12:-0.764706 13:-0.859654 14:-0.857143 15:0.999999 16:-0.9 17:0.999999 18:-0.960784 19:-0.545455 20:-0.904762 21:-0.777778 22:-0.675676 23:-0.714286 24:-1 25:-0.522727 
1.5 1:-0.478261 2:-0.444444 3:-1 4:-0.474747 5:-0.620253 6:-0.97874 7:-0.868361 8:-0.766234 9:-0.97874 10:-0.921569 11:-0.966999 12:-1 13:-0.853044 14:-1 15:1 16:-1 17:0.999999 18:-1 19:-0.636364 20:-0.904762 21:-0.777778 22:-0.459459 23:-0.428571 24:-1 25:-0.340909 
1.5 1:-0.130435 2:-0.388889 3:-1 4:-0.313131 5:-0.594937 6:-0.978743 7:-0.85288 8:-0.896104 9:-0.990581 10:-0.764706 11:-0.995229 12:-0.764706 13:-0.883434 14:-1 15:-0.22051 16:-1 17:-0.22051 18:-0.843137 19:-0.545455 20:-0.904762 21:-0.333333 22:-0.351351 23:-0.571429 24:-1 25:-0.136364 
1.5 1:-0.652174 2:-0.944444 3:-1 4:-0.919192 5:-1 6:-1 7:-0.888412 8:-0.87013 9:-1 10:-0.960784 11:-0.962763 12:-0.764706 13:-0.885828 14:-1 15:0.999999 16:-1 17:-0.22051 18:-1 19:-1 20:-0.904762 21:-1 22:-0.945946 23:-0.857143 24:-1 25:-0.727273 
1.5 1:-0.478261 2:-0.537037 3:-1 4:-0.494949 5:-0.772152 6:-0.978743 7:-0.868342 8:-0.662338 9:-0.978743 10:-0.882353 11:-0.962763 12:-0.882353 13:-0.885935 14:-0.714286 15:-0.22051 16:-1 17:0.299151 18:-0.764706 19:-0.818182 20:-1 21:-1 22:-0.567568 23:-0.714286 24:-1 25:-0.545455 
1.5 1:-0.217391 2:-0.666667 3:-1 4:-0.858586 5:-0.898734 6:-0.946488 7:-0.852883 8:-0.974026 9:-0.962371 10:-0.921569 11:-0.987814 12:-0.882353 13:-0.846545 14:-1 15:-0.22051 16:-0.95 17:0.739138 18:-1 19:-1 20:-1 21:-0.777778 22:-0.72973 23:-0.285714 24:-1 25:-0.681818 
1.5 1:-0.565217 2:-0.907407 3:1 4:-1 5:-0.924051 6:-0.97907 7:-0.86865 8:-0.896104 9:-0.97907 10:-0.960784 11:-0.995227 12:-0.647059 13:-0.883782 14:-1 15:-0.22051 16:-1 17:-0.22051 18:-0.960784 19:-1 20:-0.904762 21:-0.555556 22:-1 23:-1 24:-1 25:-0.75 
1.5 1:-0.304348 2:-0.666667 3:1 4:-0.919192 5:-0.822785 6:-0.992671 7:-0.848777 8:-0.948052 9:-0.958023 10:-0.960784 11:-0.962763 12:-0.882353 13:-0.881369 14:-0.857143 15:-0.902 16:-1 17:-0.902 18:-0.882353 19:-0.636364 20:-0.809524 21:-0.777778 22:-0.72973 23:-1 24:-1 25:-0.545455 
1.5 1:-0.217391 2:-0.537037 3:-1 4:-0.59596 5:-0.670886 6:-0.97907 7:-0.859841 8:-0.948052 9:-0.97907 10:-0.960784 11:-0.962763 12:-0.882353 13:-0.846545 14:-1 15:0.299151 16:-1 17:0.999999 18:-1 19:-0.818182 20:-1 21:-0.333333 22:-0.621622 23:-0.142857 24:-1 25:-0.613636 
1.5 1:-0.478261 2:-0.722222 3:-1 4:-0.676768 5:-0.924051 6:-1 7:-0.888412 8:-0.558442 9:-1 10:-0.843137 11:-0.962763 12:-0.764706 13:-0.852758 14:-1 15:0.999999 16:-1 17:-0.22051 18:-1 19:-0.818182 20:-0.904762 21:-1 22:-0.837838 23:-0.714286 24:-1 25:-0.431818 
1.5 1:-0.391304 2:-0.444444 3:1 4:-0.757576 5:-0.291139 6:-0.99758 7:-0.852883 8:-0.74026 9:-0.962371 10:-0.764706 11:-0.962763 12:-0.882353 13:-0.846545 14:-1 15:0.299151 16:-1 17:0.999999 18:-1 19:-0.272727 20:-0.619048 21:-0.777778 22:-0.72973 23:-0.714286 24:-1 25:-0.522727 
1.5 1:-0.391304 2:-0.592593 3:1 4:-0.919192 5:-0.746835 6:-0.946391 7:-0.837794 8:-0.922078 9:-0.992671 10:-0.921569 11:-0.96965 12:-0.882353 13:-0.84176 14:-0.857143 15:-0.910634 16:-0.8 17:-0.910634 18:-1 19:-0.727273 20:-1 21:-0.777778 22:-0.621622 23:-0.857143 24:-1 25:-0.704545 
0.9683875940546927 1:-0.391304 2:-0.703704 3:1 4:-1 5:-0.64557 6:-0.953069 7:-0.844099 8:-0.948052 9:-0.953069 10:-0.529412 11:-0.962763 12:-0.882353 13:-0.883434 14:-1 15:-0.467348 16:-0.9 17:0.999999 18:-0.72549 19:-0.636364 20:-0.809524 21:-1 22:-0.837838 23:-0.857143 24:-1 25:-0.454545 
1.5 1:-0.217391 2:-0.648148 3:-1 4:-0.59596 5:-0.949367 6:-0.995349 7:-0.884021 8:-0.662338 9:-0.995349 10:-0.803922 11:-0.966999 12:-1 13:-0.881675 14:-1 15:0.999999 16:-0.9 17:-0.467348 18:-0.529412 19:-0.818182 20:-1 21:-1 22:-0.675676 23:-0.857143 24:-1 25:-0.681818 
1.5 1:-0.73913 2:-0.87037 3:-1 4:-0.838384 5:-0.924051 6:-1 7:-0.888412 8:-0.766234 9:-1 10:-0.843137 11:-0.966999 12:-1 13:-0.839782 14:-1 15:-1 16:-0.6 17:-1 18:-0.882353 19:-1 20:-1 21:-1 22:-0.891892 23:-1 24:-1 25:-0.5 
1.5 1:-0.652174 2:-0.777778 3:-1 4:-0.737374 5:-0.873418 6:-0.997228 7:-0.885795 8:-0.662338 9:-0.997228 10:-0.803922 11:-0.962763 12:-0.764706 13:-0.876911 14:-1 15:0.999999 16:-1 17:0.299151 18:-1 19:-0.909091 20:-0.904762 21:-1 22:-0.783784 23:-0.571429 24:-1 25:-0.590909 
1.5 1:-0.391304 2:-0.388889 3:1 4:-0.79798 5:-0.518987 6:-0.997228 7:-0.885795 8:-0.896104 9:-0.99486 10:-1 11:-0.992671 12:-1 13:-0.879152 14:-0.714286 15:-0.22051 16:-0.95 17:-0.22051 18:-0.764706 19:-0.454545 20:-0.238095 21:-0.333333 22:-0.567568 23:-0.857143 24:-1 25:-0.272727 
1.5 1:-0.304348 2:-0.37037 3:1 4:-0.757576 5:-0.189873 6:-0.953368 7:-0.844382 8:-0.922078 9:-0.992671 10:-0.960784 11:-0.966999 12:-1 13:-0.848654 14:-0.714286 15:0.999999 16:-0.95 17:0.999999 18:-0.882353 19:-0.818182 20:-1 21:-0.777778 22:-0.351351 24:-1 25:-0.409091 
1.5 1:-0.652174 2:-0.851852 3:-1 4:-0.818182 5:-0.822785 6:-0.997228 7:-0.885795 8:-0.766234 9:-0.997228 10:-0.72549 11:-0.99486 12:-0.764706 13:-0.883434 14:-1 15:-0.467348 16:-1 17:-0.467348 18:-1 19:-1 20:-0.904762 21:-1 22:-0.891892 23:-0.714286 24:-1 25:-0.795455 
1.5 1:-0.0434783 2:0.222222 3:1 4:-0.737374 5:-0.189873 6:-0.981368 7:-0.87082 8:-0.974026 9:-0.958023 10:-0.960784 11:-0.955349 12:-0.764706 13:-0.853044 14:-1 15:0.999999 16:-0.85 17:-0.467348 18:-0.254902 19:0.272727 20:-0.619048 21:0.111111 22:-0.135135 23:-0.285714 24:-1 25:-0.0909091 
1.5 1:-0.391304 2:-0.685185 3:1 4:-0.939394 5:-0.670886 6:-0.981367 7:-0.870819 8:-0.948052 9:-0.997603 10:-0.72549 11:-0.966999 12:-1 13:-0.844197 14:-0.714286 15:0.999999 16:-0.95 17:0.999999 18:-1 19:-0.818182 20:-1 21:-0.777778 22:-0.72973 23:-0.714286 24:-1 25:-0.431818 
1.5 1:-0.130435 2:-0.740741 3:-1 4:-0.858586 5:-1 6:-0.955324 7:-0.853253 8:-0.948052 9:-0.955324 10:-0.882353 11:-0.966999 12:-1 13:-0.85313 14:-0.714286 15:-0.46462 16:-0.9 17:-0.22051 18:-1 19:-0.909091 20:-1 21:-0.777778 22:-0.837838 23:-0.714286 24:-1 25:-0.272727 
1.5 1:-0.652174 2:-0.777778 3:-1 4:-0.737374 5:-0.974684 6:-1 7:-0.888412 8:-0.636364 9:-1 10:-0.921569 11:-0.948718 12:-0.647059 13:-0.881369 14:-0.857143 15:-0.22051 16:-0.95 17:0.299151 18:-0.843137 19:-0.818182 20:-0.809524 21:-1 22:-0.837838 23:-0.857143 24:-1 25:-0.659091 
1.5 1:-0.652174 2:-0.592593 3:1 4:-0.919192 5:-0.594937 6:-0.946488 7:-0.837886 8:-0.87013 9:-0.946488 10:-0.72549 11:-0.981042 12:-0.882353 13:-0.88137 14:-0.857143 15:0.299151 16:-1 17:-0.22051 18:-0.921569 19:-0.727273 20:-0.809524 21:-1 22:-0.783784 23:-0.857143 24:-1 25:-0.75 
1.5 1:-0.565217 2:-0.62963 3:-1 4:-0.69697 5:-0.822785 6:-1 7:-0.888412 8:-0.584416 9:-1 10:-0.686275 11:-0.962763 12:-0.882353 13:-0.846545 14:-1 15:0.999999 16:-0.95 17:0.299151 18:-0.960784 19:-1 20:-1 21:-1 22:-0.621622 23:-0.428571 24:-1 25:-0.0454545 
1.5 1:-0.652174 2:-0.833333 3:-1 4:-0.79798 5:-0.949367 6:-1 7:-0.888412 8:-0.714286 9:-1 10:-0.882353 11:-0.953069 12:-0.764706 13:-0.876911 14:-1 15:0.299151 16:-1 17:-0.467348 18:-0.882353 19:-0.818182 20:-0.904762 21:-1 22:-0.837838 23:-0.857143 24:-1 25:-0.0454545 
1.5 1:-0.478261 2:-0.518519 3:-1 4:-0.454545 5:-0.594937 6:-0.992671 7:-0.881492 8:-0.532468 9:-0.992671 10:-0.72549 11:-0.992671 12:-1 13:-0.885935 14:-0.714286 15:0.999999 16:-0.9 17:0.999999 18:-0.882353 19:-0.818182 20:-1 21:-1 22:-0.621622 23:-0.285714 24:-1 25:-0.545455 
1.5 1:-0.0434783 2:-0.722222 3:-1 4:-0.676768 5:-0.974684 6:-0.995349 7:-0.884021 8:-0.662338 9:-0.995349 10:-0.921569 11:-0.987814 12:-0.764706 13:-0.883434 14:-1 15:0.299151 16:-1 17:-0.22051 18:-0.72549 19:-1 20:-0.904762 21:-1 22:-0.783784 23:-0.714286 24:-1 25:-0.318182 
1.5 1:-0.478261 2:-0.759259 3:-1 4:-0.717172 5:-0.924051 6:-0.978764 7:-0.868361 8:-0.766234 9:-0.978764 10:-0.921569 11:-0.955325 12:-0.764706 13:-0.883434 14:-1 15:0.999999 16:-1 17:0.999999 18:-0.960784 19:-1 20:-0.904762 21:-1 22:-0.783784 23:-0.714286 24:-1 25:-0.5 
1.5 1:-0.304348 2:-0.148148 3:1 4:-0.89899 5:-0.544304 6:-0.990348 7:-0.879299 8:-0.922078 9:-0.990348 10:-0.607843 11:-0.962763 12:-0.529412 13:-0.846545 14:-1 15:0.999999 16:-0.9 17:0.299151 18:-1 19:-0.363636 20:-0.904762 21:-0.777778 22:-0.351351 23:-0.428571 24:-1 25:-0.25 
1.5 1:-0.652174 2:-0.5 3:-1 4:-0.434343 5:-0.64557 6:-1 7:-0.888412 8:-0.246753 9:-1 10:-0.411765 11:-0.962763 12:-0.647059 13:-0.883434 14:-1 15:0.999999 16:-0.95 17:-0.22051 18:-0.921569 19:-0.818182 20:-0.904762 21:-1 22:-0.72973 23:-0.714286 24:-1 25:-0.227273 
1.5 1:-0.565217 2:-0.759259 3:-1 4:-0.777778 5:-0.924051 6:-0.990488 7:-0.848777 8:-0.948052 9:-0.990488 10:-0.843137 11:-0.987814 12:-0.882353 13:-0.886003 14:-0.714286 15:0.299151 16:-0.6 17:0.299151 18:-1 19:-1 20:-1 21:-0.777778 22:-0.783784 23:-1 24:-0.333333 25:-0.659091 
1.5 1:-0.565217 2:-0.759259 3:-1 4:-0.757576 5:-0.898734 6:-0.98786 7:-0.881623 8:-0.844156 9:-0.99281 10:-0.921569 11:-0.962763 12:-0.882353 13:-0.877176 14:-0.714286 15:-0.22051 16:-0.95 17:0.299151 18:-1 19:-1 20:-1 21:-0.777778 22:-0.837838 23:-0.714286 24:-1 25:-0.818182 
1.5 1:-0.130435 2:-0.444444 3:-1 4:-0.656566 5:-0.822785 6:-0.946488 7:-0.844099 8:-0.974026 9:-0.946488 10:-0.764706 11:-0.987814 12:-0.647059 13:-0.883434 14:-1 15:0.299151 16:-0.85 17:0.299151 18:-1 19:-0.636364 20:-1 21:-0.555556 22:-0.513514 23:-0.571429 24:-1 25:-0.545455 
1.5 1:-0.652174 2:-0.518519 3:-1 4:-0.555556 5:-0.924051 6:-1 7:-0.888412 8:-0.402597 9:-1 10:-0.843137 11:-0.966999 12:-1 13:-0.881369 14:-0.714286 15:0.999999 16:-0.95 17:0.299151 18:-1 19:-0.727273 20:-0.428571 21:-1 22:-0.567568 23:-0.571429 24:-1 25:-0.227273 
1.5 1:-0.478261 2:-0.666667 3:1 4:-0.89899 5:-0.670886 6:-0.990488 7:-0.879431 8:-0.922078 9:-0.978764 10:-0.882353 11:-0.966999 12:-1 13:-0.883782 14:-1 15:0.999999 16:-0.9 17:0.909909 18:-1 19:-0.818182 20:-1 21:-0.333333 22:-0.783784 23:-0.714286 24:-0.333333 25:-0.75 
1.5 1:-0.826087 2:-0.944444 3:-1 4:-0.939394 5:-1 6:-1 7:-0.888412 8:-0.896104 9:-1 10:-0.960784 11:-0.966999 12:-1 13:-0.85713 14:-0.571429 15:-0.22051 16:-0.95 17:-0.22051 18:-1 19:-1 20:-1 21:-1 22:-1 23:-1 24:-1 25:-0.795455 
1.5 1:-0.565217 2:-0.62963 3:-1 4:-0.59596 5:-0.873418 6:-0.98786 7:-0.87695 8:-0.480519 9:-0.98786 10:-0.803922 11:-0.962763 12:-0.882353 13:-0.87465 14:-0.857143 15:-0.22051 16:-1 17:0.299151 18:-0.960784 19:-0.636364 20:-0.809524 21:-1 22:-0.783784 23:-0.714286 24:-1 25:-0.681818 
1.5 1:-0.217391 2:-0.259259 3:-1 4:-0.474747 5:-0.797468 6:-0.950719 7:-0.868337 8:-0.792208 9:-0.950719 10:-0.960784 11:-0.992904 12:-0.882353 13:-0.839782 14:-1 15:-0.22051 16:-1 17:0.299151 18:-0.843137 19:-0.545455 20:-0.619048 21:-0.333333 22:-0.405405 23:-0.142857 24:-1 25:-0.340909 
1.5 1:-0.652174 2:-0.87037 3:-1 4:-0.838384 5:-0.924051 6:-1 7:-0.888412 8:-0.766234 9:-1 10:-0.843137 11:-0.962763 12:-0.647059 13:-0.852758 14:-1 15:0.999999 16:-0.95 17:-0.22051 18:-1 19:-1 20:-0.904762 21:-1 22:-0.891892 23:-0.857143 24:-1 25:-0.727273 
1.5 1:-0.391304 2:-0.444444 3:-1 4:-0.717172 5:-1 6:-0.997256 7:-0.879516 8:-0.896104 9:-0.997256 10:-0.764706 11:-0.962763 12:-0.882353 13:-0.876911 14:-1 15:-0.22051 16:-0.85 17:-0.22051 18:-0.647059 19:-0.727273 20:-0.619048 21:-0.111111 22:-0.513514 23:-1 24:-1 25:-0.5 
1.5 1:-0.478261 2:-0.796296 3:1 4:-0.979798 5:-0.746835 6:-0.981372 7:-0.870824 8:-0.948052 9:-0.962369 10:-0.764706 11:-0.966999 12:-1 13:-0.848654 14:-0.857143 15:-0.635215 16:-0.85 17:-0.90802 18:-0.921569 19:-1 20:-1 21:-0.777778 22:-0.945946 23:-0.857143 24:-1 25:-0.522727 
1.5 1:-0.304348 2:-0.666667 3:1 4:-0.919192 5:-0.670886 6:-0.992671 7:-0.848777 8:-0.948052 9:-0.958023 10:-0.72549 11:-0.962763 12:-0.882353 13:-0.881369 14:-0.857143 15:-0.902 16:-1 17:-0.902 18:-0.647059 19:-0.636364 20:-0.809524 21:-0.777778 22:-0.72973 23:-1 24:-1 25:-0.545455 
1.5 1:-0.130435 2:-0.0740741 3:-1 4:-0.373737 5:-0.64557 6:-0.971977 7:-0.861952 8:-0.584416 9:-0.971977 10:-0.960784 11:-0.981042 12:-0.882353 13:-0.883434 14:-1 15:-0.467348 16:-1 17:0.999999 18:-1 19:-0.0909091 20:-1 21:-0.777778 22:-0.297297 23:0.142857 24:-1 25:-0.25 
1.5 1:-0.652174 2:-0.907407 3:-1 4:-0.878788 5:-1 6:-1 7:-0.888412 8:-0.818182 9:-1 10:-0.960784 11:-0.953301 12:-0.647059 13:-0.846545 14:-1 15:-0.22051 16:-0.95 17:-0.467348 18:-1 19:-1 20:-0.904762 21:-1 22:-0.891892 23:-0.857143 24:-1 25:-0.727273 
1.5 1:-0.565217 2:-0.759259 3:-1 4:-0.757576 5:-0.898734 6:-0.98786 7:-0.881623 8:-0.844156 9:-0.99281 10:-0.921569 11:-0.962763 12:-0.882353 13:-0.877176 14:-0.714286 15:-0.22051 16:-0.95 17:0.299151 18:-1 19:-1 20:-1 21:-0.777778 22:-0.837838 23:-0.714286 24:-1 25:-0.818182 
1.5 1:-0.304348 2:-0.574074 3:1 4:-0.818182 5:-0.670886 6:-0.997299 7:-0.885862 8:-0.844156 9:-0.997299 10:-0.921569 11:-0.966999 12:-1 13:-0.872805 14:-1 15:0.999999 16:-0.95 17:0.999999 18:-0.803922 19:-0.727273 20:-1 21:-0.333333 22:-0.621622 23:-0.571429 24:-1 25:-0.681818 
1.5 1:-0.73913 2:-0.462963 3:1 4:-0.79798 5:-0.265823 6:-0.985695 7:-0.874905 8:-0.974026 9:-0.985695 10:-0.215686 11:-0.953069 12:-0.882353 13:-0.885828 14:-1 15:0.299151 16:-0.9 17:0.299151 18:-0.176471 19:-0.454545 20:-0.809524 21:-1 22:-0.459459 23:-0.857143 24:-1 25:-0.340909 
1.5 1:-0.391304 2:-0.592593 3:1 4:-0.919192 5:-0.670886 6:-0.946391 7:-0.837794 8:-0.922078 9:-0.992671 10:-0.803922 11:-0.96965 12:-0.882353 13:-0.84176 14:-0.857143 15:-0.910634 16:-0.8 17:-0.910634 18:-0.882353 19:-0.727273 20:-1 21:-0.777778 22:-0.621622 23:-0.857143 24:-1 25:-0.704545 
1.5 1:-0.73913 2:-0.462963 3:1 4:-0.79798 5:-0.670886 6:-0.985695 7:-0.874905 8:-0.974026 9:-0.985695 10:-0.843137 11:-0.953069 12:-0.882353 13:-0.843978 14:-0.714286 15:0.299151 16:-0.9 17:0.299151 18:-0.803922 19:-0.454545 20:-0.809524 21:-1 22:-0.513514 23:-0.857143 24:-1 25:-0.340909 
1.5 1:-0.565217 2:-0.62963 3:-1 4:-0.69697 5:-0.772152 6:-0.97907 7:-0.86865 8:-0.87013 9:-0.97907 10:-0.960784 11:-0.94881 12:-0.647059 13:-0.846545 14:-1 15:-0.22051 16:-1 17:0.999999 18:-0.921569 19:-1 20:-0.809524 21:-1 22:-0.621622 23:-0.428571 24:-1 25:-0.522727 
1.5 1:-0.565217 2:-0.648148 3:-1 4:-0.79798 5:-0.898734 6:-0.955322 7:-0.846227 8:-0.896104 9:-0.955322 10:-0.921569 11:-0.962763 12:-0.882353 13:-0.846545 14:-1 15:-0.22051 16:-1 17:0.999999 18:-0.882353 19:-0.909091 20:-0.904762 21:-1 22:-0.675676 23:-0.714286 24:-1 25:-0.704545 
1.5 1:-0.391304 2:-0.555556 3:1 4:-0.858586 5:-0.493671 6:-1 7:-0.888412 8:-0.792208 9:-1 10:-0.176471 11:-0.962763 12:-0.882353 13:-0.846545 14:-1 15:-0.46462 16:-0.95 17:0.299151 18:-0.921569 19:-1 20:-0.904762 21:-1 22:-0.621622 23:-0.285714 24:-1 25:-0.318182 
1.5 1:-0.652174 2:-0.944444 3:-1 4:-0.919192 5:-1 6:-1 7:-0.888412 8:-0.87013 9:-1 10:-0.960784 11:-0.962763 12:-0.764706 13:-0.846545 14:-1 15:0.999999 16:-1 17:-0.22051 18:-1 19:-1 20:-0.904762 21:-1 22:-0.945946 23:-0.857143 24:-1 25:-0.818182 
1.5 1:0.217391 2:-0.611111 3:-1 4:-0.737374 5:-1 6:-0.981372 7:-0.86865 8:-0.922078 9:-0.981372 10:-0.960784 11:-0.978743 12:-0.764706 13:-0.883434 14:-1 15:-0.22051 16:-1 17:-0.22051 18:-0.568627 19:-0.909091 20:-0.809524 21:-0.111111 22:-0.72973 23:-0.857143 24:-1 25:-0.568182 
1.5 1:-0.0434783 2:-0.555556 3:1 4:-0.89899 5:-0.64557 6:-0.990578 7:-0.879516 8:-0.87013 9:-0.953069 10:-0.921569 11:-0.981042 12:-0.882353 13:-0.883434 14:-1 15:-0.22051 16:-1 17:0.999999 18:-1 19:-0.727273 20:-1 21:-0.777778 22:-0.621622 23:-0.571429 24:-1 25:-0.613636 
1.5 1:-0.304348 2:-0.574074 3:-1 4:-0.535354 5:-0.873418 6:-0.992671 7:-0.87695 8:-0.87013 9:-0.992671 10:-0.803922 11:-0.962763 12:-0.647059 13:-0.883434 14:-1 15:0.999999 16:-0.95 17:0.299151 18:-1 19:-0.818182 20:-0.904762 21:-0.555556 22:-0.621622 23:-0.428571 24:-1 25:-0.636364 
1.5 1:-0.217391 2:-0.0925926 3:-1 4:-0.353535 5:-0.772152 6:-0.985695 7:-0.87521 8:-0.584416 9:-0.985695 10:-0.960784 11:-0.992997 12:-0.764706 13:-0.881499 14:-1 15:0.999999 16:-0.7 17:-0.82678 18:-0.960784 19:-0.0909091 20:-0.619048 21:-0.555556 22:-0.027027 23:-0.428571 24:-0.333333 25:0.0227273 
1.5 1:-0.130435 2:-0.481481 3:-1 4:-0.434343 5:-0.822785 6:-0.981367 7:-0.855408 8:-0.844156 9:-0.981367 10:-0.960784 11:-0.966999 12:-1 13:-0.876911 14:-1 15:-0.22051 16:-0.85 17:-0.91339 18:-0.921569 19:-1 20:-1 21:-0.333333 22:-0.567568 23:-0.714286 24:-1 25:-0.318182 
1.5 1:-0.478261 2:-0.537037 3:-1 4:-0.575758 5:-0.822785 6:-0.995349 7:-0.881492 8:-0.74026 9:-0.995349 10:-0.882353 11:-0.962763 12:-0.764706 13:-0.876911 14:-1 15:0.999999 16:-1 17:-0.22051 18:-0.960784 19:-0.727273 20:-0.809524 21:-0.777778 22:-0.72973 23:-0.428571 24:-1 25:-0.659091 
1.5 1:-0.391304 2:-0.425926 3:1 4:-0.757576 5:-0.367089 6:-0.997228 7:-0.879427 8:-0.922078 9:-0.948623 10:-0.803922 11:-0.981042 12:-0.882353 13:-0.881369 14:-0.857143 15:-0.46462 16:-0.95 17:0.299151 18:-1 19:-0.818182 20:-0.904762 21:-0.555556 22:-0.513514 23:-0.285714 24:-1 25:-0.318182 
1.5 1:-0.217391 2:-0.277778 3:1 4:-0.979798 5:-0.316456 6:-0.985695 7:-0.874905 8:-0.818182 9:-1 10:-0.921569 11:-0.981279 12:-0.882353 13:-0.885828 14:-1 15:0.999999 16:-0.55 17:0.999999 18:-1 19:-0.272727 20:-0.904762 21:-0.333333 22:-0.459459 23:-0.714286 24:-1 25:0.0681818 
1.5 1:-0.652174 2:-0.907407 3:-1 4:-0.878788 5:-0.949367 6:-1 7:-0.888412 8:-0.818182 9:-1 10:-0.882353 11:-0.962763 12:-0.764706 13:-0.876911 14:-1 15:0.999999 16:-1 17:-0.22051 18:-1 19:-1 20:-0.904762 21:-1 22:-0.891892 23:-0.857143 24:-1 25:-0.409091 
1.5 1:-0.391304 2:-0.481481 3:-1 4:-0.858586 5:-0.949367 6:-0.958022 7:-0.848777 8:-0.844156 9:-0.958022 10:-0.568627 11:-0.981042 12:-0.882353 13:-0.879303 14:-0.714286 15:-0.46462 16:-0.95 17:0.299151 18:-1 19:-1 20:-0.904762 21:-0.555556 22:-0.621622 23:-0.428571 24:-1 25:-0.227273 
1.5 1:-0.478261 2:-0.537037 3:-1 4:-0.535354 5:-0.848101 6:-0.946391 7:-0.881492 8:-0.792208 9:-0.946391 10:-0.686275 11:-0.992904 12:-0.882353 13:-0.876911 14:-1 15:-0.22051 16:-1 17:0.999999 18:-0.607843 19:-0.636364 20:-0.619048 21:-0.777778 22:-0.621622 23:-0.857143 24:-1 25:-0.659091 
1.5 1:-0.391304 2:-0.481481 3:-1 4:-0.575758 5:-0.873418 6:-0.978739 7:-0.868337 8:-0.454545 9:-0.978739 10:-0.803922 11:-0.962763 12:-0.764706 13:-0.846545 14:-1 15:0.999999 16:-1 17:0.299151 18:-1 19:-0.818182 20:-0.904762 21:-1 22:-0.567568 23:-0.285714 24:-1 25:-0.5 
1.5 1:-0.565217 2:-0.685185 3:-1 4:-0.656566 5:-0.924051 6:-1 7:-0.888412 8:-0.532468 9:-1 10:-0.843137 11:-0.962763 12:-0.882353 13:-0.852758 14:-0.857143 15:0.299151 16:-1 17:0.299151 18:-1 19:-0.818182 20:-0.904762 21:-1 22:-0.72973 23:-0.714286 24:-1 25:-0.477273 
1.5 1:-0.217391 2:-0.277778 3:-1 4:-0.212121 5:-0.189873 6:-0.992671 7:-0.881492 8:-0.766234 9:-0.992671 10:-0.921569 11:-0.962763 12:-0.764706 13:-0.883498 14:-0.857143 15:0.999999 16:-1 17:0.739138 18:-0.921569 19:-0.545455 20:-0.904762 21:-0.555556 22:-0.243243 23:-0.285714 24:-1 25:-0.431818 
1.5 1:-0.304348 2:-0.240741 3:1 4:-0.838384 5:-0.367089 6:-0.946391 7:-0.837794 8:-0.974026 9:-0.953461 10:-0.568627 11:-0.96709 12:-0.882353 13:-0.879175 14:-1 15:0.999999 16:-0.9 17:0.299151 18:-0.803922 19:-0.0909091 20:-0.904762 21:-0.555556 22:-0.189189 23:-0.428571 24:-1 25:0.136364 
1.5 1:-0.652174 2:-0.759259 3:-1 4:-0.717172 5:-0.873418 6:-0.98786 7:-0.87695 8:-0.636364 9:-0.98786 10:-0.803922 11:-0.962763 12:-0.764706 13:-0.843978 14:-0.857143 15:0.999999 16:-1 17:0.299151 18:-1 19:-1 20:-0.904762 21:-1 22:-0.783784 23:-0.571429 24:-1 25:-0.431818 
1.5 1:-0.565217 2:-0.666667 3:1 4:-0.939394 5:-0.544304 6:-0.946488 7:-0.837886 8:-0.818182 9:-0.992671 10:-0.921569 11:-0.962763 12:-0.764706 13:-0.883434 14:-1 15:0.999999 16:-1 17:0.999999 18:-1 19:-0.818182 20:-0.904762 21:-0.555556 22:-0.783784 23:-0.428571 24:-1 25:-0.772727 
1.5 1:-0.217391 2:-0.703704 3:1 4:-0.919192 5:-0.696203 6:-0.981372 7:-0.886146 8:-0.948052 9:-0.953069 10:-0.882353 11:-0.966999 12:-1 13:-0.876911 14:-1 15:0.999999 16:-1 17:0.999999 18:-0.960784 19:-1 20:-1 21:-0.555556 22:-0.783784 23:-0.714286 24:-1 25:-0.272727 
0.9348487578397647 1:-0.130435 2:-0.37037 3:-1 4:-0.313131 5:-0.493671 6:-0.997256 7:-0.885821 8:-0.662338 9:-0.997256 10:-0.960784 11:-0.962763 12:-0.764706 13:-0.846545 14:-1 15:0.999999 16:-1 17:0.299151 18:-0.882353 19:-0.727273 20:-0.904762 21:-1 22:-0.459459 24:-1 25:-0.431818 
1.5 1:-0.652174 2:-0.87037 3:-1 4:-0.939394 5:-1 6:-1 7:-0.888412 8:-0.896104 9:-1 10:-0.960784 11:-0.966999 12:-1 13:-0.85713 14:-0.571429 15:0.999999 16:-1 17:0.299151 18:-1 19:-1 20:-1 21:-1 22:-0.891892 23:-0.857143 24:-1 25:-0.659091 
1.5 1:-0.478261 2:-0.611111 3:1 4:-0.89899 5:-0.797468 6:-0.995349 7:-0.884021 8:-0.87013 9:-0.995349 10:-0.921569 11:-0.962763 12:-0.882353 13:-0.885828 14:-1 15:-0.22051 16:-0.8 17:0.913216 18:-0.882353 19:-0.727273 20:-0.809524 21:-0.777778 22:-0.837838 23:-0.571429 24:-1 25:-0.727273 
1.5 1:-0.652174 2:-0.759259 3:-1 4:-0.717172 5:-0.746835 6:-0.98786 7:-0.853166 8:-0.948052 9:-0.962671 10:-0.921569 11:-0.992809 12:-0.529412 13:-0.881499 14:-1 15:-0.22051 16:-1 17:0.999999 18:-1 19:-1 20:-0.904762 21:-0.777778 22:-0.783784 23:-0.571429 24:-1 25:-0.75 
1.5 1:-0.0434783 2:-0.222222 3:1 4:-0.959596 5:-0.164557 6:-0.997256 7:-0.885821 8:-0.896104 9:-0.981372 10:-0.72549 11:-0.966999 12:-1 13:-0.879175 14:-1 15:-0.22051 16:-0.95 17:-0.22051 18:-0.921569 19:-0.636364 20:-0.809524 21:-0.111111 22:-0.405405 23:0.142857 24:-1 25:-0.272727 
1.5 1:-0.478261 2:-0.796296 3:-1 4:-0.757576 5:-0.949367 6:-0.997256 7:-0.841881 8:-0.87013 9:-0.997256 10:-0.843137 11:-0.966999 12:-1 13:-0.876911 14:-1 15:0.999999 16:-0.95 17:-0.467348 18:-0.803922 19:-0.818182 20:-1 21:-0.777778 22:-0.783784 23:-0.857143 24:-1 25:-0.590909 
1.5 1:-0.478261 2:-0.62963 3:-1 4:-0.616162 5:-0.848101 6:-0.946391 7:-0.837886 8:-0.818182 9:-0.98781 10:-0.921569 11:-0.966999 12:-1 13:-0.853044 14:-1 15:-0.22051 16:-0.8 17:-0.22051 18:-0.72549 19:-0.909091 20:-0.904762 21:-0.555556 22:-0.675676 23:-1 24:-1 25:-0.272727 
1.5 1:-0.652174 2:-0.722222 3:-1 4:-0.737374 5:-0.848101 6:-0.997533 7:-0.886083 8:-0.662338 9:-0.997533 10:-0.764706 11:-0.962763 12:-0.647059 13:-0.876911 14:-1 15:0.999999 16:-0.95 17:0.299151 18:-1 19:-1 20:-0.714286 21:-1 22:-0.72973 23:-0.714286 24:-1 25:-0.636364 
1.5 1:-0.391304 2:-0.314815 3:1 4:-0.89899 5:-0.0632911 6:-0.987814 7:-0.876906 8:-0.87013 9:-0.958023 10:-0.215686 11:-0.962763 12:-0.764706 13:-0.876911 14:-1 15:0.999999 16:-1 17:-0.635215 18:-0.372549 19:-0.818182 20:-0.714286 21:-0.777778 22:-0.189189 23:-0.714286 24:-1 25:-0.295455 
1.5 1:-0.73913 2:-0.796296 3:1 4:-0.979798 5:-0.797468 6:-1 7:-0.888412 8:-0.948052 9:-1 10:-0.647059 11:-0.962763 12:-0.882353 13:-0.852758 14:-0.857143 15:0.299151 16:-0.95 17:0.299151 18:-0.843137 19:-0.909091 20:-1 21:-1 22:-0.783784 23:-1 24:-1 25:-0.886364 
1.5 1:-0.73913 2:-0.907407 3:1 4:-1 5:-0.848101 6:-0.978742 7:-0.86834 8:-0.974026 9:-0.978742 10:-0.803922 11:-0.953301 12:-0.764706 13:-0.874846 14:-1 15:0.299151 16:-0.9 17:0.299151 18:-0.921569 19:-1 20:-0.904762 21:-1 22:-0.891892 23:-1 24:-1 25:-0.659091 
1.5 1:-0.217391 2:-0.555556 3:-1 4:-0.656566 5:-0.797468 6:-0.98786 7:-0.859841 8:-0.844156 9:-0.969416 10:-0.921569 11:-0.962763 12:-0.764706 13:-0.874846 14:-1 15:0.999999 16:-1 17:-0.46462 18:-1 19:-1 20:-0.904762 21:-0.555556 22:-0.567568 23:-0.285714 24:-1 25:-0.545455 
1.262899870898776 1:-0.478261 2:-0.5 3:-1 4:-0.434343 5:-0.848101 6:-0.962369 7:-0.844099 8:-0.948052 9:-0.962369 10:-0.764706 11:-0.962763 12:-0.529412 13:-0.846545 14:-1 15:-0.467348 16:-1 17:-0.467348 18:-1 19:-0.909091 20:-0.904762 21:-0.555556 22:-0.567568 23:-0.428571 24:-1 25:-0.386364 
1.5 1:-0.73913 2:-0.462963 3:1 4:-0.79798 5:-0.670886 6:-0.985695 7:-0.874905 8:-0.974026 9:-0.985695 10:-0.843137 11:-0.953069 12:-0.882353 13:-0.843978 14:-0.714286 15:0.299151 16:-0.9 17:0.299151 18:-0.803922 19:-0.454545 20:-0.809524 21:-1 22:-0.513514 23:-0.857143 24:-1 25:-0.340909 
1.5 1:-0.391304 2:-0.388889 3:1 4:-0.79798 5:-0.518987 6:-0.997228 7:-0.885795 8:-0.896104 9:-0.99486 10:-1 11:-0.992671 12:-1 13:-0.879152 14:-0.714286 15:-0.22051 16:-0.95 17:-0.22051 18:-0.764706 19:-0.454545 20:-0.238095 21:-0.333333 22:-0.567568 23:-0.857143 24:-1 25:-0.272727 
1.5 1:-0.652174 2:-0.777778 3:1 4:-0.858586 5:-0.696203 6:-0.992671 7:-0.881492 8:-0.818182 9:-0.992671 10:-0.529412 11:-0.966999 12:-1 13:-0.87509 14:-0.571429 15:-0.90802 16:-1 17:0.299151 18:-0.960784 19:-1 20:-1 21:-1 22:-0.837838 23:-0.571429 24:-1 25:-0.636364 
1.5 1:0.304348 2:-0.481481 3:1 4:-0.979798 5:-0.822785 6:-0.997371 7:-0.88593 8:-0.792208 9:-0.997371 10:-0.921569 11:-0.992996 12:-0.647059 13:-0.885828 14:-1 15:-0.22051 16:-1 17:0.299151 18:-0.960784 19:-0.818182 20:-0.904762 21:-0.333333 22:-0.621622 23:-0.428571 24:-1 25:-0.545455 
1.5 1:-0.391304 2:-0.611111 3:-1 4:-0.555556 5:-0.746835 6:-0.997256 7:-0.853015 8:-0.818182 9:-0.997256 10:-0.921569 11:-0.966999 12:-1 13:-0.876911 14:-1 15:-0.22051 16:-0.9 17:-0.91339 18:-0.921569 19:-0.636364 20:-0.904762 21:-0.555556 22:-0.783784 23:-0.857143 24:-1 25:-0.590909 
1.5 1:-0.217391 2:-0.703704 3:-1 4:-0.79798 5:-1 6:-0.97907 7:-0.848777 8:-0.922078 9:-0.97907 10:-0.921569 11:-0.962763 12:-0.882353 13:-0.852871 14:-0.857143 15:-0.22051 16:-1 17:-0.467348 18:-0.803922 19:-0.909091 20:-1 21:-0.777778 22:-0.72973 23:-0.571429 24:-1 25:-0.795455 
1.5 1:-0.478261 2:-0.62963 3:-1 4:-0.575758 5:-0.949367 6:-0.987809 7:-0.876902 8:-0.532468 9:-0.987809 10:-0.960784 11:-0.966999 12:-1 13:-0.876911 14:-1 15:0.999999 16:-0.95 17:0.909909 18:-0.529412 19:-0.636364 20:-0.809524 21:-1 22:-0.675676 23:-0.714286 24:-1 25:-0.568182 
1.5 1:-0.565217 2:-0.648148 3:-1 4:-0.858586 5:-1 6:-0.946488 7:-0.837886 8:-0.87013 9:-0.946488 10:-0.921569 11:-0.966999 12:-1 13:-0.843978 14:-0.857143 15:-0.22051 16:-1 17:-0.22051 18:-0.803922 19:-0.909091 20:-0.904762 21:-1 22:-0.675676 23:-0.571429 24:-1 25:-0.704545 
1.5 1:-0.391304 2:-0.62963 3:-1 4:-0.575758 5:-0.848101 6:-0.98786 7:-0.87695 8:-0.454545 9:-0.98786 10:-0.764706 11:-0.992671 12:-1 13:-0.883434 14:-1 15:0.999999 16:-0.9 17:0.909909 18:-1 19:-0.636364 20:-1 21:-1 22:-0.621622 23:-0.571429 24:-1 25:-0.704545 
1.5 1:-0.217391 2:-0.37037 3:1 4:-0.676768 5:-0.139241 6:-0.971977 7:-0.861952 8:-0.584416 9:-0.992671 10:-0.921569 11:-0.981042 12:-0.882353 13:-0.843978 14:-0.857143 15:-0.467348 16:-1 17:0.999999 18:-1 19:-0.272727 20:-1 21:-0.777778 22:-0.621622 23:-0.428571 24:-1 25:-0.25 
1.5 1:-0.217391 2:-0.333333 3:-1 4:-0.454545 5:-0.670886 6:-0.981367 7:-0.885821 8:-0.922078 9:-0.981367 10:-0.921569 11:-0.966999 12:-1 13:-0.883782 14:-1 15:0.999999 16:-0.95 17:-0.22051 18:-0.764706 19:-0.545455 20:-0.619048 21:-0.333333 22:-0.567568 23:-0.428571 24:-1 25:-0.0454545 
1.5 1:-0.304348 2:-0.444444 3:-1 4:-0.373737 5:-0.974684 6:-0.99758 7:-0.886128 8:-0.194805 9:-0.99758 10:-0.960784 11:-0.962763 12:-0.529412 13:-0.846545 14:-1 15:0.999999 16:-0.9 17:0.299151 18:-0.568627 19:-0.636364 20:-0.904762 21:-1 22:-0.297297 23:-0.571429 24:-1 25:-0.409091 
1.5 1:-0.652174 2:-0.944444 3:-1 4:-0.919192 5:-1 6:-1 7:-0.888412 8:-0.87013 9:-1 10:-0.960784 11:-0.962763 12:-0.764706 13:-0.846545 14:-1 15:0.999999 16:-1 17:-0.22051 18:-1 19:-1 20:-0.904762 21:-1 22:-0.945946 23:-0.857143 24:-1 25:-0.5 
1.5 1:-0.130435 2:-0.462963 3:1 4:-0.919192 5:-0.64557 6:-0.946391 7:-0.837794 8:-0.974026 9:-0.978742 10:-0.960784 11:-0.992671 12:-1 13:-0.852758 14:-1 15:-0.208211 16:-0.85 17:-0.822396 18:-1 19:-0.636364 20:-1 21:-0.111111 22:-0.72973 23:-0.857143 24:-0.333333 25:-0.522727 
1.5 1:-0.478261 2:-0.722222 3:-1 4:-0.676768 5:-0.974684 6:-0.990579 7:-0.877011 8:-0.818182 9:-0.990579 10:-0.960784 11:-0.992996 12:-0.764706 13:-0.879175 14:-1 15:-0.22051 16:-1 17:-0.22051 18:-0.960784 19:-0.909091 20:-0.904762 21:-0.777778 22:-0.837838 23:-0.714286 24:-1 25:-0.454545 
1.5 1:-0.304348 2:-0.333333 3:1 4:-1 5:-0.620253 6:-0.946391 7:-0.837794 8:-0.766234 9:-0.992809 10:-0.882353 11:-0.966999 12:-1 13:-0.881675 14:-1 15:0.999999 16:-0.95 17:-0.467348 18:-0.686275 19:-0.454545 20:-1 21:-0.555556 22:-0.513514 23:-0.857143 24:-0.333333 25:-0.340909 
1.5 1:-0.652174 2:-0.814815 3:-1 4:-0.777778 5:-0.974684 6:-1 7:-0.888412 8:-0.688312 9:-1 10:-0.921569 11:-0.953069 12:-0.764706 13:-0.846545 14:-1 15:0.299151 16:-1 17:-0.467348 18:-0.803922 19:-0.818182 20:-0.714286 21:-1 22:-0.891892 23:-0.857143 24:-1 25:-0.363636 
1.5 1:-0.391304 2:-0.592593 3:1 4:-0.939394 5:-0.746835 6:-0.97907 7:-0.86865 8:-0.792208 9:-0.97907 10:-0.960784 11:-0.962763 12:-0.764706 13:-0.883434 14:-1 15:0.999999 16:-1 17:0.999999 18:-0.882353 19:-0.909091 20:-0.904762 21:-0.555556 22:-0.72973 23:-0.571429 24:-1 25:-0.636364 
1.5 1:-0.826087 2:-0.944444 3:-1 4:-0.939394 5:-1 6:-0.987951 7:-0.877035 8:-0.922078 9:-0.987951 10:-1 11:-0.966999 12:-1 13:-0.85713 14:-0.571429 15:-0.22051 16:-0.95 17:-0.22051 18:-1 19:-1 20:-1 21:-1 22:-0.945946 23:-1 24:-1 25:-0.772727 
1.5 1:-0.652174 2:-0.833333 3:-1 4:-0.79798 5:-0.898734 6:-0.997228 7:-0.885795 8:-0.74026 9:-0.997228 10:-0.843137 11:-0.955508 12:-0.764706 13:-0.883434 14:-1 15:0.999999 16:-1 17:0.299151 18:-1 19:-1 20:-0.809524 21:-1 22:-0.891892 23:-0.571429 24:-1 25:-0.659091 
1.5 1:-0.652174 2:-0.592593 3:1 4:-0.919192 5:-0.620253 6:-0.946488 7:-0.837886 8:-0.87013 9:-0.946488 10:-0.764706 11:-0.981042 12:-0.882353 13:-0.88137 14:-0.857143 15:0.299151 16:-1 17:-0.22051 18:-0.960784 19:-0.727273 20:-0.809524 21:-1 22:-0.783784 23:-0.857143 24:-1 25:-0.75 
1.5 1:-0.652174 2:-0.759259 3:-1 4:-0.717172 5:-0.873418 6:-0.98786 7:-0.87695 8:-0.636364 9:-0.98786 10:-0.803922 11:-0.962763 12:-0.764706 13:-0.843978 14:-0.857143 15:0.999999 16:-1 17:0.299151 18:-1 19:-1 20:-0.904762 21:-1 22:-0.783784 23:-0.571429 24:-1 25:-0.431818 
1.5 1:-0.652174 2:-0.907407 3:-1 4:-0.878788 5:-0.949367 6:-0.992671 7:-0.881492 8:-0.844156 9:-0.992671 10:-0.921569 11:-0.962763 12:-0.764706 13:-0.883434 14:-1 15:0.999999 16:-1 17:0.999999 18:-1 19:-1 20:-0.904762 21:-1 22:-0.945946 23:-0.714286 24:-1 25:-0.340909 
1.5 1:-0.565217 2:-0.666667 3:1 4:-0.939394 5:-0.544304 6:-0.946488 7:-0.837886 8:-0.818182 9:-0.992671 10:-0.921569 11:-0.962763 12:-0.764706 13:-0.883434 14:-1 15:0.999999 16:-1 17:0.999999 18:-1 19:-0.818182 20:-0.904762 21:-0.555556 22:-0.783784 23:-0.428571 24:-1 25:-0.772727 
1.5 1:-0.565217 2:-0.759259 3:-1 4:-0.757576 5:-0.898734 6:-0.98786 7:-0.881623 8:-0.844156 9:-0.99281 10:-0.921569 11:-0.962763 12:-0.882353 13:-0.877176 14:-0.714286 15:-0.22051 16:-0.95 17:0.299151 18:-1 19:-1 20:-1 21:-0.777778 22:-0.837838 23:-0.714286 24:-1 25:-0.818182 
1.5 1:-0.391304 2:-0.425926 3:1 4:-0.757576 5:-0.367089 6:-0.997228 7:-0.879427 8:-0.922078 9:-0.948623 10:-0.803922 11:-0.981042 12:-0.882353 13:-0.881369 14:-0.857143 15:-0.46462 16:-0.95 17:0.299151 18:-1 19:-0.818182 20:-0.904762 21:-0.555556 22:-0.513514 23:-0.285714 24:-1 25:-0.318182 
1.5 1:0.0434783 2:-0.166667 3:1 4:-0.717172 5:0.0126582 6:-0.981372 7:-0.868342 8:-0.948052 9:-0.952903 10:-0.803922 11:-0.966999 12:-1 13:-0.85313 14:-0.714286 15:-0.467348 16:-0.95 17:-0.22051 18:-1 19:-0.818182 20:-0.904762 21:0.111111 22:-0.243243 23:-0.571429 24:-1 25:-0.159091 
1.5 1:-0.304348 2:-0.796296 3:1 4:-0.939394 5:-0.696203 6:-0.971881 7:-0.861862 8:-0.922078 9:-0.98781 10:-0.843137 11:-0.9976 12:-0.764706 13:-0.883782 14:-1 15:-0.22051 16:-1 17:0.299151 18:-1 19:-1 20:-0.904762 21:-0.555556 22:-0.783784 23:-0.714286 24:-1 25:-0.818182 
1.5 1:0.0434783 2:-0.722222 3:-1 4:-0.676768 5:-0.974684 6:-0.995349 7:-0.853253 8:-0.766234 9:-0.995349 10:-0.921569 11:-0.987814 12:-0.764706 13:-0.883434 14:-1 15:0.299151 16:-1 17:-0.22051 18:-0.72549 19:-1 20:-0.904762 21:-0.777778 22:-0.783784 23:-0.714286 24:-1 25:-0.681818 
1.5 1:-0.565217 2:-0.833333 3:-1 4:-0.79798 5:-1 6:-0.946488 7:-0.837886 8:-0.766234 9:-0.946488 10:-0.960784 11:-0.966999 12:-1 13:-0.883782 14:-1 15:0.999999 16:-0.95 17:-0.22051 18:-0.843137 19:-1 20:-1 21:-1 22:-0.891892 23:-0.857143 24:-1 25:-0.75 
1.5 1:-0.565217 2:-0.907407 3:1 4:-1 5:-0.848101 6:-0.981368 7:-0.87082 8:-0.974026 9:-0.958019 10:-0.921569 11:-0.969274 12:-0.647059 13:-0.876911 14:-1 15:-1 16:-1 17:-1 18:-0.764706 19:-1 20:-0.904762 21:-0.777778 22:-0.945946 23:-1 24:-1 25:-0.659091 
1.5 1:-0.478261 2:-0.555556 3:-1 4:-0.717172 5:-0.848101 6:-0.992671 7:-0.881492 8:-1 9:-0.992671 10:-0.686275 11:-0.969418 12:-0.882353 13:-0.846545 14:-1 15:0.999999 16:-1 17:-0.22051 18:-0.882353 19:-0.636364 20:-0.809524 21:-1 22:-0.675676 23:-0.428571 24:-1 25:-0.409091 
1.5 1:-0.130435 2:-0.0740741 3:-1 4:-0.373737 5:-0.64557 6:-0.971977 7:-0.861952 8:-0.584416 9:-0.971977 10:-0.960784 11:-0.981042 12:-0.882353 13:-0.883434 14:-1 15:-0.467348 16:-1 17:0.999999 18:-1 19:-0.0909091 20:-1 21:-0.777778 22:-0.297297 23:0.142857 24:-1 25:-0.25 
1.5 1:-0.391304 2:-0.759259 3:1 4:-0.979798 5:-0.64557 6:-0.958023 7:-0.848777 8:-0.948052 9:-0.958023 10:-0.568627 11:-0.962763 12:-0.882353 13:-0.857526 14:-1 15:0.299151 16:-0.8 17:0.299151 18:-1 19:-0.818182 20:-0.809524 21:-1 22:-0.783784 23:-0.857143 24:-1 25:-0.840909 
1.5 1:-0.304348 2:-0.462963 3:1 4:-0.858586 5:-0.746835 6:-0.997299 7:-0.885861 8:-0.818182 9:-0.997578 10:-0.843137 11:-0.953069 12:-0.764706 13:-0.881367 14:-1 15:0.299151 16:-1 17:-0.22051 18:-0.960784 19:-1 20:-0.809524 21:-0.555556 22:-0.675676 23:-0.142857 24:-1 25:-0.159091 
1.5 1:-0.565217 2:-0.685185 3:-1 4:-0.79798 5:-0.974684 6:-0.958023 7:-0.876903 8:-0.974026 9:-0.958023 10:-0.960784 11:-0.966999 12:-1 13:-0.852893 14:-0.714286 15:-0.467348 16:-0.95 17:-0.91339 18:-0.921569 19:-1 20:-1 21:-0.777778 22:-0.675676 23:-0.714286 24:-1 25:-0.75 
1.5 1:-0.565217 2:-0.814815 3:-1 4:-0.878788 5:-1 6:-1 7:-0.888412 8:-0.818182 9:-1 10:-0.960784 11:-0.962763 12:-0.882353 13:-0.852893 14:-0.571429 15:-0.22051 16:-1 17:-0.22051 18:-0.843137 19:-1 20:-1 21:-1 22:-0.837838 23:-1 24:-1 25:-0.636364 
1.5 1:-0.391304 2:-0.407407 3:1 4:-0.939394 5:-0.316456 6:-0.946391 7:-0.837794 8:-0.792208 9:-0.988042 10:-0.411765 11:-0.966999 12:-1 13:-0.872805 14:-1 15:0.999999 16:-1 17:-0.208211 18:-0.490196 19:-0.636364 20:-0.809524 21:-0.777778 22:-0.459459 23:-0.571429 24:-1 25:-0.477273 
1.5 1:-0.391304 2:-0.518519 3:-1 4:-0.454545 5:-0.64557 6:-0.98786 7:-0.87695 8:-0.298701 9:-0.98786 10:-0.45098 11:-0.966999 12:-1 13:-0.853134 14:-1 15:0.999999 16:-0.85 17:0.299151 18:-0.921569 19:-0.454545 20:-1 21:-1 22:-0.513514 23:-0.571429 24:-1 25:-0.522727 
1.5 1:-0.565217 2:-0.518519 3:-1 4:-0.555556 5:-0.721519 6:-0.981367 7:-0.868361 8:-0.896104 9:-0.981367 10:-0.803922 11:-0.962763 12:-0.882353 13:-0.876911 14:-1 15:-0.22051 16:-1 17:-0.91339 18:-0.921569 19:-0.454545 20:-0.809524 21:-0.777778 22:-0.513514 23:-0.714286 24:-1 25:-0.522727 
1.5 1:-0.304348 2:-0.777778 3:-1 4:-0.737374 5:-1 6:-0.978764 7:-0.868361 8:-0.818182 9:-0.978764 10:-0.764706 11:-0.953069 12:-0.764706 13:-0.883434 14:-1 15:0.299151 16:-1 17:-0.22051 18:-0.686275 19:-0.909091 20:-0.904762 21:-1 22:-0.837838 23:-0.857143 24:-1 25:-0.386364 
1.5 1:-0.217391 2:-0.462963 3:1 4:-0.979798 5:-0.898734 6:-0.978743 7:-0.868342 8:-0.87013 9:-0.978743 10:-0.921569 11:-0.955325 12:-0.882353 13:-0.883434 14:-1 15:-0.22051 16:-1 17:-0.22051 18:-0.882353 19:-0.636364 20:-0.904762 21:-0.777778 22:-0.675676 23:-0.428571 24:-1 25:-0.636364 
1.5 1:-0.217391 2:-0.333333 3:-1 4:-0.272727 5:-0.873418 6:-0.997256 7:-0.881649 8:-0.974026 9:-0.997256 10:-0.921569 11:-0.985555 12:-0.647059 13:-0.883434 14:-1 15:-0.22051 16:-0.8 17:0.299151 18:-0.254902 19:-0.545455 20:-0.904762 21:-0.111111 22:-0.459459 23:-0.714286 24:-0.333333 25:-0.431818 
1.5 1:-0.826087 2:-0.833333 3:-1 4:-0.818182 5:-0.848101 6:-1 7:-0.888412 8:-0.74026 9:-1 10:-0.72549 11:-0.966999 12:-1 13:-0.876911 14:-1 15:-0.22051 16:-0.95 17:-0.22051 18:-1 19:-1 20:-1 21:-1 22:-0.783784 23:-0.857143 24:-1 25:-0.613636 
1.5 1:-0.565217 2:-0.518519 3:-1 4:-0.474747 5:-0.746835 6:-0.978764 7:-0.868361 8:-0.61039 9:-0.978764 10:-0.960784 11:-0.962763 12:-0.764706 13:-0.883434 14:-1 15:0.999999 16:-1 17:1 18:-1 19:-0.909091 20:-0.619048 21:-1 22:-0.567568 23:-0.285714 24:-1 25:-0.568182 
1.5 1:-0.565217 2:-0.703704 3:-1 4:-0.777778 5:-0.924051 6:-1 7:-0.888412 8:-0.688312 9:-1 10:-0.843137 11:-0.988231 12:-0.764706 13:-0.852758 14:-0.857143 15:-0.22051 16:-1 17:0.299151 18:-1 19:-0.909091 20:-0.904762 21:-1 22:-0.72973 23:-0.571429 24:-1 25:-0.636364 
1.5 1:-0.130435 2:-0.388889 3:-1 4:-0.313131 5:-0.544304 6:-0.978743 7:-0.85288 8:-0.896104 9:-0.990581 10:-0.843137 11:-0.995229 12:-0.764706 13:-0.846545 14:-1 15:-0.22051 16:-1 17:-0.22051 18:-0.921569 19:-0.545455 20:-0.904762 21:-0.333333 22:-0.351351 23:-0.571429 24:-1 25:-0.136364 
1.5 1:-0.391304 2:-0.592593 3:1 4:-0.939394 5:-0.493671 6:-0.971977 7:-0.861952 8:-0.922078 9:-0.98786 10:-0.607843 11:-0.98081 12:-0.882353 13:-0.846545 14:-1 15:0.999999 16:-1 17:0.999999 18:-1 19:-0.909091 20:-1 21:-0.777778 22:-0.621622 23:-0.428571 24:-1 25:-0.568182 
1.5 1:-0.478261 2:-0.833333 3:1 4:-0.979798 5:-0.746835 6:-0.946391 7:-0.837794 8:-0.922078 9:-0.953069 10:-0.803922 11:-0.966999 12:-1 13:-0.876911 14:-1 15:0.999999 16:-0.8 17:0.999999 18:-0.882353 19:-1 20:-1 21:-0.777778 22:-0.837838 23:-1 24:-1 25:-0.863636 
1.5 1:-0.478261 2:-0.796296 3:-1 4:-0.858586 5:-0.974684 6:-1 7:-0.888412 8:-0.792208 9:-1 10:-0.921569 11:-0.966999 12:-1 13:-0.85313 14:-0.714286 15:0.999999 16:-1 17:-0.467348 18:-1 19:-1 20:-1 21:-1 22:-0.837838 23:-0.714286 24:-1 25:-0.727273 
1.5 1:-0.652174 2:-0.888889 3:1 4:-0.979798 5:-0.873418 6:-0.953069 7:-0.844099 8:-0.948052 9:-0.953069 10:-0.921569 11:-0.992671 12:-1 13:-0.846545 14:-1 15:0.999999 16:-0.9 17:0.999999 18:-1 19:-1 20:-1 21:-1 22:-0.945946 23:-1 24:-1 25:-0.727273 
1.5 1:-0.826087 2:-0.87037 3:-1 4:-0.858586 5:-0.949367 6:-1 7:-0.888412 8:-0.792208 9:-1 10:-0.882353 11:-0.962763 12:-0.882353 13:-0.876911 14:-1 15:-0.22051 16:-1 17:-0.22051 18:-0.882353 19:-0.818182 20:-0.904762 21:-1 22:-0.837838 23:-1 24:-1 25:-0.181818 
1.5 1:-0.73913 2:-0.796296 3:1 4:-0.979798 5:-0.797468 6:-1 7:-0.888412 8:-0.948052 9:-1 10:-0.647059 11:-0.962763 12:-0.882353 13:-0.852758 14:-0.857143 15:0.299151 16:-0.95 17:0.299151 18:-0.843137 19:-0.909091 20:-1 21:-1 22:-0.783784 23:-1 24:-1 25:-0.886364 
1.5 1:-0.565217 2:-0.5 3:1 4:-0.858586 5:-0.620253 6:-0.958023 7:-0.848777 8:-0.974026 9:-0.969557 10:-0.803922 11:-0.985693 12:-0.529412 13:-0.846545 14:-1 15:0.999999 16:-0.8 17:0.299151 18:-0.686275 19:-0.545455 20:-0.904762 21:-0.777778 22:-0.621622 23:-0.857143 24:-1 25:-0.636364 
1.5 1:-0.391304 2:-0.759259 3:-1 4:-0.717172 5:-0.949367 6:-0.981367 7:-0.870819 8:-0.74026 9:-0.981367 10:-0.921569 11:-0.969647 12:-0.764706 13:-0.876911 14:-1 15:-0.46462 16:-1 17:-0.22051 18:-0.843137 19:-1 20:-0.809524 21:-1 22:-0.783784 23:-0.714286 24:-1 25:-0.704545 
1.5 1:-0.826087 2:-0.814815 3:1 4:-1 5:-0.848101 6:-1 7:-0.888412 8:-0.974026 9:-1 10:-0.72549 11:-0.953069 12:-0.764706 13:-0.846545 14:-1 15:0.999999 16:-0.9 17:0.999999 18:-0.921569 19:-0.909091 20:-1 21:-1 22:-0.783784 23:-1 24:-1 25:-0.431818 
1.5 1:-0.565217 2:-0.796296 3:-1 4:-0.757576 5:-0.924051 6:-0.958022 7:-0.848777 8:-0.792208 9:-0.958022 10:-0.960784 11:-0.962763 12:-0.647059 13:-0.883434 14:-1 15:0.999999 16:-0.95 17:0.999999 18:-0.960784 19:-1 20:-0.904762 21:-1 22:-0.837838 23:-0.714286 24:-1 25:-0.659091 
1.5 1:-0.391304 2:-0.462963 3:-1 4:-0.515152 5:-0.64557 6:-0.946391 7:-0.844099 8:-0.948052 9:-0.946391 10:-0.843137 11:-0.966999 12:-1 13:-0.881369 14:-0.857143 15:-0.22051 16:-0.95 17:0.999999 18:-0.803922 19:-0.636364 20:-0.904762 21:-0.555556 22:-0.513514 23:-0.714286 24:-1 25:-0.477273 
1.5 1:-0.478261 2:-0.555556 3:-1 4:-0.717172 5:-0.848101 6:-0.992671 7:-0.881492 8:-1 9:-0.992671 10:-0.686275 11:-0.969418 12:-0.882353 13:-0.846545 14:-1 15:0.999999 16:-1 17:-0.22051 18:-0.882353 19:-0.636364 20:-0.809524 21:-1 22:-0.675676 23:-0.428571 24:-1 25:-0.409091 
1.5 1:-0.565217 2:-0.703704 3:-1 4:-0.79798 5:-0.924051 6:-1 7:-0.888412 8:-0.714286 9:-1 10:-0.843137 11:-0.988231 12:-0.764706 13:-0.852981 14:-0.714286 15:-0.22051 16:-1 17:0.299151 18:-1 19:-0.909091 20:-0.904762 21:-1 22:-0.783784 23:-0.571429 24:-1 25:-0.636364 
1.5 1:-0.304348 2:-0.814815 3:1 4:-1 5:-0.721519 6:-0.981368 7:-0.87082 8:-0.948052 9:-0.953069 10:-0.843137 11:-0.966999 12:-1 13:-0.876911 14:-1 15:0.999999 16:-0.65 17:0.999999 18:-0.921569 19:-1 20:-1 21:-0.555556 22:-0.783784 23:-1 24:-1 25:-0.568182 
1.5 1:-0.304348 2:-0.740741 3:-1 4:-0.777778 5:-0.898734 6:-0.978739 7:-0.87082 8:-0.974026 9:-0.978739 10:-0.843137 11:-0.966999 12:-1 13:-0.883782 14:-1 15:0.999999 16:-0.95 17:0.396336 18:-1 19:-1 20:-1 21:-0.555556 22:-0.72973 23:-0.571429 24:-1 25:-0.454545 
1.5 1:-0.130435 2:-0.351852 3:-1 4:-0.272727 5:-0.848101 6:-0.98786 7:-0.886128 8:-0.506494 9:-0.98786 10:-0.764706 11:-0.992671 12:-1 13:-0.874846 14:-1 15:0.999999 16:-0.8 17:0.299151 18:-1 19:-0.272727 20:-0.809524 21:-0.777778 22:-0.621622 23:-0.714286 24:-1 25:-0.477273 
1.5 1:-0.217391 2:-0.203704 3:-1 4:-0.131313 5:-0.493671 6:-0.981372 7:-0.881649 8:-0.844156 9:-0.981372 10:-0.411765 11:-0.966999 12:-1 13:-0.876911 14:-1 15:0.299151 16:-0.95 17:-0.91339 18:-0.764706 19:-0.545455 20:-1 21:-0.777778 22:-0.405405 23:-0.571429 24:-1 25:-0.25 
1.5 1:-0.826087 2:-0.925926 3:-1 4:-0.919192 5:-0.974684 6:-1 7:-0.888412 8:-0.87013 9:-1 10:-0.921569 11:-0.966999 12:-1 13:-0.85713 14:-0.571429 15:-0.22051 16:-0.95 17:-0.22051 18:-1 19:-1 20:-1 21:-1 22:-1 23:-1 24:-1 25:-0.704545 
1.5 1:-0.0434783 2:-0.296296 3:-1 4:-0.393939 5:-0.493671 6:-0.978743 7:-0.844099 8:-0.974026 9:-0.981367 10:-0.843137 11:-0.966999 12:-1 13:-0.876911 14:-1 15:-0.22051 16:-0.95 17:-0.91339 18:-0.921569 19:-0.636364 20:-1 21:0.333333 22:-0.405405 23:-0.428571 24:-1 25:-0.363636 
1.5 1:-0.217391 2:-0.648148 3:-1 4:-0.59596 5:-0.873418 6:-0.995349 7:-0.884021 8:-0.662338 9:-0.995349 10:-0.921569 11:-0.966999 12:-1 13:-0.853044 14:-1 15:0.999999 16:-0.9 17:-0.467348 18:-0.647059 19:-0.818182 20:-1 21:-1 22:-0.675676 23:-0.857143 24:-1 25:-0.681818 
1.5 1:-0.478261 2:-0.537037 3:1 4:-0.919192 5:-0.56962 6:-0.981367 7:-0.870819 8:-0.506494 9:-0.981367 10:-0.764706 11:-0.987814 12:-0.764706 13:-0.885828 14:-1 15:0.299151 16:-1 17:-0.91339 18:-0.921569 19:-0.272727 20:-0.809524 21:-0.777778 22:-0.783784 23:-0.714286 24:-1 25:-0.727273 
1.5 1:-0.391304 2:-0.407407 3:-1 4:-0.393939 5:-0.746835 6:-0.997256 7:-0.877146 8:-0.818182 9:-0.997256 10:-0.568627 11:-0.953069 12:-0.882353 13:-0.835391 14:-0.857143 15:-0.467348 16:-1 17:-0.91339 18:-1 19:-0.818182 20:-1 21:-0.777778 22:-0.567568 23:-0.571429 24:-1 25:-0.454545 
1.5 1:-0.217391 2:-0.12963 3:-1 4:-0.030303 5:-0.620253 6:-0.992671 7:-0.888412 8:-0.454545 9:-1 10:-0.529412 11:-0.962763 12:-0.764706 13:-0.883498 14:-1 15:0.999999 16:-1 17:0.999999 18:-0.960784 19:-0.272727 20:-0.714286 21:-0.777778 22:-0.243243 23:-0.571429 24:-1 25:-0.159091 
1.5 1:-0.304348 2:-0.5 3:-1 4:-0.515152 5:-0.822785 6:-0.995349 7:-0.881492 8:-0.688312 9:-0.995349 10:-0.843137 11:-0.966999 12:-1 13:-0.879175 14:-1 15:0.999999 16:-1 17:0.299151 18:-1 19:-0.818182 20:-1 21:-0.777778 22:-0.513514 23:-0.285714 24:-1 25:-0.568182 
1.5 1:-0.73913 2:-0.796296 3:1 4:-0.939394 5:-0.797468 6:-0.953069 7:-0.844099 8:-0.974026 9:-0.953069 10:-0.843137 11:-0.966999 12:-1 13:-0.883782 14:-1 15:0.999999 16:-0.95 17:-0.22051 18:-1 19:-0.909091 20:-1 21:-1 22:-0.837838 23:-0.857143 24:-1 25:-0.704545 
1.5 1:-0.391304 2:-0.296296 3:1 4:-1 5:-0.341772 6:-1 7:-0.888412 8:-0.87013 9:-0.953069 10:-0.803922 11:-0.944066 12:-0.764706 13:-0.881499 14:-1 15:-0.208211 16:-0.45 17:0.999999 18:-0.882353 19:-0.454545 20:-1 21:0.111111 22:-0.405405 23:-0.714286 24:-1 25:-0.409091 
1.5 1:-0.826087 2:-0.907407 3:1 4:-0.959596 5:-0.898734 6:-1 7:-0.888412 8:-0.922078 9:-1 10:-0.803922 11:-0.966999 12:-1 13:-0.876911 14:-1 15:0.999999 16:-1 17:0.999999 18:-1 19:-1 20:-1 21:-1 22:-0.891892 23:-1 24:-1 25:-0.568182 
1.5 1:-0.391304 2:-0.481481 3:-1 4:-0.515152 5:-0.620253 6:-0.997256 7:-0.883994 8:-0.974026 9:-0.955324 10:-0.921569 11:-0.966999 12:-1 13:-0.876911 14:-1 15:0.299151 16:-1 17:-0.91339 18:-0.921569 19:-0.909091 20:-1 21:-0.555556 22:-0.513514 23:-0.428571 24:-1 25:-0.0909091 
1.5 1:-0.652174 2:-0.777778 3:-1 4:-0.858586 5:-0.898734 6:-0.992671 7:-0.881492 8:-0.818182 9:-0.992671 10:-0.843137 11:-0.966999 12:-1 13:-0.876911 14:-1 15:-0.90802 16:-1 17:0.299151 18:-1 19:-1 20:-1 21:-1 22:-0.783784 23:-0.571429 24:-1 25:-0.636364 
1.5 1:-0.304348 2:-0.388889 3:-1 4:-0.515152 5:-0.848101 6:-0.997299 7:-0.885821 8:-0.948052 9:-0.997299 10:-0.882353 11:-0.962763 12:-0.647059 13:-0.846545 14:-1 15:0.999999 16:-0.95 17:-0.22051 18:-0.803922 19:-0.727273 20:-0.904762 21:-0.555556 22:-0.72973 23:-0.428571 24:-1 25:-0.454545 
1.5 1:-0.478261 2:-0.481481 3:-1 4:-0.454545 5:-0.493671 6:-0.978739 7:-0.868337 8:-0.298701 9:-0.978739 10:-0.215686 11:-0.992904 12:-0.882353 13:-0.839782 14:-1 15:0.299151 16:-0.95 17:-0.22051 18:-0.960784 19:-0.363636 20:-0.904762 21:-1 22:-0.405405 23:-0.714286 24:-1 25:-0.363636 
1.5 1:-0.217391 2:-0.462963 3:-1 4:-0.393939 5:-0.848101 6:-0.992671 7:-0.872839 8:-0.428571 9:-0.969557 10:-0.960784 11:-0.962763 12:-0.647059 13:-0.848743 14:-1 15:0.999999 16:-0.95 17:-0.22051 18:-0.921569 19:-0.818182 20:-0.904762 21:-0.555556 22:-0.621622 23:-0.428571 24:-1 25:-0.477273 
1.5 1:-0.478261 2:-0.888889 3:-1 4:-0.89899 5:-1 6:-1 7:-0.888412 8:-0.844156 9:-1 10:-0.960784 11:-0.953069 12:-0.764706 13:-0.881675 14:-1 15:-0.467348 16:-1 17:-0.467348 18:-1 19:-1 20:-0.809524 21:-1 22:-0.945946 23:-0.714286 24:-1 25:-0.522727 
1.5 1:-0.391304 2:-0.703704 3:1 4:-0.89899 5:-0.721519 6:-0.95072 7:-0.868337 8:-0.948052 9:-0.978739 10:-0.843137 11:-0.969418 12:-0.764706 13:-0.883434 14:-1 15:0.999999 16:-1 17:0.299151 18:-1 19:-1 20:-0.904762 21:-0.777778 22:-0.621622 23:-0.571429 24:-1 25:-0.681818 
1.5 1:-0.217391 2:-0.351852 3:1 4:-0.89899 5:-0.443038 6:-0.955624 7:-0.846512 8:-0.87013 9:-0.992671 10:-0.921569 11:-0.962763 12:-0.764706 13:-0.879175 14:-1 15:0.999999 16:-1 17:0.999999 18:-1 19:-0.818182 20:-0.904762 21:-0.111111 22:-0.351351 23:-0.285714 24:-1 25:-0.295455 
1.5 1:-0.304348 2:-0.444444 3:-1 4:-0.373737 5:-0.898734 6:-0.992671 7:-0.859668 8:-0.74026 9:-0.992671 10:-0.843137 11:-0.992671 12:-1 13:-0.843909 14:-0.857143 15:0.999999 16:-0.85 17:0.299151 18:-1 19:-0.636364 20:-0.809524 21:-0.777778 22:-0.675676 23:-0.571429 24:-1 25:-0.0909091 
1.5 1:-0.652174 2:-0.814815 3:-1 4:-0.777778 5:-0.873418 6:-0.997349 7:-0.885909 8:-0.714286 9:-0.997349 10:-0.803922 11:-0.966999 12:-1 13:-0.876911 14:-1 15:0.299151 16:-0.95 17:0.299151 18:-1 19:-1 20:-1 21:-1 22:-0.837838 23:-0.714286 24:-1 25:-0.795455 
1.5 1:-0.304348 2:-0.592593 3:-1 4:-0.636364 5:-0.848101 6:-0.981367 7:-0.87082 8:-0.948052 9:-0.981367 10:-0.843137 11:-0.966999 12:-1 13:-0.876911 14:-1 15:0.999999 16:-0.95 17:-0.91339 18:-1 19:-0.727273 20:-1 21:-0.555556 22:-0.621622 23:-0.714286 24:-1 25:-0.704545 
1.5 1:-0.304348 2:-0.351852 3:1 4:-0.818182 5:-0.468354 6:-0.981367 7:-0.870819 8:-0.974026 9:-0.95072 10:-0.882353 11:-0.969741 12:-0.764706 13:-0.846545 14:-1 15:0.299151 16:-1 17:0.299151 18:-0.843137 19:-0.636364 20:-0.904762 21:-0.555556 22:-0.513514 23:-0.142857 24:-1 25:-0.431818 
1.5 1:-0.73913 2:-0.87037 3:1 4:-0.919192 5:-0.797468 6:-0.953069 7:-0.844099 8:-0.948052 9:-0.953069 10:-0.921569 11:-0.983299 12:-0.764706 13:-0.883782 14:-1 15:0.999999 16:-1 17:0.999999 18:-1 19:-0.909091 20:-0.904762 21:-1 22:-0.945946 23:-0.857143 24:-1 25:-0.818182 
1.5 1:-0.826087 2:-0.944444 3:-1 4:-0.939394 5:-0.974684 6:-1 7:-0.888412 8:-0.896104 9:-1 10:-0.921569 11:-0.962763 12:-0.882353 13:-0.846545 14:-1 15:-0.22051 16:-1 17:-0.22051 18:-1 19:-1 20:-1 21:-1 22:-0.945946 23:-1 24:-1 25:-0.636364 
1.5 1:-0.826087 2:-0.944444 3:-1 4:-0.919192 5:-0.974684 6:-1 7:-0.888412 8:-0.87013 9:-1 10:-0.921569 11:-0.985763 12:-0.647059 13:-0.874846 14:-1 15:-0.22051 16:-0.95 17:-0.22051 18:-1 19:-1 20:-0.904762 21:-1 22:-1 23:-1 24:-1 25:-0.727273 
1.5 1:0.391304 2:-0.203704 3:1 4:-0.919192 5:-0.620253 6:-0.981042 7:-0.870512 8:-0.896104 9:-0.958023 10:-0.960784 11:-0.992671 12:-1 13:-0.859744 14:-0.714286 15:0.318248 16:-0.95 17:0.318248 18:-0.686275 19:-0.636364 20:-1 21:0.333333 22:-0.459459 23:-0.857143 24:-1 25:-0.0454545 
1.5 1:-0.217391 2:-0.611111 3:1 4:-0.939394 5:-0.468354 6:-0.946391 7:-0.837794 8:-0.896104 9:-0.992671 10:-0.843137 11:-0.95072 12:-0.882353 13:-0.883434 14:-1 15:0.299151 16:-0.95 17:0.739138 18:-1 19:-0.818182 20:-0.714286 21:-0.555556 22:-0.72973 23:-0.428571 24:-1 25:-0.704545 
1.5 1:-0.565217 2:-0.444444 3:1 4:-0.515152 5:-0.265823 6:-0.955323 7:-0.848777 8:-0.974026 9:-0.958023 10:-0.843137 11:-0.962763 12:-0.764706 13:-0.876911 14:-1 15:0.999999 16:-1 17:0.999999 18:-1 19:-0.636364 20:-0.714286 21:-0.555556 22:-0.513514 23:-0.428571 24:-1 25:-0.363636 
1.5 1:-0.73913 2:-0.907407 3:-1 4:-0.89899 5:-1 6:-1 7:-0.888412 8:-0.844156 9:-1 10:-0.960784 11:-0.992671 12:-1 13:-0.881369 14:-0.857143 15:-0.22051 16:-0.9 17:-0.22051 18:-0.960784 19:-1 20:-1 21:-1 22:-0.891892 23:-1 24:-1 25:-0.295455 
1.5 1:-0.391304 2:-0.388889 3:-1 4:-0.353535 5:-0.670886 6:-0.978743 7:-0.879295 8:-0.896104 9:-0.978743 10:-0.960784 11:-0.953069 12:-0.882353 13:-0.846545 14:-1 15:-0.467348 16:-0.95 17:0.299151 18:-0.764706 19:-0.363636 20:-0.904762 21:-0.111111 22:-0.621622 23:-0.714286 24:-1 25:-0.613636 
1.5 1:-0.130435 2:-0.740741 3:1 4:-0.959596 5:-0.822785 6:-0.946391 7:-0.837794 8:-0.948052 9:-0.987951 10:-1 11:-0.966999 12:-1 13:-0.859718 14:-0.714286 15:0.299151 16:-0.65 17:0.299151 18:-0.921569 19:-1 20:-1 21:-0.555556 22:-0.783784 23:-1 24:-0.333333 25:-0.795455 
1.5 1:-0.652174 2:-0.888889 3:-1 4:-0.858586 5:-0.974684 6:-0.97907 7:-0.86865 8:-0.87013 9:-0.97907 10:-0.960784 11:-0.99751 12:-0.764706 13:-0.846545 14:-1 15:-0.22051 16:-1 17:-0.22051 18:-0.843137 19:-1 20:-0.904762 21:-1 22:-0.945946 23:-1 24:-1 25:-0.318182 
1.5 1:-0.0434783 2:-0.296296 3:1 4:-0.878788 5:-0.341772 6:-0.995349 7:-0.884021 8:-0.454545 9:-0.995349 10:-0.960784 11:-0.966999 12:-1 13:-0.883782 14:-1 15:-0.467348 16:-0.95 17:0.999999 18:-0.843137 19:-0.727273 20:-0.904762 21:-0.111111 22:-0.567568 23:-0.714286 24:-1 25:0.659091 
1.5 1:-0.217391 2:-0.425926 3:-1 4:-0.535354 5:-0.949367 6:-0.97874 7:-0.846579 8:-0.844156 9:-0.97874 10:-0.843137 11:-0.966999 12:-1 13:-0.881675 14:-1 15:0.299151 16:-0.95 17:0.999999 18:-0.843137 19:-0.545455 20:-0.809524 21:-0.777778 22:-0.513514 23:-0.285714 24:-1 25:-0.340909 
0.7650111731085409 1:-0.0434783 2:-0.203704 3:1 4:-0.777778 5:-0.0632911 6:-0.946391 7:-0.837794 8:-0.974026 9:-0.99758 10:-0.843137 11:-0.962763 12:-0.764706 13:-0.852758 14:-1 15:0.999999 16:-1 17:0.999999 18:0.0196078 20:-0.619048 21:-0.555556 22:-0.567568 23:-0.857143 24:-1 25:-0.454545 
1.5 1:-0.565217 2:-0.759259 3:-1 4:-0.79798 5:-0.898734 6:-0.992671 7:-0.884021 8:-0.922078 9:-0.992671 10:-0.921569 11:-0.962763 12:-0.882353 13:-0.879175 14:-1 15:0.999999 16:-0.95 17:0.999999 18:-1 19:-0.818182 20:-0.809524 21:-0.777778 22:-0.891892 23:-0.857143 24:-1 25:-0.318182 
1.5 1:-0.304348 2:-0.111111 3:1 4:-0.959596 5:-0.620253 6:-0.946488 7:-0.837886 8:-0.766234 9:-0.946488 10:-0.843137 11:-0.99067 12:-0.882353 13:-0.883434 14:-1 15:-0.22051 16:-0.95 17:-0.467348 18:-1 19:-0.454545 20:-0.238095 21:-0.333333 22:-0.405405 23:-0.285714 24:-1 25:-0.409091 
1.5 1:-0.73913 2:-0.814815 3:1 4:-0.959596 5:-0.721519 6:-0.953069 7:-0.844099 8:-0.948052 9:-0.953069 10:-0.72549 11:-0.966999 12:-1 13:-0.853134 14:-1 15:-0.22051 16:-0.9 17:0.999999 18:-0.921569 19:-1 20:-1 21:-1 22:-0.783784 23:-0.857143 24:-1 25:-0.431818 
1.5 1:-0.304348 2:-0.814815 3:-1 4:-0.838384 5:-1 6:-1 7:-0.888412 8:-0.766234 9:-1 10:-0.960784 11:-0.966999 12:-1 13:-0.879175 14:-1 15:0.999999 16:-1 17:-0.467348 18:-1 19:-1 20:-1 21:-1 22:-0.72973 23:-0.571429 24:-1 25:-0.522727 
1.5 1:-0.478261 2:-0.388889 3:-1 4:-0.373737 5:-0.924051 6:-0.992671 7:-0.881492 8:-0.194805 9:-0.992671 10:-0.882353 11:-0.992671 12:-1 13:-0.846545 14:-1 15:0.318248 16:-1 17:0.999999 18:-0.215686 19:-0.272727 20:-0.714286 21:-1 22:-0.621622 23:-0.571429 24:-1 25:0.181818 
1.5 1:-0.73913 2:-0.740741 3:-1 4:-0.717172 5:-0.696203 6:-1 7:-0.888412 8:-0.61039 9:-1 10:-0.490196 11:-0.962763 12:-0.882353 13:-0.876911 14:-1 15:0.0472108 16:-0.8 17:0.0472108 18:-0.921569 19:-0.818182 20:-0.809524 21:-1 22:-0.621622 23:-1 24:-1 25:-0.477273 
1.5 1:-0.826087 2:-0.944444 3:-1 4:-0.919192 5:-0.974684 6:-1 7:-0.888412 8:-0.87013 9:-1 10:-0.921569 11:-0.985763 12:-0.647059 13:-0.874846 14:-1 15:-0.22051 16:-0.95 17:-0.22051 18:-1 19:-1 20:-0.904762 21:-1 22:-1 23:-1 24:-1 25:-0.727273 
1.5 1:-0.391304 2:-0.592593 3:1 4:-0.939394 5:-0.746835 6:-0.97907 7:-0.86865 8:-0.792208 9:-0.97907 10:-0.960784 11:-0.962763 12:-0.764706 13:-0.883434 14:-1 15:0.999999 16:-1 17:0.999999 18:-0.882353 19:-0.909091 20:-0.904762 21:-0.555556 22:-0.72973 23:-0.571429 24:-1 25:-0.636364 
1.5 1:-0.652174 2:-0.87037 3:-1 4:-0.838384 5:-0.974684 6:-1 7:-0.888412 8:-0.766234 9:-1 10:-0.921569 11:-0.962763 12:-0.764706 13:-0.885828 14:-1 15:0.999999 16:-1 17:0.999999 18:-0.803922 19:-1 20:-0.904762 21:-1 22:-0.837838 23:-1 24:-1 25:-0.204545 
1.5 1:-0.652174 2:-0.907407 3:-1 4:-0.89899 5:-1 6:-1 7:-0.888412 8:-0.844156 9:-1 10:-0.960784 11:-0.966999 12:-1 13:-0.85313 14:-0.714286 15:0.999999 16:-0.95 17:-0.22051 18:-1 19:-1 20:-1 21:-1 22:-0.945946 23:-0.857143 24:-1 25:-0.75 
1.5 1:-0.478261 2:-0.777778 3:1 4:-0.959596 5:-0.721519 6:-0.990488 7:-0.879431 8:-0.974026 9:-0.990488 10:-0.686275 11:-0.962763 12:-0.764706 13:-0.883434 14:-1 15:0.999999 16:-1 17:0.299151 18:-0.960784 19:-1 20:-0.904762 21:-1 22:-0.837838 23:-0.714286 24:-1 25:-0.840909 
1.5 1:-0.652174 2:-0.814815 3:-1 4:-0.777778 5:-0.974684 6:-1 7:-0.888412 8:-0.688312 9:-1 10:-0.921569 11:-0.953069 12:-0.764706 13:-0.846545 14:-1 15:0.299151 16:-1 17:-0.467348 18:-0.803922 19:-0.818182 20:-0.714286 21:-1 22:-0.891892 23:-0.857143 24:-1 25:-0.363636 
1.5 1:0.0434783 2:0.0185185 3:1 4:-0.575758 5:0.0886076 6:-0.958018 7:-0.837794 8:-0.948052 9:-0.992671 10:-0.568627 11:-0.987814 12:-0.882353 13:-0.874846 14:-1 15:0.299151 16:-1 17:-0.46462 18:-1 19:-0.181818 20:-0.714286 21:-0.333333 22:-0.351351 23:-0.142857 24:-1 25:-0.0909091 
1.5 1:-0.217391 2:-0.259259 3:1 4:-0.737374 5:-0.0379747 6:-0.9976 7:-0.86865 8:-0.948052 9:-0.953069 10:-0.568627 11:-0.962763 12:-0.882353 13:-0.876911 14:-1 15:0.299151 16:-1 17:-0.91339 18:-0.921569 19:-0.636364 20:-0.904762 21:-0.555556 22:-0.135135 23:-0.428571 24:-1 25:-0.295455 
1.5 1:-0.565217 2:-0.814815 3:-1 4:-0.878788 5:-1 6:-1 7:-0.888412 8:-0.818182 9:-1 10:-0.960784 11:-0.962763 12:-0.882353 13:-0.852893 14:-0.571429 15:-0.22051 16:-1 17:-0.22051 18:-0.843137 19:-1 20:-1 21:-1 22:-0.837838 23:-1 24:-1 25:-0.636364 
1.5 1:-0.391304 2:-0.666667 3:-1 4:-0.69697 5:-0.924051 6:-0.992671 7:-0.881492 8:-0.974026 9:-0.992671 10:-0.882353 11:-0.953276 12:-0.647059 13:-0.846545 14:-1 15:0.999999 16:-0.95 17:0.999999 18:-1 19:-1 20:-0.904762 21:-0.555556 22:-0.72973 23:-0.571429 24:-1 25:-0.636364 
1.5 1:-0.478261 2:-0.833333 3:-1 4:-0.79798 5:-1 6:-0.97907 7:-0.885795 8:-0.792208 9:-0.97907 10:-0.960784 11:-0.955788 12:-0.764706 13:-0.883434 14:-1 15:-0.22051 16:-1 17:0.999999 18:-0.921569 19:-1 20:-0.904762 21:-0.777778 22:-0.837838 23:-0.714286 24:-1 25:-0.681818 
1.5 1:-0.565217 2:-0.703704 3:-1 4:-0.676768 5:-0.924051 6:-0.962671 7:-0.88391 8:-0.792208 9:-0.962671 10:-1 11:-0.966999 12:-1 13:-0.881499 14:-0.714286 15:-0.467348 16:-0.9 17:-0.467348 18:-0.647059 19:-0.727273 20:-0.809524 21:-0.555556 22:-0.891892 23:-1 24:-1 25:-0.840909 
1.5 1:-0.652174 2:-0.722222 3:-1 4:-0.676768 5:-0.898734 6:-0.98786 7:-0.87695 8:-0.584416 9:-0.98786 10:-0.843137 11:-0.966999 12:-1 13:-0.87017 14:-0.857143 15:0.999999 16:-0.85 17:0.299151 18:-1 19:-1 20:-1 21:-1 22:-0.675676 23:-0.428571 24:-1 25:-0.727273 
1.5 1:-0.217391 2:-0.203704 3:-1 4:-0.131313 5:-0.240506 6:-0.981372 7:-0.881649 8:-0.844156 9:-0.981372 10:-0.803922 11:-0.966999 12:-1 13:-0.883782 14:-1 15:0.299151 16:-0.95 17:-0.91339 18:-0.921569 19:-0.545455 20:-1 21:-0.777778 22:-0.405405 23:-0.571429 24:-1 25:-0.25 
1.5 1:-0.826087 2:-0.888889 3:-1 4:-0.858586 5:-1 6:-1 7:-0.888412 8:-0.792208 9:-1 10:-0.960784 11:-0.997535 12:-0.764706 13:-0.876911 14:-1 15:-0.22051 16:-1 17:-0.22051 18:-0.803922 19:-0.818182 20:-0.904762 21:-1 22:-0.891892 23:-1 24:-1 25:-0.75 
1.5 1:-0.304348 2:-0.148148 3:-1 4:-0.353535 5:-0.670886 6:-0.992671 7:-0.885861 8:-0.87013 9:-0.978742 10:-0.72549 11:-0.953069 12:-0.764706 13:-0.852758 14:-1 15:0.299151 16:-1 17:0.299151 18:-0.686275 19:-0.181818 20:-0.52381 21:-0.333333 22:-0.351351 23:-0.428571 24:-1 25:-0.25 
1.5 1:-0.391304 2:-0.407407 3:1 4:-0.818182 5:-0.620253 6:-0.995229 7:-0.883908 8:-0.454545 9:-0.995229 10:-0.411765 11:-0.990674 12:-0.764706 13:-0.876911 14:-1 15:-0.22051 16:-1 17:0.299151 18:-1 19:-0.909091 20:-0.904762 21:-1 22:-0.567568 24:-1 25:-0.159091 
1.5 1:-0.478261 2:-0.740741 3:1 4:-0.878788 5:-0.772152 6:-0.981367 7:-0.870824 8:-0.87013 9:-0.981372 10:-0.921569 11:-0.966999 12:-1 13:-0.876911 14:-1 15:-0.902823 16:-0.95 17:-0.902823 18:-1 19:-0.909091 20:-1 21:-0.777778 22:-0.783784 23:-0.714286 24:-1 25:-0.454545 
1.5 1:-0.304348 2:-0.666667 3:-1 4:-0.79798 5:-0.898734 6:-0.997576 7:-0.886124 8:-0.974026 9:-0.997576 10:-0.803922 11:-0.962511 12:-0.764706 13:-0.857526 14:-1 15:-0.22051 16:-0.8 17:-0.22051 18:-1 19:-0.909091 20:-0.904762 21:-0.333333 22:-0.783784 23:-0.714286 24:-0.333333 25:-0.727273 
1.5 1:-0.478261 2:-0.592593 3:-1 4:-0.555556 5:-0.493671 6:-0.955344 7:-0.881492 8:-0.688312 9:-0.992671 10:-0.607843 11:-0.962763 12:-0.882353 13:-0.876911 14:-1 15:-0.22051 16:-1 17:-0.22051 18:-1 19:-0.909091 20:-0.619048 21:-0.777778 22:-0.621622 23:-0.571429 24:-1 25:-0.431818 
1.5 1:-0.391304 2:-0.537037 3:-1 4:-0.59596 5:-0.924051 6:-0.97907 7:-0.886124 8:-0.974026 9:-0.97907 10:-0.764706 11:-0.966999 12:-1 13:-0.881675 14:-1 15:-0.22051 16:-0.95 17:0.999999 18:-1 19:-0.727273 20:-1 21:-0.555556 22:-0.513514 23:-0.571429 24:-1 25:-0.636364 
1.5 1:-0.391304 2:-0.611111 3:1 4:-0.878788 5:-0.64557 6:-0.992671 7:-0.837794 8:-0.896104 9:-0.958113 10:-0.882353 11:-0.962763 12:-0.882353 13:-0.881369 14:-0.857143 15:-0.467348 16:-0.35 17:-0.467348 18:-0.803922 19:-0.909091 20:-0.904762 21:-0.555556 22:-0.783784 23:-1 24:-1 25:-0.568182 
1.5 1:-0.478261 2:-0.722222 3:-1 4:-0.676768 5:-0.898734 6:-0.97907 7:-0.86865 8:-0.714286 9:-0.97907 10:-0.960784 11:-0.966999 12:-1 13:-0.883782 14:-1 15:0.999999 16:-0.9 17:0.999999 18:-1 19:-1 20:-0.809524 21:-1 22:-0.837838 23:-0.714286 24:-1 25:-0.772727 
1.5 1:-0.0434783 2:-0.555556 3:-1 4:-0.515152 5:-0.974684 6:-0.981372 7:-0.884021 8:-0.87013 9:-0.981372 10:-0.960784 11:-0.987814 12:-0.764706 13:-0.883434 14:-1 15:0.299151 16:-1 17:0.739138 18:-0.490196 19:-0.818182 20:-0.904762 21:0.111111 22:-0.837838 23:-0.714286 24:-1 25:-0.613636 
1.5 1:0.0434783 2:0.0555556 3:-1 4:-0.79798 5:-0.949367 6:-0.992671 7:-0.868342 8:-0.896104 9:-0.992671 10:-0.921569 11:-0.987814 12:-0.882353 13:-0.846545 14:-1 15:0.999999 16:-0.6 17:0.999999 18:-1 19:-0.545455 20:-0.809524 21:-0.555556 22:0.027027 23:-0.571429 24:-1 25:-0.25 
1.5 1:-0.565217 2:-0.518519 3:-1 4:-0.555556 5:-0.64557 6:-0.997256 7:-0.848777 8:-0.87013 9:-0.997256 10:-0.921569 11:-0.966999 12:-1 13:-0.868217 14:-0.428571 15:-0.467348 16:-0.95 17:-0.467348 18:-0.803922 19:-0.636364 20:-1 21:-0.777778 22:-0.513514 23:-0.857143 24:-1 25:-0.613636 
1.5 1:-0.73913 2:-0.851852 3:-1 4:-0.818182 5:-0.848101 6:-0.98781 7:-0.876903 8:-0.766234 9:-0.98781 10:-0.764706 11:-0.966999 12:-1 13:-0.876911 14:-1 15:-0.22051 16:-0.95 17:-0.22051 18:-1 19:-1 20:-1 21:-1 22:-0.837838 23:-0.857143 24:-1 25:-0.477273 
1.5 1:-0.304348 2:-0.351852 3:1 4:-0.818182 5:-0.468354 6:-0.981367 7:-0.870819 8:-0.974026 9:-0.95072 10:-0.882353 11:-0.969741 12:-0.764706 13:-0.846545 14:-1 15:0.299151 16:-1 17:0.299151 18:-0.843137 19:-0.636364 20:-0.904762 21:-0.555556 22:-0.513514 23:-0.142857 24:-1 25:-0.431818 
1.5 1:-0.391304 2:-0.333333 3:-1 4:-0.292929 5:-0.64557 6:-0.946391 7:-0.859666 8:-0.974026 9:-0.978743 10:-0.647059 11:-0.987814 12:-0.882353 13:-0.846545 14:-1 15:-0.46462 16:-0.4 17:1 18:-1 19:-0.727273 20:-1 21:-0.111111 22:-0.405405 23:-0.285714 24:-1 25:-0.409091 
1.5 1:-0.478261 2:-0.425926 3:-1 4:-0.434343 5:-0.873418 6:-0.978743 7:-0.885861 8:-0.688312 9:-0.978743 10:-0.960784 11:-0.992997 12:-0.764706 13:-0.853134 14:-1 15:0.0472108 16:-0.7 17:0.299151 18:-0.490196 19:-0.545455 20:-0.904762 21:-0.555556 22:-0.459459 23:-0.857143 24:-1 25:-0.522727 
1.5 1:-0.652174 2:-0.87037 3:1 4:-0.959596 5:-0.822785 6:-0.995229 7:-0.883908 8:-0.922078 9:-0.995229 10:-0.921569 11:-0.966999 12:-1 13:-0.85313 14:-0.428571 15:-0.46462 16:-0.85 17:-0.46462 18:-1 19:-1 20:-1 21:-1 22:-0.945946 23:-1 24:-1 25:-0.954545 
1.5 1:-0.478261 2:-0.666667 3:-1 4:-0.79798 5:-0.873418 6:-0.997228 7:-0.852883 8:-0.974026 9:-0.962371 10:-0.843137 11:-0.987814 12:-0.882353 13:-0.881369 14:-0.857143 15:-0.22051 16:-0.95 17:0.299151 18:-0.960784 19:-0.909091 20:-1 21:-0.333333 22:-0.72973 23:-0.571429 24:-1 25:-0.568182 
1.5 1:-0.391304 2:-0.537037 3:1 4:-0.858586 5:-0.468354 6:-0.978743 7:-0.868341 8:-0.87013 9:-0.969555 10:-0.921569 11:-0.962763 12:-0.764706 13:-0.885828 14:-1 15:0.999999 16:-1 17:-0.91339 18:-1 19:-0.818182 20:-0.809524 21:-0.777778 22:-0.621622 23:-0.571429 24:-1 25:-0.613636 
1.5 1:-0.391304 2:-0.814815 3:-1 4:-0.858586 5:-0.949367 6:-0.99758 7:-0.844295 8:-0.948052 9:-0.99758 10:-0.921569 11:-0.962763 12:-0.882353 13:-0.881369 14:-0.857143 15:-0.22051 16:-1 17:-0.22051 18:-0.882353 19:-1 20:-1 21:-0.555556 22:-0.891892 23:-1 24:-1 25:-0.704545 
1.5 1:-0.391304 2:-0.759259 3:-1 4:-0.717172 5:-0.949367 6:-1 7:-0.888412 8:-0.61039 9:-1 10:-0.882353 11:-0.966999 12:-1 13:-0.853134 14:-1 15:-0.467348 16:-0.95 17:-0.22051 18:-1 19:-0.818182 20:-1 21:-1 22:-0.72973 23:-0.714286 24:-1 25:-0.363636 
1.5 1:-0.304348 2:-0.148148 3:-1 4:-0.353535 5:-0.873418 6:-0.992671 7:-0.885861 8:-0.87013 9:-0.992671 10:-0.843137 11:-0.953069 12:-0.764706 13:-0.87465 14:-0.857143 15:0.299151 16:-1 17:0.299151 18:-1 19:-0.181818 20:-0.52381 21:-0.333333 22:-0.351351 23:-0.428571 24:-1 25:-0.25 
1.5 1:-0.652174 2:-0.703704 3:-1 4:-0.79798 5:-0.974684 6:-0.946488 7:-0.879516 8:-0.896104 9:-0.946488 10:-0.960784 11:-0.966999 12:-1 13:-0.857526 14:-1 15:-0.22051 16:-0.95 17:-0.22051 18:-0.764706 19:-0.909091 20:-1 21:-0.555556 22:-0.837838 23:-0.857143 24:-1 25:-0.795455 
1.5 1:0.0434783 2:-0.481481 3:1 4:-0.838384 5:-0.620253 6:-0.981372 7:-0.870824 8:-0.922078 9:-0.992671 10:-0.960784 11:-0.990488 12:-0.882353 13:-0.874846 14:-1 15:0.999999 16:-0.95 17:-0.467348 18:-1 19:-0.727273 20:-0.714286 21:-0.555556 22:-0.783784 23:-0.571429 24:-1 25:-0.454545 
1.5 1:-0.478261 2:-0.722222 3:-1 4:-0.676768 5:-0.924051 6:-1 7:-0.888412 8:-0.558442 9:-1 10:-0.843137 11:-0.962763 12:-0.764706 13:-0.852758 14:-1 15:0.999999 16:-1 17:-0.22051 18:-1 19:-0.818182 20:-0.904762 21:-1 22:-0.837838 23:-0.714286 24:-1 25:-0.431818 
1.5 1:-0.391304 2:-0.703704 3:-1 4:-0.717172 5:-0.848101 6:-0.978743 7:-0.868342 8:-0.818182 9:-0.978743 10:-0.960784 11:-0.966999 12:-1 13:-0.839782 14:-1 15:0.999999 16:-1 17:0.999999 18:-1 19:-1 20:-0.904762 21:-1 22:-0.567568 23:-0.571429 24:-1 25:-0.75 
1.5 1:-0.652174 2:-0.814815 3:-1 4:-0.777778 5:-0.898734 6:-0.992671 7:-0.881492 8:-0.714286 9:-0.992671 10:-0.843137 11:-0.966999 12:-1 13:-0.876911 14:-1 15:-0.467348 16:-0.95 17:0.909909 18:-1 19:-1 20:-1 21:-1 22:-0.837838 23:-0.714286 24:-1 25:-0.545455 
1.5 1:-0.652174 2:-0.666667 3:-1 4:-0.616162 5:-0.696203 6:-0.98786 7:-0.883906 8:-0.87013 9:-0.995227 10:-0.921569 11:-0.96709 12:-0.764706 13:-0.839782 14:-1 15:-0.22051 16:-0.9 17:-0.22051 18:-0.882353 19:-0.818182 20:-0.904762 21:-0.777778 22:-0.621622 23:-0.714286 24:-1 25:-0.568182 
1.5 1:-0.478261 2:-0.685185 3:-1 4:-0.636364 5:-0.848101 6:-0.985695 7:-0.837886 8:-0.766234 9:-0.985695 10:-0.882353 11:-0.966999 12:-1 13:-0.853044 14:-1 15:0.999999 16:-0.95 17:-0.82678 18:-0.960784 19:-0.909091 20:-0.904762 21:-0.777778 22:-0.783784 23:-0.714286 24:-1 25:-0.75 
1.5 1:-0.652174 2:-0.592593 3:1 4:-0.919192 5:-0.620253 6:-0.946488 7:-0.837886 8:-0.87013 9:-0.946488 10:-0.764706 11:-0.981042 12:-0.882353 13:-0.88137 14:-0.857143 15:0.299151 16:-1 17:-0.22051 18:-0.960784 19:-0.727273 20:-0.809524 21:-1 22:-0.783784 23:-0.857143 24:-1 25:-0.75 
1.5 1:-0.304348 2:-0.148148 3:-1 4:-0.353535 5:-0.873418 6:-0.992671 7:-0.885861 8:-0.87013 9:-0.992671 10:-0.843137 11:-0.953069 12:-0.764706 13:-0.87465 14:-0.857143 15:0.299151 16:-1 17:0.299151 18:-1 19:-0.181818 20:-0.52381 21:-0.333333 22:-0.351351 23:-0.428571 24:-1 25:-0.25 
1.5 1:-0.391304 2:-0.740741 3:-1 4:-0.717172 5:-0.949367 6:-0.995349 7:-0.881492 8:-0.87013 9:-0.995349 10:-0.764706 11:-0.953301 12:-0.764706 13:-0.876911 14:-1 15:-0.467348 16:-1 17:-0.467348 18:-0.72549 19:-0.727273 20:-0.809524 21:-0.777778 22:-0.891892 23:-0.857143 24:-1 25:-0.886364 
1.5 1:-0.304348 2:0.111111 3:1 4:-0.858586 5:0.518987 6:-0.981372 7:-0.870824 8:-0.896104 9:-0.985832 10:-0.411765 11:-0.966999 12:-1 13:-0.881522 14:-0.714286 15:0.999999 16:-1 17:0.299151 18:-1 19:-0.818182 20:-1 21:-0.333333 22:0.135135 23:0.142857 24:-0.333333 25:0.363636 
1.5 1:0.304348 2:-0.222222 3:-1 4:-0.474747 5:-0.620253 6:-0.978743 7:-0.87082 8:-0.922078 9:-0.981367 10:-0.921569 11:-0.966999 12:-1 13:-0.876911 14:-1 15:-0.22051 16:-1 17:-0.467348 18:-0.686275 19:-0.545455 20:-0.809524 21:0.111111 22:-0.189189 23:-0.714286 24:-1 25:-0.272727 
1.5 1:-0.478261 2:-0.777778 3:1 4:-0.939394 5:-0.772152 6:-0.946391 7:-0.837794 8:-0.974026 9:-0.992671 10:-0.843137 11:-0.955325 12:-0.764706 13:-0.844197 14:-0.857143 15:0.999999 16:-1 17:-0.467348 18:-0.960784 19:-1 20:-0.904762 21:-0.777778 22:-0.837838 23:-0.714286 24:-1 25:-0.840909 
1.5 1:-0.565217 2:-0.703704 3:-1 4:-0.79798 5:-0.924051 6:-0.978764 7:-0.868361 8:-0.896104 9:-0.978764 10:-0.882353 11:-0.962763 12:-0.882353 13:-0.846545 14:-1 15:-0.22051 16:-1 17:0.299151 18:-1 19:-1 20:-1 21:-1 22:-0.72973 23:-0.571429 24:-1 25:-0.545455 
1.5 1:-0.130435 2:-0.240741 3:-1 4:-0.454545 5:-0.924051 6:-0.950719 7:-0.876904 8:-0.948052 9:-0.950719 10:-0.960784 11:-0.962763 12:-0.882353 13:-0.852758 14:-0.857143 15:-0.22051 16:-1 17:-0.22051 18:-0.137255 19:-0.727273 20:-0.904762 21:0.111111 22:-0.351351 23:-0.428571 24:-1 25:-0.227273 
1.5 1:-0.304348 2:-0.296296 3:1 4:-0.777778 5:-0.493671 6:-0.946391 7:-0.837794 8:-0.974026 9:-0.992671 10:-0.960784 11:-0.969651 12:-0.764706 13:-0.846545 14:-1 15:0.999999 16:-1 17:0.396336 18:-0.843137 19:-0.363636 20:-0.809524 21:-0.555556 22:-0.459459 23:-0.571429 24:-1 25:-0.431818 
1.5 1:-0.652174 2:-0.777778 3:-1 4:-0.737374 5:-0.848101 6:-0.978739 7:-0.881561 8:-0.714286 9:-0.992744 10:-0.843137 11:-0.962763 12:-0.647059 13:-0.883434 14:-1 15:0.999999 16:-0.95 17:0.299151 18:-1 19:-1 20:-0.904762 21:-0.777778 22:-0.837838 23:-0.714286 24:-1 25:-0.204545 
1.5 1:-0.130435 2:-0.444444 3:-1 4:-0.474747 5:-0.848101 6:-0.962369 7:-0.87082 8:-0.974026 9:-0.962369 10:-0.72549 11:-0.992836 12:-0.764706 13:-0.876911 14:-1 15:-0.22051 16:-1 17:-0.22051 18:-0.921569 19:-0.818182 20:-0.904762 21:-0.333333 22:-0.567568 23:-0.714286 24:-1 25:-0.5 
1.5 1:-0.391304 2:-0.388889 3:1 4:-0.79798 5:-0.518987 6:-0.997228 7:-0.885795 8:-0.896104 9:-0.99486 10:-1 11:-0.992671 12:-1 13:-0.879152 14:-0.714286 15:-0.22051 16:-0.95 17:-0.22051 18:-0.764706 19:-0.454545 20:-0.238095 21:-0.333333 22:-0.567568 23:-0.857143 24:-1 25:-0.272727 
1.5 1:-0.565217 2:-0.833333 3:-1 4:-0.79798 5:-0.949367 6:-0.997576 7:-0.886124 8:-0.896104 9:-0.997576 10:-0.843137 11:-0.966999 12:-1 13:-0.879175 14:-0.714286 15:0.999999 16:-0.8 17:-0.22051 18:-1 19:-1 20:-1 21:-1 22:-0.837838 23:-0.857143 24:-1 25:-0.727273 
1.5 1:-0.73913 2:-0.851852 3:1 4:-0.939394 5:-0.772152 6:-0.978743 7:-0.844099 8:-0.948052 9:-0.953069 10:-0.843137 11:-0.962763 12:-0.882353 13:-0.883434 14:-1 15:-0.22051 16:-1 17:0.999999 18:-0.921569 19:-1 20:-1 21:-0.777778 22:-0.891892 23:-0.857143 24:-1 25:-0.75 
1.5 1:-0.304348 2:-0.148148 3:-1 4:-0.191919 5:-0.898734 6:-0.992671 7:-0.886124 8:-0.974026 9:-0.992671 10:-0.843137 11:-0.966999 12:-1 13:-0.881675 14:-1 15:-0.22051 16:-1 17:0.999999 18:-0.921569 19:-0.272727 20:-0.619048 21:-0.111111 22:-0.405405 23:-0.428571 24:-0.333333 25:-0.272727 
1.5 1:-0.391304 2:-0.592593 3:1 4:-0.777778 5:-0.594937 6:-0.992671 7:-0.86834 8:-0.896104 9:-0.978742 10:-0.960784 11:-0.962763 12:-0.882353 13:-0.881369 14:-0.857143 15:0.299151 16:-1 17:0.299151 18:-0.803922 19:-0.727273 20:-0.904762 21:-0.777778 22:-0.675676 23:-1 24:-1 25:-0.636364 
1.5 1:-0.565217 2:-0.703704 3:-1 4:-0.676768 5:-0.848101 6:-0.958022 7:-0.848777 8:-0.87013 9:-0.958022 10:-0.803922 11:-0.962763 12:-0.882353 13:-0.874846 14:-1 15:-0.22051 16:-1 17:0.999999 18:-1 19:-0.909091 20:-1 21:-1 22:-0.675676 23:-0.714286 24:-1 25:-0.75 
1.5 1:-0.304348 2:-0.351852 3:1 4:-0.757576 5:-0.493671 6:-0.981372 7:-0.870824 8:-0.74026 9:-0.981372 10:-0.921569 11:-0.962763 12:-0.764706 13:-0.881369 14:-0.857143 15:0.999999 16:-1 17:0.299151 18:-0.921569 19:-0.818182 20:-0.904762 21:-0.555556 22:-0.513514 24:-1 25:-0.386364 
1.5 1:-0.565217 2:-0.703704 3:1 4:-0.919192 5:-0.56962 6:-0.978739 7:-0.868337 8:-0.974026 9:-0.978739 10:-0.529412 11:-0.969418 12:-0.764706 13:-0.876911 14:-1 15:-0.467348 16:-1 17:0.0472108 18:-0.921569 19:-0.818182 20:-0.714286 21:-1 22:-0.783784 23:-0.857143 24:-1 25:-0.772727 
1.5 1:-0.304348 2:-0.611111 3:-1 4:-0.636364 5:-0.848101 6:-0.97907 7:-0.87082 8:-0.974026 9:-0.97907 10:-0.882353 11:-0.962763 12:-0.764706 13:-0.883782 14:-1 15:0.999999 16:-1 17:0.299151 18:-1 19:-0.818182 20:-0.904762 21:-0.777778 22:-0.675676 23:-0.571429 24:-1 25:-0.704545 
1.5 1:-0.73913 2:-0.740741 3:1 4:-0.979798 5:-0.721519 6:-0.958019 7:-0.848773 8:-0.714286 9:-0.958019 10:-0.960784 11:-0.962763 12:-0.882353 13:-0.876911 14:-1 15:-0.22051 16:-1 17:-0.22051 18:-0.960784 19:-0.909091 20:-0.619048 21:-1 22:-0.783784 23:-0.714286 24:-1 25:-0.818182 
1.5 1:-0.652174 2:-0.851852 3:-1 4:-0.838384 5:-0.924051 6:-0.99758 7:-0.886128 8:-0.792208 9:-0.99758 10:-0.882353 11:-0.966999 12:-1 13:-0.85313 14:-0.714286 15:0.999999 16:-0.95 17:-0.22051 18:-1 19:-1 20:-1 21:-1 22:-0.945946 23:-0.857143 24:-1 25:-0.840909 
1.5 1:-0.73913 2:-0.851852 3:-1 4:-0.818182 5:-0.873418 6:-1 7:-0.888412 8:-0.74026 9:-1 10:-0.764706 11:-0.995227 12:-0.529412 13:-0.883782 14:-1 15:-0.22051 16:-0.9 17:-0.22051 18:-1 19:-0.818182 20:-0.904762 21:-1 22:-0.891892 23:-1 24:-1 25:-0.659091 
1.5 1:-0.304348 2:-0.796296 3:-1 4:-0.757576 5:-0.974684 6:-0.990348 7:-0.879298 8:-0.688312 9:-0.990348 10:-0.960784 11:-0.987814 12:-0.764706 13:-0.885828 14:-1 15:0.299151 16:-1 17:-0.22051 18:-0.960784 19:-1 20:-0.904762 21:-1 22:-0.837838 23:-0.571429 24:-1 25:-0.568182 
1.5 1:-0.826087 2:-0.888889 3:-1 4:-0.858586 5:-0.974684 6:-1 7:-0.888412 8:-0.792208 9:-1 10:-0.921569 11:-0.966999 12:-1 13:-0.853044 14:-1 15:-0.22051 16:-0.95 17:-0.22051 18:-0.882353 19:-1 20:-1 21:-1 22:-0.837838 23:-1 24:-1 25:-0.795455 
1.5 1:-0.478261 2:-0.611111 3:-1 4:-0.555556 5:-0.772152 6:-0.97907 7:-0.841881 8:-0.87013 9:-0.97907 10:-0.764706 11:-0.953069 12:-0.764706 13:-0.852758 14:-0.857143 15:0.299151 16:-1 17:0.999999 18:-0.803922 19:-0.636364 20:-0.714286 21:-0.777778 22:-0.72973 23:-0.714286 24:-1 25:-0.704545 
1.5 1:-0.478261 2:-0.740741 3:1 4:-0.89899 5:-0.696203 6:-0.97907 7:-0.86865 8:-0.922078 9:-0.962371 10:-0.921569 11:-0.953276 12:-0.764706 13:-0.846545 14:-1 15:0.999999 16:-0.95 17:0.739138 18:-1 19:-0.818182 20:-0.904762 21:-0.777778 22:-0.837838 23:-0.571429 24:-1 25:-0.75 
1.5 1:-0.391304 2:-0.407407 3:-1 4:-0.393939 5:-0.746835 6:-0.997256 7:-0.877146 8:-0.818182 9:-0.997256 10:-0.568627 11:-0.953069 12:-0.882353 13:-0.835391 14:-0.857143 15:-0.467348 16:-1 17:-0.91339 18:-1 19:-0.818182 20:-1 21:-0.777778 22:-0.567568 23:-0.571429 24:-1 25:-0.454545 
1.5 1:-0.304348 2:-0.0925926 3:1 4:-0.939394 5:-0.0632911 6:-0.978743 7:-0.868342 8:-0.922078 9:-0.958023 10:-0.921569 11:-0.987814 12:-0.882353 13:-0.859283 14:-0.714286 15:0.299151 16:-1 17:-0.22051 18:-0.803922 19:-0.636364 20:-0.904762 21:-0.555556 22:-0.297297 23:-0.142857 24:-1 
1.5 1:-0.391304 2:-0.5 3:1 4:-1 5:-0.291139 6:-0.9976 7:-0.886146 8:-0.922078 9:-0.978743 10:-0.882353 11:-0.966999 12:-1 13:-0.876911 14:-1 15:0.999999 16:-0.95 17:-0.22051 18:-0.137255 19:-0.636364 20:-0.809524 21:-0.555556 22:-0.513514 23:-0.857143 24:-1 25:-0.409091 
1.5 1:-0.652174 2:-0.796296 3:1 4:-0.919192 5:-0.772152 6:-0.946391 7:-0.837794 8:-0.974026 9:-0.953069 10:-0.882353 11:-0.966999 12:-1 13:-0.879175 14:-1 15:0.999999 16:-0.95 17:-0.91339 18:-1 19:-1 20:-1 21:-0.777778 22:-0.837838 23:-0.714286 24:-1 25:-0.818182 
1.5 1:-0.565217 2:-0.666667 3:1 4:-0.878788 5:-0.544304 6:-0.997299 7:-0.885861 8:-0.844156 9:-0.997299 10:-0.294118 11:-0.966999 12:-1 13:-0.848654 14:-0.857143 15:0.299151 16:-0.95 17:-0.91339 18:-0.882353 19:-1 20:-1 21:-1 22:-0.72973 23:-0.285714 24:-1 25:-0.227273 
1.5 1:-0.478261 2:-0.296296 3:1 4:-0.979798 5:-0.367089 6:-0.962369 7:-0.85288 8:-0.636364 9:-0.990488 10:-0.921569 11:-0.966999 12:-1 13:-0.853134 14:-1 15:-0.467348 16:-1 17:0.739138 18:-0.882353 19:-0.727273 20:-0.619048 21:-0.555556 22:-0.243243 23:-0.571429 24:-0.333333 25:-0.295455 
1.5 1:-0.478261 2:-0.648148 3:-1 4:-0.616162 5:-0.873418 6:-0.997228 7:-0.885795 8:-0.506494 9:-0.997228 10:-0.803922 11:-0.962763 12:-0.882353 13:-0.846545 14:-1 15:0.999999 16:-0.95 17:0.299151 18:-0.960784 19:-0.909091 20:-1 21:-1 22:-0.675676 23:-0.571429 24:-1 
1.5 1:-0.478261 2:-0.611111 3:-1 4:-0.575758 5:-0.746835 6:-0.978739 7:-0.868337 8:-0.454545 9:-0.978739 10:-0.607843 11:-0.962763 12:-0.882353 13:-0.881499 14:-1 15:0.299151 16:-0.9 17:-0.22051 18:-1 19:-1 20:-0.904762 21:-1 22:-0.72973 23:-0.428571 24:-1 25:-0.477273 
1.5 1:-0.217391 2:-0.314815 3:1 4:-0.919192 5:-0.392405 6:-0.946391 7:-0.837794 8:-0.766234 9:-0.946488 10:-0.960784 11:-0.958112 12:-0.882353 13:-0.885828 14:-1 15:0.999999 16:-0.5 17:-0.82678 18:-0.921569 19:-0.545455 20:-1 21:-0.111111 22:-0.621622 23:-0.857143 24:-1 25:-0.545455 
1.5 1:-0.217391 2:-0.111111 3:-1 4:-0.373737 5:-0.670886 6:-0.946391 7:-0.837794 8:-0.948052 9:-0.946391 10:-0.607843 11:-0.981042 12:-0.882353 13:-0.872519 14:-0.857143 15:-0.467348 16:-1 17:-0.22051 18:-0.882353 19:-0.363636 20:-0.619048 21:-0.777778 22:-0.513514 23:-0.428571 24:-1 25:-0.409091 
1.5 1:-0.391304 2:-0.537037 3:1 4:-0.737374 5:-0.443038 6:-0.990488 7:-0.844099 8:-0.922078 9:-0.953069 10:-0.764706 11:-0.987814 12:-0.882353 13:-0.868171 14:-1 15:0.299151 16:-0.95 17:0.999999 18:-0.843137 19:-0.545455 20:-0.809524 21:-0.777778 22:-0.675676 23:-0.714286 24:-1 25:-0.613636 
1.5 1:-0.73913 2:-0.851852 3:1 4:-0.979798 5:-0.873418 6:-1 7:-0.888412 8:-0.948052 9:-1 10:-0.764706 11:-0.962604 12:-0.882353 13:-0.846545 14:-1 15:-1 16:-0.95 17:-1 18:-0.803922 19:-0.818182 20:-1 21:-1 22:-0.837838 23:-1 24:-1 25:-0.431818 
1.5 1:-0.304348 2:-0.592593 3:-1 4:-0.656566 5:-0.620253 6:-0.992671 7:-0.870819 8:-0.948052 9:-0.981367 10:-0.843137 11:-0.962763 12:-0.882353 13:-0.846545 14:-1 15:-0.22051 16:-1 17:-0.22051 18:-1 19:-1 20:-1 21:-0.777778 22:-0.621622 23:-0.571429 24:-1 25:-0.477273 
1.5 1:-0.73913 2:-0.777778 3:-1 4:-0.737374 5:-0.974684 6:-1 7:-0.888412 8:-0.636364 9:-1 10:-0.921569 11:-0.966999 12:-1 13:-0.886002 14:-0.857143 15:-0.22051 16:-0.8 17:-0.22051 18:-0.764706 19:-0.818182 20:-0.904762 21:-1 22:-0.783784 23:-1 24:-1 25:-0.227273 
1.5 1:-0.130435 2:-0.240741 3:-1 4:-0.474747 5:-0.594937 6:-0.97874 7:-0.879516 8:-0.844156 9:-0.990578 10:-0.843137 11:-0.966999 12:-1 13:-0.876911 14:-1 15:0.999999 16:-0.95 17:-0.91339 18:-1 19:-0.545455 20:-0.904762 21:-0.333333 22:-0.297297 24:-1 25:-0.318182 
1.5 1:-0.478261 2:-0.703704 3:-1 4:-0.676768 5:-1 6:-0.981367 7:-0.846512 8:-0.792208 9:-0.981367 10:-0.764706 11:-0.966999 12:-1 13:-0.879175 14:-1 15:-0.22051 16:-0.95 17:-0.91339 18:-0.921569 19:-0.909091 20:-1 21:-0.777778 22:-0.783784 23:-0.714286 24:-1 25:-0.795455 
1.5 1:-0.478261 2:-0.62963 3:1 4:-1 5:-0.670886 6:-0.978742 7:-0.86834 8:-0.922078 9:-0.969741 10:-0.764706 11:-0.962763 12:-0.882353 13:-0.874846 14:-1 15:0.999999 16:-0.7 17:-0.22051 18:-0.882353 19:-0.636364 20:-0.619048 21:-0.777778 22:-0.675676 23:-0.857143 24:-1 25:-0.568182 
1.5 1:-0.304348 2:-0.537037 3:-1 4:-0.494949 5:-0.670886 6:-0.986021 7:-0.868361 8:-0.87013 9:-0.986021 10:-0.803922 11:-0.966999 12:-1 13:-0.876911 14:-1 15:-0.22051 16:-0.95 17:0.999999 18:-0.960784 19:-0.727273 20:-0.904762 21:-0.777778 22:-0.567568 23:-0.571429 24:-1 25:-0.5 
1.5 1:-0.565217 2:-0.703704 3:-1 4:-0.777778 5:-0.924051 6:-1 7:-0.888412 8:-0.688312 9:-1 10:-0.843137 11:-0.988231 12:-0.764706 13:-0.852758 14:-0.857143 15:-0.22051 16:-1 17:0.299151 18:-1 19:-0.909091 20:-0.904762 21:-1 22:-0.72973 23:-0.571429 24:-1 25:-0.636364 
1.5 1:-0.217391 2:-0.592593 3:-1 4:-0.555556 5:-0.924051 6:-0.985763 7:-0.888412 8:-0.766234 9:-0.985763 10:-0.843137 11:-0.992671 12:-1 13:-0.846545 14:-1 15:0.999999 16:-0.9 17:0.299151 18:-1 19:-0.727273 20:-1 21:-0.555556 22:-0.72973 23:-0.714286 24:-1 25:-0.75 
1.5 1:-0.73913 2:-0.814815 3:1 4:-0.979798 5:-0.898734 6:-0.955694 7:-0.846579 8:-0.974026 9:-0.955694 10:-0.843137 11:-0.966999 12:-1 13:-0.881499 14:-1 15:-1 16:-0.95 17:-1 18:-0.843137 19:-0.909091 20:-1 21:-1 22:-0.783784 23:-1 24:-1 25:-0.863636 
1.5 1:-0.478261 2:-0.722222 3:-1 4:-0.676768 5:-0.924051 6:-1 7:-0.888412 8:-0.558442 9:-1 10:-0.843137 11:-0.962763 12:-0.764706 13:-0.852758 14:-1 15:0.999999 16:-1 17:-0.22051 18:-1 19:-0.818182 20:-0.904762 21:-1 22:-0.837838 23:-0.714286 24:-1 25:-0.431818 
1.5 1:-0.478261 2:-0.611111 3:-1 4:-0.555556 5:-0.873418 6:-0.955322 7:-0.846227 8:-0.428571 9:-0.955322 10:-0.803922 11:-0.966999 12:-1 13:-0.881675 14:-1 15:0.999999 16:-0.95 17:0.299151 18:-1 19:-0.818182 20:-1 21:-1 22:-0.621622 23:-0.428571 24:-1 25:-0.272727 
1.5 1:-0.565217 2:-0.722222 3:-1 4:-0.676768 5:-0.822785 6:-0.990578 7:-0.879516 8:-0.792208 9:-0.990578 10:-0.960784 11:-0.966999 12:-1 13:-0.881499 14:-1 15:0.999999 16:-0.9 17:0.299151 18:-0.921569 19:-1 20:-0.904762 21:-1 22:-0.675676 23:-0.571429 24:-1 25:-0.613636 
1.5 1:-0.565217 2:-0.648148 3:-1 4:-0.616162 5:-0.797468 6:-0.995349 7:-0.884021 8:-0.844156 9:-0.995349 10:-0.803922 11:-0.962763 12:-0.882353 13:-0.876911 14:-1 15:-0.22051 16:-0.95 17:0.299151 18:-0.72549 19:-0.727273 20:-0.809524 21:-1 22:-0.72973 23:-0.857143 24:-1 25:-0.295455 
1.5 1:-0.217391 2:-0.351852 3:-1 4:-0.313131 5:-0.848101 6:-0.997256 7:-0.885861 8:-0.402597 9:-0.997256 10:-0.843137 11:-0.962763 12:-0.882353 13:-0.877154 14:-0.714286 15:-0.467348 16:-0.95 17:-0.467348 18:-0.803922 19:-0.727273 20:-0.904762 21:-0.777778 22:-0.621622 23:-0.285714 24:-1 25:-0.431818 
1.5 1:-0.73913 2:-0.777778 3:1 4:-0.939394 5:-0.873418 6:-0.978742 7:-0.868341 8:-0.974026 9:-0.978742 10:-0.960784 11:-0.962763 12:-0.764706 13:-0.885828 14:-1 15:0.999999 16:-1 17:0.999999 18:-0.921569 19:-0.909091 20:-0.904762 21:-1 22:-0.837838 23:-0.857143 24:-1 25:-0.886364 
1.5 1:-0.478261 2:-0.425926 3:-1 4:-0.656566 5:-0.696203 6:-0.965065 7:-0.855427 8:-0.558442 9:-0.965065 10:-0.529412 11:-0.966999 12:-1 13:-0.876911 14:-1 15:0.999999 16:-1 17:-0.22051 18:-1 19:-0.818182 20:-0.904762 21:-1 22:-0.405405 23:-0.285714 24:-1 25:-0.272727 
1.5 1:-0.826087 2:-0.925926 3:-1 4:-0.89899 5:-0.974684 6:-1 7:-0.888412 8:-0.844156 9:-1 10:-0.921569 11:-0.966999 12:-1 13:-0.881524 14:-0.857143 15:-0.22051 16:-0.95 17:-0.22051 18:-0.960784 19:-1 20:-1 21:-1 22:-0.945946 23:-1 24:-1 25:-0.545455 
1.5 1:-0.304348 2:-0.555556 3:1 4:-0.777778 5:-0.392405 6:-0.981372 7:-0.870824 8:-0.974026 9:-0.995321 10:-0.607843 11:-0.966999 12:-1 13:-0.879175 14:-1 15:0.299151 16:-0.85 17:0.299151 18:-0.803922 19:-0.909091 20:-1 21:-0.555556 22:-0.567568 23:-0.571429 24:-1 25:-0.590909 
1.5 1:-0.304348 2:-0.666667 3:-1 4:-0.616162 5:-0.924051 6:-0.992671 7:-0.848777 8:-0.74026 9:-0.992671 10:-0.960784 11:-0.962763 12:-0.647059 13:-0.846545 14:-1 15:0.999999 16:-0.95 17:0.999999 18:-1 19:-1 20:-0.904762 21:-0.777778 22:-0.675676 23:-0.428571 24:-1 25:-0.613636 
1.5 1:-0.478261 2:-0.592593 3:-1 4:-0.535354 5:-0.949367 6:-0.98786 7:-0.881492 8:-0.428571 9:-0.992671 10:-0.960784 11:-0.962763 12:-0.764706 13:-0.852758 14:-0.857143 15:0.999999 16:-1 17:0.299151 18:-0.568627 19:-0.636364 20:-0.714286 21:-0.777778 22:-0.783784 23:-0.571429 24:-1 25:-0.590909 
1.5 1:-0.478261 2:-0.592593 3:1 4:-0.858586 5:-0.443038 6:-0.978743 7:-0.868342 8:-0.974026 9:-0.978743 10:-0.45098 11:-0.957788 12:-0.764706 13:-0.883782 14:-1 15:-0.22051 16:-1 17:-0.22051 18:-0.411765 19:-0.727273 20:-0.809524 21:-1 22:-0.72973 23:-0.857143 24:-1 25:-0.704545 
1.5 1:-0.130435 2:-0.537037 3:1 4:-0.919192 5:-0.493671 6:-0.992671 7:-0.881492 8:-0.896104 9:-0.958023 10:-0.843137 11:-0.987814 12:-0.882353 13:-0.881369 14:-0.714286 15:0.299151 16:-1 17:0.299151 18:-1 19:-0.818182 20:-0.904762 21:-0.777778 22:-0.72973 23:-0.428571 24:-1 25:-0.5 
1.5 1:-0.478261 2:-0.62963 3:-1 4:-0.59596 5:-0.822785 6:-0.983506 7:-0.886124 8:-0.974026 9:-0.97907 10:-0.882353 11:-0.966999 12:-1 13:-0.852889 14:-0.857143 15:0.999999 16:-0.95 17:-0.467348 18:-0.686275 19:-0.818182 20:-1 21:-0.555556 22:-0.621622 23:-0.857143 24:-1 25:-0.727273 
1.5 1:-0.73913 2:-0.851852 3:-1 4:-0.818182 5:-0.848101 6:-0.98781 7:-0.876903 8:-0.766234 9:-0.98781 10:-0.764706 11:-0.966999 12:-1 13:-0.876911 14:-1 15:-0.22051 16:-0.95 17:-0.22051 18:-1 19:-1 20:-1 21:-1 22:-0.837838 23:-0.857143 24:-1 25:-0.477273 
1.5 1:-0.478261 2:-0.425926 3:-1 4:-0.373737 5:-1 6:-1 7:-0.888412 8:-0.168831 9:-1 10:-0.960784 11:-0.962763 12:-0.882353 13:-0.868217 14:-0.857143 15:-0.91339 16:-0.75 17:-0.22051 18:-0.960784 19:-0.636364 20:-1 21:-1 22:-0.621622 23:-0.714286 24:-1 25:-0.363636 
1.5 1:-0.565217 2:-0.648148 3:-1 4:-0.59596 5:-0.848101 6:-0.997228 7:-0.885795 8:-0.480519 9:-0.997228 10:-0.764706 11:-0.990485 12:-0.764706 13:-0.846545 14:-1 15:-0.22051 16:-1 17:0.299151 18:-0.921569 19:-0.636364 20:-0.428571 21:-1 22:-0.891892 23:-0.714286 24:-1 25:-0.613636 
1.5 1:-0.304348 2:-0.444444 3:-1 4:-0.515152 5:-0.898734 6:-0.985695 7:-0.846579 8:-0.532468 9:-0.955695 10:-0.921569 11:-0.966999 12:-1 13:-0.853134 14:-1 15:0.299151 16:-0.9 17:-0.82678 18:-0.921569 19:-0.909091 20:-0.904762 21:-0.777778 22:-0.513514 23:-0.285714 24:-1 25:-0.454545 
1.5 1:-0.304348 2:-0.462963 3:-1 4:-0.717172 5:-0.924051 6:-0.95802 7:-0.868361 8:-0.922078 9:-0.95802 10:-0.960784 11:-0.962763 12:-0.764706 13:-0.885828 14:-1 15:0.999999 16:-1 17:-0.22051 18:-0.921569 19:-0.818182 20:-0.904762 21:-0.333333 22:-0.567568 23:-0.142857 24:-1 25:-0.522727 
1.5 1:-0.565217 2:-0.796296 3:-1 4:-0.757576 5:-1 6:-0.946391 7:-0.837794 8:-0.766234 9:-0.946391 10:-0.882353 11:-0.962763 12:-0.764706 13:-0.846545 14:-1 15:0.999999 16:-1 17:-0.467348 18:-0.803922 19:-1 20:-0.904762 21:-1 22:-0.837838 23:-0.714286 24:-1 25:-0.795455 
1.5 1:-0.565217 2:-0.703704 3:-1 4:-0.676768 5:-0.822785 6:-0.992671 7:-0.876905 8:-0.922078 9:-0.978764 10:-0.921569 11:-0.962763 12:-0.882353 13:-0.852758 14:-1 15:-0.22051 16:-1 17:0.999999 18:-0.960784 19:-1 20:-0.904762 21:-0.555556 22:-0.783784 23:-0.857143 24:-1 25:-0.659091 
1.5 1:-0.304348 2:-0.666667 3:1 4:-0.919192 5:-0.822785 6:-0.992671 7:-0.848777 8:-0.948052 9:-0.958023 10:-0.960784 11:-0.962763 12:-0.882353 13:-0.881369 14:-0.857143 15:-0.902 16:-1 17:-0.902 18:-0.882353 19:-0.636364 20:-0.809524 21:-0.777778 22:-0.72973 23:-1 24:-1 25:-0.545455 
1.5 1:-0.826087 2:-0.777778 3:1 4:-0.939394 5:-0.772152 6:-1 7:-0.888412 8:-0.896104 9:-1 10:-0.607843 11:-0.953069 12:-0.764706 13:-0.883782 14:-1 15:0.299151 16:-1 17:-0.91339 18:-0.921569 19:-0.727273 20:-0.904762 21:-1 22:-0.783784 23:-0.857143 24:-1 25:-0.431818 
1.5 1:0.130435 2:-0.0185185 3:-1 4:0.0707071 5:-0.670886 6:-0.992671 7:-0.846229 8:-0.584416 9:-0.985832 10:-0.921569 11:-0.962763 12:-0.764706 13:-0.846545 14:-1 15:0.999999 16:-1 17:0.299151 18:-0.72549 19:-0.454545 20:-0.904762 21:-0.333333 22:0.027027 23:0.142857 24:-1 25:-0.0681818 
1.5 1:-0.0434783 2:-0.5 3:1 4:-1 5:-0.367089 6:-0.981372 7:-0.870824 8:-0.922078 9:-0.992671 10:-0.921569 11:-0.966999 12:-1 13:-0.853134 14:-1 15:0.299151 16:-0.8 17:0.999999 18:-1 19:-0.818182 20:-1 21:-0.111111 22:-0.567568 23:-0.428571 24:-1 25:-0.454545 
1.5 1:-0.73913 2:-0.851852 3:-1 4:-0.818182 5:-0.848101 6:-0.98786 7:-0.87695 8:-0.766234 9:-0.98786 10:-0.764706 11:-0.992836 12:-0.764706 13:-0.881524 14:-0.857143 15:-0.467348 16:-1 17:0.299151 18:-1 19:-1 20:-0.904762 21:-1 22:-0.891892 23:-0.857143 24:-1 25:-0.772727 
1.5 1:-0.217391 2:-0.314815 3:1 4:-0.939394 5:-0.64557 6:-0.990488 7:-0.879431 8:-0.948052 9:-0.978743 10:-0.72549 11:-0.987814 12:-0.882353 13:-0.846545 14:-1 15:0.299151 16:-1 17:-0.467348 18:-0.921569 19:-0.363636 20:-1 21:-0.777778 22:-0.459459 23:-0.857143 24:-0.333333 25:-0.568182 
1.5 1:-0.217391 2:-0.425926 3:-1 4:-0.535354 5:-1 6:-0.97874 7:-0.846579 8:-0.844156 9:-0.97874 10:-0.764706 11:-0.966999 12:-1 13:-0.853134 14:-1 15:0.299151 16:-0.95 17:0.999999 18:-0.764706 19:-0.545455 20:-0.809524 21:-0.777778 22:-0.513514 23:-0.285714 24:-1 25:-0.340909 
1.5 1:-0.478261 2:-0.592593 3:1 4:-0.858586 5:-0.544304 6:-0.958019 7:-0.848774 8:-0.896104 9:-0.958022 10:-0.921569 11:-0.987814 12:-0.882353 13:-0.883434 14:-1 15:0.299151 16:-1 17:0.999999 18:-1 19:-0.818182 20:-1 21:-0.555556 22:-0.621622 23:-0.571429 24:-1 25:-0.681818 
1.5 1:-0.73913 2:-0.796296 3:1 4:-0.979798 5:-0.797468 6:-1 7:-0.888412 8:-0.948052 9:-1 10:-0.647059 11:-0.962763 12:-0.882353 13:-0.844197 14:-0.714286 15:0.299151 16:-0.95 17:0.299151 18:-0.843137 19:-0.909091 20:-1 21:-1 22:-0.837838 23:-1 24:-1 25:-0.886364 
1.5 1:-0.217391 2:-0.277778 3:-1 4:-0.212121 5:-0.518987 6:-0.992671 7:-0.881492 8:-0.766234 9:-0.958019 10:-0.960784 11:-0.962763 12:-0.764706 13:-0.852758 14:-1 15:0.999999 16:-1 17:-0.22051 18:-0.960784 19:-0.545455 20:-0.904762 21:-0.555556 22:-0.243243 23:-0.285714 24:-1 25:-0.431818 
1.5 1:-0.478261 2:-0.425926 3:1 4:-0.757576 5:-0.240506 6:-0.992671 7:-0.870824 8:-0.87013 9:-0.958023 10:-0.72549 11:-0.962763 12:-0.764706 13:-0.876911 14:-1 15:0.999999 16:-1 17:0.999999 18:-0.294118 19:-1 20:-0.809524 21:-0.111111 22:-0.405405 23:-0.714286 24:-1 25:-0.386364 
1.5 1:-0.130435 2:-0.37037 3:1 4:-0.919192 5:-0.164557 6:-0.992671 7:-0.881492 8:-0.974026 9:-0.997603 10:-0.45098 11:-0.966999 12:-1 13:-0.876911 14:-1 15:0.999999 16:-0.95 17:-0.91339 18:-1 19:-0.636364 20:-0.809524 21:-0.555556 22:-0.405405 23:-0.714286 24:-1 25:-0.25 
1.5 1:-0.73913 2:-0.851852 3:1 4:-0.919192 5:-0.822785 6:-0.992671 7:-0.881492 8:-0.896104 9:-0.969416 10:-0.921569 11:-0.990488 12:-0.882353 13:-0.874846 14:-1 15:0.999999 16:-0.95 17:-0.46462 18:-1 19:-1 20:-0.904762 21:-0.777778 22:-0.891892 23:-0.857143 24:-1 25:-0.568182 
1.5 1:-0.565217 2:-0.703704 3:-1 4:-0.79798 5:-0.924051 6:-1 7:-0.888412 8:-0.714286 9:-1 10:-0.843137 11:-0.988231 12:-0.764706 13:-0.852981 14:-0.714286 15:-0.22051 16:-1 17:0.299151 18:-1 19:-0.909091 20:-0.904762 21:-1 22:-0.783784 23:-0.571429 24:-1 25:-0.636364 
1.5 1:-0.130435 2:-0.314815 3:-1 4:-0.252525 5:-0.797468 6:-0.990578 7:-0.879516 8:-0.038961 9:-0.990578 10:-0.686275 11:-0.966999 12:-1 13:-0.84613 14:-0.857143 15:-0.22051 16:-0.85 17:0.396336 18:-1 19:-0.636364 20:-0.714286 21:-1 22:-0.567568 23:-0.571429 24:-1 25:-0.318182 
1.5 1:-0.826087 2:-0.944444 3:-1 4:-0.919192 5:-0.949367 6:-1 7:-0.888412 8:-0.87013 9:-1 10:-0.882353 11:-0.955788 12:-0.764706 13:-0.846545 14:-1 15:-0.22051 16:-1 17:-0.22051 18:-1 19:-1 20:-0.904762 21:-1 22:-1 23:-1 24:-1 25:-0.522727 
1.5 1:-0.304348 2:-0.5 3:1 4:-0.979798 5:-0.443038 6:-0.978742 7:-0.868341 8:-0.844156 9:-0.987926 10:-0.803922 11:-0.962369 12:-0.764706 13:-0.853044 14:-1 15:0.299151 16:-0.9 17:-0.91339 18:-0.882353 19:-0.727273 20:-0.809524 21:-0.777778 22:-0.621622 23:-0.571429 24:-0.333333 25:-0.409091 
1.5 1:-0.217391 2:-0.277778 3:-1 4:-0.232323 5:-0.544304 6:-0.992671 7:-0.881492 8:-0.766234 9:-0.958019 10:-0.960784 11:-0.962763 12:-0.764706 13:-0.885935 14:-0.857143 15:0.999999 16:-1 17:-0.22051 18:-0.960784 19:-0.545455 20:-0.904762 21:-0.555556 22:-0.351351 23:-0.285714 24:-1 25:-0.431818 
1.5 1:-0.565217 2:-0.851852 3:1 4:-0.979798 5:-0.772152 6:-0.992671 7:-0.881492 8:-0.896104 9:-0.992671 10:-0.843137 11:-0.981279 12:-0.882353 13:-0.846545 14:-1 15:0.999999 16:-0.7 17:0.999999 18:-1 19:-1 20:-1 21:-1 22:-0.783784 23:-1 24:-1 25:-0.545455 
1.5 1:-0.478261 2:-0.796296 3:1 4:-0.979798 5:-0.772152 6:-1 7:-0.888412 8:-0.948052 9:-1 10:-0.607843 11:-0.966999 12:-1 13:-0.881675 14:-1 15:-0.22051 16:-1 17:-0.22051 18:-1 19:-1 20:-1 21:-1 22:-0.783784 23:-0.714286 24:-1 25:-0.636364 
1.5 1:-0.304348 2:-0.166667 3:1 4:-0.79798 5:-0.113924 6:-0.969651 7:-0.859756 8:-0.948052 9:-0.978742 10:-0.960784 11:-0.962763 12:-0.764706 13:-0.859546 14:-0.714286 15:0.999999 16:-1 17:0.299151 18:-0.803922 19:-0.636364 20:-0.619048 21:-0.555556 22:-0.513514 23:-0.428571 24:-1 25:-0.318182 
1.5 1:-0.826087 2:-0.888889 3:1 4:-0.979798 5:-0.873418 6:-0.98781 7:-0.876903 8:-0.974026 9:-0.98781 10:-0.803922 11:-0.987814 12:-0.882353 13:-0.874846 14:-1 15:-0.46462 16:-0.9 17:-0.46462 18:-1 19:-1 20:-0.904762 21:-1 22:-0.837838 23:-1 24:-1 25:-0.704545 
1.5 1:-0.304348 2:-0.296296 3:-1 4:-0.535354 5:-0.822785 6:-0.978764 7:-0.886124 8:-0.974026 9:-0.978764 10:-0.882353 11:-0.966999 12:-1 13:-0.876911 14:-1 15:0.299151 16:-0.95 17:0.299151 18:-0.843137 19:-0.545455 20:-0.809524 21:-0.555556 22:-0.459459 23:-0.428571 24:-1 25:-0.409091 
1.5 1:-0.652174 2:-0.925926 3:-1 4:-0.89899 5:-0.974684 6:-1 7:-0.888412 8:-0.844156 9:-1 10:-0.921569 11:-0.962763 12:-0.764706 13:-0.885828 14:-1 15:0.999999 16:-1 17:-0.22051 18:-1 19:-1 20:-0.904762 21:-1 22:-0.945946 23:-0.857143 24:-1 25:-0.75 
1.5 1:-0.391304 2:-0.685185 3:1 4:-0.919192 5:-0.64557 6:-0.992671 7:-0.881492 8:-0.896104 9:-0.992671 10:-0.45098 11:-0.962763 12:-0.882353 13:-0.852758 14:-1 15:0.299151 16:-1 17:0.299151 18:-0.960784 19:-0.818182 20:-0.904762 21:-1 22:-0.783784 23:-0.571429 24:-1 25:-0.613636 
1.5 1:-0.478261 2:-0.611111 3:1 4:-0.939394 5:-0.518987 6:-0.953069 7:-0.844099 8:-0.974026 9:-0.953069 10:-0.411765 11:-0.966999 12:-1 13:-0.876911 14:-1 15:-0.22051 16:-0.95 17:0.999999 18:-0.843137 19:-0.636364 20:-0.904762 21:-1 22:-0.837838 23:-0.857143 24:-1 25:-0.477273 
1.5 1:-0.217391 2:-0.648148 3:1 4:-0.919192 5:-0.696203 6:-0.981372 7:-0.870824 8:-0.948052 9:-0.953463 10:-0.843137 11:-0.995325 12:-0.764706 13:-0.883434 14:-1 15:0.299151 16:-1 17:0.390091 18:-0.882353 19:-0.818182 20:-0.904762 21:-0.333333 22:-0.72973 23:-0.714286 24:-1 25:-0.727273 
1.5 1:-0.652174 2:-0.814815 3:-1 4:-0.858586 5:-0.898734 6:-0.978976 7:-0.874905 8:-0.948052 9:-0.978976 10:-0.843137 11:-0.966999 12:-1 13:-0.843978 14:-0.857143 15:-0.22051 16:-1 17:-0.467348 18:-1 19:-1 20:-1 21:-0.777778 22:-0.783784 23:-0.857143 24:-1 25:-0.704545 
1.5 1:-0.478261 2:-0.611111 3:-1 4:-0.575758 5:-0.772152 6:-0.97907 7:-0.841881 8:-0.87013 9:-0.97907 10:-0.803922 11:-0.953069 12:-0.764706 13:-0.881369 14:-0.857143 15:0.299151 16:-1 17:0.999999 18:-0.803922 19:-0.636364 20:-0.714286 21:-0.777778 22:-0.783784 23:-0.714286 24:-1 25:-0.704545 
1.5 1:-0.304348 2:-0.666667 3:1 4:-0.919192 5:-0.822785 6:-0.992671 7:-0.848777 8:-0.948052 9:-0.958023 10:-0.960784 11:-0.962763 12:-0.882353 13:-0.881369 14:-0.857143 15:-0.902 16:-1 17:-0.902 18:-0.882353 19:-0.636364 20:-0.809524 21:-0.777778 22:-0.72973 23:-1 24:-1 25:-0.545455 
1.5 1:-0.304348 2:-0.759259 3:-1 4:-0.737374 5:-1 6:-0.97907 7:-0.86865 8:-0.74026 9:-0.97907 10:-0.882353 11:-0.966999 12:-1 13:-0.883782 14:-1 15:-0.22051 16:-0.95 17:-0.467348 18:-0.803922 19:-1 20:-0.904762 21:-1 22:-0.783784 23:-0.714286 24:-1 25:-0.636364 
1.5 1:-0.565217 2:-0.814815 3:-1 4:-0.878788 5:-1 6:-1 7:-0.888412 8:-0.818182 9:-1 10:-0.960784 11:-0.962763 12:-0.882353 13:-0.852893 14:-0.571429 15:-0.22051 16:-1 17:-0.22051 18:-0.843137 19:-1 20:-1 21:-1 22:-0.837838 23:-1 24:-1 25:-0.636364 
1.5 1:-0.826087 2:-0.944444 3:-1 4:-0.919192 5:-0.974684 6:-1 7:-0.888412 8:-0.87013 9:-1 10:-0.921569 11:-0.985763 12:-0.647059 13:-0.874846 14:-1 15:-0.22051 16:-0.95 17:-0.22051 18:-1 19:-1 20:-0.904762 21:-1 22:-1 23:-1 24:-1 25:-0.727273 
1.5 1:0.0434783 2:-0.037037 3:1 4:-0.979798 5:-0.64557 6:-0.946391 7:-0.837794 8:-0.792208 9:-0.946391 10:-0.803922 11:-0.953135 12:-0.882353 13:-0.88137 14:-0.857143 15:-0.22051 16:-0.55 17:-0.22051 18:-0.921569 19:0.272727 20:-0.809524 21:-0.555556 22:-0.405405 23:-0.285714 24:-1 25:-0.318182 
1.5 1:-0.217391 2:-0.611111 3:1 4:-0.939394 5:-0.468354 6:-0.946391 7:-0.837794 8:-0.896104 9:-0.992671 10:-0.843137 11:-0.95072 12:-0.882353 13:-0.883434 14:-1 15:0.299151 16:-0.95 17:0.739138 18:-1 19:-0.818182 20:-0.714286 21:-0.555556 22:-0.72973 23:-0.428571 24:-1 25:-0.704545 
